
\data\
ngram 1=22329
ngram 2=0
ngram 3=0

\1-grams:
-3.470617	</s>
-3.470617	<noise>
-99	<s>
-3.470617	<v-noise>
-3.470617	__Abraham_Solomon
-3.470617	__Admiralty_Greens
-3.470617	__Admiralty_Road
-3.470617	__Admiralty_West
-3.470617	__Ah_Hood_Road
-3.470617	__Aida_Street
-3.470617	__Airline_Road
-3.470617	__Airport_Cargo_Road
-3.470617	__Al_Islamiah
-3.470617	__Al_Islamic
-3.470617	__Alex_Josey
-3.470617	__Alexander_Laurie_Johnston
-3.470617	__Alexandra_Lane
-3.470617	__Alexandra_Road
-3.470617	__Aliman_Hassan
-3.470617	__Aljunied_Avenue
-3.470617	__Aljunied_Crescent
-3.470617	__Aljunied_Hussein
-3.470617	__Aljunied_Neighbourhood
-3.470617	__Aljunied_Road
-3.470617	__Alnwick_Road
-3.470617	__Amasalam_Chetty_Road
-3.470617	__Anak_Bukit
-3.470617	__Anchorvale_Drive
-3.470617	__Anchorvale_Street
-3.470617	__Ang_Mo_Kio
-3.470617	__Ang_Mo_Kio_Street
-3.470617	__Ang_Peng_Tiam
-3.470617	__Angsana_Avenue
-3.470617	__Angsana_Drive
-3.470617	__Ann_Siang_Hill
-3.470617	__Anthony_Road
-3.470617	__Arab_Street
-3.470617	__Arrival_Crescent
-3.470617	__Arts_Link
-3.470617	__Arumugam_Road
-3.470617	__Asia_Pacific
-3.470617	__Asia_Square
-3.470617	__Asimont_Lane
-3.470617	__Attap_Valley_Lane
-3.470617	__Au_Yun_Pak
-3.470617	__Auckland_Road_West
-3.470617	__Australian_International
-3.470617	__Ava_Road
-3.470617	__Avon_Road
-3.470617	__Baker_Street
-3.470617	__Bali_Lane
-3.470617	__Balmoral_Crescent
-3.470617	__Bao_Gong
-3.470617	__Bartley_Road
-3.470617	__Beach_Road
-3.470617	__Beatty_Road
-3.470617	__Bedok_Anchorvale_Crescent
-3.470617	__Bedok_Green
-3.470617	__Bedok_Lighthouse
-3.470617	__Bedok_North
-3.470617	__Bedok_Point
-3.470617	__Bedok_Points
-3.470617	__Bedok_Reservoir
-3.470617	__Bedok_Ria_Crescent
-3.470617	__Bedok_South
-3.470617	__Bedok_View
-3.470617	__Beeh_Low_See
-3.470617	__Begonia_Walk
-3.470617	__Belilios_Lane
-3.470617	__Belmont_Road
-3.470617	__Bernice_Ong
-3.470617	__Bethlehem_Bible_Presbyterian
-3.470617	__Binchang_Rise
-3.470617	__Bishan_Point
-3.470617	__Bishan_Street
-3.470617	__Blackmore_Drive
-3.470617	__Bliss_Hotel
-3.470617	__Blue_Cross
-3.470617	__Blue_Stars
-3.470617	__Bo_Seng_Avenue
-3.470617	__Boarding_House
-3.470617	__Boat_Quay
-3.470617	__Bodmin_Drive
-3.470617	__Bonham_Street
-3.470617	__Boon_Keng
-3.470617	__Boon_Lay
-3.470617	__Boon_Lay_Place
-3.470617	__Boon_Tat_Street
-3.470617	__Boon_Teck_Road
-3.470617	__Borthwick_Drive
-3.470617	__Boundary_Road
-3.470617	__Braddell_Road
-3.470617	__Brani_Drive
-3.470617	__Brani_Marine
-3.470617	__Brani_Way
-3.470617	__Bridport_Avenue
-3.470617	__Bright_Hill
-3.470617	__Bristol_Road
-3.470617	__Buangkok_View
-3.470617	__Bukit_Batok
-3.470617	__Bukit_Batok_Avenue
-3.470617	__Bukit_Batok_Avenue_West
-3.470617	__Bukit_Batok_Central
-3.470617	__Bukit_Batok_Central_Link
-3.470617	__Bukit_Batok_Crescent
-3.470617	__Bukit_Batok_East
-3.470617	__Bukit_Batok_East_Avenue
-3.470617	__Bukit_Batok_Road
-3.470617	__Bukit_Batok_Street
-3.470617	__Bukit_Batok_West
-3.470617	__Bukit_Batok_West_Avenue
-3.470617	__Bukit_Chandu
-3.470617	__Bukit_Ho_Swee_Link
-3.470617	__Bukit_Manis_Road
-3.470617	__Bukit_Merah
-3.470617	__Bukit_Merah_View
-3.470617	__Bukit_Mugliston
-3.470617	__Bukit_Sedap_Road
-3.470617	__Bukit_Teresa_Close
-3.470617	__Bukit_Timah
-3.470617	__Bukit_Timah_Avenue
-3.470617	__Bukit_Timah_Link
-3.470617	__Bukit_Timah_Plaza
-3.470617	__Bukit_Timah_Road
-3.470617	__Bukit_Tinggi_Road
-3.470617	__Burmah_Road
-3.470617	__Burmese_Buddhist
-3.470617	__Bury_Road
-3.470617	__Buyong_Road
-3.470617	__Canberra_View
-3.470617	__Canning_Lane
-3.470617	__Canning_Rise
-3.470617	__Cantonment_Complex
-3.470617	__Carisbrooke_Grove
-3.470617	__Carl_Alexander
-3.470617	__Carlton_Avenue
-3.470617	__Carnation_Drive
-3.470617	__Cashew_Crescent
-3.470617	__Cashew_Road
-3.470617	__Cassia_Crescent
-3.470617	__Ceylon_Road
-3.470617	__Chai_Chee
-3.470617	__Chai_Chee_Drive
-3.470617	__Chai_Chee_Street
-3.470617	__Chan_Chun_Sing
-3.470617	__Chan_Sek_Keong
-3.470617	__Chancery_Lane
-3.470617	__Chang_Ziang
-3.470617	__Changi_Business_Park_Vista
-3.470617	__Changi_Coast
-3.470617	__Changi_East_Drive
-3.470617	__Changi_East_Road
-3.470617	__Changi_South_Lane
-3.470617	__Changi_Village_Road
-3.470617	__Changkat_Changi
-3.470617	__Chatsworth_Road
-3.470617	__Cheang_Hong_Lim_Place
-3.470617	__Cheang_Hong_Lim_Street
-3.470617	__Chencharu_Lane
-3.470617	__Chencharu_Link
-3.470617	__Cheo_Kim_Ban
-3.470617	__Chestnut_Crescent
-3.470617	__Chew_Kheng_Chuan
-3.470617	__Chin_Bee_Road
-3.470617	__Chin_Cheng_Avenue
-3.470617	__Chin_Chew_Street
-3.470617	__Chin_Swee
-3.470617	__China_Street
-3.470617	__Chinatown_Complex
-3.470617	__Chinatown_Hotel
-3.470617	__Chinatown_Point
-3.470617	__Chinese_Garden
-3.470617	__Chinese_Garden_Road
-3.470617	__Choa_Chu_Kang
-3.470617	__Choa_Chu_Kang_Loop
-3.470617	__Choa_Chu_Kang_West
-3.470617	__Chong_Pang
-3.470617	__Chong_Pang_Combined
-3.470617	__Chong_You_Fook_Charles
-3.470617	__Chong_Zheng
-3.470617	__Choon_Guan_Street
-3.470617	__Choor_Singh_Sidhu
-3.470617	__Christalite_Methodist
-3.470617	__Christopher_Henry_Rothwell
-3.470617	__Chu_Siang_Tong
-3.470617	__Chuan_Hoe_Avenue
-3.470617	__Chuan_Walk
-3.470617	__Chulia_Street
-3.470617	__Chwee_Chian_View
-3.470617	__Circular_Road
-3.470617	__Claymore_Road
-3.470617	__Cleantech_View
-3.470617	__Clementi_Street
-3.470617	__Clive_Street
-3.470617	__Clunny_Hill
-3.470617	__Colchester_Grove
-3.470617	__College_Of_Medicine
-3.470617	__Collyer_Quay
-3.470617	__Compassvale_Drive
-3.470617	__Compassvale_Road
-3.470617	__Coney_Island
-3.470617	__Connexis_South
-3.470617	__Constance_Singam
-3.470617	__Cook_Street
-3.470617	__Copeland_Avenue
-3.470617	__Copthorne_King'S
-3.470617	__Corfe_Place
-3.470617	__Corporation_Road
-3.470617	__Countryside_Grove
-3.470617	__Countryside_View
-3.470617	__Court_Road
-3.470617	__Covenant_Community_Methodist
-3.470617	__Craig_Road
-3.470617	__Cranborne_Road
-3.470617	__Creek_Mangrove
-3.470617	__Croucher_Road
-3.470617	__Crowhurst_Drive
-3.470617	__Cuff_Road
-3.470617	__Cuscaden_Walk
-3.470617	__Da_Bo_Gong
-3.470617	__Daffodil_Drive
-3.470617	__Dahan_Road
-3.470617	__Dairy_Farm
-3.470617	__Dairy_Farm_Crescent
-3.470617	__Dalkeith_Road
-3.470617	__Darrell_Ang
-3.470617	__Dawson_North_Spring
-3.470617	__Dedap_Road
-3.470617	__Delta_Avenue
-3.470617	__Depot_Close
-3.470617	__Depot_Walk
-3.470617	__Devan_Nair
-3.470617	__Dimensions_International
-3.470617	__Dinding_Place
-3.470617	__Dock_Road_East
-3.470617	__Dock_Road_West
-3.470617	__Douglas_Hamilton
-3.470617	__Dover_Drive
-3.470617	__Drake_Avenue
-3.470617	__Drake_Lane
-3.470617	__Dunlop_Street
-3.470617	__Duxton_Road
-3.470617	__East_Avenue
-3.470617	__East_Coast_Avenue
-3.470617	__East_Spring
-3.470617	__Eastern_Health_Alliance
-3.470617	__Eau_Thermale_Avene
-3.470617	__Edgware_Road
-3.470617	__Edmund_Blundell
-3.470617	__Edmund_Chen
-3.470617	__Edwin_Browns
-3.470617	__Ee_Teow_Leng_Road
-3.470617	__Elias_Green
-3.470617	__Elias_Park_Avenue
-3.470617	__Ellice_Handy
-3.470617	__Empress_Road
-3.470617	__Eng_Hoon_Street
-3.470617	__Eng_Kong_Road
-3.470617	__Eng_Neo_Avenue
-3.470617	__Ernani_Street
-3.470617	__Esther_Tan
-3.470617	__Eu_Yee_Ming_Richard
-3.470617	__Eunos_Avenue
-3.470617	__Evolution_Garden_Walk
-3.470617	__Faber_Walk
-3.470617	__Fairway_Club
-3.470617	__Fairy_Point_Hill
-3.470617	__Faith_Methodist
-3.470617	__Faith_Sanctuary_Garden_Avenue
-3.470617	__Famous_Amos
-3.470617	__Fan_Yoong_Road
-3.470617	__Farrer_Garden
-3.470617	__Farrer_Park
-3.470617	__Fernvale_Lane
-3.470617	__Fire_Station
-3.470617	__Flint_Street
-3.470617	__Florence_Road
-3.470617	__Flower_Road
-3.470617	__Fo_Shan_Ting
-3.470617	__Foch_Road
-3.470617	__Folkestone_Road
-3.470617	__Fortune_Students
-3.470617	__Fourth_Street
-3.470617	__Francis_Thomas_Drive
-3.470617	__Fuk_Tak_Chi
-3.470617	__Fullerton_Bay
-3.470617	__Fulton_Avenue
-3.470617	__Fusionopolis_Walk
-3.470617	__Gallop_Park
-3.470617	__Gallop_Road
-3.470617	__Gambir_Walk
-3.470617	__Gan_Eng_Seng
-3.470617	__Gateway_Avenue
-3.470617	__Gateway_Inn
-3.470617	__George_Nigel
-3.470617	__Gerald_Crescent
-3.470617	__Geylang_Bahru
-3.470617	__Geylang_Bahru_Lane
-3.470617	__Geylang_Bahru_Terrace
-3.470617	__Geylang_East_Avenue
-3.470617	__Geylang_East_Central
-3.470617	__Geylang_Lorong
-3.470617	__Geylang_Lorong_Labang
-3.470617	__Geylang_Methodist
-3.470617	__Geylang_Methodist_School
-3.470617	__Geylang_Road
-3.470617	__Geylang_Serai
-3.470617	__Geylang_Square
-3.470617	__Geylang_United
-3.470617	__Giant_Spring
-3.470617	__Gibraltar_Crescent
-3.470617	__Gibson_Hill
-3.470617	__Gilstead_Road
-3.470617	__Giok_Hong_Tian
-3.470617	__Goldhill_Place
-3.470617	__Gopeng_Street
-3.470617	__Gordon_Arthur_Ransome
-3.470617	__Grace_Walk
-3.470617	__Great_World
-3.470617	__Green_Kiwi_Backpacker
-3.470617	__Green_Taipei
-3.470617	__Green_Zeng
-3.470617	__Greendale_Rise
-3.470617	__Greenfield_Drive
-3.470617	__Greenridge_Crescent
-3.470617	__Greenwich_Drive
-3.470617	__Grove_Crescent
-3.470617	__Guillemard_Lane
-3.470617	__Guillemard_Road
-3.470617	__Gul_Lane
-3.470617	__Gul_Street
-3.470617	__Guok_Avenue
-3.470617	__Gurkha_Contingent
-3.470617	__Hai_Sing_Crescent
-3.470617	__Haigsville_Drive
-3.470617	__Haji_Lane
-3.470617	__Halifax_Road
-3.470617	__Hamilton_Place
-3.470617	__Hampstead_Garden
-3.470617	__Hang_Chang_Chieh
-3.470617	__Happy_Hotel
-3.470617	__Harlyn_Road
-3.470617	__Harrison_Road
-3.470617	__Havelock_Road
-3.470617	__Hiang_Foo_Siang_Temple
-3.470617	__Hillview_Avenue
-3.470617	__Hilton_International
-3.470617	__Hindhede_Road
-3.470617	__Hindoo_Road
-3.470617	__Ho_Ching_Road
-3.470617	__Ho_Lee_Ling
-3.470617	__Ho_Ling
-3.470617	__Hock_Chuan
-3.470617	__Holland_Grove_Lane
-3.470617	__Holland_Hill
-3.470617	__Holland_Village
-3.470617	__Home_Team_Academy
-3.470617	__Hong_Kah
-3.470617	__Hong_San
-3.470617	__Hospital_Avenue
-3.470617	__Hougang_Avenue
-3.470617	__Hougang_One
-3.470617	__How_Sun_Drive
-3.470617	__How_Sun_Road
-3.470617	__How_Sun_Walk
-3.470617	__Hsu_Tse_Kwang
-3.470617	__Hubert_Hill
-3.470617	__Hume_Avenue
-3.470617	__Hussein_Aljunied
-3.470617	__Hwee_Kuan
-3.470617	__Hythe_Road
-3.470617	__Imbiah_Walk
-3.470617	__Inderjit_Singh
-3.470617	__Inggu_Road
-3.470617	__Institute_Of_Engineer_Singapore
-3.470617	__International_Student_Support
-3.470617	__Ipoh_Lane
-3.470617	__Iqbal_Avenue
-3.470617	__Irving_Place
-3.470617	__Jalan_Anak_Bukit
-3.470617	__Jalan_Azam'S
-3.470617	__Jalan_Baiduri
-3.470617	__Jalan_Bangsawan
-3.470617	__Jalan_Basong
-3.470617	__Jalan_Batu_Ubin
-3.470617	__Jalan_Bena
-3.470617	__Jalan_Berjaya
-3.470617	__Jalan_Berseri
-3.470617	__Jalan_Binja
-3.470617	__Jalan_Binjai
-3.470617	__Jalan_Boon_Lay
-3.470617	__Jalan_Bumbong
-3.470617	__Jalan_Bunga_Rampai
-3.470617	__Jalan_Bungar
-3.470617	__Jalan_Chengkek
-3.470617	__Jalan_Dondang_Sayang
-3.470617	__Jalan_Dua
-3.470617	__Jalan_Dusun
-3.470617	__Jalan_Enam
-3.470617	__Jalan_Gemala
-3.470617	__Jalan_Girang
-3.470617	__Jalan_Greja
-3.470617	__Jalan_Hajijah
-3.470617	__Jalan_Hari_Raya
-3.470617	__Jalan_Jeruju
-3.470617	__Jalan_Jong
-3.470617	__Jalan_Kampong_Chantek
-3.470617	__Jalan_Kampong_Siglap
-3.470617	__Jalan_Kayu_Manis
-3.470617	__Jalan_Kechil
-3.470617	__Jalan_Keli
-3.470617	__Jalan_Kemaman
-3.470617	__Jalan_Keruing
-3.470617	__Jalan_Kesoma
-3.470617	__Jalan_Khairuddin
-3.470617	__Jalan_Klapa
-3.470617	__Jalan_Kledek
-3.470617	__Jalan_Klinik
-3.470617	__Jalan_Kwok_Min
-3.470617	__Jalan_Lana
-3.470617	__Jalan_Langgar_Bedok
-3.470617	__Jalan_Lapang
-3.470617	__Jalan_Layang_Layang
-3.470617	__Jalan_Lembah_Bedok
-3.470617	__Jalan_Lempeng
-3.470617	__Jalan_Lengkok
-3.470617	__Jalan_Lengkok_Sembawang
-3.470617	__Jalan_Limau_Bali
-3.470617	__Jalan_Limau_Nipis
-3.470617	__Jalan_Limau_Purut
-3.470617	__Jalan_Limbok
-3.470617	__Jalan_Mamam
-3.470617	__Jalan_Mangkok
-3.470617	__Jalan_Manis
-3.470617	__Jalan_Mastuli
-3.470617	__Jalan_Membina
-3.470617	__Jalan_Mempurong
-3.470617	__Jalan_Mengkudu
-3.470617	__Jalan_Mesra
-3.470617	__Jalan_Minggu
-3.470617	__Jalan_Minyak
-3.470617	__Jalan_Noordin
-3.470617	__Jalan_Novena
-3.470617	__Jalan_Nuri
-3.470617	__Jalan_Paras
-3.470617	__Jalan_Pari_Kikis
-3.470617	__Jalan_Pelangi
-3.470617	__Jalan_Pelatina
-3.470617	__Jalan_Pelatok
-3.470617	__Jalan_Pelepah
-3.470617	__Jalan_Pelikat
-3.470617	__Jalan_Peradun
-3.470617	__Jalan_Pinang
-3.470617	__Jalan_Puteri
-3.470617	__Jalan_Rajah
-3.470617	__Jalan_Rebana
-3.470617	__Jalan_Remis
-3.470617	__Jalan_Rendang
-3.470617	__Jalan_Rukam
-3.470617	__Jalan_Sabit
-3.470617	__Jalan_Seh_Chuan
-3.470617	__Jalan_Selamat
-3.470617	__Jalan_Selimang
-3.470617	__Jalan_Senang
-3.470617	__Jalan_Sendudok
-3.470617	__Jalan_Senyum
-3.470617	__Jalan_Setia
-3.470617	__Jalan_Shaer
-3.470617	__Jalan_Siap
-3.470617	__Jalan_Simpang_Bedok
-3.470617	__Jalan_Sukachita
-3.470617	__Jalan_Sungei_Poyan
-3.470617	__Jalan_Tan_Tock_Seng
-3.470617	__Jalan_Tanah
-3.470617	__Jalan_Tanah_Rata
-3.470617	__Jalan_Tanjong
-3.470617	__Jalan_Tari_Lilin
-3.470617	__Jalan_Tari_Zapin
-3.470617	__Jalan_Tarum
-3.470617	__Jalan_Tenang
-3.470617	__Jalan_Tenteram
-3.470617	__Jalan_Tepong
-3.470617	__Jalan_Tiga_Ratus
-3.470617	__Jalan_Ulu_Seletar
-3.470617	__Jalan_Ulu_Sembawang
-3.470617	__Jalan_Wajek
-3.470617	__Jalan_Yasin
-3.470617	__Jalan_Zamrud
-3.470617	__Jamaica_Road
-3.470617	__Janet_Lim
-3.470617	__Janil_Puthucheary
-3.470617	__Jervois_Hill
-3.470617	__Ji_Huang_Kok
-3.470617	__Jiak_Chuan_Road
-3.470617	__Joan_Road
-3.470617	__Joanne_Soo
-3.470617	__John_Fearns_Nicolls
-3.470617	__John_Le_Cain
-3.470617	__John_Morrice
-3.470617	__Joo_Avenue
-3.470617	__Joo_Koon_Crescent
-3.470617	__Jula_Juli
-3.470617	__Junction_Nine
-3.470617	__Jupiter_Road
-3.470617	__Jurong_Bird
-3.470617	__Jurong_East_Avenue
-3.470617	__Jurong_Island
-3.470617	__Jurong_Port
-3.470617	__Jurong_West
-3.470617	__Jurong_West_Avenue
-3.470617	__Jurong_West_Central
-3.470617	__Kaki_Bukit
-3.470617	__Kallang_Airport_Drive
-3.470617	__Kampong_Ampat
-3.470617	__Kampong_Arang_Road
-3.470617	__Kampong_Bahru
-3.470617	__Kampong_Bahru_Road
-3.470617	__Kampong_Bugis
-3.470617	__Kampong_Bugis_Crescent
-3.470617	__Kampong_Bukit_Coffee
-3.470617	__Kampong_Chai_Chee
-3.470617	__Kampong_Eunos
-3.470617	__Kampong_Glam
-3.470617	__Kampong_Java
-3.470617	__Kampong_Kapor_Road
-3.470617	__Kampong_Kayu_Road
-3.470617	__Kampong_Kembangan
-3.470617	__Kampong_Sireh
-3.470617	__Kampong_Sungai_Tiga
-3.470617	__Kampong_Ubi
-3.470617	__Kampong_Wak_Hassan
-3.470617	__Kampung_Glam
-3.470617	__Kampung_Melayu
-3.470617	__Katmandu_Road
-3.470617	__Kay_Siang_Road
-3.470617	__Keat_Hong_Link
-3.470617	__Kebun_Baru
-3.470617	__Keck_Seng
-3.470617	__Kee_Seng_Street
-3.470617	__Kee_Sun_Avenue
-3.470617	__Keene_Road
-3.470617	__Keng_Lee_Road
-3.470617	__Kent_Ridge_Crescent
-3.470617	__Kent_Ridge_Drive
-3.470617	__Kent_Road
-3.470617	__Kenya_Crescent
-3.470617	__Keppel_Bay
-3.470617	__Keramat_Road
-3.470617	__Kerong_Walk
-3.470617	__Kew_Avenue
-3.470617	__Kew_Walk
-3.470617	__Khaw_Boon_Wan
-3.470617	__Kian_Teck_Road
-3.470617	__Kiew_Sian_King
-3.470617	__Kim_Chuan_Road
-3.470617	__Kim_Hong
-3.470617	__Kim_Keat
-3.470617	__Kim_Seng
-3.470617	__Kim_Seng_Road
-3.470617	__Kim_Tian_Place
-3.470617	__Kinara_Lane
-3.470617	__Kismis_Road
-3.470617	__Kitchener_Road
-3.470617	__Klang_Road
-3.470617	__Koh_Mui_Hiang
-3.470617	__Koh_Seow_Chuan
-3.470617	__Kouo_Shang_Wei
-3.470617	__Kranji_Commonwealth
-3.470617	__Kranji_Crescent
-3.470617	__Kreta_Ayer
-3.470617	__Kuang_Chee_Tng
-3.470617	__Kwan_Im_Tng
-3.470617	__Kwan_Imm_See
-3.470617	__Kwong_Min_Road
-3.470617	__Kwong_Wai_Siew
-3.470617	__La_Mode
-3.470617	__Lam_Pin_Min
-3.470617	__Lambeth_Walk
-3.470617	__Larkhill_Road
-3.470617	__Lau_Kuo_Kwong_Robert
-3.470617	__Lavender_Street
-3.470617	__Le_Peranakan
-3.470617	__Lee_Boon_Ngan
-3.470617	__Lee_Kong_Chian
-3.470617	__Lee_Kong_Yan
-3.470617	__Lee_Shih_Shiong_Peter
-3.470617	__Lempeng_Drive
-3.470617	__Leng_Chai_Chee
-3.470617	__Lengkok_Angsa
-3.470617	__Lengkok_Lima
-3.470617	__Lengkok_Satu
-3.470617	__Lengkok_Satu_Sago_Street
-3.470617	__Lengkong_Dua
-3.470617	__Lentor_Way
-3.470617	__Leo_Drive
-3.470617	__Lew_Lian_Vale
-3.470617	__Lewis_Road
-3.470617	__Li_Hui_Cheng
-3.470617	__Liane_Road
-3.470617	__Liang_Court
-3.470617	__Liao_Yingru
-3.470617	__Lichi_Avenue
-3.470617	__Lien_Ying_Chow_Drive
-3.470617	__Lilac_Road
-3.470617	__Lilliputt_Indoor_Mini_Golf
-3.470617	__Lily_Avenue
-3.470617	__Lim_Ah_Pin_Road
-3.470617	__Lim_Ah_Woo_Road
-3.470617	__Lim_Chong_Pang
-3.470617	__Lim_Chu_Kang
-3.470617	__Lim_Chu_Kang_Lane
-3.470617	__Lim_Lee
-3.470617	__Lim_Teck_Boo_Road
-3.470617	__Lim_Teck_Kim_Road
-3.470617	__Lim_Tua_Tow_Road
-3.470617	__Limau_Garden
-3.470617	__Lin_Tan
-3.470617	__Little_Road
-3.470617	__Lloyd_Road
-3.470617	__Loh_Lik_Peng
-3.470617	__Lornie_Walk
-3.470617	__Lorong_Abu_Talib
-3.470617	__Lorong_Bachok
-3.470617	__Lorong_Batawi
-3.470617	__Lorong_Buangkok
-3.470617	__Lorong_Gambas
-3.470617	__Lorong_Kembang
-3.470617	__Lorong_Kilat_Pek_Kio
-3.470617	__Lorong_Lew_Lian
-3.470617	__Lorong_Mesu
-3.470617	__Lorong_Pasu
-3.470617	__Lorong_Paya_Lebar
-3.470617	__Lorong_Pendek
-3.470617	__Lorong_Pisang_Asam
-3.470617	__Lorong_Pisang_Batu
-3.470617	__Lorong_Sarina_D'Leedon
-3.470617	__Lorong_Siglap
-3.470617	__Lorong_Sinaran
-3.470617	__Louis_Chen
-3.470617	__Lower_Seletar_Close
-3.470617	__Lower_Seletar_Reservoir
-3.470617	__Loyang_Street
-3.470617	__Lucy_Tan
-3.470617	__Lutheran_Road
-3.470617	__Macalister_Road
-3.470617	__Macpherson_Road
-3.470617	__Macritchie_Reservoir
-3.470617	__Maggie_Teng
-3.470617	__Mah_Bow_Tan
-3.470617	__Management_Development_Institute_Of_Singapore
-3.470617	__Mandai_Tekong
-3.470617	__Mandarin_Gardens
-3.470617	__Manila_Street
-3.470617	__Maple_Avenue
-3.470617	__Margate_Road
-3.470617	__Marina_Bay
-3.470617	__Marina_Bay_Sands
-3.470617	__Marina_One
-3.470617	__Marina_Promenade
-3.470617	__Marina_Way
-3.470617	__Marine_Parade
-3.470617	__Marine_Parade_Road
-3.470617	__Maris_Stella
-3.470617	__Maritime_Square
-3.470617	__Marshall_Lane
-3.470617	__Marsiling_Crescent
-3.470617	__Marsiling_Drive
-3.470617	__Marsiling_Neighbourhood
-3.470617	__Marsiling_Rise
-3.470617	__Marsiling_Road
-3.470617	__Martin_Road
-3.470617	__Masjid_Alkaff
-3.470617	__Mayflower_Way
-3.470617	__Medical_Drive
-3.470617	__Mei_Chin_Road
-3.470617	__Mei_Hwan_Drive
-3.470617	__Meng_Suan_Road
-3.470617	__Meranti_Avenue
-3.470617	__Merlimau_Place
-3.470617	__Meteorological_Services_Singapore
-3.470617	__Methodist_Girls'
-3.470617	__Michelle_Lim
-3.470617	__Middlesex_Road
-3.470617	__Miller_Street
-3.470617	__Miltonia_Link
-3.470617	__Mimosa_Vale
-3.470617	__Monk'S_Hill_Road
-3.470617	__Montreal_Link
-3.470617	__Moonbeam_Drive
-3.470617	__Moonbeam_Walk
-3.470617	__Moral_Welfare
-3.470617	__Moreton_Close
-3.470617	__Morgan_Chua
-3.470617	__Moriah_Bible_Presby
-3.470617	__Mornington_Crescent
-3.470617	__Mount_Faber_Loop
-3.470617	__Mount_Faber_Road
-3.470617	__Movenpick_Heritage
-3.470617	__Muhammadiyah_Welfare
-3.470617	__Mulberry_Avenue
-3.470617	__Muswell_Hill
-3.470617	__My_Saviour'S
-3.470617	__N_Palanivelu
-3.470617	__Nagore_Dargah
-3.470617	__Namly_Rise
-3.470617	__Nan_Chiau
-3.470617	__Nanyang_Avenue
-3.470617	__Nanyang_Girls'
-3.470617	__Nanyang_Poly_Drive
-3.470617	__Nanyang_Valley
-3.470617	__Napier_Road
-3.470617	__Nasi_Goreng
-3.470617	__Natalie_Hennedige
-3.470617	__National_Arts_Council
-3.470617	__National_Equestrian_Centre
-3.470617	__National_Neuroscience_Institute
-3.470617	__National_Neuroscience_Institute_Of_Singapore
-3.470617	__Nativity_Of_The_Blessed_Virgin_Mary_Concord
-3.470617	__Nee_Soon
-3.470617	__Nee_Soon_East
-3.470617	__Neo_Tiew_Lane
-3.470617	__Neo_Tiew_Road
-3.470617	__Nepal_Link
-3.470617	__Newton_Cirus
-3.470617	__Newton_Life
-3.470617	__Nexus_International_School
-3.470617	__Ng_Chee_Meng
-3.470617	__North_Buona_Vista_Drive
-3.470617	__North_Spring
-3.470617	__North_Vista
-3.470617	__North_West
-3.470617	__Northshore_Drive
-3.470617	__Northshore_Link
-3.470617	__Oak_Avenue
-3.470617	__Ocean_Way
-3.470617	__Office_Road
-3.470617	__Ogilvy_Centre
-3.470617	__Old_Birdcage_Walk
-3.470617	__Old_Cathay
-3.470617	__Old_Choa_Chu_Kang_Road
-3.470617	__Old_Hill_Street
-3.470617	__Old_Terminal_Lane
-3.470617	__Old_Upper_Thomson
-3.470617	__Omar_Ali
-3.470617	__Omar_Khayyam_Avenue
-3.470617	__One_Farrer
-3.470617	__One_George_Street
-3.470617	__One_North_Avenue
-3.470617	__One_North_Link
-3.470617	__One_Tree_Hill
-3.470617	__Onitsuka_Tiger
-3.470617	__Onraet_Road
-3.470617	__Orchard_Bel_Air
-3.470617	__Orchard_Point
-3.470617	__Orchard_Spring
-3.470617	__Orchard_Spring_Lane
-3.470617	__Orchard_Turn
-3.470617	__Orchid_Park
-3.470617	__Oriole_Crescent
-3.470617	__Outram_Park
-3.470617	__Oxford_Road
-3.470617	__Palm_Avenue
-3.470617	__Palm_Road
-3.470617	__Pan_Pacific
-3.470617	__Pan_Shou
-3.470617	__Pandan_Avenue
-3.470617	__Pang_Seng_Road
-3.470617	__Park_Avenue
-3.470617	__Parry_Avenue
-3.470617	__Pasir_Panjang_Road
-3.470617	__Pasir_Panjang_View
-3.470617	__Pasir_Ris
-3.470617	__Pasir_Ris_Road
-3.470617	__Pasir_Ris_View
-3.470617	__Pasir_Ris_Way
-3.470617	__Paterson_Road
-3.470617	__Paya_Lebar
-3.470617	__Paya_Lebar_Place
-3.470617	__Paya_Ubi
-3.470617	__Peace_Centre
-3.470617	__Peakville_Avenue
-3.470617	__Peakville_Grove
-3.470617	__Pebble_Lane
-3.470617	__Peck_San_Theng
-3.470617	__Peck_Seah_Street
-3.470617	__Peirce_Hill
-3.470617	__Pemimpin_Drive
-3.470617	__Penang_Road
-3.470617	__Peng_Kang_Avenue
-3.470617	__Peng_Nguan
-3.470617	__Peninsula_Plaza
-3.470617	__Penjuru_Road
-3.470617	__Perahu_Road
-3.470617	__Percival_Road
-3.470617	__Pereira_Road
-3.470617	__Perumal_Govindaswamy
-3.470617	__Perumal_Road
-3.470617	__Ping_Yi
-3.470617	__Platina_Road
-3.470617	__Plaza_Singapura
-3.470617	__Poh_Ern_Shih
-3.470617	__Poh_Huat_Road
-3.470617	__Poh_Jay
-3.470617	__Post_Florence_Road
-3.470617	__Prince_Of_Wales_Road
-3.470617	__Prinsep_Street
-3.470617	__Prome_Road
-3.470617	__Puat_Jit_Buddhist
-3.470617	__Pulau_Ubin
-3.470617	__Punggol_Avenue
-3.470617	__Qing_De_Gong
-3.470617	__Queen_Elizabeth_Walk
-3.470617	__Radin_Mas
-3.470617	__Raffles_Place
-3.470617	__Rahayu_Mahzam
-3.470617	__Rahim_Omar
-3.470617	__Rail_Mall
-3.470617	__Rajabali_Jumabhoy
-3.470617	__Rambutan_Road
-3.470617	__Rasok_Drive
-3.470617	__Rebecca_Chua
-3.470617	__Red_Cross
-3.470617	__Red_Swastika
-3.470617	__Redhill_Road
-3.470617	__Redwood_Grove
-3.470617	__Revival_Centre
-3.470617	__Richard_Eric_Holttum
-3.470617	__Ring_Road
-3.470617	__Rita_Zahara
-3.470617	__River_City
-3.470617	__River_Safari
-3.470617	__River_Valley
-3.470617	__Riverina_Walk
-3.470617	__Rivervale_Plaza
-3.470617	__Robert_Soon
-3.470617	__Robert_V_Chandran_Way
-3.470617	__Robin_Tessensohn
-3.470617	__Robinson_Road
-3.470617	__Rochor_Kongsi
-3.470617	__Rochor_Road
-3.470617	__Rosaline_Chan_Pang
-3.470617	__Ruby_Lane
-3.470617	__Russels_Road
-3.470617	__Safra_Jurong
-3.470617	__Safra_Punggol
-3.470617	__Saint_Helier'S_Avenue
-3.470617	__Saint_Hilda'S
-3.470617	__Saint_James
-3.470617	__Saint_Nicholas_View
-3.470617	__Saint_Paul'S
-3.470617	__Saint_Stephen'S
-3.470617	__Saint_Wilfred_Road
-3.470617	__Saint_Xavier'S
-3.470617	__Saint_Xavier'S_Lane
-3.470617	__Sakra_Road
-3.470617	__Sakya_Tenphel_Ling
-3.470617	__Sam_Kee
-3.470617	__Sandilands_Road
-3.470617	__Science_Park
-3.470617	__Sea_Breeze_Grove
-3.470617	__Seah_Mei_Lin
-3.470617	__Secondary_School
-3.470617	__Segar_Close
-3.470617	__Segar_Kampong_Arang_Road
-3.470617	__Selarang_Road
-3.470617	__Seletar_Close
-3.470617	__Seletar_Club
-3.470617	__Seletar_Club_Road
-3.470617	__Seletar_Court
-3.470617	__Seletar_East
-3.470617	__Seletar_Green_Avenue
-3.470617	__Seletar_Hill
-3.470617	__Seletar_Hill_Drive
-3.470617	__Seletar_Hills_Drive
-3.470617	__Seletar_Link
-3.470617	__Seletar_Lodge_One
-3.470617	__Seletar_North
-3.470617	__Seletar_North_Lane
-3.470617	__Seletar_Satellite
-3.470617	__Seletar_Satellite_Station_Road
-3.470617	__Seletar_South_Road
-3.470617	__Seletar_West
-3.470617	__Seletar_Wests
-3.470617	__Sembawang_Alley
-3.470617	__Sembawang_Avenue
-3.470617	__Sembawang_Berlayer
-3.470617	__Sembawang_Country_Club
-3.470617	__Sembawang_God_Of_Wealth
-3.470617	__Sembawang_Hills_Drive
-3.470617	__Sembawang_Shopping_Centre
-3.470617	__Sembawang_Tamil_Methodist
-3.470617	__Sembawang_Terminal_Avenue
-3.470617	__Sembawang_Terminal_Road
-3.470617	__Sembawang_Vista
-3.470617	__Sembawang_Wharves
-3.470617	__Sembawang_Woodgrove_Avenue
-3.470617	__Sengkang_East_Avenue
-3.470617	__Sengkang_East_Road
-3.470617	__Sengkang_East_Way
-3.470617	__Sennett_Road
-3.470617	__Sentul_Crescent
-3.470617	__Serangoon_Gardens
-3.470617	__Serangoon_North_Avenue
-3.470617	__Serapong_Hill
-3.470617	__Seraya_Avenue
-3.470617	__Sharon_Bible_Presbyterian
-3.470617	__Shelford_Road
-3.470617	__Shipyard_Crescent
-3.470617	__Shopping_Centre
-3.470617	__Shun_Li
-3.470617	__Si_Ling
-3.470617	__Siang_Cho_Keong
-3.470617	__Siglap_Gardens
-3.470617	__Siloso_Beach
-3.470617	__Sim_Choon_Huat
-3.470617	__Sim_Lim_Square
-3.470617	__Sim_Yi_Hui
-3.470617	__Simon_Lane
-3.470617	__Simpang_Bedok
-3.470617	__Simpang_De_Bedok
-3.470617	__Sims_Way
-3.470617	__Sin_Ming
-3.470617	__Sing_Hoe
-3.470617	__Sing_Joo_Walk
-3.470617	__Singapore'S_Mariners'
-3.470617	__Singapore_Art_Museum
-3.470617	__Singapore_Bible
-3.470617	__Singapore_Botanic_Gardens
-3.470617	__Singapore_Cheshire
-3.470617	__Singapore_Conference
-3.470617	__Singapore_Philatelic_Museum
-3.470617	__Singapore_Recreation
-3.470617	__Singapore_Sikh_Education_Foundation
-3.470617	__Singapore_University_Of_Technology_And_Design
-3.470617	__Singapore_Youth_Flying
-3.470617	__Siok_Wan
-3.470617	__Siong_Lim
-3.470617	__Sir_Frank_Swettenham
-3.470617	__Sit_Wah_Road
-3.470617	__Sleepy_Kiwi
-3.470617	__Sloane_Court_Hotel
-3.470617	__Soo_Bin_Chua
-3.470617	__Soo_Chow_Drive
-3.470617	__Soon_Peng_Yam_Yao_Zi
-3.470617	__Soon_Wing_Road
-3.470617	__Sophia_Hull
-3.470617	__South_Buona_Vista_Road
-3.470617	__South_Perimeter_Road
-3.470617	__South_Woodlands_Drive
-3.470617	__Spring_Lighthouse
-3.470617	__Spring_Street
-3.470617	__Springleaf_Avenue
-3.470617	__Springside_View
-3.470617	__Springwood_Close
-3.470617	__Sree_Narayana
-3.470617	__Sri_Murugan_Hill_Temple
-3.470617	__Sri_Siva_Durga
-3.470617	__Sri_Vairavimada_Kaliamman
-3.470617	__Stadium_Crescent
-3.470617	__Stadium_Way
-3.470617	__Stamford_Raffles
-3.470617	__Starlight_Road
-3.470617	__Stephen_Lee
-3.470617	__Stirling_Walk
-3.470617	__Strand_Hotel
-3.470617	__Stratton_Road
-3.470617	__Suffolk_Road
-3.470617	__Sunbeam_Evergreen_Place
-3.470617	__Sundridge_Park_Road
-3.470617	__Sungei_Bedok
-3.470617	__Sungei_Gedong_Road
-3.470617	__Sungei_Road
-3.470617	__Sunny_Ang
-3.470617	__Sunset_Close
-3.470617	__Sunset_Square
-3.470617	__Sunset_Vale
-3.470617	__Suntec_City
-3.470617	__Swiss_Club_Link
-3.470617	__Syed_Jaafar_Albar
-3.470617	__Tagore_Road
-3.470617	__Tai_Hoe
-3.470617	__Tai_Seng
-3.470617	__Tai_Seng_Drive
-3.470617	__Taman_Bedok
-3.470617	__Taman_Jurong
-3.470617	__Taman_Kembangan
-3.470617	__Taman_Warna
-3.470617	__Tamarind_Avenue
-3.470617	__Tamarind_Road
-3.470617	__Tampines_Changkat
-3.470617	__Tan_Boo_Liat
-3.470617	__Tan_Eng_Joo
-3.470617	__Tan_Kim_Cheng_Road
-3.470617	__Tan_Teck_Whye_Avenue
-3.470617	__Tan_Tock_Seng
-3.470617	__Tanah_Merah
-3.470617	__Tanglin_Gate_Road
-3.470617	__Tanglin_Trust
-3.470617	__Tangmere_Road
-3.470617	__Tanjong_Katong
-3.470617	__Tanjong_Penjuru
-3.470617	__Tanya_Chua
-3.470617	__Teban_Garden
-3.470617	__Tebing_Lane
-3.470617	__Teck_Hai_Keng
-3.470617	__Teck_Whye
-3.470617	__Tekong_Highway
-3.470617	__Telok_Blangah_Crescent
-3.470617	__Telok_Blangah_Rise
-3.470617	__Telok_Blangah_Street
-3.470617	__Telok_Kurau
-3.470617	__Tembusu_Drive
-3.470617	__Teng_San_Tian_Hock
-3.470617	__Teng_Tong_Road
-3.470617	__Terang_Bulan_Avenue
-3.470617	__Tew_Chew_Street
-3.470617	__Thong_Bee_Road
-3.470617	__Thong_Kheng
-3.470617	__Tian_Kong
-3.470617	__Tiong_Poh_Avenue
-3.470617	__Tiverton_Lane
-3.470617	__Toa_Payoh
-3.470617	__Toa_Payoh_East
-3.470617	__Toa_Payoh_North
-3.470617	__Toa_Payoh_Rise
-3.470617	__Toh_Tuck_Drive
-3.470617	__Toh_Tuck_Road
-3.470617	__Tokio_Marine
-3.470617	__Topaz_Road
-3.470617	__Tras_Street
-3.470617	__Treetop_Walk
-3.470617	__Trevose_Place
-3.470617	__Tuas_Avenue
-3.470617	__Tuas_Road
-3.470617	__Tuas_Second_Link
-3.470617	__Tuas_Terminal_Road
-3.470617	__Turf_Ciub_Road
-3.470617	__Ubi_Close
-3.470617	__Ubi_Crescent
-3.470617	__Ubi_Link
-3.470617	__Ulu_Sembawang
-3.470617	__Unity_Street
-3.470617	__University_Town
-3.470617	__Upper_Aljunied
-3.470617	__Upper_Aljunied_Link
-3.470617	__Upper_Aljunied_Road
-3.470617	__Upper_Bedok
-3.470617	__Upper_Bedok_Road
-3.470617	__Upper_Bukit_Timah
-3.470617	__Upper_Bukit_Timah_Road
-3.470617	__Upper_Changi_Road
-3.470617	__Upper_Joo_Aljunied_Link
-3.470617	__Upper_Palm_Valley_Road
-3.470617	__Upper_Paya_Lebar_Road
-3.470617	__Upper_Peirce_Reservoir
-3.470617	__Upper_Seletar_Reservoir
-3.470617	__Upper_Serangoon
-3.470617	__Upper_Wilkie_Road
-3.470617	__Vaughan_Road
-3.470617	__Veerasamy_Road
-3.470617	__Verde_Crescent
-3.470617	__Victoria_Park_Road
-3.470617	__Vigilante_Drive
-3.470617	__Vijesh_Ashok_Ghariwala
-3.470617	__Vivien_Quahe
-3.470617	__Vu_Ly_Tee
-3.470617	__Vu_Ly_Tee#1
-3.470617	__Vu_Ly_Tee#2
-3.470617	__Wak_Hassan
-3.470617	__Wak_Hassan_Place
-3.470617	__Wak_Tanjong
-3.470617	__Wallace_Way
-3.470617	__Walter_Woon
-3.470617	__Wan_Tho_Avenue
-3.470617	__Wareham_Road
-3.470617	__Waringin_Walk
-3.470617	__Warwick_Road
-3.470617	__Waseda_Shibuya
-3.470617	__Waterloo_Street
-3.470617	__Watten_Estate_Road
-3.470617	__Wee_Beng_Chong
-3.470617	__Wellington_Circle
-3.470617	__West_Blue_Stars
-3.470617	__West_Perimeter_Road
-3.470617	__West_Spring
-3.470617	__Westwood_Avenue
-3.470617	__Whampoa_East
-3.470617	__Whitchurch_Road
-3.470617	__Whitley_Road
-3.470617	__Wilmonar_Avenue
-3.470617	__Windsor_Park_Hill
-3.470617	__Wishart_Road
-3.470617	__Wittering_Road
-3.470617	__Wong_Chin_Yoke_Road
-3.470617	__Wong_Hock_Boon
-3.470617	__Woodgrove_View
-3.470617	__Woodland_Street
-3.470617	__Woodlands_Galaxy
-3.470617	__Woodleigh_Close
-3.470617	__Xilin_Avenue
-3.470617	__Yan_Hui_Chang
-3.470617	__Yangtze_Building
-3.470617	__Yao_Zi
-3.470617	__Yarwood_Avenue
-3.470617	__Yeoh_Ghim_Seng
-3.470617	__Yew_Tee
-3.470617	__Yew_Tee_Close
-3.470617	__Yew_Tee_Point
-3.470617	__Yip_Cheong_Fun
-3.470617	__Yishun_Central
-3.470617	__Yishun_Street
-3.470617	__Yong_Melvin_Yik_Chye
-3.470617	__York_Place
-3.470617	__Yu_Huang_Zhi_Zun_Temple
-3.470617	__Yuan_Ching
-3.470617	__Yung_Kuang_Road
-3.470617	__Yuva_Bharati
-3.470617	__Yvonne_Ng
-3.470617	__Zainudin_Nordin
-3.470617	__Zhang_Hui
-3.470617	__Zhou_Ying_Nan
-3.470617	__Zion_Bishan_Bible_Presbyterian
-2.794154	a
-3.627403	aa
-4.621154	aba
-4.989131	aback
-5.466252	abacus
-4.688101	abalone
-4.563162	abandon
-4.767282	abandoned
-5.466252	abandonment
-4.51201	abas
-5.466252	abate
-5.165222	abb
-4.864192	abbas
-5.466252	abbey
-5.466252	abbreviate
-4.864192	abbreviation
-5.466252	abdicate
-4.688101	abdomen
-4.621154	abdominal
-5.466252	abduct
-5.165222	abduction
-5.466252	aberration
-5.466252	abhor
-4.864192	abide
-5.165222	abiding
-5.165222	abigail
-4.104524	ability
-3.660072	able
-4.563162	abnormal
-5.165222	abnormality
-4.989131	abnormally
-4.989131	aboard
-5.165222	abolish
-5.466252	abomination
-4.864192	abort
-5.466252	aborted
-4.688101	abortion
-5.165222	abound
-3.154498	about
-3.961102	above
-4.767282	abrasion
-5.466252	abrasive
-5.466252	abreast
-4.563162	abroad
-4.989131	abrupt
-5.466252	abruptly
-4.767282	absence
-4.688101	absent
-5.466252	absenteeism
-5.466252	absently
-4.51201	absolute
-4.352309	absolutely
-5.466252	absolution
-5.466252	absolve
-4.51201	absorb
-4.864192	absorbed
-5.466252	absorbency
-5.165222	absorber
-4.989131	absorbing
-4.989131	absorption
-5.165222	abstain
-4.466252	abstract
-5.466252	abstracted
-4.864192	abstraction
-4.767282	absurd
-5.466252	absurdly
-4.42486	abu
-5.165222	abundance
-4.767282	abundant
-4.387071	abuse
-4.989131	abuser
-4.864192	abusive
-5.165222	abut
-5.466252	aby
-4.989131	abyss
-4.290161	academic
-5.466252	academical
-4.688101	academically
-4.51201	academy
-4.51201	acara
-5.466252	acca
-5.466252	accede
-4.864192	accelerate
-4.989131	accelerated
-4.989131	acceleration
-5.165222	accelerator
-4.262132	accent
-5.466252	accentuate
-4.034888	accept
-4.352309	acceptable
-4.466252	acceptance
-4.42486	accepted
-4.086041	access
-4.864192	accessibility
-4.466252	accessible
-5.466252	accession
-4.688101	accessory
-4.086041	accident
-4.767282	accidental
-4.262132	accidentally
-5.466252	accidently
-5.165222	acclaim
-5.466252	acclimatize
-4.688101	accommodate
-5.165222	accommodating
-4.42486	accommodation
-5.466252	accommodative
-5.466252	accompaniment
-4.466252	accompany
-5.466252	accomplice
-4.210979	accomplish
-4.621154	accomplished
-4.621154	accomplishment
-4.864192	accord
-4.989131	accordance
-4.123829	according
-4.352309	accordingly
-5.165222	accordion
-3.475026	account
-4.864192	accountability
-4.864192	accountable
-4.42486	accountancy
-4.563162	accountant
-4.187499	accounting
-5.165222	accreditation
-4.767282	accredited
-5.165222	accrual
-5.466252	accrue
-4.563162	accumulate
-4.864192	accumulation
-5.165222	accumulative
-4.989131	accumulator
-4.767282	accuracy
-4.387071	accurate
-4.989131	accurately
-5.466252	accusation
-5.466252	accusative
-5.466252	accusatory
-4.864192	accuse
-4.989131	accused
-5.165222	accustom
-4.989131	accustomed
-4.563162	ace
-5.466252	acerbate
-5.466252	acerbic
-5.466252	acetabulum
-5.466252	achar
-4.466252	ache
-4.989131	achievable
-4.086041	achieve
-4.123829	achievement
-4.989131	achiever
-4.864192	aching
-5.466252	achy
-4.621154	acid
-4.989131	acidic
-5.466252	acidify
-5.466252	acidity
-5.466252	acidosis
-5.466252	acker
-5.466252	acknow
-4.466252	acknowledge
-5.165222	acknowledged
-4.688101	acne
-5.466252	acolyte
-5.466252	acorn
-4.621154	acoustic
-5.165222	acoustics
-4.51201	acquaintance
-5.466252	acquaintanceship
-5.466252	acquainted
-4.864192	acquire
-4.864192	acquired
-4.989131	acquisition
-4.864192	acre
-5.165222	acrobatic
-5.466252	acrobatics
-4.262132	acronym
-5.466252	acrophobia
-4.051279	across
-4.989131	acrylic
-4.019094	act
-4.210979	acting
-3.97489	action
-4.387071	activate
-4.864192	activation
-5.466252	activator
-4.187499	active
-4.621154	actively
-5.466252	activeness
-5.466252	activism
-5.466252	activist
-4.034888	activity
-4.210979	actor
-4.387071	actress
-5.165222	actu
-4.104524	actual
-5.466252	actualism
-5.466252	actuality
-5.466252	actualization
-5.466252	actualize
-3.182951	actually
-4.864192	actuarial
-5.466252	actuary
-5.466252	actuation
-5.466252	aculeate
-5.466252	acupressure
-5.165222	acupuncture
-4.767282	acute
-4.262132	ad
-5.466252	adamant
-4.387071	adapt
-5.165222	adaptability
-4.989131	adaptable
-4.767282	adaptation
-4.864192	adapter
-5.466252	adaption
-4.989131	adaptive
-4.989131	adaptor
-4.688101	adat
-3.822799	add
-4.352309	added
-4.688101	addict
-4.387071	addicted
-4.688101	addiction
-4.352309	addition
-4.210979	additional
-4.989131	additionally
-5.466252	additive
-3.602929	address
-5.466252	addressee
-4.235803	ade
-5.165222	adenoma
-5.165222	adept
-5.466252	adequacy
-4.989131	adequate
-5.466252	adequately
-5.466252	adhere
-5.466252	adhesive
-5.165222	adipocyte
-5.165222	adjacent
-4.767282	adjective
-5.466252	adjoining
-5.165222	adjunct
-4.320124	adjust
-5.466252	adjustable
-5.466252	adjuster
-4.767282	adjustment
-5.466252	admi
-5.165222	administer
-5.466252	administrate
-4.767282	administration
-4.688101	administrative
-5.466252	administratively
-4.621154	administrator
-4.864192	admirable
-5.165222	admiral
-4.563162	admiralty
-5.165222	admiration
-4.235803	admire
-5.165222	admired
-5.165222	admirer
-5.165222	admiring
-4.563162	admission
-4.352309	admit
-4.51201	admitted
-5.466252	admittedly
-5.466252	ado
-4.688101	adobe
-4.864192	adolescence
-5.165222	adolescent
-4.051279	adopt
-4.387071	adopted
-5.466252	adoptee
-4.864192	adopter
-3.803494	adoption
-4.767282	adoptive
-4.767282	adorable
-4.767282	adore
-4.767282	adrenaline
-5.165222	adrift
-4.104524	adult
-4.864192	adulthood
-4.235803	advance
-4.466252	advanced
-4.767282	advancement
-4.989131	advancing
-4.352309	advantage
-5.466252	advantageous
-4.262132	adventure
-5.165222	adventurer
-4.466252	adventurous
-5.466252	adventurously
-5.165222	adverb
-5.466252	adverbial
-5.466252	adversary
-4.989131	adverse
-4.989131	adversity
-5.165222	advert
-4.621154	advertise
-4.320124	advertisement
-5.165222	advertiser
-4.51201	advertising
-4.051279	advice
-4.767282	advisable
-4.104524	advise
-4.563162	advised
-5.466252	advisement
-4.688101	adviser
-4.767282	advisor
-4.688101	advisory
-4.767282	advocate
-5.165222	ady
-4.989131	ae
-5.466252	aegis
-4.563162	aeon
-4.864192	aerial
-4.989131	aero
-5.466252	aerobatic
-5.165222	aerobatics
-5.165222	aerobic
-5.466252	aerodynamic
-5.165222	aerodynamics
-5.165222	aerofoil
-5.466252	aeronautic
-5.165222	aeronautical
-4.466252	aeroplane
-5.466252	aerosol
-4.767282	aesthetic
-5.466252	aesthetical
-4.989131	aesthetically
-5.466252	aesthetician
-4.989131	aesthetics
-4.989131	afar
-4.563162	affair
-4.187499	affect
-4.320124	affected
-4.767282	affecting
-4.767282	affection
-5.165222	affectionate
-5.466252	affectionately
-5.466252	affective
-4.51201	affidavit
-5.466252	affiliate
-4.989131	affiliation
-5.165222	affinity
-5.466252	affirm
-4.989131	affirmation
-5.165222	affirmative
-5.466252	affix
-5.466252	afflicted
-5.466252	affluence
-5.165222	affluent
-4.144033	afford
-4.262132	affordable
-5.466252	affricated
-5.466252	afloat
-5.466252	afore
-4.068312	afraid
-5.165222	afresh
-4.621154	aft
-3.326373	after
-4.864192	afterlife
-5.165222	afterlight
-5.165222	aftermath
-3.758682	afternoon
-5.165222	afternoons
-5.165222	aftershock
-4.989131	aftertaste
-4.688101	afterward
-4.262132	afterwards
-5.165222	aga
-3.497769	again
-4.051279	against
-4.210979	agama
-5.466252	agape
-4.320124	agar
-3.776056	age
-4.621154	aged
-4.621154	agen
-4.104524	agency
-4.42486	agenda
-4.123829	agent
-5.466252	ager
-5.165222	aggravate
-5.466252	aggravating
-5.466252	aggravation
-4.989131	aggregate
-4.989131	aggression
-4.262132	aggressive
-4.989131	aggressively
-5.466252	aggressiveness
-5.466252	aggressor
-4.989131	agile
-5.165222	agility
-4.42486	aging
-5.466252	agitate
-4.989131	agitation
-5.466252	agnostic
-5.165222	agnus
-3.741976	ago
-4.767282	agony
-5.466252	agora
-5.466252	agre
-3.886468	agree
-4.767282	agreeable
-5.466252	agreeableness
-4.42486	agreed
-4.989131	agreeing
-4.352309	agreement
-4.989131	agricole
-5.165222	agricultural
-4.989131	agriculture
-2.870756	ah
-4.320124	aha
-3.989131	ahead
-4.688101	ahem
-4.290161	ai
-4.42486	aid
-5.466252	aide
-5.165222	aider
-5.466252	ailing
-5.466252	ailment
-4.262132	aim
-5.466252	aimer
-4.563162	aiming
-5.466252	aimless
-5.165222	aimlessly
-3.614994	air
-4.688101	aircraft
-4.989131	airdrop
-5.466252	airfield
-5.466252	airing
-5.466252	airlift
-5.466252	airliner
-5.466252	airmail
-4.51201	airplane
-4.086041	airport
-5.466252	airship
-5.466252	airsick
-5.466252	airtight
-4.989131	airway
-4.989131	airy
-4.864192	aisle
-5.466252	ait
-4.003854	ajar
-4.320124	ak
-4.989131	aka
-5.466252	ake
-5.466252	akin
-3.150282	aku
-4.352309	al
-4.123829	ala
-5.466252	alala
-4.563162	alan
-5.466252	alar
-4.086041	alarm
-5.165222	alarmed
-4.864192	alarming
-5.165222	alarum
-4.864192	alas
-5.466252	alba
-5.466252	albatross
-5.466252	albeit
-4.989131	albino
-4.262132	album
-5.165222	alchemist
-5.466252	alchemy
-4.290161	alcohol
-4.51201	alcoholic
-5.165222	alcoholism
-5.466252	alder
-4.989131	ale
-3.853468	alert
-5.466252	alertness
-5.165222	alexia
-5.165222	alfa
-5.466252	alfonso
-5.466252	alfresco
-4.989131	algae
-4.767282	algebra
-5.466252	algebraic
-4.466252	algorithm
-4.688101	alias
-4.466252	alien
-4.989131	alienation
-4.51201	alif
-4.688101	alight
-4.688101	align
-4.767282	alignment
-4.688101	alike
-5.165222	alimony
-5.466252	alin
-5.165222	alison
-4.104524	alive
-5.165222	aliyah
-5.466252	alkali
-5.466252	alkalic
-5.165222	alkaline
-5.466252	alkane
-3.129792	all
-5.165222	allan
-5.466252	allegation
-5.165222	allegedly
-5.466252	allegiance
-5.165222	allergen
-4.466252	allergic
-4.621154	allergy
-4.989131	alleviate
-4.563162	alley
-4.767282	alliance
-4.989131	allied
-5.466252	allies
-4.864192	alligator
-5.466252	alliteration
-4.621154	allocate
-4.688101	allocation
-5.466252	allopathic
-4.034888	allow
-5.466252	allowable
-4.290161	allowance
-5.466252	alloy
-4.989131	ally
-5.466252	alma
-5.165222	almighty
-5.466252	almon
-4.621154	almond
-3.832784	almost
-5.466252	alo
-4.688101	aloe
-5.466252	aloft
-3.832784	alone
-3.886468	along
-4.989131	alongside
-5.165222	aloof
-5.466252	alopecia
-4.989131	aloud
-5.466252	alp
-5.165222	alpaca
-4.387071	alpha
-4.466252	alphabet
-5.165222	alphabetical
-3.235803	already
-3.488528	alright
-5.165222	alrighty
-3.152385	also
-5.165222	alt
-5.466252	altar
-4.466252	alter
-4.864192	alteration
-4.42486	alternate
-5.466252	alternately
-5.165222	alternating
-4.352309	alternative
-4.621154	alternatively
-3.989131	although
-5.466252	altimeter
-4.864192	altitude
-5.165222	alto
-4.466252	altogether
-5.165222	altruism
-5.466252	altruistic
-5.466252	alum
-5.466252	alumina
-4.688101	aluminium
-5.466252	aluminum
-4.621154	alumni
-5.466252	alumnus
-5.466252	alunite
-4.989131	alway
-3.445063	always
-3.502464	am
-5.466252	ama
-4.989131	amah
-5.466252	amalgamate
-5.466252	amalgamation
-5.165222	amani
-4.563162	amar
-5.466252	amass
-4.688101	amateur
-5.466252	amateurish
-4.688101	amaze
-4.621154	amazed
-5.466252	amazement
-4.051279	amazing
-5.165222	amazingly
-4.767282	ambassador
-5.466252	ambassy
-4.621154	amber
-5.466252	ambidextrous
-4.688101	ambience
-5.165222	ambient
-5.165222	ambiguity
-4.767282	ambiguous
-4.688101	ambition
-4.466252	ambitious
-5.466252	ambitiousness
-5.165222	ambivalent
-5.466252	ambivert
-5.466252	ambling
-5.165222	ambrose
-3.59702	ambulance
-5.466252	ambulation
-5.466252	ambulatory
-5.466252	ambush
-5.466252	ame
-4.767282	amelia
-4.864192	amen
-5.165222	amenable
-4.621154	amend
-4.864192	amendment
-5.466252	amenity
-5.466252	ameristic
-5.466252	amethyst
-4.989131	ami
-5.165222	amicable
-5.165222	amid
-5.165222	amidst
-4.989131	amil
-4.466252	amin
-5.165222	amine
-5.466252	amino
-4.320124	amir
-5.466252	amla
-5.466252	amma
-5.165222	ammo
-5.466252	ammonia
-5.165222	ammunition
-5.466252	amnesia
-5.466252	amnesty
-5.165222	amoeba
-5.466252	amok
-4.262132	among
-4.864192	amongst
-5.466252	amorous
-5.466252	amortization
-3.718064	amount
-5.165222	amour
-5.165222	ampere
-5.466252	amphetamine
-5.466252	amphibian
-5.466252	amphitheater
-4.864192	ample
-5.165222	amplifier
-5.165222	amplify
-4.989131	amplitude
-5.466252	ampoule
-5.165222	amputate
-4.864192	amputation
-5.165222	amputee
-5.466252	amulet
-4.864192	amuse
-4.989131	amused
-4.621154	amusement
-4.989131	amusing
-4.387071	amy
-3.440946	an
-4.563162	ana
-5.165222	anaconda
-5.165222	anaesthesia
-4.989131	anal
-5.165222	analogue
-4.864192	analogy
-4.466252	analyse
-5.466252	analyses
-4.42486	analysis
-4.688101	analyst
-4.989131	analytic
-4.864192	analytical
-4.864192	analytics
-4.621154	analyze
-5.466252	analyzer
-5.466252	anam
-5.466252	anan
-4.989131	ananas
-5.466252	ananda
-5.466252	anarchy
-5.466252	anatomical
-5.466252	anatomically
-4.864192	anatomy
-4.864192	ancestor
-5.466252	ancestral
-5.466252	ancestry
-4.563162	anchor
-5.466252	anchorage
-5.466252	anchored
-4.51201	ancient
-2.828762	and
-3.89805	anda
-4.352309	android
-5.466252	anecdotal
-4.989131	anecdote
-5.165222	anemia
-4.989131	anemic
-5.466252	anemone
-5.466252	anesthesia
-5.466252	anesthetic
-4.235803	angel
-5.466252	angelfish
-5.165222	angelic
-4.864192	angeline
-4.51201	anger
-5.466252	angina
-5.466252	angioplasty
-4.387071	angle
-5.165222	angled
-5.466252	angler
-5.165222	angrily
-3.947738	angry
-4.989131	angst
-5.466252	anguish
-5.466252	angular
-4.989131	ani
-3.90995	animal
-4.989131	animate
-4.767282	animated
-4.387071	animation
-5.466252	animator
-4.187499	anime
-5.466252	animosity
-5.466252	animus
-4.767282	anis
-5.466252	anise
-5.466252	anker
-4.387071	ankle
-4.466252	ann
-4.42486	anna
-5.466252	annet
-5.466252	annex
-4.466252	anniversary
-5.466252	annotation
-4.621154	announce
-4.563162	announcement
-5.466252	announcer
-4.621154	annoy
-5.165222	annoyance
-4.068312	annoying
-5.466252	annoyingly
-4.387071	annual
-4.767282	annually
-5.466252	anode
-5.466252	anon
-5.466252	anonymity
-4.688101	anonymous
-5.165222	anorexia
-3.497769	another
-5.466252	ansar
-3.640177	answer
-5.466252	answerable
-4.42486	ant
-5.165222	anta
-5.165222	antacid
-5.466252	antagonism
-5.165222	antagonist
-5.466252	antagonize
-5.466252	antarctic
-4.688101	antarctica
-5.466252	anteater
-4.563162	antenna
-5.165222	antennae
-4.767282	anthem
-5.466252	anther
-5.466252	anthesis
-4.989131	anthology
-5.466252	anthrax
-5.466252	anthropologist
-5.466252	anthropology
-4.320124	anti
-5.466252	antiaircraft
-5.466252	antibacterial
-4.767282	antibiotic
-4.989131	antibody
-4.767282	antic
-4.989131	anticipate
-5.165222	anticipation
-5.165222	anticlockwise
-4.989131	antidote
-5.466252	antihero
-5.165222	antioxidant
-4.51201	antique
-5.466252	antiquity
-5.466252	antiseptic
-4.989131	antisocial
-5.466252	antithesis
-4.989131	antivirus
-5.165222	anus
-4.51201	anxiety
-4.621154	anxious
-5.466252	anxiousness
-3.362448	any
-4.068312	anybody
-4.165222	anyhow
-3.922184	anyone
-3.457652	anything
-3.702824	anyway
-4.187499	anyways
-4.003854	anywhere
-3.144033	apa
-5.466252	apache
-4.144033	apart
-4.262132	apartment
-5.466252	apathetic
-4.989131	apathy
-4.144033	ape
-5.466252	aperture
-4.767282	apex
-4.864192	apocalypse
-5.466252	apocalyptic
-5.466252	apologetic
-4.51201	apologize
-4.688101	apology
-5.466252	apostle
-4.688101	apostrophe
-5.466252	appalling
-4.989131	apparatus
-4.989131	apparel
-5.466252	apparence
-4.864192	apparent
-3.97489	apparently
-5.466252	apparition
-4.235803	appeal
-4.767282	appealing
-4.290161	appear
-4.563162	appearance
-5.165222	appease
-5.466252	append
-5.466252	appendicitis
-4.767282	appendix
-5.466252	appertain
-4.621154	appetite
-4.767282	appetizer
-5.466252	applaud
-4.864192	applause
-3.947738	apple
-4.621154	appliance
-4.42486	applicable
-4.387071	applicant
-3.785011	application
-4.144033	applied
-3.702824	apply
-4.563162	appoint
-5.466252	appointee
-4.003854	appointment
-5.466252	apportion
-4.989131	appraisal
-5.466252	appraise
-5.466252	appreciable
-4.051279	appreciate
-4.688101	appreciation
-4.864192	appreciative
-5.466252	apprehend
-5.165222	apprehensive
-5.466252	apprentice
-5.466252	apprenticeship
-4.187499	approach
-4.767282	approachable
-4.767282	approaching
-4.51201	appropriate
-4.989131	appropriately
-5.466252	appropriateness
-4.187499	approval
-4.235803	approve
-4.864192	approximate
-4.51201	approximately
-5.466252	apricot
-4.466252	apron
-4.864192	apt
-5.165222	aptitude
-4.864192	aqua
-5.165222	aquamarine
-4.989131	aquaria
-4.320124	aquarium
-5.466252	aquatic
-3.89805	ar
-4.989131	ara
-5.466252	arapaima
-5.466252	arba
-5.466252	arbitrary
-5.165222	arbitration
-5.466252	arbor
-5.466252	arbutin
-4.688101	arc
-5.165222	arca
-4.51201	arcade
-4.767282	arch
-5.466252	archaeological
-5.466252	archaeologist
-5.165222	archaeology
-5.466252	arched
-5.165222	archer
-4.688101	archery
-5.466252	arches
-5.165222	archetype
-5.466252	archipelago
-4.563162	architect
-5.165222	architectural
-4.42486	architecture
-4.864192	archive
-4.767282	arctic
-3.077086	are
-3.702824	area
-4.864192	arena
-5.165222	argent
-5.466252	argon
-5.165222	arguable
-4.187499	argue
-4.165222	argument
-5.165222	argumentation
-4.989131	argumentative
-5.466252	aria
-5.466252	arid
-4.864192	ariel
-5.165222	aright
-4.989131	arise
-4.864192	arista
-5.466252	aristocracy
-5.466252	aristocrat
-5.466252	arithmetic
-5.466252	arjun
-5.165222	ark
-4.123829	arm
-5.466252	armada
-5.466252	armadillo
-5.165222	armchair
-4.989131	armed
-5.165222	arming
-5.466252	armlet
-4.989131	armor
-5.466252	armored
-5.466252	armory
-4.767282	armpit
-4.864192	armrest
-4.144033	arms
-3.989131	army
-5.466252	arn
-5.466252	arni
-4.688101	aroma
-5.466252	aromatic
-5.466252	arose
-3.536833	around
-5.466252	arousal
-5.466252	arouse
-4.187499	arrange
-4.42486	arrangement
-5.466252	array
-4.621154	arrest
-5.466252	arresting
-4.51201	arrival
-4.262132	arrive
-5.165222	arrogance
-4.51201	arrogant
-4.989131	arrogantly
-4.210979	arrow
-5.466252	arrowed
-4.42486	arsenal
-5.466252	arsenic
-5.466252	arson
-3.961102	art
-5.466252	artefact
-5.466252	arteriosclerosis
-5.466252	artery
-5.466252	artful
-5.466252	artha
-4.864192	arthritis
-4.262132	article
-4.989131	articulate
-5.466252	articulated
-5.165222	articulation
-5.165222	artifact
-4.51201	artificial
-5.165222	artificially
-5.466252	artillery
-5.466252	artisan
-4.144033	artist
-4.767282	artiste
-4.621154	artistic
-5.466252	artistically
-5.466252	artistry
-4.864192	arty
-5.466252	aru
-5.466252	ary
-3.201434	as
-5.165222	asak
-5.165222	asbestos
-5.165222	ascend
-5.466252	ascendant
-5.165222	ascending
-5.466252	ascension
-5.466252	ascent
-4.989131	ascertain
-5.466252	ascribe
-5.165222	ase
-5.466252	aseptic
-5.466252	asexual
-4.767282	ash
-5.466252	ashame
-4.864192	ashamed
-5.466252	ashen
-4.688101	ashes
-5.165222	ashore
-4.989131	ashraf
-5.466252	ashy
-4.262132	aside
-3.376347	ask
-4.51201	askar
-5.466252	asker
-4.290161	asleep
-5.466252	asoka
-5.165222	asp
-4.989131	asparagus
-4.144033	aspect
-5.466252	aspen
-5.466252	aspersion
-5.466252	asphalt
-5.466252	aspirate
-4.466252	aspiration
-4.688101	aspire
-4.989131	aspirin
-5.165222	aspiring
-4.320124	ass
-4.989131	assassin
-5.165222	assassinate
-5.165222	assassination
-4.989131	assault
-5.165222	assay
-5.466252	assayer
-4.688101	assemble
-4.563162	assembly
-5.466252	assent
-4.989131	assert
-5.466252	assertion
-4.989131	assertive
-5.466252	assertiveness
-4.387071	assess
-5.165222	assessable
-4.989131	assessed
-4.387071	assessment
-4.864192	assessor
-4.466252	asset
-4.466252	assets
-5.466252	assi
-4.235803	assign
-4.466252	assigned
-5.466252	assignee
-5.466252	assigner
-4.144033	assignment
-5.466252	assimilate
-5.466252	assimilation
-3.767282	assist
-3.97489	assistance
-4.123829	assistant
-5.466252	assistive
-4.563162	associate
-4.688101	associated
-4.621154	association
-5.466252	assort
-5.165222	assorted
-5.466252	assortment
-4.165222	assume
-4.864192	assumed
-4.187499	assuming
-4.563162	assumption
-4.688101	assurance
-4.864192	assure
-4.864192	assured
-5.165222	assuring
-5.466252	assythment
-5.466252	ast
-5.466252	asta
-5.466252	astatic
-5.466252	aster
-4.767282	asterisk
-4.262132	asthma
-5.165222	asthmatic
-5.466252	astigmatism
-4.989131	astonish
-5.165222	astonishing
-5.466252	astonishment
-5.466252	astounding
-5.466252	astral
-5.466252	astray
-5.165222	astrologer
-5.466252	astrology
-4.688101	astronaut
-5.165222	astronomer
-5.165222	astronomical
-4.864192	astronomy
-4.864192	asylum
-5.466252	asymmetrical
-5.466252	asymptote
-5.466252	asyndeton
-3.133814	at
-5.466252	ataman
-4.989131	atap
-4.034888	ate
-5.466252	atelier
-5.165222	atheist
-5.466252	athematic
-4.767282	athlete
-4.767282	athletic
-5.466252	athleticism
-4.989131	athletics
-4.864192	atlantic
-4.989131	atlas
-4.51201	atmosphere
-5.466252	atmospheric
-4.688101	atom
-4.688101	atomic
-5.466252	atomy
-5.466252	atone
-5.466252	atonement
-5.466252	atop
-5.466252	atria
-5.466252	atrial
-4.989131	atrium
-5.165222	atrocious
-5.466252	atrocity
-5.466252	atrophy
-5.466252	atta
-4.320124	attach
-5.466252	attache
-4.262132	attached
-4.320124	attachment
-4.144033	attack
-4.864192	attacker
-4.767282	attain
-5.165222	attainable
-5.466252	attainment
-5.466252	attar
-4.51201	attempt
-4.086041	attend
-4.466252	attendance
-4.989131	attendant
-5.466252	attender
-5.466252	attent
-4.123829	attention
-4.767282	attentive
-5.165222	attentively
-5.165222	attentiveness
-5.466252	atter
-5.165222	attest
-4.989131	attic
-4.563162	attire
-4.235803	attitude
-4.767282	attorney
-4.387071	attract
-4.144033	attraction
-4.387071	attractive
-5.466252	attractively
-5.165222	attractiveness
-4.352309	attribute
-5.466252	attribution
-5.466252	attrition
-5.165222	atypical
-4.864192	auction
-5.165222	audacious
-5.466252	audacity
-5.466252	audible
-5.466252	audibly
-4.42486	audience
-4.42486	audio
-4.387071	audit
-4.42486	audition
-4.767282	auditor
-5.165222	auditorium
-5.466252	auditory
-5.466252	augmentation
-5.466252	augmented
-3.947738	august
-5.165222	auh
-5.466252	aum
-4.210979	aunt
-4.068312	auntie
-4.767282	aura
-5.466252	aural
-5.466252	aurelia
-5.466252	auric
-4.864192	aurora
-5.165222	auspicious
-5.466252	austerity
-5.466252	austral
-4.387071	authentic
-5.466252	authenticate
-5.466252	authentication
-4.989131	authenticity
-5.466252	authenticness
-4.466252	author
-4.864192	authoritarian
-5.466252	authoritarianism
-4.989131	authoritative
-4.42486	authority
-4.688101	authorization
-4.989131	authorize
-4.864192	authorized
-5.466252	authorizer
-5.165222	authorship
-4.688101	autism
-5.466252	autist
-4.621154	autistic
-4.165222	auto
-4.989131	autobiography
-5.466252	autocratic
-4.864192	autograph
-5.466252	automa
-5.466252	automata
-4.42486	automatic
-4.290161	automatically
-5.165222	automobile
-4.989131	automotive
-5.165222	autonomous
-5.165222	autonomy
-4.989131	autopilot
-4.42486	autumn
-5.466252	autumnal
-5.466252	auxiliary
-5.466252	ava
-4.989131	avail
-4.688101	availability
-4.086041	available
-5.165222	avalanche
-5.466252	avast
-4.864192	ave
-5.466252	avenge
-4.621154	avenger
-3.886468	avenue
-4.144033	average
-5.165222	averagely
-5.165222	averse
-5.466252	avert
-5.466252	averted
-5.165222	avian
-5.466252	aviary
-4.767282	aviation
-5.466252	aviator
-4.864192	avid
-5.466252	avo
-4.621154	avocado
-4.210979	avoid
-5.466252	avoidable
-5.466252	avoidance
-4.688101	aw
-4.864192	awa
-5.466252	await
-4.210979	awake
-4.864192	awaken
-4.989131	awakening
-4.42486	award
-4.210979	aware
-4.51201	awareness
-4.864192	awat
-3.67386	away
-5.165222	awe
-4.123829	awesome
-5.466252	awesomeness
-4.688101	awful
-4.864192	awfully
-4.144033	awhile
-5.466252	awin
-5.165222	awing
-3.97489	awkward
-4.989131	awkwardly
-5.165222	awkwardness
-5.466252	awning
-5.466252	awoke
-4.989131	ax
-4.767282	axe
-5.165222	axes
-5.466252	axiom
-4.989131	axis
-5.466252	axolotl
-4.989131	axon
-4.621154	ay
-3.785011	ayah
-4.387071	aye
-5.466252	ayin
-4.864192	ayu
-5.165222	azure
-3.507211	b
-4.210979	ba
-5.165222	baa
-4.51201	baba
-5.466252	babble
-4.42486	babe
-5.165222	baboo
-4.989131	baboon
-5.466252	babu
-3.557767	baby
-5.466252	babyish
-5.165222	bac
-5.466252	baccarat
-5.165222	bach
-4.621154	bachelor
-3.3424	back
-4.688101	backache
-5.466252	backboard
-5.165222	backbone
-5.165222	backdoor
-4.989131	backdrop
-4.864192	backed
-5.466252	backer
-4.989131	backfire
-5.466252	backfiring
-4.034888	background
-5.165222	backhand
-5.466252	backhanded
-4.864192	backing
-4.989131	backlash
-5.466252	backless
-5.466252	backlog
-4.688101	backside
-4.864192	backstage
-5.165222	backstroke
-5.165222	backtrack
-4.466252	backup
-4.621154	backward
-4.563162	backwards
-5.466252	backwash
-5.466252	backway
-4.563162	bacon
-4.51201	bacteria
-5.165222	bacterial
-3.51201	bad
-3.961102	badan
-4.466252	badge
-4.989131	badger
-4.262132	badly
-3.947738	badminton
-5.466252	badness
-4.767282	bae
-5.165222	baffle
-3.875187	bag
-4.864192	bagel
-4.621154	baggage
-5.466252	bagger
-4.767282	baggy
-5.466252	bagpipe
-5.466252	bagpipes
-4.767282	baguette
-4.42486	bah
-4.003854	bahan
-4.864192	bahar
-4.352309	baht
-4.989131	bail
-5.466252	bailer
-5.466252	bailey
-5.466252	bain
-4.688101	bait
-4.621154	baka
-4.563162	bakal
-4.144033	bake
-4.466252	baked
-4.621154	baker
-4.42486	bakery
-4.235803	baking
-4.767282	baku
-5.165222	bal
-4.767282	balai
-3.922184	balance
-4.51201	balanced
-4.989131	balancer
-4.688101	balancing
-4.563162	balas
-4.466252	balcony
-4.621154	bald
-4.989131	baldness
-5.466252	baldy
-5.165222	bale
-4.210979	bali
-3.767282	ball
-5.165222	ballad
-5.466252	ballade
-5.466252	balled
-4.864192	baller
-5.165222	ballerina
-4.51201	ballet
-5.466252	ballistic
-4.352309	balloon
-5.466252	ballooner
-5.165222	ballooning
-5.466252	balloonist
-4.688101	ballot
-4.864192	balloting
-4.767282	ballroom
-5.466252	bally
-4.864192	balm
-5.466252	baloney
-5.165222	balsamic
-4.688101	balut
-5.165222	bam
-5.466252	bambino
-4.51201	bamboo
-4.352309	ban
-5.466252	banak
-5.466252	banality
-4.123829	banana
-5.466252	banca
-4.989131	banco
-3.947738	band
-4.989131	banda
-4.621154	bandage
-5.466252	bandanna
-4.068312	bandar
-4.563162	banding
-4.989131	bandit
-5.466252	bando
-5.466252	bandstand
-5.165222	bane
-4.187499	bang
-5.466252	banga
-5.466252	bangalow
-5.165222	banger
-4.767282	banging
-4.144033	bangkok
-4.989131	bangle
-5.466252	bani
-5.165222	banish
-5.466252	banister
-5.466252	banjo
-3.547174	bank
-5.466252	bankbook
-4.989131	banked
-4.320124	banker
-4.144033	banking
-4.42486	bankrupt
-4.864192	bankruptcy
-4.144033	banner
-5.466252	banning
-4.466252	banquet
-4.989131	banter
-5.165222	banya
-4.864192	banyan
-5.165222	bap
-5.165222	baptism
-5.466252	baptize
-3.934773	bar
-4.989131	bara
-4.864192	barb
-5.165222	barbarian
-5.466252	barbaric
-5.466252	barbarous
-5.466252	barbe
-4.144033	barbecue
-5.165222	barbed
-4.51201	barber
-5.165222	barbershop
-4.563162	barcelona
-5.466252	bard
-4.466252	bare
-5.466252	barefaced
-4.688101	barefoot
-4.767282	barefooted
-5.466252	barehanded
-4.42486	barely
-4.621154	bargain
-4.989131	barge
-5.165222	bari
-5.466252	barilla
-4.466252	baring
-4.989131	baris
-4.563162	bark
-5.466252	barker
-4.688101	barking
-4.864192	barley
-4.688101	barn
-4.688101	barney
-5.165222	barnyard
-5.466252	barometer
-5.165222	baron
-5.466252	barra
-5.165222	barrack
-5.466252	barracuda
-4.51201	barrage
-5.466252	barred
-4.767282	barrel
-5.165222	barren
-5.466252	barret
-4.989131	barricade
-4.387071	barrier
-5.165222	barring
-5.466252	barrio
-4.864192	barrow
-4.621154	barry
-4.767282	bartender
-5.466252	bartending
-5.466252	barter
-5.466252	barth
-5.466252	barton
-3.563162	baru
-4.086041	bas
-3.989131	base
-4.563162	baseball
-5.466252	baseballer
-3.864192	based
-5.466252	baseless
-4.989131	baseman
-4.290161	basement
-4.989131	bases
-4.767282	bash
-5.466252	bashful
-3.97489	basic
-3.621154	basically
-4.864192	basil
-5.466252	basilar
-4.864192	basin
-4.165222	basis
-5.466252	bask
-4.235803	basket
-4.019094	basketball
-5.165222	basketballer
-4.466252	bass
-5.466252	bassist
-5.466252	basso
-5.466252	bassoonist
-5.466252	basta
-4.621154	bastard
-5.466252	baster
-5.165222	bastion
-4.466252	bat
-4.165222	batch
-5.165222	bater
-4.42486	bath
-4.466252	bathe
-4.621154	bathing
-5.165222	bathrobe
-4.563162	bathroom
-4.688101	bathtub
-4.42486	batik
-5.466252	bating
-4.42486	batman
-4.989131	baton
-4.989131	bats
-5.165222	battalion
-4.989131	batter
-5.466252	battered
-4.235803	battery
-5.466252	batting
-4.235803	battle
-5.165222	battled
-4.864192	battlefield
-4.989131	battleship
-5.165222	baw
-5.165222	baxter
-4.068312	bay
-4.688101	baya
-4.51201	bazaar
-5.165222	bazooka
-3.068312	be
-3.832784	beach
-4.989131	beachcombing
-5.466252	beached
-4.989131	beachy
-5.466252	beacon
-5.165222	bead
-5.466252	beaded
-5.466252	beading
-5.466252	beady
-5.165222	beagle
-4.621154	beak
-5.165222	beaker
-4.688101	beam
-4.688101	beamer
-5.165222	beaming
-4.187499	bean
-5.466252	beanbag
-5.466252	beanbags
-5.165222	beanie
-5.466252	beanstalk
-5.165222	beant
-3.922184	bear
-4.989131	bearable
-4.320124	beard
-4.989131	bearded
-5.466252	bearer
-4.767282	bearing
-5.466252	bearish
-4.42486	beast
-4.123829	beat
-4.767282	beaten
-5.466252	beater
-4.688101	beating
-5.165222	beau
-4.864192	beautician
-4.034888	beautiful
-4.864192	beautifully
-4.989131	beautify
-4.187499	beauty
-5.466252	beaver
-5.466252	bebat
-5.466252	bebop
-3.089675	because
-5.165222	beck
-3.733858	become
-4.210979	becomes
-4.352309	becoming
-3.922184	bed
-5.466252	bedclothes
-5.466252	bedded
-5.165222	bedding
-5.466252	bedframe
-4.767282	bedridden
-5.466252	bedrock
-4.42486	bedroom
-5.165222	bedside
-5.165222	bedsore
-4.989131	bedtime
-4.051279	bee
-5.466252	beech
-5.466252	beechwood
-4.051279	beef
-5.165222	beefeater
-4.864192	beefsteak
-5.165222	beefy
-4.563162	beehive
-5.165222	beekeeper
-3.488528	been
-4.187499	beer
-4.387071	bees
-5.165222	beet
-4.767282	beetle
-3.413174	before
-4.621154	beforehand
-5.165222	befriend
-4.165222	beg
-4.767282	beggar
-4.688101	begging
-4.352309	begin
-4.621154	beginner
-4.235803	beginning
-5.466252	begonia
-5.466252	begrudgingly
-5.165222	begun
-4.210979	behalf
-4.387071	behave
-4.563162	behavior
-4.989131	behavioral
-5.466252	behaviorist
-4.51201	behaviour
-3.776056	behind
-4.989131	behold
-5.165222	beholder
-4.42486	beige
-3.60892	being
-4.864192	bel
-3.97489	bela
-3.934773	belah
-4.688101	belanda
-4.989131	belated
-4.989131	belay
-5.466252	belayer
-5.466252	belch
-4.563162	belief
-5.165222	believable
-3.794154	believe
-4.688101	believer
-4.864192	believing
-5.466252	belittle
-5.466252	belittlement
-4.290161	bell
-5.466252	bellboy
-4.767282	belle
-5.466252	bellied
-5.165222	bellow
-4.42486	belly
-4.42486	belong
-4.767282	belonging
-4.864192	beloved
-3.733858	below
-4.262132	belt
-5.466252	belted
-5.466252	belting
-5.466252	belvedere
-4.165222	ben
-4.165222	bench
-5.466252	bencher
-5.466252	benching
-4.387071	bend
-3.557767	benda
-5.466252	bendable
-5.466252	bended
-5.165222	bender
-4.767282	bending
-4.466252	bene
-4.563162	beneath
-4.767282	benedict
-5.466252	benefactor
-5.466252	benefic
-4.235803	beneficial
-4.034888	beneficiary
-4.104524	benefit
-5.466252	benevolence
-5.466252	benevolent
-4.688101	beng
-5.466252	beni
-5.466252	benign
-4.621154	benjamin
-5.466252	benjy
-5.466252	bennet
-4.767282	benny
-4.767282	bent
-5.165222	bentang
-5.466252	benthos
-5.466252	benzene
-5.466252	benzoyl
-4.235803	ber
-4.123829	berat
-4.989131	beret
-5.466252	berg
-5.165222	berger
-4.466252	berlin
-5.165222	berm
-5.466252	berried
-4.563162	berry
-5.165222	berserk
-5.466252	berserker
-4.767282	berth
-4.864192	bes
-5.466252	besa
-5.466252	besan
-3.666912	beside
-4.051279	besides
-5.165222	bespectacled
-5.466252	bespoke
-3.475026	best
-5.466252	bester
-5.466252	bestow
-4.123829	bet
-4.767282	beta
-5.466252	betel
-5.165222	beth
-4.989131	betis
-4.767282	betray
-5.466252	betrayal
-5.466252	betrayer
-5.466252	betrothed
-3.557767	better
-5.165222	bettering
-5.466252	betterment
-5.466252	betters
-4.210979	betting
-4.864192	betty
-3.785011	between
-4.563162	beverage
-4.864192	beware
-5.165222	bewilder
-5.466252	bewildered
-5.466252	bewitch
-5.466252	bewitching
-5.466252	bey
-4.187499	beyond
-5.165222	bezel
-5.466252	bhat
-5.466252	biannual
-4.51201	bias
-5.165222	biasness
-5.466252	bib
-5.165222	bibb
-5.165222	bibi
-5.466252	bibliography
-5.466252	bicarbonate
-4.864192	biceps
-5.466252	bicker
-4.104524	bicycle
-4.42486	bid
-5.165222	bidder
-4.864192	bidding
-5.466252	bidet
-5.466252	bien
-3.563162	big
-5.466252	bigg
-3.947738	bigger
-3.989131	biggest
-5.466252	bight
-5.466252	bijou
-4.003854	bike
-4.235803	bikini
-5.466252	bilateral
-5.466252	bile
-4.767282	bilingual
-5.165222	bilingualism
-4.034888	bill
-5.466252	billabong
-4.767282	billboard
-5.466252	billed
-5.466252	biller
-5.466252	billet
-4.989131	billiard
-5.466252	billiards
-4.989131	billing
-4.387071	billion
-4.621154	billionaire
-4.51201	billy
-5.466252	bimonthly
-4.123829	bin
-5.165222	binary
-4.621154	bind
-4.688101	binder
-4.864192	binding
-4.688101	bing
-4.688101	binge
-4.320124	bingo
-5.466252	bino
-5.466252	binomial
-4.621154	biochemistry
-5.466252	biogen
-4.864192	biography
-5.466252	biologic
-4.262132	biological
-4.989131	biologically
-5.165222	biologist
-4.42486	biology
-5.466252	biometric
-5.466252	biometrics
-5.165222	bion
-5.466252	bioplastic
-5.466252	bios
-5.466252	biosis
-5.466252	biota
-5.466252	biotic
-4.989131	bipolar
-5.466252	birch
-3.886468	bird
-4.989131	birdie
-5.466252	birdman
-5.466252	birdy
-4.767282	biri
-3.785011	birth
-3.89805	birthday
-5.466252	birthmark
-5.165222	birthplace
-5.466252	birthright
-5.165222	bis
-4.42486	biscuit
-5.466252	bisexual
-5.165222	bishop
-5.466252	bismillah
-5.466252	bison
-4.989131	bisque
-4.864192	bistro
-3.483981	bit
-4.466252	bitch
-4.235803	bite
-5.165222	biter
-4.688101	biting
-4.688101	bitten
-4.320124	bitter
-5.466252	bitterly
-4.989131	bitterness
-4.989131	bittersweet
-5.466252	biwa
-5.165222	biweekly
-5.466252	biyearly
-4.51201	biz
-5.165222	bizarre
-5.466252	blabber
-3.653339	black
-5.466252	blackball
-4.387071	blackberry
-5.466252	blackbird
-4.563162	blackboard
-5.466252	blacker
-5.466252	blackface
-5.165222	blackfish
-4.864192	blackhead
-4.989131	blackheads
-5.466252	blackie
-5.165222	blackish
-5.165222	blackjack
-4.989131	blackmail
-4.688101	blackout
-4.989131	blacksmith
-5.466252	blackwater
-5.466252	blacky
-4.767282	bladder
-4.42486	blade
-5.466252	bladed
-4.989131	blading
-4.019094	blah
-5.165222	blair
-4.864192	blake
-4.262132	blame
-4.989131	blamed
-4.864192	blaming
-5.466252	blan
-5.466252	blanc
-5.165222	blanch
-4.688101	bland
-4.210979	blank
-5.165222	blanked
-4.466252	blanket
-5.466252	blanking
-5.165222	blankly
-5.165222	blare
-5.466252	blasphemy
-4.621154	blast
-5.165222	blasted
-5.165222	blaster
-5.165222	blasting
-5.165222	blatant
-5.165222	blatantly
-4.989131	blaze
-4.621154	blazer
-5.466252	blazing
-4.621154	bleach
-5.466252	bleached
-5.466252	bleacher
-5.466252	bleaching
-4.989131	bleak
-4.688101	bleed
-5.466252	bleeder
-4.003854	bleeding
-5.466252	blemish
-5.466252	blench
-4.290161	blend
-4.688101	blended
-4.210979	blender
-4.767282	blending
-4.466252	bless
-4.51201	blessed
-5.165222	blessedness
-4.51201	blessing
-5.466252	blight
-4.034888	blind
-4.989131	blinded
-4.864192	blinder
-4.864192	blindfold
-5.165222	blindfolded
-5.165222	blinding
-5.466252	blindless
-4.767282	blindly
-4.989131	blindness
-4.621154	blink
-5.466252	blinked
-5.466252	blinker
-4.864192	blinking
-5.466252	blinks
-5.165222	blip
-4.688101	bliss
-5.165222	blissful
-4.767282	blister
-5.466252	blistering
-5.466252	blitz
-5.466252	blizzard
-5.165222	bloat
-4.767282	bloated
-5.165222	bloatedness
-5.466252	bloating
-5.165222	blob
-5.165222	bloc
-3.702824	block
-5.466252	blockade
-5.466252	blockage
-5.165222	blockbuster
-4.621154	blocked
-5.165222	blocker
-4.989131	blockhead
-5.466252	blockhouse
-4.688101	blocking
-5.165222	bloke
-4.235803	blonde
-3.864192	blood
-4.989131	blooded
-5.466252	bloodied
-5.466252	bloodily
-4.688101	bloodline
-5.466252	bloodshed
-5.165222	bloodstain
-5.466252	bloodstained
-4.320124	bloody
-4.767282	bloom
-4.688101	bloomer
-5.466252	bloomers
-4.864192	blooming
-5.466252	bloop
-5.466252	blooper
-4.688101	blossom
-5.466252	blossomed
-5.466252	blot
-4.387071	blouse
-4.387071	blow
-5.165222	blower
-5.466252	blowfish
-5.466252	blowgun
-4.563162	blowing
-4.688101	blown
-5.466252	blowtorch
-5.466252	blub
-3.541973	blue
-5.466252	bluebeard
-4.563162	blueberry
-5.466252	bluegrass
-5.466252	blueness
-4.989131	blueprint
-5.466252	bluer
-4.262132	blues
-5.466252	bluey
-4.621154	bluff
-4.767282	bluish
-5.165222	blunder
-4.864192	blunt
-5.466252	bluntly
-5.466252	blup
-4.290161	blur
-4.989131	blurred
-5.165222	blurry
-5.466252	blurt
-4.767282	blush
-4.864192	blusher
-5.165222	blushing
-4.210979	bo
-5.466252	boa
-4.767282	boar
-3.934773	board
-4.864192	boarder
-4.563162	boarding
-5.165222	boardwalk
-4.864192	boast
-5.466252	boaster
-5.165222	boastful
-4.989131	boasting
-4.051279	boat
-5.466252	boater
-5.466252	boathouse
-4.767282	boating
-5.466252	boatman
-4.466252	bob
-5.466252	boba
-5.466252	bobbin
-5.466252	bobbing
-4.51201	bobby
-4.621154	bobo
-5.466252	bock
-5.466252	bod
-5.466252	bodhi
-5.165222	bodied
-5.466252	bodily
-3.803494	body
-4.864192	bodyguard
-5.466252	bog
-5.466252	bogan
-5.466252	bogey
-5.165222	boggle
-5.466252	boggy
-5.466252	bogie
-5.165222	bogo
-5.165222	bogus
-4.352309	boil
-4.621154	boiled
-4.864192	boiler
-4.688101	boiling
-5.466252	boisterous
-3.803494	bola
-4.688101	bold
-4.688101	bole
-4.989131	bolero
-5.466252	bolivia
-5.466252	boll
-5.466252	bolly
-4.989131	bolster
-4.767282	bolt
-5.466252	bolting
-5.165222	bolus
-4.51201	bom
-4.290161	bomb
-5.165222	bombard
-5.466252	bombardier
-5.466252	bombardment
-5.165222	bombastic
-5.165222	bombed
-4.688101	bomber
-4.989131	bombshell
-4.688101	bon
-5.165222	bonanza
-5.466252	bonce
-3.934773	bond
-5.165222	bondage
-4.621154	bonded
-5.466252	bonder
-4.352309	bonding
-4.320124	bone
-4.989131	boneless
-5.466252	boner
-5.466252	bonfire
-4.989131	bong
-5.165222	bongo
-4.989131	bonito
-5.466252	bonk
-4.688101	bonnet
-5.165222	bonny
-5.466252	bonsai
-3.710377	bonus
-5.466252	bonzer
-4.767282	boo
-5.165222	boob
-5.466252	boody
-5.466252	boohoo
-3.666912	book
-4.51201	booked
-5.466252	booker
-5.466252	bookie
-4.262132	booking
-5.466252	bookish
-4.767282	booklet
-5.466252	bookmaker
-4.563162	bookmark
-4.989131	bookshelf
-4.42486	bookshop
-4.466252	bookstore
-4.989131	bookworm
-5.466252	bool
-4.320124	boom
-5.165222	boomer
-4.864192	boomerang
-4.989131	booming
-4.466252	boon
-5.466252	boorish
-4.466252	boost
-4.767282	booster
-4.320124	boot
-4.187499	booth
-5.466252	booting
-5.466252	bootleg
-5.466252	bootlick
-4.320124	boots
-5.466252	bootstrap
-5.165222	booty
-5.165222	booze
-5.165222	bop
-5.165222	bor
-5.165222	bora
-4.290161	borak
-4.352309	border
-5.466252	bordered
-5.165222	bordering
-4.767282	borderline
-4.767282	bore
-5.466252	borealis
-5.165222	boredom
-5.466252	borg
-5.466252	boric
-3.875187	boring
-5.466252	boringly
-5.466252	boringness
-3.89805	born
-4.767282	borne
-5.466252	borough
-4.262132	borrow
-5.466252	borrower
-4.688101	borrowing
-5.165222	borsch
-5.466252	borscht
-5.165222	bosch
-5.165222	bose
-5.165222	bosom
-3.90995	boss
-5.466252	bossing
-4.989131	bossy
-4.42486	boston
-4.352309	bot
-5.466252	bota
-4.352309	botanic
-4.621154	botanical
-5.466252	botanist
-5.466252	botany
-3.653339	both
-4.144033	bother
-4.989131	bothersome
-4.019094	bottle
-4.864192	bottled
-5.466252	bottleneck
-5.466252	bottlenose
-5.466252	bottler
-5.466252	bottling
-3.832784	bottom
-5.466252	bottoming
-5.466252	bough
-3.832784	bought
-5.466252	bougie
-4.767282	boulder
-4.989131	bouldering
-4.688101	boulevard
-4.42486	bounce
-5.466252	bouncer
-4.621154	bouncing
-4.387071	bound
-4.767282	boundary
-4.989131	bounded
-4.989131	bounding
-5.466252	boundless
-4.864192	bounty
-4.864192	bouquet
-5.165222	bourbon
-5.466252	bourdon
-5.466252	bousy
-4.320124	bout
-5.466252	bovine
-4.387071	bow
-4.51201	bowel
-5.165222	bowels
-5.466252	bower
-5.466252	bowing
-4.104524	bowl
-5.165222	bowler
-4.104524	bowling
-4.767282	bowls
-3.875187	box
-4.621154	boxer
-4.42486	boxing
-5.466252	boxy
-3.710377	boy
-4.767282	boycott
-5.466252	boyish
-5.466252	bozo
-4.51201	bra
-4.864192	brace
-4.688101	bracelet
-4.767282	braces
-5.466252	bracing
-5.466252	brack
-4.621154	bracket
-4.767282	brad
-4.864192	brag
-5.466252	braggart
-4.989131	bragging
-5.165222	braid
-5.466252	braiding
-4.034888	brain
-4.989131	brainer
-4.989131	brainless
-4.621154	brains
-4.989131	brainwash
-5.466252	brainy
-5.165222	braise
-4.51201	brake
-4.989131	bran
-4.068312	branch
-5.466252	branched
-5.165222	branching
-3.934773	brand
-4.352309	branded
-4.688101	brandy
-4.688101	brass
-4.989131	brat
-4.42486	brave
-5.466252	braver
-4.864192	bravery
-5.466252	braving
-4.387071	bravo
-5.466252	brawl
-5.466252	brawn
-5.466252	brawny
-5.466252	bray
-4.320124	brazil
-4.989131	breach
-4.003854	bread
-5.466252	breadboard
-5.466252	breadbox
-5.165222	breadfruit
-5.466252	breadmaker
-5.165222	breadth
-4.989131	breadwinner
-3.803494	break
-5.466252	breakable
-5.165222	breakage
-5.165222	breakaway
-4.320124	breakdown
-4.290161	breaker
-4.068312	breakfast
-4.290161	breaking
-4.989131	breakout
-4.621154	breakthrough
-4.767282	breakup
-5.466252	bream
-4.320124	breast
-5.165222	breastfeeding
-4.187499	breath
-4.019094	breathe
-5.165222	breather
-3.741976	breathing
-4.262132	breathless
-4.767282	breathlessness
-4.864192	bred
-5.466252	bree
-5.466252	breech
-4.466252	breed
-5.466252	breeder
-4.989131	breeding
-4.51201	breeze
-5.165222	breezy
-5.165222	brent
-5.466252	bret
-5.165222	brett
-4.864192	brew
-5.466252	brewer
-5.165222	brewery
-5.466252	brewing
-5.466252	briar
-4.767282	bribe
-5.466252	bribery
-4.466252	brick
-5.466252	brickwork
-4.767282	bridal
-4.51201	bride
-4.989131	bridegroom
-4.864192	bridesmaid
-4.187499	bridge
-5.466252	bridger
-5.165222	bridging
-4.42486	brief
-4.165222	briefing
-4.563162	briefly
-5.466252	briefs
-4.767282	brigade
-4.290161	bright
-4.864192	brighten
-5.466252	brightener
-5.466252	brightening
-5.165222	brightly
-5.165222	brightness
-5.466252	brilliance
-4.688101	brilliant
-5.466252	brilliantly
-4.767282	brim
-5.466252	brimming
-5.466252	brimstone
-5.466252	brin
-5.466252	brine
-3.614994	bring
-5.466252	bringer
-4.864192	brinjal
-5.466252	brink
-5.466252	brioche
-4.563162	brisk
-5.466252	brisket
-5.165222	briskly
-5.165222	bristle
-4.989131	brit
-4.864192	brittle
-4.51201	broad
-4.563162	broadcast
-5.165222	broadcaster
-4.989131	broaden
-5.466252	broadly
-5.466252	broadness
-4.688101	broadway
-4.688101	broccoli
-4.563162	brochure
-4.989131	brock
-4.123829	broke
-4.210979	broken
-5.466252	brokenly
-5.466252	brokenness
-4.688101	broker
-4.989131	brokerage
-5.466252	broking
-5.466252	bronchiolitis
-4.989131	bronchitis
-5.466252	bronchus
-5.466252	bronco
-4.621154	bronze
-5.466252	bronzed
-4.989131	bronzer
-5.466252	bronzy
-5.466252	brooch
-5.165222	brood
-5.466252	brooding
-4.989131	broody
-4.767282	brook
-4.767282	broom
-5.466252	brose
-5.466252	brot
-4.688101	broth
-5.466252	brothel
-3.785011	brother
-4.989131	brotherhood
-4.989131	brotherly
-4.003854	brought
-4.688101	brow
-5.466252	browed
-3.710377	brown
-4.563162	brownie
-5.165222	browning
-4.387071	brownish
-5.466252	browny
-4.688101	browse
-4.621154	browser
-4.864192	browsing
-5.466252	bruin
-4.864192	bruise
-5.466252	bruising
-5.165222	brulee
-4.51201	brunch
-4.864192	brunette
-5.466252	brunt
-4.320124	brush
-5.165222	brushed
-5.466252	brusher
-4.989131	brushes
-4.989131	brushing
-5.466252	brushless
-4.864192	brutal
-5.466252	brutalize
-5.165222	brutally
-5.466252	brute
-5.466252	brutish
-4.290161	bu
-4.466252	bual
-4.187499	bubble
-4.989131	bubbling
-4.767282	bubbly
-5.466252	bubby
-4.563162	buck
-5.466252	bucker
-4.051279	bucket
-4.864192	buckle
-5.466252	buckling
-5.466252	buckwheat
-5.466252	bucky
-4.688101	bud
-5.466252	buda
-5.466252	buddhi
-5.466252	budding
-4.262132	buddy
-4.989131	budge
-4.086041	budget
-4.688101	buff
-4.621154	buffalo
-4.767282	buffer
-4.051279	buffet
-5.466252	buffy
-4.210979	bug
-5.165222	bugaboo
-4.989131	bugger
-4.864192	buggy
-5.165222	bugle
-4.019094	build
-4.989131	builder
-3.875187	building
-4.320124	built
-4.767282	bulb
-5.165222	bulge
-5.466252	bulimia
-4.352309	bulk
-4.621154	bulky
-4.51201	bull
-4.864192	bulldog
-5.466252	bulldoze
-5.466252	bulldozer
-4.51201	bullet
-5.466252	bulletin
-5.165222	bulletproof
-5.466252	bullion
-5.165222	bullish
-5.165222	bullock
-4.352309	bully
-4.621154	bullying
-4.688101	bum
-4.989131	bumble
-4.767282	bumblebee
-5.466252	bummed
-5.165222	bummer
-5.466252	bumming
-4.42486	bump
-4.466252	bumper
-4.989131	bumping
-4.989131	bumpy
-4.320124	bun
-5.466252	buna
-4.320124	bunch
-5.165222	bund
-4.387071	bundle
-5.466252	bung
-4.51201	bungalow
-4.42486	bungee
-5.466252	bungy
-4.51201	bunk
-5.165222	bunker
-4.563162	bunny
-5.466252	buntal
-4.864192	bunting
-5.466252	bunton
-4.989131	buoy
-5.466252	buoyance
-5.466252	buoyancy
-5.165222	buoyant
-4.989131	bur
-5.466252	burd
-4.387071	burden
-5.165222	burdensome
-4.864192	bureau
-4.767282	bureaucracy
-5.165222	bureaucratic
-5.466252	burette
-5.466252	burg
-5.466252	burgess
-4.989131	burglar
-5.165222	burglary
-5.165222	buri
-4.989131	burial
-4.864192	buried
-5.165222	burke
-4.144033	burn
-4.864192	burned
-4.989131	burner
-4.352309	burning
-5.466252	burnout
-4.563162	burnt
-4.864192	burp
-4.864192	burrito
-5.466252	burro
-4.989131	burrow
-5.466252	burrower
-5.466252	burry
-5.466252	bursa
-4.688101	bursary
-5.466252	burse
-4.387071	burst
-4.688101	bury
-5.165222	burying
-3.785011	bus
-5.466252	busby
-4.165222	bush
-5.165222	bushy
-3.785011	business
-5.466252	businesslike
-4.563162	businessman
-5.165222	businesswoman
-4.989131	busker
-5.466252	buss
-4.864192	bust
-4.864192	busted
-4.864192	buster
-5.165222	bustle
-5.165222	bustling
-3.922184	busy
-4.235803	busybody
-4.864192	busying
-5.466252	busyness
-2.925923	but
-4.989131	butch
-4.262132	butcher
-5.466252	butchery
-4.989131	butler
-4.387071	butt
-4.187499	butter
-5.165222	butterball
-5.165222	buttercup
-4.989131	buttered
-5.466252	butterfingers
-4.320124	butterfly
-4.989131	buttermilk
-5.466252	butternut
-5.466252	butterscotch
-4.864192	buttery
-5.466252	butting
-4.989131	buttock
-4.144033	button
-5.466252	buttoned
-4.466252	buttons
-3.453415	buy
-5.466252	buyable
-4.42486	buyer
-4.688101	buzz
-5.466252	buzzer
-5.165222	buzzing
-5.466252	buzzle
-5.165222	buzzy
-3.401794	by
-3.424859	bye
-4.688101	bypass
-5.466252	bystander
-3.376347	c
-4.290161	ca
-4.235803	cab
-5.466252	caba
-5.165222	cabana
-4.621154	cabbage
-4.688101	cabby
-4.51201	cabin
-4.621154	cabinet
-4.235803	cable
-5.466252	cabling
-5.466252	caboose
-4.989131	cacao
-4.864192	cache
-5.466252	cacophony
-4.989131	cad
-5.466252	caddie
-4.688101	cadet
-5.466252	cadi
-4.989131	cafeteria
-4.688101	caffeine
-4.235803	cage
-4.989131	caged
-5.466252	caiman
-5.165222	cain
-5.466252	cajun
-3.922184	cake
-4.989131	cakey
-4.989131	cal
-5.466252	calamansi
-5.466252	calamary
-5.165222	calamity
-4.767282	calcium
-4.165222	calculate
-4.466252	calculated
-4.767282	calculating
-4.387071	calculation
-4.864192	calculative
-4.42486	calculator
-4.989131	calculus
-4.210979	calendar
-4.688101	calender
-4.989131	calf
-4.989131	caliber
-5.466252	calibrate
-5.466252	calibration
-5.165222	calibre
-5.466252	calisthenics
-3.335918	call
-4.387071	callable
-4.320124	caller
-5.466252	calligrapher
-4.864192	calligraphy
-3.579761	calling
-5.466252	callus
-4.262132	calm
-4.989131	calmer
-5.165222	calmly
-5.165222	calmness
-5.466252	caloric
-4.688101	calorie
-5.466252	calve
-5.466252	calves
-3.961102	cam
-5.466252	camaraderie
-5.466252	camber
-3.718064	came
-4.563162	camel
-5.466252	cameo
-4.086041	camera
-4.989131	cameraman
-5.466252	camomile
-4.989131	camouflage
-3.947738	camp
-4.51201	campaign
-5.165222	campaigner
-4.864192	camper
-5.165222	campfire
-5.466252	campo
-4.42486	campus
-2.966565	can
-4.262132	canada
-4.688101	canal
-5.165222	canary
-5.466252	canasta
-4.034888	cancel
-4.767282	cancellation
-4.187499	cancer
-4.864192	cancerous
-5.466252	cand
-5.165222	candid
-4.688101	candidate
-4.51201	candle
-4.989131	candlelight
-5.466252	candlelit
-5.466252	candlenut
-5.466252	candler
-4.262132	candy
-4.42486	cane
-5.466252	canel
-5.466252	canister
-4.864192	canned
-4.989131	cannibal
-5.466252	cannibalism
-4.688101	canning
-4.767282	cannon
-3.362448	cannot
-4.864192	cannula
-5.165222	canny
-4.563162	canoe
-4.621154	canoeing
-5.466252	canoeist
-4.688101	canon
-4.864192	canopy
-5.466252	canso
-4.352309	cant
-5.466252	cantata
-4.123829	canteen
-5.466252	canto
-5.466252	canton
-5.466252	cantonal
-4.767282	cantonment
-4.51201	canvas
-4.864192	canvass
-4.688101	canyon
-3.961102	cap
-4.563162	capability
-4.466252	capable
-5.165222	capacitor
-4.51201	capacity
-4.563162	cape
-5.466252	caped
-5.165222	capes
-4.123829	capital
-4.767282	capitalism
-5.165222	capitalist
-5.466252	capitalistic
-5.466252	capitalization
-5.466252	capitalize
-5.466252	capitation
-5.466252	capless
-5.165222	caplin
-4.767282	capped
-5.466252	capper
-5.466252	capping
-5.165222	caprice
-4.989131	capsicum
-5.165222	capsize
-5.466252	capstone
-4.290161	capsule
-4.262132	captain
-4.387071	caption
-5.466252	captivate
-5.165222	captivating
-4.989131	captive
-5.165222	captivity
-4.42486	capture
-3.591191	car
-4.466252	caramel
-5.466252	caramelize
-5.466252	carat
-4.767282	caravan
-4.621154	carbo
-4.864192	carbohydrate
-4.563162	carbon
-5.466252	carboxylic
-5.165222	carcass
-5.466252	carcinogen
-3.621154	card
-5.466252	cardamom
-4.563162	cardboard
-5.466252	carded
-5.466252	cardholder
-4.688101	cardiac
-4.864192	cardigan
-5.466252	cardiologist
-5.466252	cardiovascular
-5.165222	cardo
-3.660072	care
-5.466252	careen
-3.81304	career
-5.466252	careerist
-4.51201	carefree
-4.290161	careful
-4.51201	carefully
-4.563162	careless
-5.165222	carelessly
-5.165222	carelessness
-5.165222	caress
-4.989131	caretaker
-4.621154	cargo
-5.466252	caricature
-5.466252	caries
-5.466252	carillon
-5.466252	carious
-4.864192	carl
-5.466252	carless
-5.165222	carls
-5.165222	carnage
-5.466252	carnal
-5.466252	carnally
-4.989131	carnation
-4.621154	carnival
-4.989131	carnivore
-5.466252	carnivorous
-4.621154	carol
-4.767282	caroline
-4.989131	carom
-5.466252	carp
-4.767282	carpenter
-4.989131	carpentry
-4.621154	carpet
-4.989131	carr
-4.864192	carriage
-5.466252	carriageway
-4.621154	carried
-4.688101	carrier
-5.165222	carrion
-4.144033	carrot
-3.947738	carry
-4.210979	carrying
-5.165222	carsick
-4.466252	cart
-4.767282	carte
-4.864192	cartel
-4.688101	carter
-4.767282	carton
-4.235803	cartoon
-5.466252	cartoonist
-4.864192	cartridge
-4.989131	carve
-5.466252	carven
-5.165222	carving
-3.680922	case
-5.466252	caseworker
-3.832784	cash
-4.864192	cashew
-4.352309	cashier
-5.165222	cashmere
-4.621154	casing
-4.187499	casino
-5.466252	cask
-5.165222	casket
-5.165222	cass
-5.466252	casse
-5.165222	cassia
-4.387071	cast
-5.466252	castaway
-5.165222	caste
-4.864192	caster
-4.767282	casting
-4.235803	castle
-5.466252	castor
-5.466252	castrate
-4.387071	casual
-4.767282	casually
-4.864192	casualty
-3.886468	cat
-5.165222	cataclysm
-4.989131	catalogue
-4.621154	catalyst
-5.466252	catalyze
-4.864192	catapult
-5.466252	cataract
-5.165222	catastrophe
-5.466252	catastrophic
-3.947738	catch
-4.621154	catcher
-5.466252	catchiness
-4.290161	catching
-5.165222	catchment
-4.864192	catchup
-4.51201	catchy
-5.466252	cate
-5.466252	catechism
-5.466252	categorical
-5.466252	categorization
-4.864192	categorize
-4.320124	category
-4.51201	cater
-5.165222	caterer
-4.989131	caterpillar
-4.864192	catfish
-5.466252	catharsis
-5.466252	cathect
-5.165222	cathedral
-4.621154	catheter
-5.466252	cathode
-4.688101	catholic
-5.466252	catholicism
-5.165222	cation
-4.688101	cattle
-4.989131	catty
-5.165222	catwalk
-4.034888	caught
-5.165222	cauliflower
-5.466252	causal
-5.466252	causality
-5.165222	causally
-5.165222	causation
-3.310916	cause
-4.621154	causeway
-4.688101	causing
-5.165222	caustic
-5.466252	cauterize
-4.688101	caution
-4.767282	cautious
-5.165222	cavalry
-4.466252	cave
-5.466252	caveat
-5.165222	cavendish
-5.466252	cavern
-4.767282	caviar
-5.466252	caving
-4.989131	cavity
-5.466252	cavy
-5.165222	cay
-4.989131	cayenne
-4.864192	cayman
-4.688101	ce
-4.767282	cease
-5.466252	cebur
-4.989131	cedar
-5.466252	ceilidh
-4.466252	ceiling
-4.104524	celebrate
-4.621154	celebrated
-4.352309	celebration
-5.165222	celebratory
-4.352309	celebrity
-4.767282	celery
-5.165222	celeste
-4.290161	cell
-5.466252	cella
-5.466252	cellar
-5.466252	celled
-4.989131	cello
-5.466252	cellophane
-5.165222	cellular
-4.767282	cement
-4.563162	cemetery
-4.767282	censor
-4.989131	censorship
-5.466252	censure
-4.210979	cent
-5.466252	centaur
-5.165222	centennial
-3.886468	center
-4.864192	centered
-5.466252	centerpiece
-5.165222	centigrade
-4.989131	centimeter
-4.989131	centipede
-4.123829	central
-5.466252	centrale
-5.466252	centrality
-5.466252	centralization
-5.466252	centralize
-5.466252	centrally
-5.466252	centric
-4.51201	century
-5.466252	cep
-4.989131	ceramic
-5.165222	ceramics
-5.466252	cerate
-4.864192	cere
-4.320124	cereal
-5.466252	cerebellum
-5.165222	cerebral
-5.165222	ceremonial
-4.51201	ceremony
-4.767282	ceria
-5.466252	cero
-3.785011	certain
-4.51201	certainly
-4.864192	certainty
-4.034888	certificate
-4.688101	certification
-4.51201	certified
-4.864192	certify
-4.563162	certis
-5.466252	cerulean
-5.466252	cervical
-5.165222	cervix
-5.466252	cess
-5.466252	cessation
-5.466252	cession
-5.466252	ceti
-4.51201	cha
-5.165222	chad
-4.563162	chai
-4.262132	chain
-4.989131	chained
-3.947738	chair
-4.767282	chairman
-5.466252	chairwoman
-5.466252	chais
-5.466252	chakra
-4.290161	chalet
-4.767282	chalk
-5.466252	chalker
-5.466252	chalky
-4.187499	challenge
-4.864192	challenger
-4.864192	cham
-4.767282	chamber
-5.466252	chamberlain
-5.466252	chambermaid
-5.165222	chameleon
-4.864192	champ
-4.621154	champagne
-5.466252	champaign
-4.466252	champion
-4.864192	championship
-3.90995	chance
-5.466252	chancellor
-5.466252	chancery
-4.989131	chandelier
-5.165222	chandler
-4.563162	chang
-3.541973	change
-5.466252	changeable
-5.466252	changeling
-4.864192	changer
-4.086041	channel
-5.466252	channeled
-5.466252	channeling
-5.466252	chanson
-4.621154	chant
-4.989131	chanting
-4.621154	chao
-4.621154	chaos
-4.767282	chaotic
-4.688101	chap
-4.688101	chapel
-5.466252	chaperon
-5.466252	chaperone
-5.466252	chappie
-5.466252	chaps
-5.466252	chapt
-4.42486	chapter
-4.187499	char
-5.466252	charac
-3.886468	character
-4.387071	characteristic
-5.466252	characteristically
-5.466252	characterization
-5.165222	charade
-4.621154	charcoal
-5.466252	chard
-5.466252	chare
-3.922184	charge
-5.466252	chargeable
-4.51201	charger
-4.466252	charging
-5.466252	chariot
-4.864192	charisma
-4.989131	charismatic
-4.989131	charitable
-4.262132	charity
-5.466252	chark
-5.466252	charlatan
-4.621154	charm
-5.165222	charmer
-4.42486	charming
-5.466252	charmingly
-5.466252	charr
-4.290161	chart
-4.767282	charter
-4.320124	chartered
-5.165222	charting
-4.187499	chase
-4.989131	chaser
-4.42486	chasing
-5.466252	chassis
-4.068312	chat
-5.466252	chateau
-5.165222	chatter
-4.989131	chatterbox
-5.466252	chattering
-4.563162	chatting
-4.989131	chatty
-4.989131	chauffeur
-5.466252	chauvinism
-5.466252	chauvinist
-5.466252	chauvinistic
-5.466252	chaw
-5.466252	chay
-4.621154	che
-3.832784	cheap
-4.989131	cheaply
-4.235803	cheat
-4.767282	cheater
-4.320124	cheating
-3.470617	check
-5.466252	checkable
-4.210979	checked
-4.989131	checker
-5.466252	checkerboard
-4.864192	checkered
-5.466252	checkers
-5.165222	checkmate
-4.767282	checkup
-4.563162	chee
-4.387071	cheek
-5.466252	cheekbone
-5.466252	cheekiness
-4.688101	cheeky
-4.387071	cheer
-5.165222	cheered
-4.563162	cheerful
-5.466252	cheerfulness
-4.767282	cheering
-5.466252	cheerleader
-4.989131	cheery
-3.886468	cheese
-5.165222	cheeseburger
-4.51201	cheesecake
-4.563162	cheesy
-4.42486	cheetah
-4.123829	chef
-4.290161	chemical
-5.165222	chemically
-5.466252	chemis
-4.989131	chemist
-4.165222	chemistry
-4.864192	chemotherapy
-4.466252	cheng
-4.387071	cheque
-4.621154	cherish
-4.387071	cherry
-5.165222	cherub
-4.42486	chess
-5.466252	chessman
-3.97489	chest
-4.989131	chester
-5.466252	chesterfield
-4.767282	chestnut
-5.165222	chesty
-4.864192	chevron
-5.466252	chevy
-4.387071	chew
-4.621154	chewy
-4.387071	chi
-4.767282	chia
-4.767282	chic
-4.51201	chick
-3.660072	chicken
-4.621154	chief
-5.466252	chiefly
-5.466252	chien
-5.165222	chiffon
-4.989131	chil
-3.516862	child
-5.466252	childbearing
-4.989131	childbirth
-3.886468	childhood
-4.466252	childish
-4.989131	childlike
-4.864192	chile
-4.187499	chili
-4.003854	chill
-4.767282	chilled
-5.165222	chiller
-4.563162	chilling
-5.466252	chillness
-4.864192	chilly
-5.466252	chimaera
-5.466252	chime
-5.466252	chimera
-4.864192	chimney
-4.989131	chimpanzee
-4.387071	chin
-3.725889	china
-5.466252	chinchilla
-5.165222	chine
-4.621154	ching
-5.466252	chink
-5.165222	chino
-4.352309	chip
-5.165222	chipmunk
-5.466252	chipped
-5.466252	chipping
-4.262132	chips
-5.466252	chiropractic
-5.165222	chiropractor
-5.466252	chirp
-4.51201	chit
-5.466252	chitchat
-5.466252	chitty
-5.466252	chivalrous
-5.165222	chivalry
-5.466252	chloride
-4.864192	chlorine
-5.466252	chloroform
-4.989131	cho
-5.466252	chock
-4.019094	chocolate
-3.864192	choice
-4.387071	choir
-4.290161	choke
-4.290161	choker
-4.387071	choking
-5.466252	cholecystitis
-5.466252	cholera
-4.621154	cholesterol
-4.42486	chomp
-3.680922	choose
-4.51201	choosing
-4.864192	choosy
-4.144033	chop
-5.466252	chopin
-4.864192	chopped
-4.688101	chopper
-4.563162	chopping
-4.864192	choppy
-4.864192	chopstick
-5.466252	choral
-4.767282	chord
-4.320124	chore
-5.466252	chorea
-5.165222	choreograph
-5.165222	choreographer
-4.989131	choreography
-4.688101	chorus
-4.290161	chose
-4.51201	chosen
-4.51201	chow
-5.466252	chowder
-4.51201	chrome
-5.466252	chromo
-5.466252	chromosome
-5.466252	chromotherapy
-4.767282	chronic
-5.466252	chronically
-5.165222	chronicle
-5.466252	chronograph
-5.165222	chronological
-5.466252	chrysalis
-4.989131	chrysanthemum
-4.767282	chubby
-4.688101	chuck
-5.466252	chuckle
-4.864192	chucky
-5.466252	chug
-5.165222	chulan
-5.466252	chum
-5.466252	chummy
-4.621154	chun
-4.767282	chunk
-4.864192	chunky
-4.068312	church
-5.466252	churlish
-5.165222	churn
-5.466252	churning
-4.466252	chute
-5.466252	chutney
-4.989131	cicada
-5.466252	cicely
-4.864192	cider
-4.864192	cigar
-4.387071	cigarette
-5.165222	cilia
-5.165222	cinder
-4.989131	cine
-4.235803	cinema
-4.864192	cinematic
-5.165222	cinematography
-4.864192	cinnamon
-5.466252	cinque
-5.466252	circa
-3.67386	circle
-4.51201	circled
-4.621154	circling
-4.466252	circuit
-4.466252	circular
-4.864192	circulate
-4.767282	circulation
-4.989131	circumference
-4.989131	circumstance
-5.466252	circumstantial
-5.466252	circumvent
-4.563162	circus
-5.466252	cirque
-5.466252	cirrus
-4.688101	cisco
-4.989131	cit
-5.466252	citadel
-4.864192	citation
-4.352309	cite
-4.466252	citer
-4.003854	citizen
-4.144033	citizenship
-5.165222	citrus
-3.822799	city
-5.466252	cityscape
-4.688101	civic
-5.165222	civics
-4.387071	civil
-4.864192	civilian
-5.466252	civility
-4.767282	civilization
-5.466252	civilize
-4.767282	civilized
-5.466252	civilly
-5.466252	clad
-5.466252	clag
-3.785011	claim
-4.320124	claimable
-5.466252	claimant
-5.466252	claimer
-4.688101	clam
-5.466252	clamber
-5.165222	clammy
-4.989131	clamp
-4.621154	clan
-5.466252	clandestine
-5.466252	clang
-4.51201	clap
-4.989131	clapping
-5.466252	claret
-4.621154	clarification
-4.320124	clarify
-5.165222	clarinet
-5.466252	clarinetist
-4.864192	clarity
-4.621154	clark
-4.563162	clash
-3.725889	class
-5.466252	classable
-5.466252	classer
-4.051279	classes
-4.352309	classic
-4.51201	classical
-5.466252	classically
-4.864192	classification
-4.621154	classified
-5.466252	classism
-4.290161	classmate
-4.235803	classroom
-5.466252	classwork
-4.767282	classy
-4.864192	clause
-5.466252	claustrophobia
-4.51201	claw
-5.466252	clawed
-4.42486	clay
-5.165222	claymore
-3.90995	clean
-4.320124	cleaner
-4.187499	cleaning
-4.767282	cleanliness
-5.466252	cleanly
-5.466252	cleanness
-4.688101	cleanse
-4.51201	cleanser
-4.989131	cleansing
-5.165222	cleanup
-3.89805	clear
-4.767282	clearance
-4.688101	clearer
-4.387071	clearing
-4.235803	clearly
-5.466252	cleavage
-5.466252	cleave
-4.767282	cleaver
-5.466252	clef
-5.466252	cleft
-5.466252	clemency
-4.767282	clement
-5.165222	clench
-5.165222	clerical
-4.466252	clerk
-4.466252	clever
-4.563162	cliche
-3.934773	click
-4.104524	client
-5.466252	clientele
-4.621154	cliff
-4.563162	climate
-5.466252	climatic
-4.767282	climax
-4.123829	climb
-4.688101	climber
-4.290161	climbing
-5.165222	clinch
-5.466252	cline
-4.864192	cling
-5.165222	clinging
-4.864192	clingy
-4.123829	clinic
-4.864192	clinical
-5.466252	clinician
-5.466252	clink
-5.165222	clint
-4.466252	clip
-5.466252	clipped
-4.989131	clipper
-4.688101	clips
-4.290161	clique
-5.466252	cliquish
-5.466252	clive
-5.165222	cloak
-5.466252	cloaking
-4.864192	cloakroom
-4.165222	clock
-5.165222	clocked
-4.42486	clockwise
-5.466252	clockwork
-4.989131	clog
-4.563162	clone
-3.666912	close
-4.068312	closed
-4.290161	closely
-4.989131	closeness
-4.165222	closer
-4.864192	closet
-4.621154	closure
-4.989131	clot
-4.144033	cloth
-4.864192	clothe
-3.922184	clothes
-5.466252	clotheshorse
-5.466252	clothesline
-4.290161	clothing
-4.235803	cloud
-5.165222	cloudburst
-5.165222	clouded
-5.165222	clouding
-4.767282	cloudy
-5.466252	clout
-5.466252	clouted
-5.466252	clove
-4.989131	clover
-4.621154	clown
-5.466252	cloying
-3.864192	club
-5.165222	clubber
-4.387071	clubbing
-5.466252	clubby
-5.165222	clubhouse
-5.466252	clubroom
-5.466252	cluck
-4.387071	clue
-5.165222	clump
-5.466252	clumpy
-5.466252	clumsily
-5.466252	clumsiness
-4.767282	clumsy
-5.466252	clung
-4.42486	cluster
-5.165222	clustered
-4.989131	clustering
-4.688101	clutch
-4.989131	clutter
-4.187499	coach
-4.51201	coaching
-5.466252	coagulant
-5.466252	coagulate
-5.466252	coagulation
-4.767282	coal
-5.466252	coalition
-5.466252	coaming
-4.989131	coarse
-4.187499	coast
-4.688101	coastal
-4.290161	coaster
-5.466252	coasting
-4.466252	coat
-5.165222	coated
-4.989131	coating
-5.165222	coauthor
-5.466252	coax
-5.466252	coaxing
-5.466252	cob
-5.466252	cobalt
-5.466252	cobber
-5.466252	cobble
-4.864192	cobra
-5.165222	cobweb
-4.767282	coca
-5.165222	cocaine
-5.466252	coccus
-5.466252	cochlear
-4.387071	cock
-5.466252	cockatoo
-5.466252	cocked
-5.165222	cocker
-5.466252	cockeye
-4.989131	cockle
-5.165222	cockney
-4.989131	cockpit
-4.352309	cockroach
-4.621154	cocktail
-4.563162	cocky
-4.320124	coco
-4.621154	cocoa
-4.320124	coconut
-5.466252	cocoon
-4.864192	cod
-5.466252	coddle
-3.81304	code
-5.165222	codeine
-4.563162	coder
-5.466252	codfish
-5.466252	codify
-4.989131	coe
-5.466252	coed
-5.466252	coeducational
-5.165222	coexist
-3.843003	coffee
-4.864192	coffeehouse
-5.466252	coffer
-4.621154	coffin
-5.466252	cog
-5.165222	cognition
-4.864192	cognitive
-5.466252	cognitively
-5.466252	cohabit
-5.466252	cohere
-5.466252	coherence
-4.864192	coherent
-5.466252	coherently
-5.165222	cohesion
-5.466252	cohesive
-5.466252	cohesively
-5.466252	cohesiveness
-4.621154	cohort
-4.989131	coil
-4.352309	coin
-4.864192	coincide
-4.210979	coincidence
-4.688101	coincident
-4.989131	coincidental
-4.688101	coincidentally
-4.989131	coincidently
-5.466252	coir
-4.290161	coke
-5.165222	coker
-5.466252	coking
-4.864192	col
-4.51201	cola
-5.466252	colander
-3.864192	cold
-4.767282	colder
-5.466252	coldly
-4.989131	coldness
-5.466252	cole
-4.688101	coleslaw
-5.165222	coli
-5.466252	colic
-4.621154	colin
-5.466252	coll
-4.767282	collaborate
-4.767282	collaboration
-5.466252	collaborative
-5.466252	collaborator
-4.989131	collage
-4.864192	collagen
-4.466252	collapse
-5.466252	collapsible
-4.563162	collar
-4.989131	collarbone
-5.466252	collared
-5.466252	collarless
-4.989131	collate
-4.989131	collateral
-5.466252	collation
-4.019094	colleague
-3.90995	collect
-5.466252	collectable
-4.387071	collected
-4.989131	collectible
-4.235803	collection
-4.621154	collective
-4.989131	collectively
-4.864192	collectivism
-4.688101	collector
-4.235803	college
-5.466252	collegiate
-5.466252	collet
-5.165222	collide
-5.165222	collie
-4.864192	collin
-4.864192	collins
-4.989131	collision
-5.165222	colloquial
-4.864192	colon
-4.989131	colonel
-4.989131	colonial
-5.466252	colonialism
-5.466252	colonist
-5.466252	colonize
-5.466252	colonoscopy
-4.989131	colony
-3.733858	color
-5.165222	colorado
-5.466252	coloratura
-4.563162	colored
-5.466252	colorfast
-4.688101	colorful
-5.165222	colorfully
-4.989131	coloring
-5.466252	colorize
-5.165222	colorless
-4.42486	colors
-5.466252	colossal
-3.497769	colour
-4.989131	colt
-5.466252	colugo
-5.466252	columbarium
-4.466252	column
-5.466252	columnist
-5.466252	coly
-4.563162	coma
-5.466252	comatose
-4.621154	comb
-4.621154	combat
-4.290161	combination
-4.290161	combine
-4.51201	combined
-4.688101	combing
-5.466252	combining
-5.165222	combustion
-5.466252	comby
-3.390705	come
-4.688101	comeback
-4.621154	comedian
-4.989131	comedic
-4.235803	comedy
-5.466252	comely
-4.767282	comer
-3.875187	comes
-5.466252	comet
-4.003854	comfort
-3.934773	comfortable
-4.688101	comfortably
-5.165222	comforter
-4.767282	comforting
-4.989131	comfy
-4.42486	comic
-5.165222	comical
-3.733858	coming
-4.621154	comma
-4.51201	command
-4.621154	commander
-5.165222	commanding
-4.688101	commando
-5.165222	commemorate
-5.165222	commence
-5.165222	commencement
-5.165222	commend
-5.165222	commendable
-5.466252	commendator
-4.262132	comment
-4.767282	commentary
-5.165222	commentator
-5.466252	commenter
-4.767282	commerce
-4.290161	commercial
-5.466252	commercialization
-4.989131	commercialize
-4.290161	commission
-5.466252	commissional
-4.767282	commissioner
-4.290161	commit
-4.290161	commitment
-4.262132	committee
-4.989131	commodity
-3.961102	common
-5.466252	commonality
-5.466252	commoner
-4.688101	commonly
-5.165222	commonplace
-5.466252	commons
-5.466252	commonweal
-4.42486	commonwealth
-4.864192	commotion
-4.864192	communal
-5.466252	commune
-5.165222	communicable
-4.235803	communicate
-4.767282	communicating
-4.235803	communication
-4.688101	communicative
-5.165222	communicator
-5.466252	communion
-4.767282	communism
-4.864192	communist
-5.165222	communistic
-4.068312	community
-4.989131	commute
-5.165222	commuter
-5.165222	commuting
-4.621154	compact
-5.466252	compacted
-5.466252	compactness
-5.165222	compactor
-4.51201	companion
-5.466252	companionable
-4.767282	companionship
-3.640177	company
-4.767282	comparable
-5.466252	comparably
-4.989131	comparative
-4.989131	comparatively
-4.019094	compare
-4.51201	comparison
-5.466252	compart
-4.989131	compartment
-5.466252	compartmentalize
-4.688101	compass
-4.688101	compassion
-4.864192	compassionate
-5.165222	compatibility
-4.767282	compatible
-5.165222	compel
-5.466252	compelling
-4.563162	compensate
-5.466252	compensating
-4.621154	compensation
-4.466252	compete
-4.767282	competence
-4.989131	competency
-4.767282	competent
-4.144033	competition
-4.262132	competitive
-5.165222	competitively
-4.864192	competitiveness
-4.767282	competitor
-5.165222	compilation
-4.621154	compile
-4.989131	compiler
-5.466252	complacency
-4.864192	complacent
-3.90995	complain
-5.165222	complainant
-5.165222	complainer
-4.42486	complaint
-5.466252	complaisance
-4.864192	complement
-5.466252	complementary
-4.068312	complete
-4.210979	completely
-5.466252	completeness
-5.466252	completer
-4.621154	completion
-4.290161	complex
-5.165222	complexion
-4.989131	complexity
-4.989131	compliance
-5.165222	compliant
-4.989131	complicate
-4.290161	complicated
-4.688101	complication
-4.688101	compliment
-4.864192	complimentary
-4.864192	comply
-4.767282	compo
-4.688101	component
-5.466252	compos
-4.767282	compose
-4.864192	composed
-4.989131	composer
-5.466252	composite
-4.563162	composition
-5.165222	compost
-5.466252	composure
-4.51201	compound
-5.466252	compounder
-5.165222	compounding
-4.864192	comprehend
-4.621154	comprehension
-4.688101	comprehensive
-4.864192	compress
-5.165222	compressed
-4.767282	compression
-4.989131	compressor
-5.165222	comprise
-5.466252	comprised
-4.563162	compromise
-4.989131	compromising
-5.466252	compulsion
-5.165222	compulsive
-4.320124	compulsory
-4.989131	computation
-5.165222	computational
-4.688101	compute
-3.875187	computer
-4.989131	comrade
-5.466252	comradery
-4.086041	con
-4.989131	concave
-4.989131	conceal
-5.466252	concealed
-4.563162	concealer
-4.989131	concede
-5.466252	conceded
-5.466252	conceit
-5.466252	conceited
-5.466252	conceivable
-4.864192	conceive
-4.387071	concentrate
-4.767282	concentrated
-4.290161	concentration
-4.989131	concentrator
-5.466252	concentric
-4.165222	concept
-5.165222	conception
-5.165222	conceptual
-5.466252	conceptually
-4.165222	concern
-4.42486	concerned
-4.864192	concerning
-4.068312	concert
-5.466252	concerted
-5.466252	concertgoer
-5.466252	concerto
-4.51201	concession
-5.165222	conch
-5.165222	concierge
-5.466252	conciliatory
-4.989131	concise
-5.466252	concisely
-4.767282	conclude
-5.466252	concluding
-4.466252	conclusion
-5.466252	conclusive
-5.466252	conclusively
-5.466252	concoction
-5.466252	concordance
-4.864192	concourse
-4.51201	concrete
-4.989131	concubine
-5.165222	concur
-5.466252	concurrence
-5.165222	concurrent
-4.864192	concurrently
-5.466252	concurring
-5.165222	concuss
-4.989131	concussion
-4.352309	cond
-4.688101	condemn
-5.466252	condemnation
-5.165222	condemned
-5.466252	condemning
-5.165222	condensation
-4.989131	condense
-4.688101	condensed
-5.466252	condenser
-4.621154	condescending
-5.165222	condiment
-4.086041	condition
-4.42486	conditional
-5.466252	conditionally
-4.767282	conditioned
-4.563162	conditioner
-5.466252	condolence
