
\data\
ngram 1=6122
ngram 2=0
ngram 3=0

\1-grams:
-3.47257	</s>
-3.47257	<noise>
-99	<s>
-3.47257	<v-noise>
-3.47257	__Abraham_Solomon
-3.47257	__Admiralty_Greens
-3.47257	__Admiralty_Road
-3.47257	__Admiralty_West
-3.47257	__Ah_Hood_Road
-3.47257	__Aida_Street
-3.47257	__Airline_Road
-3.47257	__Airport_Cargo_Road
-3.47257	__Al_Islamiah
-3.47257	__Al_Islamic
-3.47257	__Alex_Josey
-3.47257	__Alexander_Laurie_Johnston
-3.47257	__Alexandra_Lane
-3.47257	__Alexandra_Road
-3.47257	__Aliman_Hassan
-3.47257	__Aljunied_Avenue
-3.47257	__Aljunied_Crescent
-3.47257	__Aljunied_Hussein
-3.47257	__Aljunied_Neighbourhood
-3.47257	__Aljunied_Road
-3.47257	__Alnwick_Road
-3.47257	__Amasalam_Chetty_Road
-3.47257	__Anak_Bukit
-3.47257	__Anchorvale_Drive
-3.47257	__Anchorvale_Street
-3.47257	__Ang_Mo_Kio
-3.47257	__Ang_Mo_Kio_Street
-3.47257	__Ang_Peng_Tiam
-3.47257	__Angsana_Avenue
-3.47257	__Angsana_Drive
-3.47257	__Ann_Siang_Hill
-3.47257	__Anthony_Road
-3.47257	__Arab_Street
-3.47257	__Arrival_Crescent
-3.47257	__Arts_Link
-3.47257	__Arumugam_Road
-3.47257	__Asia_Pacific
-3.47257	__Asia_Square
-3.47257	__Asimont_Lane
-3.47257	__Attap_Valley_Lane
-3.47257	__Au_Yun_Pak
-3.47257	__Auckland_Road_West
-3.47257	__Australian_International
-3.47257	__Ava_Road
-3.47257	__Avon_Road
-3.47257	__Baker_Street
-3.47257	__Bali_Lane
-3.47257	__Balmoral_Crescent
-3.47257	__Bao_Gong
-3.47257	__Bartley_Road
-3.47257	__Beach_Road
-3.47257	__Beatty_Road
-3.47257	__Bedok_Anchorvale_Crescent
-3.47257	__Bedok_Green
-3.47257	__Bedok_Lighthouse
-3.47257	__Bedok_North
-3.47257	__Bedok_Point
-3.47257	__Bedok_Points
-3.47257	__Bedok_Reservoir
-3.47257	__Bedok_Ria_Crescent
-3.47257	__Bedok_South
-3.47257	__Bedok_View
-3.47257	__Beeh_Low_See
-3.47257	__Begonia_Walk
-3.47257	__Belilios_Lane
-3.47257	__Belmont_Road
-3.47257	__Bernice_Ong
-3.47257	__Bethlehem_Bible_Presbyterian
-3.47257	__Binchang_Rise
-3.47257	__Bishan_Point
-3.47257	__Bishan_Street
-3.47257	__Blackmore_Drive
-3.47257	__Bliss_Hotel
-3.47257	__Blue_Cross
-3.47257	__Blue_Stars
-3.47257	__Bo_Seng_Avenue
-3.47257	__Boarding_House
-3.47257	__Boat_Quay
-3.47257	__Bodmin_Drive
-3.47257	__Bonham_Street
-3.47257	__Boon_Keng
-3.47257	__Boon_Lay
-3.47257	__Boon_Lay_Place
-3.47257	__Boon_Tat_Street
-3.47257	__Boon_Teck_Road
-3.47257	__Borthwick_Drive
-3.47257	__Boundary_Road
-3.47257	__Braddell_Road
-3.47257	__Brani_Drive
-3.47257	__Brani_Marine
-3.47257	__Brani_Way
-3.47257	__Bridport_Avenue
-3.47257	__Bright_Hill
-3.47257	__Bristol_Road
-3.47257	__Buangkok_View
-3.47257	__Bukit_Batok
-3.47257	__Bukit_Batok_Avenue
-3.47257	__Bukit_Batok_Avenue_West
-3.47257	__Bukit_Batok_Central
-3.47257	__Bukit_Batok_Central_Link
-3.47257	__Bukit_Batok_Crescent
-3.47257	__Bukit_Batok_East
-3.47257	__Bukit_Batok_East_Avenue
-3.47257	__Bukit_Batok_Road
-3.47257	__Bukit_Batok_Street
-3.47257	__Bukit_Batok_West
-3.47257	__Bukit_Batok_West_Avenue
-3.47257	__Bukit_Chandu
-3.47257	__Bukit_Ho_Swee_Link
-3.47257	__Bukit_Manis_Road
-3.47257	__Bukit_Merah
-3.47257	__Bukit_Merah_View
-3.47257	__Bukit_Mugliston
-3.47257	__Bukit_Sedap_Road
-3.47257	__Bukit_Teresa_Close
-3.47257	__Bukit_Timah
-3.47257	__Bukit_Timah_Avenue
-3.47257	__Bukit_Timah_Link
-3.47257	__Bukit_Timah_Plaza
-3.47257	__Bukit_Timah_Road
-3.47257	__Bukit_Tinggi_Road
-3.47257	__Burmah_Road
-3.47257	__Burmese_Buddhist
-3.47257	__Bury_Road
-3.47257	__Buyong_Road
-3.47257	__Canberra_View
-3.47257	__Canning_Lane
-3.47257	__Canning_Rise
-3.47257	__Cantonment_Complex
-3.47257	__Carisbrooke_Grove
-3.47257	__Carl_Alexander
-3.47257	__Carlton_Avenue
-3.47257	__Carnation_Drive
-3.47257	__Cashew_Crescent
-3.47257	__Cashew_Road
-3.47257	__Cassia_Crescent
-3.47257	__Ceylon_Road
-3.47257	__Chai_Chee
-3.47257	__Chai_Chee_Drive
-3.47257	__Chai_Chee_Street
-3.47257	__Chan_Chun_Sing
-3.47257	__Chan_Sek_Keong
-3.47257	__Chancery_Lane
-3.47257	__Chang_Ziang
-3.47257	__Changi_Business_Park_Vista
-3.47257	__Changi_Coast
-3.47257	__Changi_East_Drive
-3.47257	__Changi_East_Road
-3.47257	__Changi_South_Lane
-3.47257	__Changi_Village_Road
-3.47257	__Changkat_Changi
-3.47257	__Chatsworth_Road
-3.47257	__Cheang_Hong_Lim_Place
-3.47257	__Cheang_Hong_Lim_Street
-3.47257	__Chencharu_Lane
-3.47257	__Chencharu_Link
-3.47257	__Cheo_Kim_Ban
-3.47257	__Chestnut_Crescent
-3.47257	__Chew_Kheng_Chuan
-3.47257	__Chin_Bee_Road
-3.47257	__Chin_Cheng_Avenue
-3.47257	__Chin_Chew_Street
-3.47257	__Chin_Swee
-3.47257	__China_Street
-3.47257	__Chinatown_Complex
-3.47257	__Chinatown_Hotel
-3.47257	__Chinatown_Point
-3.47257	__Chinese_Garden
-3.47257	__Chinese_Garden_Road
-3.47257	__Choa_Chu_Kang
-3.47257	__Choa_Chu_Kang_Loop
-3.47257	__Choa_Chu_Kang_West
-3.47257	__Chong_Pang
-3.47257	__Chong_Pang_Combined
-3.47257	__Chong_You_Fook_Charles
-3.47257	__Chong_Zheng
-3.47257	__Choon_Guan_Street
-3.47257	__Choor_Singh_Sidhu
-3.47257	__Christalite_Methodist
-3.47257	__Christopher_Henry_Rothwell
-3.47257	__Chu_Siang_Tong
-3.47257	__Chuan_Hoe_Avenue
-3.47257	__Chuan_Walk
-3.47257	__Chulia_Street
-3.47257	__Chwee_Chian_View
-3.47257	__Circular_Road
-3.47257	__Claymore_Road
-3.47257	__Cleantech_View
-3.47257	__Clementi_Street
-3.47257	__Clive_Street
-3.47257	__Clunny_Hill
-3.47257	__Colchester_Grove
-3.47257	__College_Of_Medicine
-3.47257	__Collyer_Quay
-3.47257	__Compassvale_Drive
-3.47257	__Compassvale_Road
-3.47257	__Coney_Island
-3.47257	__Connexis_South
-3.47257	__Constance_Singam
-3.47257	__Cook_Street
-3.47257	__Copeland_Avenue
-3.47257	__Copthorne_King'S
-3.47257	__Corfe_Place
-3.47257	__Corporation_Road
-3.47257	__Countryside_Grove
-3.47257	__Countryside_View
-3.47257	__Court_Road
-3.47257	__Covenant_Community_Methodist
-3.47257	__Craig_Road
-3.47257	__Cranborne_Road
-3.47257	__Creek_Mangrove
-3.47257	__Croucher_Road
-3.47257	__Crowhurst_Drive
-3.47257	__Cuff_Road
-3.47257	__Cuscaden_Walk
-3.47257	__Da_Bo_Gong
-3.47257	__Daffodil_Drive
-3.47257	__Dahan_Road
-3.47257	__Dairy_Farm
-3.47257	__Dairy_Farm_Crescent
-3.47257	__Dalkeith_Road
-3.47257	__Darrell_Ang
-3.47257	__Dawson_North_Spring
-3.47257	__Dedap_Road
-3.47257	__Delta_Avenue
-3.47257	__Depot_Close
-3.47257	__Depot_Walk
-3.47257	__Devan_Nair
-3.47257	__Dimensions_International
-3.47257	__Dinding_Place
-3.47257	__Dock_Road_East
-3.47257	__Dock_Road_West
-3.47257	__Douglas_Hamilton
-3.47257	__Dover_Drive
-3.47257	__Drake_Avenue
-3.47257	__Drake_Lane
-3.47257	__Dunlop_Street
-3.47257	__Duxton_Road
-3.47257	__East_Avenue
-3.47257	__East_Coast_Avenue
-3.47257	__East_Spring
-3.47257	__Eastern_Health_Alliance
-3.47257	__Eau_Thermale_Avene
-3.47257	__Edgware_Road
-3.47257	__Edmund_Blundell
-3.47257	__Edmund_Chen
-3.47257	__Edwin_Browns
-3.47257	__Ee_Teow_Leng_Road
-3.47257	__Elias_Green
-3.47257	__Elias_Park_Avenue
-3.47257	__Ellice_Handy
-3.47257	__Empress_Road
-3.47257	__Eng_Hoon_Street
-3.47257	__Eng_Kong_Road
-3.47257	__Eng_Neo_Avenue
-3.47257	__Ernani_Street
-3.47257	__Esther_Tan
-3.47257	__Eu_Yee_Ming_Richard
-3.47257	__Eunos_Avenue
-3.47257	__Evolution_Garden_Walk
-3.47257	__Faber_Walk
-3.47257	__Fairway_Club
-3.47257	__Fairy_Point_Hill
-3.47257	__Faith_Methodist
-3.47257	__Faith_Sanctuary_Garden_Avenue
-3.47257	__Famous_Amos
-3.47257	__Fan_Yoong_Road
-3.47257	__Farrer_Garden
-3.47257	__Farrer_Park
-3.47257	__Fernvale_Lane
-3.47257	__Fire_Station
-3.47257	__Flint_Street
-3.47257	__Florence_Road
-3.47257	__Flower_Road
-3.47257	__Fo_Shan_Ting
-3.47257	__Foch_Road
-3.47257	__Folkestone_Road
-3.47257	__Fortune_Students
-3.47257	__Fourth_Street
-3.47257	__Francis_Thomas_Drive
-3.47257	__Fuk_Tak_Chi
-3.47257	__Fullerton_Bay
-3.47257	__Fulton_Avenue
-3.47257	__Fusionopolis_Walk
-3.47257	__Gallop_Park
-3.47257	__Gallop_Road
-3.47257	__Gambir_Walk
-3.47257	__Gan_Eng_Seng
-3.47257	__Gateway_Avenue
-3.47257	__Gateway_Inn
-3.47257	__George_Nigel
-3.47257	__Gerald_Crescent
-3.47257	__Geylang_Bahru
-3.47257	__Geylang_Bahru_Lane
-3.47257	__Geylang_Bahru_Terrace
-3.47257	__Geylang_East_Avenue
-3.47257	__Geylang_East_Central
-3.47257	__Geylang_Lorong
-3.47257	__Geylang_Lorong_Labang
-3.47257	__Geylang_Methodist
-3.47257	__Geylang_Methodist_School
-3.47257	__Geylang_Road
-3.47257	__Geylang_Serai
-3.47257	__Geylang_Square
-3.47257	__Geylang_United
-3.47257	__Giant_Spring
-3.47257	__Gibraltar_Crescent
-3.47257	__Gibson_Hill
-3.47257	__Gilstead_Road
-3.47257	__Giok_Hong_Tian
-3.47257	__Goldhill_Place
-3.47257	__Gopeng_Street
-3.47257	__Gordon_Arthur_Ransome
-3.47257	__Grace_Walk
-3.47257	__Great_World
-3.47257	__Green_Kiwi_Backpacker
-3.47257	__Green_Taipei
-3.47257	__Green_Zeng
-3.47257	__Greendale_Rise
-3.47257	__Greenfield_Drive
-3.47257	__Greenridge_Crescent
-3.47257	__Greenwich_Drive
-3.47257	__Grove_Crescent
-3.47257	__Guillemard_Lane
-3.47257	__Guillemard_Road
-3.47257	__Gul_Lane
-3.47257	__Gul_Street
-3.47257	__Guok_Avenue
-3.47257	__Gurkha_Contingent
-3.47257	__Hai_Sing_Crescent
-3.47257	__Haigsville_Drive
-3.47257	__Haji_Lane
-3.47257	__Halifax_Road
-3.47257	__Hamilton_Place
-3.47257	__Hampstead_Garden
-3.47257	__Hang_Chang_Chieh
-3.47257	__Happy_Hotel
-3.47257	__Harlyn_Road
-3.47257	__Harrison_Road
-3.47257	__Havelock_Road
-3.47257	__Hiang_Foo_Siang_Temple
-3.47257	__Hillview_Avenue
-3.47257	__Hilton_International
-3.47257	__Hindhede_Road
-3.47257	__Hindoo_Road
-3.47257	__Ho_Ching_Road
-3.47257	__Ho_Lee_Ling
-3.47257	__Ho_Ling
-3.47257	__Hock_Chuan
-3.47257	__Holland_Grove_Lane
-3.47257	__Holland_Hill
-3.47257	__Holland_Village
-3.47257	__Home_Team_Academy
-3.47257	__Hong_Kah
-3.47257	__Hong_San
-3.47257	__Hospital_Avenue
-3.47257	__Hougang_Avenue
-3.47257	__Hougang_One
-3.47257	__How_Sun_Drive
-3.47257	__How_Sun_Road
-3.47257	__How_Sun_Walk
-3.47257	__Hsu_Tse_Kwang
-3.47257	__Hubert_Hill
-3.47257	__Hume_Avenue
-3.47257	__Hussein_Aljunied
-3.47257	__Hwee_Kuan
-3.47257	__Hythe_Road
-3.47257	__Imbiah_Walk
-3.47257	__Inderjit_Singh
-3.47257	__Inggu_Road
-3.47257	__Institute_Of_Engineer_Singapore
-3.47257	__International_Student_Support
-3.47257	__Ipoh_Lane
-3.47257	__Iqbal_Avenue
-3.47257	__Irving_Place
-3.47257	__Jalan_Anak_Bukit
-3.47257	__Jalan_Azam'S
-3.47257	__Jalan_Baiduri
-3.47257	__Jalan_Bangsawan
-3.47257	__Jalan_Basong
-3.47257	__Jalan_Batu_Ubin
-3.47257	__Jalan_Bena
-3.47257	__Jalan_Berjaya
-3.47257	__Jalan_Berseri
-3.47257	__Jalan_Binja
-3.47257	__Jalan_Binjai
-3.47257	__Jalan_Boon_Lay
-3.47257	__Jalan_Bumbong
-3.47257	__Jalan_Bunga_Rampai
-3.47257	__Jalan_Bungar
-3.47257	__Jalan_Chengkek
-3.47257	__Jalan_Dondang_Sayang
-3.47257	__Jalan_Dua
-3.47257	__Jalan_Dusun
-3.47257	__Jalan_Enam
-3.47257	__Jalan_Gemala
-3.47257	__Jalan_Girang
-3.47257	__Jalan_Greja
-3.47257	__Jalan_Hajijah
-3.47257	__Jalan_Hari_Raya
-3.47257	__Jalan_Jeruju
-3.47257	__Jalan_Jong
-3.47257	__Jalan_Kampong_Chantek
-3.47257	__Jalan_Kampong_Siglap
-3.47257	__Jalan_Kayu_Manis
-3.47257	__Jalan_Kechil
-3.47257	__Jalan_Keli
-3.47257	__Jalan_Kemaman
-3.47257	__Jalan_Keruing
-3.47257	__Jalan_Kesoma
-3.47257	__Jalan_Khairuddin
-3.47257	__Jalan_Klapa
-3.47257	__Jalan_Kledek
-3.47257	__Jalan_Klinik
-3.47257	__Jalan_Kwok_Min
-3.47257	__Jalan_Lana
-3.47257	__Jalan_Langgar_Bedok
-3.47257	__Jalan_Lapang
-3.47257	__Jalan_Layang_Layang
-3.47257	__Jalan_Lembah_Bedok
-3.47257	__Jalan_Lempeng
-3.47257	__Jalan_Lengkok
-3.47257	__Jalan_Lengkok_Sembawang
-3.47257	__Jalan_Limau_Bali
-3.47257	__Jalan_Limau_Nipis
-3.47257	__Jalan_Limau_Purut
-3.47257	__Jalan_Limbok
-3.47257	__Jalan_Mamam
-3.47257	__Jalan_Mangkok
-3.47257	__Jalan_Manis
-3.47257	__Jalan_Mastuli
-3.47257	__Jalan_Membina
-3.47257	__Jalan_Mempurong
-3.47257	__Jalan_Mengkudu
-3.47257	__Jalan_Mesra
-3.47257	__Jalan_Minggu
-3.47257	__Jalan_Minyak
-3.47257	__Jalan_Noordin
-3.47257	__Jalan_Novena
-3.47257	__Jalan_Nuri
-3.47257	__Jalan_Paras
-3.47257	__Jalan_Pari_Kikis
-3.47257	__Jalan_Pelangi
-3.47257	__Jalan_Pelatina
-3.47257	__Jalan_Pelatok
-3.47257	__Jalan_Pelepah
-3.47257	__Jalan_Pelikat
-3.47257	__Jalan_Peradun
-3.47257	__Jalan_Pinang
-3.47257	__Jalan_Puteri
-3.47257	__Jalan_Rajah
-3.47257	__Jalan_Rebana
-3.47257	__Jalan_Remis
-3.47257	__Jalan_Rendang
-3.47257	__Jalan_Rukam
-3.47257	__Jalan_Sabit
-3.47257	__Jalan_Seh_Chuan
-3.47257	__Jalan_Selamat
-3.47257	__Jalan_Selimang
-3.47257	__Jalan_Senang
-3.47257	__Jalan_Sendudok
-3.47257	__Jalan_Senyum
-3.47257	__Jalan_Setia
-3.47257	__Jalan_Shaer
-3.47257	__Jalan_Siap
-3.47257	__Jalan_Simpang_Bedok
-3.47257	__Jalan_Sukachita
-3.47257	__Jalan_Sungei_Poyan
-3.47257	__Jalan_Tan_Tock_Seng
-3.47257	__Jalan_Tanah
-3.47257	__Jalan_Tanah_Rata
-3.47257	__Jalan_Tanjong
-3.47257	__Jalan_Tari_Lilin
-3.47257	__Jalan_Tari_Zapin
-3.47257	__Jalan_Tarum
-3.47257	__Jalan_Tenang
-3.47257	__Jalan_Tenteram
-3.47257	__Jalan_Tepong
-3.47257	__Jalan_Tiga_Ratus
-3.47257	__Jalan_Ulu_Seletar
-3.47257	__Jalan_Ulu_Sembawang
-3.47257	__Jalan_Wajek
-3.47257	__Jalan_Yasin
-3.47257	__Jalan_Zamrud
-3.47257	__Jamaica_Road
-3.47257	__Janet_Lim
-3.47257	__Janil_Puthucheary
-3.47257	__Jervois_Hill
-3.47257	__Ji_Huang_Kok
-3.47257	__Jiak_Chuan_Road
-3.47257	__Joan_Road
-3.47257	__Joanne_Soo
-3.47257	__John_Fearns_Nicolls
-3.47257	__John_Le_Cain
-3.47257	__John_Morrice
-3.47257	__Joo_Avenue
-3.47257	__Joo_Koon_Crescent
-3.47257	__Jula_Juli
-3.47257	__Junction_Nine
-3.47257	__Jupiter_Road
-3.47257	__Jurong_Bird
-3.47257	__Jurong_East_Avenue
-3.47257	__Jurong_Island
-3.47257	__Jurong_Port
-3.47257	__Jurong_West
-3.47257	__Jurong_West_Avenue
-3.47257	__Jurong_West_Central
-3.47257	__Kaki_Bukit
-3.47257	__Kallang_Airport_Drive
-3.47257	__Kampong_Ampat
-3.47257	__Kampong_Arang_Road
-3.47257	__Kampong_Bahru
-3.47257	__Kampong_Bahru_Road
-3.47257	__Kampong_Bugis
-3.47257	__Kampong_Bugis_Crescent
-3.47257	__Kampong_Bukit_Coffee
-3.47257	__Kampong_Chai_Chee
-3.47257	__Kampong_Eunos
-3.47257	__Kampong_Glam
-3.47257	__Kampong_Java
-3.47257	__Kampong_Kapor_Road
-3.47257	__Kampong_Kayu_Road
-3.47257	__Kampong_Kembangan
-3.47257	__Kampong_Sireh
-3.47257	__Kampong_Sungai_Tiga
-3.47257	__Kampong_Ubi
-3.47257	__Kampong_Wak_Hassan
-3.47257	__Kampung_Glam
-3.47257	__Kampung_Melayu
-3.47257	__Katmandu_Road
-3.47257	__Kay_Siang_Road
-3.47257	__Keat_Hong_Link
-3.47257	__Kebun_Baru
-3.47257	__Keck_Seng
-3.47257	__Kee_Seng_Street
-3.47257	__Kee_Sun_Avenue
-3.47257	__Keene_Road
-3.47257	__Keng_Lee_Road
-3.47257	__Kent_Ridge_Crescent
-3.47257	__Kent_Ridge_Drive
-3.47257	__Kent_Road
-3.47257	__Kenya_Crescent
-3.47257	__Keppel_Bay
-3.47257	__Keramat_Road
-3.47257	__Kerong_Walk
-3.47257	__Kew_Avenue
-3.47257	__Kew_Walk
-3.47257	__Khaw_Boon_Wan
-3.47257	__Kian_Teck_Road
-3.47257	__Kiew_Sian_King
-3.47257	__Kim_Chuan_Road
-3.47257	__Kim_Hong
-3.47257	__Kim_Keat
-3.47257	__Kim_Seng
-3.47257	__Kim_Seng_Road
-3.47257	__Kim_Tian_Place
-3.47257	__Kinara_Lane
-3.47257	__Kismis_Road
-3.47257	__Kitchener_Road
-3.47257	__Klang_Road
-3.47257	__Koh_Mui_Hiang
-3.47257	__Koh_Seow_Chuan
-3.47257	__Kouo_Shang_Wei
-3.47257	__Kranji_Commonwealth
-3.47257	__Kranji_Crescent
-3.47257	__Kreta_Ayer
-3.47257	__Kuang_Chee_Tng
-3.47257	__Kwan_Im_Tng
-3.47257	__Kwan_Imm_See
-3.47257	__Kwong_Min_Road
-3.47257	__Kwong_Wai_Siew
-3.47257	__La_Mode
-3.47257	__Lam_Pin_Min
-3.47257	__Lambeth_Walk
-3.47257	__Larkhill_Road
-3.47257	__Lau_Kuo_Kwong_Robert
-3.47257	__Lavender_Street
-3.47257	__Le_Peranakan
-3.47257	__Lee_Boon_Ngan
-3.47257	__Lee_Kong_Chian
-3.47257	__Lee_Kong_Yan
-3.47257	__Lee_Shih_Shiong_Peter
-3.47257	__Lempeng_Drive
-3.47257	__Leng_Chai_Chee
-3.47257	__Lengkok_Angsa
-3.47257	__Lengkok_Lima
-3.47257	__Lengkok_Satu
-3.47257	__Lengkok_Satu_Sago_Street
-3.47257	__Lengkong_Dua
-3.47257	__Lentor_Way
-3.47257	__Leo_Drive
-3.47257	__Lew_Lian_Vale
-3.47257	__Lewis_Road
-3.47257	__Li_Hui_Cheng
-3.47257	__Liane_Road
-3.47257	__Liang_Court
-3.47257	__Liao_Yingru
-3.47257	__Lichi_Avenue
-3.47257	__Lien_Ying_Chow_Drive
-3.47257	__Lilac_Road
-3.47257	__Lilliputt_Indoor_Mini_Golf
-3.47257	__Lily_Avenue
-3.47257	__Lim_Ah_Pin_Road
-3.47257	__Lim_Ah_Woo_Road
-3.47257	__Lim_Chong_Pang
-3.47257	__Lim_Chu_Kang
-3.47257	__Lim_Chu_Kang_Lane
-3.47257	__Lim_Lee
-3.47257	__Lim_Teck_Boo_Road
-3.47257	__Lim_Teck_Kim_Road
-3.47257	__Lim_Tua_Tow_Road
-3.47257	__Limau_Garden
-3.47257	__Lin_Tan
-3.47257	__Little_Road
-3.47257	__Lloyd_Road
-3.47257	__Loh_Lik_Peng
-3.47257	__Lornie_Walk
-3.47257	__Lorong_Abu_Talib
-3.47257	__Lorong_Bachok
-3.47257	__Lorong_Batawi
-3.47257	__Lorong_Buangkok
-3.47257	__Lorong_Gambas
-3.47257	__Lorong_Kembang
-3.47257	__Lorong_Kilat_Pek_Kio
-3.47257	__Lorong_Lew_Lian
-3.47257	__Lorong_Mesu
-3.47257	__Lorong_Pasu
-3.47257	__Lorong_Paya_Lebar
-3.47257	__Lorong_Pendek
-3.47257	__Lorong_Pisang_Asam
-3.47257	__Lorong_Pisang_Batu
-3.47257	__Lorong_Sarina_D'Leedon
-3.47257	__Lorong_Siglap
-3.47257	__Lorong_Sinaran
-3.47257	__Louis_Chen
-3.47257	__Lower_Seletar_Close
-3.47257	__Lower_Seletar_Reservoir
-3.47257	__Loyang_Street
-3.47257	__Lucy_Tan
-3.47257	__Lutheran_Road
-3.47257	__Macalister_Road
-3.47257	__Macpherson_Road
-3.47257	__Macritchie_Reservoir
-3.47257	__Maggie_Teng
-3.47257	__Mah_Bow_Tan
-3.47257	__Management_Development_Institute_Of_Singapore
-3.47257	__Mandai_Tekong
-3.47257	__Mandarin_Gardens
-3.47257	__Manila_Street
-3.47257	__Maple_Avenue
-3.47257	__Margate_Road
-3.47257	__Marina_Bay
-3.47257	__Marina_Bay_Sands
-3.47257	__Marina_One
-3.47257	__Marina_Promenade
-3.47257	__Marina_Way
-3.47257	__Marine_Parade
-3.47257	__Marine_Parade_Road
-3.47257	__Maris_Stella
-3.47257	__Maritime_Square
-3.47257	__Marshall_Lane
-3.47257	__Marsiling_Crescent
-3.47257	__Marsiling_Drive
-3.47257	__Marsiling_Neighbourhood
-3.47257	__Marsiling_Rise
-3.47257	__Marsiling_Road
-3.47257	__Martin_Road
-3.47257	__Masjid_Alkaff
-3.47257	__Mayflower_Way
-3.47257	__Medical_Drive
-3.47257	__Mei_Chin_Road
-3.47257	__Mei_Hwan_Drive
-3.47257	__Meng_Suan_Road
-3.47257	__Meranti_Avenue
-3.47257	__Merlimau_Place
-3.47257	__Meteorological_Services_Singapore
-3.47257	__Methodist_Girls'
-3.47257	__Michelle_Lim
-3.47257	__Middlesex_Road
-3.47257	__Miller_Street
-3.47257	__Miltonia_Link
-3.47257	__Mimosa_Vale
-3.47257	__Monk'S_Hill_Road
-3.47257	__Montreal_Link
-3.47257	__Moonbeam_Drive
-3.47257	__Moonbeam_Walk
-3.47257	__Moral_Welfare
-3.47257	__Moreton_Close
-3.47257	__Morgan_Chua
-3.47257	__Moriah_Bible_Presby
-3.47257	__Mornington_Crescent
-3.47257	__Mount_Faber_Loop
-3.47257	__Mount_Faber_Road
-3.47257	__Movenpick_Heritage
-3.47257	__Muhammadiyah_Welfare
-3.47257	__Mulberry_Avenue
-3.47257	__Muswell_Hill
-3.47257	__My_Saviour'S
-3.47257	__N_Palanivelu
-3.47257	__Nagore_Dargah
-3.47257	__Namly_Rise
-3.47257	__Nan_Chiau
-3.47257	__Nanyang_Avenue
-3.47257	__Nanyang_Girls'
-3.47257	__Nanyang_Poly_Drive
-3.47257	__Nanyang_Valley
-3.47257	__Napier_Road
-3.47257	__Nasi_Goreng
-3.47257	__Natalie_Hennedige
-3.47257	__National_Arts_Council
-3.47257	__National_Equestrian_Centre
-3.47257	__National_Neuroscience_Institute
-3.47257	__National_Neuroscience_Institute_Of_Singapore
-3.47257	__Nativity_Of_The_Blessed_Virgin_Mary_Concord
-3.47257	__Nee_Soon
-3.47257	__Nee_Soon_East
-3.47257	__Neo_Tiew_Lane
-3.47257	__Neo_Tiew_Road
-3.47257	__Nepal_Link
-3.47257	__Newton_Cirus
-3.47257	__Newton_Life
-3.47257	__Nexus_International_School
-3.47257	__Ng_Chee_Meng
-3.47257	__North_Buona_Vista_Drive
-3.47257	__North_Spring
-3.47257	__North_Vista
-3.47257	__North_West
-3.47257	__Northshore_Drive
-3.47257	__Northshore_Link
-3.47257	__Oak_Avenue
-3.47257	__Ocean_Way
-3.47257	__Office_Road
-3.47257	__Ogilvy_Centre
-3.47257	__Old_Birdcage_Walk
-3.47257	__Old_Cathay
-3.47257	__Old_Choa_Chu_Kang_Road
-3.47257	__Old_Hill_Street
-3.47257	__Old_Terminal_Lane
-3.47257	__Old_Upper_Thomson
-3.47257	__Omar_Ali
-3.47257	__Omar_Khayyam_Avenue
-3.47257	__One_Farrer
-3.47257	__One_George_Street
-3.47257	__One_North_Avenue
-3.47257	__One_North_Link
-3.47257	__One_Tree_Hill
-3.47257	__Onitsuka_Tiger
-3.47257	__Onraet_Road
-3.47257	__Orchard_Bel_Air
-3.47257	__Orchard_Point
-3.47257	__Orchard_Spring
-3.47257	__Orchard_Spring_Lane
-3.47257	__Orchard_Turn
-3.47257	__Orchid_Park
-3.47257	__Oriole_Crescent
-3.47257	__Outram_Park
-3.47257	__Oxford_Road
-3.47257	__Palm_Avenue
-3.47257	__Palm_Road
-3.47257	__Pan_Pacific
-3.47257	__Pan_Shou
-3.47257	__Pandan_Avenue
-3.47257	__Pang_Seng_Road
-3.47257	__Park_Avenue
-3.47257	__Parry_Avenue
-3.47257	__Pasir_Panjang_Road
-3.47257	__Pasir_Panjang_View
-3.47257	__Pasir_Ris
-3.47257	__Pasir_Ris_Road
-3.47257	__Pasir_Ris_View
-3.47257	__Pasir_Ris_Way
-3.47257	__Paterson_Road
-3.47257	__Paya_Lebar
-3.47257	__Paya_Lebar_Place
-3.47257	__Paya_Ubi
-3.47257	__Peace_Centre
-3.47257	__Peakville_Avenue
-3.47257	__Peakville_Grove
-3.47257	__Pebble_Lane
-3.47257	__Peck_San_Theng
-3.47257	__Peck_Seah_Street
-3.47257	__Peirce_Hill
-3.47257	__Pemimpin_Drive
-3.47257	__Penang_Road
-3.47257	__Peng_Kang_Avenue
-3.47257	__Peng_Nguan
-3.47257	__Peninsula_Plaza
-3.47257	__Penjuru_Road
-3.47257	__Perahu_Road
-3.47257	__Percival_Road
-3.47257	__Pereira_Road
-3.47257	__Perumal_Govindaswamy
-3.47257	__Perumal_Road
-3.47257	__Ping_Yi
-3.47257	__Platina_Road
-3.47257	__Plaza_Singapura
-3.47257	__Poh_Ern_Shih
-3.47257	__Poh_Huat_Road
-3.47257	__Poh_Jay
-3.47257	__Post_Florence_Road
-3.47257	__Prince_Of_Wales_Road
-3.47257	__Prinsep_Street
-3.47257	__Prome_Road
-3.47257	__Puat_Jit_Buddhist
-3.47257	__Pulau_Ubin
-3.47257	__Punggol_Avenue
-3.47257	__Qing_De_Gong
-3.47257	__Queen_Elizabeth_Walk
-3.47257	__Radin_Mas
-3.47257	__Raffles_Place
-3.47257	__Rahayu_Mahzam
-3.47257	__Rahim_Omar
-3.47257	__Rail_Mall
-3.47257	__Rajabali_Jumabhoy
-3.47257	__Rambutan_Road
-3.47257	__Rasok_Drive
-3.47257	__Rebecca_Chua
-3.47257	__Red_Cross
-3.47257	__Red_Swastika
-3.47257	__Redhill_Road
-3.47257	__Redwood_Grove
-3.47257	__Revival_Centre
-3.47257	__Richard_Eric_Holttum
-3.47257	__Ring_Road
-3.47257	__Rita_Zahara
-3.47257	__River_City
-3.47257	__River_Safari
-3.47257	__River_Valley
-3.47257	__Riverina_Walk
-3.47257	__Rivervale_Plaza
-3.47257	__Robert_Soon
-3.47257	__Robert_V_Chandran_Way
-3.47257	__Robin_Tessensohn
-3.47257	__Robinson_Road
-3.47257	__Rochor_Kongsi
-3.47257	__Rochor_Road
-3.47257	__Rosaline_Chan_Pang
-3.47257	__Ruby_Lane
-3.47257	__Russels_Road
-3.47257	__Safra_Jurong
-3.47257	__Safra_Punggol
-3.47257	__Saint_Helier'S_Avenue
-3.47257	__Saint_Hilda'S
-3.47257	__Saint_James
-3.47257	__Saint_Nicholas_View
-3.47257	__Saint_Paul'S
-3.47257	__Saint_Stephen'S
-3.47257	__Saint_Wilfred_Road
-3.47257	__Saint_Xavier'S
-3.47257	__Saint_Xavier'S_Lane
-3.47257	__Sakra_Road
-3.47257	__Sakya_Tenphel_Ling
-3.47257	__Sam_Kee
-3.47257	__Sandilands_Road
-3.47257	__Science_Park
-3.47257	__Sea_Breeze_Grove
-3.47257	__Seah_Mei_Lin
-3.47257	__Secondary_School
-3.47257	__Segar_Close
-3.47257	__Segar_Kampong_Arang_Road
-3.47257	__Selarang_Road
-3.47257	__Seletar_Close
-3.47257	__Seletar_Club
-3.47257	__Seletar_Club_Road
-3.47257	__Seletar_Court
-3.47257	__Seletar_East
-3.47257	__Seletar_Green_Avenue
-3.47257	__Seletar_Hill
-3.47257	__Seletar_Hill_Drive
-3.47257	__Seletar_Hills_Drive
-3.47257	__Seletar_Link
-3.47257	__Seletar_Lodge_One
-3.47257	__Seletar_North
-3.47257	__Seletar_North_Lane
-3.47257	__Seletar_Satellite
-3.47257	__Seletar_Satellite_Station_Road
-3.47257	__Seletar_South_Road
-3.47257	__Seletar_West
-3.47257	__Seletar_Wests
-3.47257	__Sembawang_Alley
-3.47257	__Sembawang_Avenue
-3.47257	__Sembawang_Berlayer
-3.47257	__Sembawang_Country_Club
-3.47257	__Sembawang_God_Of_Wealth
-3.47257	__Sembawang_Hills_Drive
-3.47257	__Sembawang_Shopping_Centre
-3.47257	__Sembawang_Tamil_Methodist
-3.47257	__Sembawang_Terminal_Avenue
-3.47257	__Sembawang_Terminal_Road
-3.47257	__Sembawang_Vista
-3.47257	__Sembawang_Wharves
-3.47257	__Sembawang_Woodgrove_Avenue
-3.47257	__Sengkang_East_Avenue
-3.47257	__Sengkang_East_Road
-3.47257	__Sengkang_East_Way
-3.47257	__Sennett_Road
-3.47257	__Sentul_Crescent
-3.47257	__Serangoon_Gardens
-3.47257	__Serangoon_North_Avenue
-3.47257	__Serapong_Hill
-3.47257	__Seraya_Avenue
-3.47257	__Sharon_Bible_Presbyterian
-3.47257	__Shelford_Road
-3.47257	__Shipyard_Crescent
-3.47257	__Shopping_Centre
-3.47257	__Shun_Li
-3.47257	__Si_Ling
-3.47257	__Siang_Cho_Keong
-3.47257	__Siglap_Gardens
-3.47257	__Siloso_Beach
-3.47257	__Sim_Choon_Huat
-3.47257	__Sim_Lim_Square
-3.47257	__Sim_Yi_Hui
-3.47257	__Simon_Lane
-3.47257	__Simpang_Bedok
-3.47257	__Simpang_De_Bedok
-3.47257	__Sims_Way
-3.47257	__Sin_Ming
-3.47257	__Sing_Hoe
-3.47257	__Sing_Joo_Walk
-3.47257	__Singapore'S_Mariners'
-3.47257	__Singapore_Art_Museum
-3.47257	__Singapore_Bible
-3.47257	__Singapore_Botanic_Gardens
-3.47257	__Singapore_Cheshire
-3.47257	__Singapore_Conference
-3.47257	__Singapore_Philatelic_Museum
-3.47257	__Singapore_Recreation
-3.47257	__Singapore_Sikh_Education_Foundation
-3.47257	__Singapore_University_Of_Technology_And_Design
-3.47257	__Singapore_Youth_Flying
-3.47257	__Siok_Wan
-3.47257	__Siong_Lim
-3.47257	__Sir_Frank_Swettenham
-3.47257	__Sit_Wah_Road
-3.47257	__Sleepy_Kiwi
-3.47257	__Sloane_Court_Hotel
-3.47257	__Soo_Bin_Chua
-3.47257	__Soo_Chow_Drive
-3.47257	__Soon_Peng_Yam_Yao_Zi
-3.47257	__Soon_Wing_Road
-3.47257	__Sophia_Hull
-3.47257	__South_Buona_Vista_Road
-3.47257	__South_Perimeter_Road
-3.47257	__South_Woodlands_Drive
-3.47257	__Spring_Lighthouse
-3.47257	__Spring_Street
-3.47257	__Springleaf_Avenue
-3.47257	__Springside_View
-3.47257	__Springwood_Close
-3.47257	__Sree_Narayana
-3.47257	__Sri_Murugan_Hill_Temple
-3.47257	__Sri_Siva_Durga
-3.47257	__Sri_Vairavimada_Kaliamman
-3.47257	__Stadium_Crescent
-3.47257	__Stadium_Way
-3.47257	__Stamford_Raffles
-3.47257	__Starlight_Road
-3.47257	__Stephen_Lee
-3.47257	__Stirling_Walk
-3.47257	__Strand_Hotel
-3.47257	__Stratton_Road
-3.47257	__Suffolk_Road
-3.47257	__Sunbeam_Evergreen_Place
-3.47257	__Sundridge_Park_Road
-3.47257	__Sungei_Bedok
-3.47257	__Sungei_Gedong_Road
-3.47257	__Sungei_Road
-3.47257	__Sunny_Ang
-3.47257	__Sunset_Close
-3.47257	__Sunset_Square
-3.47257	__Sunset_Vale
-3.47257	__Suntec_City
-3.47257	__Swiss_Club_Link
-3.47257	__Syed_Jaafar_Albar
-3.47257	__Tagore_Road
-3.47257	__Tai_Hoe
-3.47257	__Tai_Seng
-3.47257	__Tai_Seng_Drive
-3.47257	__Taman_Bedok
-3.47257	__Taman_Jurong
-3.47257	__Taman_Kembangan
-3.47257	__Taman_Warna
-3.47257	__Tamarind_Avenue
-3.47257	__Tamarind_Road
-3.47257	__Tampines_Changkat
-3.47257	__Tan_Boo_Liat
-3.47257	__Tan_Eng_Joo
-3.47257	__Tan_Kim_Cheng_Road
-3.47257	__Tan_Teck_Whye_Avenue
-3.47257	__Tan_Tock_Seng
-3.47257	__Tanah_Merah
-3.47257	__Tanglin_Gate_Road
-3.47257	__Tanglin_Trust
-3.47257	__Tangmere_Road
-3.47257	__Tanjong_Katong
-3.47257	__Tanjong_Penjuru
-3.47257	__Tanya_Chua
-3.47257	__Teban_Garden
-3.47257	__Tebing_Lane
-3.47257	__Teck_Hai_Keng
-3.47257	__Teck_Whye
-3.47257	__Tekong_Highway
-3.47257	__Telok_Blangah_Crescent
-3.47257	__Telok_Blangah_Rise
-3.47257	__Telok_Blangah_Street
-3.47257	__Telok_Kurau
-3.47257	__Tembusu_Drive
-3.47257	__Teng_San_Tian_Hock
-3.47257	__Teng_Tong_Road
-3.47257	__Terang_Bulan_Avenue
-3.47257	__Tew_Chew_Street
-3.47257	__Thong_Bee_Road
-3.47257	__Thong_Kheng
-3.47257	__Tian_Kong
-3.47257	__Tiong_Poh_Avenue
-3.47257	__Tiverton_Lane
-3.47257	__Toa_Payoh
-3.47257	__Toa_Payoh_East
-3.47257	__Toa_Payoh_North
-3.47257	__Toa_Payoh_Rise
-3.47257	__Toh_Tuck_Drive
-3.47257	__Toh_Tuck_Road
-3.47257	__Tokio_Marine
-3.47257	__Topaz_Road
-3.47257	__Tras_Street
-3.47257	__Treetop_Walk
-3.47257	__Trevose_Place
-3.47257	__Tuas_Avenue
-3.47257	__Tuas_Road
-3.47257	__Tuas_Second_Link
-3.47257	__Tuas_Terminal_Road
-3.47257	__Turf_Ciub_Road
-3.47257	__Ubi_Close
-3.47257	__Ubi_Crescent
-3.47257	__Ubi_Link
-3.47257	__Ulu_Sembawang
-3.47257	__Unity_Street
-3.47257	__University_Town
-3.47257	__Upper_Aljunied
-3.47257	__Upper_Aljunied_Link
-3.47257	__Upper_Aljunied_Road
-3.47257	__Upper_Bedok
-3.47257	__Upper_Bedok_Road
-3.47257	__Upper_Bukit_Timah
-3.47257	__Upper_Bukit_Timah_Road
-3.47257	__Upper_Changi_Road
-3.47257	__Upper_Joo_Aljunied_Link
-3.47257	__Upper_Palm_Valley_Road
-3.47257	__Upper_Paya_Lebar_Road
-3.47257	__Upper_Peirce_Reservoir
-3.47257	__Upper_Seletar_Reservoir
-3.47257	__Upper_Serangoon
-3.47257	__Upper_Wilkie_Road
-3.47257	__Vaughan_Road
-3.47257	__Veerasamy_Road
-3.47257	__Verde_Crescent
-3.47257	__Victoria_Park_Road
-3.47257	__Vigilante_Drive
-3.47257	__Vijesh_Ashok_Ghariwala
-3.47257	__Vivien_Quahe
-3.47257	__Vu_Ly_Tee
-3.47257	__Vu_Ly_Tee#1
-3.47257	__Vu_Ly_Tee#2
-3.47257	__Wak_Hassan
-3.47257	__Wak_Hassan_Place
-3.47257	__Wak_Tanjong
-3.47257	__Wallace_Way
-3.47257	__Walter_Woon
-3.47257	__Wan_Tho_Avenue
-3.47257	__Wareham_Road
-3.47257	__Waringin_Walk
-3.47257	__Warwick_Road
-3.47257	__Waseda_Shibuya
-3.47257	__Waterloo_Street
-3.47257	__Watten_Estate_Road
-3.47257	__Wee_Beng_Chong
-3.47257	__Wellington_Circle
-3.47257	__West_Blue_Stars
-3.47257	__West_Perimeter_Road
-3.47257	__West_Spring
-3.47257	__Westwood_Avenue
-3.47257	__Whampoa_East
-3.47257	__Whitchurch_Road
-3.47257	__Whitley_Road
-3.47257	__Wilmonar_Avenue
-3.47257	__Windsor_Park_Hill
-3.47257	__Wishart_Road
-3.47257	__Wittering_Road
-3.47257	__Wong_Chin_Yoke_Road
-3.47257	__Wong_Hock_Boon
-3.47257	__Woodgrove_View
-3.47257	__Woodland_Street
-3.47257	__Woodlands_Galaxy
-3.47257	__Woodleigh_Close
-3.47257	__Xilin_Avenue
-3.47257	__Yan_Hui_Chang
-3.47257	__Yangtze_Building
-3.47257	__Yao_Zi
-3.47257	__Yarwood_Avenue
-3.47257	__Yeoh_Ghim_Seng
-3.47257	__Yew_Tee
-3.47257	__Yew_Tee_Close
-3.47257	__Yew_Tee_Point
-3.47257	__Yip_Cheong_Fun
-3.47257	__Yishun_Central
-3.47257	__Yishun_Street
-3.47257	__Yong_Melvin_Yik_Chye
-3.47257	__York_Place
-3.47257	__Yu_Huang_Zhi_Zun_Temple
-3.47257	__Yuan_Ching
-3.47257	__Yung_Kuang_Road
-3.47257	__Yuva_Bharati
-3.47257	__Yvonne_Ng
-3.47257	__Zainudin_Nordin
-3.47257	__Zhang_Hui
-3.47257	__Zhou_Ying_Nan
-3.47257	__Zion_Bishan_Bible_Presbyterian
-2.681286	a
-3.514534	aa
-4.450294	abandon
-4.399141	abas
-3.991656	ability
-3.547203	able
-3.04163	about
-3.848233	above
-4.399141	absolute
-4.23944	absolutely
-4.399141	absorb
-4.353384	abstract
-4.311991	abu
-4.274202	abuse
-4.177292	academic
-4.399141	academy
-4.399141	acara
-4.149263	accent
-3.92202	accept
-4.23944	acceptable
-4.353384	acceptance
-4.311991	accepted
-3.973172	access
-4.353384	accessible
-3.973172	accident
-4.149263	accidentally
-4.311991	accommodation
-4.353384	accompany
-4.098111	accomplish
-4.010961	according
-4.23944	accordingly
-3.362157	account
-4.311991	accountancy
-4.450294	accountant
-4.07463	accounting
-4.450294	accumulate
-4.274202	accurate
-4.450294	ace
-4.353384	ache
-3.973172	achieve
-4.010961	achievement
-4.353384	acknowledge
-4.399141	acquaintance
-4.149263	acronym
-3.93841	across
-3.906225	act
-4.098111	acting
-3.862022	action
-4.274202	activate
-4.07463	active
-3.92202	activity
-4.098111	actor
-4.274202	actress
-3.991656	actual
-3.070082	actually
-4.149263	ad
-4.274202	adapt
-3.709931	add
-4.23944	added
-4.274202	addicted
-4.23944	addition
-4.098111	additional
-3.490061	address
-4.122934	ade
-4.207255	adjust
-4.122934	admire
-4.450294	admission
-4.23944	admit
-4.399141	admitted
-3.93841	adopt
-4.274202	adopted
-3.690625	adoption
-3.991656	adult
-4.122934	advance
-4.353384	advanced
-4.23944	advantage
-4.149263	adventure
-4.353384	adventurous
-4.207255	advertisement
-4.399141	advertising
-3.93841	advice
-3.991656	advise
-4.450294	advised
-4.450294	aeon
-4.353384	aeroplane
-4.450294	affair
-4.07463	affect
-4.207255	affected
-4.399141	affidavit
-4.031164	afford
-4.149263	affordable
-3.955443	afraid
-3.213504	after
-3.645813	afternoon
-4.149263	afterwards
-3.3849	again
-3.93841	against
-4.098111	agama
-4.207255	agar
-3.663187	age
-3.991656	agency
-4.311991	agenda
-4.010961	agent
-4.149263	aggressive
-4.311991	aging
-3.629107	ago
-3.7736	agree
-4.311991	agreed
-4.23944	agreement
-2.757887	ah
-4.207255	aha
-3.876262	ahead
-4.177292	ai
-4.311991	aid
-4.149263	aim
-4.450294	aiming
-3.502125	air
-4.399141	airplane
-3.973172	airport
-3.890985	ajar
-4.207255	ak
-3.037413	aku
-4.23944	al
-4.010961	ala
-3.973172	alarm
-4.149263	album
-4.177292	alcohol
-4.399141	alcoholic
-3.740599	alert
-4.353384	algorithm
-4.353384	alien
-4.399141	alif
-3.991656	alive
-3.016924	all
-4.353384	allergic
-4.450294	alley
-3.92202	allow
-4.177292	allowance
-3.719915	almost
-3.719915	alone
-3.7736	along
-4.274202	alpha
-4.353384	alphabet
-3.122934	already
-3.37566	alright
-3.039516	also
-4.353384	alter
-4.311991	alternate
-4.23944	alternative
-3.876262	although
-4.353384	altogether
-3.332194	always
-3.389596	am
-3.93841	amazing
-4.353384	ambitious
-3.484152	ambulance
-4.353384	amin
-4.207255	amir
-4.149263	among
-3.605195	amount
-4.274202	amy
-3.328078	an
-4.353384	analyse
-4.311991	analysis
-4.450294	anchor
-4.399141	ancient
-2.715894	and
-3.785182	anda
-4.23944	android
-4.122934	angel
-4.399141	anger
-4.274202	angle
-3.834869	angry
-3.797081	animal
-4.274202	animation
-4.07463	anime
-4.274202	ankle
-4.353384	ann
-4.311991	anna
-4.353384	anniversary
-3.955443	annoying
-4.274202	annual
-3.3849	another
-3.527308	answer
-4.311991	ant
-4.207255	anti
-4.399141	antique
-4.399141	anxiety
-3.24958	any
-3.955443	anybody
-4.052353	anyhow
-3.809315	anyone
-3.344783	anything
-3.589955	anyway
-4.07463	anyways
-3.890985	anywhere
-3.031164	apa
-4.031164	apart
-4.149263	apartment
-4.031164	ape
-4.399141	apologize
-3.862022	apparently
-4.122934	appeal
-4.177292	appear
-4.450294	appearance
-3.834869	apple
-4.311991	applicable
-4.274202	applicant
-3.672142	application
-4.031164	applied
-3.589955	apply
-4.450294	appoint
-3.890985	appointment
-3.93841	appreciate
-4.07463	approach
-4.399141	appropriate
-4.07463	approval
-4.122934	approve
-4.399141	approximately
-4.353384	apron
-4.207255	aquarium
-3.785182	ar
-4.399141	arcade
-4.450294	architect
-4.311991	architecture
-2.964217	are
-3.589955	area
-4.07463	argue
-4.052353	argument
-4.010961	arm
-4.031164	arms
-3.876262	army
-3.423965	around
-4.07463	arrange
-4.311991	arrangement
-4.399141	arrival
-4.149263	arrive
-4.399141	arrogant
-4.098111	arrow
-4.311991	arsenal
-3.848233	art
-4.149263	article
-4.399141	artificial
-4.031164	artist
-3.088566	as
-4.149263	aside
-3.263478	ask
-4.399141	askar
-4.177292	asleep
-4.031164	aspect
-4.353384	aspiration
-4.207255	ass
-4.274202	assess
-4.274202	assessment
-4.353384	asset
-4.353384	assets
-4.122934	assign
-4.353384	assigned
-4.031164	assignment
-3.654413	assist
-3.862022	assistance
-4.010961	assistant
-4.052353	assume
-4.07463	assuming
-4.450294	assumption
-4.149263	asthma
-3.020945	at
-3.92202	ate
-4.399141	atmosphere
-4.207255	attach
-4.149263	attached
-4.207255	attachment
-4.031164	attack
-4.399141	attempt
-3.973172	attend
-4.353384	attendance
-4.010961	attention
-4.122934	attitude
-4.274202	attract
-4.031164	attraction
-4.274202	attractive
-4.23944	attribute
-4.311991	audience
-4.311991	audio
-4.274202	audit
-4.311991	audition
-3.834869	august
-4.098111	aunt
-3.955443	auntie
-4.274202	authentic
-4.353384	author
-4.311991	authority
-4.052353	auto
-4.311991	automatic
-4.177292	automatically
-4.311991	autumn
-3.973172	available
-3.7736	avenue
-4.031164	average
-4.098111	avoid
-4.098111	awake
-4.311991	award
-4.098111	aware
-4.399141	awareness
-3.560992	away
-4.010961	awesome
-4.031164	awhile
-3.862022	awkward
-3.672142	ayah
-4.274202	aye
-3.394342	b
-4.098111	ba
-4.399141	baba
-4.311991	babe
-3.444898	baby
-3.229532	back
-3.92202	background
-4.353384	backup
-4.399141	bacteria
-3.399141	bad
-3.848233	badan
-4.353384	badge
-4.149263	badly
-3.834869	badminton
-3.762319	bag
-4.311991	bah
-3.890985	bahan
-4.23944	baht
-4.031164	bake
-4.353384	baked
-4.311991	bakery
-4.122934	baking
-3.809315	balance
-4.399141	balanced
-4.450294	balas
-4.353384	balcony
-4.098111	bali
-3.654413	ball
-4.399141	ballet
-4.23944	balloon
-4.399141	bamboo
-4.23944	ban
-4.010961	banana
-3.834869	band
-3.955443	bandar
-4.450294	banding
-4.07463	bang
-4.031164	bangkok
-3.434305	bank
-4.207255	banker
-4.031164	banking
-4.311991	bankrupt
-4.031164	banner
-4.353384	banquet
-3.821904	bar
-4.031164	barbecue
-4.399141	barber
-4.450294	barcelona
-4.353384	bare
-4.311991	barely
-4.353384	baring
-4.450294	bark
-4.399141	barrage
-4.274202	barrier
-3.450293	baru
-3.973172	bas
-3.876262	base
-4.450294	baseball
-3.751323	based
-4.177292	basement
-3.862022	basic
-3.508285	basically
-4.052353	basis
-4.122934	basket
-3.906225	basketball
-4.353384	bass
-4.353384	bat
-4.052353	batch
-4.311991	bath
-4.353384	bathe
-4.311991	batik
-4.311991	batman
-4.122934	battery
-4.122934	battle
-3.955443	bay
-4.399141	bazaar
-2.955443	be
-3.719915	beach
-4.07463	bean
-3.809315	bear
-4.207255	beard
-4.311991	beast
-4.010961	beat
-3.92202	beautiful
-4.07463	beauty
-2.976806	because
-3.62099	become
-4.098111	becomes
-4.23944	becoming
-3.809315	bed
-4.311991	bedroom
-3.93841	bee
-3.93841	beef
-4.450294	beehive
-3.37566	been
-4.07463	beer
-4.274202	bees
-3.300305	before
-4.052353	beg
-4.23944	begin
-4.122934	beginning
-4.098111	behalf
-4.274202	behave
-4.450294	behavior
-4.399141	behaviour
-3.663187	behind
-4.311991	beige
-3.496051	being
-3.862022	bela
-3.821904	belah
-4.450294	belief
-3.681286	believe
-4.177292	bell
-4.311991	belly
-4.311991	belong
-3.62099	below
-4.149263	belt
-4.052353	ben
-4.052353	bench
-4.274202	bend
-3.444898	benda
-4.353384	bene
-4.450294	beneath
-4.122934	beneficial
-3.92202	beneficiary
-3.991656	benefit
-4.122934	ber
-4.010961	berat
-4.353384	berlin
-3.554043	beside
-3.93841	besides
-3.362157	best
-4.010961	bet
-3.444898	better
-4.098111	betting
-3.672142	between
-4.450294	beverage
-4.07463	beyond
-4.399141	bias
-3.991656	bicycle
-4.311991	bid
-3.450293	big
-3.834869	bigger
-3.876262	biggest
-3.890985	bike
-4.122934	bikini
-3.92202	bill
-4.274202	billion
-4.399141	billy
-4.010961	bin
-4.207255	bingo
-4.149263	biological
-4.311991	biology
-3.7736	bird
-3.672142	birth
-3.785182	birthday
-4.311991	biscuit
-3.371112	bit
-4.353384	bitch
-4.122934	bite
-4.207255	bitter
-4.399141	biz
-3.54047	black
-4.274202	blackberry
-4.311991	blade
-3.906225	blah
-4.149263	blame
-4.098111	blank
-4.353384	blanket
-3.890985	bleeding
-4.177292	blend
-4.098111	blender
-4.353384	bless
-4.399141	blessed
-4.399141	blessing
-3.92202	blind
-3.589955	block
-4.122934	blonde
-3.751323	blood
-4.207255	bloody
-4.274202	blouse
-4.274202	blow
-4.450294	blowing
-3.429104	blue
-4.149263	blues
-4.177292	blur
-4.098111	bo
-3.821904	board
-3.93841	boat
-4.353384	bob
-4.399141	bobby
-3.690625	body
-4.23944	boil
-3.690625	bola
-4.399141	bom
-4.177292	bomb
-3.821904	bond
-4.23944	bonding
-4.207255	bone
-3.597508	bonus
-3.554043	book
-4.399141	booked
-4.149263	booking
-4.450294	bookmark
-4.311991	bookshop
-4.353384	bookstore
-4.207255	boom
-4.353384	boon
-4.353384	boost
-4.207255	boot
-4.07463	booth
-4.207255	boots
-4.177292	borak
-4.23944	border
-3.762319	boring
-3.785182	born
-4.149263	borrow
-3.797081	boss
-4.311991	boston
-4.23944	bot
-4.23944	botanic
-3.54047	both
-4.031164	bother
-3.906225	bottle
-3.719915	bottom
-3.719915	bought
-4.311991	bounce
-4.274202	bound
-4.207255	bout
-4.274202	bow
-4.399141	bowel
-3.991656	bowl
-3.991656	bowling
-3.762319	box
-4.311991	boxing
-3.597508	boy
-4.399141	bra
-3.92202	brain
-4.399141	brake
-3.955443	branch
-3.821904	brand
-4.23944	branded
-4.311991	brave
-4.274202	bravo
-4.207255	brazil
-3.890985	bread
-3.690625	break
-4.207255	breakdown
-4.177292	breaker
-3.955443	breakfast
-4.177292	breaking
-4.207255	breast
-4.07463	breath
-3.906225	breathe
-3.629107	breathing
-4.149263	breathless
-4.353384	breed
-4.399141	breeze
-4.353384	brick
-4.399141	bride
-4.07463	bridge
-4.311991	brief
-4.052353	briefing
-4.450294	briefly
-4.177292	bright
-3.502125	bring
-4.450294	brisk
-4.399141	broad
-4.450294	broadcast
-4.010961	broke
-4.098111	broken
-3.672142	brother
-3.890985	brought
-3.597508	brown
-4.274202	brownish
-4.399141	brunch
-4.207255	brush
-4.177292	bu
-4.353384	bual
-4.07463	bubble
-3.93841	bucket
-4.149263	buddy
-3.973172	budget
-3.93841	buffet
-4.098111	bug
-3.906225	build
-3.762319	building
-4.207255	built
-4.23944	bulk
-4.399141	bull
-4.399141	bullet
-4.23944	bully
-4.311991	bump
-4.353384	bumper
-4.207255	bun
-4.207255	bunch
-4.274202	bundle
-4.399141	bungalow
-4.311991	bungee
-4.399141	bunk
-4.274202	burden
-4.031164	burn
-4.23944	burning
-4.274202	burst
-3.672142	bus
-4.052353	bush
-3.672142	business
-3.809315	busy
-4.122934	busybody
-2.813054	but
-4.149263	butcher
-4.274202	butt
-4.07463	butter
-4.207255	butterfly
-4.031164	button
-4.353384	buttons
-3.340546	buy
-4.311991	buyer
-3.288925	by
-3.311991	bye
-3.263478	c
-4.177292	ca
-4.122934	cab
-4.399141	cabin
-4.122934	cable
-4.122934	cage
-3.809315	cake
-4.052353	calculate
-4.353384	calculated
-4.274202	calculation
-4.311991	calculator
-4.098111	calendar
-3.22305	call
-4.274202	callable
-4.207255	caller
-3.466893	calling
-4.149263	calm
-3.848233	cam
-3.605195	came
-4.450294	camel
-3.973172	camera
-3.834869	camp
-4.399141	campaign
-4.311991	campus
-2.853696	can
-4.149263	canada
-3.92202	cancel
-4.07463	cancer
-4.399141	candle
-4.149263	candy
-4.311991	cane
-3.24958	cannot
-4.450294	canoe
-4.23944	cant
-4.010961	canteen
-4.399141	canvas
-3.848233	cap
-4.450294	capability
-4.353384	capable
-4.399141	capacity
-4.010961	capital
-4.177292	capsule
-4.149263	captain
-4.274202	caption
-4.311991	capture
-3.478322	car
-4.353384	caramel
-4.450294	carbon
-3.508285	card
-3.547203	care
-3.700171	career
-4.399141	carefree
-4.177292	careful
-4.399141	carefully
-4.450294	careless
-4.031164	carrot
-3.834869	carry
-4.098111	carrying
-4.353384	cart
-4.122934	cartoon
-3.568053	case
-3.719915	cash
-4.23944	cashier
-4.07463	casino
-4.274202	cast
-4.122934	castle
-4.274202	casual
-3.7736	cat
-3.834869	catch
-4.177292	catching
-4.399141	catchy
-4.207255	category
-4.399141	cater
-3.92202	caught
-3.198047	cause
-4.353384	cave
-4.353384	ceiling
-3.991656	celebrate
-4.23944	celebration
-4.23944	celebrity
-4.177292	cell
-4.450294	cemetery
-4.098111	cent
-3.7736	center
-4.010961	central
-4.399141	century
-4.207255	cereal
-4.399141	ceremony
-3.672142	certain
-4.399141	certainly
-3.92202	certificate
-4.399141	certified
-4.450294	certis
-4.399141	cha
-4.149263	chain
-3.834869	chair
-4.177292	chalet
-4.07463	challenge
-4.353384	champion
-3.797081	chance
-4.450294	chang
-3.429104	change
-3.973172	channel
-4.311991	chapter
-4.07463	char
-3.7736	character
-4.274202	characteristic
-3.809315	charge
-4.399141	charger
-4.353384	charging
-4.149263	charity
-4.311991	charming
-4.177292	chart
-4.207255	chartered
-4.07463	chase
-4.311991	chasing
-3.955443	chat
-3.719915	cheap
-4.122934	cheat
-4.207255	cheating
-3.357748	check
-4.098111	checked
-4.274202	cheek
-4.274202	cheer
-3.7736	cheese
-4.399141	cheesecake
-4.311991	cheetah
-4.010961	chef
-4.177292	chemical
-4.052353	chemistry
-4.353384	cheng
-4.274202	cheque
-4.274202	cherry
-4.311991	chess
-3.862022	chest
-4.274202	chew
-4.274202	chi
-4.399141	chick
-3.547203	chicken
-3.403993	child
-3.7736	childhood
-4.353384	childish
-4.07463	chili
-3.890985	chill
-4.450294	chilling
-4.274202	chin
-3.613021	china
-4.23944	chip
-4.149263	chips
-4.399141	chit
-3.906225	chocolate
-3.751323	choice
-4.274202	choir
-4.177292	choke
-4.177292	choker
-4.274202	choking
-4.311991	chomp
-3.568053	choose
-4.399141	choosing
-4.031164	chop
-4.450294	chopping
-4.207255	chore
-4.177292	chose
-4.399141	chosen
-4.399141	chow
-4.399141	chrome
-3.955443	church
-4.353384	chute
-4.274202	cigarette
-4.122934	cinema
-3.560992	circle
-4.399141	circled
-4.353384	circuit
-4.353384	circular
-4.23944	cite
-4.353384	citer
-3.890985	citizen
-4.031164	citizenship
-3.709931	city
-4.274202	civil
-3.672142	claim
-4.207255	claimable
-4.399141	clap
-4.207255	clarify
-4.450294	clash
-3.613021	class
-3.93841	classes
-4.23944	classic
-4.399141	classical
-4.177292	classmate
-4.122934	classroom
-4.399141	claw
-4.311991	clay
-3.797081	clean
-4.207255	cleaner
-4.07463	cleaning
-4.399141	cleanser
-3.785182	clear
-4.274202	clearing
-4.122934	clearly
-4.353384	clerk
-4.353384	clever
-4.450294	cliche
-3.821904	click
-3.991656	client
-4.010961	climb
-4.177292	climbing
-4.010961	clinic
-4.353384	clip
-4.177292	clique
-4.052353	clock
-4.311991	clockwise
-4.450294	clone
-3.554043	close
-3.955443	closed
-4.177292	closely
-4.052353	closer
-4.031164	cloth
-3.809315	clothes
-4.177292	clothing
-4.122934	cloud
-3.751323	club
-4.274202	clubbing
-4.274202	clue
-4.311991	cluster
-4.07463	coach
-4.399141	coaching
-4.07463	coast
-4.177292	coaster
-4.353384	coat
-4.274202	cock
-4.23944	cockroach
-4.207255	coco
-4.207255	coconut
-3.700171	code
-3.730134	coffee
-4.23944	coin
-4.098111	coincidence
-4.177292	coke
-4.399141	cola
-3.751323	cold
-4.353384	collapse
-4.450294	collar
-3.906225	colleague
-3.797081	collect
-4.274202	collected
-4.122934	collection
-4.122934	college
-3.62099	color
-4.311991	colors
-3.3849	colour
-4.353384	column
-4.450294	coma
-4.177292	combination
-4.177292	combine
-4.399141	combined
-3.277836	come
-4.122934	comedy
-3.762319	comes
-3.890985	comfort
-3.821904	comfortable
-4.311991	comic
-3.62099	coming
-4.399141	command
-4.149263	comment
-4.177292	commercial
-4.177292	commission
-4.177292	commit
-4.177292	commitment
-4.149263	committee
-3.848233	common
-4.311991	commonwealth
-4.122934	communicate
-4.122934	communication
-3.955443	community
-4.399141	companion
-3.527308	company
-3.906225	compare
-4.399141	comparison
-4.353384	compete
-4.031164	competition
-4.149263	competitive
-3.797081	complain
-4.311991	complaint
-3.955443	complete
-4.098111	completely
-4.177292	complex
-4.177292	complicated
-4.450294	composition
-4.399141	compound
-4.207255	compulsory
-3.762319	computer
-3.973172	con
-4.274202	concentrate
-4.177292	concentration
-4.052353	concept
-4.052353	concern
-4.311991	concerned
-3.955443	concert
-4.399141	concession
-4.353384	conclusion
-4.399141	concrete
-4.23944	cond
-3.973172	condition
-4.311991	conditional
-4.450294	conditioner
-4.399141	condominium
-4.311991	conduct
-4.311991	cone
-4.311991	conference
-4.399141	confess
-4.177292	confidence
-4.122934	confident
-3.613021	confirm
-4.010961	confirmation
-4.23944	confirmed
-4.353384	conflict
-4.23944	confuse
-4.122934	confused
-4.098111	connect
-4.207255	connected
-4.177292	connection
-3.62099	conscious
-4.098111	consent
-4.399141	conservative
-3.834869	consider
-4.353384	consideration
-3.890985	considered
-4.274202	considering
-4.450294	consistency
-4.399141	consistent
-4.353384	console
-4.399141	constant
-4.274202	constantly
-4.177292	construction
-4.399141	consult
-4.23944	consultant
-4.353384	consulting
-4.353384	consumable
-4.23944	consume
-4.450294	consumer
-3.520875	contact
-4.23944	container
-4.177292	content
-4.311991	contest
-4.23944	context
-3.690625	continue
-4.052353	continuous
-4.23944	continuously
-3.973172	contract
-4.450294	contraction
-4.450294	contractor
-4.149263	contribute
-4.098111	contribution
-3.809315	control
-4.311991	controversial
-4.274202	convenience
-3.973172	convenient
-3.762319	conversation
-4.311991	converse
-4.274202	conversion
-3.991656	convert
-4.274202	converted
-4.353384	convince
-3.63738	cook
-3.848233	cooking
-3.613021	cool
-4.353384	cooling
-4.399141	cooper
-4.274202	cope
-3.890985	copy
-4.122934	core
-4.274202	corn
-3.862022	corner
-4.177292	corp
-4.177292	corporate
-4.353384	corporation
-3.219845	correct
-4.311991	correction
-4.23944	correctly
-4.353384	correspondent
-4.311991	corridor
-4.177292	cos
-4.353384	cosmos
-3.785182	cost
-4.353384	costa
-4.353384	costume
-4.353384	cottage
-4.311991	cotton
-4.122934	cough
-3.439569	could
-4.177292	council
-3.7736	count
-4.031164	counter
-4.274202	counting
-3.62099	country
-4.450294	countryside
-3.821904	couple
-4.052353	coupon
-4.399141	courier
-3.439569	course
-3.809315	court
-3.991656	cousin
-4.353384	cove
-3.821904	cover
-4.052353	covered
-4.353384	covering
-4.098111	covid
-4.207255	cow
-4.353384	cowboy
-4.149263	coz
-3.906225	crab
-4.274202	crack
-4.353384	craft
-4.23944	crap
-4.177292	crash
-4.399141	crave
-4.23944	craving
-4.399141	crawl
-4.450294	crayfish
-3.681286	crazy
-3.7736	cream
-4.450294	creamy
-3.862022	create
-3.876262	creative
-3.809315	credit
-4.399141	creep
-4.07463	creepy
-4.23944	crescent
-4.207255	crew
-4.177292	cried
-4.23944	crime
-4.399141	criminal
-4.311991	crisis
-4.23944	crispy
-4.052353	criteria
-4.23944	critical
-4.353384	crocodile
-3.906225	cross
-4.177292	crossing
-4.098111	crowd
-4.031164	crowded
-4.399141	crown
-4.122934	cruise
-4.450294	crunchy
-4.23944	crush
-3.834869	cry
-4.098111	crying
-4.274202	crystal
-4.399141	cube
-4.311991	cucumber
-4.098111	cuisine
-4.274202	cultural
-3.821904	culture
-3.834869	cup
-4.450294	cupboard
-4.311991	cure
-4.122934	curious
-4.207255	curly
-4.010961	currency
-3.821904	current
-3.785182	currently
-4.399141	curriculum
-3.906225	curry
-4.274202	curse
-4.353384	curtain
-4.149263	curve
-4.311991	cushion
-4.353384	custody
-4.311991	custom
-3.785182	customer
-3.681286	cut
-3.7736	cute
-4.052353	cutting
-3.973172	cycle
-4.031164	cycling
-4.399141	cyclist
-3.37566	d
-3.890985	da
-3.730134	dad
-4.450294	dada
-4.07463	daddy
-3.204164	dah
-4.010961	daily
-4.450294	dairy
-4.23944	dak
-4.311991	damage
-3.508285	damn
-3.277836	dan
-3.785182	dance
-4.399141	dancer
-4.098111	dancing
-4.311991	danger
-3.973172	dangerous
-3.973172	dare
-3.554043	dari
-3.719915	dark
-4.450294	darkness
-4.353384	darling
-4.07463	dash
-3.890985	data
-3.533839	date
-3.973172	dating
-3.7736	daughter
-3.270598	day
-3.434305	days
-3.973172	de
-3.876262	dead
-3.92202	deadline
-4.450294	deaf
-3.862022	deal
-4.274202	dealer
-4.399141	dealing
-3.973172	dear
-3.955443	death
-4.353384	debate
-4.098111	debit
-4.274202	debt
-4.274202	decade
-4.23944	decent
-3.906225	decide
-3.906225	decided
-3.906225	decision
-4.052353	deck
-4.098111	declaration
-4.311991	declare
-4.399141	decoration
-4.353384	decorative
-4.177292	deduct
-4.399141	deduction
-3.876262	deep
-4.311991	default
-4.274202	defeat
-4.274202	defend
-4.450294	defense
-4.010961	define
-3.629107	definitely
-4.23944	definition
-3.848233	degree
-4.177292	delay
-3.93841	delete
-4.149263	delicious
-4.207255	deliver
-4.07463	delivery
-4.353384	dell
-4.399141	delta
-4.207255	demand
-4.353384	dementia
-4.353384	demi
-4.177292	demise
-4.399141	dental
-4.353384	dentist
-4.450294	deny
-4.207255	depa
-3.955443	department
-4.031164	depend
-4.052353	dependent
-4.122934	depending
-3.862022	deposit
-4.274202	depressed
-4.399141	depressing
-4.207255	depression
-4.353384	depth
-3.62099	describe
-4.311991	description
-4.399141	desert
-4.23944	deserve
-3.821904	design
-4.098111	designer
-4.353384	desire
-4.177292	desk
-4.353384	desperate
-4.399141	despite
-4.098111	dessert
-4.274202	destination
-4.399141	destiny
-4.353384	destress
-4.311991	destroy
-4.031164	detail
-4.353384	detailed
-4.353384	detect
-4.353384	detector
-4.311991	determine
-4.149263	develop
-4.399141	developer
-4.010961	development
-4.353384	device
-4.353384	devil
-4.23944	devote
-4.353384	dewan
-3.292686	di
-4.274202	diabetes
-4.353384	diagram
-4.450294	dial
-4.23944	dialect
-4.353384	dialysis
-4.274202	diamond
-4.274202	diarrhea
-4.353384	diary
-4.450294	dick
-4.23944	dictation
-4.450294	dictionary
-3.256473	did
-4.450294	didnt
-3.654413	die
-4.07463	diet
-3.533839	difference
-3.33635	different
-4.450294	differentiate
-4.010961	differently
-3.709931	difficult
-3.890985	difficulty
-4.207255	dig
-4.399141	digest
-4.353384	digit
-4.031164	digital
-4.450294	dilemma
-4.207255	dim
-4.23944	dimension
-4.207255	din
-4.399141	ding
-4.311991	dining
-3.7736	dinner
-4.149263	dinosaur
-4.23944	dip
-3.955443	diploma
-3.890985	direct
-3.973172	direction
-3.973172	directly
-4.031164	director
-4.450294	dirt
-3.973172	dirty
-4.450294	dis
-4.399141	disagree
-4.311991	disappear
-4.07463	disappointed
-4.311991	disaster
-4.149263	discipline
-4.450294	disclose
-4.010961	discount
-4.274202	discover
-4.149263	discovery
-4.399141	discrimination
-4.052353	discuss
-4.207255	discussion
-4.207255	disease
-4.010961	disgusting
-3.906225	dish
-4.399141	disk
-4.010961	dislike
-4.353384	disorder
-4.399141	dispatch
-4.149263	display
-4.052353	distance
-4.353384	distress
-4.353384	distribution
-4.399141	district
-4.177292	disturb
-4.353384	disturbing
-4.207255	dive
-4.353384	diverse
-4.052353	divide
-4.399141	divided
-4.399141	dividend
-4.122934	diving
-4.353384	division
-4.177292	divorce
-4.311991	dizzy
-2.907779	do
-3.719915	doctor
-3.973172	document
-4.311991	documentary
-4.399141	documentation
-3.502125	does
-3.597508	dog
-3.991656	dogs
-3.418885	doing
-4.207255	doll
-3.520875	dollar
-4.353384	dolphin
-4.311991	dome
-4.450294	domestic
-4.274202	don
-4.177292	donate
-4.399141	donation
-3.490061	done
-4.177292	donee
-4.399141	dong
-4.399141	donkey
-4.311991	donor
-4.010961	dont
-3.560992	door
-4.177292	dorm
-4.149263	dormitory
-3.681286	dot
-3.762319	double
-4.177292	doubt
-3.315957	down
-4.098111	downstairs
-4.098111	downtown
-4.122934	draft
-4.149263	drag
-4.399141	dragging
-4.122934	dragon
-4.274202	drain
-3.762319	drama
-4.207255	dramatic
-4.311991	drank
-4.399141	drastically
-3.876262	draw
-4.07463	drawing
-4.450294	drawn
-3.700171	dream
-4.353384	dreamer
-3.876262	dress
-4.450294	dressed
-4.311991	dressing
-4.311991	drill
-3.63738	drink
-4.010961	drinking
-3.700171	drive
-3.862022	driver
-3.92202	driving
-4.399141	drool
-3.740599	drop
-4.23944	dropping
-4.311991	drove
-3.92202	drowsy
-4.207255	drug
-4.311991	drum
-4.149263	drunk
-3.955443	dry
-4.450294	dual
-3.973172	duck
-3.92202	dude
-3.876262	due
-3.605195	duit
-4.450294	dull
-4.149263	dumb
-4.353384	dump
-4.177292	dumpling
-4.274202	duration
-3.762319	durian
-3.554043	during
-4.274202	dust
-4.052353	dustbin
-4.177292	duty
-4.399141	dye
-4.098111	dying
-3.461289	e
-3.589955	each
-4.353384	eagle
-4.122934	ear
-3.751323	early
-3.821904	earn
-4.149263	earning
-4.399141	earpiece
-4.098111	earth
-4.450294	earthquake
-3.876262	easier
-4.311991	easiest
-3.93841	easily
-3.848233	east
-4.399141	easter
-4.353384	eastern
-3.62099	easy
-3.288925	eat
-3.991656	eaten
-3.690625	eating
-4.399141	eats
-4.399141	echo
-4.311991	economic
-4.23944	economics
-4.177292	economy
-4.274202	edge
-4.098111	edible
-4.149263	edit
-4.399141	edition
-4.450294	editor
-4.353384	educate
-4.274202	educated
-3.762319	education
-4.399141	educational
-4.010961	effect
-4.23944	effective
-4.353384	effects
-4.450294	efficiency
-4.23944	efficient
-3.93841	effort
-3.848233	egg
-4.23944	ego
-3.122934	eh
-3.285197	eight
-3.809315	eighteen
-4.399141	eighth
-3.690625	eighty
-3.690625	either
-4.353384	el
-4.098111	elaborate
-4.122934	elder
-3.92202	elderly
-4.274202	eldest
-4.311991	election
-4.149263	elective
-4.23944	electric
-4.353384	electrical
-4.274202	electricity
-4.274202	electronic
-4.450294	elegant
-4.399141	element
-4.207255	elephant
-3.654413	eleven
-4.399141	eligibility
-4.07463	eligible
-4.399141	elite
-3.484152	else
-3.740599	em
-4.353384	embarrass
-4.274202	embarrassed
-3.848233	embarrassing
-4.311991	embassy
-3.834869	emergency
-4.23944	emotion
-4.122934	emotional
-4.353384	emotionally
-4.450294	employ
-4.149263	employed
-3.848233	employee
-3.92202	employer
-4.098111	employment
-3.906225	empty
-3.740599	en
-3.690625	enam
-4.311991	encounter
-4.207255	encourage
-3.429104	end
-4.010961	ended
-3.973172	ending
-4.450294	endless
-4.274202	enemy
-3.93841	energy
-4.122934	engage
-4.23944	engaged
-4.450294	engagement
-4.177292	engine
-4.149263	engineer
-3.92202	engineering
-3.629107	enjoy
-4.149263	enjoyable
-4.207255	enjoying
-3.597508	enough
-4.052353	enquire
-4.031164	enquiry
-4.122934	enrichment
-4.177292	enroll
-4.450294	enrolled
-4.207255	ensure
-3.973172	enter
-4.311991	entertain
-4.399141	entertaining
-3.906225	entertainment
-3.906225	entire
-4.450294	entirely
-4.353384	entitle
-4.149263	entitlement
-4.353384	entity
-4.122934	entrance
-4.450294	entrepreneur
-4.149263	entry
-4.399141	envelope
-3.92202	environment
-4.399141	environmental
-4.031164	episode
-4.07463	equal
-4.353384	equally
-4.177292	equipment
-4.274202	equity
-4.23944	equivalent
-3.00703	er
-4.177292	era
-4.399141	erase
-4.353384	eraser
-4.450294	eric
-4.207255	err
-4.031164	error
-4.353384	es
-4.122934	escalate
-4.450294	escalator
-4.052353	escape
-3.681286	especially
-4.274202	esplanade
-3.93841	essay
-4.311991	essence
-4.353384	essential
-4.353384	essentially
-4.052353	estate
-4.450294	estimate
-4.353384	eve
-3.256473	even
-3.973172	evening
-3.809315	event
-3.955443	eventually
-3.54047	ever
-3.423965	every
-3.663187	everybody
-3.629107	everyday
-3.62099	everyone
-3.37566	everything
-3.906225	everywhere
-4.399141	evidence
-4.149263	evil
-3.876262	ex
-4.07463	exact
-3.645813	exactly
-3.7736	exam
-4.399141	examination
-3.568053	example
-4.031164	excel
-4.353384	excellent
-3.93841	except
-4.399141	excess
-3.848233	exchange
-4.098111	excited
-4.07463	exciting
-4.399141	exclamation
-4.353384	exclude
-4.399141	excluding
-4.450294	exclusive
-4.031164	excuse
-4.353384	execute
-4.450294	execution
-4.399141	executive
-3.785182	exercise
-4.23944	exhibition
-4.122934	exist
-4.149263	exit
-4.399141	expand
-3.876262	expect
-4.274202	expectation
-4.450294	expedite
-3.597508	expensive
-3.613021	experience
-4.207255	experienced
-4.23944	experiment
-4.399141	expert
-4.311991	expire
-4.274202	expiry
-3.809315	explain
-4.450294	explaining
-4.399141	explanation
-4.031164	explore
-4.311991	expose
-4.353384	exposed
-4.311991	exposure
-3.973172	express
-4.311991	expression
-4.07463	extend
-4.149263	extended
-4.274202	extension
-4.177292	extent
-4.274202	external
-3.797081	extra
-4.450294	extract
-4.149263	extreme
-4.274202	extremely
-4.353384	ey
-3.906225	eye
-4.311991	eyebrow
-3.527308	f
-4.399141	fa
-3.62099	face
-4.07463	facial
-4.353384	facility
-3.834869	facing
-3.809315	fact
-4.177292	factor
-4.207255	factory
-4.07463	fad
-4.450294	fade
-3.568053	faham
-3.834869	fail
-4.23944	failure
-4.274202	faint
-4.274202	fainting
-3.834869	fair
-4.311991	fairly
-4.274202	fairy
-4.311991	faith
-3.93841	fake
-3.751323	fall
-4.399141	fallen
-4.098111	falling
-4.098111	false
-4.399141	fame
-4.098111	familiar
-3.408901	family
-3.690625	famous
-3.92202	fan
-4.274202	fancy
-4.450294	fang
-4.122934	fantastic
-4.274202	fantasy
-3.597508	far
-4.274202	fare
-4.010961	farm
-4.353384	farmer
-4.399141	farming
-3.955443	fashion
-4.399141	fashioned
-3.629107	fast
-3.876262	faster
-4.450294	fasting
-3.876262	fat
-4.311991	fate
-3.63738	father
-4.052353	fault
-4.311991	faulty
-3.751323	favorite
-4.052353	fear
-4.07463	feature
-4.274202	fed
-3.92202	fee
-4.098111	feed
-3.973172	feedback
-4.311991	feeding
-3.304165	feel
-3.719915	feeling
-3.862022	fell
-4.23944	fellow
-3.862022	felt
-3.785182	female
-4.149263	fence
-4.353384	ferry
-4.098111	festival
-4.23944	fetch
-3.906225	fever
-3.490061	few
-4.450294	fi
-4.010961	fiction
-4.399141	fictional
-3.955443	field
-4.311991	fierce
-3.672142	fifteen
-3.955443	fifth
-3.490061	fifty
-3.809315	fight
-4.399141	fighter
-3.991656	fighting
-4.07463	figure
-4.031164	file
-4.450294	filing
-3.862022	fill
-4.149263	filled
-4.23944	filling
-4.052353	film
-4.311991	filter
-4.07463	fin
-3.862022	final
-4.031164	finally
-3.955443	finance
-3.740599	financial
-4.274202	financially
-3.394342	find
-4.07463	finding
-3.605195	fine
-4.07463	finger
-3.629107	finish
-4.07463	finished
-4.353384	finishing
-4.353384	finland
-3.7736	fire
-4.399141	fired
-4.177292	firm
-3.186066	first
-4.122934	firstly
-3.672142	fish
-4.399141	fisherman
-3.973172	fishing
-3.797081	fit
-4.052353	fitness
-4.450294	fitting
-3.143868	five
-4.052353	fix
-4.07463	fixed
-4.010961	flag
-4.031164	flash
-3.906225	flat
-4.353384	flavor
-4.207255	flavour
-4.450294	flesh
-4.177292	flexible
-3.973172	flight
-4.149263	flip
-4.177292	float
-4.311991	floating
-3.709931	floor
-4.311991	flour
-4.052353	flow
-4.010961	flower
-4.274202	flu
-4.399141	fluent
-4.450294	flush
-3.821904	fly
-4.207255	flyer
-3.955443	flying
-4.399141	foam
-3.890985	focus
-4.399141	fold
-4.23944	folder
-4.353384	folk
-3.63738	follow
-4.353384	follower
-3.991656	following
-4.450294	foo
-3.246173	food
-4.353384	fool
-4.07463	foot
-3.93841	football
-2.832245	for
-3.955443	force
-4.23944	forced
-4.207255	forecast
-4.399141	forehead
-3.955443	foreign
-4.098111	foreigner
-4.450294	foresee
-4.177292	forest
-3.92202	forever
-3.821904	forget
-4.311991	forgive
-3.7736	forgot
-4.311991	forgotten
-4.311991	fork
-3.629107	form
-4.098111	formal
-4.274202	format
-4.149263	formula
-4.450294	fort
-4.098111	forth
-4.450294	fortunate
-4.311991	fortune
-3.605195	forty
-4.353384	forum
-3.876262	forward
-4.274202	foster
-3.740599	found
-4.098111	foundation
-4.311991	fountain
-3.210369	four
-3.809315	fourteen
-3.876262	fourth
-4.177292	fox
-4.098111	frame
-4.450294	franc
-4.274202	frank
-4.311991	freak
-3.455756	free
-4.07463	freedom
-4.23944	freeze
-4.399141	frequency
-4.353384	frequent
-4.353384	frequently
-3.834869	fresh
-3.862022	fried
-3.389596	friend
-3.973172	friendly
-4.010961	friendship
-4.311991	frog
-3.110345	from
-3.568053	front
-4.274202	frozen
-3.955443	fruit
-4.149263	fry
-4.274202	fu
-4.399141	fuel
-4.353384	fulfill
-3.575232	full
-4.052353	fully
-3.520875	fun
-4.052353	function
-3.862022	fund
-4.450294	fundamental
-4.010961	funds
-4.353384	funeral
-4.450294	funky
-3.597508	funny
-4.353384	fur
-4.353384	furniture
-3.785182	further
-4.353384	fusion
-3.681286	future
-3.461289	g
-4.399141	gadget
-4.07463	gain
-4.311991	galaxy
-4.353384	gallery
-4.353384	gamble
-4.450294	gambling
-3.554043	game
-4.052353	gaming
-4.23944	gang
-4.177292	gangster
-4.052353	gap
-4.353384	garbage
-3.92202	garden
-4.450294	gardener
-4.311991	gardening
-4.274202	garlic
-4.149263	gas
-4.052353	gate
-4.274202	gather
-4.23944	gathering
-3.848233	gave
-4.031164	gay
-4.177292	ge
-4.274202	gear
-4.399141	gel
-4.450294	gem
-4.399141	gen
-4.311991	gender
-4.399141	gene
-3.834869	general
-4.031164	generally
-4.122934	generate
-3.7736	generation
-4.450294	generic
-4.177292	genie
-4.353384	genius
-3.955443	genre
-4.353384	gentle
-4.274202	gentleman
-4.399141	genuine
-4.207255	geography
-4.177292	german
-4.450294	gesture
-3.130667	get
-3.597508	getting
-3.93841	ghost
-4.149263	giant
-4.274202	giddiness
-4.031164	giddy
-3.906225	gift
-4.311991	gig
-4.311991	ginger
-3.47257	girl
-4.274202	giro
-3.270598	give
-3.762319	given
-3.848233	giving
-4.23944	glad
-3.973172	glass
-4.177292	glasses
-4.149263	global
-4.450294	gloomy
-4.274202	gloss
-4.450294	glove
-2.967777	go
-3.973172	goal
-4.098111	goat
-3.589955	god
-3.751323	goes
-3.288925	going
-4.207255	gol
-3.955443	gold
-4.010961	golden
-3.973172	golf
-3.785182	gone
-4.353384	gong
-3.120387	good
-4.052353	goodness
-4.23944	goods
-4.450294	goose
-4.274202	gor
-4.031164	gosh
-4.177292	gossip
-3.065582	got
-4.177292	gotten
-3.605195	government
-3.834869	grab
-4.207255	grace
-4.23944	grad
-4.031164	grade
-3.973172	graduate
-4.274202	graduated
-4.450294	graduating
-4.274202	graduation
-4.399141	gram
-4.031164	grand
-4.07463	grandfather
-3.973172	grandma
-4.052353	grandmother
-4.353384	grandpa
-4.353384	grandson
-4.450294	granny
-4.07463	grant
-4.450294	graph
-4.353384	graphic
-4.052353	grass
-4.399141	grateful
-4.399141	gravity
-4.311991	gravy
-4.274202	gray
-3.690625	great
-4.353384	greater
-4.353384	greedy
-3.47257	green
-4.399141	greenish
-4.450294	greeting
-4.177292	grew
-3.681286	grey
-4.207255	grill
-4.450294	grilled
-4.311991	grocery
-4.311991	groom
-4.177292	gross
-3.92202	ground
-3.582531	group
-3.848233	grow
-4.052353	growing
-4.274202	grown
-4.23944	growth
-4.274202	guarantee
-4.07463	guard
-4.177292	guardian
-3.413864	guess
-4.399141	guessing
-4.149263	guest
-4.399141	guidance
-3.973172	guide
-4.353384	guilty
-4.098111	guitar
-3.973172	gula
-4.450294	gum
-4.177292	gun
-3.690625	guna
-3.955443	guru
-3.444898	guy
-3.821904	gym
-3.575232	h
-3.274202	ha
-4.122934	habit
-4.311991	hack
-3.3849	had
-4.353384	hafiz
-3.613021	hah
-3.654413	hair
-4.450294	haircut
-4.311991	hak
-3.991656	halal
-3.597508	half
-4.07463	halfway
-3.672142	hall
-4.450294	halo
-4.399141	ham
-4.353384	hammer
-4.098111	hamster
-4.274202	han
-3.54047	hand
-4.23944	handbag
-3.890985	handle
-4.311991	handling
-4.052353	handsome
-4.311991	handwriting
-4.010961	hanging
-4.274202	hao
-3.533839	happen
-3.93841	happening
-4.399141	happier
-4.031164	happiest
-4.311991	happily
-3.973172	happiness
-3.514534	happy
-3.508285	hard
-4.031164	harder
-4.149263	hardly
-4.399141	hardware
-4.353384	harm
-4.122934	harry
-4.353384	harsh
-3.906225	hat
-3.785182	hate
-2.848233	have
-3.785182	hawker
-4.23944	hay
-3.001201	he
-3.709931	head
-4.098111	headache
-4.353384	heading
-4.399141	headphone
-4.450294	heal
-3.876262	health
-3.890985	healthy
-3.597508	hear
-4.122934	hearing
-3.730134	heart
-4.399141	heartbeat
-4.149263	heat
-4.353384	heater
-4.122934	heaven
-3.991656	heavy
-4.122934	heck
-4.353384	hedge
-4.450294	heel
-4.122934	height
-4.353384	helicopter
-3.862022	hell
-3.267024	hello
-4.353384	helmet
-3.399141	help
-4.23944	helper
-4.177292	helpful
-3.955443	helping
-4.450294	henry
-3.180197	her
-4.311991	herbal
-3.366612	here
-4.23944	heritage
-3.890985	hero
-4.311991	hers
-4.07463	herself
-3.751323	hey
-3.450293	hi
-4.274202	hidden
-4.052353	hide
-3.484152	high
-3.848233	higher
-3.955443	highest
-4.274202	highland
-4.149263	highlight
-4.353384	highly
-4.23944	highway
-4.311991	hike
-4.122934	hill
-3.311991	him
-4.031164	himself
-4.311991	hint
-4.098111	hip
-4.098111	hire
-3.324	his
-4.399141	historical
-3.848233	history
-3.797081	hit
-4.353384	hive
-4.149263	ho
-3.834869	hobby
-4.353384	hockey
-3.3849	hold
-4.23944	holder
-3.719915	holding
-4.098111	hole
-3.751323	holiday
-4.450294	hollow
-4.149263	holy
-3.399141	home
-4.031164	homework
-4.311991	honda
-3.862022	honest
-3.7736	honestly
-4.353384	honesty
-3.93841	honey
-4.207255	honeymoon
-3.740599	hong
-4.177292	honor
-4.450294	hood
-4.23944	hook
-4.399141	hoon
-4.098111	hop
-3.751323	hope
-3.973172	hopefully
-4.450294	horizon
-4.311991	horizontal
-4.399141	horn
-4.098111	horrible
-3.991656	horror
-4.07463	horse
-3.700171	hospital
-4.207255	host
-4.122934	hostel
-3.700171	hot
-3.461289	hotel
-3.597508	hour
-3.413864	house
-4.177292	household
-4.177292	housewife
-4.353384	housework
-4.177292	housing
-2.999275	how
-4.07463	however
-4.010961	hub
-4.274202	hug
-3.876262	huge
-3.389596	huh
-4.353384	hulk
-4.122934	hum
-3.7736	human
-4.23944	humble
-4.450294	humour
-3.371112	hundred
-3.809315	hungry
-4.274202	hunt
-4.207255	hurry
-4.031164	hurt
-3.719915	husband
-4.23944	hut
-4.399141	hybrid
-2.484739	i
-3.719915	ice
-4.311991	iceland
-4.399141	icon
-4.311991	id
-3.663187	idea
-4.122934	ideal
-4.149263	identify
-4.274202	identity
-4.098111	idiom
-4.353384	idiot
-4.450294	idle
-4.311991	idol
-4.450294	idola
-2.964217	if
-4.052353	ignore
-4.399141	ikat
-4.399141	ill
-4.149263	illegal
-4.399141	illness
-4.122934	image
-4.353384	imagination
-3.690625	imagine
-4.311991	immediate
-3.991656	immediately
-4.450294	immigration
-4.450294	immune
-3.973172	impact
-4.399141	implement
-4.23944	import
-4.399141	importance
-3.589955	important
-4.031164	impossible
-4.311991	impress
-4.010961	impression
-4.031164	impressive
-3.991656	improve
-4.353384	improvement
-4.450294	improving
-2.827044	in
-4.399141	incentive
-4.353384	inch
-4.031164	incident
-4.098111	include
-4.311991	included
-4.311991	inclusive
-3.862022	income
-4.052353	increase
-4.399141	increasing
-4.399141	incredible
-4.353384	incredibly
-4.207255	indeed
-4.450294	independence
-4.122934	independent
-4.07463	indicate
-4.450294	indication
-4.311991	indicative
-4.010961	individual
-4.122934	indoor
-3.973172	industrial
-3.955443	industry
-4.450294	infant
-4.399141	infection
-4.274202	infinity
-4.177292	influence
-4.399141	influencer
-3.991656	inform
-3.672142	information
-4.353384	informed
-4.311991	ingredient
-4.311991	initial
-4.098111	initially
-4.399141	initiate
-4.311991	initiative
-4.052353	injured
-4.274202	injury
-4.353384	ink
-4.23944	inn
-4.177292	inner
-4.399141	innocence
-4.353384	innocent
-4.07463	input
-4.311991	insane
-4.399141	insect
-4.399141	insert
-4.399141	inserted
-3.490061	inside
-4.399141	insist
-4.353384	inspiration
-4.207255	inspire
-4.311991	inspired
-4.149263	inspiring
-4.274202	install
-4.399141	instance
-4.122934	instant
-4.23944	instantly
-3.719915	instead
-4.274202	institution
-3.797081	instruction
-4.177292	instructor
-4.23944	instrument
-4.311991	instrumental
-3.973172	insurance
-4.311991	intake
-4.450294	intellectual
-4.353384	intelligence
-4.353384	intelligent
-4.23944	intend
-4.399141	intending
-4.311991	intense
-4.311991	intention
-4.353384	inter
-4.207255	interact
-4.23944	interaction
-4.450294	interactive
-4.353384	interbank
-4.274202	interchange
-3.762319	interest
-3.862022	interested
-3.455756	interesting
-4.311991	interior
-4.031164	intern
-4.177292	internal
-3.955443	international
-3.890985	internship
-4.399141	interrupt
-3.848233	interview
-3.418885	into
-4.031164	introduce
-4.353384	introduction
-4.311991	introvert
-4.399141	invent
-4.207255	invention
-4.399141	inverted
-4.031164	invest
-4.399141	investigation
-3.955443	investment
-4.207255	invisible
-4.311991	invitation
-3.862022	invite
-4.207255	invoice
-4.207255	involve
-4.122934	involved
-4.311991	ion
-4.122934	iron
-4.450294	ironman
-4.207255	irritating
-2.640734	is
-3.93841	island
-3.7736	issue
-4.207255	issuer
-2.774744	it
-4.399141	itchy
-3.876262	item
-4.353384	itinerary
-3.520875	its
-3.690625	itself
-3.663187	j
-4.07463	jack
-4.122934	jacket
-4.274202	jail
-3.700171	jam
-4.399141	jane
-4.031164	jap
-3.809315	japan
-4.177292	jawab
-4.23944	jay
-4.177292	jazz
-4.274202	jealous
-4.399141	jean
-4.098111	jeans
-4.274202	jeep
-4.399141	jeff
-4.274202	jelly
-4.450294	jenny
-4.207255	jerry
-4.207255	jet
-4.311991	jimmy
-3.484152	job
-4.149263	joe
-4.399141	joey
-4.311991	jog
-3.654413	join
-4.274202	joining
-4.122934	joint
-4.031164	joke
-4.311991	joker
-4.353384	jordan
-4.353384	journal
-4.149263	journey
-4.122934	joy
-4.052353	judge
-4.010961	juice
-4.311991	juicy
-3.848233	jump
-4.23944	junction
-3.93841	june
-4.207255	jungle
-4.052353	junior
-4.399141	junk
-2.879167	just
-4.399141	justice
-3.332194	k
-3.973172	ka
-4.207255	kai
-3.92202	kaki
-4.23944	kala
-3.690625	kali
-4.399141	kampong
-3.04163	kan
-4.149263	kang
-4.450294	kangaroo
-4.052353	karaoke
-3.389596	kat
-3.62099	kay
-4.353384	kebab
-4.311991	keen
-3.418885	keep
-4.274202	keeper
-4.149263	keeping
-4.399141	kelly
-4.353384	ken
-4.031164	kept
-3.62099	kerana
-3.7736	key
-4.149263	keyboard
-4.353384	khan
-4.031164	kick
-4.207255	kicking
-4.353384	kidney
-3.890985	kill
-4.353384	killer
-4.311991	killing
-4.311991	kilo
-4.353384	kilometer
-4.23944	kim
-3.216663	kind
-4.122934	kindergarten
-4.274202	kindle
-4.311991	kindly
-4.450294	kindness
-3.890985	king
-4.353384	kingdom
-4.311991	kiri
-4.031164	kiss
-4.177292	kit
-3.991656	kitchen
-4.122934	kite
-4.23944	kitty
-4.177292	knee
-3.890985	knew
-4.177292	knife
-4.311991	knitting
-4.399141	knob
-4.122934	knock
-2.8415	know
-4.098111	knowing
-3.973172	knowledge
-4.031164	known
-3.955443	ko
-4.450294	koala
-4.353384	koi
-4.399141	koko
-4.031164	kopi
-4.031164	kos
-3.955443	kosong
-4.23944	kuan
-4.274202	kurus
-4.450294	kwan
-3.547203	l
-3.210369	la
-3.973172	lab
-4.098111	label
-4.311991	labour
-4.207255	lack
-4.450294	ladder
-4.177292	ladies
-3.63738	lady
-4.23944	lag
-4.353384	lagoon
-4.311991	lai
-3.444898	lain
-4.177292	lake
-4.450294	lam
-3.582531	lama
-4.149263	lamb
-4.031164	lame
-3.973172	lamp
-4.353384	lamppost
-4.274202	lan
-3.955443	land
-4.149263	landed
-4.311991	landing
-4.052353	lane
-3.876262	language
-4.311991	lap
-4.23944	lar
-4.149263	large
-3.93841	lari
-4.399141	laser
-3.256473	last
-4.399141	lastly
-3.672142	late
-4.311991	lately
-3.520875	later
-3.821904	latest
-3.890985	laugh
-4.010961	laughing
-4.450294	laughter
-4.353384	launch
-4.23944	laundry
-4.353384	lavender
-3.821904	law
-3.973172	lawyer
-4.098111	lay
-4.274202	layer
-4.353384	layout
-3.797081	lazy
-4.031164	lead
-4.098111	leader
-4.23944	leadership
-4.311991	leading
-4.23944	leaf
-4.207255	league
-4.311991	lean
-3.560992	learn
-4.311991	learned
-3.890985	learning
-4.052353	learnt
-3.54047	least
-4.450294	leather
-3.444898	leave
-4.23944	leaves
-4.098111	leaving
-4.052353	lecture
-4.031164	lecturer
-3.876262	lee
-3.408901	left
-4.353384	leftover
-3.762319	leg
-4.149263	legal
-4.399141	legally
-4.177292	legend
-3.890985	legit
-4.149263	leisure
-4.177292	lemon
-4.353384	lend
-4.23944	length
-4.207255	lens
-3.709931	less
-4.098111	lesser
-3.834869	lesson
-3.324	let
-3.719915	letter
-3.589955	level
-4.177292	li
-4.450294	liang
-4.353384	liar
-4.311991	liberal
-3.991656	library
-3.973172	license
-3.93841	lie
-3.311991	life
-4.399141	lifetime
-3.906225	lift
-3.645813	light
-4.177292	lighter
-4.399141	lighting
-4.399141	lightning
-2.62503	like
-4.098111	likely
-4.399141	liking
-4.311991	lily
-4.177292	lim
-4.353384	lime
-3.890985	limit
-3.809315	limited
-4.177292	lin
-3.47257	line
-4.23944	ling
-3.890985	link
-4.353384	linked
-4.177292	lion
-4.122934	lip
-4.274202	lipstick
-4.23944	liquid
-4.399141	liquidity
-3.762319	list
-4.353384	listed
-3.709931	listen
-4.450294	listener
-3.955443	listening
-4.274202	lit
-3.862022	literally
-4.311991	literary
-4.177292	literature
-3.568053	little
-3.597508	live
-4.353384	liver
-3.797081	living
-4.399141	lizard
-4.07463	lo
-4.274202	load
-4.353384	loading
-4.399141	loaf
-3.876262	loan
-4.311991	lobby
-4.207255	lobster
-3.63738	local
-3.93841	location
-4.052353	lock
-4.311991	locked
-4.23944	locker
-4.353384	lodge
-4.399141	loft
-3.730134	log
-4.399141	logged
-4.207255	logic
-4.311991	logical
-4.07463	login
-4.450294	logistics
-4.177292	lonely
-3.349062	long
-3.797081	longer
-3.371112	look
-3.560992	looking
-4.177292	loop
-4.274202	loose
-4.311991	lord
-4.274202	lori
-4.311991	lorry
-3.862022	lose
-4.450294	loser
-4.177292	losing
-4.23944	loss
-3.785182	lost
-3.195021	lot
-4.098111	lots
-4.399141	lottery
-4.450294	lotus
-3.92202	loud
-4.353384	loudly
-4.399141	lounge
-4.207255	lousy
-3.3849	love
-4.399141	lovely
-4.207255	lover
-4.23944	loving
-3.700171	low
-3.92202	lower
-4.177292	loyal
-4.353384	loyalty
-3.991656	luck
-4.207255	luckily
-3.834869	lucky
-4.23944	luggage
-4.353384	lump
-3.7736	lunch
-4.353384	lung
-4.274202	luxury
-3.973172	lying
-3.366612	m
-3.848233	ma
-4.010961	mac
-3.848233	machine
-3.973172	mad
-4.052353	madam
-3.629107	made
-4.274202	magazine
-4.031164	magic
-4.122934	magical
-4.052353	maid
-3.848233	mail
-3.429104	main
-4.07463	mainly
-4.010961	maintain
-4.052353	maintenance
-3.973172	major
-4.23944	majority
-3.292686	make
-4.07463	maker
-3.797081	making
-4.274202	mala
-3.740599	male
-3.834869	mall
-3.418885	man
-3.256473	mana
-3.876262	manage
-3.955443	management
-3.834869	manager
-4.052353	mandarin
-4.353384	manga
-4.23944	mango
-4.450294	mannequin
-4.23944	manner
-4.177292	manual
-3.37566	many
-4.122934	map
-4.311991	marathon
-4.353384	marble
-3.955443	march
-4.399141	maria
-4.07463	marina
-4.23944	marine
-3.809315	mark
-4.274202	marker
-3.672142	market
-4.052353	marketing
-4.399141	marking
-4.311991	maroon
-3.797081	marriage
-3.730134	married
-4.122934	marry
-4.353384	mart
-4.399141	martial
-4.353384	martin
-4.07463	marvel
-4.353384	mary
-4.23944	mas
-3.394342	masa
-4.23944	masjid
-4.052353	mask
-4.177292	mass
-4.149263	massage
-3.862022	master
-4.010961	mat
-3.848233	match
-3.991656	matching
-4.122934	mate
-4.07463	material
-4.450294	materialistic
-3.834869	maternity
-3.92202	math
-4.353384	mathematics
-3.709931	matter
-4.177292	mature
-4.353384	maturing
-4.177292	maturity
-4.07463	mau
-3.991656	maximum
-4.311991	maxwell
-3.389596	may
-3.151986	maybe
-4.450294	maze
-2.945143	me
-3.719915	meal
-3.107871	mean
-3.809315	meaning
-4.010961	meaningful
-4.149263	meaningless
-4.010961	meant
-4.311991	meanwhile
-4.311991	measure
-3.876262	meat
-4.450294	mechanical
-3.821904	media
-4.399141	medic
-3.848233	medical
-4.311991	medication
-4.052353	medicine
-4.399141	meditation
-4.177292	medium
-3.605195	meet
-3.834869	meeting
-4.353384	melody
-4.399141	melt
-4.23944	mem
-3.862022	member
-4.311991	membership
-3.876262	memorable
-4.353384	memorize
-3.92202	memory
-3.93841	men
-4.23944	meng
-4.031164	mental
-4.311991	mentality
-4.23944	mentally
-3.848233	mention
-4.399141	mentor
-3.93841	menu
-4.399141	mercy
-4.353384	mere
-4.353384	meriah
-4.399141	merit
-4.399141	merry
-4.207255	mess
-3.762319	message
-4.399141	messenger
-4.177292	messy
-3.834869	met
-4.149263	metal
-4.149263	meter
-4.207255	method
-4.031164	mi
-4.450294	mian
-4.450294	mice
-4.353384	micro
-4.353384	microphone
-3.955443	mid
-3.740599	middle
-4.149263	midnight
-3.582531	might
-4.311991	migrate
-4.207255	mike
-4.353384	mild
-4.207255	mile
-4.399141	military
-3.848233	milk
-4.450294	miller
-3.690625	million
-4.353384	millionaire
-4.399141	millions
-3.955443	milo
-4.311991	min
-3.455756	mind
-4.311991	minded
-3.353383	mine
-4.274202	ming
-4.311991	minibus
-4.010961	minimum
-4.207255	minister
-4.149263	ministry
-4.149263	minor
-4.399141	minority
-4.399141	mint
-3.991656	minus
-3.672142	minute
-4.399141	miracle
-4.07463	mirror
-4.207255	mismatch
-3.629107	miss
-3.955443	missing
-4.177292	mission
-4.052353	mistake
-4.450294	mistaken
-3.809315	mister
-3.834869	mix
-4.177292	mixed
-4.399141	mixture
-4.177292	mo
-3.973172	mobile
-4.311991	modal
-4.098111	mode
-3.973172	model
-4.031164	modern
-4.450294	modify
-4.031164	module
-3.54047	moment
-4.399141	mommy
-3.332194	money
-4.010961	monitor
-4.149263	monkey
-4.23944	monster
-3.54047	month
-4.031164	monthly
-4.010961	mood
-4.07463	moon
-4.399141	moonlight
-4.311991	mop
-4.07463	moral
-3.128074	more
-4.207255	morgan
-3.533839	morning
-4.399141	morris
-4.399141	mosque
-4.450294	mosquito
-3.296479	most
-3.862022	mostly
-3.605195	mother
-4.450294	motherland
-4.207255	motion
-4.274202	motivate
-4.274202	motivation
-3.906225	motor
-4.207255	motorcycle
-4.149263	motto
-4.274202	mount
-4.031164	mountain
-4.23944	mouse
-3.890985	mouth
-3.554043	move
-4.149263	movement
-4.450294	mover
-3.533839	movie
-3.7736	moving
-4.122934	mu
-3.270598	much
-4.353384	mud
-4.399141	muffin
-4.450294	mug
-4.23944	multiple
-4.311991	multiply
-3.629107	mum
-4.07463	mummy
-4.353384	murder
-4.07463	murid
-4.207255	muscle
-4.010961	museum
-4.23944	mushroom
-3.613021	music
-4.122934	musical
-4.399141	musician
-3.403993	must
-4.399141	mustard
-4.207255	mutton
-4.311991	mutual
-2.848233	my
-3.554043	myself
-4.274202	mystery
-3.47257	n
-4.098111	na
-4.399141	nag
-3.672142	naik
-4.353384	nail
-3.081542	nak
-4.207255	naked
-3.340546	name
-4.122934	nana
-4.399141	nanny
-4.311991	nap
-3.54047	nasi
-4.353384	nasty
-4.23944	nation
-3.848233	national
-4.450294	nationality
-4.399141	native
-3.93841	natural
-4.207255	naturally
-3.876262	nature
-4.23944	naughty
-4.450294	ne
-3.613021	near
-3.955443	nearby
-4.010961	nearest
-4.23944	nearly
-4.450294	neat
-4.311991	necessarily
-4.031164	necessary
-4.450294	necessity
-4.177292	neck
-4.23944	necklace
-3.143868	need
-4.450294	needle
-3.876262	needs
-4.010961	negative
-4.274202	neighbor
-4.149263	neighborhood
-4.274202	neither
-4.311991	nephew
-4.353384	nervous
-4.450294	nest
-3.92202	net
-4.23944	netball
-4.122934	network
-4.274202	neutral
-3.24958	never
-3.3849	new
-3.834869	news
-4.098111	newspaper
-4.207255	newton
-3.259962	next
-3.195021	ni
-3.31996	nice
-4.23944	nicely
-4.353384	nick
-4.149263	nickname
-4.311991	niece
-3.554043	night
-4.399141	nightmare
-4.311991	nights
-3.246173	nine
-3.809315	nineteen
-3.700171	ninety
-4.353384	ninth
-2.871941	no
-4.450294	noble
-3.740599	nobody
-4.122934	noise
-4.149263	noisy
-4.399141	nominal
-3.821904	non
-4.07463	none
-4.07463	nonsense
-3.973172	noodle
-4.010961	nope
-4.149263	nor
-4.311991	norm
-3.554043	normal
-3.700171	normally
-3.834869	north
-4.353384	northern
-4.052353	nose
-2.879167	not
-3.809315	note
-4.274202	noted
-3.478322	nothing
-3.890985	notice
-4.311991	notification
-4.399141	notify
-4.311991	notional
-4.274202	noun
-4.274202	novel
-4.23944	novice
-3.063349	now
-3.740599	nowadays
-4.23944	nowhere
-4.399141	nugget
-4.274202	numb
-3.246173	number
-4.450294	numbness
-4.23944	nun
-3.973172	nurse
-4.274202	nursery
-4.149263	nursing
-4.399141	nut
-4.399141	nutrition
-3.389596	o
-3.848233	object
-4.353384	objective
-4.450294	observation
-4.311991	observe
-4.311991	obtain
-4.122934	obvious
-3.834869	obviously
-4.399141	occasion
-4.450294	occasionally
-4.098111	ocean
-4.450294	octopus
-4.274202	odd
-2.794675	of
-3.496051	off
-3.762319	offer
-4.399141	offering
-3.62099	office
-3.645813	officer
-4.207255	official
-4.399141	offshore
-3.890985	often
-2.869084	oh
-3.93841	oil
-4.177292	oily
-3.371112	old
-4.399141	olden
-3.834869	older
-4.311991	olive
-4.399141	omelette
-2.930137	on
-3.514534	once
-2.798289	one
-4.450294	ongoing
-4.23944	onion
-3.151986	only
-4.07463	onto
-4.177292	onwards
-4.399141	opah
-3.478322	open
-4.010961	opening
-4.311991	opera
-4.399141	operate
-4.353384	operating
-4.177292	operation
-3.906225	operator
-4.010961	opinion
-4.031164	opportunity
-3.890985	opposite
-4.450294	opt
-4.010961	option
-2.951983	or
-4.207255	oral
-3.10053	orang
-3.785182	orange
-3.876262	orchard
-4.23944	orchestra
-3.575232	order
-4.23944	ordered
-4.311991	ordinary
-4.399141	organ
-4.274202	organic
-4.353384	organization
-4.23944	organize
-4.177292	orientation
-4.07463	origin
-3.862022	original
-3.242794	other
-4.010961	otherwise
-4.450294	ouch
-3.30806	our
-4.122934	ours
-4.399141	ourself
-4.098111	ourselves
-3.177292	out
-4.311991	outbreak
-4.207255	outcome
-4.450294	outdated
-4.177292	outdoor
-4.450294	outdoors
-4.311991	outer
-4.207255	outfit
-4.353384	outgoing
-4.274202	outing
-4.052353	outlet
-4.311991	outline
-4.353384	outlook
-4.274202	output
-3.645813	outside
-4.311991	outstanding
-4.23944	oven
-3.394342	over
-4.122934	overall
-4.311991	overcome
-4.399141	overlap
-4.274202	overload
-4.207255	overnight
-4.207255	oversea
-3.762319	overseas
-4.353384	overtime
-4.399141	overweight
-4.353384	owe
-3.484152	own
-4.07463	owner
-4.149263	oxygen
-4.23944	oyster
-3.357748	p
-4.031164	pa
-4.207255	pace
-4.311991	pacific
-3.973172	pack
-4.052353	package
-4.207255	packet
-3.93841	pad
-3.862022	page
-4.23944	pail
-3.672142	pain
-4.098111	painful
-4.149263	paint
-4.177292	painting
-4.450294	paip
-3.991656	pair
-4.353384	palace
-4.23944	pale
-3.62099	paling
-4.353384	palm
-4.450294	pam
-4.450294	pampered
-4.23944	pan
-4.399141	panama
-4.149263	pancake
-4.052353	panda
-4.177292	pandan
-4.122934	panel
-4.353384	pang
-4.23944	panic
-4.399141	pant
-3.762319	pants
-4.274202	papa
-3.730134	paper
-4.274202	par
-4.23944	para
-4.177292	parade
-4.311991	paradise
-4.450294	parcel
-4.274202	pardon
-3.809315	parent
-4.177292	parental
-3.672142	park
-4.122934	parking
-3.434305	part
-4.450294	partially
-4.010961	participate
-3.862022	particular
-4.353384	particularly
-4.450294	partly
-3.762319	partner
-3.7736	party
-4.177292	pasang
-3.560992	pass
-4.274202	passenger
-4.07463	passing
-3.991656	passion
-4.311991	passionate
-4.311991	passive
-3.890985	passport
-4.23944	password
-3.681286	past
-4.098111	paste
-4.353384	pat
-4.207255	patch
-4.031164	paternity
-4.07463	path
-4.450294	pathetic
-4.149263	patience
-3.63738	patient
-4.122934	pattern
-4.450294	pau
-4.177292	pause
-4.274202	pavement
-4.353384	pavilion
-3.461289	pay
-3.93841	paying
-3.730134	payment
-4.274202	pea
-4.098111	peace
-4.274202	peaceful
-3.991656	peach
-4.031164	peak
-4.274202	peanut
-4.07463	pear
-4.23944	pearl
-4.177292	pee
-4.274202	peek
-4.399141	peel
-4.23944	peer
-4.311991	peeve
-3.991656	pen
-4.399141	penalty
-3.862022	penang
-4.177292	pencil
-4.274202	pending
-4.353384	penguin
-4.450294	penny
-3.146558	people
-4.149263	pepper
-3.730134	per
-3.582531	percent
-4.207255	percentage
-4.353384	perception
-3.821904	perfect
-4.399141	perfectly
-4.07463	perform
-4.010961	performance
-4.311991	perfume
-4.098111	perhaps
-3.730134	period
-4.207255	permanent
-4.207255	permit
-4.353384	perpetual
-3.324	person
-3.663187	personal
-3.973172	personality
-3.991656	personally
-4.098111	perspective
-4.23944	pertaining
-4.450294	pest
-3.7736	pet
-4.177292	peter
-4.149263	petrol
-4.353384	petty
-3.890985	pharmacy
-4.207255	phase
-4.399141	philosophy
-3.466893	phone
-3.821904	photo
-4.399141	photocopy
-4.450294	photographer
-4.353384	photography
-3.876262	phrase
-3.955443	physical
-4.177292	physically
-4.052353	physics
-4.149263	pi
-4.010961	piano
-3.700171	pick
-4.311991	picked
-4.149263	picnic
-3.62099	picture
-3.906225	pie
-3.890985	piece
-4.052353	pig
-4.353384	pigeon
-4.353384	pile
-4.274202	pill
-4.23944	pillow
-4.122934	pilot
-4.450294	pimple
-4.052353	pin
-4.052353	pinang
-4.450294	pine
-4.311991	pineapple
-4.177292	ping
-3.654413	pink
-4.353384	pinkish
-4.031164	pioneer
-4.353384	pipe
-4.010961	pisang
-4.450294	piss
-4.353384	pit
-4.23944	pitch
-4.274202	pity
-3.848233	pizza
-3.380255	place
-4.07463	plain
-3.629107	plan
-4.098111	plane
-4.311991	planet
-4.399141	plank
-4.122934	plant
-4.010961	plastic
-4.031164	plate
-4.07463	platform
-3.408901	play
-3.93841	player
-4.399141	playful
-4.07463	playground
-4.122934	plaza
-4.450294	pleasant
-3.399141	please
-4.399141	plenty
-4.207255	plot
-4.311991	pluck
-4.311991	plug
-4.177292	plum
-3.54047	plus
-4.450294	pneumonia
-4.399141	po
-4.122934	pocket
-3.340546	point
-4.450294	pointed
-4.353384	pointer
-4.031164	pointing
-4.450294	poison
-4.274202	poke
-4.450294	poker
-4.311991	polar
-4.052353	pole
-3.848233	police
-4.149263	policy
-4.010961	polis
-4.311991	polish
-4.450294	polite
-4.207255	political
-4.122934	politics
-4.23944	polo
-3.730134	poly
-4.207255	polyclinic
-4.274202	polytechnic
-4.353384	pon
-4.23944	pond
-4.274202	pong
-3.862022	pool
-4.450294	poop
-3.834869	poor
-3.876262	pop
-4.122934	popcorn
-3.848233	popular
-4.207255	population
-4.010961	pork
-4.07463	porridge
-4.122934	port
-4.353384	portable
-4.031164	portal
-3.955443	portfolio
-4.031164	portion
-4.149263	pose
-3.834869	position
-3.93841	positive
-4.098111	possession
-4.353384	possibility
-3.751323	possible
-4.311991	possibly
-3.681286	post
-3.93841	postal
-4.23944	posted
-4.010961	poster
-4.399141	posting
-4.07463	pot
-3.890985	potato
-4.07463	potatoes
-4.23944	potential
-3.973172	potong
-4.274202	potter
-4.177292	pound
-4.207255	pour
-4.098111	powder
-3.672142	power
-4.274202	powerful
-4.098111	practical
-4.353384	practically
-4.010961	practice
-4.450294	praise
-4.311991	pram
-4.399141	prank
-4.07463	prawn
-4.098111	pray
-4.353384	prayer
-4.450294	praying
-4.311991	precious
-4.274202	precisely
-4.399141	predict
-3.751323	prefer
-4.23944	preference
-4.399141	preferred
-4.177292	pregnant
-4.274202	premium
-4.399141	preparation
-3.890985	prepare
-4.149263	prepared
-3.991656	present
-4.098111	presentation
-4.207255	preserve
-4.207255	president
-3.890985	press
-4.450294	pressing
-3.92202	pressure
-4.23944	pretend
-3.645813	pretty
-4.149263	prevent
-3.862022	previous
-3.955443	previously
-3.663187	price
-4.399141	pride
-3.605195	primary
-4.177292	prime
-4.311991	prince
-4.177292	princess
-4.274202	principal
-4.353384	principle
-4.031164	print
-4.450294	printer
-4.311991	prior
-4.207255	priority
-4.149263	prison
-4.311991	privacy
-3.834869	private
-4.311991	privilege
-4.274202	prize
-3.890985	pro
-4.399141	probability
-3.47257	probably
-3.502125	problem
-4.098111	procedure
-3.797081	proceed
-3.809315	process
-4.399141	procrastinate
-4.207255	procrastinating
-4.149263	produce
-4.399141	producer
-3.93841	product
-4.149263	production
-4.274202	productive
-4.177292	prof
-4.399141	profession
-3.93841	professional
-4.122934	professor
-4.207255	profile
-4.207255	profit
-3.890985	program
-4.122934	progress
-3.785182	project
-4.23944	promise
-4.149263	promote
-4.399141	promoter
-4.010961	promotion
-4.274202	prompt
-4.149263	pronounce
-4.450294	pronunciation
-4.207255	proof
-4.311991	proofread
-3.955443	proper
-3.906225	properly
-4.010961	property
-4.122934	proposal
-4.353384	propose
-4.450294	props
-4.23944	prospectus
-4.207255	protect
-4.274202	protection
-4.177292	protein
-4.450294	protocol
-4.207255	prove
-3.862022	provide
-4.098111	provided
-4.399141	provider
-4.450294	providing
-3.991656	provoking
-4.177292	psychology
-4.149263	puan
-4.031164	pub
-3.797081	public
-4.353384	publish
-4.311991	pudding
-4.450294	puddle
-4.311991	puff
-4.450294	puke
-3.92202	pull
-4.399141	pulse
-4.450294	puma
-4.207255	pump
-4.399141	pumpkin
-3.154726	pun
-4.23944	punch
-4.23944	puppy
-4.149263	purchase
-4.098111	pure
-4.353384	purely
-3.848233	purple
-3.92202	purpose
-4.207255	purposely
-4.23944	pursue
-3.7736	push
-4.122934	pushing
-3.311991	put
-3.645813	q
-4.450294	qualification
-4.450294	qualified
-4.23944	qualify
-3.93841	quality
-4.399141	quantity
-4.177292	quarantine
-4.311991	quarrel
-3.973172	quarter
-4.399141	quay
-4.098111	queen
-4.399141	query
-4.399141	quest
-3.296479	question
-3.751323	queue
-3.973172	quick
-4.010961	quickly
-3.93841	quiet
-3.991656	quit
-3.22305	quite
-4.149263	quiz
-4.149263	quote
-3.547203	r
-4.399141	ra
-4.052353	rabbit
-4.052353	race
-4.353384	racial
-4.353384	racing
-4.353384	racist
-4.399141	rack
-4.23944	racket
-3.93841	radio
-4.353384	raid
-3.955443	rain
-4.311991	rainbow
-4.399141	rainy
-4.098111	raise
-4.311991	raising
-4.311991	raja
-4.031164	rakan
-4.450294	ram
-4.450294	rambutan
-4.122934	ran
-3.93841	random
-4.274202	randomly
-4.052353	range
-4.207255	rank
-3.93841	rap
-4.450294	rapid
-4.07463	rare
-4.207255	rarely
-3.304165	rasa
-4.274202	rata
-3.672142	rate
-4.353384	rated
-3.700171	rather
-4.23944	rating
-4.353384	ratio
-4.098111	raw
-4.23944	ray
-3.719915	raya
-3.991656	re
-3.797081	reach
-4.353384	reaching
-4.122934	react
-4.207255	reaction
-3.533839	read
-3.809315	reading
-3.809315	ready
-3.645813	real
-4.274202	realistic
-4.149263	reality
-3.906225	realize
-3.08387	really
-3.690625	reason
-4.23944	reasonable
-4.399141	rebate
-4.177292	rebel
-4.353384	rebellious
-4.098111	rebus
-4.098111	recall
-4.177292	receipt
-3.740599	receive
-3.740599	received
-3.973172	recent
-3.672142	recently
-4.353384	reception
-3.973172	recess
-4.399141	recheck
-4.098111	recipe
-4.399141	recognition
-4.353384	recognize
-3.955443	recommend
-4.399141	recommendation
-4.399141	reconfirm
-3.834869	record
-3.955443	recording
-4.207255	recover
-4.399141	recruit
-4.207255	rectangle
-4.311991	rectangular
-4.311991	recycle
-3.47257	red
-4.450294	reddish
-4.353384	redeem
-4.399141	redemption
-4.353384	redo
-4.177292	reduce
-4.052353	refer
-3.848233	reference
-4.311991	reflect
-4.399141	reflection
-4.207255	refresh
-4.122934	refund
-4.23944	refuse
-3.762319	regarding
-4.274202	regardless
-4.353384	region
-3.991656	register
-4.098111	registered
-4.177292	registration
-4.031164	regret
-4.122934	regular
-4.353384	regularly
-4.450294	reimburse
-4.23944	reimbursement
-4.052353	reject
-4.399141	rejection
-4.122934	relate
-3.876262	related
-4.399141	relation
-3.809315	relationship
-4.207255	relative
-4.311991	relatively
-3.785182	relax
-4.353384	relaxed
-4.031164	release
-4.031164	relevant
-4.450294	reliable
-4.311991	relief
-4.353384	relieve
-4.098111	religion
-4.177292	religious
-4.207255	relive
-4.311991	rely
-4.311991	remain
-3.418885	remember
-4.149263	remind
-4.450294	reminder
-4.052353	remit
-4.052353	remittance
-4.353384	remix
-4.311991	remote
-4.07463	remove
-4.07463	renew
-4.353384	renewal
-4.353384	renovation
-3.955443	rent
-4.122934	rental
-4.23944	repair
-3.751323	repeat
-4.23944	replace
-4.274202	replacement
-3.862022	reply
-3.809315	report
-4.399141	reporter
-4.353384	represent
-4.274202	republic
-4.399141	reputation
-3.955443	request
-4.052353	require
-4.122934	requirement
-4.399141	rescue
-3.876262	research
-4.274202	reserve
-4.23944	reservoir
-4.207255	reset
-4.149263	resident
-4.207255	resign
-4.098111	resort
-4.23944	resource
-4.010961	respect
-4.098111	respond
-4.149263	response
-4.207255	responsibility
-4.274202	responsible
-4.450294	responsive
-3.709931	rest
-3.821904	restaurant
-4.353384	resting
-4.450294	restriction
-3.93841	result
-4.207255	resume
-4.274202	retail
-4.399141	retain
-4.353384	retarded
-4.311991	retell
-4.207255	retire
-4.353384	retired
-4.399141	retirement
-4.353384	retrieve
-4.399141	retrospect
-3.876262	return
-4.399141	revenue
-4.274202	reverse
-4.052353	review
-4.311991	revise
-4.353384	revision
-4.311991	reward
-4.399141	rhythm
-4.399141	rib
-4.274202	ribbon
-3.613021	rice
-3.821904	rich
-4.353384	rid
-3.890985	ride
-4.311991	rider
-4.031164	ridiculous
-4.207255	riding
-2.893991	right
-4.031164	ring
-4.450294	ringing
-4.177292	rise
-3.730134	risk
-4.399141	risky
-3.973172	river
-3.568053	road
-4.353384	roadside
-4.23944	roast
-4.450294	rob
-4.450294	robin
-4.07463	robot
-3.809315	rock
-4.311991	rod
-4.399141	roger
-3.906225	role
-3.93841	roll
-4.052353	roller
-4.311991	rolling
-4.149263	romance
-4.07463	romantic
-3.955443	roof
-3.568053	room
-4.23944	roomie
-4.274202	roommate
-4.207255	root
-4.353384	rope
-4.07463	rose
-4.274202	rough
-3.890985	roughly
-3.848233	round
-4.177292	route
-4.207255	routine
-4.122934	row
-4.274202	royal
-4.353384	rub
-4.274202	rubber
-3.93841	rubbish
-4.274202	ruby
-4.07463	rude
-4.450294	ruin
-4.149263	rule
-4.353384	ruler
-3.629107	run
-4.311991	runner
-3.809315	running
-4.207255	rupa
-4.399141	rural
-3.973172	rush
-3.92202	rushing
-4.207255	russia
-4.399141	rusty
-3.253013	s
-4.07463	sa
-4.122934	sack
-4.23944	sacrifice
-3.629107	sad
-4.399141	sadly
-4.353384	sadness
-4.098111	safari
-3.92202	safe
-4.07463	safety
-4.450294	saga
-3.394342	said
-4.450294	sailing
-4.311991	saint
-4.177292	sake
-4.031164	salad
-3.890985	salary
-3.92202	sale
-4.149263	salmon
-4.149263	salt
-4.177292	salted
-4.23944	salty
-4.207255	sam
-4.450294	saman
-3.862022	sambal
-3.270598	same
-4.177292	sample
-4.23944	san
-3.93841	sand
-4.450294	sandal
-4.149263	sandwich
-4.311991	sandy
-4.311991	sang
-4.177292	sapa
-4.399141	sarcastic
-4.450294	sari
-4.052353	sat
-4.207255	sate
-4.353384	satisfaction
-4.274202	satisfied
-3.906225	sauce
-4.274202	sausage
-3.709931	save
-4.311991	saved
-4.052353	saving
-3.54047	saw
-4.353384	sawing
-3.056718	say
-2.976806	saya
-3.54047	saying
-4.274202	scale
-4.274202	scam
-4.149263	scan
-4.399141	scar
-4.149263	scare
-3.797081	scary
-4.149263	scenario
-4.031164	scene
-4.177292	scenery
-3.93841	schedule
-4.031164	scheme
-4.450294	scholar
-4.207255	scholarship
-3.292686	school
-4.311991	schooling
-3.751323	science
-4.353384	scientist
-4.274202	scissors
-4.010961	scold
-4.311991	scolding
-4.399141	scoop
-4.399141	scooter
-4.23944	scope
-3.991656	score
-4.207255	scratch
-4.23944	scream
-4.311991	screaming
-3.955443	screen
-4.177292	screw
-4.399141	screwed
-4.311991	script
-4.207255	scroll
-4.399141	scrub
-3.862022	se
-3.821904	sea
-4.274202	seal
-3.862022	search
-4.311991	searching
-3.890985	season
-3.834869	seat
-4.450294	seated
-4.399141	seater
-4.274202	seaweed
-3.848233	sec
-3.47257	second
-3.62099	secondary
-4.311991	secondly
-4.052353	secret
-3.991656	section
-4.23944	sector
-4.353384	secure
-3.876262	security
-3.08387	see
-4.23944	seed
-3.955443	seeing
-4.149263	seek
-4.010961	seem
-3.740599	seen
-4.274202	seesaw
-4.311991	segment
-4.122934	seldom
-4.098111	select
-4.207255	selected
-4.399141	selection
-3.7736	self
-4.207255	selfish
-3.63738	sell
-4.353384	seller
-3.906225	selling
-3.906225	semester
-4.177292	semi
-4.122934	seminar
-4.177292	sen
-3.502125	send
-4.098111	sending
-3.92202	senior
-3.63738	sense
-4.450294	senseless
-4.07463	sensitive
-4.311991	sensor
-3.848233	sent
-3.876262	sentence
-4.149263	sentimental
-4.07463	separate
-4.353384	separately
-4.23944	serai
-4.23944	sergeant
-4.031164	series
-3.719915	serious
-3.862022	seriously
-4.353384	serta
-4.353384	servant
-3.955443	serve
-4.207255	server
-3.560992	service
-4.23944	serving
-3.973172	session
-4.399141	sessions
-3.690625	set
-4.122934	setting
-3.906225	settle
-4.353384	settled
-4.274202	settlement
-3.300305	seven
-3.876262	seventeen
-4.23944	seventh
-3.709931	seventy
-4.353384	several
-4.23944	severe
-4.149263	sex
-4.311991	sexual
-4.274202	sexy
-4.311991	sh
-4.450294	shabby
-3.92202	shack
-4.177292	shade
-4.311991	shadow
-4.274202	shag
-4.149263	shah
-4.07463	shake
-4.311991	shaking
-3.848233	shall
-4.399141	shame
-4.353384	shampoo
-4.122934	shanghai
-3.92202	shape
-3.663187	share
-3.973172	shark
-4.207255	sharp
-4.353384	shave
-4.311991	shaw
-3.04163	she
-4.311991	shed
-3.890985	sheep
-4.052353	sheet
-4.353384	shelf
-4.07463	shell
-4.311991	shellfish
-4.149263	shelter
-4.149263	shi
-4.399141	shield
-3.955443	shift
-3.92202	shine
-4.399141	shining
-4.031164	ship
-4.353384	shipping
-3.719915	shirt
-4.311991	shivering
-4.010961	shock
-4.399141	shocking
-3.821904	shoe
-3.890985	shoot
-4.149263	shooting
-3.47257	shop
-3.496051	shopping
-4.052353	shore
-3.645813	short
-4.274202	shorter
-4.311991	shortly
-4.399141	shortness
-3.973172	shorts
-4.052353	shot
-3.274202	should
-4.207255	shoulder
-4.149263	shout
-4.149263	shouting
-4.23944	shovel
-3.502125	show
-4.052353	shower
-4.07463	showing
-4.399141	shown
-4.274202	shrunk
-4.177292	shuffle
-4.031164	shut
-4.274202	shuttle
-4.149263	shy
-3.973172	si
-4.274202	sial
-4.177292	sibling
-3.876262	sick
-4.311991	sickness
-3.403993	side
-4.207255	sides
-4.149263	sideways
-4.274202	sigh
-4.23944	sight
-3.54047	sign
-4.207255	signal
-4.23944	signature
-3.93841	signboard
-4.311991	significance
-4.098111	significant
-4.311991	silence
-4.23944	silent
-3.821904	silly
-4.149263	silver
-3.876262	similar
-4.207255	similarity
-3.762319	simple
-4.207255	simply
-4.353384	sin
-3.575232	since
-3.645813	sing
-4.122934	singer
-4.010961	singing
-3.700171	single
-4.353384	sink
-3.663187	sir
-4.177292	sis
-3.700171	sister
-3.690625	sit
-4.052353	site
-3.740599	sitting
-3.785182	situation
-3.242794	six
-3.7736	sixteen
-4.149263	sixth
-3.663187	sixty
-3.785182	size
-4.353384	skate
-4.311991	skating
-4.399141	sketch
-4.274202	sketchbook
-4.399141	ski
-3.906225	skill
-4.399141	skim
-3.834869	skin
-4.23944	skinny
-3.834869	skip
-4.031164	skirt
-3.955443	sky
-4.098111	slack
-4.450294	slam
-4.353384	slang
-4.274202	slap
-4.031164	slash
-4.450294	slave
-3.654413	sleep
-3.906225	sleeping
-4.177292	sleepy
-4.122934	sleeve
-4.450294	slender
-4.274202	slept
-4.274202	slice
-4.098111	slide
-4.274202	slight
-3.92202	slightly
-4.23944	slim
-4.177292	slip
-4.207255	slipper
-4.149263	slogan
-4.311991	slope
-4.23944	slot
-3.834869	slow
-3.890985	slowly
-3.490061	small
-3.92202	smaller
-3.821904	smart
-4.399141	smash
-3.973172	smell
-4.207255	smelly
-4.07463	smile
-4.23944	smiling
-4.311991	smith
-3.890985	smoke
-4.450294	smoker
-4.122934	smoking
-4.177292	smooth
-4.122934	snack
-4.149263	snake
-4.274202	snap
-4.207255	sneak
-4.353384	sniffing
-4.122934	snow
-2.695372	so
-4.311991	soap
-3.809315	soccer
-3.654413	social
-4.450294	socialism
-3.862022	society
-4.399141	sociology
-4.149263	sock
-4.207255	sofa
-3.876262	soft
-4.399141	softball
-4.450294	solar
-4.122934	sold
-4.399141	soldier
-4.399141	sole
-4.353384	solemnization
-4.274202	solid
-4.052353	solo
-4.149263	solution
-4.098111	solve
-3.18903	some
-3.7736	somebody
-4.399141	someday
-3.955443	somehow
-3.484152	someone
-4.274202	somerset
-3.180197	something
-3.740599	sometime
-3.490061	sometimes
-4.274202	somewhat
-3.785182	somewhere
-3.740599	son
-3.709931	song
-3.762319	soon
-4.353384	sore
-3.332194	sorry
-3.785182	sort
-4.07463	soul
-3.751323	sound
-3.809315	soup
-4.207255	sour
-4.149263	source
-3.955443	south
-4.353384	souvenir
-4.399141	soy
-4.274202	soya
-4.149263	spa
-3.821904	space
-4.23944	spade
-4.149263	spaghetti
-4.399141	span
-4.23944	spare
-4.399141	spark
-3.575232	speak
-4.052353	speaker
-3.709931	speaking
-4.399141	spec
-3.719915	special
-4.311991	specialist
-4.399141	species
-3.93841	specific
-4.207255	specifically
-4.450294	specify
-4.274202	specs
-4.353384	spectacles
-4.031164	speech
-4.010961	speed
-3.991656	spell
-4.207255	spelling
-3.589955	spend
-4.052353	spending
-4.07463	spent
-4.23944	spice
-3.955443	spicy
-4.177292	spider
-4.274202	spin
-4.353384	spine
-4.149263	spirit
-4.399141	spiritual
-4.098111	split
-4.122934	splurge
-4.177292	spoil
-4.098111	spoke
-4.274202	spoken
-4.450294	sponge
-4.122934	sponsor
-4.450294	spontaneous
-4.207255	spoon
-3.834869	sport
-3.709931	sports
-4.399141	sporty
-3.834869	spot
-4.399141	spotted
-4.311991	spouse
-4.311991	spray
-4.149263	spread
-4.177292	spring
-4.353384	spy
-4.353384	squad
-3.890985	square
-4.311991	squash
-4.399141	squat
-4.207255	squeeze
-4.353384	sri
-3.991656	stable
-4.177292	stack
-4.098111	stadium
-3.809315	staff
-3.906225	stage
-4.399141	stain
-4.274202	staircase
-4.207255	stalk
-3.906225	stall
-4.274202	stamina
-4.177292	stamp
-3.730134	stand
-3.809315	standard
-3.797081	standing
