
\data\
ngram 1=6122
ngram 2=0
ngram 3=0

\1-grams:
-3.918973	</s>
-3.918973	<noise>
-99	<s>
-3.918973	<v-noise>
-3.918973	__Abraham_Solomon
-3.918973	__Admiralty_Greens
-3.918973	__Admiralty_Road
-3.918973	__Admiralty_West
-3.918973	__Ah_Hood_Road
-3.918973	__Aida_Street
-3.918973	__Airline_Road
-3.918973	__Airport_Cargo_Road
-3.918973	__Al_Islamiah
-3.918973	__Al_Islamic
-3.918973	__Alex_Josey
-3.918973	__Alexander_Laurie_Johnston
-3.918973	__Alexandra_Lane
-3.918973	__Alexandra_Road
-3.918973	__Aliman_Hassan
-3.918973	__Aljunied_Avenue
-3.918973	__Aljunied_Crescent
-3.918973	__Aljunied_Hussein
-3.918973	__Aljunied_Neighbourhood
-3.918973	__Aljunied_Road
-3.918973	__Alnwick_Road
-3.918973	__Amasalam_Chetty_Road
-3.918973	__Anak_Bukit
-3.918973	__Anchorvale_Drive
-3.918973	__Anchorvale_Street
-3.918973	__Ang_Mo_Kio
-3.918973	__Ang_Mo_Kio_Street
-3.918973	__Ang_Peng_Tiam
-3.918973	__Angsana_Avenue
-3.918973	__Angsana_Drive
-3.918973	__Ann_Siang_Hill
-3.918973	__Anthony_Road
-3.918973	__Arab_Street
-3.918973	__Arrival_Crescent
-3.918973	__Arts_Link
-3.918973	__Arumugam_Road
-3.918973	__Asia_Pacific
-3.918973	__Asia_Square
-3.918973	__Asimont_Lane
-3.918973	__Attap_Valley_Lane
-3.918973	__Au_Yun_Pak
-3.918973	__Auckland_Road_West
-3.918973	__Australian_International
-3.918973	__Ava_Road
-3.918973	__Avon_Road
-3.918973	__Baker_Street
-3.918973	__Bali_Lane
-3.918973	__Balmoral_Crescent
-3.918973	__Bao_Gong
-3.918973	__Bartley_Road
-3.918973	__Beach_Road
-3.918973	__Beatty_Road
-3.918973	__Bedok_Anchorvale_Crescent
-3.918973	__Bedok_Green
-3.918973	__Bedok_Lighthouse
-3.918973	__Bedok_North
-3.918973	__Bedok_Point
-3.918973	__Bedok_Points
-3.918973	__Bedok_Reservoir
-3.918973	__Bedok_Ria_Crescent
-3.918973	__Bedok_South
-3.918973	__Bedok_View
-3.918973	__Beeh_Low_See
-3.918973	__Begonia_Walk
-3.918973	__Belilios_Lane
-3.918973	__Belmont_Road
-3.918973	__Bernice_Ong
-3.918973	__Bethlehem_Bible_Presbyterian
-3.918973	__Binchang_Rise
-3.918973	__Bishan_Point
-3.918973	__Bishan_Street
-3.918973	__Blackmore_Drive
-3.918973	__Bliss_Hotel
-3.918973	__Blue_Cross
-3.918973	__Blue_Stars
-3.918973	__Bo_Seng_Avenue
-3.918973	__Boarding_House
-3.918973	__Boat_Quay
-3.918973	__Bodmin_Drive
-3.918973	__Bonham_Street
-3.918973	__Boon_Keng
-3.918973	__Boon_Lay
-3.918973	__Boon_Lay_Place
-3.918973	__Boon_Tat_Street
-3.918973	__Boon_Teck_Road
-3.918973	__Borthwick_Drive
-3.918973	__Boundary_Road
-3.918973	__Braddell_Road
-3.918973	__Brani_Drive
-3.918973	__Brani_Marine
-3.918973	__Brani_Way
-3.918973	__Bridport_Avenue
-3.918973	__Bright_Hill
-3.918973	__Bristol_Road
-3.918973	__Buangkok_View
-3.918973	__Bukit_Batok
-3.918973	__Bukit_Batok_Avenue
-3.918973	__Bukit_Batok_Avenue_West
-3.918973	__Bukit_Batok_Central
-3.918973	__Bukit_Batok_Central_Link
-3.918973	__Bukit_Batok_Crescent
-3.918973	__Bukit_Batok_East
-3.918973	__Bukit_Batok_East_Avenue
-3.918973	__Bukit_Batok_Road
-3.918973	__Bukit_Batok_Street
-3.918973	__Bukit_Batok_West
-3.918973	__Bukit_Batok_West_Avenue
-3.918973	__Bukit_Chandu
-3.918973	__Bukit_Ho_Swee_Link
-3.918973	__Bukit_Manis_Road
-3.918973	__Bukit_Merah
-3.918973	__Bukit_Merah_View
-3.918973	__Bukit_Mugliston
-3.918973	__Bukit_Sedap_Road
-3.918973	__Bukit_Teresa_Close
-3.918973	__Bukit_Timah
-3.918973	__Bukit_Timah_Avenue
-3.918973	__Bukit_Timah_Link
-3.918973	__Bukit_Timah_Plaza
-3.918973	__Bukit_Timah_Road
-3.918973	__Bukit_Tinggi_Road
-3.918973	__Burmah_Road
-3.918973	__Burmese_Buddhist
-3.918973	__Bury_Road
-3.918973	__Buyong_Road
-3.918973	__Canberra_View
-3.918973	__Canning_Lane
-3.918973	__Canning_Rise
-3.918973	__Cantonment_Complex
-3.918973	__Carisbrooke_Grove
-3.918973	__Carl_Alexander
-3.918973	__Carlton_Avenue
-3.918973	__Carnation_Drive
-3.918973	__Cashew_Crescent
-3.918973	__Cashew_Road
-3.918973	__Cassia_Crescent
-3.918973	__Ceylon_Road
-3.918973	__Chai_Chee
-3.918973	__Chai_Chee_Drive
-3.918973	__Chai_Chee_Street
-3.918973	__Chan_Chun_Sing
-3.918973	__Chan_Sek_Keong
-3.918973	__Chancery_Lane
-3.918973	__Chang_Ziang
-3.918973	__Changi_Business_Park_Vista
-3.918973	__Changi_Coast
-3.918973	__Changi_East_Drive
-3.918973	__Changi_East_Road
-3.918973	__Changi_South_Lane
-3.918973	__Changi_Village_Road
-3.918973	__Changkat_Changi
-3.918973	__Chatsworth_Road
-3.918973	__Cheang_Hong_Lim_Place
-3.918973	__Cheang_Hong_Lim_Street
-3.918973	__Chencharu_Lane
-3.918973	__Chencharu_Link
-3.918973	__Cheo_Kim_Ban
-3.918973	__Chestnut_Crescent
-3.918973	__Chew_Kheng_Chuan
-3.918973	__Chin_Bee_Road
-3.918973	__Chin_Cheng_Avenue
-3.918973	__Chin_Chew_Street
-3.918973	__Chin_Swee
-3.918973	__China_Street
-3.918973	__Chinatown_Complex
-3.918973	__Chinatown_Hotel
-3.918973	__Chinatown_Point
-3.918973	__Chinese_Garden
-3.918973	__Chinese_Garden_Road
-3.918973	__Choa_Chu_Kang
-3.918973	__Choa_Chu_Kang_Loop
-3.918973	__Choa_Chu_Kang_West
-3.918973	__Chong_Pang
-3.918973	__Chong_Pang_Combined
-3.918973	__Chong_You_Fook_Charles
-3.918973	__Chong_Zheng
-3.918973	__Choon_Guan_Street
-3.918973	__Choor_Singh_Sidhu
-3.918973	__Christalite_Methodist
-3.918973	__Christopher_Henry_Rothwell
-3.918973	__Chu_Siang_Tong
-3.918973	__Chuan_Hoe_Avenue
-3.918973	__Chuan_Walk
-3.918973	__Chulia_Street
-3.918973	__Chwee_Chian_View
-3.918973	__Circular_Road
-3.918973	__Claymore_Road
-3.918973	__Cleantech_View
-3.918973	__Clementi_Street
-3.918973	__Clive_Street
-3.918973	__Clunny_Hill
-3.918973	__Colchester_Grove
-3.918973	__College_Of_Medicine
-3.918973	__Collyer_Quay
-3.918973	__Compassvale_Drive
-3.918973	__Compassvale_Road
-3.918973	__Coney_Island
-3.918973	__Connexis_South
-3.918973	__Constance_Singam
-3.918973	__Cook_Street
-3.918973	__Copeland_Avenue
-3.918973	__Copthorne_King'S
-3.918973	__Corfe_Place
-3.918973	__Corporation_Road
-3.918973	__Countryside_Grove
-3.918973	__Countryside_View
-3.918973	__Court_Road
-3.918973	__Covenant_Community_Methodist
-3.918973	__Craig_Road
-3.918973	__Cranborne_Road
-3.918973	__Creek_Mangrove
-3.918973	__Croucher_Road
-3.918973	__Crowhurst_Drive
-3.918973	__Cuff_Road
-3.918973	__Cuscaden_Walk
-3.918973	__Da_Bo_Gong
-3.918973	__Daffodil_Drive
-3.918973	__Dahan_Road
-3.918973	__Dairy_Farm
-3.918973	__Dairy_Farm_Crescent
-3.918973	__Dalkeith_Road
-3.918973	__Darrell_Ang
-3.918973	__Dawson_North_Spring
-3.918973	__Dedap_Road
-3.918973	__Delta_Avenue
-3.918973	__Depot_Close
-3.918973	__Depot_Walk
-3.918973	__Devan_Nair
-3.918973	__Dimensions_International
-3.918973	__Dinding_Place
-3.918973	__Dock_Road_East
-3.918973	__Dock_Road_West
-3.918973	__Douglas_Hamilton
-3.918973	__Dover_Drive
-3.918973	__Drake_Avenue
-3.918973	__Drake_Lane
-3.918973	__Dunlop_Street
-3.918973	__Duxton_Road
-3.918973	__East_Avenue
-3.918973	__East_Coast_Avenue
-3.918973	__East_Spring
-3.918973	__Eastern_Health_Alliance
-3.918973	__Eau_Thermale_Avene
-3.918973	__Edgware_Road
-3.918973	__Edmund_Blundell
-3.918973	__Edmund_Chen
-3.918973	__Edwin_Browns
-3.918973	__Ee_Teow_Leng_Road
-3.918973	__Elias_Green
-3.918973	__Elias_Park_Avenue
-3.918973	__Ellice_Handy
-3.918973	__Empress_Road
-3.918973	__Eng_Hoon_Street
-3.918973	__Eng_Kong_Road
-3.918973	__Eng_Neo_Avenue
-3.918973	__Ernani_Street
-3.918973	__Esther_Tan
-3.918973	__Eu_Yee_Ming_Richard
-3.918973	__Eunos_Avenue
-3.918973	__Evolution_Garden_Walk
-3.918973	__Faber_Walk
-3.918973	__Fairway_Club
-3.918973	__Fairy_Point_Hill
-3.918973	__Faith_Methodist
-3.918973	__Faith_Sanctuary_Garden_Avenue
-3.918973	__Famous_Amos
-3.918973	__Fan_Yoong_Road
-3.918973	__Farrer_Garden
-3.918973	__Farrer_Park
-3.918973	__Fernvale_Lane
-3.918973	__Fire_Station
-3.918973	__Flint_Street
-3.918973	__Florence_Road
-3.918973	__Flower_Road
-3.918973	__Fo_Shan_Ting
-3.918973	__Foch_Road
-3.918973	__Folkestone_Road
-3.918973	__Fortune_Students
-3.918973	__Fourth_Street
-3.918973	__Francis_Thomas_Drive
-3.918973	__Fuk_Tak_Chi
-3.918973	__Fullerton_Bay
-3.918973	__Fulton_Avenue
-3.918973	__Fusionopolis_Walk
-3.918973	__Gallop_Park
-3.918973	__Gallop_Road
-3.918973	__Gambir_Walk
-3.918973	__Gan_Eng_Seng
-3.918973	__Gateway_Avenue
-3.918973	__Gateway_Inn
-3.918973	__George_Nigel
-3.918973	__Gerald_Crescent
-3.918973	__Geylang_Bahru
-3.918973	__Geylang_Bahru_Lane
-3.918973	__Geylang_Bahru_Terrace
-3.918973	__Geylang_East_Avenue
-3.918973	__Geylang_East_Central
-3.918973	__Geylang_Lorong
-3.918973	__Geylang_Lorong_Labang
-3.918973	__Geylang_Methodist
-3.918973	__Geylang_Methodist_School
-3.918973	__Geylang_Road
-3.918973	__Geylang_Serai
-3.918973	__Geylang_Square
-3.918973	__Geylang_United
-3.918973	__Giant_Spring
-3.918973	__Gibraltar_Crescent
-3.918973	__Gibson_Hill
-3.918973	__Gilstead_Road
-3.918973	__Giok_Hong_Tian
-3.918973	__Goldhill_Place
-3.918973	__Gopeng_Street
-3.918973	__Gordon_Arthur_Ransome
-3.918973	__Grace_Walk
-3.918973	__Great_World
-3.918973	__Green_Kiwi_Backpacker
-3.918973	__Green_Taipei
-3.918973	__Green_Zeng
-3.918973	__Greendale_Rise
-3.918973	__Greenfield_Drive
-3.918973	__Greenridge_Crescent
-3.918973	__Greenwich_Drive
-3.918973	__Grove_Crescent
-3.918973	__Guillemard_Lane
-3.918973	__Guillemard_Road
-3.918973	__Gul_Lane
-3.918973	__Gul_Street
-3.918973	__Guok_Avenue
-3.918973	__Gurkha_Contingent
-3.918973	__Hai_Sing_Crescent
-3.918973	__Haigsville_Drive
-3.918973	__Haji_Lane
-3.918973	__Halifax_Road
-3.918973	__Hamilton_Place
-3.918973	__Hampstead_Garden
-3.918973	__Hang_Chang_Chieh
-3.918973	__Happy_Hotel
-3.918973	__Harlyn_Road
-3.918973	__Harrison_Road
-3.918973	__Havelock_Road
-3.918973	__Hiang_Foo_Siang_Temple
-3.918973	__Hillview_Avenue
-3.918973	__Hilton_International
-3.918973	__Hindhede_Road
-3.918973	__Hindoo_Road
-3.918973	__Ho_Ching_Road
-3.918973	__Ho_Lee_Ling
-3.918973	__Ho_Ling
-3.918973	__Hock_Chuan
-3.918973	__Holland_Grove_Lane
-3.918973	__Holland_Hill
-3.918973	__Holland_Village
-3.918973	__Home_Team_Academy
-3.918973	__Hong_Kah
-3.918973	__Hong_San
-3.918973	__Hospital_Avenue
-3.918973	__Hougang_Avenue
-3.918973	__Hougang_One
-3.918973	__How_Sun_Drive
-3.918973	__How_Sun_Road
-3.918973	__How_Sun_Walk
-3.918973	__Hsu_Tse_Kwang
-3.918973	__Hubert_Hill
-3.918973	__Hume_Avenue
-3.918973	__Hussein_Aljunied
-3.918973	__Hwee_Kuan
-3.918973	__Hythe_Road
-3.918973	__Imbiah_Walk
-3.918973	__Inderjit_Singh
-3.918973	__Inggu_Road
-3.918973	__Institute_Of_Engineer_Singapore
-3.918973	__International_Student_Support
-3.918973	__Ipoh_Lane
-3.918973	__Iqbal_Avenue
-3.918973	__Irving_Place
-3.918973	__Jalan_Anak_Bukit
-3.918973	__Jalan_Azam'S
-3.918973	__Jalan_Baiduri
-3.918973	__Jalan_Bangsawan
-3.918973	__Jalan_Basong
-3.918973	__Jalan_Batu_Ubin
-3.918973	__Jalan_Bena
-3.918973	__Jalan_Berjaya
-3.918973	__Jalan_Berseri
-3.918973	__Jalan_Binja
-3.918973	__Jalan_Binjai
-3.918973	__Jalan_Boon_Lay
-3.918973	__Jalan_Bumbong
-3.918973	__Jalan_Bunga_Rampai
-3.918973	__Jalan_Bungar
-3.918973	__Jalan_Chengkek
-3.918973	__Jalan_Dondang_Sayang
-3.918973	__Jalan_Dua
-3.918973	__Jalan_Dusun
-3.918973	__Jalan_Enam
-3.918973	__Jalan_Gemala
-3.918973	__Jalan_Girang
-3.918973	__Jalan_Greja
-3.918973	__Jalan_Hajijah
-3.918973	__Jalan_Hari_Raya
-3.918973	__Jalan_Jeruju
-3.918973	__Jalan_Jong
-3.918973	__Jalan_Kampong_Chantek
-3.918973	__Jalan_Kampong_Siglap
-3.918973	__Jalan_Kayu_Manis
-3.918973	__Jalan_Kechil
-3.918973	__Jalan_Keli
-3.918973	__Jalan_Kemaman
-3.918973	__Jalan_Keruing
-3.918973	__Jalan_Kesoma
-3.918973	__Jalan_Khairuddin
-3.918973	__Jalan_Klapa
-3.918973	__Jalan_Kledek
-3.918973	__Jalan_Klinik
-3.918973	__Jalan_Kwok_Min
-3.918973	__Jalan_Lana
-3.918973	__Jalan_Langgar_Bedok
-3.918973	__Jalan_Lapang
-3.918973	__Jalan_Layang_Layang
-3.918973	__Jalan_Lembah_Bedok
-3.918973	__Jalan_Lempeng
-3.918973	__Jalan_Lengkok
-3.918973	__Jalan_Lengkok_Sembawang
-3.918973	__Jalan_Limau_Bali
-3.918973	__Jalan_Limau_Nipis
-3.918973	__Jalan_Limau_Purut
-3.918973	__Jalan_Limbok
-3.918973	__Jalan_Mamam
-3.918973	__Jalan_Mangkok
-3.918973	__Jalan_Manis
-3.918973	__Jalan_Mastuli
-3.918973	__Jalan_Membina
-3.918973	__Jalan_Mempurong
-3.918973	__Jalan_Mengkudu
-3.918973	__Jalan_Mesra
-3.918973	__Jalan_Minggu
-3.918973	__Jalan_Minyak
-3.918973	__Jalan_Noordin
-3.918973	__Jalan_Novena
-3.918973	__Jalan_Nuri
-3.918973	__Jalan_Paras
-3.918973	__Jalan_Pari_Kikis
-3.918973	__Jalan_Pelangi
-3.918973	__Jalan_Pelatina
-3.918973	__Jalan_Pelatok
-3.918973	__Jalan_Pelepah
-3.918973	__Jalan_Pelikat
-3.918973	__Jalan_Peradun
-3.918973	__Jalan_Pinang
-3.918973	__Jalan_Puteri
-3.918973	__Jalan_Rajah
-3.918973	__Jalan_Rebana
-3.918973	__Jalan_Remis
-3.918973	__Jalan_Rendang
-3.918973	__Jalan_Rukam
-3.918973	__Jalan_Sabit
-3.918973	__Jalan_Seh_Chuan
-3.918973	__Jalan_Selamat
-3.918973	__Jalan_Selimang
-3.918973	__Jalan_Senang
-3.918973	__Jalan_Sendudok
-3.918973	__Jalan_Senyum
-3.918973	__Jalan_Setia
-3.918973	__Jalan_Shaer
-3.918973	__Jalan_Siap
-3.918973	__Jalan_Simpang_Bedok
-3.918973	__Jalan_Sukachita
-3.918973	__Jalan_Sungei_Poyan
-3.918973	__Jalan_Tan_Tock_Seng
-3.918973	__Jalan_Tanah
-3.918973	__Jalan_Tanah_Rata
-3.918973	__Jalan_Tanjong
-3.918973	__Jalan_Tari_Lilin
-3.918973	__Jalan_Tari_Zapin
-3.918973	__Jalan_Tarum
-3.918973	__Jalan_Tenang
-3.918973	__Jalan_Tenteram
-3.918973	__Jalan_Tepong
-3.918973	__Jalan_Tiga_Ratus
-3.918973	__Jalan_Ulu_Seletar
-3.918973	__Jalan_Ulu_Sembawang
-3.918973	__Jalan_Wajek
-3.918973	__Jalan_Yasin
-3.918973	__Jalan_Zamrud
-3.918973	__Jamaica_Road
-3.918973	__Janet_Lim
-3.918973	__Janil_Puthucheary
-3.918973	__Jervois_Hill
-3.918973	__Ji_Huang_Kok
-3.918973	__Jiak_Chuan_Road
-3.918973	__Joan_Road
-3.918973	__Joanne_Soo
-3.918973	__John_Fearns_Nicolls
-3.918973	__John_Le_Cain
-3.918973	__John_Morrice
-3.918973	__Joo_Avenue
-3.918973	__Joo_Koon_Crescent
-3.918973	__Jula_Juli
-3.918973	__Junction_Nine
-3.918973	__Jupiter_Road
-3.918973	__Jurong_Bird
-3.918973	__Jurong_East_Avenue
-3.918973	__Jurong_Island
-3.918973	__Jurong_Port
-3.918973	__Jurong_West
-3.918973	__Jurong_West_Avenue
-3.918973	__Jurong_West_Central
-3.918973	__Kaki_Bukit
-3.918973	__Kallang_Airport_Drive
-3.918973	__Kampong_Ampat
-3.918973	__Kampong_Arang_Road
-3.918973	__Kampong_Bahru
-3.918973	__Kampong_Bahru_Road
-3.918973	__Kampong_Bugis
-3.918973	__Kampong_Bugis_Crescent
-3.918973	__Kampong_Bukit_Coffee
-3.918973	__Kampong_Chai_Chee
-3.918973	__Kampong_Eunos
-3.918973	__Kampong_Glam
-3.918973	__Kampong_Java
-3.918973	__Kampong_Kapor_Road
-3.918973	__Kampong_Kayu_Road
-3.918973	__Kampong_Kembangan
-3.918973	__Kampong_Sireh
-3.918973	__Kampong_Sungai_Tiga
-3.918973	__Kampong_Ubi
-3.918973	__Kampong_Wak_Hassan
-3.918973	__Kampung_Glam
-3.918973	__Kampung_Melayu
-3.918973	__Katmandu_Road
-3.918973	__Kay_Siang_Road
-3.918973	__Keat_Hong_Link
-3.918973	__Kebun_Baru
-3.918973	__Keck_Seng
-3.918973	__Kee_Seng_Street
-3.918973	__Kee_Sun_Avenue
-3.918973	__Keene_Road
-3.918973	__Keng_Lee_Road
-3.918973	__Kent_Ridge_Crescent
-3.918973	__Kent_Ridge_Drive
-3.918973	__Kent_Road
-3.918973	__Kenya_Crescent
-3.918973	__Keppel_Bay
-3.918973	__Keramat_Road
-3.918973	__Kerong_Walk
-3.918973	__Kew_Avenue
-3.918973	__Kew_Walk
-3.918973	__Khaw_Boon_Wan
-3.918973	__Kian_Teck_Road
-3.918973	__Kiew_Sian_King
-3.918973	__Kim_Chuan_Road
-3.918973	__Kim_Hong
-3.918973	__Kim_Keat
-3.918973	__Kim_Seng
-3.918973	__Kim_Seng_Road
-3.918973	__Kim_Tian_Place
-3.918973	__Kinara_Lane
-3.918973	__Kismis_Road
-3.918973	__Kitchener_Road
-3.918973	__Klang_Road
-3.918973	__Koh_Mui_Hiang
-3.918973	__Koh_Seow_Chuan
-3.918973	__Kouo_Shang_Wei
-3.918973	__Kranji_Commonwealth
-3.918973	__Kranji_Crescent
-3.918973	__Kreta_Ayer
-3.918973	__Kuang_Chee_Tng
-3.918973	__Kwan_Im_Tng
-3.918973	__Kwan_Imm_See
-3.918973	__Kwong_Min_Road
-3.918973	__Kwong_Wai_Siew
-3.918973	__La_Mode
-3.918973	__Lam_Pin_Min
-3.918973	__Lambeth_Walk
-3.918973	__Larkhill_Road
-3.918973	__Lau_Kuo_Kwong_Robert
-3.918973	__Lavender_Street
-3.918973	__Le_Peranakan
-3.918973	__Lee_Boon_Ngan
-3.918973	__Lee_Kong_Chian
-3.918973	__Lee_Kong_Yan
-3.918973	__Lee_Shih_Shiong_Peter
-3.918973	__Lempeng_Drive
-3.918973	__Leng_Chai_Chee
-3.918973	__Lengkok_Angsa
-3.918973	__Lengkok_Lima
-3.918973	__Lengkok_Satu
-3.918973	__Lengkok_Satu_Sago_Street
-3.918973	__Lengkong_Dua
-3.918973	__Lentor_Way
-3.918973	__Leo_Drive
-3.918973	__Lew_Lian_Vale
-3.918973	__Lewis_Road
-3.918973	__Li_Hui_Cheng
-3.918973	__Liane_Road
-3.918973	__Liang_Court
-3.918973	__Liao_Yingru
-3.918973	__Lichi_Avenue
-3.918973	__Lien_Ying_Chow_Drive
-3.918973	__Lilac_Road
-3.918973	__Lilliputt_Indoor_Mini_Golf
-3.918973	__Lily_Avenue
-3.918973	__Lim_Ah_Pin_Road
-3.918973	__Lim_Ah_Woo_Road
-3.918973	__Lim_Chong_Pang
-3.918973	__Lim_Chu_Kang
-3.918973	__Lim_Chu_Kang_Lane
-3.918973	__Lim_Lee
-3.918973	__Lim_Teck_Boo_Road
-3.918973	__Lim_Teck_Kim_Road
-3.918973	__Lim_Tua_Tow_Road
-3.918973	__Limau_Garden
-3.918973	__Lin_Tan
-3.918973	__Little_Road
-3.918973	__Lloyd_Road
-3.918973	__Loh_Lik_Peng
-3.918973	__Lornie_Walk
-3.918973	__Lorong_Abu_Talib
-3.918973	__Lorong_Bachok
-3.918973	__Lorong_Batawi
-3.918973	__Lorong_Buangkok
-3.918973	__Lorong_Gambas
-3.918973	__Lorong_Kembang
-3.918973	__Lorong_Kilat_Pek_Kio
-3.918973	__Lorong_Lew_Lian
-3.918973	__Lorong_Mesu
-3.918973	__Lorong_Pasu
-3.918973	__Lorong_Paya_Lebar
-3.918973	__Lorong_Pendek
-3.918973	__Lorong_Pisang_Asam
-3.918973	__Lorong_Pisang_Batu
-3.918973	__Lorong_Sarina_D'Leedon
-3.918973	__Lorong_Siglap
-3.918973	__Lorong_Sinaran
-3.918973	__Louis_Chen
-3.918973	__Lower_Seletar_Close
-3.918973	__Lower_Seletar_Reservoir
-3.918973	__Loyang_Street
-3.918973	__Lucy_Tan
-3.918973	__Lutheran_Road
-3.918973	__Macalister_Road
-3.918973	__Macpherson_Road
-3.918973	__Macritchie_Reservoir
-3.918973	__Maggie_Teng
-3.918973	__Mah_Bow_Tan
-3.918973	__Management_Development_Institute_Of_Singapore
-3.918973	__Mandai_Tekong
-3.918973	__Mandarin_Gardens
-3.918973	__Manila_Street
-3.918973	__Maple_Avenue
-3.918973	__Margate_Road
-3.918973	__Marina_Bay
-3.918973	__Marina_Bay_Sands
-3.918973	__Marina_One
-3.918973	__Marina_Promenade
-3.918973	__Marina_Way
-3.918973	__Marine_Parade
-3.918973	__Marine_Parade_Road
-3.918973	__Maris_Stella
-3.918973	__Maritime_Square
-3.918973	__Marshall_Lane
-3.918973	__Marsiling_Crescent
-3.918973	__Marsiling_Drive
-3.918973	__Marsiling_Neighbourhood
-3.918973	__Marsiling_Rise
-3.918973	__Marsiling_Road
-3.918973	__Martin_Road
-3.918973	__Masjid_Alkaff
-3.918973	__Mayflower_Way
-3.918973	__Medical_Drive
-3.918973	__Mei_Chin_Road
-3.918973	__Mei_Hwan_Drive
-3.918973	__Meng_Suan_Road
-3.918973	__Meranti_Avenue
-3.918973	__Merlimau_Place
-3.918973	__Meteorological_Services_Singapore
-3.918973	__Methodist_Girls'
-3.918973	__Michelle_Lim
-3.918973	__Middlesex_Road
-3.918973	__Miller_Street
-3.918973	__Miltonia_Link
-3.918973	__Mimosa_Vale
-3.918973	__Monk'S_Hill_Road
-3.918973	__Montreal_Link
-3.918973	__Moonbeam_Drive
-3.918973	__Moonbeam_Walk
-3.918973	__Moral_Welfare
-3.918973	__Moreton_Close
-3.918973	__Morgan_Chua
-3.918973	__Moriah_Bible_Presby
-3.918973	__Mornington_Crescent
-3.918973	__Mount_Faber_Loop
-3.918973	__Mount_Faber_Road
-3.918973	__Movenpick_Heritage
-3.918973	__Muhammadiyah_Welfare
-3.918973	__Mulberry_Avenue
-3.918973	__Muswell_Hill
-3.918973	__My_Saviour'S
-3.918973	__N_Palanivelu
-3.918973	__Nagore_Dargah
-3.918973	__Namly_Rise
-3.918973	__Nan_Chiau
-3.918973	__Nanyang_Avenue
-3.918973	__Nanyang_Girls'
-3.918973	__Nanyang_Poly_Drive
-3.918973	__Nanyang_Valley
-3.918973	__Napier_Road
-3.918973	__Nasi_Goreng
-3.918973	__Natalie_Hennedige
-3.918973	__National_Arts_Council
-3.918973	__National_Equestrian_Centre
-3.918973	__National_Neuroscience_Institute
-3.918973	__National_Neuroscience_Institute_Of_Singapore
-3.918973	__Nativity_Of_The_Blessed_Virgin_Mary_Concord
-3.918973	__Nee_Soon
-3.918973	__Nee_Soon_East
-3.918973	__Neo_Tiew_Lane
-3.918973	__Neo_Tiew_Road
-3.918973	__Nepal_Link
-3.918973	__Newton_Cirus
-3.918973	__Newton_Life
-3.918973	__Nexus_International_School
-3.918973	__Ng_Chee_Meng
-3.918973	__North_Buona_Vista_Drive
-3.918973	__North_Spring
-3.918973	__North_Vista
-3.918973	__North_West
-3.918973	__Northshore_Drive
-3.918973	__Northshore_Link
-3.918973	__Oak_Avenue
-3.918973	__Ocean_Way
-3.918973	__Office_Road
-3.918973	__Ogilvy_Centre
-3.918973	__Old_Birdcage_Walk
-3.918973	__Old_Cathay
-3.918973	__Old_Choa_Chu_Kang_Road
-3.918973	__Old_Hill_Street
-3.918973	__Old_Terminal_Lane
-3.918973	__Old_Upper_Thomson
-3.918973	__Omar_Ali
-3.918973	__Omar_Khayyam_Avenue
-3.918973	__One_Farrer
-3.918973	__One_George_Street
-3.918973	__One_North_Avenue
-3.918973	__One_North_Link
-3.918973	__One_Tree_Hill
-3.918973	__Onitsuka_Tiger
-3.918973	__Onraet_Road
-3.918973	__Orchard_Bel_Air
-3.918973	__Orchard_Point
-3.918973	__Orchard_Spring
-3.918973	__Orchard_Spring_Lane
-3.918973	__Orchard_Turn
-3.918973	__Orchid_Park
-3.918973	__Oriole_Crescent
-3.918973	__Outram_Park
-3.918973	__Oxford_Road
-3.918973	__Palm_Avenue
-3.918973	__Palm_Road
-3.918973	__Pan_Pacific
-3.918973	__Pan_Shou
-3.918973	__Pandan_Avenue
-3.918973	__Pang_Seng_Road
-3.918973	__Park_Avenue
-3.918973	__Parry_Avenue
-3.918973	__Pasir_Panjang_Road
-3.918973	__Pasir_Panjang_View
-3.918973	__Pasir_Ris
-3.918973	__Pasir_Ris_Road
-3.918973	__Pasir_Ris_View
-3.918973	__Pasir_Ris_Way
-3.918973	__Paterson_Road
-3.918973	__Paya_Lebar
-3.918973	__Paya_Lebar_Place
-3.918973	__Paya_Ubi
-3.918973	__Peace_Centre
-3.918973	__Peakville_Avenue
-3.918973	__Peakville_Grove
-3.918973	__Pebble_Lane
-3.918973	__Peck_San_Theng
-3.918973	__Peck_Seah_Street
-3.918973	__Peirce_Hill
-3.918973	__Pemimpin_Drive
-3.918973	__Penang_Road
-3.918973	__Peng_Kang_Avenue
-3.918973	__Peng_Nguan
-3.918973	__Peninsula_Plaza
-3.918973	__Penjuru_Road
-3.918973	__Perahu_Road
-3.918973	__Percival_Road
-3.918973	__Pereira_Road
-3.918973	__Perumal_Govindaswamy
-3.918973	__Perumal_Road
-3.918973	__Ping_Yi
-3.918973	__Platina_Road
-3.918973	__Plaza_Singapura
-3.918973	__Poh_Ern_Shih
-3.918973	__Poh_Huat_Road
-3.918973	__Poh_Jay
-3.918973	__Post_Florence_Road
-3.918973	__Prince_Of_Wales_Road
-3.918973	__Prinsep_Street
-3.918973	__Prome_Road
-3.918973	__Puat_Jit_Buddhist
-3.918973	__Pulau_Ubin
-3.918973	__Punggol_Avenue
-3.918973	__Qing_De_Gong
-3.918973	__Queen_Elizabeth_Walk
-3.918973	__Radin_Mas
-3.918973	__Raffles_Place
-3.918973	__Rahayu_Mahzam
-3.918973	__Rahim_Omar
-3.918973	__Rail_Mall
-3.918973	__Rajabali_Jumabhoy
-3.918973	__Rambutan_Road
-3.918973	__Rasok_Drive
-3.918973	__Rebecca_Chua
-3.918973	__Red_Cross
-3.918973	__Red_Swastika
-3.918973	__Redhill_Road
-3.918973	__Redwood_Grove
-3.918973	__Revival_Centre
-3.918973	__Richard_Eric_Holttum
-3.918973	__Ring_Road
-3.918973	__Rita_Zahara
-3.918973	__River_City
-3.918973	__River_Safari
-3.918973	__River_Valley
-3.918973	__Riverina_Walk
-3.918973	__Rivervale_Plaza
-3.918973	__Robert_Soon
-3.918973	__Robert_V_Chandran_Way
-3.918973	__Robin_Tessensohn
-3.918973	__Robinson_Road
-3.918973	__Rochor_Kongsi
-3.918973	__Rochor_Road
-3.918973	__Rosaline_Chan_Pang
-3.918973	__Ruby_Lane
-3.918973	__Russels_Road
-3.918973	__Safra_Jurong
-3.918973	__Safra_Punggol
-3.918973	__Saint_Helier'S_Avenue
-3.918973	__Saint_Hilda'S
-3.918973	__Saint_James
-3.918973	__Saint_Nicholas_View
-3.918973	__Saint_Paul'S
-3.918973	__Saint_Stephen'S
-3.918973	__Saint_Wilfred_Road
-3.918973	__Saint_Xavier'S
-3.918973	__Saint_Xavier'S_Lane
-3.918973	__Sakra_Road
-3.918973	__Sakya_Tenphel_Ling
-3.918973	__Sam_Kee
-3.918973	__Sandilands_Road
-3.918973	__Science_Park
-3.918973	__Sea_Breeze_Grove
-3.918973	__Seah_Mei_Lin
-3.918973	__Secondary_School
-3.918973	__Segar_Close
-3.918973	__Segar_Kampong_Arang_Road
-3.918973	__Selarang_Road
-3.918973	__Seletar_Close
-3.918973	__Seletar_Club
-3.918973	__Seletar_Club_Road
-3.918973	__Seletar_Court
-3.918973	__Seletar_East
-3.918973	__Seletar_Green_Avenue
-3.918973	__Seletar_Hill
-3.918973	__Seletar_Hill_Drive
-3.918973	__Seletar_Hills_Drive
-3.918973	__Seletar_Link
-3.918973	__Seletar_Lodge_One
-3.918973	__Seletar_North
-3.918973	__Seletar_North_Lane
-3.918973	__Seletar_Satellite
-3.918973	__Seletar_Satellite_Station_Road
-3.918973	__Seletar_South_Road
-3.918973	__Seletar_West
-3.918973	__Seletar_Wests
-3.918973	__Sembawang_Alley
-3.918973	__Sembawang_Avenue
-3.918973	__Sembawang_Berlayer
-3.918973	__Sembawang_Country_Club
-3.918973	__Sembawang_God_Of_Wealth
-3.918973	__Sembawang_Hills_Drive
-3.918973	__Sembawang_Shopping_Centre
-3.918973	__Sembawang_Tamil_Methodist
-3.918973	__Sembawang_Terminal_Avenue
-3.918973	__Sembawang_Terminal_Road
-3.918973	__Sembawang_Vista
-3.918973	__Sembawang_Wharves
-3.918973	__Sembawang_Woodgrove_Avenue
-3.918973	__Sengkang_East_Avenue
-3.918973	__Sengkang_East_Road
-3.918973	__Sengkang_East_Way
-3.918973	__Sennett_Road
-3.918973	__Sentul_Crescent
-3.918973	__Serangoon_Gardens
-3.918973	__Serangoon_North_Avenue
-3.918973	__Serapong_Hill
-3.918973	__Seraya_Avenue
-3.918973	__Sharon_Bible_Presbyterian
-3.918973	__Shelford_Road
-3.918973	__Shipyard_Crescent
-3.918973	__Shopping_Centre
-3.918973	__Shun_Li
-3.918973	__Si_Ling
-3.918973	__Siang_Cho_Keong
-3.918973	__Siglap_Gardens
-3.918973	__Siloso_Beach
-3.918973	__Sim_Choon_Huat
-3.918973	__Sim_Lim_Square
-3.918973	__Sim_Yi_Hui
-3.918973	__Simon_Lane
-3.918973	__Simpang_Bedok
-3.918973	__Simpang_De_Bedok
-3.918973	__Sims_Way
-3.918973	__Sin_Ming
-3.918973	__Sing_Hoe
-3.918973	__Sing_Joo_Walk
-3.918973	__Singapore'S_Mariners'
-3.918973	__Singapore_Art_Museum
-3.918973	__Singapore_Bible
-3.918973	__Singapore_Botanic_Gardens
-3.918973	__Singapore_Cheshire
-3.918973	__Singapore_Conference
-3.918973	__Singapore_Philatelic_Museum
-3.918973	__Singapore_Recreation
-3.918973	__Singapore_Sikh_Education_Foundation
-3.918973	__Singapore_University_Of_Technology_And_Design
-3.918973	__Singapore_Youth_Flying
-3.918973	__Siok_Wan
-3.918973	__Siong_Lim
-3.918973	__Sir_Frank_Swettenham
-3.918973	__Sit_Wah_Road
-3.918973	__Sleepy_Kiwi
-3.918973	__Sloane_Court_Hotel
-3.918973	__Soo_Bin_Chua
-3.918973	__Soo_Chow_Drive
-3.918973	__Soon_Peng_Yam_Yao_Zi
-3.918973	__Soon_Wing_Road
-3.918973	__Sophia_Hull
-3.918973	__South_Buona_Vista_Road
-3.918973	__South_Perimeter_Road
-3.918973	__South_Woodlands_Drive
-3.918973	__Spring_Lighthouse
-3.918973	__Spring_Street
-3.918973	__Springleaf_Avenue
-3.918973	__Springside_View
-3.918973	__Springwood_Close
-3.918973	__Sree_Narayana
-3.918973	__Sri_Murugan_Hill_Temple
-3.918973	__Sri_Siva_Durga
-3.918973	__Sri_Vairavimada_Kaliamman
-3.918973	__Stadium_Crescent
-3.918973	__Stadium_Way
-3.918973	__Stamford_Raffles
-3.918973	__Starlight_Road
-3.918973	__Stephen_Lee
-3.918973	__Stirling_Walk
-3.918973	__Strand_Hotel
-3.918973	__Stratton_Road
-3.918973	__Suffolk_Road
-3.918973	__Sunbeam_Evergreen_Place
-3.918973	__Sundridge_Park_Road
-3.918973	__Sungei_Bedok
-3.918973	__Sungei_Gedong_Road
-3.918973	__Sungei_Road
-3.918973	__Sunny_Ang
-3.918973	__Sunset_Close
-3.918973	__Sunset_Square
-3.918973	__Sunset_Vale
-3.918973	__Suntec_City
-3.918973	__Swiss_Club_Link
-3.918973	__Syed_Jaafar_Albar
-3.918973	__Tagore_Road
-3.918973	__Tai_Hoe
-3.918973	__Tai_Seng
-3.918973	__Tai_Seng_Drive
-3.918973	__Taman_Bedok
-3.918973	__Taman_Jurong
-3.918973	__Taman_Kembangan
-3.918973	__Taman_Warna
-3.918973	__Tamarind_Avenue
-3.918973	__Tamarind_Road
-3.918973	__Tampines_Changkat
-3.918973	__Tan_Boo_Liat
-3.918973	__Tan_Eng_Joo
-3.918973	__Tan_Kim_Cheng_Road
-3.918973	__Tan_Teck_Whye_Avenue
-3.918973	__Tan_Tock_Seng
-3.918973	__Tanah_Merah
-3.918973	__Tanglin_Gate_Road
-3.918973	__Tanglin_Trust
-3.918973	__Tangmere_Road
-3.918973	__Tanjong_Katong
-3.918973	__Tanjong_Penjuru
-3.918973	__Tanya_Chua
-3.918973	__Teban_Garden
-3.918973	__Tebing_Lane
-3.918973	__Teck_Hai_Keng
-3.918973	__Teck_Whye
-3.918973	__Tekong_Highway
-3.918973	__Telok_Blangah_Crescent
-3.918973	__Telok_Blangah_Rise
-3.918973	__Telok_Blangah_Street
-3.918973	__Telok_Kurau
-3.918973	__Tembusu_Drive
-3.918973	__Teng_San_Tian_Hock
-3.918973	__Teng_Tong_Road
-3.918973	__Terang_Bulan_Avenue
-3.918973	__Tew_Chew_Street
-3.918973	__Thong_Bee_Road
-3.918973	__Thong_Kheng
-3.918973	__Tian_Kong
-3.918973	__Tiong_Poh_Avenue
-3.918973	__Tiverton_Lane
-3.918973	__Toa_Payoh
-3.918973	__Toa_Payoh_East
-3.918973	__Toa_Payoh_North
-3.918973	__Toa_Payoh_Rise
-3.918973	__Toh_Tuck_Drive
-3.918973	__Toh_Tuck_Road
-3.918973	__Tokio_Marine
-3.918973	__Topaz_Road
-3.918973	__Tras_Street
-3.918973	__Treetop_Walk
-3.918973	__Trevose_Place
-3.918973	__Tuas_Avenue
-3.918973	__Tuas_Road
-3.918973	__Tuas_Second_Link
-3.918973	__Tuas_Terminal_Road
-3.918973	__Turf_Ciub_Road
-3.918973	__Ubi_Close
-3.918973	__Ubi_Crescent
-3.918973	__Ubi_Link
-3.918973	__Ulu_Sembawang
-3.918973	__Unity_Street
-3.918973	__University_Town
-3.918973	__Upper_Aljunied
-3.918973	__Upper_Aljunied_Link
-3.918973	__Upper_Aljunied_Road
-3.918973	__Upper_Bedok
-3.918973	__Upper_Bedok_Road
-3.918973	__Upper_Bukit_Timah
-3.918973	__Upper_Bukit_Timah_Road
-3.918973	__Upper_Changi_Road
-3.918973	__Upper_Joo_Aljunied_Link
-3.918973	__Upper_Palm_Valley_Road
-3.918973	__Upper_Paya_Lebar_Road
-3.918973	__Upper_Peirce_Reservoir
-3.918973	__Upper_Seletar_Reservoir
-3.918973	__Upper_Serangoon
-3.918973	__Upper_Wilkie_Road
-3.918973	__Vaughan_Road
-3.918973	__Veerasamy_Road
-3.918973	__Verde_Crescent
-3.918973	__Victoria_Park_Road
-3.918973	__Vigilante_Drive
-3.918973	__Vijesh_Ashok_Ghariwala
-3.918973	__Vivien_Quahe
-3.918973	__Vu_Ly_Tee
-3.918973	__Vu_Ly_Tee#1
-3.918973	__Vu_Ly_Tee#2
-3.918973	__Wak_Hassan
-3.918973	__Wak_Hassan_Place
-3.918973	__Wak_Tanjong
-3.918973	__Wallace_Way
-3.918973	__Walter_Woon
-3.918973	__Wan_Tho_Avenue
-3.918973	__Wareham_Road
-3.918973	__Waringin_Walk
-3.918973	__Warwick_Road
-3.918973	__Waseda_Shibuya
-3.918973	__Waterloo_Street
-3.918973	__Watten_Estate_Road
-3.918973	__Wee_Beng_Chong
-3.918973	__Wellington_Circle
-3.918973	__West_Blue_Stars
-3.918973	__West_Perimeter_Road
-3.918973	__West_Spring
-3.918973	__Westwood_Avenue
-3.918973	__Whampoa_East
-3.918973	__Whitchurch_Road
-3.918973	__Whitley_Road
-3.918973	__Wilmonar_Avenue
-3.918973	__Windsor_Park_Hill
-3.918973	__Wishart_Road
-3.918973	__Wittering_Road
-3.918973	__Wong_Chin_Yoke_Road
-3.918973	__Wong_Hock_Boon
-3.918973	__Woodgrove_View
-3.918973	__Woodland_Street
-3.918973	__Woodlands_Galaxy
-3.918973	__Woodleigh_Close
-3.918973	__Xilin_Avenue
-3.918973	__Yan_Hui_Chang
-3.918973	__Yangtze_Building
-3.918973	__Yao_Zi
-3.918973	__Yarwood_Avenue
-3.918973	__Yeoh_Ghim_Seng
-3.918973	__Yew_Tee
-3.918973	__Yew_Tee_Close
-3.918973	__Yew_Tee_Point
-3.918973	__Yip_Cheong_Fun
-3.918973	__Yishun_Central
-3.918973	__Yishun_Street
-3.918973	__Yong_Melvin_Yik_Chye
-3.918973	__York_Place
-3.918973	__Yu_Huang_Zhi_Zun_Temple
-3.918973	__Yuan_Ching
-3.918973	__Yung_Kuang_Road
-3.918973	__Yuva_Bharati
-3.918973	__Yvonne_Ng
-3.918973	__Zainudin_Nordin
-3.918973	__Zhang_Hui
-3.918973	__Zhou_Ying_Nan
-3.918973	__Zion_Bishan_Bible_Presbyterian
-3.073875	a
-3.493005	aa
-4.095065	abandon
-3.918973	abas
-3.794035	ability
-3.493005	able
-3.249967	about
-3.697125	above
-3.918973	absolute
-3.918973	absolutely
-3.918973	absorb
-3.918973	abstract
-3.918973	abu
-3.918973	abuse
-3.918973	academic
-3.918973	academy
-3.918973	acara
-3.794035	accent
-3.697125	accept
-3.918973	acceptable
-3.918973	acceptance
-3.918973	accepted
-3.794035	access
-3.918973	accessible
-3.794035	accident
-3.794035	accidentally
-3.918973	accommodation
-3.918973	accompany
-3.794035	accomplish
-3.794035	according
-3.918973	accordingly
-3.441852	account
-3.918973	accountancy
-4.095065	accountant
-3.794035	accounting
-4.095065	accumulate
-3.918973	accurate
-4.095065	ace
-3.918973	ache
-3.794035	achieve
-3.794035	achievement
-3.918973	acknowledge
-3.918973	acquaintance
-3.794035	acronym
-3.697125	across
-3.697125	act
-3.794035	acting
-3.697125	action
-3.918973	activate
-3.794035	active
-3.697125	activity
-3.794035	actor
-3.918973	actress
-3.794035	actual
-3.282151	actually
-3.794035	ad
-3.918973	adapt
-3.617944	add
-3.918973	added
-3.918973	addicted
-3.918973	addition
-3.794035	additional
-3.493005	address
-3.794035	ade
-3.918973	adjust
-3.794035	admire
-4.095065	admission
-3.918973	admit
-3.918973	admitted
-3.697125	adopt
-3.918973	adopted
-3.617944	adoption
-3.794035	adult
-3.794035	advance
-3.918973	advanced
-3.918973	advantage
-3.794035	adventure
-3.918973	adventurous
-3.918973	advertisement
-3.918973	advertising
-3.697125	advice
-3.794035	advise
-4.095065	advised
-4.095065	aeon
-3.918973	aeroplane
-4.095065	affair
-3.794035	affect
-3.918973	affected
-3.918973	affidavit
-3.794035	afford
-3.794035	affordable
-3.697125	afraid
-3.354702	after
-3.550997	afternoon
-3.794035	afterwards
-3.441852	again
-3.697125	against
-3.794035	agama
-3.918973	agar
-3.550997	age
-3.794035	agency
-3.918973	agenda
-3.794035	agent
-3.794035	aggressive
-3.918973	aging
-3.550997	ago
-3.617944	agree
-3.918973	agreed
-3.918973	agreement
-3.117341	ah
-3.918973	aha
-3.697125	ahead
-3.918973	ai
-3.918973	aid
-3.794035	aim
-4.095065	aiming
-3.493005	air
-3.918973	airplane
-3.794035	airport
-3.697125	ajar
-3.918973	ak
-3.249967	aku
-3.918973	al
-3.794035	ala
-3.794035	alarm
-3.794035	album
-3.918973	alcohol
-3.918973	alcoholic
-3.617944	alert
-3.918973	algorithm
-3.918973	alien
-3.918973	alif
-3.794035	alive
-3.249967	all
-3.918973	allergic
-4.095065	alley
-3.697125	allow
-3.918973	allowance
-3.617944	almost
-3.617944	alone
-3.617944	along
-3.918973	alpha
-3.918973	alphabet
-3.282151	already
-3.441852	alright
-3.249967	also
-3.918973	alter
-3.918973	alternate
-3.918973	alternative
-3.697125	although
-3.918973	altogether
-3.396095	always
-3.441852	am
-3.697125	amazing
-3.918973	ambitious
-3.493005	ambulance
-3.918973	amin
-3.918973	amir
-3.794035	among
-3.550997	amount
-3.918973	amy
-3.396095	an
-3.918973	analyse
-3.918973	analysis
-4.095065	anchor
-3.918973	ancient
-3.095065	and
-3.617944	anda
-3.918973	android
-3.794035	angel
-3.918973	anger
-3.918973	angle
-3.697125	angry
-3.617944	animal
-3.918973	animation
-3.794035	anime
-3.918973	ankle
-3.918973	ann
-3.918973	anna
-3.918973	anniversary
-3.697125	annoying
-3.918973	annual
-3.441852	another
-3.493005	answer
-3.918973	ant
-3.918973	anti
-3.918973	antique
-3.918973	anxiety
-3.354702	any
-3.697125	anybody
-3.794035	anyhow
-3.697125	anyone
-3.396095	anything
-3.550997	anyway
-3.794035	anyways
-3.697125	anywhere
-3.249967	apa
-3.794035	apart
-3.794035	apartment
-3.794035	ape
-3.918973	apologize
-3.697125	apparently
-3.794035	appeal
-3.918973	appear
-4.095065	appearance
-3.697125	apple
-3.918973	applicable
-3.918973	applicant
-3.617944	application
-3.794035	applied
-3.550997	apply
-4.095065	appoint
-3.697125	appointment
-3.697125	appreciate
-3.794035	approach
-3.918973	appropriate
-3.794035	approval
-3.794035	approve
-3.918973	approximately
-3.918973	apron
-3.918973	aquarium
-3.617944	ar
-3.918973	arcade
-4.095065	architect
-3.918973	architecture
-3.220003	are
-3.550997	area
-3.794035	argue
-3.794035	argument
-3.794035	arm
-3.794035	arms
-3.697125	army
-3.441852	around
-3.794035	arrange
-3.918973	arrangement
-3.918973	arrival
-3.794035	arrive
-3.918973	arrogant
-3.794035	arrow
-3.918973	arsenal
-3.697125	art
-3.794035	article
-3.918973	artificial
-3.794035	artist
-3.282151	as
-3.794035	aside
-3.354702	ask
-3.918973	askar
-3.918973	asleep
-3.794035	aspect
-3.918973	aspiration
-3.918973	ass
-3.918973	assess
-3.918973	assessment
-3.918973	asset
-3.918973	assets
-3.794035	assign
-3.918973	assigned
-3.794035	assignment
-3.550997	assist
-3.697125	assistance
-3.794035	assistant
-3.794035	assume
-3.794035	assuming
-4.095065	assumption
-3.794035	asthma
-3.249967	at
-3.697125	ate
-3.918973	atmosphere
-3.918973	attach
-3.794035	attached
-3.918973	attachment
-3.794035	attack
-3.918973	attempt
-3.794035	attend
-3.918973	attendance
-3.794035	attention
-3.794035	attitude
-3.918973	attract
-3.794035	attraction
-3.918973	attractive
-3.918973	attribute
-3.918973	audience
-3.918973	audio
-3.918973	audit
-3.918973	audition
-3.697125	august
-3.794035	aunt
-3.697125	auntie
-3.918973	authentic
-3.918973	author
-3.918973	authority
-3.794035	auto
-3.918973	automatic
-3.918973	automatically
-3.918973	autumn
-3.794035	available
-3.617944	avenue
-3.794035	average
-3.794035	avoid
-3.794035	awake
-3.918973	award
-3.794035	aware
-3.918973	awareness
-3.550997	away
-3.794035	awesome
-3.794035	awhile
-3.697125	awkward
-3.617944	ayah
-3.918973	aye
-3.441852	b
-3.794035	ba
-3.918973	baba
-3.918973	babe
-3.441852	baby
-3.354702	back
-3.697125	background
-3.918973	backup
-3.918973	bacteria
-3.441852	bad
-3.697125	badan
-3.918973	badge
-3.794035	badly
-3.697125	badminton
-3.617944	bag
-3.918973	bah
-3.697125	bahan
-3.918973	baht
-3.794035	bake
-3.918973	baked
-3.918973	bakery
-3.794035	baking
-3.697125	balance
-3.918973	balanced
-4.095065	balas
-3.918973	balcony
-3.794035	bali
-3.550997	ball
-3.918973	ballet
-3.918973	balloon
-3.918973	bamboo
-3.918973	ban
-3.794035	banana
-3.697125	band
-3.697125	bandar
-4.095065	banding
-3.794035	bang
-3.794035	bangkok
-3.441852	bank
-3.918973	banker
-3.794035	banking
-3.918973	bankrupt
-3.794035	banner
-3.918973	banquet
-3.697125	bar
-3.794035	barbecue
-3.918973	barber
-4.095065	barcelona
-3.918973	bare
-3.918973	barely
-3.918973	baring
-4.095065	bark
-3.918973	barrage
-3.918973	barrier
-3.493005	baru
-3.794035	bas
-3.697125	base
-4.095065	baseball
-3.617944	based
-3.918973	basement
-3.697125	basic
-3.493005	basically
-3.794035	basis
-3.794035	basket
-3.697125	basketball
-3.918973	bass
-3.918973	bat
-3.794035	batch
-3.918973	bath
-3.918973	bathe
-3.918973	batik
-3.918973	batman
-3.794035	battery
-3.794035	battle
-3.697125	bay
-3.918973	bazaar
-3.220003	be
-3.617944	beach
-3.794035	bean
-3.697125	bear
-3.918973	beard
-3.918973	beast
-3.794035	beat
-3.697125	beautiful
-3.794035	beauty
-3.220003	because
-3.550997	become
-3.794035	becomes
-3.918973	becoming
-3.697125	bed
-3.918973	bedroom
-3.697125	bee
-3.697125	beef
-4.095065	beehive
-3.441852	been
-3.794035	beer
-3.918973	bees
-3.396095	before
-3.794035	beg
-3.918973	begin
-3.794035	beginning
-3.794035	behalf
-3.918973	behave
-4.095065	behavior
-3.918973	behaviour
-3.550997	behind
-3.918973	beige
-3.493005	being
-3.697125	bela
-3.697125	belah
-4.095065	belief
-3.617944	believe
-3.918973	bell
-3.918973	belly
-3.918973	belong
-3.550997	below
-3.794035	belt
-3.794035	ben
-3.794035	bench
-3.918973	bend
-3.441852	benda
-3.918973	bene
-4.095065	beneath
-3.794035	beneficial
-3.697125	beneficiary
-3.794035	benefit
-3.794035	ber
-3.794035	berat
-3.918973	berlin
-3.550997	beside
-3.697125	besides
-3.441852	best
-3.794035	bet
-3.441852	better
-3.794035	betting
-3.617944	between
-4.095065	beverage
-3.794035	beyond
-3.918973	bias
-3.794035	bicycle
-3.918973	bid
-3.493005	big
-3.697125	bigger
-3.697125	biggest
-3.697125	bike
-3.794035	bikini
-3.697125	bill
-3.918973	billion
-3.918973	billy
-3.794035	bin
-3.918973	bingo
-3.794035	biological
-3.918973	biology
-3.617944	bird
-3.617944	birth
-3.617944	birthday
-3.918973	biscuit
-3.441852	bit
-3.918973	bitch
-3.794035	bite
-3.918973	bitter
-3.918973	biz
-3.493005	black
-3.918973	blackberry
-3.918973	blade
-3.697125	blah
-3.794035	blame
-3.794035	blank
-3.918973	blanket
-3.697125	bleeding
-3.918973	blend
-3.794035	blender
-3.918973	bless
-3.918973	blessed
-3.918973	blessing
-3.697125	blind
-3.550997	block
-3.794035	blonde
-3.617944	blood
-3.918973	bloody
-3.918973	blouse
-3.918973	blow
-4.095065	blowing
-3.441852	blue
-3.794035	blues
-3.918973	blur
-3.794035	bo
-3.697125	board
-3.697125	boat
-3.918973	bob
-3.918973	bobby
-3.617944	body
-3.918973	boil
-3.617944	bola
-3.918973	bom
-3.918973	bomb
-3.697125	bond
-3.918973	bonding
-3.918973	bone
-3.550997	bonus
-3.550997	book
-3.918973	booked
-3.794035	booking
-4.095065	bookmark
-3.918973	bookshop
-3.918973	bookstore
-3.918973	boom
-3.918973	boon
-3.918973	boost
-3.918973	boot
-3.794035	booth
-3.918973	boots
-3.918973	borak
-3.918973	border
-3.617944	boring
-3.617944	born
-3.794035	borrow
-3.617944	boss
-3.918973	boston
-3.918973	bot
-3.918973	botanic
-3.493005	both
-3.794035	bother
-3.697125	bottle
-3.617944	bottom
-3.617944	bought
-3.918973	bounce
-3.918973	bound
-3.918973	bout
-3.918973	bow
-3.918973	bowel
-3.794035	bowl
-3.794035	bowling
-3.617944	box
-3.918973	boxing
-3.550997	boy
-3.918973	bra
-3.697125	brain
-3.918973	brake
-3.697125	branch
-3.697125	brand
-3.918973	branded
-3.918973	brave
-3.918973	bravo
-3.918973	brazil
-3.697125	bread
-3.617944	break
-3.918973	breakdown
-3.918973	breaker
-3.697125	breakfast
-3.918973	breaking
-3.918973	breast
-3.794035	breath
-3.697125	breathe
-3.550997	breathing
-3.794035	breathless
-3.918973	breed
-3.918973	breeze
-3.918973	brick
-3.918973	bride
-3.794035	bridge
-3.918973	brief
-3.794035	briefing
-4.095065	briefly
-3.918973	bright
-3.493005	bring
-4.095065	brisk
-3.918973	broad
-4.095065	broadcast
-3.794035	broke
-3.794035	broken
-3.617944	brother
-3.697125	brought
-3.550997	brown
-3.918973	brownish
-3.918973	brunch
-3.918973	brush
-3.918973	bu
-3.918973	bual
-3.794035	bubble
-3.697125	bucket
-3.794035	buddy
-3.794035	budget
-3.697125	buffet
-3.794035	bug
-3.697125	build
-3.617944	building
-3.918973	built
-3.918973	bulk
-3.918973	bull
-3.918973	bullet
-3.918973	bully
-3.918973	bump
-3.918973	bumper
-3.918973	bun
-3.918973	bunch
-3.918973	bundle
-3.918973	bungalow
-3.918973	bungee
-3.918973	bunk
-3.918973	burden
-3.794035	burn
-3.918973	burning
-3.918973	burst
-3.617944	bus
-3.794035	bush
-3.617944	business
-3.697125	busy
-3.794035	busybody
-3.140822	but
-3.794035	butcher
-3.918973	butt
-3.794035	butter
-3.918973	butterfly
-3.794035	button
-3.918973	buttons
-3.396095	buy
-3.918973	buyer
-3.396095	by
-3.396095	bye
-3.354702	c
-3.918973	ca
-3.794035	cab
-3.918973	cabin
-3.794035	cable
-3.794035	cage
-3.697125	cake
-3.794035	calculate
-3.918973	calculated
-3.918973	calculation
-3.918973	calculator
-3.794035	calendar
-3.354702	call
-3.918973	callable
-3.918973	caller
-3.493005	calling
-3.794035	calm
-3.697125	cam
-3.550997	came
-4.095065	camel
-3.794035	camera
-3.697125	camp
-3.918973	campaign
-3.918973	campus
-3.165646	can
-3.794035	canada
-3.697125	cancel
-3.794035	cancer
-3.918973	candle
-3.794035	candy
-3.918973	cane
-3.354702	cannot
-4.095065	canoe
-3.918973	cant
-3.794035	canteen
-3.918973	canvas
-3.697125	cap
-4.095065	capability
-3.918973	capable
-3.918973	capacity
-3.794035	capital
-3.918973	capsule
-3.794035	captain
-3.918973	caption
-3.918973	capture
-3.493005	car
-3.918973	caramel
-4.095065	carbon
-3.493005	card
-3.493005	care
-3.617944	career
-3.918973	carefree
-3.918973	careful
-3.918973	carefully
-4.095065	careless
-3.794035	carrot
-3.697125	carry
-3.794035	carrying
-3.918973	cart
-3.794035	cartoon
-3.550997	case
-3.617944	cash
-3.918973	cashier
-3.794035	casino
-3.918973	cast
-3.794035	castle
-3.918973	casual
-3.617944	cat
-3.697125	catch
-3.918973	catching
-3.918973	catchy
-3.918973	category
-3.918973	cater
-3.697125	caught
-3.354702	cause
-3.918973	cave
-3.918973	ceiling
-3.794035	celebrate
-3.918973	celebration
-3.918973	celebrity
-3.918973	cell
-4.095065	cemetery
-3.794035	cent
-3.617944	center
-3.794035	central
-3.918973	century
-3.918973	cereal
-3.918973	ceremony
-3.617944	certain
-3.918973	certainly
-3.697125	certificate
-3.918973	certified
-4.095065	certis
-3.918973	cha
-3.794035	chain
-3.697125	chair
-3.918973	chalet
-3.794035	challenge
-3.918973	champion
-3.617944	chance
-4.095065	chang
-3.441852	change
-3.794035	channel
-3.918973	chapter
-3.794035	char
-3.617944	character
-3.918973	characteristic
-3.697125	charge
-3.918973	charger
-3.918973	charging
-3.794035	charity
-3.918973	charming
-3.918973	chart
-3.918973	chartered
-3.794035	chase
-3.918973	chasing
-3.697125	chat
-3.617944	cheap
-3.794035	cheat
-3.918973	cheating
-3.441852	check
-3.794035	checked
-3.918973	cheek
-3.918973	cheer
-3.617944	cheese
-3.918973	cheesecake
-3.918973	cheetah
-3.794035	chef
-3.918973	chemical
-3.794035	chemistry
-3.918973	cheng
-3.918973	cheque
-3.918973	cherry
-3.918973	chess
-3.697125	chest
-3.918973	chew
-3.918973	chi
-3.918973	chick
-3.493005	chicken
-3.441852	child
-3.617944	childhood
-3.918973	childish
-3.794035	chili
-3.697125	chill
-4.095065	chilling
-3.918973	chin
-3.550997	china
-3.918973	chip
-3.794035	chips
-3.918973	chit
-3.697125	chocolate
-3.617944	choice
-3.918973	choir
-3.918973	choke
-3.918973	choker
-3.918973	choking
-3.918973	chomp
-3.550997	choose
-3.918973	choosing
-3.794035	chop
-4.095065	chopping
-3.918973	chore
-3.918973	chose
-3.918973	chosen
-3.918973	chow
-3.918973	chrome
-3.697125	church
-3.918973	chute
-3.918973	cigarette
-3.794035	cinema
-3.550997	circle
-3.918973	circled
-3.918973	circuit
-3.918973	circular
-3.918973	cite
-3.918973	citer
-3.697125	citizen
-3.794035	citizenship
-3.617944	city
-3.918973	civil
-3.617944	claim
-3.918973	claimable
-3.918973	clap
-3.918973	clarify
-4.095065	clash
-3.550997	class
-3.697125	classes
-3.918973	classic
-3.918973	classical
-3.918973	classmate
-3.794035	classroom
-3.918973	claw
-3.918973	clay
-3.617944	clean
-3.918973	cleaner
-3.794035	cleaning
-3.918973	cleanser
-3.617944	clear
-3.918973	clearing
-3.794035	clearly
-3.918973	clerk
-3.918973	clever
-4.095065	cliche
-3.697125	click
-3.794035	client
-3.794035	climb
-3.918973	climbing
-3.794035	clinic
-3.918973	clip
-3.918973	clique
-3.794035	clock
-3.918973	clockwise
-4.095065	clone
-3.550997	close
-3.697125	closed
-3.918973	closely
-3.794035	closer
-3.794035	cloth
-3.697125	clothes
-3.918973	clothing
-3.794035	cloud
-3.617944	club
-3.918973	clubbing
-3.918973	clue
-3.918973	cluster
-3.794035	coach
-3.918973	coaching
-3.794035	coast
-3.918973	coaster
-3.918973	coat
-3.918973	cock
-3.918973	cockroach
-3.918973	coco
-3.918973	coconut
-3.617944	code
-3.617944	coffee
-3.918973	coin
-3.794035	coincidence
-3.918973	coke
-3.918973	cola
-3.617944	cold
-3.918973	collapse
-4.095065	collar
-3.697125	colleague
-3.617944	collect
-3.918973	collected
-3.794035	collection
-3.794035	college
-3.550997	color
-3.918973	colors
-3.441852	colour
-3.918973	column
-4.095065	coma
-3.918973	combination
-3.918973	combine
-3.918973	combined
-3.396095	come
-3.794035	comedy
-3.617944	comes
-3.697125	comfort
-3.697125	comfortable
-3.918973	comic
-3.550997	coming
-3.918973	command
-3.794035	comment
-3.918973	commercial
-3.918973	commission
-3.918973	commit
-3.918973	commitment
-3.794035	committee
-3.697125	common
-3.918973	commonwealth
-3.794035	communicate
-3.794035	communication
-3.697125	community
-3.918973	companion
-3.493005	company
-3.697125	compare
-3.918973	comparison
-3.918973	compete
-3.794035	competition
-3.794035	competitive
-3.617944	complain
-3.918973	complaint
-3.697125	complete
-3.794035	completely
-3.918973	complex
-3.918973	complicated
-4.095065	composition
-3.918973	compound
-3.918973	compulsory
-3.617944	computer
-3.794035	con
-3.918973	concentrate
-3.918973	concentration
-3.794035	concept
-3.794035	concern
-3.918973	concerned
-3.697125	concert
-3.918973	concession
-3.918973	conclusion
-3.918973	concrete
-3.918973	cond
-3.794035	condition
-3.918973	conditional
-4.095065	conditioner
-3.918973	condominium
-3.918973	conduct
-3.918973	cone
-3.918973	conference
-3.918973	confess
-3.918973	confidence
-3.794035	confident
-3.550997	confirm
-3.794035	confirmation
-3.918973	confirmed
-3.918973	conflict
-3.918973	confuse
-3.794035	confused
-3.794035	connect
-3.918973	connected
-3.918973	connection
-3.550997	conscious
-3.794035	consent
-3.918973	conservative
-3.697125	consider
-3.918973	consideration
-3.697125	considered
-3.918973	considering
-4.095065	consistency
-3.918973	consistent
-3.918973	console
-3.918973	constant
-3.918973	constantly
-3.918973	construction
-3.918973	consult
-3.918973	consultant
-3.918973	consulting
-3.918973	consumable
-3.918973	consume
-4.095065	consumer
-3.493005	contact
-3.918973	container
-3.918973	content
-3.918973	contest
-3.918973	context
-3.617944	continue
-3.794035	continuous
-3.918973	continuously
-3.794035	contract
-4.095065	contraction
-4.095065	contractor
-3.794035	contribute
-3.794035	contribution
-3.697125	control
-3.918973	controversial
-3.918973	convenience
-3.794035	convenient
-3.617944	conversation
-3.918973	converse
-3.918973	conversion
-3.794035	convert
-3.918973	converted
-3.918973	convince
-3.550997	cook
-3.697125	cooking
-3.550997	cool
-3.918973	cooling
-3.918973	cooper
-3.918973	cope
-3.697125	copy
-3.794035	core
-3.918973	corn
-3.697125	corner
-3.918973	corp
-3.918973	corporate
-3.918973	corporation
-3.354702	correct
-3.918973	correction
-3.918973	correctly
-3.918973	correspondent
-3.918973	corridor
-3.918973	cos
-3.918973	cosmos
-3.617944	cost
-3.918973	costa
-3.918973	costume
-3.918973	cottage
-3.918973	cotton
-3.794035	cough
-3.441852	could
-3.918973	council
-3.617944	count
-3.794035	counter
-3.918973	counting
-3.550997	country
-4.095065	countryside
-3.697125	couple
-3.794035	coupon
-3.918973	courier
-3.441852	course
-3.697125	court
-3.794035	cousin
-3.918973	cove
-3.697125	cover
-3.794035	covered
-3.918973	covering
-3.794035	covid
-3.918973	cow
-3.918973	cowboy
-3.794035	coz
-3.697125	crab
-3.918973	crack
-3.918973	craft
-3.918973	crap
-3.918973	crash
-3.918973	crave
-3.918973	craving
-3.918973	crawl
-4.095065	crayfish
-3.617944	crazy
-3.617944	cream
-4.095065	creamy
-3.697125	create
-3.697125	creative
-3.697125	credit
-3.918973	creep
-3.794035	creepy
-3.918973	crescent
-3.918973	crew
-3.918973	cried
-3.918973	crime
-3.918973	criminal
-3.918973	crisis
-3.918973	crispy
-3.794035	criteria
-3.918973	critical
-3.918973	crocodile
-3.697125	cross
-3.918973	crossing
-3.794035	crowd
-3.794035	crowded
-3.918973	crown
-3.794035	cruise
-4.095065	crunchy
-3.918973	crush
-3.697125	cry
-3.794035	crying
-3.918973	crystal
-3.918973	cube
-3.918973	cucumber
-3.794035	cuisine
-3.918973	cultural
-3.697125	culture
-3.697125	cup
-4.095065	cupboard
-3.918973	cure
-3.794035	curious
-3.918973	curly
-3.794035	currency
-3.697125	current
-3.617944	currently
-3.918973	curriculum
-3.697125	curry
-3.918973	curse
-3.918973	curtain
-3.794035	curve
-3.918973	cushion
-3.918973	custody
-3.918973	custom
-3.617944	customer
-3.617944	cut
-3.617944	cute
-3.794035	cutting
-3.794035	cycle
-3.794035	cycling
-3.918973	cyclist
-3.441852	d
-3.697125	da
-3.617944	dad
-4.095065	dada
-3.794035	daddy
-3.354702	dah
-3.794035	daily
-4.095065	dairy
-3.918973	dak
-3.918973	damage
-3.493005	damn
-3.396095	dan
-3.617944	dance
-3.918973	dancer
-3.794035	dancing
-3.918973	danger
-3.794035	dangerous
-3.794035	dare
-3.550997	dari
-3.617944	dark
-4.095065	darkness
-3.918973	darling
-3.794035	dash
-3.697125	data
-3.493005	date
-3.794035	dating
-3.617944	daughter
-3.354702	day
-3.441852	days
-3.794035	de
-3.697125	dead
-3.697125	deadline
-4.095065	deaf
-3.697125	deal
-3.918973	dealer
-3.918973	dealing
-3.794035	dear
-3.697125	death
-3.918973	debate
-3.794035	debit
-3.918973	debt
-3.918973	decade
-3.918973	decent
-3.697125	decide
-3.697125	decided
-3.697125	decision
-3.794035	deck
-3.794035	declaration
-3.918973	declare
-3.918973	decoration
-3.918973	decorative
-3.918973	deduct
-3.918973	deduction
-3.697125	deep
-3.918973	default
-3.918973	defeat
-3.918973	defend
-4.095065	defense
-3.794035	define
-3.550997	definitely
-3.918973	definition
-3.697125	degree
-3.918973	delay
-3.697125	delete
-3.794035	delicious
-3.918973	deliver
-3.794035	delivery
-3.918973	dell
-3.918973	delta
-3.918973	demand
-3.918973	dementia
-3.918973	demi
-3.918973	demise
-3.918973	dental
-3.918973	dentist
-4.095065	deny
-3.918973	depa
-3.697125	department
-3.794035	depend
-3.794035	dependent
-3.794035	depending
-3.697125	deposit
-3.918973	depressed
-3.918973	depressing
-3.918973	depression
-3.918973	depth
-3.550997	describe
-3.918973	description
-3.918973	desert
-3.918973	deserve
-3.697125	design
-3.794035	designer
-3.918973	desire
-3.918973	desk
-3.918973	desperate
-3.918973	despite
-3.794035	dessert
-3.918973	destination
-3.918973	destiny
-3.918973	destress
-3.918973	destroy
-3.794035	detail
-3.918973	detailed
-3.918973	detect
-3.918973	detector
-3.918973	determine
-3.794035	develop
-3.918973	developer
-3.794035	development
-3.918973	device
-3.918973	devil
-3.918973	devote
-3.918973	dewan
-3.396095	di
-3.918973	diabetes
-3.918973	diagram
-4.095065	dial
-3.918973	dialect
-3.918973	dialysis
-3.918973	diamond
-3.918973	diarrhea
-3.918973	diary
-4.095065	dick
-3.918973	dictation
-4.095065	dictionary
-3.354702	did
-4.095065	didnt
-3.550997	die
-3.794035	diet
-3.493005	difference
-3.396095	different
-4.095065	differentiate
-3.794035	differently
-3.617944	difficult
-3.697125	difficulty
-3.918973	dig
-3.918973	digest
-3.918973	digit
-3.794035	digital
-4.095065	dilemma
-3.918973	dim
-3.918973	dimension
-3.918973	din
-3.918973	ding
-3.918973	dining
-3.617944	dinner
-3.794035	dinosaur
-3.918973	dip
-3.697125	diploma
-3.697125	direct
-3.794035	direction
-3.794035	directly
-3.794035	director
-4.095065	dirt
-3.794035	dirty
-4.095065	dis
-3.918973	disagree
-3.918973	disappear
-3.794035	disappointed
-3.918973	disaster
-3.794035	discipline
-4.095065	disclose
-3.794035	discount
-3.918973	discover
-3.794035	discovery
-3.918973	discrimination
-3.794035	discuss
-3.918973	discussion
-3.918973	disease
-3.794035	disgusting
-3.697125	dish
-3.918973	disk
-3.794035	dislike
-3.918973	disorder
-3.918973	dispatch
-3.794035	display
-3.794035	distance
-3.918973	distress
-3.918973	distribution
-3.918973	district
-3.918973	disturb
-3.918973	disturbing
-3.918973	dive
-3.918973	diverse
-3.794035	divide
-3.918973	divided
-3.918973	dividend
-3.794035	diving
-3.918973	division
-3.918973	divorce
-3.918973	dizzy
-3.191975	do
-3.617944	doctor
-3.794035	document
-3.918973	documentary
-3.918973	documentation
-3.493005	does
-3.550997	dog
-3.794035	dogs
-3.441852	doing
-3.918973	doll
-3.493005	dollar
-3.918973	dolphin
-3.918973	dome
-4.095065	domestic
-3.918973	don
-3.918973	donate
-3.918973	donation
-3.493005	done
-3.918973	donee
-3.918973	dong
-3.918973	donkey
-3.918973	donor
-3.794035	dont
-3.550997	door
-3.918973	dorm
-3.794035	dormitory
-3.617944	dot
-3.617944	double
-3.918973	doubt
-3.396095	down
-3.794035	downstairs
-3.794035	downtown
-3.794035	draft
-3.794035	drag
-3.918973	dragging
-3.794035	dragon
-3.918973	drain
-3.617944	drama
-3.918973	dramatic
-3.918973	drank
-3.918973	drastically
-3.697125	draw
-3.794035	drawing
-4.095065	drawn
-3.617944	dream
-3.918973	dreamer
-3.697125	dress
-4.095065	dressed
-3.918973	dressing
-3.918973	drill
-3.550997	drink
-3.794035	drinking
-3.617944	drive
-3.697125	driver
-3.697125	driving
-3.918973	drool
-3.617944	drop
-3.918973	dropping
-3.918973	drove
-3.697125	drowsy
-3.918973	drug
-3.918973	drum
-3.794035	drunk
-3.697125	dry
-4.095065	dual
-3.794035	duck
-3.697125	dude
-3.697125	due
-3.550997	duit
-4.095065	dull
-3.794035	dumb
-3.918973	dump
-3.918973	dumpling
-3.918973	duration
-3.617944	durian
-3.550997	during
-3.918973	dust
-3.794035	dustbin
-3.918973	duty
-3.918973	dye
-3.794035	dying
-3.493005	e
-3.550997	each
-3.918973	eagle
-3.794035	ear
-3.617944	early
-3.697125	earn
-3.794035	earning
-3.918973	earpiece
-3.794035	earth
-4.095065	earthquake
-3.697125	easier
-3.918973	easiest
-3.697125	easily
-3.697125	east
-3.918973	easter
-3.918973	eastern
-3.550997	easy
-3.396095	eat
-3.794035	eaten
-3.617944	eating
-3.918973	eats
-3.918973	echo
-3.918973	economic
-3.918973	economics
-3.918973	economy
-3.918973	edge
-3.794035	edible
-3.794035	edit
-3.918973	edition
-4.095065	editor
-3.918973	educate
-3.918973	educated
-3.617944	education
-3.918973	educational
-3.794035	effect
-3.918973	effective
-3.918973	effects
-4.095065	efficiency
-3.918973	efficient
-3.697125	effort
-3.697125	egg
-3.918973	ego
-3.282151	eh
-3.396095	eight
-3.697125	eighteen
-3.918973	eighth
-3.617944	eighty
-3.617944	either
-3.918973	el
-3.794035	elaborate
-3.794035	elder
-3.697125	elderly
-3.918973	eldest
-3.918973	election
-3.794035	elective
-3.918973	electric
-3.918973	electrical
-3.918973	electricity
-3.918973	electronic
-4.095065	elegant
-3.918973	element
-3.918973	elephant
-3.550997	eleven
-3.918973	eligibility
-3.794035	eligible
-3.918973	elite
-3.493005	else
-3.617944	em
-3.918973	embarrass
-3.918973	embarrassed
-3.697125	embarrassing
-3.918973	embassy
-3.697125	emergency
-3.918973	emotion
-3.794035	emotional
-3.918973	emotionally
-4.095065	employ
-3.794035	employed
-3.697125	employee
-3.697125	employer
-3.794035	employment
-3.697125	empty
-3.617944	en
-3.617944	enam
-3.918973	encounter
-3.918973	encourage
-3.441852	end
-3.794035	ended
-3.794035	ending
-4.095065	endless
-3.918973	enemy
-3.697125	energy
-3.794035	engage
-3.918973	engaged
-4.095065	engagement
-3.918973	engine
-3.794035	engineer
-3.697125	engineering
-3.550997	enjoy
-3.794035	enjoyable
-3.918973	enjoying
-3.550997	enough
-3.794035	enquire
-3.794035	enquiry
-3.794035	enrichment
-3.918973	enroll
-4.095065	enrolled
-3.918973	ensure
-3.794035	enter
-3.918973	entertain
-3.918973	entertaining
-3.697125	entertainment
-3.697125	entire
-4.095065	entirely
-3.918973	entitle
-3.794035	entitlement
-3.918973	entity
-3.794035	entrance
-4.095065	entrepreneur
-3.794035	entry
-3.918973	envelope
-3.697125	environment
-3.918973	environmental
-3.794035	episode
-3.794035	equal
-3.918973	equally
-3.918973	equipment
-3.918973	equity
-3.918973	equivalent
-3.249967	er
-3.918973	era
-3.918973	erase
-3.918973	eraser
-4.095065	eric
-3.918973	err
-3.794035	error
-3.918973	es
-3.794035	escalate
-4.095065	escalator
-3.794035	escape
-3.617944	especially
-3.918973	esplanade
-3.697125	essay
-3.918973	essence
-3.918973	essential
-3.918973	essentially
-3.794035	estate
-4.095065	estimate
-3.918973	eve
-3.354702	even
-3.794035	evening
-3.697125	event
-3.697125	eventually
-3.493005	ever
-3.441852	every
-3.550997	everybody
-3.550997	everyday
-3.550997	everyone
-3.441852	everything
-3.697125	everywhere
-3.918973	evidence
-3.794035	evil
-3.697125	ex
-3.794035	exact
-3.550997	exactly
-3.617944	exam
-3.918973	examination
-3.550997	example
-3.794035	excel
-3.918973	excellent
-3.697125	except
-3.918973	excess
-3.697125	exchange
-3.794035	excited
-3.794035	exciting
-3.918973	exclamation
-3.918973	exclude
-3.918973	excluding
-4.095065	exclusive
-3.794035	excuse
-3.918973	execute
-4.095065	execution
-3.918973	executive
-3.617944	exercise
-3.918973	exhibition
-3.794035	exist
-3.794035	exit
-3.918973	expand
-3.697125	expect
-3.918973	expectation
-4.095065	expedite
-3.550997	expensive
-3.550997	experience
-3.918973	experienced
-3.918973	experiment
-3.918973	expert
-3.918973	expire
-3.918973	expiry
-3.697125	explain
-4.095065	explaining
-3.918973	explanation
-3.794035	explore
-3.918973	expose
-3.918973	exposed
-3.918973	exposure
-3.794035	express
-3.918973	expression
-3.794035	extend
-3.794035	extended
-3.918973	extension
-3.918973	extent
-3.918973	external
-3.617944	extra
-4.095065	extract
-3.794035	extreme
-3.918973	extremely
-3.918973	ey
-3.697125	eye
-3.918973	eyebrow
-3.493005	f
-3.918973	fa
-3.550997	face
-3.794035	facial
-3.918973	facility
-3.697125	facing
-3.697125	fact
-3.918973	factor
-3.918973	factory
-3.794035	fad
-4.095065	fade
-3.550997	faham
-3.697125	fail
-3.918973	failure
-3.918973	faint
-3.918973	fainting
-3.697125	fair
-3.918973	fairly
-3.918973	fairy
-3.918973	faith
-3.697125	fake
-3.617944	fall
-3.918973	fallen
-3.794035	falling
-3.794035	false
-3.918973	fame
-3.794035	familiar
-3.441852	family
-3.617944	famous
-3.697125	fan
-3.918973	fancy
-4.095065	fang
-3.794035	fantastic
-3.918973	fantasy
-3.550997	far
-3.918973	fare
-3.794035	farm
-3.918973	farmer
-3.918973	farming
-3.697125	fashion
-3.918973	fashioned
-3.550997	fast
-3.697125	faster
-4.095065	fasting
-3.697125	fat
-3.918973	fate
-3.550997	father
-3.794035	fault
-3.918973	faulty
-3.617944	favorite
-3.794035	fear
-3.794035	feature
-3.918973	fed
-3.697125	fee
-3.794035	feed
-3.794035	feedback
-3.918973	feeding
-3.396095	feel
-3.617944	feeling
-3.697125	fell
-3.918973	fellow
-3.697125	felt
-3.617944	female
-3.794035	fence
-3.918973	ferry
-3.794035	festival
-3.918973	fetch
-3.697125	fever
-3.493005	few
-4.095065	fi
-3.794035	fiction
-3.918973	fictional
-3.697125	field
-3.918973	fierce
-3.617944	fifteen
-3.697125	fifth
-3.493005	fifty
-3.697125	fight
-3.918973	fighter
-3.794035	fighting
-3.794035	figure
-3.794035	file
-4.095065	filing
-3.697125	fill
-3.794035	filled
-3.918973	filling
-3.794035	film
-3.918973	filter
-3.794035	fin
-3.697125	final
-3.794035	finally
-3.697125	finance
-3.617944	financial
-3.918973	financially
-3.441852	find
-3.794035	finding
-3.550997	fine
-3.794035	finger
-3.550997	finish
-3.794035	finished
-3.918973	finishing
-3.918973	finland
-3.617944	fire
-3.918973	fired
-3.918973	firm
-3.316913	first
-3.794035	firstly
-3.617944	fish
-3.918973	fisherman
-3.794035	fishing
-3.617944	fit
-3.794035	fitness
-4.095065	fitting
-3.316913	five
-3.794035	fix
-3.794035	fixed
-3.794035	flag
-3.794035	flash
-3.697125	flat
-3.918973	flavor
-3.918973	flavour
-4.095065	flesh
-3.918973	flexible
-3.794035	flight
-3.794035	flip
-3.918973	float
-3.918973	floating
-3.617944	floor
-3.918973	flour
-3.794035	flow
-3.794035	flower
-3.918973	flu
-3.918973	fluent
-4.095065	flush
-3.697125	fly
-3.918973	flyer
-3.697125	flying
-3.918973	foam
-3.697125	focus
-3.918973	fold
-3.918973	folder
-3.918973	folk
-3.550997	follow
-3.918973	follower
-3.794035	following
-4.095065	foo
-3.354702	food
-3.918973	fool
-3.794035	foot
-3.697125	football
-3.140822	for
-3.697125	force
-3.918973	forced
-3.918973	forecast
-3.918973	forehead
-3.697125	foreign
-3.794035	foreigner
-4.095065	foresee
-3.918973	forest
-3.697125	forever
-3.697125	forget
-3.918973	forgive
-3.617944	forgot
-3.918973	forgotten
-3.918973	fork
-3.550997	form
-3.794035	formal
-3.918973	format
-3.794035	formula
-4.095065	fort
-3.794035	forth
-4.095065	fortunate
-3.918973	fortune
-3.550997	forty
-3.918973	forum
-3.697125	forward
-3.918973	foster
-3.617944	found
-3.794035	foundation
-3.918973	fountain
-3.354702	four
-3.697125	fourteen
-3.697125	fourth
-3.918973	fox
-3.794035	frame
-4.095065	franc
-3.918973	frank
-3.918973	freak
-3.493005	free
-3.794035	freedom
-3.918973	freeze
-3.918973	frequency
-3.918973	frequent
-3.918973	frequently
-3.697125	fresh
-3.697125	fried
-3.441852	friend
-3.794035	friendly
-3.794035	friendship
-3.918973	frog
-3.282151	from
-3.550997	front
-3.918973	frozen
-3.697125	fruit
-3.794035	fry
-3.918973	fu
-3.918973	fuel
-3.918973	fulfill
-3.550997	full
-3.794035	fully
-3.493005	fun
-3.794035	function
-3.697125	fund
-4.095065	fundamental
-3.794035	funds
-3.918973	funeral
-4.095065	funky
-3.550997	funny
-3.918973	fur
-3.918973	furniture
-3.617944	further
-3.918973	fusion
-3.617944	future
-3.493005	g
-3.918973	gadget
-3.794035	gain
-3.918973	galaxy
-3.918973	gallery
-3.918973	gamble
-4.095065	gambling
-3.550997	game
-3.794035	gaming
-3.918973	gang
-3.918973	gangster
-3.794035	gap
-3.918973	garbage
-3.697125	garden
-4.095065	gardener
-3.918973	gardening
-3.918973	garlic
-3.794035	gas
-3.794035	gate
-3.918973	gather
-3.918973	gathering
-3.697125	gave
-3.794035	gay
-3.918973	ge
-3.918973	gear
-3.918973	gel
-4.095065	gem
-3.918973	gen
-3.918973	gender
-3.918973	gene
-3.697125	general
-3.794035	generally
-3.794035	generate
-3.617944	generation
-4.095065	generic
-3.918973	genie
-3.918973	genius
-3.697125	genre
-3.918973	gentle
-3.918973	gentleman
-3.918973	genuine
-3.918973	geography
-3.918973	german
-4.095065	gesture
-3.316913	get
-3.550997	getting
-3.697125	ghost
-3.794035	giant
-3.918973	giddiness
-3.794035	giddy
-3.697125	gift
-3.918973	gig
-3.918973	ginger
-3.493005	girl
-3.918973	giro
-3.354702	give
-3.617944	given
-3.697125	giving
-3.918973	glad
-3.794035	glass
-3.918973	glasses
-3.794035	global
-4.095065	gloomy
-3.918973	gloss
-4.095065	glove
-3.220003	go
-3.794035	goal
-3.794035	goat
-3.550997	god
-3.617944	goes
-3.396095	going
-3.918973	gol
-3.697125	gold
-3.794035	golden
-3.794035	golf
-3.617944	gone
-3.918973	gong
-3.282151	good
-3.794035	goodness
-3.918973	goods
-4.095065	goose
-3.918973	gor
-3.794035	gosh
-3.918973	gossip
-3.282151	got
-3.918973	gotten
-3.550997	government
-3.697125	grab
-3.918973	grace
-3.918973	grad
-3.794035	grade
-3.794035	graduate
-3.918973	graduated
-4.095065	graduating
-3.918973	graduation
-3.918973	gram
-3.794035	grand
-3.794035	grandfather
-3.794035	grandma
-3.794035	grandmother
-3.918973	grandpa
-3.918973	grandson
-4.095065	granny
-3.794035	grant
-4.095065	graph
-3.918973	graphic
-3.794035	grass
-3.918973	grateful
-3.918973	gravity
-3.918973	gravy
-3.918973	gray
-3.617944	great
-3.918973	greater
-3.918973	greedy
-3.493005	green
-3.918973	greenish
-4.095065	greeting
-3.918973	grew
-3.617944	grey
-3.918973	grill
-4.095065	grilled
-3.918973	grocery
-3.918973	groom
-3.918973	gross
-3.697125	ground
-3.550997	group
-3.697125	grow
-3.794035	growing
-3.918973	grown
-3.918973	growth
-3.918973	guarantee
-3.794035	guard
-3.918973	guardian
-3.441852	guess
-3.918973	guessing
-3.794035	guest
-3.918973	guidance
-3.794035	guide
-3.918973	guilty
-3.794035	guitar
-3.794035	gula
-4.095065	gum
-3.918973	gun
-3.617944	guna
-3.697125	guru
-3.441852	guy
-3.697125	gym
-3.550997	h
-3.396095	ha
-3.794035	habit
-3.918973	hack
-3.441852	had
-3.918973	hafiz
-3.550997	hah
-3.550997	hair
-4.095065	haircut
-3.918973	hak
-3.794035	halal
-3.550997	half
-3.794035	halfway
-3.617944	hall
-4.095065	halo
-3.918973	ham
-3.918973	hammer
-3.794035	hamster
-3.918973	han
-3.493005	hand
-3.918973	handbag
-3.697125	handle
-3.918973	handling
-3.794035	handsome
-3.918973	handwriting
-3.794035	hanging
-3.918973	hao
-3.493005	happen
-3.697125	happening
-3.918973	happier
-3.794035	happiest
-3.918973	happily
-3.794035	happiness
-3.493005	happy
-3.493005	hard
-3.794035	harder
-3.794035	hardly
-3.918973	hardware
-3.918973	harm
-3.794035	harry
-3.918973	harsh
-3.697125	hat
-3.617944	hate
-3.165646	have
-3.617944	hawker
-3.918973	hay
-3.220003	he
-3.617944	head
-3.794035	headache
-3.918973	heading
-3.918973	headphone
-4.095065	heal
-3.697125	health
-3.697125	healthy
-3.550997	hear
-3.794035	hearing
-3.617944	heart
-3.918973	heartbeat
-3.794035	heat
-3.918973	heater
-3.794035	heaven
-3.794035	heavy
-3.794035	heck
-3.918973	hedge
-4.095065	heel
-3.794035	height
-3.918973	helicopter
-3.697125	hell
-3.354702	hello
-3.918973	helmet
-3.441852	help
-3.918973	helper
-3.918973	helpful
-3.697125	helping
-4.095065	henry
-3.316913	her
-3.918973	herbal
-3.441852	here
-3.918973	heritage
-3.697125	hero
-3.918973	hers
-3.794035	herself
-3.617944	hey
-3.493005	hi
-3.918973	hidden
-3.794035	hide
-3.493005	high
-3.697125	higher
-3.697125	highest
-3.918973	highland
-3.794035	highlight
-3.918973	highly
-3.918973	highway
-3.918973	hike
-3.794035	hill
-3.396095	him
-3.794035	himself
-3.918973	hint
-3.794035	hip
-3.794035	hire
-3.396095	his
-3.918973	historical
-3.697125	history
-3.617944	hit
-3.918973	hive
-3.794035	ho
-3.697125	hobby
-3.918973	hockey
-3.441852	hold
-3.918973	holder
-3.617944	holding
-3.794035	hole
-3.617944	holiday
-4.095065	hollow
-3.794035	holy
-3.441852	home
-3.794035	homework
-3.918973	honda
-3.697125	honest
-3.617944	honestly
-3.918973	honesty
-3.697125	honey
-3.918973	honeymoon
-3.617944	hong
-3.918973	honor
-4.095065	hood
-3.918973	hook
-3.918973	hoon
-3.794035	hop
-3.617944	hope
-3.794035	hopefully
-4.095065	horizon
-3.918973	horizontal
-3.918973	horn
-3.794035	horrible
-3.794035	horror
-3.794035	horse
-3.617944	hospital
-3.918973	host
-3.794035	hostel
-3.617944	hot
-3.493005	hotel
-3.550997	hour
-3.441852	house
-3.918973	household
-3.918973	housewife
-3.918973	housework
-3.918973	housing
-3.220003	how
-3.794035	however
-3.794035	hub
-3.918973	hug
-3.697125	huge
-3.441852	huh
-3.918973	hulk
-3.794035	hum
-3.617944	human
-3.918973	humble
-4.095065	humour
-3.441852	hundred
-3.697125	hungry
-3.918973	hunt
-3.918973	hurry
-3.794035	hurt
-3.617944	husband
-3.918973	hut
-3.918973	hybrid
-2.964731	i
-3.617944	ice
-3.918973	iceland
-3.918973	icon
-3.918973	id
-3.550997	idea
-3.794035	ideal
-3.794035	identify
-3.918973	identity
-3.794035	idiom
-3.918973	idiot
-4.095065	idle
-3.918973	idol
-4.095065	idola
-3.220003	if
-3.794035	ignore
-3.918973	ikat
-3.918973	ill
-3.794035	illegal
-3.918973	illness
-3.794035	image
-3.918973	imagination
-3.617944	imagine
-3.918973	immediate
-3.794035	immediately
-4.095065	immigration
-4.095065	immune
-3.794035	impact
-3.918973	implement
-3.918973	import
-3.918973	importance
-3.550997	important
-3.794035	impossible
-3.918973	impress
-3.794035	impression
-3.794035	impressive
-3.794035	improve
-3.918973	improvement
-4.095065	improving
-3.140822	in
-3.918973	incentive
-3.918973	inch
-3.794035	incident
-3.794035	include
-3.918973	included
-3.918973	inclusive
-3.697125	income
-3.794035	increase
-3.918973	increasing
-3.918973	incredible
-3.918973	incredibly
-3.918973	indeed
-4.095065	independence
-3.794035	independent
-3.794035	indicate
-4.095065	indication
-3.918973	indicative
-3.794035	individual
-3.794035	indoor
-3.794035	industrial
-3.697125	industry
-4.095065	infant
-3.918973	infection
-3.918973	infinity
-3.918973	influence
-3.918973	influencer
-3.794035	inform
-3.617944	information
-3.918973	informed
-3.918973	ingredient
-3.918973	initial
-3.794035	initially
-3.918973	initiate
-3.918973	initiative
-3.794035	injured
-3.918973	injury
-3.918973	ink
-3.918973	inn
-3.918973	inner
-3.918973	innocence
-3.918973	innocent
-3.794035	input
-3.918973	insane
-3.918973	insect
-3.918973	insert
-3.918973	inserted
-3.493005	inside
-3.918973	insist
-3.918973	inspiration
-3.918973	inspire
-3.918973	inspired
-3.794035	inspiring
-3.918973	install
-3.918973	instance
-3.794035	instant
-3.918973	instantly
-3.617944	instead
-3.918973	institution
-3.617944	instruction
-3.918973	instructor
-3.918973	instrument
-3.918973	instrumental
-3.794035	insurance
-3.918973	intake
-4.095065	intellectual
-3.918973	intelligence
-3.918973	intelligent
-3.918973	intend
-3.918973	intending
-3.918973	intense
-3.918973	intention
-3.918973	inter
-3.918973	interact
-3.918973	interaction
-4.095065	interactive
-3.918973	interbank
-3.918973	interchange
-3.617944	interest
-3.697125	interested
-3.493005	interesting
-3.918973	interior
-3.794035	intern
-3.918973	internal
-3.697125	international
-3.697125	internship
-3.918973	interrupt
-3.697125	interview
-3.441852	into
-3.794035	introduce
-3.918973	introduction
-3.918973	introvert
-3.918973	invent
-3.918973	invention
-3.918973	inverted
-3.794035	invest
-3.918973	investigation
-3.697125	investment
-3.918973	invisible
-3.918973	invitation
-3.697125	invite
-3.918973	invoice
-3.918973	involve
-3.794035	involved
-3.918973	ion
-3.794035	iron
-4.095065	ironman
-3.918973	irritating
-3.053672	is
-3.697125	island
-3.617944	issue
-3.918973	issuer
-3.117341	it
-3.918973	itchy
-3.697125	item
-3.918973	itinerary
-3.493005	its
-3.617944	itself
-3.550997	j
-3.794035	jack
-3.794035	jacket
-3.918973	jail
-3.617944	jam
-3.918973	jane
-3.794035	jap
-3.697125	japan
-3.918973	jawab
-3.918973	jay
-3.918973	jazz
-3.918973	jealous
-3.918973	jean
-3.794035	jeans
-3.918973	jeep
-3.918973	jeff
-3.918973	jelly
-4.095065	jenny
-3.918973	jerry
-3.918973	jet
-3.918973	jimmy
-3.493005	job
-3.794035	joe
-3.918973	joey
-3.918973	jog
-3.550997	join
-3.918973	joining
-3.794035	joint
-3.794035	joke
-3.918973	joker
-3.918973	jordan
-3.918973	journal
-3.794035	journey
-3.794035	joy
-3.794035	judge
-3.794035	juice
-3.918973	juicy
-3.697125	jump
-3.918973	junction
-3.697125	june
-3.918973	jungle
-3.794035	junior
-3.918973	junk
-3.165646	just
-3.918973	justice
-3.396095	k
-3.794035	ka
-3.918973	kai
-3.697125	kaki
-3.918973	kala
-3.617944	kali
-3.918973	kampong
-3.249967	kan
-3.794035	kang
-4.095065	kangaroo
-3.794035	karaoke
-3.441852	kat
-3.550997	kay
-3.918973	kebab
-3.918973	keen
-3.441852	keep
-3.918973	keeper
-3.794035	keeping
-3.918973	kelly
-3.918973	ken
-3.794035	kept
-3.550997	kerana
-3.617944	key
-3.794035	keyboard
-3.918973	khan
-3.794035	kick
-3.918973	kicking
-3.918973	kidney
-3.697125	kill
-3.918973	killer
-3.918973	killing
-3.918973	kilo
-3.918973	kilometer
-3.918973	kim
-3.354702	kind
-3.794035	kindergarten
-3.918973	kindle
-3.918973	kindly
-4.095065	kindness
-3.697125	king
-3.918973	kingdom
-3.918973	kiri
-3.794035	kiss
-3.918973	kit
-3.794035	kitchen
-3.794035	kite
-3.918973	kitty
-3.918973	knee
-3.697125	knew
-3.918973	knife
-3.918973	knitting
-3.918973	knob
-3.794035	knock
-3.140822	know
-3.794035	knowing
-3.794035	knowledge
-3.794035	known
-3.697125	ko
-4.095065	koala
-3.918973	koi
-3.918973	koko
-3.794035	kopi
-3.794035	kos
-3.697125	kosong
-3.918973	kuan
-3.918973	kurus
-4.095065	kwan
-3.493005	l
-3.354702	la
-3.794035	lab
-3.794035	label
-3.918973	labour
-3.918973	lack
-4.095065	ladder
-3.918973	ladies
-3.550997	lady
-3.918973	lag
-3.918973	lagoon
-3.918973	lai
-3.441852	lain
-3.918973	lake
-4.095065	lam
-3.550997	lama
-3.794035	lamb
-3.794035	lame
-3.794035	lamp
-3.918973	lamppost
-3.918973	lan
-3.697125	land
-3.794035	landed
-3.918973	landing
-3.794035	lane
-3.697125	language
-3.918973	lap
-3.918973	lar
-3.794035	large
-3.697125	lari
-3.918973	laser
-3.354702	last
-3.918973	lastly
-3.617944	late
-3.918973	lately
-3.493005	later
-3.697125	latest
-3.697125	laugh
-3.794035	laughing
-4.095065	laughter
-3.918973	launch
-3.918973	laundry
-3.918973	lavender
-3.697125	law
-3.794035	lawyer
-3.794035	lay
-3.918973	layer
-3.918973	layout
-3.617944	lazy
-3.794035	lead
-3.794035	leader
-3.918973	leadership
-3.918973	leading
-3.918973	leaf
-3.918973	league
-3.918973	lean
-3.550997	learn
-3.918973	learned
-3.697125	learning
-3.794035	learnt
-3.493005	least
-4.095065	leather
-3.441852	leave
-3.918973	leaves
-3.794035	leaving
-3.794035	lecture
-3.794035	lecturer
-3.697125	lee
-3.441852	left
-3.918973	leftover
-3.617944	leg
-3.794035	legal
-3.918973	legally
-3.918973	legend
-3.697125	legit
-3.794035	leisure
-3.918973	lemon
-3.918973	lend
-3.918973	length
-3.918973	lens
-3.617944	less
-3.794035	lesser
-3.697125	lesson
-3.396095	let
-3.617944	letter
-3.550997	level
-3.918973	li
-4.095065	liang
-3.918973	liar
-3.918973	liberal
-3.794035	library
-3.794035	license
-3.697125	lie
-3.396095	life
-3.918973	lifetime
-3.697125	lift
-3.550997	light
-3.918973	lighter
-3.918973	lighting
-3.918973	lightning
-3.034367	like
-3.794035	likely
-3.918973	liking
-3.918973	lily
-3.918973	lim
-3.918973	lime
-3.697125	limit
-3.697125	limited
-3.918973	lin
-3.493005	line
-3.918973	ling
-3.697125	link
-3.918973	linked
-3.918973	lion
-3.794035	lip
-3.918973	lipstick
-3.918973	liquid
-3.918973	liquidity
-3.617944	list
-3.918973	listed
-3.617944	listen
-4.095065	listener
-3.697125	listening
-3.918973	lit
-3.697125	literally
-3.918973	literary
-3.918973	literature
-3.550997	little
-3.550997	live
-3.918973	liver
-3.617944	living
-3.918973	lizard
-3.794035	lo
-3.918973	load
-3.918973	loading
-3.918973	loaf
-3.697125	loan
-3.918973	lobby
-3.918973	lobster
-3.550997	local
-3.697125	location
-3.794035	lock
-3.918973	locked
-3.918973	locker
-3.918973	lodge
-3.918973	loft
-3.617944	log
-3.918973	logged
-3.918973	logic
-3.918973	logical
-3.794035	login
-4.095065	logistics
-3.918973	lonely
-3.396095	long
-3.617944	longer
-3.441852	look
-3.550997	looking
-3.918973	loop
-3.918973	loose
-3.918973	lord
-3.918973	lori
-3.918973	lorry
-3.697125	lose
-4.095065	loser
-3.918973	losing
-3.918973	loss
-3.617944	lost
-3.316913	lot
-3.794035	lots
-3.918973	lottery
-4.095065	lotus
-3.697125	loud
-3.918973	loudly
-3.918973	lounge
-3.918973	lousy
-3.441852	love
-3.918973	lovely
-3.918973	lover
-3.918973	loving
-3.617944	low
-3.697125	lower
-3.918973	loyal
-3.918973	loyalty
-3.794035	luck
-3.918973	luckily
-3.697125	lucky
-3.918973	luggage
-3.918973	lump
-3.617944	lunch
-3.918973	lung
-3.918973	luxury
-3.794035	lying
-3.441852	m
-3.697125	ma
-3.794035	mac
-3.697125	machine
-3.794035	mad
-3.794035	madam
-3.550997	made
-3.918973	magazine
-3.794035	magic
-3.794035	magical
-3.794035	maid
-3.697125	mail
-3.441852	main
-3.794035	mainly
-3.794035	maintain
-3.794035	maintenance
-3.794035	major
-3.918973	majority
-3.396095	make
-3.794035	maker
-3.617944	making
-3.918973	mala
-3.617944	male
-3.697125	mall
-3.441852	man
-3.354702	mana
-3.697125	manage
-3.697125	management
-3.697125	manager
-3.794035	mandarin
-3.918973	manga
-3.918973	mango
-4.095065	mannequin
-3.918973	manner
-3.918973	manual
-3.441852	many
-3.794035	map
-3.918973	marathon
-3.918973	marble
-3.697125	march
-3.918973	maria
-3.794035	marina
-3.918973	marine
-3.697125	mark
-3.918973	marker
-3.617944	market
-3.794035	marketing
-3.918973	marking
-3.918973	maroon
-3.617944	marriage
-3.617944	married
-3.794035	marry
-3.918973	mart
-3.918973	martial
-3.918973	martin
-3.794035	marvel
-3.918973	mary
-3.918973	mas
-3.441852	masa
-3.918973	masjid
-3.794035	mask
-3.918973	mass
-3.794035	massage
-3.697125	master
-3.794035	mat
-3.697125	match
-3.794035	matching
-3.794035	mate
-3.794035	material
-4.095065	materialistic
-3.697125	maternity
-3.697125	math
-3.918973	mathematics
-3.617944	matter
-3.918973	mature
-3.918973	maturing
-3.918973	maturity
-3.794035	mau
-3.794035	maximum
-3.918973	maxwell
-3.441852	may
-3.316913	maybe
-4.095065	maze
-3.191975	me
-3.617944	meal
-3.282151	mean
-3.697125	meaning
-3.794035	meaningful
-3.794035	meaningless
-3.794035	meant
-3.918973	meanwhile
-3.918973	measure
-3.697125	meat
-4.095065	mechanical
-3.697125	media
-3.918973	medic
-3.697125	medical
-3.918973	medication
-3.794035	medicine
-3.918973	meditation
-3.918973	medium
-3.550997	meet
-3.697125	meeting
-3.918973	melody
-3.918973	melt
-3.918973	mem
-3.697125	member
-3.918973	membership
-3.697125	memorable
-3.918973	memorize
-3.697125	memory
-3.697125	men
-3.918973	meng
-3.794035	mental
-3.918973	mentality
-3.918973	mentally
-3.697125	mention
-3.918973	mentor
-3.697125	menu
-3.918973	mercy
-3.918973	mere
-3.918973	meriah
-3.918973	merit
-3.918973	merry
-3.918973	mess
-3.617944	message
-3.918973	messenger
-3.918973	messy
-3.697125	met
-3.794035	metal
-3.794035	meter
-3.918973	method
-3.794035	mi
-4.095065	mian
-4.095065	mice
-3.918973	micro
-3.918973	microphone
-3.697125	mid
-3.617944	middle
-3.794035	midnight
-3.550997	might
-3.918973	migrate
-3.918973	mike
-3.918973	mild
-3.918973	mile
-3.918973	military
-3.697125	milk
-4.095065	miller
-3.617944	million
-3.918973	millionaire
-3.918973	millions
-3.697125	milo
-3.918973	min
-3.493005	mind
-3.918973	minded
-3.396095	mine
-3.918973	ming
-3.918973	minibus
-3.794035	minimum
-3.918973	minister
-3.794035	ministry
-3.794035	minor
-3.918973	minority
-3.918973	mint
-3.794035	minus
-3.617944	minute
-3.918973	miracle
-3.794035	mirror
-3.918973	mismatch
-3.550997	miss
-3.697125	missing
-3.918973	mission
-3.794035	mistake
-4.095065	mistaken
-3.697125	mister
-3.697125	mix
-3.918973	mixed
-3.918973	mixture
-3.918973	mo
-3.794035	mobile
-3.918973	modal
-3.794035	mode
-3.794035	model
-3.794035	modern
-4.095065	modify
-3.794035	module
-3.493005	moment
-3.918973	mommy
-3.396095	money
-3.794035	monitor
-3.794035	monkey
-3.918973	monster
-3.493005	month
-3.794035	monthly
-3.794035	mood
-3.794035	moon
-3.918973	moonlight
-3.918973	mop
-3.794035	moral
-3.316913	more
-3.918973	morgan
-3.493005	morning
-3.918973	morris
-3.918973	mosque
-4.095065	mosquito
-3.396095	most
-3.697125	mostly
-3.550997	mother
-4.095065	motherland
-3.918973	motion
-3.918973	motivate
-3.918973	motivation
-3.697125	motor
-3.918973	motorcycle
-3.794035	motto
-3.918973	mount
-3.794035	mountain
-3.918973	mouse
-3.697125	mouth
-3.550997	move
-3.794035	movement
-4.095065	mover
-3.493005	movie
-3.617944	moving
-3.794035	mu
-3.354702	much
-3.918973	mud
-3.918973	muffin
-4.095065	mug
-3.918973	multiple
-3.918973	multiply
-3.550997	mum
-3.794035	mummy
-3.918973	murder
-3.794035	murid
-3.918973	muscle
-3.794035	museum
-3.918973	mushroom
-3.550997	music
-3.794035	musical
-3.918973	musician
-3.441852	must
-3.918973	mustard
-3.918973	mutton
-3.918973	mutual
-3.165646	my
-3.550997	myself
-3.918973	mystery
-3.493005	n
-3.794035	na
-3.918973	nag
-3.617944	naik
-3.918973	nail
-3.282151	nak
-3.918973	naked
-3.396095	name
-3.794035	nana
-3.918973	nanny
-3.918973	nap
-3.493005	nasi
-3.918973	nasty
-3.918973	nation
-3.697125	national
-4.095065	nationality
-3.918973	native
-3.697125	natural
-3.918973	naturally
-3.697125	nature
-3.918973	naughty
-4.095065	ne
-3.550997	near
-3.697125	nearby
-3.794035	nearest
-3.918973	nearly
-4.095065	neat
-3.918973	necessarily
-3.794035	necessary
-4.095065	necessity
-3.918973	neck
-3.918973	necklace
-3.316913	need
-4.095065	needle
-3.697125	needs
-3.794035	negative
-3.918973	neighbor
-3.794035	neighborhood
-3.918973	neither
-3.918973	nephew
-3.918973	nervous
-4.095065	nest
-3.697125	net
-3.918973	netball
-3.794035	network
-3.918973	neutral
-3.354702	never
-3.441852	new
-3.697125	news
-3.794035	newspaper
-3.918973	newton
-3.354702	next
-3.316913	ni
-3.396095	nice
-3.918973	nicely
-3.918973	nick
-3.794035	nickname
-3.918973	niece
-3.550997	night
-3.918973	nightmare
-3.918973	nights
-3.354702	nine
-3.697125	nineteen
-3.617944	ninety
-3.918973	ninth
-3.165646	no
-4.095065	noble
-3.617944	nobody
-3.794035	noise
-3.794035	noisy
-3.918973	nominal
-3.697125	non
-3.794035	none
-3.794035	nonsense
-3.794035	noodle
-3.794035	nope
-3.794035	nor
-3.918973	norm
-3.550997	normal
-3.617944	normally
-3.697125	north
-3.918973	northern
-3.794035	nose
-3.165646	not
-3.697125	note
-3.918973	noted
-3.493005	nothing
-3.697125	notice
-3.918973	notification
-3.918973	notify
-3.918973	notional
-3.918973	noun
-3.918973	novel
-3.918973	novice
-3.282151	now
-3.617944	nowadays
-3.918973	nowhere
-3.918973	nugget
-3.918973	numb
-3.354702	number
-4.095065	numbness
-3.918973	nun
-3.794035	nurse
-3.918973	nursery
-3.794035	nursing
-3.918973	nut
-3.918973	nutrition
-3.441852	o
-3.697125	object
-3.918973	objective
-4.095065	observation
-3.918973	observe
-3.918973	obtain
-3.794035	obvious
-3.697125	obviously
-3.918973	occasion
-4.095065	occasionally
-3.794035	ocean
-4.095065	octopus
-3.918973	odd
-3.117341	of
-3.493005	off
-3.617944	offer
-3.918973	offering
-3.550997	office
-3.550997	officer
-3.918973	official
-3.918973	offshore
-3.697125	often
-3.165646	oh
-3.697125	oil
-3.918973	oily
-3.441852	old
-3.918973	olden
-3.697125	older
-3.918973	olive
-3.918973	omelette
-3.191975	on
-3.493005	once
-3.140822	one
-4.095065	ongoing
-3.918973	onion
-3.316913	only
-3.794035	onto
-3.918973	onwards
-3.918973	opah
-3.493005	open
-3.794035	opening
-3.918973	opera
-3.918973	operate
-3.918973	operating
-3.918973	operation
-3.697125	operator
-3.794035	opinion
-3.794035	opportunity
-3.697125	opposite
-4.095065	opt
-3.794035	option
-3.220003	or
-3.918973	oral
-3.282151	orang
-3.617944	orange
-3.697125	orchard
-3.918973	orchestra
-3.550997	order
-3.918973	ordered
-3.918973	ordinary
-3.918973	organ
-3.918973	organic
-3.918973	organization
-3.918973	organize
-3.918973	orientation
-3.794035	origin
-3.697125	original
-3.354702	other
-3.794035	otherwise
-4.095065	ouch
-3.396095	our
-3.794035	ours
-3.918973	ourself
-3.794035	ourselves
-3.316913	out
-3.918973	outbreak
-3.918973	outcome
-4.095065	outdated
-3.918973	outdoor
-4.095065	outdoors
-3.918973	outer
-3.918973	outfit
-3.918973	outgoing
-3.918973	outing
-3.794035	outlet
-3.918973	outline
-3.918973	outlook
-3.918973	output
-3.550997	outside
-3.918973	outstanding
-3.918973	oven
-3.441852	over
-3.794035	overall
-3.918973	overcome
-3.918973	overlap
-3.918973	overload
-3.918973	overnight
-3.918973	oversea
-3.617944	overseas
-3.918973	overtime
-3.918973	overweight
-3.918973	owe
-3.493005	own
-3.794035	owner
-3.794035	oxygen
-3.918973	oyster
-3.441852	p
-3.794035	pa
-3.918973	pace
-3.918973	pacific
-3.794035	pack
-3.794035	package
-3.918973	packet
-3.697125	pad
-3.697125	page
-3.918973	pail
-3.617944	pain
-3.794035	painful
-3.794035	paint
-3.918973	painting
-4.095065	paip
-3.794035	pair
-3.918973	palace
-3.918973	pale
-3.550997	paling
-3.918973	palm
-4.095065	pam
-4.095065	pampered
-3.918973	pan
-3.918973	panama
-3.794035	pancake
-3.794035	panda
-3.918973	pandan
-3.794035	panel
-3.918973	pang
-3.918973	panic
-3.918973	pant
-3.617944	pants
-3.918973	papa
-3.617944	paper
-3.918973	par
-3.918973	para
-3.918973	parade
-3.918973	paradise
-4.095065	parcel
-3.918973	pardon
-3.697125	parent
-3.918973	parental
-3.617944	park
-3.794035	parking
-3.441852	part
-4.095065	partially
-3.794035	participate
-3.697125	particular
-3.918973	particularly
-4.095065	partly
-3.617944	partner
-3.617944	party
-3.918973	pasang
-3.550997	pass
-3.918973	passenger
-3.794035	passing
-3.794035	passion
-3.918973	passionate
-3.918973	passive
-3.697125	passport
-3.918973	password
-3.617944	past
-3.794035	paste
-3.918973	pat
-3.918973	patch
-3.794035	paternity
-3.794035	path
-4.095065	pathetic
-3.794035	patience
-3.550997	patient
-3.794035	pattern
-4.095065	pau
-3.918973	pause
-3.918973	pavement
-3.918973	pavilion
-3.493005	pay
-3.697125	paying
-3.617944	payment
-3.918973	pea
-3.794035	peace
-3.918973	peaceful
-3.794035	peach
-3.794035	peak
-3.918973	peanut
-3.794035	pear
-3.918973	pearl
-3.918973	pee
-3.918973	peek
-3.918973	peel
-3.918973	peer
-3.918973	peeve
-3.794035	pen
-3.918973	penalty
-3.697125	penang
-3.918973	pencil
-3.918973	pending
-3.918973	penguin
-4.095065	penny
-3.316913	people
-3.794035	pepper
-3.617944	per
-3.550997	percent
-3.918973	percentage
-3.918973	perception
-3.697125	perfect
-3.918973	perfectly
-3.794035	perform
-3.794035	performance
-3.918973	perfume
-3.794035	perhaps
-3.617944	period
-3.918973	permanent
-3.918973	permit
-3.918973	perpetual
-3.396095	person
-3.550997	personal
-3.794035	personality
-3.794035	personally
-3.794035	perspective
-3.918973	pertaining
-4.095065	pest
-3.617944	pet
-3.918973	peter
-3.794035	petrol
-3.918973	petty
-3.697125	pharmacy
-3.918973	phase
-3.918973	philosophy
-3.493005	phone
-3.697125	photo
-3.918973	photocopy
-4.095065	photographer
-3.918973	photography
-3.697125	phrase
-3.697125	physical
-3.918973	physically
-3.794035	physics
-3.794035	pi
-3.794035	piano
-3.617944	pick
-3.918973	picked
-3.794035	picnic
-3.550997	picture
-3.697125	pie
-3.697125	piece
-3.794035	pig
-3.918973	pigeon
-3.918973	pile
-3.918973	pill
-3.918973	pillow
-3.794035	pilot
-4.095065	pimple
-3.794035	pin
-3.794035	pinang
-4.095065	pine
-3.918973	pineapple
-3.918973	ping
-3.550997	pink
-3.918973	pinkish
-3.794035	pioneer
-3.918973	pipe
-3.794035	pisang
-4.095065	piss
-3.918973	pit
-3.918973	pitch
-3.918973	pity
-3.697125	pizza
-3.441852	place
-3.794035	plain
-3.550997	plan
-3.794035	plane
-3.918973	planet
-3.918973	plank
-3.794035	plant
-3.794035	plastic
-3.794035	plate
-3.794035	platform
-3.441852	play
-3.697125	player
-3.918973	playful
-3.794035	playground
-3.794035	plaza
-4.095065	pleasant
-3.441852	please
-3.918973	plenty
-3.918973	plot
-3.918973	pluck
-3.918973	plug
-3.918973	plum
-3.493005	plus
-4.095065	pneumonia
-3.918973	po
-3.794035	pocket
-3.396095	point
-4.095065	pointed
-3.918973	pointer
-3.794035	pointing
-4.095065	poison
-3.918973	poke
-4.095065	poker
-3.918973	polar
-3.794035	pole
-3.697125	police
-3.794035	policy
-3.794035	polis
-3.918973	polish
-4.095065	polite
-3.918973	political
-3.794035	politics
-3.918973	polo
-3.617944	poly
-3.918973	polyclinic
-3.918973	polytechnic
-3.918973	pon
-3.918973	pond
-3.918973	pong
-3.697125	pool
-4.095065	poop
-3.697125	poor
-3.697125	pop
-3.794035	popcorn
-3.697125	popular
-3.918973	population
-3.794035	pork
-3.794035	porridge
-3.794035	port
-3.918973	portable
-3.794035	portal
-3.697125	portfolio
-3.794035	portion
-3.794035	pose
-3.697125	position
-3.697125	positive
-3.794035	possession
-3.918973	possibility
-3.617944	possible
-3.918973	possibly
-3.617944	post
-3.697125	postal
-3.918973	posted
-3.794035	poster
-3.918973	posting
-3.794035	pot
-3.697125	potato
-3.794035	potatoes
-3.918973	potential
-3.794035	potong
-3.918973	potter
-3.918973	pound
-3.918973	pour
-3.794035	powder
-3.617944	power
-3.918973	powerful
-3.794035	practical
-3.918973	practically
-3.794035	practice
-4.095065	praise
-3.918973	pram
-3.918973	prank
-3.794035	prawn
-3.794035	pray
-3.918973	prayer
-4.095065	praying
-3.918973	precious
-3.918973	precisely
-3.918973	predict
-3.617944	prefer
-3.918973	preference
-3.918973	preferred
-3.918973	pregnant
-3.918973	premium
-3.918973	preparation
-3.697125	prepare
-3.794035	prepared
-3.794035	present
-3.794035	presentation
-3.918973	preserve
-3.918973	president
-3.697125	press
-4.095065	pressing
-3.697125	pressure
-3.918973	pretend
-3.550997	pretty
-3.794035	prevent
-3.697125	previous
-3.697125	previously
-3.550997	price
-3.918973	pride
-3.550997	primary
-3.918973	prime
-3.918973	prince
-3.918973	princess
-3.918973	principal
-3.918973	principle
-3.794035	print
-4.095065	printer
-3.918973	prior
-3.918973	priority
-3.794035	prison
-3.918973	privacy
-3.697125	private
-3.918973	privilege
-3.918973	prize
-3.697125	pro
-3.918973	probability
-3.493005	probably
-3.493005	problem
-3.794035	procedure
-3.617944	proceed
-3.697125	process
-3.918973	procrastinate
-3.918973	procrastinating
-3.794035	produce
-3.918973	producer
-3.697125	product
-3.794035	production
-3.918973	productive
-3.918973	prof
-3.918973	profession
-3.697125	professional
-3.794035	professor
-3.918973	profile
-3.918973	profit
-3.697125	program
-3.794035	progress
-3.617944	project
-3.918973	promise
-3.794035	promote
-3.918973	promoter
-3.794035	promotion
-3.918973	prompt
-3.794035	pronounce
-4.095065	pronunciation
-3.918973	proof
-3.918973	proofread
-3.697125	proper
-3.697125	properly
-3.794035	property
-3.794035	proposal
-3.918973	propose
-4.095065	props
-3.918973	prospectus
-3.918973	protect
-3.918973	protection
-3.918973	protein
-4.095065	protocol
-3.918973	prove
-3.697125	provide
-3.794035	provided
-3.918973	provider
-4.095065	providing
-3.794035	provoking
-3.918973	psychology
-3.794035	puan
-3.794035	pub
-3.617944	public
-3.918973	publish
-3.918973	pudding
-4.095065	puddle
-3.918973	puff
-4.095065	puke
-3.697125	pull
-3.918973	pulse
-4.095065	puma
-3.918973	pump
-3.918973	pumpkin
-3.316913	pun
-3.918973	punch
-3.918973	puppy
-3.794035	purchase
-3.794035	pure
-3.918973	purely
-3.697125	purple
-3.697125	purpose
-3.918973	purposely
-3.918973	pursue
-3.617944	push
-3.794035	pushing
-3.396095	put
-3.550997	q
-4.095065	qualification
-4.095065	qualified
-3.918973	qualify
-3.697125	quality
-3.918973	quantity
-3.918973	quarantine
-3.918973	quarrel
-3.794035	quarter
-3.918973	quay
-3.794035	queen
-3.918973	query
-3.918973	quest
-3.396095	question
-3.617944	queue
-3.794035	quick
-3.794035	quickly
-3.697125	quiet
-3.794035	quit
-3.354702	quite
-3.794035	quiz
-3.794035	quote
-3.493005	r
-3.918973	ra
-3.794035	rabbit
-3.794035	race
-3.918973	racial
-3.918973	racing
-3.918973	racist
-3.918973	rack
-3.918973	racket
-3.697125	radio
-3.918973	raid
-3.697125	rain
-3.918973	rainbow
-3.918973	rainy
-3.794035	raise
-3.918973	raising
-3.918973	raja
-3.794035	rakan
-4.095065	ram
-4.095065	rambutan
-3.794035	ran
-3.697125	random
-3.918973	randomly
-3.794035	range
-3.918973	rank
-3.697125	rap
-4.095065	rapid
-3.794035	rare
-3.918973	rarely
-3.396095	rasa
-3.918973	rata
-3.617944	rate
-3.918973	rated
-3.617944	rather
-3.918973	rating
-3.918973	ratio
-3.794035	raw
-3.918973	ray
-3.617944	raya
-3.794035	re
-3.617944	reach
-3.918973	reaching
-3.794035	react
-3.918973	reaction
-3.493005	read
-3.697125	reading
-3.697125	ready
-3.550997	real
-3.918973	realistic
-3.794035	reality
-3.697125	realize
-3.282151	really
-3.617944	reason
-3.918973	reasonable
-3.918973	rebate
-3.918973	rebel
-3.918973	rebellious
-3.794035	rebus
-3.794035	recall
-3.918973	receipt
-3.617944	receive
-3.617944	received
-3.794035	recent
-3.617944	recently
-3.918973	reception
-3.794035	recess
-3.918973	recheck
-3.794035	recipe
-3.918973	recognition
-3.918973	recognize
-3.697125	recommend
-3.918973	recommendation
-3.918973	reconfirm
-3.697125	record
-3.697125	recording
-3.918973	recover
-3.918973	recruit
-3.918973	rectangle
-3.918973	rectangular
-3.918973	recycle
-3.493005	red
-4.095065	reddish
-3.918973	redeem
-3.918973	redemption
-3.918973	redo
-3.918973	reduce
-3.794035	refer
-3.697125	reference
-3.918973	reflect
-3.918973	reflection
-3.918973	refresh
-3.794035	refund
-3.918973	refuse
-3.617944	regarding
-3.918973	regardless
-3.918973	region
-3.794035	register
-3.794035	registered
-3.918973	registration
-3.794035	regret
-3.794035	regular
-3.918973	regularly
-4.095065	reimburse
-3.918973	reimbursement
-3.794035	reject
-3.918973	rejection
-3.794035	relate
-3.697125	related
-3.918973	relation
-3.697125	relationship
-3.918973	relative
-3.918973	relatively
-3.617944	relax
-3.918973	relaxed
-3.794035	release
-3.794035	relevant
-4.095065	reliable
-3.918973	relief
-3.918973	relieve
-3.794035	religion
-3.918973	religious
-3.918973	relive
-3.918973	rely
-3.918973	remain
-3.441852	remember
-3.794035	remind
-4.095065	reminder
-3.794035	remit
-3.794035	remittance
-3.918973	remix
-3.918973	remote
-3.794035	remove
-3.794035	renew
-3.918973	renewal
-3.918973	renovation
-3.697125	rent
-3.794035	rental
-3.918973	repair
-3.617944	repeat
-3.918973	replace
-3.918973	replacement
-3.697125	reply
-3.697125	report
-3.918973	reporter
-3.918973	represent
-3.918973	republic
-3.918973	reputation
-3.697125	request
-3.794035	require
-3.794035	requirement
-3.918973	rescue
-3.697125	research
-3.918973	reserve
-3.918973	reservoir
-3.918973	reset
-3.794035	resident
-3.918973	resign
-3.794035	resort
-3.918973	resource
-3.794035	respect
-3.794035	respond
-3.794035	response
-3.918973	responsibility
-3.918973	responsible
-4.095065	responsive
-3.617944	rest
-3.697125	restaurant
-3.918973	resting
-4.095065	restriction
-3.697125	result
-3.918973	resume
-3.918973	retail
-3.918973	retain
-3.918973	retarded
-3.918973	retell
-3.918973	retire
-3.918973	retired
-3.918973	retirement
-3.918973	retrieve
-3.918973	retrospect
-3.697125	return
-3.918973	revenue
-3.918973	reverse
-3.794035	review
-3.918973	revise
-3.918973	revision
-3.918973	reward
-3.918973	rhythm
-3.918973	rib
-3.918973	ribbon
-3.550997	rice
-3.697125	rich
-3.918973	rid
-3.697125	ride
-3.918973	rider
-3.794035	ridiculous
-3.918973	riding
-3.191975	right
-3.794035	ring
-4.095065	ringing
-3.918973	rise
-3.617944	risk
-3.918973	risky
-3.794035	river
-3.550997	road
-3.918973	roadside
-3.918973	roast
-4.095065	rob
-4.095065	robin
-3.794035	robot
-3.697125	rock
-3.918973	rod
-3.918973	roger
-3.697125	role
-3.697125	roll
-3.794035	roller
-3.918973	rolling
-3.794035	romance
-3.794035	romantic
-3.697125	roof
-3.550997	room
-3.918973	roomie
-3.918973	roommate
-3.918973	root
-3.918973	rope
-3.794035	rose
-3.918973	rough
-3.697125	roughly
-3.697125	round
-3.918973	route
-3.918973	routine
-3.794035	row
-3.918973	royal
-3.918973	rub
-3.918973	rubber
-3.697125	rubbish
-3.918973	ruby
-3.794035	rude
-4.095065	ruin
-3.794035	rule
-3.918973	ruler
-3.550997	run
-3.918973	runner
-3.697125	running
-3.918973	rupa
-3.918973	rural
-3.794035	rush
-3.697125	rushing
-3.918973	russia
-3.918973	rusty
-3.354702	s
-3.794035	sa
-3.794035	sack
-3.918973	sacrifice
-3.550997	sad
-3.918973	sadly
-3.918973	sadness
-3.794035	safari
-3.697125	safe
-3.794035	safety
-4.095065	saga
-3.441852	said
-4.095065	sailing
-3.918973	saint
-3.918973	sake
-3.794035	salad
-3.697125	salary
-3.697125	sale
-3.794035	salmon
-3.794035	salt
-3.918973	salted
-3.918973	salty
-3.918973	sam
-4.095065	saman
-3.697125	sambal
-3.354702	same
-3.918973	sample
-3.918973	san
-3.697125	sand
-4.095065	sandal
-3.794035	sandwich
-3.918973	sandy
-3.918973	sang
-3.918973	sapa
-3.918973	sarcastic
-4.095065	sari
-3.794035	sat
-3.918973	sate
-3.918973	satisfaction
-3.918973	satisfied
-3.697125	sauce
-3.918973	sausage
-3.617944	save
-3.918973	saved
-3.794035	saving
-3.493005	saw
-3.918973	sawing
-3.249967	say
-3.220003	saya
-3.493005	saying
-3.918973	scale
-3.918973	scam
-3.794035	scan
-3.918973	scar
-3.794035	scare
-3.617944	scary
-3.794035	scenario
-3.794035	scene
-3.918973	scenery
-3.697125	schedule
-3.794035	scheme
-4.095065	scholar
-3.918973	scholarship
-3.396095	school
-3.918973	schooling
-3.617944	science
-3.918973	scientist
-3.918973	scissors
-3.794035	scold
-3.918973	scolding
-3.918973	scoop
-3.918973	scooter
-3.918973	scope
-3.794035	score
-3.918973	scratch
-3.918973	scream
-3.918973	screaming
-3.697125	screen
-3.918973	screw
-3.918973	screwed
-3.918973	script
-3.918973	scroll
-3.918973	scrub
-3.697125	se
-3.697125	sea
-3.918973	seal
-3.697125	search
-3.918973	searching
-3.697125	season
-3.697125	seat
-4.095065	seated
-3.918973	seater
-3.918973	seaweed
-3.697125	sec
-3.493005	second
-3.550997	secondary
-3.918973	secondly
-3.794035	secret
-3.794035	section
-3.918973	sector
-3.918973	secure
-3.697125	security
-3.282151	see
-3.918973	seed
-3.697125	seeing
-3.794035	seek
-3.794035	seem
-3.617944	seen
-3.918973	seesaw
-3.918973	segment
-3.794035	seldom
-3.794035	select
-3.918973	selected
-3.918973	selection
-3.617944	self
-3.918973	selfish
-3.550997	sell
-3.918973	seller
-3.697125	selling
-3.697125	semester
-3.918973	semi
-3.794035	seminar
-3.918973	sen
-3.493005	send
-3.794035	sending
-3.697125	senior
-3.550997	sense
-4.095065	senseless
-3.794035	sensitive
-3.918973	sensor
-3.697125	sent
-3.697125	sentence
-3.794035	sentimental
-3.794035	separate
-3.918973	separately
-3.918973	serai
-3.918973	sergeant
-3.794035	series
-3.617944	serious
-3.697125	seriously
-3.918973	serta
-3.918973	servant
-3.697125	serve
-3.918973	server
-3.550997	service
-3.918973	serving
-3.794035	session
-3.918973	sessions
-3.617944	set
-3.794035	setting
-3.697125	settle
-3.918973	settled
-3.918973	settlement
-3.396095	seven
-3.697125	seventeen
-3.918973	seventh
-3.617944	seventy
-3.918973	several
-3.918973	severe
-3.794035	sex
-3.918973	sexual
-3.918973	sexy
-3.918973	sh
-4.095065	shabby
-3.697125	shack
-3.918973	shade
-3.918973	shadow
-3.918973	shag
-3.794035	shah
-3.794035	shake
-3.918973	shaking
-3.697125	shall
-3.918973	shame
-3.918973	shampoo
-3.794035	shanghai
-3.697125	shape
-3.550997	share
-3.794035	shark
-3.918973	sharp
-3.918973	shave
-3.918973	shaw
-3.249967	she
-3.918973	shed
-3.697125	sheep
-3.794035	sheet
-3.918973	shelf
-3.794035	shell
-3.918973	shellfish
-3.794035	shelter
-3.794035	shi
-3.918973	shield
-3.697125	shift
-3.697125	shine
-3.918973	shining
-3.794035	ship
-3.918973	shipping
-3.617944	shirt
-3.918973	shivering
-3.794035	shock
-3.918973	shocking
-3.697125	shoe
-3.697125	shoot
-3.794035	shooting
-3.493005	shop
-3.493005	shopping
-3.794035	shore
-3.550997	short
-3.918973	shorter
-3.918973	shortly
-3.918973	shortness
-3.794035	shorts
-3.794035	shot
-3.396095	should
-3.918973	shoulder
-3.794035	shout
-3.794035	shouting
-3.918973	shovel
-3.493005	show
-3.794035	shower
-3.794035	showing
-3.918973	shown
-3.918973	shrunk
-3.918973	shuffle
-3.794035	shut
-3.918973	shuttle
-3.794035	shy
-3.794035	si
-3.918973	sial
-3.918973	sibling
-3.697125	sick
-3.918973	sickness
-3.441852	side
-3.918973	sides
-3.794035	sideways
-3.918973	sigh
-3.918973	sight
-3.493005	sign
-3.918973	signal
-3.918973	signature
-3.697125	signboard
-3.918973	significance
-3.794035	significant
-3.918973	silence
-3.918973	silent
-3.697125	silly
-3.794035	silver
-3.697125	similar
-3.918973	similarity
-3.617944	simple
-3.918973	simply
-3.918973	sin
-3.550997	since
-3.550997	sing
-3.794035	singer
-3.794035	singing
-3.617944	single
-3.918973	sink
-3.550997	sir
-3.918973	sis
-3.617944	sister
-3.617944	sit
-3.794035	site
-3.617944	sitting
-3.617944	situation
-3.354702	six
-3.617944	sixteen
-3.794035	sixth
-3.550997	sixty
-3.617944	size
-3.918973	skate
-3.918973	skating
-3.918973	sketch
-3.918973	sketchbook
-3.918973	ski
-3.697125	skill
-3.918973	skim
-3.697125	skin
-3.918973	skinny
-3.697125	skip
-3.794035	skirt
-3.697125	sky
-3.794035	slack
-4.095065	slam
-3.918973	slang
-3.918973	slap
-3.794035	slash
-4.095065	slave
-3.550997	sleep
-3.697125	sleeping
-3.918973	sleepy
-3.794035	sleeve
-4.095065	slender
-3.918973	slept
-3.918973	slice
-3.794035	slide
-3.918973	slight
-3.697125	slightly
-3.918973	slim
-3.918973	slip
-3.918973	slipper
-3.794035	slogan
-3.918973	slope
-3.918973	slot
-3.697125	slow
-3.697125	slowly
-3.493005	small
-3.697125	smaller
-3.697125	smart
-3.918973	smash
-3.794035	smell
-3.918973	smelly
-3.794035	smile
-3.918973	smiling
-3.918973	smith
-3.697125	smoke
-4.095065	smoker
-3.794035	smoking
-3.918973	smooth
-3.794035	snack
-3.794035	snake
-3.918973	snap
-3.918973	sneak
-3.918973	sniffing
-3.794035	snow
-3.073875	so
-3.918973	soap
-3.697125	soccer
-3.550997	social
-4.095065	socialism
-3.697125	society
-3.918973	sociology
-3.794035	sock
-3.918973	sofa
-3.697125	soft
-3.918973	softball
-4.095065	solar
-3.794035	sold
-3.918973	soldier
-3.918973	sole
-3.918973	solemnization
-3.918973	solid
-3.794035	solo
-3.794035	solution
