
\data\
ngram 1=11122
ngram 2=0
ngram 3=0

\1-grams:
-3.902873	</s>
-3.902873	<noise>
-99	<s>
-3.902873	<v-noise>
-3.902873	__Abraham_Solomon
-3.902873	__Admiralty_Greens
-3.902873	__Admiralty_Road
-3.902873	__Admiralty_West
-3.902873	__Ah_Hood_Road
-3.902873	__Aida_Street
-3.902873	__Airline_Road
-3.902873	__Airport_Cargo_Road
-3.902873	__Al_Islamiah
-3.902873	__Al_Islamic
-3.902873	__Alex_Josey
-3.902873	__Alexander_Laurie_Johnston
-3.902873	__Alexandra_Lane
-3.902873	__Alexandra_Road
-3.902873	__Aliman_Hassan
-3.902873	__Aljunied_Avenue
-3.902873	__Aljunied_Crescent
-3.902873	__Aljunied_Hussein
-3.902873	__Aljunied_Neighbourhood
-3.902873	__Aljunied_Road
-3.902873	__Alnwick_Road
-3.902873	__Amasalam_Chetty_Road
-3.902873	__Anak_Bukit
-3.902873	__Anchorvale_Drive
-3.902873	__Anchorvale_Street
-3.902873	__Ang_Mo_Kio
-3.902873	__Ang_Mo_Kio_Street
-3.902873	__Ang_Peng_Tiam
-3.902873	__Angsana_Avenue
-3.902873	__Angsana_Drive
-3.902873	__Ann_Siang_Hill
-3.902873	__Anthony_Road
-3.902873	__Arab_Street
-3.902873	__Arrival_Crescent
-3.902873	__Arts_Link
-3.902873	__Arumugam_Road
-3.902873	__Asia_Pacific
-3.902873	__Asia_Square
-3.902873	__Asimont_Lane
-3.902873	__Attap_Valley_Lane
-3.902873	__Au_Yun_Pak
-3.902873	__Auckland_Road_West
-3.902873	__Australian_International
-3.902873	__Ava_Road
-3.902873	__Avon_Road
-3.902873	__Baker_Street
-3.902873	__Bali_Lane
-3.902873	__Balmoral_Crescent
-3.902873	__Bao_Gong
-3.902873	__Bartley_Road
-3.902873	__Beach_Road
-3.902873	__Beatty_Road
-3.902873	__Bedok_Anchorvale_Crescent
-3.902873	__Bedok_Green
-3.902873	__Bedok_Lighthouse
-3.902873	__Bedok_North
-3.902873	__Bedok_Point
-3.902873	__Bedok_Points
-3.902873	__Bedok_Reservoir
-3.902873	__Bedok_Ria_Crescent
-3.902873	__Bedok_South
-3.902873	__Bedok_View
-3.902873	__Beeh_Low_See
-3.902873	__Begonia_Walk
-3.902873	__Belilios_Lane
-3.902873	__Belmont_Road
-3.902873	__Bernice_Ong
-3.902873	__Bethlehem_Bible_Presbyterian
-3.902873	__Binchang_Rise
-3.902873	__Bishan_Point
-3.902873	__Bishan_Street
-3.902873	__Blackmore_Drive
-3.902873	__Bliss_Hotel
-3.902873	__Blue_Cross
-3.902873	__Blue_Stars
-3.902873	__Bo_Seng_Avenue
-3.902873	__Boarding_House
-3.902873	__Boat_Quay
-3.902873	__Bodmin_Drive
-3.902873	__Bonham_Street
-3.902873	__Boon_Keng
-3.902873	__Boon_Lay
-3.902873	__Boon_Lay_Place
-3.902873	__Boon_Tat_Street
-3.902873	__Boon_Teck_Road
-3.902873	__Borthwick_Drive
-3.902873	__Boundary_Road
-3.902873	__Braddell_Road
-3.902873	__Brani_Drive
-3.902873	__Brani_Marine
-3.902873	__Brani_Way
-3.902873	__Bridport_Avenue
-3.902873	__Bright_Hill
-3.902873	__Bristol_Road
-3.902873	__Buangkok_View
-3.902873	__Bukit_Batok
-3.902873	__Bukit_Batok_Avenue
-3.902873	__Bukit_Batok_Avenue_West
-3.902873	__Bukit_Batok_Central
-3.902873	__Bukit_Batok_Central_Link
-3.902873	__Bukit_Batok_Crescent
-3.902873	__Bukit_Batok_East
-3.902873	__Bukit_Batok_East_Avenue
-3.902873	__Bukit_Batok_Road
-3.902873	__Bukit_Batok_Street
-3.902873	__Bukit_Batok_West
-3.902873	__Bukit_Batok_West_Avenue
-3.902873	__Bukit_Chandu
-3.902873	__Bukit_Ho_Swee_Link
-3.902873	__Bukit_Manis_Road
-3.902873	__Bukit_Merah
-3.902873	__Bukit_Merah_View
-3.902873	__Bukit_Mugliston
-3.902873	__Bukit_Sedap_Road
-3.902873	__Bukit_Teresa_Close
-3.902873	__Bukit_Timah
-3.902873	__Bukit_Timah_Avenue
-3.902873	__Bukit_Timah_Link
-3.902873	__Bukit_Timah_Plaza
-3.902873	__Bukit_Timah_Road
-3.902873	__Bukit_Tinggi_Road
-3.902873	__Burmah_Road
-3.902873	__Burmese_Buddhist
-3.902873	__Bury_Road
-3.902873	__Buyong_Road
-3.902873	__Canberra_View
-3.902873	__Canning_Lane
-3.902873	__Canning_Rise
-3.902873	__Cantonment_Complex
-3.902873	__Carisbrooke_Grove
-3.902873	__Carl_Alexander
-3.902873	__Carlton_Avenue
-3.902873	__Carnation_Drive
-3.902873	__Cashew_Crescent
-3.902873	__Cashew_Road
-3.902873	__Cassia_Crescent
-3.902873	__Ceylon_Road
-3.902873	__Chai_Chee
-3.902873	__Chai_Chee_Drive
-3.902873	__Chai_Chee_Street
-3.902873	__Chan_Chun_Sing
-3.902873	__Chan_Sek_Keong
-3.902873	__Chancery_Lane
-3.902873	__Chang_Ziang
-3.902873	__Changi_Business_Park_Vista
-3.902873	__Changi_Coast
-3.902873	__Changi_East_Drive
-3.902873	__Changi_East_Road
-3.902873	__Changi_South_Lane
-3.902873	__Changi_Village_Road
-3.902873	__Changkat_Changi
-3.902873	__Chatsworth_Road
-3.902873	__Cheang_Hong_Lim_Place
-3.902873	__Cheang_Hong_Lim_Street
-3.902873	__Chencharu_Lane
-3.902873	__Chencharu_Link
-3.902873	__Cheo_Kim_Ban
-3.902873	__Chestnut_Crescent
-3.902873	__Chew_Kheng_Chuan
-3.902873	__Chin_Bee_Road
-3.902873	__Chin_Cheng_Avenue
-3.902873	__Chin_Chew_Street
-3.902873	__Chin_Swee
-3.902873	__China_Street
-3.902873	__Chinatown_Complex
-3.902873	__Chinatown_Hotel
-3.902873	__Chinatown_Point
-3.902873	__Chinese_Garden
-3.902873	__Chinese_Garden_Road
-3.902873	__Choa_Chu_Kang
-3.902873	__Choa_Chu_Kang_Loop
-3.902873	__Choa_Chu_Kang_West
-3.902873	__Chong_Pang
-3.902873	__Chong_Pang_Combined
-3.902873	__Chong_You_Fook_Charles
-3.902873	__Chong_Zheng
-3.902873	__Choon_Guan_Street
-3.902873	__Choor_Singh_Sidhu
-3.902873	__Christalite_Methodist
-3.902873	__Christopher_Henry_Rothwell
-3.902873	__Chu_Siang_Tong
-3.902873	__Chuan_Hoe_Avenue
-3.902873	__Chuan_Walk
-3.902873	__Chulia_Street
-3.902873	__Chwee_Chian_View
-3.902873	__Circular_Road
-3.902873	__Claymore_Road
-3.902873	__Cleantech_View
-3.902873	__Clementi_Street
-3.902873	__Clive_Street
-3.902873	__Clunny_Hill
-3.902873	__Colchester_Grove
-3.902873	__College_Of_Medicine
-3.902873	__Collyer_Quay
-3.902873	__Compassvale_Drive
-3.902873	__Compassvale_Road
-3.902873	__Coney_Island
-3.902873	__Connexis_South
-3.902873	__Constance_Singam
-3.902873	__Cook_Street
-3.902873	__Copeland_Avenue
-3.902873	__Copthorne_King'S
-3.902873	__Corfe_Place
-3.902873	__Corporation_Road
-3.902873	__Countryside_Grove
-3.902873	__Countryside_View
-3.902873	__Court_Road
-3.902873	__Covenant_Community_Methodist
-3.902873	__Craig_Road
-3.902873	__Cranborne_Road
-3.902873	__Creek_Mangrove
-3.902873	__Croucher_Road
-3.902873	__Crowhurst_Drive
-3.902873	__Cuff_Road
-3.902873	__Cuscaden_Walk
-3.902873	__Da_Bo_Gong
-3.902873	__Daffodil_Drive
-3.902873	__Dahan_Road
-3.902873	__Dairy_Farm
-3.902873	__Dairy_Farm_Crescent
-3.902873	__Dalkeith_Road
-3.902873	__Darrell_Ang
-3.902873	__Dawson_North_Spring
-3.902873	__Dedap_Road
-3.902873	__Delta_Avenue
-3.902873	__Depot_Close
-3.902873	__Depot_Walk
-3.902873	__Devan_Nair
-3.902873	__Dimensions_International
-3.902873	__Dinding_Place
-3.902873	__Dock_Road_East
-3.902873	__Dock_Road_West
-3.902873	__Douglas_Hamilton
-3.902873	__Dover_Drive
-3.902873	__Drake_Avenue
-3.902873	__Drake_Lane
-3.902873	__Dunlop_Street
-3.902873	__Duxton_Road
-3.902873	__East_Avenue
-3.902873	__East_Coast_Avenue
-3.902873	__East_Spring
-3.902873	__Eastern_Health_Alliance
-3.902873	__Eau_Thermale_Avene
-3.902873	__Edgware_Road
-3.902873	__Edmund_Blundell
-3.902873	__Edmund_Chen
-3.902873	__Edwin_Browns
-3.902873	__Ee_Teow_Leng_Road
-3.902873	__Elias_Green
-3.902873	__Elias_Park_Avenue
-3.902873	__Ellice_Handy
-3.902873	__Empress_Road
-3.902873	__Eng_Hoon_Street
-3.902873	__Eng_Kong_Road
-3.902873	__Eng_Neo_Avenue
-3.902873	__Ernani_Street
-3.902873	__Esther_Tan
-3.902873	__Eu_Yee_Ming_Richard
-3.902873	__Eunos_Avenue
-3.902873	__Evolution_Garden_Walk
-3.902873	__Faber_Walk
-3.902873	__Fairway_Club
-3.902873	__Fairy_Point_Hill
-3.902873	__Faith_Methodist
-3.902873	__Faith_Sanctuary_Garden_Avenue
-3.902873	__Famous_Amos
-3.902873	__Fan_Yoong_Road
-3.902873	__Farrer_Garden
-3.902873	__Farrer_Park
-3.902873	__Fernvale_Lane
-3.902873	__Fire_Station
-3.902873	__Flint_Street
-3.902873	__Florence_Road
-3.902873	__Flower_Road
-3.902873	__Fo_Shan_Ting
-3.902873	__Foch_Road
-3.902873	__Folkestone_Road
-3.902873	__Fortune_Students
-3.902873	__Fourth_Street
-3.902873	__Francis_Thomas_Drive
-3.902873	__Fuk_Tak_Chi
-3.902873	__Fullerton_Bay
-3.902873	__Fulton_Avenue
-3.902873	__Fusionopolis_Walk
-3.902873	__Gallop_Park
-3.902873	__Gallop_Road
-3.902873	__Gambir_Walk
-3.902873	__Gan_Eng_Seng
-3.902873	__Gateway_Avenue
-3.902873	__Gateway_Inn
-3.902873	__George_Nigel
-3.902873	__Gerald_Crescent
-3.902873	__Geylang_Bahru
-3.902873	__Geylang_Bahru_Lane
-3.902873	__Geylang_Bahru_Terrace
-3.902873	__Geylang_East_Avenue
-3.902873	__Geylang_East_Central
-3.902873	__Geylang_Lorong
-3.902873	__Geylang_Lorong_Labang
-3.902873	__Geylang_Methodist
-3.902873	__Geylang_Methodist_School
-3.902873	__Geylang_Road
-3.902873	__Geylang_Serai
-3.902873	__Geylang_Square
-3.902873	__Geylang_United
-3.902873	__Giant_Spring
-3.902873	__Gibraltar_Crescent
-3.902873	__Gibson_Hill
-3.902873	__Gilstead_Road
-3.902873	__Giok_Hong_Tian
-3.902873	__Goldhill_Place
-3.902873	__Gopeng_Street
-3.902873	__Gordon_Arthur_Ransome
-3.902873	__Grace_Walk
-3.902873	__Great_World
-3.902873	__Green_Kiwi_Backpacker
-3.902873	__Green_Taipei
-3.902873	__Green_Zeng
-3.902873	__Greendale_Rise
-3.902873	__Greenfield_Drive
-3.902873	__Greenridge_Crescent
-3.902873	__Greenwich_Drive
-3.902873	__Grove_Crescent
-3.902873	__Guillemard_Lane
-3.902873	__Guillemard_Road
-3.902873	__Gul_Lane
-3.902873	__Gul_Street
-3.902873	__Guok_Avenue
-3.902873	__Gurkha_Contingent
-3.902873	__Hai_Sing_Crescent
-3.902873	__Haigsville_Drive
-3.902873	__Haji_Lane
-3.902873	__Halifax_Road
-3.902873	__Hamilton_Place
-3.902873	__Hampstead_Garden
-3.902873	__Hang_Chang_Chieh
-3.902873	__Happy_Hotel
-3.902873	__Harlyn_Road
-3.902873	__Harrison_Road
-3.902873	__Havelock_Road
-3.902873	__Hiang_Foo_Siang_Temple
-3.902873	__Hillview_Avenue
-3.902873	__Hilton_International
-3.902873	__Hindhede_Road
-3.902873	__Hindoo_Road
-3.902873	__Ho_Ching_Road
-3.902873	__Ho_Lee_Ling
-3.902873	__Ho_Ling
-3.902873	__Hock_Chuan
-3.902873	__Holland_Grove_Lane
-3.902873	__Holland_Hill
-3.902873	__Holland_Village
-3.902873	__Home_Team_Academy
-3.902873	__Hong_Kah
-3.902873	__Hong_San
-3.902873	__Hospital_Avenue
-3.902873	__Hougang_Avenue
-3.902873	__Hougang_One
-3.902873	__How_Sun_Drive
-3.902873	__How_Sun_Road
-3.902873	__How_Sun_Walk
-3.902873	__Hsu_Tse_Kwang
-3.902873	__Hubert_Hill
-3.902873	__Hume_Avenue
-3.902873	__Hussein_Aljunied
-3.902873	__Hwee_Kuan
-3.902873	__Hythe_Road
-3.902873	__Imbiah_Walk
-3.902873	__Inderjit_Singh
-3.902873	__Inggu_Road
-3.902873	__Institute_Of_Engineer_Singapore
-3.902873	__International_Student_Support
-3.902873	__Ipoh_Lane
-3.902873	__Iqbal_Avenue
-3.902873	__Irving_Place
-3.902873	__Jalan_Anak_Bukit
-3.902873	__Jalan_Azam'S
-3.902873	__Jalan_Baiduri
-3.902873	__Jalan_Bangsawan
-3.902873	__Jalan_Basong
-3.902873	__Jalan_Batu_Ubin
-3.902873	__Jalan_Bena
-3.902873	__Jalan_Berjaya
-3.902873	__Jalan_Berseri
-3.902873	__Jalan_Binja
-3.902873	__Jalan_Binjai
-3.902873	__Jalan_Boon_Lay
-3.902873	__Jalan_Bumbong
-3.902873	__Jalan_Bunga_Rampai
-3.902873	__Jalan_Bungar
-3.902873	__Jalan_Chengkek
-3.902873	__Jalan_Dondang_Sayang
-3.902873	__Jalan_Dua
-3.902873	__Jalan_Dusun
-3.902873	__Jalan_Enam
-3.902873	__Jalan_Gemala
-3.902873	__Jalan_Girang
-3.902873	__Jalan_Greja
-3.902873	__Jalan_Hajijah
-3.902873	__Jalan_Hari_Raya
-3.902873	__Jalan_Jeruju
-3.902873	__Jalan_Jong
-3.902873	__Jalan_Kampong_Chantek
-3.902873	__Jalan_Kampong_Siglap
-3.902873	__Jalan_Kayu_Manis
-3.902873	__Jalan_Kechil
-3.902873	__Jalan_Keli
-3.902873	__Jalan_Kemaman
-3.902873	__Jalan_Keruing
-3.902873	__Jalan_Kesoma
-3.902873	__Jalan_Khairuddin
-3.902873	__Jalan_Klapa
-3.902873	__Jalan_Kledek
-3.902873	__Jalan_Klinik
-3.902873	__Jalan_Kwok_Min
-3.902873	__Jalan_Lana
-3.902873	__Jalan_Langgar_Bedok
-3.902873	__Jalan_Lapang
-3.902873	__Jalan_Layang_Layang
-3.902873	__Jalan_Lembah_Bedok
-3.902873	__Jalan_Lempeng
-3.902873	__Jalan_Lengkok
-3.902873	__Jalan_Lengkok_Sembawang
-3.902873	__Jalan_Limau_Bali
-3.902873	__Jalan_Limau_Nipis
-3.902873	__Jalan_Limau_Purut
-3.902873	__Jalan_Limbok
-3.902873	__Jalan_Mamam
-3.902873	__Jalan_Mangkok
-3.902873	__Jalan_Manis
-3.902873	__Jalan_Mastuli
-3.902873	__Jalan_Membina
-3.902873	__Jalan_Mempurong
-3.902873	__Jalan_Mengkudu
-3.902873	__Jalan_Mesra
-3.902873	__Jalan_Minggu
-3.902873	__Jalan_Minyak
-3.902873	__Jalan_Noordin
-3.902873	__Jalan_Novena
-3.902873	__Jalan_Nuri
-3.902873	__Jalan_Paras
-3.902873	__Jalan_Pari_Kikis
-3.902873	__Jalan_Pelangi
-3.902873	__Jalan_Pelatina
-3.902873	__Jalan_Pelatok
-3.902873	__Jalan_Pelepah
-3.902873	__Jalan_Pelikat
-3.902873	__Jalan_Peradun
-3.902873	__Jalan_Pinang
-3.902873	__Jalan_Puteri
-3.902873	__Jalan_Rajah
-3.902873	__Jalan_Rebana
-3.902873	__Jalan_Remis
-3.902873	__Jalan_Rendang
-3.902873	__Jalan_Rukam
-3.902873	__Jalan_Sabit
-3.902873	__Jalan_Seh_Chuan
-3.902873	__Jalan_Selamat
-3.902873	__Jalan_Selimang
-3.902873	__Jalan_Senang
-3.902873	__Jalan_Sendudok
-3.902873	__Jalan_Senyum
-3.902873	__Jalan_Setia
-3.902873	__Jalan_Shaer
-3.902873	__Jalan_Siap
-3.902873	__Jalan_Simpang_Bedok
-3.902873	__Jalan_Sukachita
-3.902873	__Jalan_Sungei_Poyan
-3.902873	__Jalan_Tan_Tock_Seng
-3.902873	__Jalan_Tanah
-3.902873	__Jalan_Tanah_Rata
-3.902873	__Jalan_Tanjong
-3.902873	__Jalan_Tari_Lilin
-3.902873	__Jalan_Tari_Zapin
-3.902873	__Jalan_Tarum
-3.902873	__Jalan_Tenang
-3.902873	__Jalan_Tenteram
-3.902873	__Jalan_Tepong
-3.902873	__Jalan_Tiga_Ratus
-3.902873	__Jalan_Ulu_Seletar
-3.902873	__Jalan_Ulu_Sembawang
-3.902873	__Jalan_Wajek
-3.902873	__Jalan_Yasin
-3.902873	__Jalan_Zamrud
-3.902873	__Jamaica_Road
-3.902873	__Janet_Lim
-3.902873	__Janil_Puthucheary
-3.902873	__Jervois_Hill
-3.902873	__Ji_Huang_Kok
-3.902873	__Jiak_Chuan_Road
-3.902873	__Joan_Road
-3.902873	__Joanne_Soo
-3.902873	__John_Fearns_Nicolls
-3.902873	__John_Le_Cain
-3.902873	__John_Morrice
-3.902873	__Joo_Avenue
-3.902873	__Joo_Koon_Crescent
-3.902873	__Jula_Juli
-3.902873	__Junction_Nine
-3.902873	__Jupiter_Road
-3.902873	__Jurong_Bird
-3.902873	__Jurong_East_Avenue
-3.902873	__Jurong_Island
-3.902873	__Jurong_Port
-3.902873	__Jurong_West
-3.902873	__Jurong_West_Avenue
-3.902873	__Jurong_West_Central
-3.902873	__Kaki_Bukit
-3.902873	__Kallang_Airport_Drive
-3.902873	__Kampong_Ampat
-3.902873	__Kampong_Arang_Road
-3.902873	__Kampong_Bahru
-3.902873	__Kampong_Bahru_Road
-3.902873	__Kampong_Bugis
-3.902873	__Kampong_Bugis_Crescent
-3.902873	__Kampong_Bukit_Coffee
-3.902873	__Kampong_Chai_Chee
-3.902873	__Kampong_Eunos
-3.902873	__Kampong_Glam
-3.902873	__Kampong_Java
-3.902873	__Kampong_Kapor_Road
-3.902873	__Kampong_Kayu_Road
-3.902873	__Kampong_Kembangan
-3.902873	__Kampong_Sireh
-3.902873	__Kampong_Sungai_Tiga
-3.902873	__Kampong_Ubi
-3.902873	__Kampong_Wak_Hassan
-3.902873	__Kampung_Glam
-3.902873	__Kampung_Melayu
-3.902873	__Katmandu_Road
-3.902873	__Kay_Siang_Road
-3.902873	__Keat_Hong_Link
-3.902873	__Kebun_Baru
-3.902873	__Keck_Seng
-3.902873	__Kee_Seng_Street
-3.902873	__Kee_Sun_Avenue
-3.902873	__Keene_Road
-3.902873	__Keng_Lee_Road
-3.902873	__Kent_Ridge_Crescent
-3.902873	__Kent_Ridge_Drive
-3.902873	__Kent_Road
-3.902873	__Kenya_Crescent
-3.902873	__Keppel_Bay
-3.902873	__Keramat_Road
-3.902873	__Kerong_Walk
-3.902873	__Kew_Avenue
-3.902873	__Kew_Walk
-3.902873	__Khaw_Boon_Wan
-3.902873	__Kian_Teck_Road
-3.902873	__Kiew_Sian_King
-3.902873	__Kim_Chuan_Road
-3.902873	__Kim_Hong
-3.902873	__Kim_Keat
-3.902873	__Kim_Seng
-3.902873	__Kim_Seng_Road
-3.902873	__Kim_Tian_Place
-3.902873	__Kinara_Lane
-3.902873	__Kismis_Road
-3.902873	__Kitchener_Road
-3.902873	__Klang_Road
-3.902873	__Koh_Mui_Hiang
-3.902873	__Koh_Seow_Chuan
-3.902873	__Kouo_Shang_Wei
-3.902873	__Kranji_Commonwealth
-3.902873	__Kranji_Crescent
-3.902873	__Kreta_Ayer
-3.902873	__Kuang_Chee_Tng
-3.902873	__Kwan_Im_Tng
-3.902873	__Kwan_Imm_See
-3.902873	__Kwong_Min_Road
-3.902873	__Kwong_Wai_Siew
-3.902873	__La_Mode
-3.902873	__Lam_Pin_Min
-3.902873	__Lambeth_Walk
-3.902873	__Larkhill_Road
-3.902873	__Lau_Kuo_Kwong_Robert
-3.902873	__Lavender_Street
-3.902873	__Le_Peranakan
-3.902873	__Lee_Boon_Ngan
-3.902873	__Lee_Kong_Chian
-3.902873	__Lee_Kong_Yan
-3.902873	__Lee_Shih_Shiong_Peter
-3.902873	__Lempeng_Drive
-3.902873	__Leng_Chai_Chee
-3.902873	__Lengkok_Angsa
-3.902873	__Lengkok_Lima
-3.902873	__Lengkok_Satu
-3.902873	__Lengkok_Satu_Sago_Street
-3.902873	__Lengkong_Dua
-3.902873	__Lentor_Way
-3.902873	__Leo_Drive
-3.902873	__Lew_Lian_Vale
-3.902873	__Lewis_Road
-3.902873	__Li_Hui_Cheng
-3.902873	__Liane_Road
-3.902873	__Liang_Court
-3.902873	__Liao_Yingru
-3.902873	__Lichi_Avenue
-3.902873	__Lien_Ying_Chow_Drive
-3.902873	__Lilac_Road
-3.902873	__Lilliputt_Indoor_Mini_Golf
-3.902873	__Lily_Avenue
-3.902873	__Lim_Ah_Pin_Road
-3.902873	__Lim_Ah_Woo_Road
-3.902873	__Lim_Chong_Pang
-3.902873	__Lim_Chu_Kang
-3.902873	__Lim_Chu_Kang_Lane
-3.902873	__Lim_Lee
-3.902873	__Lim_Teck_Boo_Road
-3.902873	__Lim_Teck_Kim_Road
-3.902873	__Lim_Tua_Tow_Road
-3.902873	__Limau_Garden
-3.902873	__Lin_Tan
-3.902873	__Little_Road
-3.902873	__Lloyd_Road
-3.902873	__Loh_Lik_Peng
-3.902873	__Lornie_Walk
-3.902873	__Lorong_Abu_Talib
-3.902873	__Lorong_Bachok
-3.902873	__Lorong_Batawi
-3.902873	__Lorong_Buangkok
-3.902873	__Lorong_Gambas
-3.902873	__Lorong_Kembang
-3.902873	__Lorong_Kilat_Pek_Kio
-3.902873	__Lorong_Lew_Lian
-3.902873	__Lorong_Mesu
-3.902873	__Lorong_Pasu
-3.902873	__Lorong_Paya_Lebar
-3.902873	__Lorong_Pendek
-3.902873	__Lorong_Pisang_Asam
-3.902873	__Lorong_Pisang_Batu
-3.902873	__Lorong_Sarina_D'Leedon
-3.902873	__Lorong_Siglap
-3.902873	__Lorong_Sinaran
-3.902873	__Louis_Chen
-3.902873	__Lower_Seletar_Close
-3.902873	__Lower_Seletar_Reservoir
-3.902873	__Loyang_Street
-3.902873	__Lucy_Tan
-3.902873	__Lutheran_Road
-3.902873	__Macalister_Road
-3.902873	__Macpherson_Road
-3.902873	__Macritchie_Reservoir
-3.902873	__Maggie_Teng
-3.902873	__Mah_Bow_Tan
-3.902873	__Management_Development_Institute_Of_Singapore
-3.902873	__Mandai_Tekong
-3.902873	__Mandarin_Gardens
-3.902873	__Manila_Street
-3.902873	__Maple_Avenue
-3.902873	__Margate_Road
-3.902873	__Marina_Bay
-3.902873	__Marina_Bay_Sands
-3.902873	__Marina_One
-3.902873	__Marina_Promenade
-3.902873	__Marina_Way
-3.902873	__Marine_Parade
-3.902873	__Marine_Parade_Road
-3.902873	__Maris_Stella
-3.902873	__Maritime_Square
-3.902873	__Marshall_Lane
-3.902873	__Marsiling_Crescent
-3.902873	__Marsiling_Drive
-3.902873	__Marsiling_Neighbourhood
-3.902873	__Marsiling_Rise
-3.902873	__Marsiling_Road
-3.902873	__Martin_Road
-3.902873	__Masjid_Alkaff
-3.902873	__Mayflower_Way
-3.902873	__Medical_Drive
-3.902873	__Mei_Chin_Road
-3.902873	__Mei_Hwan_Drive
-3.902873	__Meng_Suan_Road
-3.902873	__Meranti_Avenue
-3.902873	__Merlimau_Place
-3.902873	__Meteorological_Services_Singapore
-3.902873	__Methodist_Girls'
-3.902873	__Michelle_Lim
-3.902873	__Middlesex_Road
-3.902873	__Miller_Street
-3.902873	__Miltonia_Link
-3.902873	__Mimosa_Vale
-3.902873	__Monk'S_Hill_Road
-3.902873	__Montreal_Link
-3.902873	__Moonbeam_Drive
-3.902873	__Moonbeam_Walk
-3.902873	__Moral_Welfare
-3.902873	__Moreton_Close
-3.902873	__Morgan_Chua
-3.902873	__Moriah_Bible_Presby
-3.902873	__Mornington_Crescent
-3.902873	__Mount_Faber_Loop
-3.902873	__Mount_Faber_Road
-3.902873	__Movenpick_Heritage
-3.902873	__Muhammadiyah_Welfare
-3.902873	__Mulberry_Avenue
-3.902873	__Muswell_Hill
-3.902873	__My_Saviour'S
-3.902873	__N_Palanivelu
-3.902873	__Nagore_Dargah
-3.902873	__Namly_Rise
-3.902873	__Nan_Chiau
-3.902873	__Nanyang_Avenue
-3.902873	__Nanyang_Girls'
-3.902873	__Nanyang_Poly_Drive
-3.902873	__Nanyang_Valley
-3.902873	__Napier_Road
-3.902873	__Nasi_Goreng
-3.902873	__Natalie_Hennedige
-3.902873	__National_Arts_Council
-3.902873	__National_Equestrian_Centre
-3.902873	__National_Neuroscience_Institute
-3.902873	__National_Neuroscience_Institute_Of_Singapore
-3.902873	__Nativity_Of_The_Blessed_Virgin_Mary_Concord
-3.902873	__Nee_Soon
-3.902873	__Nee_Soon_East
-3.902873	__Neo_Tiew_Lane
-3.902873	__Neo_Tiew_Road
-3.902873	__Nepal_Link
-3.902873	__Newton_Cirus
-3.902873	__Newton_Life
-3.902873	__Nexus_International_School
-3.902873	__Ng_Chee_Meng
-3.902873	__North_Buona_Vista_Drive
-3.902873	__North_Spring
-3.902873	__North_Vista
-3.902873	__North_West
-3.902873	__Northshore_Drive
-3.902873	__Northshore_Link
-3.902873	__Oak_Avenue
-3.902873	__Ocean_Way
-3.902873	__Office_Road
-3.902873	__Ogilvy_Centre
-3.902873	__Old_Birdcage_Walk
-3.902873	__Old_Cathay
-3.902873	__Old_Choa_Chu_Kang_Road
-3.902873	__Old_Hill_Street
-3.902873	__Old_Terminal_Lane
-3.902873	__Old_Upper_Thomson
-3.902873	__Omar_Ali
-3.902873	__Omar_Khayyam_Avenue
-3.902873	__One_Farrer
-3.902873	__One_George_Street
-3.902873	__One_North_Avenue
-3.902873	__One_North_Link
-3.902873	__One_Tree_Hill
-3.902873	__Onitsuka_Tiger
-3.902873	__Onraet_Road
-3.902873	__Orchard_Bel_Air
-3.902873	__Orchard_Point
-3.902873	__Orchard_Spring
-3.902873	__Orchard_Spring_Lane
-3.902873	__Orchard_Turn
-3.902873	__Orchid_Park
-3.902873	__Oriole_Crescent
-3.902873	__Outram_Park
-3.902873	__Oxford_Road
-3.902873	__Palm_Avenue
-3.902873	__Palm_Road
-3.902873	__Pan_Pacific
-3.902873	__Pan_Shou
-3.902873	__Pandan_Avenue
-3.902873	__Pang_Seng_Road
-3.902873	__Park_Avenue
-3.902873	__Parry_Avenue
-3.902873	__Pasir_Panjang_Road
-3.902873	__Pasir_Panjang_View
-3.902873	__Pasir_Ris
-3.902873	__Pasir_Ris_Road
-3.902873	__Pasir_Ris_View
-3.902873	__Pasir_Ris_Way
-3.902873	__Paterson_Road
-3.902873	__Paya_Lebar
-3.902873	__Paya_Lebar_Place
-3.902873	__Paya_Ubi
-3.902873	__Peace_Centre
-3.902873	__Peakville_Avenue
-3.902873	__Peakville_Grove
-3.902873	__Pebble_Lane
-3.902873	__Peck_San_Theng
-3.902873	__Peck_Seah_Street
-3.902873	__Peirce_Hill
-3.902873	__Pemimpin_Drive
-3.902873	__Penang_Road
-3.902873	__Peng_Kang_Avenue
-3.902873	__Peng_Nguan
-3.902873	__Peninsula_Plaza
-3.902873	__Penjuru_Road
-3.902873	__Perahu_Road
-3.902873	__Percival_Road
-3.902873	__Pereira_Road
-3.902873	__Perumal_Govindaswamy
-3.902873	__Perumal_Road
-3.902873	__Ping_Yi
-3.902873	__Platina_Road
-3.902873	__Plaza_Singapura
-3.902873	__Poh_Ern_Shih
-3.902873	__Poh_Huat_Road
-3.902873	__Poh_Jay
-3.902873	__Post_Florence_Road
-3.902873	__Prince_Of_Wales_Road
-3.902873	__Prinsep_Street
-3.902873	__Prome_Road
-3.902873	__Puat_Jit_Buddhist
-3.902873	__Pulau_Ubin
-3.902873	__Punggol_Avenue
-3.902873	__Qing_De_Gong
-3.902873	__Queen_Elizabeth_Walk
-3.902873	__Radin_Mas
-3.902873	__Raffles_Place
-3.902873	__Rahayu_Mahzam
-3.902873	__Rahim_Omar
-3.902873	__Rail_Mall
-3.902873	__Rajabali_Jumabhoy
-3.902873	__Rambutan_Road
-3.902873	__Rasok_Drive
-3.902873	__Rebecca_Chua
-3.902873	__Red_Cross
-3.902873	__Red_Swastika
-3.902873	__Redhill_Road
-3.902873	__Redwood_Grove
-3.902873	__Revival_Centre
-3.902873	__Richard_Eric_Holttum
-3.902873	__Ring_Road
-3.902873	__Rita_Zahara
-3.902873	__River_City
-3.902873	__River_Safari
-3.902873	__River_Valley
-3.902873	__Riverina_Walk
-3.902873	__Rivervale_Plaza
-3.902873	__Robert_Soon
-3.902873	__Robert_V_Chandran_Way
-3.902873	__Robin_Tessensohn
-3.902873	__Robinson_Road
-3.902873	__Rochor_Kongsi
-3.902873	__Rochor_Road
-3.902873	__Rosaline_Chan_Pang
-3.902873	__Ruby_Lane
-3.902873	__Russels_Road
-3.902873	__Safra_Jurong
-3.902873	__Safra_Punggol
-3.902873	__Saint_Helier'S_Avenue
-3.902873	__Saint_Hilda'S
-3.902873	__Saint_James
-3.902873	__Saint_Nicholas_View
-3.902873	__Saint_Paul'S
-3.902873	__Saint_Stephen'S
-3.902873	__Saint_Wilfred_Road
-3.902873	__Saint_Xavier'S
-3.902873	__Saint_Xavier'S_Lane
-3.902873	__Sakra_Road
-3.902873	__Sakya_Tenphel_Ling
-3.902873	__Sam_Kee
-3.902873	__Sandilands_Road
-3.902873	__Science_Park
-3.902873	__Sea_Breeze_Grove
-3.902873	__Seah_Mei_Lin
-3.902873	__Secondary_School
-3.902873	__Segar_Close
-3.902873	__Segar_Kampong_Arang_Road
-3.902873	__Selarang_Road
-3.902873	__Seletar_Close
-3.902873	__Seletar_Club
-3.902873	__Seletar_Club_Road
-3.902873	__Seletar_Court
-3.902873	__Seletar_East
-3.902873	__Seletar_Green_Avenue
-3.902873	__Seletar_Hill
-3.902873	__Seletar_Hill_Drive
-3.902873	__Seletar_Hills_Drive
-3.902873	__Seletar_Link
-3.902873	__Seletar_Lodge_One
-3.902873	__Seletar_North
-3.902873	__Seletar_North_Lane
-3.902873	__Seletar_Satellite
-3.902873	__Seletar_Satellite_Station_Road
-3.902873	__Seletar_South_Road
-3.902873	__Seletar_West
-3.902873	__Seletar_Wests
-3.902873	__Sembawang_Alley
-3.902873	__Sembawang_Avenue
-3.902873	__Sembawang_Berlayer
-3.902873	__Sembawang_Country_Club
-3.902873	__Sembawang_God_Of_Wealth
-3.902873	__Sembawang_Hills_Drive
-3.902873	__Sembawang_Shopping_Centre
-3.902873	__Sembawang_Tamil_Methodist
-3.902873	__Sembawang_Terminal_Avenue
-3.902873	__Sembawang_Terminal_Road
-3.902873	__Sembawang_Vista
-3.902873	__Sembawang_Wharves
-3.902873	__Sembawang_Woodgrove_Avenue
-3.902873	__Sengkang_East_Avenue
-3.902873	__Sengkang_East_Road
-3.902873	__Sengkang_East_Way
-3.902873	__Sennett_Road
-3.902873	__Sentul_Crescent
-3.902873	__Serangoon_Gardens
-3.902873	__Serangoon_North_Avenue
-3.902873	__Serapong_Hill
-3.902873	__Seraya_Avenue
-3.902873	__Sharon_Bible_Presbyterian
-3.902873	__Shelford_Road
-3.902873	__Shipyard_Crescent
-3.902873	__Shopping_Centre
-3.902873	__Shun_Li
-3.902873	__Si_Ling
-3.902873	__Siang_Cho_Keong
-3.902873	__Siglap_Gardens
-3.902873	__Siloso_Beach
-3.902873	__Sim_Choon_Huat
-3.902873	__Sim_Lim_Square
-3.902873	__Sim_Yi_Hui
-3.902873	__Simon_Lane
-3.902873	__Simpang_Bedok
-3.902873	__Simpang_De_Bedok
-3.902873	__Sims_Way
-3.902873	__Sin_Ming
-3.902873	__Sing_Hoe
-3.902873	__Sing_Joo_Walk
-3.902873	__Singapore'S_Mariners'
-3.902873	__Singapore_Art_Museum
-3.902873	__Singapore_Bible
-3.902873	__Singapore_Botanic_Gardens
-3.902873	__Singapore_Cheshire
-3.902873	__Singapore_Conference
-3.902873	__Singapore_Philatelic_Museum
-3.902873	__Singapore_Recreation
-3.902873	__Singapore_Sikh_Education_Foundation
-3.902873	__Singapore_University_Of_Technology_And_Design
-3.902873	__Singapore_Youth_Flying
-3.902873	__Siok_Wan
-3.902873	__Siong_Lim
-3.902873	__Sir_Frank_Swettenham
-3.902873	__Sit_Wah_Road
-3.902873	__Sleepy_Kiwi
-3.902873	__Sloane_Court_Hotel
-3.902873	__Soo_Bin_Chua
-3.902873	__Soo_Chow_Drive
-3.902873	__Soon_Peng_Yam_Yao_Zi
-3.902873	__Soon_Wing_Road
-3.902873	__Sophia_Hull
-3.902873	__South_Buona_Vista_Road
-3.902873	__South_Perimeter_Road
-3.902873	__South_Woodlands_Drive
-3.902873	__Spring_Lighthouse
-3.902873	__Spring_Street
-3.902873	__Springleaf_Avenue
-3.902873	__Springside_View
-3.902873	__Springwood_Close
-3.902873	__Sree_Narayana
-3.902873	__Sri_Murugan_Hill_Temple
-3.902873	__Sri_Siva_Durga
-3.902873	__Sri_Vairavimada_Kaliamman
-3.902873	__Stadium_Crescent
-3.902873	__Stadium_Way
-3.902873	__Stamford_Raffles
-3.902873	__Starlight_Road
-3.902873	__Stephen_Lee
-3.902873	__Stirling_Walk
-3.902873	__Strand_Hotel
-3.902873	__Stratton_Road
-3.902873	__Suffolk_Road
-3.902873	__Sunbeam_Evergreen_Place
-3.902873	__Sundridge_Park_Road
-3.902873	__Sungei_Bedok
-3.902873	__Sungei_Gedong_Road
-3.902873	__Sungei_Road
-3.902873	__Sunny_Ang
-3.902873	__Sunset_Close
-3.902873	__Sunset_Square
-3.902873	__Sunset_Vale
-3.902873	__Suntec_City
-3.902873	__Swiss_Club_Link
-3.902873	__Syed_Jaafar_Albar
-3.902873	__Tagore_Road
-3.902873	__Tai_Hoe
-3.902873	__Tai_Seng
-3.902873	__Tai_Seng_Drive
-3.902873	__Taman_Bedok
-3.902873	__Taman_Jurong
-3.902873	__Taman_Kembangan
-3.902873	__Taman_Warna
-3.902873	__Tamarind_Avenue
-3.902873	__Tamarind_Road
-3.902873	__Tampines_Changkat
-3.902873	__Tan_Boo_Liat
-3.902873	__Tan_Eng_Joo
-3.902873	__Tan_Kim_Cheng_Road
-3.902873	__Tan_Teck_Whye_Avenue
-3.902873	__Tan_Tock_Seng
-3.902873	__Tanah_Merah
-3.902873	__Tanglin_Gate_Road
-3.902873	__Tanglin_Trust
-3.902873	__Tangmere_Road
-3.902873	__Tanjong_Katong
-3.902873	__Tanjong_Penjuru
-3.902873	__Tanya_Chua
-3.902873	__Teban_Garden
-3.902873	__Tebing_Lane
-3.902873	__Teck_Hai_Keng
-3.902873	__Teck_Whye
-3.902873	__Tekong_Highway
-3.902873	__Telok_Blangah_Crescent
-3.902873	__Telok_Blangah_Rise
-3.902873	__Telok_Blangah_Street
-3.902873	__Telok_Kurau
-3.902873	__Tembusu_Drive
-3.902873	__Teng_San_Tian_Hock
-3.902873	__Teng_Tong_Road
-3.902873	__Terang_Bulan_Avenue
-3.902873	__Tew_Chew_Street
-3.902873	__Thong_Bee_Road
-3.902873	__Thong_Kheng
-3.902873	__Tian_Kong
-3.902873	__Tiong_Poh_Avenue
-3.902873	__Tiverton_Lane
-3.902873	__Toa_Payoh
-3.902873	__Toa_Payoh_East
-3.902873	__Toa_Payoh_North
-3.902873	__Toa_Payoh_Rise
-3.902873	__Toh_Tuck_Drive
-3.902873	__Toh_Tuck_Road
-3.902873	__Tokio_Marine
-3.902873	__Topaz_Road
-3.902873	__Tras_Street
-3.902873	__Treetop_Walk
-3.902873	__Trevose_Place
-3.902873	__Tuas_Avenue
-3.902873	__Tuas_Road
-3.902873	__Tuas_Second_Link
-3.902873	__Tuas_Terminal_Road
-3.902873	__Turf_Ciub_Road
-3.902873	__Ubi_Close
-3.902873	__Ubi_Crescent
-3.902873	__Ubi_Link
-3.902873	__Ulu_Sembawang
-3.902873	__Unity_Street
-3.902873	__University_Town
-3.902873	__Upper_Aljunied
-3.902873	__Upper_Aljunied_Link
-3.902873	__Upper_Aljunied_Road
-3.902873	__Upper_Bedok
-3.902873	__Upper_Bedok_Road
-3.902873	__Upper_Bukit_Timah
-3.902873	__Upper_Bukit_Timah_Road
-3.902873	__Upper_Changi_Road
-3.902873	__Upper_Joo_Aljunied_Link
-3.902873	__Upper_Palm_Valley_Road
-3.902873	__Upper_Paya_Lebar_Road
-3.902873	__Upper_Peirce_Reservoir
-3.902873	__Upper_Seletar_Reservoir
-3.902873	__Upper_Serangoon
-3.902873	__Upper_Wilkie_Road
-3.902873	__Vaughan_Road
-3.902873	__Veerasamy_Road
-3.902873	__Verde_Crescent
-3.902873	__Victoria_Park_Road
-3.902873	__Vigilante_Drive
-3.902873	__Vijesh_Ashok_Ghariwala
-3.902873	__Vivien_Quahe
-3.902873	__Vu_Ly_Tee
-3.902873	__Vu_Ly_Tee#1
-3.902873	__Vu_Ly_Tee#2
-3.902873	__Wak_Hassan
-3.902873	__Wak_Hassan_Place
-3.902873	__Wak_Tanjong
-3.902873	__Wallace_Way
-3.902873	__Walter_Woon
-3.902873	__Wan_Tho_Avenue
-3.902873	__Wareham_Road
-3.902873	__Waringin_Walk
-3.902873	__Warwick_Road
-3.902873	__Waseda_Shibuya
-3.902873	__Waterloo_Street
-3.902873	__Watten_Estate_Road
-3.902873	__Wee_Beng_Chong
-3.902873	__Wellington_Circle
-3.902873	__West_Blue_Stars
-3.902873	__West_Perimeter_Road
-3.902873	__West_Spring
-3.902873	__Westwood_Avenue
-3.902873	__Whampoa_East
-3.902873	__Whitchurch_Road
-3.902873	__Whitley_Road
-3.902873	__Wilmonar_Avenue
-3.902873	__Windsor_Park_Hill
-3.902873	__Wishart_Road
-3.902873	__Wittering_Road
-3.902873	__Wong_Chin_Yoke_Road
-3.902873	__Wong_Hock_Boon
-3.902873	__Woodgrove_View
-3.902873	__Woodland_Street
-3.902873	__Woodlands_Galaxy
-3.902873	__Woodleigh_Close
-3.902873	__Xilin_Avenue
-3.902873	__Yan_Hui_Chang
-3.902873	__Yangtze_Building
-3.902873	__Yao_Zi
-3.902873	__Yarwood_Avenue
-3.902873	__Yeoh_Ghim_Seng
-3.902873	__Yew_Tee
-3.902873	__Yew_Tee_Close
-3.902873	__Yew_Tee_Point
-3.902873	__Yip_Cheong_Fun
-3.902873	__Yishun_Central
-3.902873	__Yishun_Street
-3.902873	__Yong_Melvin_Yik_Chye
-3.902873	__York_Place
-3.902873	__Yu_Huang_Zhi_Zun_Temple
-3.902873	__Yuan_Ching
-3.902873	__Yung_Kuang_Road
-3.902873	__Yuva_Bharati
-3.902873	__Yvonne_Ng
-3.902873	__Zainudin_Nordin
-3.902873	__Zhang_Hui
-3.902873	__Zhou_Ying_Nan
-3.902873	__Zion_Bishan_Bible_Presbyterian
-2.610986	a
-3.444235	aa
-4.437986	aba
-4.504933	abalone
-4.379994	abandon
-4.584114	abandoned
-4.328842	abas
-4.681024	abbas
-4.681024	abbreviation
-4.504933	abdomen
-4.437986	abdominal
-4.681024	abide
-3.921356	ability
-3.476904	able
-4.379994	abnormal
-4.805963	aboard
-4.681024	abort
-4.504933	abortion
-2.97133	about
-3.777934	above
-4.584114	abrasion
-4.379994	abroad
-4.584114	absence
-4.504933	absent
-4.328842	absolute
-4.169141	absolutely
-4.328842	absorb
-4.681024	absorbed
-4.805963	absorbing
-4.805963	absorption
-4.283084	abstract
-4.681024	abstraction
-4.584114	absurd
-4.241691	abu
-4.584114	abundant
-4.203903	abuse
-4.805963	abuser
-4.681024	abusive
-4.106993	academic
-4.504933	academically
-4.328842	academy
-4.328842	acara
-4.681024	accelerate
-4.805963	acceleration
-4.078964	accent
-3.85172	accept
-4.169141	acceptable
-4.283084	acceptance
-4.241691	accepted
-3.902873	access
-4.681024	accessibility
-4.283084	accessible
-4.504933	accessory
-3.902873	accident
-4.584114	accidental
-4.078964	accidentally
-4.504933	accommodate
-4.241691	accommodation
-4.283084	accompany
-4.027812	accomplish
-4.437986	accomplished
-4.437986	accomplishment
-4.681024	accord
-3.940661	according
-4.169141	accordingly
-3.291858	account
-4.681024	accountability
-4.681024	accountable
-4.241691	accountancy
-4.379994	accountant
-4.004331	accounting
-4.584114	accredited
-4.379994	accumulate
-4.681024	accumulation
-4.584114	accuracy
-4.203903	accurate
-4.681024	accuse
-4.805963	accustomed
-4.379994	ace
-4.283084	ache
-3.902873	achieve
-3.940661	achievement
-4.681024	aching
-4.437986	acid
-4.283084	acknowledge
-4.504933	acne
-4.437986	acoustic
-4.328842	acquaintance
-4.681024	acquire
-4.681024	acquired
-4.681024	acre
-4.078964	acronym
-3.868111	across
-3.835926	act
-4.027812	acting
-3.791722	action
-4.203903	activate
-4.681024	activation
-4.004331	active
-4.437986	actively
-3.85172	activity
-4.027812	actor
-4.203903	actress
-3.921356	actual
-2.999783	actually
-4.681024	actuarial
-4.584114	acute
-4.078964	ad
-4.203903	adapt
-4.584114	adaptation
-4.681024	adapter
-4.805963	adaptive
-4.504933	adat
-3.639631	add
-4.169141	added
-4.504933	addict
-4.203903	addicted
-4.504933	addiction
-4.169141	addition
-4.027812	additional
-3.419761	address
-4.052635	ade
-4.584114	adjective
-4.136956	adjust
-4.584114	adjustment
-4.584114	administration
-4.504933	administrative
-4.437986	administrator
-4.681024	admirable
-4.379994	admiralty
-4.052635	admire
-4.379994	admission
-4.169141	admit
-4.328842	admitted
-4.504933	adobe
-4.681024	adolescence
-3.868111	adopt
-4.203903	adopted
-4.681024	adopter
-3.620326	adoption
-4.584114	adoptive
-4.584114	adorable
-4.584114	adore
-4.584114	adrenaline
-3.921356	adult
-4.681024	adulthood
-4.052635	advance
-4.283084	advanced
-4.584114	advancement
-4.169141	advantage
-4.078964	adventure
-4.283084	adventurous
-4.805963	adverse
-4.437986	advertise
-4.136956	advertisement
-4.328842	advertising
-3.868111	advice
-4.584114	advisable
-3.921356	advise
-4.379994	advised
-4.504933	adviser
-4.584114	advisor
-4.504933	advisory
-4.584114	advocate
-4.379994	aeon
-4.681024	aerial
-4.805963	aero
-4.283084	aeroplane
-4.584114	aesthetic
-4.805963	aesthetically
-4.805963	aesthetics
-4.379994	affair
-4.004331	affect
-4.136956	affected
-4.584114	affecting
-4.584114	affection
-4.328842	affidavit
-3.960865	afford
-4.078964	affordable
-3.885144	afraid
-4.437986	aft
-3.143205	after
-4.681024	afterlife
-3.575514	afternoon
-4.504933	afterward
-4.078964	afterwards
-3.314601	again
-3.868111	against
-4.027812	agama
-4.136956	agar
-3.592888	age
-4.437986	aged
-4.437986	agen
-3.921356	agency
-4.241691	agenda
-3.940661	agent
-4.805963	aggregate
-4.805963	aggression
-4.078964	aggressive
-4.241691	aging
-3.558808	ago
-4.584114	agony
-3.7033	agree
-4.584114	agreeable
-4.241691	agreed
-4.805963	agreeing
-4.169141	agreement
-4.805963	agricole
-4.805963	agriculture
-2.687588	ah
-4.136956	aha
-3.805963	ahead
-4.504933	ahem
-4.106993	ai
-4.241691	aid
-4.078964	aim
-4.379994	aiming
-3.431826	air
-4.504933	aircraft
-4.328842	airplane
-3.902873	airport
-4.805963	airway
-4.805963	airy
-4.681024	aisle
-3.820686	ajar
-4.136956	ak
-2.967114	aku
-4.169141	al
-3.940661	ala
-4.379994	alan
-3.902873	alarm
-4.681024	alarming
-4.681024	alas
-4.078964	album
-4.106993	alcohol
-4.328842	alcoholic
-3.6703	alert
-4.805963	algae
-4.584114	algebra
-4.283084	algorithm
-4.504933	alias
-4.283084	alien
-4.328842	alif
-4.504933	alight
-4.504933	align
-4.584114	alignment
-4.504933	alike
-3.921356	alive
-2.946624	all
-4.283084	allergic
-4.437986	allergy
-4.379994	alley
-4.584114	alliance
-4.681024	alligator
-4.437986	allocate
-4.504933	allocation
-3.85172	allow
-4.106993	allowance
-4.805963	ally
-4.437986	almond
-3.649616	almost
-4.504933	aloe
-3.649616	alone
-3.7033	along
-4.805963	alongside
-4.203903	alpha
-4.283084	alphabet
-3.052635	already
-3.30536	alright
-2.969217	also
-4.283084	alter
-4.681024	alteration
-4.241691	alternate
-4.169141	alternative
-4.437986	alternatively
-3.805963	although
-4.681024	altitude
-4.283084	altogether
-4.504933	aluminium
-4.437986	alumni
-3.261895	always
-3.319296	am
-4.379994	amar
-4.504933	amateur
-4.504933	amaze
-4.437986	amazed
-3.868111	amazing
-4.584114	ambassador
-4.437986	amber
-4.504933	ambience
-4.584114	ambiguous
-4.504933	ambition
-4.283084	ambitious
-3.413852	ambulance
-4.584114	amelia
-4.681024	amen
-4.437986	amend
-4.681024	amendment
-4.805963	amil
-4.283084	amin
-4.136956	amir
-4.078964	among
-4.681024	amongst
-3.534896	amount
-4.681024	ample
-4.805963	amplitude
-4.681024	amputation
-4.681024	amuse
-4.805963	amused
-4.437986	amusement
-4.805963	amusing
-4.203903	amy
-3.257778	an
-4.379994	ana
-4.681024	analogy
-4.283084	analyse
-4.241691	analysis
-4.504933	analyst
-4.681024	analytical
-4.681024	analytics
-4.437986	analyze
-4.681024	anatomy
-4.681024	ancestor
-4.379994	anchor
-4.328842	ancient
-2.645594	and
-3.714882	anda
-4.169141	android
-4.052635	angel
-4.681024	angeline
-4.328842	anger
-4.203903	angle
-3.76457	angry
-4.805963	angst
-4.805963	ani
-3.726782	animal
-4.584114	animated
-4.203903	animation
-4.004331	anime
-4.584114	anis
-4.203903	ankle
-4.283084	ann
-4.241691	anna
-4.283084	anniversary
-4.437986	announce
-4.379994	announcement
-4.437986	annoy
-3.885144	annoying
-4.203903	annual
-4.584114	annually
-4.504933	anonymous
-3.314601	another
-3.457009	answer
-4.241691	ant
-4.504933	antarctica
-4.379994	antenna
-4.584114	anthem
-4.136956	anti
-4.584114	antibiotic
-4.805963	antibody
-4.584114	antic
-4.805963	anticipate
-4.328842	antique
-4.328842	anxiety
-4.437986	anxious
-3.17928	any
-3.885144	anybody
-3.982054	anyhow
-3.739016	anyone
-3.274484	anything
-3.519656	anyway
-4.004331	anyways
-3.820686	anywhere
-2.960865	apa
-3.960865	apart
-4.078964	apartment
-4.805963	apathy
-3.960865	ape
-4.584114	apex
-4.681024	apocalypse
-4.328842	apologize
-4.504933	apology
-4.504933	apostrophe
-4.805963	apparatus
-4.681024	apparent
-3.791722	apparently
-4.052635	appeal
-4.584114	appealing
-4.106993	appear
-4.379994	appearance
-4.584114	appendix
-4.437986	appetite
-4.584114	appetizer
-4.681024	applause
-3.76457	apple
-4.437986	appliance
-4.241691	applicable
-4.203903	applicant
-3.601843	application
-3.960865	applied
-3.519656	apply
-4.379994	appoint
-3.820686	appointment
-4.805963	appraisal
-3.868111	appreciate
-4.504933	appreciation
-4.681024	appreciative
-4.004331	approach
-4.584114	approachable
-4.584114	approaching
-4.328842	appropriate
-4.805963	appropriately
-4.004331	approval
-4.052635	approve
-4.681024	approximate
-4.328842	approximately
-4.283084	apron
-4.681024	apt
-4.681024	aqua
-4.805963	aquaria
-4.136956	aquarium
-3.714882	ar
-4.504933	arc
-4.328842	arcade
-4.584114	arch
-4.504933	archery
-4.379994	architect
-4.241691	architecture
-4.681024	archive
-4.584114	arctic
-2.893918	are
-3.519656	area
-4.681024	arena
-4.004331	argue
-3.982054	argument
-4.681024	ariel
-4.805963	arise
-4.681024	arista
-3.940661	arm
-4.805963	armed
-4.805963	armor
-4.584114	armpit
-4.681024	armrest
-3.960865	arms
-3.805963	army
-4.504933	aroma
-3.353665	around
-4.004331	arrange
-4.241691	arrangement
-4.437986	arrest
-4.328842	arrival
-4.078964	arrive
-4.328842	arrogant
-4.027812	arrow
-4.241691	arsenal
-3.777934	art
-4.681024	arthritis
-4.078964	article
-4.328842	artificial
-3.960865	artist
-4.584114	artiste
-4.437986	artistic
-4.681024	arty
-3.018266	as
-4.584114	ash
-4.681024	ashamed
-4.504933	ashes
-4.805963	ashraf
-4.078964	aside
-3.193179	ask
-4.328842	askar
-4.106993	asleep
-3.960865	aspect
-4.283084	aspiration
-4.504933	aspire
-4.805963	aspirin
-4.136956	ass
-4.504933	assemble
-4.379994	assembly
-4.805963	assert
-4.805963	assertive
-4.203903	assess
-4.805963	assessed
-4.203903	assessment
-4.681024	assessor
-4.283084	asset
-4.283084	assets
-4.052635	assign
-4.283084	assigned
-3.960865	assignment
-3.584114	assist
-3.791722	assistance
-3.940661	assistant
-4.379994	associate
-4.504933	associated
-4.437986	association
-3.982054	assume
-4.681024	assumed
-4.004331	assuming
-4.379994	assumption
-4.504933	assurance
-4.681024	assure
-4.681024	assured
-4.584114	asterisk
-4.078964	asthma
-4.805963	astonish
-4.504933	astronaut
-4.681024	astronomy
-4.681024	asylum
-2.950646	at
-3.85172	ate
-4.584114	athlete
-4.584114	athletic
-4.805963	athletics
-4.681024	atlantic
-4.805963	atlas
-4.328842	atmosphere
-4.504933	atom
-4.504933	atomic
-4.136956	attach
-4.078964	attached
-4.136956	attachment
-3.960865	attack
-4.681024	attacker
-4.584114	attain
-4.328842	attempt
-3.902873	attend
-4.283084	attendance
-4.805963	attendant
-3.940661	attention
-4.584114	attentive
-4.805963	attic
-4.379994	attire
-4.052635	attitude
-4.584114	attorney
-4.203903	attract
-3.960865	attraction
-4.203903	attractive
-4.169141	attribute
-4.681024	auction
-4.241691	audience
-4.241691	audio
-4.203903	audit
-4.241691	audition
-4.584114	auditor
-3.76457	august
-4.027812	aunt
-3.885144	auntie
-4.584114	aura
-4.681024	aurora
-4.203903	authentic
-4.805963	authenticity
-4.283084	author
-4.681024	authoritarian
-4.241691	authority
-4.504933	authorization
-4.805963	authorize
-4.681024	authorized
-4.504933	autism
-4.437986	autistic
-3.982054	auto
-4.805963	autobiography
-4.681024	autograph
-4.241691	automatic
-4.106993	automatically
-4.805963	automotive
-4.241691	autumn
-4.504933	availability
-3.902873	available
-4.681024	ave
-4.437986	avenger
-3.7033	avenue
-3.960865	average
-4.584114	aviation
-4.681024	avid
-4.437986	avocado
-4.027812	avoid
-4.504933	aw
-4.681024	awa
-4.027812	awake
-4.681024	awaken
-4.805963	awakening
-4.241691	award
-4.027812	aware
-4.328842	awareness
-4.681024	awat
-3.490692	away
-3.940661	awesome
-4.504933	awful
-4.681024	awfully
-3.960865	awhile
-3.791722	awkward
-4.805963	awkwardly
-4.584114	axe
-4.437986	ay
-3.601843	ayah
-4.203903	aye
-4.681024	ayu
-3.324043	b
-4.027812	ba
-4.328842	baba
-4.241691	babe
-3.374599	baby
-4.437986	bachelor
-3.159232	back
-4.504933	backache
-4.805963	backdrop
-4.681024	backed
-3.85172	background
-4.681024	backing
-4.805963	backlash
-4.504933	backside
-4.681024	backstage
-4.283084	backup
-4.437986	backward
-4.379994	backwards
-4.379994	bacon
-4.328842	bacteria
-3.328841	bad
-3.777934	badan
-4.283084	badge
-4.805963	badger
-4.078964	badly
-3.76457	badminton
-4.584114	bae
-3.692019	bag
-4.681024	bagel
-4.437986	baggage
-4.584114	baggy
-4.584114	baguette
-4.241691	bah
-3.820686	bahan
-4.681024	bahar
-4.169141	baht
-4.805963	bail
-4.504933	bait
-4.437986	baka
-4.379994	bakal
-3.960865	bake
-4.283084	baked
-4.437986	baker
-4.241691	bakery
-4.052635	baking
-4.584114	baku
-4.584114	balai
-3.739016	balance
-4.328842	balanced
-4.504933	balancing
-4.379994	balas
-4.283084	balcony
-4.437986	bald
-4.027812	bali
-3.584114	ball
-4.681024	baller
-4.328842	ballet
-4.169141	balloon
-4.504933	ballot
-4.681024	balloting
-4.584114	ballroom
-4.681024	balm
-4.504933	balut
-4.328842	bamboo
-4.169141	ban
-3.940661	banana
-3.76457	band
-4.805963	banda
-4.437986	bandage
-3.885144	bandar
-4.379994	banding
-4.004331	bang
-4.584114	banging
-3.960865	bangkok
-4.805963	bangle
-3.364006	bank
-4.136956	banker
-3.960865	banking
-4.241691	bankrupt
-4.681024	bankruptcy
-3.960865	banner
-4.283084	banquet
-4.681024	banyan
-3.751605	bar
-4.805963	bara
-4.681024	barb
-3.960865	barbecue
-4.328842	barber
-4.379994	barcelona
-4.283084	bare
-4.504933	barefoot
-4.584114	barefooted
-4.241691	barely
-4.437986	bargain
-4.283084	baring
-4.379994	bark
-4.504933	barking
-4.681024	barley
-4.504933	barn
-4.504933	barney
-4.328842	barrage
-4.584114	barrel
-4.805963	barricade
-4.203903	barrier
-4.681024	barrow
-4.437986	barry
-4.584114	bartender
-3.379994	baru
-3.902873	bas
-3.805963	base
-4.379994	baseball
-3.681024	based
-4.805963	baseman
-4.106993	basement
-4.805963	bases
-4.584114	bash
-3.791722	basic
-3.437986	basically
-4.681024	basil
-4.681024	basin
-3.982054	basis
-4.052635	basket
-3.835926	basketball
-4.283084	bass
-4.437986	bastard
-4.283084	bat
-3.982054	batch
-4.241691	bath
-4.283084	bathe
-4.437986	bathing
-4.379994	bathroom
-4.504933	bathtub
-4.241691	batik
-4.241691	batman
-4.805963	bats
-4.805963	batter
-4.052635	battery
-4.052635	battle
-4.681024	battlefield
-3.885144	bay
-4.504933	baya
-4.328842	bazaar
-2.885144	be
-3.649616	beach
-4.805963	beachcombing
-4.805963	beachy
-4.437986	beak
-4.504933	beam
-4.504933	beamer
-4.004331	bean
-3.739016	bear
-4.136956	beard
-4.584114	bearing
-4.241691	beast
-3.940661	beat
-4.584114	beaten
-4.504933	beating
-4.681024	beautician
-3.85172	beautiful
-4.681024	beautifully
-4.004331	beauty
-2.906507	because
-3.55069	become
-4.027812	becomes
-4.169141	becoming
-3.739016	bed
-4.584114	bedridden
-4.241691	bedroom
-4.805963	bedtime
-3.868111	bee
-3.868111	beef
-4.681024	beefsteak
-4.379994	beehive
-3.30536	been
-4.004331	beer
-4.203903	bees
-4.584114	beetle
-3.230006	before
-4.437986	beforehand
-3.982054	beg
-4.584114	beggar
-4.504933	begging
-4.169141	begin
-4.437986	beginner
-4.052635	beginning
-4.027812	behalf
-4.203903	behave
-4.379994	behavior
-4.805963	behavioral
-4.328842	behaviour
-3.592888	behind
-4.241691	beige
-3.425751	being
-4.681024	bel
-3.791722	bela
-3.751605	belah
-4.504933	belanda
-4.805963	belay
-4.379994	belief
-3.610986	believe
-4.504933	believer
-4.681024	believing
-4.106993	bell
-4.584114	belle
-4.241691	belly
-4.241691	belong
-4.584114	belonging
-4.681024	beloved
-3.55069	below
-4.078964	belt
-3.982054	ben
-3.982054	bench
-4.203903	bend
-3.374599	benda
-4.584114	bending
-4.283084	bene
-4.379994	beneath
-4.584114	benedict
-4.052635	beneficial
-3.85172	beneficiary
-3.921356	benefit
-4.504933	beng
-4.437986	benjamin
-4.584114	benny
-4.584114	bent
-4.052635	ber
-3.940661	berat
-4.283084	berlin
-4.379994	berry
-4.584114	berth
-4.681024	bes
-3.483743	beside
-3.868111	besides
-3.291858	best
-3.940661	bet
-4.584114	beta
-4.805963	betis
-4.584114	betray
-3.374599	better
-4.027812	betting
-4.681024	betty
-3.601843	between
-4.379994	beverage
-4.681024	beware
-4.004331	beyond
-4.328842	bias
-4.681024	biceps
-3.921356	bicycle
-4.241691	bid
-4.681024	bidding
-3.379994	big
-3.76457	bigger
-3.805963	biggest
-3.820686	bike
-4.052635	bikini
-4.584114	bilingual
-3.85172	bill
-4.584114	billboard
-4.805963	billiard
-4.203903	billion
-4.437986	billionaire
-4.328842	billy
-3.940661	bin
-4.437986	bind
-4.504933	binder
-4.681024	binding
-4.504933	bing
-4.504933	binge
-4.136956	bingo
-4.437986	biochemistry
-4.681024	biography
-4.078964	biological
-4.241691	biology
-4.805963	bipolar
-3.7033	bird
-4.584114	biri
-3.601843	birth
-3.714882	birthday
-4.241691	biscuit
-4.805963	bisque
-4.681024	bistro
-3.300813	bit
-4.283084	bitch
-4.052635	bite
-4.504933	biting
-4.504933	bitten
-4.136956	bitter
-4.805963	bitterness
-4.328842	biz
-3.470171	black
-4.203903	blackberry
-4.379994	blackboard
-4.681024	blackhead
-4.805963	blackmail
-4.504933	blackout
-4.584114	bladder
-4.241691	blade
-3.835926	blah
-4.681024	blake
-4.078964	blame
-4.805963	blamed
-4.681024	blaming
-4.504933	bland
-4.027812	blank
-4.283084	blanket
-4.437986	blast
-4.805963	blaze
-4.437986	blazer
-4.437986	bleach
-4.805963	bleak
-4.504933	bleed
-3.820686	bleeding
-4.106993	blend
-4.504933	blended
-4.027812	blender
-4.584114	blending
-4.283084	bless
-4.328842	blessed
-4.328842	blessing
-3.85172	blind
-4.805963	blinded
-4.681024	blinder
-4.681024	blindfold
-4.584114	blindly
-4.437986	blink
-4.681024	blinking
-4.504933	bliss
-4.584114	blister
-4.584114	bloated
-3.519656	block
-4.437986	blocked
-4.504933	blocking
-4.052635	blonde
-3.681024	blood
-4.805963	blooded
-4.504933	bloodline
-4.136956	bloody
-4.584114	bloom
-4.504933	bloomer
-4.681024	blooming
-4.504933	blossom
-4.203903	blouse
-4.203903	blow
-4.379994	blowing
-4.504933	blown
-3.358805	blue
-4.379994	blueberry
-4.078964	blues
-4.437986	bluff
-4.584114	bluish
-4.681024	blunt
-4.106993	blur
-4.584114	blush
-4.681024	blusher
-4.027812	bo
-4.584114	boar
-3.751605	board
-4.681024	boarder
-4.379994	boarding
-4.681024	boast
-4.805963	boasting
-3.868111	boat
-4.584114	boating
-4.283084	bob
-4.328842	bobby
-4.437986	bobo
-3.620326	body
-4.681024	bodyguard
-4.169141	boil
-4.437986	boiled
-4.681024	boiler
-4.504933	boiling
-3.620326	bola
-4.504933	bold
-4.504933	bole
-4.805963	bolster
-4.584114	bolt
-4.328842	bom
-4.106993	bomb
-4.504933	bomber
-4.504933	bon
-3.751605	bond
-4.437986	bonded
-4.169141	bonding
-4.136956	bone
-4.805963	bong
-4.504933	bonnet
-3.527209	bonus
-4.584114	boo
-3.483743	book
-4.328842	booked
-4.078964	booking
-4.584114	booklet
-4.379994	bookmark
-4.805963	bookshelf
-4.241691	bookshop
-4.283084	bookstore
-4.136956	boom
-4.681024	boomerang
-4.805963	booming
-4.283084	boon
-4.283084	boost
-4.584114	booster
-4.136956	boot
-4.004331	booth
-4.136956	boots
-4.106993	borak
-4.169141	border
-4.584114	borderline
-4.584114	bore
-3.692019	boring
-3.714882	born
-4.584114	borne
-4.078964	borrow
-4.504933	borrowing
-3.726782	boss
-4.805963	bossy
-4.241691	boston
-4.169141	bot
-4.169141	botanic
-4.437986	botanical
-3.470171	both
-3.960865	bother
-3.835926	bottle
-4.681024	bottled
-3.649616	bottom
-3.649616	bought
-4.584114	boulder
-4.805963	bouldering
-4.504933	boulevard
-4.241691	bounce
-4.437986	bouncing
-4.203903	bound
-4.584114	boundary
-4.805963	bounding
-4.681024	bounty
-4.681024	bouquet
-4.136956	bout
-4.203903	bow
-4.328842	bowel
-3.921356	bowl
-3.921356	bowling
-4.584114	bowls
-3.692019	box
-4.437986	boxer
-4.241691	boxing
-3.527209	boy
-4.584114	boycott
-4.328842	bra
-4.681024	brace
-4.504933	bracelet
-4.584114	braces
-4.437986	bracket
-4.584114	brad
-4.681024	brag
-3.85172	brain
-4.805963	brainer
-4.437986	brains
-4.328842	brake
-3.885144	branch
-3.751605	brand
-4.169141	branded
-4.504933	brandy
-4.504933	brass
-4.805963	brat
-4.241691	brave
-4.681024	bravery
-4.203903	bravo
-4.136956	brazil
-4.805963	breach
-3.820686	bread
-3.620326	break
-4.136956	breakdown
-4.106993	breaker
-3.885144	breakfast
-4.106993	breaking
-4.805963	breakout
-4.437986	breakthrough
-4.584114	breakup
-4.136956	breast
-4.004331	breath
-3.835926	breathe
-3.558808	breathing
-4.078964	breathless
-4.584114	breathlessness
-4.681024	bred
-4.283084	breed
-4.805963	breeding
-4.328842	breeze
-4.681024	brew
-4.584114	bribe
-4.283084	brick
-4.584114	bridal
-4.328842	bride
-4.805963	bridegroom
-4.681024	bridesmaid
-4.004331	bridge
-4.241691	brief
-3.982054	briefing
-4.379994	briefly
-4.584114	brigade
-4.106993	bright
-4.681024	brighten
-4.504933	brilliant
-4.584114	brim
-3.431826	bring
-4.681024	brinjal
-4.379994	brisk
-4.805963	brit
-4.681024	brittle
-4.328842	broad
-4.379994	broadcast
-4.504933	broadway
-4.504933	broccoli
-4.379994	brochure
-4.805963	brock
-3.940661	broke
-4.027812	broken
-4.504933	broker
-4.805963	brokerage
-4.437986	bronze
-4.805963	broody
-4.584114	brook
-4.584114	broom
-4.504933	broth
-3.601843	brother
-4.805963	brotherhood
-4.805963	brotherly
-3.820686	brought
-4.504933	brow
-3.527209	brown
-4.379994	brownie
-4.203903	brownish
-4.504933	browse
-4.437986	browser
-4.681024	browsing
-4.681024	bruise
-4.328842	brunch
-4.681024	brunette
-4.136956	brush
-4.805963	brushes
-4.681024	brutal
-4.106993	bu
-4.283084	bual
-4.004331	bubble
-4.805963	bubbling
-4.584114	bubbly
-4.379994	buck
-3.868111	bucket
-4.681024	buckle
-4.504933	bud
-4.078964	buddy
-3.902873	budget
-4.504933	buff
-4.437986	buffalo
-4.584114	buffer
-3.868111	buffet
-4.027812	bug
-4.681024	buggy
-3.835926	build
-4.805963	builder
-3.692019	building
-4.136956	built
-4.584114	bulb
-4.169141	bulk
-4.437986	bulky
-4.328842	bull
-4.681024	bulldog
-4.328842	bullet
-4.169141	bully
-4.437986	bullying
-4.504933	bum
-4.805963	bumble
-4.584114	bumblebee
-4.241691	bump
-4.283084	bumper
-4.136956	bun
-4.136956	bunch
-4.203903	bundle
-4.328842	bungalow
-4.241691	bungee
-4.328842	bunk
-4.379994	bunny
-4.681024	bunting
-4.203903	burden
-4.681024	bureau
-4.584114	bureaucracy
-4.805963	burglar
-4.681024	buried
-3.960865	burn
-4.681024	burned
-4.805963	burner
-4.169141	burning
-4.379994	burnt
-4.681024	burp
-4.681024	burrito
-4.504933	bursary
-4.203903	burst
-4.504933	bury
-3.601843	bus
-3.982054	bush
-3.601843	business
-4.379994	businessman
-4.681024	bust
-4.681024	busted
-4.681024	buster
-3.739016	busy
-4.052635	busybody
-4.681024	busying
-2.742754	but
-4.078964	butcher
-4.805963	butler
-4.203903	butt
-4.004331	butter
-4.805963	buttered
-4.136956	butterfly
-4.805963	buttermilk
-4.681024	buttery
-3.960865	button
-4.283084	buttons
-3.270247	buy
-4.241691	buyer
-4.504933	buzz
-3.218626	by
-3.241691	bye
-4.504933	bypass
-3.193179	c
-4.106993	ca
-4.052635	cab
-4.437986	cabbage
-4.504933	cabby
-4.328842	cabin
-4.437986	cabinet
-4.052635	cable
-4.681024	cache
-4.805963	cad
-4.504933	cadet
-4.504933	caffeine
-4.052635	cage
-3.739016	cake
-4.584114	calcium
-3.982054	calculate
-4.283084	calculated
-4.584114	calculating
-4.203903	calculation
-4.681024	calculative
-4.241691	calculator
-4.805963	calculus
-4.027812	calendar
-4.504933	calender
-4.805963	calf
-3.15275	call
-4.203903	callable
-4.136956	caller
-4.681024	calligraphy
-3.396593	calling
-4.078964	calm
-4.805963	calmer
-4.504933	calorie
-3.777934	cam
-3.534896	came
-4.379994	camel
-3.902873	camera
-3.76457	camp
-4.328842	campaign
-4.681024	camper
-4.241691	campus
-2.783397	can
-4.078964	canada
-4.504933	canal
-3.85172	cancel
-4.584114	cancellation
-4.004331	cancer
-4.681024	cancerous
-4.504933	candidate
-4.328842	candle
-4.078964	candy
-4.241691	cane
-4.681024	canned
-4.805963	cannibal
-4.504933	canning
-4.584114	cannon
-3.17928	cannot
-4.681024	cannula
-4.379994	canoe
-4.437986	canoeing
-4.504933	canon
-4.681024	canopy
-4.169141	cant
-3.940661	canteen
-4.584114	cantonment
-4.328842	canvas
-4.681024	canvass
-4.504933	canyon
-3.777934	cap
-4.379994	capability
-4.283084	capable
-4.328842	capacity
-4.379994	cape
-3.940661	capital
-4.584114	capitalism
-4.584114	capped
-4.106993	capsule
-4.078964	captain
-4.203903	caption
-4.805963	captive
-4.241691	capture
-3.408023	car
-4.283084	caramel
-4.584114	caravan
-4.437986	carbo
-4.681024	carbohydrate
-4.379994	carbon
-3.437986	card
-4.379994	cardboard
-4.504933	cardiac
-4.681024	cardigan
-3.476904	care
-3.629872	career
-4.328842	carefree
-4.106993	careful
-4.328842	carefully
-4.379994	careless
-4.437986	cargo
-4.681024	carl
-4.805963	carnation
-4.437986	carnival
-4.437986	carol
-4.584114	caroline
-4.584114	carpenter
-4.437986	carpet
-4.681024	carriage
-4.437986	carried
-4.504933	carrier
-3.960865	carrot
-3.76457	carry
-4.027812	carrying
-4.283084	cart
-4.584114	carte
-4.681024	cartel
-4.504933	carter
-4.584114	carton
-4.052635	cartoon
-4.681024	cartridge
-3.497754	case
-3.649616	cash
-4.681024	cashew
-4.169141	cashier
-4.437986	casing
-4.004331	casino
-4.203903	cast
-4.681024	caster
-4.584114	casting
-4.052635	castle
-4.203903	casual
-4.584114	casually
-4.681024	casualty
-3.7033	cat
-4.805963	catalogue
-4.437986	catalyst
-4.681024	catapult
-3.76457	catch
-4.437986	catcher
-4.106993	catching
-4.681024	catchup
-4.328842	catchy
-4.681024	categorize
-4.136956	category
-4.328842	cater
-4.681024	catfish
-4.437986	catheter
-4.504933	catholic
-4.504933	cattle
-4.805963	catty
-3.85172	caught
-3.127748	cause
-4.437986	causeway
-4.504933	causing
-4.504933	caution
-4.584114	cautious
-4.283084	cave
-4.584114	caviar
-4.805963	cavity
-4.681024	cayman
-4.504933	ce
-4.584114	cease
-4.283084	ceiling
-3.921356	celebrate
-4.437986	celebrated
-4.169141	celebration
-4.169141	celebrity
-4.584114	celery
-4.106993	cell
-4.805963	cello
-4.584114	cement
-4.379994	cemetery
-4.584114	censor
-4.027812	cent
-3.7033	center
-4.681024	centered
-3.940661	central
-4.328842	century
-4.805963	ceramic
-4.681024	cere
-4.136956	cereal
-4.328842	ceremony
-4.584114	ceria
-3.601843	certain
-4.328842	certainly
-4.681024	certainty
-3.85172	certificate
-4.504933	certification
-4.328842	certified
-4.681024	certify
-4.379994	certis
-4.328842	cha
-4.379994	chai
-4.078964	chain
-3.76457	chair
-4.584114	chairman
-4.106993	chalet
-4.584114	chalk
-4.004331	challenge
-4.681024	challenger
-4.681024	cham
-4.584114	chamber
-4.681024	champ
-4.437986	champagne
-4.283084	champion
-4.681024	championship
-3.726782	chance
-4.805963	chandelier
-4.379994	chang
-3.358805	change
-4.681024	changer
-3.902873	channel
-4.437986	chant
-4.805963	chanting
-4.437986	chao
-4.437986	chaos
-4.584114	chaotic
-4.504933	chap
-4.504933	chapel
-4.241691	chapter
-4.004331	char
-3.7033	character
-4.203903	characteristic
-4.437986	charcoal
-3.739016	charge
-4.328842	charger
-4.283084	charging
-4.681024	charisma
-4.805963	charismatic
-4.078964	charity
-4.437986	charm
-4.241691	charming
-4.106993	chart
-4.584114	charter
-4.136956	chartered
-4.004331	chase
-4.241691	chasing
-3.885144	chat
-4.379994	chatting
-4.805963	chatty
-4.437986	che
-3.649616	cheap
-4.052635	cheat
-4.584114	cheater
-4.136956	cheating
-3.287449	check
-4.027812	checked
-4.681024	checkered
-4.584114	checkup
-4.379994	chee
-4.203903	cheek
-4.504933	cheeky
-4.203903	cheer
-4.379994	cheerful
-4.584114	cheering
-4.805963	cheery
-3.7033	cheese
-4.328842	cheesecake
-4.379994	cheesy
-4.241691	cheetah
-3.940661	chef
-4.106993	chemical
-3.982054	chemistry
-4.681024	chemotherapy
-4.283084	cheng
-4.203903	cheque
-4.437986	cherish
-4.203903	cherry
-4.241691	chess
-3.791722	chest
-4.584114	chestnut
-4.681024	chevron
-4.203903	chew
-4.437986	chewy
-4.203903	chi
-4.584114	chia
-4.584114	chic
-4.328842	chick
-3.476904	chicken
-4.437986	chief
-3.333694	child
-4.805963	childbirth
-3.7033	childhood
-4.283084	childish
-4.681024	chile
-4.004331	chili
-3.820686	chill
-4.584114	chilled
-4.379994	chilling
-4.681024	chilly
-4.681024	chimney
-4.203903	chin
-3.542721	china
-4.437986	ching
-4.169141	chip
-4.078964	chips
-4.328842	chit
-4.681024	chlorine
-4.805963	cho
-3.835926	chocolate
-3.681024	choice
-4.203903	choir
-4.106993	choke
-4.106993	choker
-4.203903	choking
-4.437986	cholesterol
-4.241691	chomp
-3.497754	choose
-4.328842	choosing
-4.681024	choosy
-3.960865	chop
-4.681024	chopped
-4.504933	chopper
-4.379994	chopping
-4.681024	choppy
-4.681024	chopstick
-4.584114	chord
-4.136956	chore
-4.805963	choreography
-4.504933	chorus
-4.106993	chose
-4.328842	chosen
-4.328842	chow
-4.328842	chrome
-4.584114	chronic
-4.805963	chrysanthemum
-4.584114	chubby
-4.504933	chuck
-4.681024	chucky
-4.437986	chun
-4.584114	chunk
-4.681024	chunky
-3.885144	church
-4.283084	chute
-4.681024	cider
-4.681024	cigar
-4.203903	cigarette
-4.052635	cinema
-4.681024	cinematic
-4.681024	cinnamon
-3.490692	circle
-4.328842	circled
-4.437986	circling
-4.283084	circuit
-4.283084	circular
-4.681024	circulate
-4.584114	circulation
-4.805963	circumference
-4.379994	circus
-4.504933	cisco
-4.805963	cit
-4.681024	citation
-4.169141	cite
-4.283084	citer
-3.820686	citizen
-3.960865	citizenship
-3.639631	city
-4.504933	civic
-4.203903	civil
-4.681024	civilian
-4.584114	civilization
-4.584114	civilized
-3.601843	claim
-4.136956	claimable
-4.504933	clam
-4.805963	clamp
-4.437986	clan
-4.328842	clap
-4.437986	clarification
-4.136956	clarify
-4.681024	clarity
-4.437986	clark
-4.379994	clash
-3.542721	class
-3.868111	classes
-4.169141	classic
-4.328842	classical
-4.681024	classification
-4.437986	classified
-4.106993	classmate
-4.052635	classroom
-4.584114	classy
-4.681024	clause
-4.328842	claw
-4.241691	clay
-3.726782	clean
-4.136956	cleaner
-4.004331	cleaning
-4.584114	cleanliness
-4.504933	cleanse
-4.328842	cleanser
-4.805963	cleansing
-3.714882	clear
-4.584114	clearance
-4.504933	clearer
-4.203903	clearing
-4.052635	clearly
-4.584114	cleaver
-4.584114	clement
-4.283084	clerk
-4.283084	clever
-4.379994	cliche
-3.751605	click
-3.921356	client
-4.437986	cliff
-4.379994	climate
-4.584114	climax
-3.940661	climb
-4.504933	climber
-4.106993	climbing
-4.681024	cling
-4.681024	clingy
-3.940661	clinic
-4.681024	clinical
-4.283084	clip
-4.504933	clips
-4.106993	clique
-4.681024	cloakroom
-3.982054	clock
-4.241691	clockwise
-4.379994	clone
-3.483743	close
-3.885144	closed
-4.106993	closely
-3.982054	closer
-4.681024	closet
-4.437986	closure
-4.805963	clot
-3.960865	cloth
-4.681024	clothe
-3.739016	clothes
-4.106993	clothing
-4.052635	cloud
-4.584114	cloudy
-4.437986	clown
-3.681024	club
-4.203903	clubbing
-4.203903	clue
-4.584114	clumsy
-4.241691	cluster
-4.504933	clutch
-4.004331	coach
-4.328842	coaching
-4.584114	coal
-4.004331	coast
-4.504933	coastal
-4.106993	coaster
-4.283084	coat
-4.681024	cobra
-4.584114	coca
-4.203903	cock
-4.169141	cockroach
-4.437986	cocktail
-4.379994	cocky
-4.136956	coco
-4.437986	cocoa
-4.136956	coconut
-4.681024	cod
-3.629872	code
-4.379994	coder
-3.659835	coffee
-4.681024	coffeehouse
-4.437986	coffin
-4.681024	cognitive
-4.681024	coherent
-4.437986	cohort
-4.805963	coil
-4.169141	coin
-4.681024	coincide
-4.027812	coincidence
-4.504933	coincident
-4.504933	coincidentally
-4.106993	coke
-4.681024	col
-4.328842	cola
-3.681024	cold
-4.584114	colder
-4.805963	coldness
-4.504933	coleslaw
-4.437986	colin
-4.584114	collaborate
-4.584114	collaboration
-4.805963	collage
-4.681024	collagen
-4.283084	collapse
-4.379994	collar
-3.835926	colleague
-3.726782	collect
-4.203903	collected
-4.052635	collection
-4.437986	collective
-4.681024	collectivism
-4.504933	collector
-4.052635	college
-4.681024	collin
-4.681024	collins
-4.805963	collision
-4.681024	colon
-4.805963	colonel
-4.805963	colonial
-4.805963	colony
-3.55069	color
-4.379994	colored
-4.504933	colorful
-4.241691	colors
-3.314601	colour
-4.283084	column
-4.379994	coma
-4.437986	comb
-4.437986	combat
-4.106993	combination
-4.106993	combine
-4.328842	combined
-4.504933	combing
-3.207537	come
-4.504933	comeback
-4.437986	comedian
-4.052635	comedy
-4.584114	comer
-3.692019	comes
-3.820686	comfort
-3.751605	comfortable
-4.504933	comfortably
-4.584114	comforting
-4.805963	comfy
-4.241691	comic
-3.55069	coming
-4.437986	comma
-4.328842	command
-4.437986	commander
-4.504933	commando
-4.078964	comment
-4.584114	commentary
-4.584114	commerce
-4.106993	commercial
-4.805963	commercialize
-4.106993	commission
-4.584114	commissioner
-4.106993	commit
-4.106993	commitment
-4.078964	committee
-4.805963	commodity
-3.777934	common
-4.504933	commonly
-4.241691	commonwealth
-4.681024	commotion
-4.681024	communal
-4.052635	communicate
-4.584114	communicating
-4.052635	communication
-4.504933	communicative
-4.584114	communism
-4.681024	communist
-3.885144	community
-4.437986	compact
-4.328842	companion
-4.584114	companionship
-3.457009	company
-4.584114	comparable
-4.805963	comparative
-4.805963	comparatively
-3.835926	compare
-4.328842	comparison
-4.805963	compartment
-4.504933	compass
-4.504933	compassion
-4.681024	compassionate
-4.584114	compatible
-4.379994	compensate
-4.437986	compensation
-4.283084	compete
-4.584114	competence
-4.584114	competent
-3.960865	competition
-4.078964	competitive
-4.681024	competitiveness
-4.584114	competitor
-4.437986	compile
-4.805963	compiler
-4.681024	complacent
-3.726782	complain
-4.241691	complaint
-4.681024	complement
-3.885144	complete
-4.027812	completely
-4.437986	completion
-4.106993	complex
-4.805963	compliance
-4.106993	complicated
-4.504933	complication
-4.504933	compliment
-4.681024	complimentary
-4.681024	comply
-4.584114	compo
-4.504933	component
-4.584114	compose
-4.681024	composed
-4.379994	composition
-4.328842	compound
-4.681024	comprehend
-4.437986	comprehension
-4.504933	comprehensive
-4.681024	compress
-4.584114	compression
-4.379994	compromise
-4.136956	compulsory
-4.504933	compute
-3.692019	computer
-3.902873	con
-4.379994	concealer
-4.681024	conceive
-4.203903	concentrate
-4.584114	concentrated
-4.106993	concentration
-3.982054	concept
-3.982054	concern
-4.241691	concerned
-4.681024	concerning
-3.885144	concert
-4.328842	concession
-4.584114	conclude
-4.283084	conclusion
-4.681024	concourse
-4.328842	concrete
-4.681024	concurrently
-4.805963	concussion
-4.169141	cond
-4.504933	condemn
-4.805963	condense
-4.504933	condensed
-4.437986	condescending
-3.902873	condition
-4.241691	conditional
-4.584114	conditioned
-4.379994	conditioner
-4.328842	condominium
-4.504933	conducive
-4.241691	conduct
-4.437986	conductor
-4.241691	cone
-4.241691	conference
-4.328842	confess
-4.584114	confession
-4.805963	confide
-4.106993	confidence
-4.052635	confident
-4.379994	confidential
-4.805963	configuration
-4.681024	confine
-4.681024	confined
-4.584114	confinement
-3.542721	confirm
-3.940661	confirmation
-4.169141	confirmed
-4.805963	confirming
-4.805963	confiscate
-4.283084	conflict
-4.681024	conflicting
-4.681024	conform
-4.504933	confront
-4.169141	confuse
-4.052635	confused
-4.504933	confusion
-4.584114	congratulate
-4.504933	congratulation
-4.805963	congressman
-4.805963	conjunction
-4.027812	connect
-4.136956	connected
-4.106993	connection
-4.504933	connector
-4.437986	conquer
-4.584114	conscience
-3.55069	conscious
-4.681024	consciously
-4.437986	consciousness
-4.584114	consecutive
-4.584114	consecutively
-4.584114	consensus
-4.027812	consent
-4.437986	consequence
-4.681024	conservancy
-4.681024	conservation
-4.328842	conservative
-3.76457	consider
-4.584114	considerable
-4.584114	considerate
-4.283084	consideration
-3.820686	considered
-4.203903	considering
-4.504933	consist
-4.379994	consistency
-4.328842	consistent
-4.504933	consistently
-4.283084	console
-4.681024	consolidate
-4.328842	constant
-4.203903	constantly
-4.504933	constipation
-4.681024	constitute
-4.805963	constitution
-4.584114	constraint
-4.504933	construct
-4.106993	construction
-4.584114	constructive
-4.328842	consult
-4.169141	consultant
-4.437986	consultation
-4.283084	consulting
-4.283084	consumable
-4.169141	consume
-4.379994	consumer
-4.437986	consuming
-4.504933	consumption
-3.450575	contact
-4.805963	contagious
-4.379994	contain
-4.169141	container
-4.681024	contemporary
-4.106993	content
-4.504933	contented
-4.504933	contents
-4.241691	contest
-4.681024	contestant
-4.169141	context
-4.584114	continent
-4.681024	continental
-4.584114	continuation
-3.620326	continue
-4.437986	continued
-3.982054	continuous
-4.169141	continuously
-4.584114	contour
-3.902873	contract
-4.379994	contraction
-4.379994	contractor
-4.681024	contrary
-4.504933	contrast
-4.078964	contribute
-4.027812	contribution
-3.739016	control
-4.584114	controller
-4.241691	controversial
-4.437986	controversy
-4.203903	convenience
-3.902873	convenient
-4.681024	conveniently
-4.584114	convent
-4.584114	convention
-4.437986	conventional
-3.692019	conversation
-4.681024	conversational
-4.241691	converse
-4.203903	conversion
-3.921356	convert
-4.203903	converted
-4.805963	converter
-4.437986	convertible
-4.805963	converting
-4.437986	convey
-4.805963	conviction
-4.283084	convince
-4.504933	convinced
-4.681024	convincing
-4.584114	convocation
-3.567081	cook
-4.379994	cooker
-3.777934	cooking
-3.542721	cool
-4.437986	cooler
-4.283084	cooling
-4.805963	coon
-4.681024	coop
-4.328842	cooper
-4.437986	cop
-4.203903	cope
-4.805963	copied
-4.805963	coping
-4.504933	copper
-3.820686	copy
-4.504933	coral
-4.504933	cord
-4.805963	cordial
-4.052635	core
-4.203903	corn
-3.791722	corner
-4.805963	coronary
-4.106993	corp
-4.584114	corporal
-4.106993	corporate
-4.283084	corporation
-4.681024	corpus
-3.149545	correct
-4.805963	correcting
-4.241691	correction
-4.805963	corrective
-4.169141	correctly
-4.504933	correlation
-4.805963	correspond
-4.504933	correspondence
-4.283084	correspondent
-4.584114	corresponding
-4.241691	corridor
-4.805963	corrupt
-4.681024	corruption
-4.106993	cos
-4.584114	cosmetic
-4.584114	cosmic
-4.283084	cosmos
-3.714882	cost
-4.283084	costa
-4.805963	costing
-4.379994	costly
-4.283084	costume
-4.584114	cosy
-4.283084	cottage
-4.241691	cotton
-4.379994	couch
-4.052635	cough
-3.36927	could
-4.106993	council
-4.584114	counsel
-4.805963	counselor
-3.7033	count
-3.960865	counter
-4.203903	counting
-4.805963	countless
-3.55069	country
-4.379994	countryside
-4.681024	county
-3.751605	couple
-3.982054	coupon
-4.379994	courage
-4.681024	courageous
-4.328842	courier
-3.36927	course
-3.739016	court
-4.681024	courteous
-4.504933	courtesy
-3.921356	cousin
-4.283084	cove
-3.751605	cover
-4.504933	coverage
-3.982054	covered
-4.283084	covering
-4.027812	covid
-4.136956	cow
-4.437986	coward
-4.283084	cowboy
-4.805963	cox
-4.078964	coz
-4.584114	cozy
-3.835926	crab
-4.203903	crack
-4.805963	cracked
-4.681024	cracker
-4.681024	crackers
-4.681024	cracking
-4.805963	cradle
-4.283084	craft
-4.681024	cram
-4.379994	cramp
-4.805963	cramped
-4.681024	cranberry
-4.437986	crane
-4.681024	crank
-4.169141	crap
-4.106993	crash
-4.328842	crave
-4.169141	craving
-4.328842	crawl
-4.681024	crawling
-4.379994	crayfish
-4.681024	crayon
-4.437986	craze
-4.805963	crazily
-3.610986	crazy
-3.7033	cream
-4.379994	creamy
-4.805963	crease
-3.791722	create
-4.584114	creation
-3.805963	creative
-4.379994	creativity
-4.681024	creator
-4.437986	creature
-4.681024	credible
-3.739016	credit
-4.805963	creed
-4.328842	creep
-4.681024	creeper
-4.004331	creepy
-4.437986	crepe
-4.169141	crescent
-4.136956	crew
-4.805963	crib
-4.584114	cricket
-4.106993	cried
-4.169141	crime
-4.328842	criminal
-4.504933	cringe
-4.241691	crisis
-4.584114	crisp
-4.169141	crispy
-3.982054	criteria
-4.681024	critic
-4.169141	critical
-4.681024	critically
-4.504933	criticism
-4.504933	criticize
-4.283084	crocodile
-4.504933	crooked
-4.504933	crop
-3.835926	cross
-4.504933	crossed
-4.106993	crossing
-4.584114	crow
-4.027812	crowd
-3.960865	crowded
-4.328842	crown
-4.584114	crucial
-4.504933	crude
-4.437986	cruel
-4.052635	cruise
-4.805963	crumble
-4.504933	crunch
-4.379994	crunchy
-4.169141	crush
-4.681024	crushed
-4.681024	crushing
-4.584114	crust
-3.76457	cry
-4.027812	crying
-4.203903	crystal
-4.328842	cube
-4.681024	cubic
-4.504933	cubicle
-4.681024	cuckoo
-4.241691	cucumber
-4.681024	cuddle
-4.584114	cue
-4.027812	cuisine
-4.681024	culinary
-4.805963	culottes
-4.584114	cult
-4.584114	cultivate
-4.681024	cultivated
-4.203903	cultural
-3.751605	culture
-4.681024	cum
-4.805963	cumin
-4.681024	cunning
-3.76457	cup
-4.379994	cupboard
-4.504933	cupcake
-4.584114	curb
-4.584114	curd
-4.241691	cure
-4.681024	curfew
-4.504933	curiosity
-4.052635	curious
-4.504933	curl
-4.584114	curling
-4.136956	curly
-3.940661	currency
-3.751605	current
-3.714882	currently
-4.328842	curriculum
-3.835926	curry
-4.203903	curse
-4.805963	cursed
-4.584114	cursive
-4.805963	cursor
-4.283084	curtain
-4.078964	curve
-4.681024	curved
-4.681024	curvy
-4.241691	cushion
-4.681024	custard
-4.681024	custodian
-4.283084	custody
-4.241691	custom
-3.714882	customer
-4.681024	customs
-3.610986	cut
-3.7033	cute
-4.584114	cutlet
-4.437986	cutter
-3.982054	cutting
-3.902873	cycle
-3.960865	cycling
-4.328842	cyclist
-4.681024	cyclone
-4.681024	cylinder
-3.30536	d
-3.820686	da
-4.584114	dab
-3.659835	dad
-4.379994	dada
-4.004331	daddy
-3.133865	dah
-3.940661	daily
-4.379994	dairy
-4.681024	daisy
-4.169141	dak
-4.681024	dal
-4.681024	dale
-4.437986	dam
-4.241691	damage
-3.437986	damn
-4.681024	damned
-4.584114	damp
-3.207537	dan
-3.714882	dance
-4.328842	dancer
-4.027812	dancing
-4.504933	dang
-4.241691	danger
-3.902873	dangerous
-4.584114	dangling
-4.437986	dao
-4.584114	dap
-4.584114	darat
-3.902873	dare
-3.483743	dari
-4.437986	daring
-3.649616	dark
-4.379994	darkness
-4.283084	darling
-4.681024	dart
-4.504933	darts
-4.004331	dash
-4.681024	dashing
-3.820686	data
-3.46354	date
-3.902873	dating
-3.7033	daughter
-4.437986	dawn
-3.200299	day
-4.681024	daybreak
-4.584114	daydream
-4.437986	daylight
-3.364006	days
-4.681024	daytime
-4.805963	daze
-3.902873	de
-3.805963	dead
-3.85172	deadline
-4.584114	deadly
-4.379994	deaf
-3.791722	deal
-4.203903	dealer
-4.328842	dealing
-4.437986	dean
-3.902873	dear
-3.885144	death
-4.681024	debatable
-4.283084	debate
-4.681024	debating
-4.027812	debit
-4.203903	debt
-4.203903	decade
-4.584114	decathlon
-4.437986	decay
-4.584114	deceit
-4.169141	decent
-4.805963	decently
-3.835926	decide
-3.835926	decided
-4.584114	decimal
-3.835926	decision
-4.584114	decisive
-3.982054	deck
-4.681024	decker
-4.027812	declaration
-4.241691	declare
-4.584114	declared
-4.584114	decline
-4.681024	decompose
-4.504933	decorate
-4.681024	decorated
-4.328842	decoration
-4.283084	decorative
-4.437986	decrease
-4.681024	decreasing
-4.584114	dedicate
-4.681024	dedication
-4.106993	deduct
-4.328842	deduction
-4.584114	dee
-4.437986	deed
-4.681024	deem
-3.805963	deep
-4.504933	deeply
-4.437986	deer
-4.241691	default
-4.203903	defeat
-4.504933	defect
-4.805963	defector
-4.379994	defence
-4.203903	defend
-4.681024	defendant
-4.681024	defender
-4.379994	defense
-4.504933	defensive
-4.584114	defer
-4.805963	deficiency
-4.681024	deficit
-3.940661	define
-4.805963	defined
-4.504933	definite
-3.558808	definitely
-4.169141	definition
-4.681024	deform
-4.681024	deformity
-4.681024	defy
-4.584114	degrade
-3.777934	degree
-4.681024	dehydration
-4.106993	delay
-4.584114	delaying
-4.805963	delegation
-3.868111	delete
-4.805963	deliberately
-4.584114	delicacy
-4.805963	delicate
-4.078964	delicious
-4.584114	delight
-4.136956	deliver
-4.004331	delivery
-4.805963	deliveryman
-4.283084	dell
-4.328842	delta
-4.584114	deluxe
-4.136956	demand
-4.437986	demanding
-4.283084	dementia
-4.283084	demi
-4.106993	demise
-4.681024	democracy
-4.805963	democratic
-4.681024	demolish
-4.437986	demon
-4.681024	demonstration
-4.584114	den
-4.584114	denda
-4.584114	dengue
-4.805963	denial
-4.584114	denim
-4.584114	dense
-4.584114	density
-4.681024	dent
-4.328842	dental
-4.283084	dentist
-4.379994	deny
-4.681024	deodorant
-4.136956	depa
-4.805963	depart
-3.885144	department
-4.681024	departmental
-4.504933	departure
-3.960865	depend
-3.982054	dependent
-4.052635	depending
-4.681024	deploy
-3.791722	deposit
-4.681024	depository
-4.805963	depot
-4.805963	depreciate
-4.504933	depress
-4.203903	depressed
-4.328842	depressing
-4.136956	depression
-4.805963	depressive
-4.283084	depth
-4.504933	deputy
-4.681024	derive
-4.379994	derma
-4.584114	derrick
-4.681024	desaturation
-4.681024	descend
-4.681024	descendant
-4.584114	descent
-3.55069	describe
-4.241691	description
-4.584114	descriptive
-4.328842	desert
-4.584114	deserted
-4.169141	deserve
-4.681024	deserved
-3.751605	design
-4.681024	designation
-4.584114	designed
-4.027812	designer
-4.437986	designing
-4.283084	desire
-4.805963	desired
-4.106993	desk
-4.681024	despair
-4.283084	desperate
-4.681024	desperately
-4.805963	despicable
-4.681024	despise
-4.328842	despite
-4.027812	dessert
-4.203903	destination
-4.584114	destine
-4.328842	destiny
-4.584114	destitute
-4.283084	destress
-4.241691	destroy
-4.681024	destruction
-4.681024	destructive
-4.805963	detached
-3.960865	detail
-4.283084	detailed
-4.283084	detect
-4.437986	detective
-4.283084	detector
-4.504933	detention
-4.805963	deter
-4.681024	detergent
-4.504933	determination
-4.241691	determine
-4.504933	determined
-4.805963	detour
-4.078964	develop
-4.328842	developer
-3.940661	development
-4.584114	deviate
-4.805963	deviation
-4.283084	device
-4.283084	devil
-4.169141	devote
-4.437986	devoted
-4.584114	devotion
-4.584114	dew
-4.283084	dewan
-4.681024	dexter
-4.584114	dey
-3.222386	di
-4.203903	diabetes
-4.379994	diabetic
-4.584114	diagnose
-4.584114	diagnosis
-4.437986	diagonal
-4.584114	diagonally
-4.283084	diagram
-4.379994	dial
-4.169141	dialect
-4.504933	dialogue
-4.283084	dialysis
-4.203903	diamond
-4.584114	dian
-4.584114	diaper
-4.203903	diarrhea
-4.283084	diary
-4.584114	dice
-4.379994	dick
-4.805963	dicky
-4.169141	dictation
-4.504933	dictator
-4.379994	dictionary
-3.186174	did
-4.379994	didnt
-3.584114	die
-4.584114	diesel
-4.004331	diet
-4.504933	differ
-3.46354	difference
-3.266051	different
-4.379994	differentiate
-4.805963	differentiation
-3.940661	differently
-3.639631	difficult
-3.820686	difficulty
-4.136956	dig
-4.328842	digest
-4.805963	digestive
-4.504933	digging
-4.283084	digit
-3.960865	digital
-4.681024	dignity
-4.584114	digress
-4.379994	dilemma
-4.584114	diligent
-4.681024	diluted
-4.136956	dim
-4.681024	dime
-4.169141	dimension
-4.805963	diminish
-4.136956	din
-4.584114	dine
-4.328842	ding
-4.241691	dining
-3.7033	dinner
-4.078964	dinosaur
-4.805963	dioxide
-4.169141	dip
-3.885144	diploma
-4.681024	diplomatic
-4.805963	dipping
-3.820686	direct
-4.437986	directed
-3.902873	direction
-4.805963	directional
-3.902873	directly
-3.960865	director
-4.681024	directory
-4.379994	dirt
-3.902873	dirty
-4.379994	dis
-4.584114	disability
-4.681024	disable
-4.437986	disabled
-4.437986	disadvantage
-4.328842	disagree
-4.681024	disagreement
-4.241691	disappear
-4.437986	disappoint
-4.004331	disappointed
-4.437986	disappointing
-4.504933	disappointment
-4.241691	disaster
-4.437986	disc
-4.584114	discard
-4.805963	discern
-4.437986	discharge
-4.805963	disciple
-4.805963	disciplinary
-4.078964	discipline
-4.379994	disclose
-4.584114	disclosure
-4.504933	discomfort
-4.584114	disconnect
-4.437986	disconnected
-4.681024	discontinue
-3.940661	discount
-4.681024	discourage
-4.504933	discourse
-4.203903	discover
-4.379994	discovered
-4.078964	discovery
-4.805963	discrepancy
-4.681024	discretion
-4.681024	discriminate
-4.328842	discrimination
-3.982054	discuss
-4.136956	discussion
-4.136956	disease
-4.584114	disgrace
-4.805963	disgraceful
-4.504933	disguise
-4.681024	disgust
-4.584114	disgusted
-3.940661	disgusting
-3.835926	dish
-4.805963	dishwasher
-4.805963	disillusion
-4.328842	disk
-3.940661	dislike
-4.805963	dislocate
-4.681024	dislocated
-4.681024	dismantle
-4.681024	dismiss
-4.805963	disobey
-4.283084	disorder
-4.805963	disordered
-4.328842	dispatch
-4.681024	dispense
-4.805963	dispenser
-4.805963	disperse
-4.078964	display
-4.805963	displayed
-4.584114	disposable
-4.584114	dispose
-4.504933	dispute
-4.584114	disrespectful
-4.805963	disrupt
-4.681024	disruption
-4.805963	disruptive
-4.584114	diss
-4.805963	dissertation
-4.681024	dissolve
-3.982054	distance
-4.437986	distant
-4.805963	distilled
-4.504933	distinct
-4.379994	distinction
-4.681024	distinguish
-4.681024	distorted
-4.504933	distract
-4.437986	distracted
-4.437986	distraction
-4.283084	distress
-4.437986	distribute
-4.805963	distributed
-4.283084	distribution
-4.328842	district
-4.106993	disturb
-4.681024	disturbance
-4.584114	disturbed
-4.283084	disturbing
-4.681024	ditch
-4.504933	diva
-4.136956	dive
-4.437986	diver
-4.283084	diverse
-4.681024	diversify
-4.584114	diversity
-4.504933	divert
-3.982054	divide
-4.328842	divided
-4.328842	dividend
-4.584114	divider
-4.681024	divine
-4.052635	diving
-4.283084	division
-4.106993	divorce
-4.584114	divorcee
-4.584114	dizziness
-4.241691	dizzy
-2.83748	do
-4.681024	doable
-4.379994	doc
-4.584114	dock
-3.649616	doctor
-3.902873	document
-4.241691	documentary
-4.328842	documentation
-4.681024	doe
-3.431826	does
-3.527209	dog
-4.681024	doggo
-4.504933	doggy
-3.921356	dogs
-3.348586	doing
-4.136956	doll
-3.450575	dollar
-4.283084	dolphin
-4.584114	dom
-4.681024	domain
-4.241691	dome
-4.379994	domestic
-4.437986	dominant
-4.504933	dominate
-4.437986	domino
-4.203903	don
-4.106993	donate
-4.805963	donated
-4.328842	donation
-3.419761	done
-4.106993	donee
-4.328842	dong
-4.328842	donkey
-4.805963	donna
-4.241691	donor
-3.940661	dont
-4.681024	doodle
-4.584114	doom
-3.490692	door
-4.681024	dope
-4.106993	dorm
-4.078964	dormitory
-4.681024	dory
-4.681024	dos
-4.437986	dosa
-4.584114	dose
-3.610986	dot
-4.805963	dotted
-3.692019	double
-4.106993	doubt
-4.504933	dough
-4.805963	doughnut
-4.504933	dove
-4.437986	dover
-3.245657	down
-4.805963	downgrade
-4.681024	downhill
-4.504933	downside
-4.027812	downstairs
-4.027812	downtown
-4.504933	downward
-4.805963	doze
-4.584114	dozen
-4.052635	draft
-4.504933	drafting
-4.078964	drag
-4.805963	dragged
-4.328842	dragging
-4.681024	draggy
-4.052635	dragon
-4.203903	drain
-4.805963	drained
-4.504933	drake
-3.692019	drama
-4.136956	dramatic
-4.241691	drank
-4.584114	drastic
-4.328842	drastically
-3.805963	draw
-4.437986	drawer
-4.681024	drawers
-4.004331	drawing
-4.379994	drawn
-4.584114	dread
-4.584114	dreadful
-3.629872	dream
-4.283084	dreamer
-4.437986	dreamt
-4.681024	dreamworld
-3.805963	dress
-4.379994	dressed
-4.241691	dressing
-4.681024	dressy
-4.379994	drew
-4.584114	dribble
-4.437986	dried
-4.437986	drift
-4.584114	drifting
-4.241691	drill
-3.567081	drink
-4.504933	drinker
-3.940661	drinking
-4.584114	drip
-4.681024	dripping
-3.629872	drive
-4.379994	driven
-3.791722	driver
-4.681024	driverless
-4.805963	driveway
-3.85172	driving
-4.805963	drizzle
-4.504933	drone
-4.328842	drool
-4.805963	droop
-3.6703	drop
-4.681024	dropout
-4.169141	dropping
-4.241691	drove
-4.437986	drown
-3.85172	drowsy
-4.136956	drug
-4.681024	drugstore
-4.241691	drum
-4.681024	drummer
-4.681024	drumming
-4.584114	drumstick
-4.078964	drunk
-4.805963	drunken
-3.885144	dry
-4.504933	drying
-4.379994	dual
-4.681024	dub
-4.681024	dubious
-3.902873	duck
-4.805963	duckling
-3.85172	dude
-3.805963	due
-4.681024	duet
-4.681024	dug
-3.534896	duit
-4.437986	duke
-4.379994	dull
-4.805963	dum
-4.078964	dumb
-4.584114	dumbbell
-4.681024	dumbledore
-4.681024	dummy
-4.283084	dump
-4.106993	dumpling
-4.437986	dun
-4.584114	dungeon
-4.584114	dunk
-4.437986	duo
-4.681024	duper
-4.437986	duplicate
-4.584114	durable
-4.203903	duration
-3.692019	durian
-3.483743	during
-4.584114	dusk
-4.203903	dust
-3.982054	dustbin
-4.504933	duster
-4.437986	dusty
-4.504933	dutch
-4.106993	duty
-4.584114	dwarf
-4.681024	dwell
-4.328842	dye
-4.027812	dying
-4.504933	dynamic
-4.504933	dynamics
-4.805963	dynamo
-4.584114	dynasty
-3.39099	e
-4.584114	ea
-3.519656	each
-4.504933	eager
-4.283084	eagle
-4.052635	ear
-4.437986	earl
-3.681024	early
-3.751605	earn
-4.805963	earnest
-4.078964	earning
-4.681024	earnings
-4.504933	earphone
-4.328842	earpiece
-4.584114	earring
-4.027812	earth
-4.379994	earthquake
-4.437986	ease
-3.805963	easier
-4.241691	easiest
-3.868111	easily
-3.777934	east
-4.328842	easter
-4.283084	eastern
-3.55069	easy
-4.584114	easygoing
-3.218626	eat
-3.921356	eaten
-4.504933	eater
-4.805963	eatery
-3.620326	eating
-4.328842	eats
-4.805963	eccentric
-4.328842	echo
-4.681024	eclipse
-4.681024	ecology
-4.241691	economic
-4.437986	economical
-4.169141	economics
-4.106993	economy
-4.681024	eczema
-4.584114	eddy
-4.203903	edge
-4.027812	edible
-4.078964	edit
-4.328842	edition
-4.379994	editor
-4.283084	educate
-4.203903	educated
-3.692019	education
-4.328842	educational
-4.584114	educator
-4.584114	eel
-4.681024	eerie
-3.940661	effect
-4.169141	effective
-4.504933	effectively
-4.283084	effects
-4.379994	efficiency
-4.169141	efficient
-4.805963	efficiently
-3.868111	effort
-4.584114	effortless
-3.777934	egg
-4.504933	eggplant
-4.169141	ego
-4.681024	egoistic
-3.052635	eh
-3.214898	eight
-3.739016	eighteen
-4.584114	eighteenth
-4.328842	eighth
-3.620326	eighty
-3.620326	either
-4.283084	el
-4.027812	elaborate
-4.681024	elaine
-4.805963	elastic
-4.504933	elbow
-4.052635	elder
-3.85172	elderly
-4.203903	eldest
-4.584114	elect
-4.241691	election
-4.078964	elective
-4.169141	electric
-4.283084	electrical
-4.203903	electricity
-4.805963	electron
-4.203903	electronic
-4.379994	electronics
-4.379994	elegant
-4.328842	element
-4.504933	elementary
-4.136956	elephant
-4.805963	elevate
-4.681024	elevated
-4.681024	elevation
-4.584114	elevator
-3.584114	eleven
-4.379994	eleventh
-4.681024	elf
-4.328842	eligibility
-4.004331	eligible
-4.584114	eliminate
-4.681024	elimination
-4.328842	elite
-3.413852	else
-4.437986	elsewhere
-4.805963	elusive
-3.6703	em
-4.805963	embark
-4.283084	embarrass
-4.203903	embarrassed
-3.777934	embarrassing
-4.584114	embarrassment
-4.241691	embassy
-4.504933	embrace
-4.504933	emcee
-4.681024	emergence
-3.76457	emergency
-4.805963	emit
-4.504933	emma
-4.169141	emotion
-4.052635	emotional
-4.283084	emotionally
-4.681024	emotionless
-4.681024	empathize
-4.437986	empathy
-4.437986	emperor
-4.437986	emphasis
-4.437986	emphasize
-4.437986	empire
-4.584114	empirical
-4.379994	employ
-4.078964	employed
-3.777934	employee
-3.85172	employer
-4.027812	employment
-3.835926	empty
-3.6703	en
-4.504933	enable
-3.620326	enam
-4.681024	enclose
-4.584114	enclosure
-4.681024	encode
-4.241691	encounter
-4.136956	encourage
-4.584114	encouragement
-4.379994	encouraging
-4.805963	encyclopedia
-3.358805	end
-3.940661	ended
-3.902873	ending
-4.379994	endless
-4.504933	endorse
-4.805963	endorsed
-4.584114	endorsement
-4.681024	endowment
-4.584114	endurance
-4.504933	endure
-4.203903	enemy
-4.437986	energetic
-3.868111	energy
-4.584114	enforce
-4.805963	enforcement
-4.052635	engage
-4.169141	engaged
-4.379994	engagement
-4.504933	engaging
-4.106993	engine
-4.078964	engineer
-3.85172	engineering
-4.805963	engrave
-4.805963	engrossed
-4.504933	enhance
-4.681024	enhanced
-4.681024	enhancement
-3.558808	enjoy
-4.078964	enjoyable
-4.136956	enjoying
-4.437986	enjoyment
-4.584114	enlighten
-4.805963	enlightenment
-4.681024	enlisted
-3.527209	enough
-3.982054	enquire
-3.960865	enquiry
-4.584114	enrich
-4.681024	enriching
-4.052635	enrichment
-4.379994	enrol
-4.106993	enroll
-4.379994	enrolled
-4.681024	enrollment
-4.805963	enrolment
-4.136956	ensure
-3.902873	enter
-4.437986	entering
-4.437986	enterprise
-4.241691	entertain
-4.584114	entertainer
-4.328842	entertaining
-3.835926	entertainment
-4.681024	enthusiasm
-4.584114	enthusiastic
-3.835926	entire
-4.379994	entirely
-4.283084	entitle
-4.078964	entitlement
-4.283084	entity
-4.052635	entrance
-4.379994	entrepreneur
-4.681024	entrepreneurship
-4.078964	entry
-4.328842	envelope
-4.805963	envious
-3.85172	environment
-4.328842	environmental
-4.681024	environmentally
-4.437986	envy
-4.437986	epic
-3.960865	episode
-4.805963	epoch
-4.004331	equal
-4.437986	equality
-4.681024	equalizer
-4.283084	equally
-4.504933	equation
-4.805963	equator
-4.681024	equatorial
-4.584114	equilibrium
-4.584114	equip
-4.106993	equipment
-4.203903	equity
-4.169141	equivalent
-2.936731	er
-4.106993	era
-4.328842	erase
-4.283084	eraser
-4.681024	erection
-4.379994	eric
-4.136956	err
-3.960865	error
-4.283084	es
-4.052635	escalate
-4.379994	escalator
-3.982054	escape
-4.504933	escort
-3.610986	especially
-4.203903	esplanade
-3.868111	essay
-4.241691	essence
-4.283084	essential
-4.283084	essentially
-4.681024	establish
-4.504933	established
-3.982054	estate
-4.504933	esteem
-4.379994	estimate
-4.805963	estimation
-4.504933	eternal
-4.584114	eternity
-4.805963	ethic
-4.584114	ethical
-4.437986	ethics
-4.681024	ethnic
-4.805963	etude
-4.584114	eu
-4.681024	evacuate
-4.584114	evaluate
-4.584114	evaluation
-4.283084	eve
-3.186174	even
-3.902873	evening
-3.739016	event
-3.885144	eventually
-3.470171	ever
-4.584114	evergreen
-4.805963	everlasting
-3.353665	every
-3.592888	everybody
-3.558808	everyday
-3.55069	everyone
-3.30536	everything
-3.835926	everywhere
-4.328842	evidence
-4.805963	evident
-4.078964	evil
-4.437986	evolution
-4.584114	evolve
-3.805963	ex
-4.004331	exact
-3.575514	exactly
-4.805963	exaggerate
-4.681024	exaggerated
-4.681024	exaggerating
-3.7033	exam
-4.328842	examination
-4.681024	examiner
-3.497754	example
-4.379994	exceed
-3.960865	excel
-4.681024	excellence
-4.283084	excellent
-3.868111	except
-4.805963	excepting
-4.504933	exception
-4.805963	exceptional
-4.328842	excess
-4.584114	excessive
-4.805963	excessively
-3.777934	exchange
-4.504933	excite
-4.027812	excited
-4.504933	excitement
-4.004331	exciting
-4.328842	exclamation
-4.283084	exclude
-4.328842	excluding
-4.584114	exclusion
-4.379994	exclusive
-4.504933	excursion
-3.960865	excuse
-4.283084	execute
-4.504933	executed
-4.379994	execution
-4.328842	executive
-4.504933	exempt
-3.714882	exercise
-4.504933	exhaust
-4.584114	exhausted
-4.805963	exhausting
-4.681024	exhibit
-4.169141	exhibition
-4.052635	exist
-4.437986	existence
-4.681024	existent
-4.078964	exit
-4.379994	exotic
-4.328842	expand
-4.805963	expanded
-4.681024	expanding
-4.805963	expansive
-3.805963	expect
-4.681024	expectancy
-4.203903	expectation
-4.379994	expedite
-4.805963	expedition
-4.681024	expel
-4.681024	expend
-4.504933	expenditure
-4.437986	expense
-3.527209	expensive
-3.542721	experience
-4.136956	experienced
-4.169141	experiment
-4.681024	experimental
-4.328842	expert
-4.681024	expiration
-4.241691	expire
-4.437986	expiring
-4.203903	expiry
-3.739016	explain
-4.379994	explaining
-4.328842	explanation
-4.437986	explicit
-4.681024	explicitly
-4.504933	explode
-4.805963	exploded
-4.584114	exploit
-3.960865	explore
-4.437986	explorer
-4.437986	exploring
-4.437986	explosion
-4.681024	explosive
-4.437986	export
-4.241691	expose
-4.283084	exposed
-4.241691	exposure
-3.902873	express
-4.584114	expressed
-4.241691	expression
-4.681024	expressive
-4.504933	expressway
-4.004331	extend
-4.078964	extended
-4.681024	extendible
-4.681024	extending
-4.203903	extension
-4.106993	extent
-4.504933	exterior
-4.203903	external
-4.584114	extinct
-4.681024	extinguisher
-3.726782	extra
-4.379994	extract
-4.805963	extraction
-4.681024	extravagant
-4.078964	extreme
-4.203903	extremely
-4.437986	extrovert
-4.283084	ey
-3.835926	eye
-4.681024	eyeball
-4.241691	eyebrow
-4.805963	eyelash
-4.584114	eyelid
-4.437986	eyesight
-4.805963	eyewitness
-3.457009	f
-4.328842	fa
-4.681024	fabric
-4.681024	fabrication
-4.681024	fabulous
-3.55069	face
-4.504933	faced
-4.004331	facial
-4.504933	facilitate
-4.805963	facilitator
-4.283084	facility
-3.76457	facing
-3.739016	fact
-4.584114	faction
-4.106993	factor
-4.136956	factory
-4.584114	factual
-4.437986	faculty
-4.004331	fad
-4.379994	fade
-4.437986	faded
-4.584114	fading
-3.497754	faham
-3.76457	fail
-4.379994	failing
-4.169141	failure
-4.203903	faint
-4.203903	fainting
-3.76457	fair
-4.241691	fairly
-4.681024	fairness
-4.203903	fairy
-4.241691	faith
-4.584114	faithful
-3.868111	fake
-3.681024	fall
-4.681024	fallacy
-4.328842	fallen
-4.027812	falling
-4.027812	false
-4.504933	fam
-4.328842	fame
-4.027812	familiar
-4.681024	familiarity
-3.338601	family
-4.584114	famine
-3.620326	famous
-3.85172	fan
-4.203903	fancy
-4.379994	fang
-4.681024	fantasia
-4.052635	fantastic
-4.203903	fantasy
-3.527209	far
-4.805963	faraway
-4.203903	fare
-4.437986	farewell
-3.940661	farm
-4.283084	farmer
-4.328842	farming
-4.681024	farther
-4.584114	fascinated
-4.584114	fascinating
-4.805963	fascination
-3.885144	fashion
-4.504933	fashionable
-4.328842	fashioned
-3.558808	fast
-3.805963	faster
-4.379994	fasting
-3.805963	fat
-4.805963	fatal
-4.241691	fate
-4.504933	fated
-3.567081	father
-4.805963	fatigue
-4.437986	fatter
-4.437986	fatty
-3.982054	fault
-4.241691	faulty
-4.437986	favor
-3.681024	favorite
-3.982054	fear
-4.681024	fearful
-4.805963	fearless
-4.584114	feasible
-4.504933	feast
-4.681024	feat
-4.504933	feather
-4.004331	feature
-4.584114	featured
-4.203903	fed
-3.85172	fee
-4.805963	feeble
-4.027812	feed
-3.902873	feedback
-4.681024	feeder
-4.241691	feeding
-3.233866	feel
-3.649616	feeling
-4.437986	fei
-3.791722	fell
-4.169141	fellow
-4.437986	fellowship
-3.791722	felt
-3.714882	female
-4.504933	feminine
-4.437986	fen
-4.078964	fence
-4.504933	fencing
-4.283084	ferry
-4.437986	fertility
-4.805963	fertilizer
-4.504933	fest
-4.027812	festival
-4.437986	festive
-4.169141	fetch
-4.805963	fetching
-3.835926	fever
-4.805963	feverish
-3.419761	few
-4.379994	fi
-4.584114	fiance
-4.681024	fiancee
-4.437986	fiber
-4.681024	fickle
-3.940661	fiction
-4.328842	fictional
-4.584114	fidelity
-4.504933	fiduciary
-3.885144	field
-4.241691	fierce
-4.681024	fiesta
-3.601843	fifteen
-4.584114	fifteenth
-3.885144	fifth
-3.419761	fifty
-3.739016	fight
-4.328842	fighter
-3.921356	fighting
-4.004331	figure
-4.681024	figured
-4.681024	figurine
-3.960865	file
-4.584114	filial
-4.379994	filing
-3.791722	fill
-4.078964	filled
-4.681024	filler
-4.584114	fillet
-4.169141	filling
-3.982054	film
-4.241691	filter
-4.681024	filthy
-4.681024	filtration
-4.004331	fin
-3.791722	final
-4.681024	finale
-4.805963	finalist
-4.379994	finalize
-3.960865	finally
-3.885144	finance
-3.6703	financial
-4.203903	financially
-3.324043	find
-4.004331	finding
-3.534896	fine
-4.004331	finger
-4.805963	fingernail
-3.558808	finish
-4.004331	finished
-4.283084	finishing
-4.283084	finland
-4.805963	fir
-3.7033	fire
-4.328842	fired
-4.805963	firefly
-4.681024	fireman
-4.805963	fireplace
-4.504933	firework
-4.106993	firm
-3.115767	first
-4.052635	firstly
-3.601843	fish
-4.504933	fisher
-4.328842	fisherman
-3.902873	fishing
-4.681024	fishy
-4.437986	fist
-3.726782	fit
-4.805963	fitch
-3.982054	fitness
-4.379994	fitting
-3.073569	five
-3.982054	fix
-4.004331	fixed
-4.437986	fixing
-3.940661	flag
-4.805963	flake
-4.379994	flame
-4.681024	flamingo
-4.504933	flap
-4.681024	flare
-4.805963	flaring
-3.960865	flash
-4.805963	flashing
-4.681024	flask
-3.835926	flat
-4.805963	flatten
-4.584114	flatter
-4.283084	flavor
-4.805963	flavored
-4.805963	flavorful
-4.136956	flavour
-4.437986	flaw
-4.805963	flawless
-4.584114	flea
-4.379994	flesh
-4.805963	fleshy
-4.379994	flew
-4.584114	flex
-4.504933	flexibility
-4.106993	flexible
-4.504933	flexibly
-4.584114	flick
-3.902873	flight
-4.584114	fling
-4.078964	flip
-4.584114	flirt
-4.681024	flirting
-4.106993	float
-4.584114	floater
-4.241691	floating
-4.584114	flock
-4.437986	flood
-4.584114	flooded
-4.584114	flooding
-3.639631	floor
-4.681024	flooring
-4.584114	flop
-4.504933	flora
-4.584114	floral
-4.584114	florence
-4.681024	floss
-4.241691	flour
-4.805963	flourish
-3.982054	flow
-3.940661	flower
-4.681024	flowery
-4.504933	flowing
-4.805963	flown
-4.203903	flu
-4.584114	fluency
-4.328842	fluent
-4.805963	fluently
-4.379994	fluffy
-4.437986	fluid
-4.504933	flung
-4.379994	flush
-4.504933	flute
-3.751605	fly
-4.136956	flyer
-3.885144	flying
-4.328842	foam
-4.681024	foaming
-3.820686	focus
-4.437986	fog
-4.681024	foil
-4.328842	fold
-4.584114	foldable
-4.584114	folded
-4.169141	folder
-4.504933	folding
-4.805963	folio
-4.283084	folk
-3.567081	follow
-4.283084	follower
-3.921356	following
-4.805963	fondue
-4.437986	font
-4.379994	foo
-3.175874	food
-4.283084	fool
-4.437986	foolish
-4.004331	foot
-4.681024	footage
-3.868111	football
-4.504933	footballer
-4.681024	footstep
-2.761946	for
-4.437986	forbidden
-3.885144	force
-4.169141	forced
-4.437986	forcing
-4.437986	ford
-4.681024	fore
-4.136956	forecast
-4.584114	forecasting
-4.328842	forehead
-3.885144	foreign
-4.027812	foreigner
-4.681024	foremost
-4.805963	forensic
-4.379994	foresee
-4.681024	foresight
-4.106993	forest
-3.85172	forever
-4.681024	forfeit
-3.751605	forget
-4.681024	forgetful
-4.584114	forgetting
-4.241691	forgive
-4.681024	forgiveness
-4.681024	forgo
-3.7033	forgot
-4.241691	forgotten
-4.241691	fork
-3.558808	form
-4.027812	formal
-4.681024	formally
-4.203903	format
-4.584114	formation
-4.584114	formative
-4.805963	formed
-4.504933	former
-4.584114	forming
-4.078964	formula
-4.584114	formulation
-4.379994	fort
-4.805963	forte
-4.027812	forth
-4.437986	forties
-4.504933	fortnight
-4.379994	fortunate
-4.584114	fortunately
-4.241691	fortune
-3.534896	forty
-4.283084	forum
-3.805963	forward
-4.504933	forwarder
-4.805963	forwards
-4.504933	fossil
-4.203903	foster
-4.681024	fostering
-4.437986	fought
-4.437986	foul
-3.6703	found
-4.027812	foundation
-4.504933	founder
-4.584114	founding
-4.241691	fountain
-3.140069	four
-3.739016	fourteen
-4.504933	fourteenth
-3.805963	fourth
-4.106993	fox
-4.584114	fraction
-4.437986	fracture
-4.437986	fragile
-4.805963	fragment
-4.584114	fragrance
-4.504933	fragrant
-4.584114	frail
-4.027812	frame
-4.681024	framework
-4.379994	franc
-4.437986	franchise
-4.203903	frank
-4.805963	franklin
-4.437986	frankly
-4.584114	frappe
-4.584114	fraud
-4.241691	freak
-4.681024	freaky
-3.385457	free
-4.004331	freedom
-4.504933	freely
-4.681024	freeman
-4.681024	freeway
-4.169141	freeze
-4.584114	freezer
-4.437986	freezing
-4.805963	freight
-4.328842	frequency
-4.283084	frequent
-4.283084	frequently
-3.76457	fresh
-4.584114	freshly
-4.584114	freshman
-4.805963	freshness
-4.437986	friction
-3.791722	fried
-3.319296	friend
-3.902873	friendly
-3.940661	friendship
-4.437986	fright
-4.805963	frighten
-4.437986	frightened
-4.437986	fringe
-4.805963	frivolous
-4.504933	fro
-4.241691	frog
-3.040046	from
-3.497754	front
-4.681024	frontier
-4.584114	frost
-4.504933	frosting
-4.805963	froze
-4.203903	frozen
-3.885144	fruit
-4.504933	fruitful
-4.681024	fruity
-4.584114	frustration
-4.078964	fry
-4.584114	fryer
-4.203903	fu
-4.805963	fudge
-4.328842	fuel
-4.504933	fuji
-4.283084	fulfill
-4.681024	fulfillment
-3.504933	full
-3.982054	fully
-3.450575	fun
-3.982054	function
-4.504933	functional
-3.791722	fund
-4.379994	fundamental
-4.584114	funded
-3.940661	funds
-4.283084	funeral
-4.504933	funk
-4.379994	funky
-3.527209	funny
-4.283084	fur
-4.379994	furious
-4.283084	furniture
-4.584114	furry
-3.714882	further
-4.437986	furthermore
-4.379994	furthest
-4.584114	fury
-4.584114	fuse
-4.283084	fusion
-4.504933	fuss
-4.584114	fussy
-3.610986	future
-4.681024	futuristic
-4.681024	fuzzy
-3.39099	g
-4.504933	ga
-4.328842	gadget
-4.004331	gain
-4.584114	gaining
-4.805963	gains
-4.437986	gala
-4.584114	galah
-4.241691	galaxy
-4.805963	gale
-4.805963	gali
-4.283084	gallery
-4.681024	gam
-4.283084	gamble
-4.681024	gambler
-4.379994	gambling
-3.483743	game
-3.982054	gaming
-4.437986	gan
-4.504933	gandum
-4.169141	gang
-4.106993	gangster
-4.681024	gangsterism
-4.681024	ganja
-4.681024	gantry
-3.982054	gap
-4.437986	garage
-4.283084	garbage
-3.85172	garden
-4.379994	gardener
-4.241691	gardening
-4.805963	garland
-4.203903	garlic
-4.805963	garment
-4.078964	gas
-4.681024	gasp
-4.681024	gasping
-4.681024	gassy
-4.437986	gastric
-3.982054	gate
-4.437986	gateway
-4.203903	gather
-4.169141	gathering
-4.437986	gauge
-3.777934	gave
-3.960865	gay
-4.437986	gaze
-4.106993	ge
-4.203903	gear
-4.805963	gearbox
-4.681024	gecko
-4.584114	gee
-4.328842	gel
-4.805963	gelong
-4.379994	gem
-4.328842	gen
-4.241691	gender
-4.328842	gene
-3.76457	general
-3.960865	generally
-4.052635	generate
-3.7033	generation
-4.437986	generator
-4.379994	generic
-4.379994	generous
-4.504933	genetic
-4.805963	genetically
-4.681024	genetics
-4.681024	geneva
-4.106993	genie
-4.283084	genius
-3.885144	genre
-4.283084	gentle
-4.203903	gentleman
-4.504933	gently
-4.328842	genuine
-4.504933	genuinely
-4.681024	geo
-4.136956	geography
-4.681024	germ
-4.106993	german
-4.379994	gesture
-3.060368	get
-4.437986	getah
-4.681024	getaway
-3.527209	getting
-4.681024	ghetto
-3.868111	ghost
-4.078964	giant
-4.203903	giddiness
-3.960865	giddy
-3.835926	gift
-4.504933	gifted
-4.241691	gig
-4.584114	gigantic
-4.681024	gilbert
-4.681024	gim
-4.681024	gin
-4.241691	ginger
-4.681024	ginseng
-4.437986	giraffe
-3.40227	girl
-4.504933	girly
-4.203903	giro
-4.681024	gist
-3.200299	give
-3.692019	given
-4.805963	giver
-3.777934	giving
-4.169141	glad
-4.681024	glam
-4.805963	glamour
-4.681024	glance
-3.902873	glass
-4.106993	glasses
-4.681024	glasshouse
-4.805963	glassware
-4.805963	gleam
-4.584114	glen
-4.504933	glider
-4.805963	glimpse
-4.584114	glitter
-4.078964	global
-4.805963	globally
-4.584114	globe
-4.379994	gloomy
-4.681024	glorious
-4.379994	glory
-4.203903	gloss
-4.379994	glove
-4.437986	glow
-4.681024	glowing
-4.681024	glucose
-4.437986	glue
-4.805963	glutinous
-2.897478	go
-3.902873	goal
-4.681024	goalkeeper
-4.027812	goat
-4.681024	goatee
-4.681024	goblin
-3.519656	god
-4.504933	goddess
-4.805963	godfather
-3.681024	goes
-4.504933	gogo
-3.218626	going
-4.136956	gol
-3.885144	gold
-3.940661	golden
-4.504933	goldfish
-3.902873	golf
-3.714882	gone
-4.283084	gong
-4.805963	goo
-3.050088	good
-4.681024	goodman
-3.982054	goodness
-4.169141	goods
-4.681024	goody
-4.379994	goose
-4.203903	gor
-4.805963	gore
-4.681024	gorgeous
-4.504933	gorilla
-4.681024	gory
-3.960865	gosh
-4.681024	gospel
-4.106993	gossip
-4.584114	gossiping
-2.995282	got
-4.106993	gotten
-4.681024	gourd
-4.437986	gout
-4.584114	govern
-3.534896	government
-4.584114	governor
-4.379994	gown
-3.76457	grab
-4.136956	grace
-4.504933	graceful
-4.681024	gracious
-4.169141	grad
-3.960865	grade
-4.437986	graded
-4.584114	grading
-4.805963	gradual
-4.584114	gradually
-3.902873	graduate
-4.203903	graduated
-4.379994	graduating
-4.203903	graduation
-4.437986	grail
-4.584114	grain
-4.805963	grainy
-4.328842	gram
-4.379994	grammar
-4.805963	grammatical
-3.960865	grand
-4.681024	grandchild
-4.584114	granddaughter
-4.004331	grandfather
-3.902873	grandma
-3.982054	grandmother
-4.283084	grandpa
-4.283084	grandson
-4.379994	granny
-4.004331	grant
-4.504933	grape
-4.379994	graph
-4.283084	graphic
-4.504933	graphics
-4.584114	grasp
-3.982054	grass
-4.805963	grassland
-4.805963	grassy
-4.328842	grateful
-4.584114	grave
-4.681024	graveyard
-4.328842	gravity
-4.241691	gravy
-4.203903	gray
-4.805963	grayish
-3.620326	great
-4.283084	greater
-4.681024	greatly
