
\data\
ngram 1=6122
ngram 2=0
ngram 3=0

\1-grams:
-3.800854	</s>
-3.800854	<noise>
-99	<s>
-3.800854	<v-noise>
-3.800854	__Abraham_Solomon
-3.800854	__Admiralty_Greens
-3.800854	__Admiralty_Road
-3.800854	__Admiralty_West
-3.800854	__Ah_Hood_Road
-3.800854	__Aida_Street
-3.800854	__Airline_Road
-3.800854	__Airport_Cargo_Road
-3.800854	__Al_Islamiah
-3.800854	__Al_Islamic
-3.800854	__Alex_Josey
-3.800854	__Alexander_Laurie_Johnston
-3.800854	__Alexandra_Lane
-3.800854	__Alexandra_Road
-3.800854	__Aliman_Hassan
-3.800854	__Aljunied_Avenue
-3.800854	__Aljunied_Crescent
-3.800854	__Aljunied_Hussein
-3.800854	__Aljunied_Neighbourhood
-3.800854	__Aljunied_Road
-3.800854	__Alnwick_Road
-3.800854	__Amasalam_Chetty_Road
-3.800854	__Anak_Bukit
-3.800854	__Anchorvale_Drive
-3.800854	__Anchorvale_Street
-3.800854	__Ang_Mo_Kio
-3.800854	__Ang_Mo_Kio_Street
-3.800854	__Ang_Peng_Tiam
-3.800854	__Angsana_Avenue
-3.800854	__Angsana_Drive
-3.800854	__Ann_Siang_Hill
-3.800854	__Anthony_Road
-3.800854	__Arab_Street
-3.800854	__Arrival_Crescent
-3.800854	__Arts_Link
-3.800854	__Arumugam_Road
-3.800854	__Asia_Pacific
-3.800854	__Asia_Square
-3.800854	__Asimont_Lane
-3.800854	__Attap_Valley_Lane
-3.800854	__Au_Yun_Pak
-3.800854	__Auckland_Road_West
-3.800854	__Australian_International
-3.800854	__Ava_Road
-3.800854	__Avon_Road
-3.800854	__Baker_Street
-3.800854	__Bali_Lane
-3.800854	__Balmoral_Crescent
-3.800854	__Bao_Gong
-3.800854	__Bartley_Road
-3.800854	__Beach_Road
-3.800854	__Beatty_Road
-3.800854	__Bedok_Anchorvale_Crescent
-3.800854	__Bedok_Green
-3.800854	__Bedok_Lighthouse
-3.800854	__Bedok_North
-3.800854	__Bedok_Point
-3.800854	__Bedok_Points
-3.800854	__Bedok_Reservoir
-3.800854	__Bedok_Ria_Crescent
-3.800854	__Bedok_South
-3.800854	__Bedok_View
-3.800854	__Beeh_Low_See
-3.800854	__Begonia_Walk
-3.800854	__Belilios_Lane
-3.800854	__Belmont_Road
-3.800854	__Bernice_Ong
-3.800854	__Bethlehem_Bible_Presbyterian
-3.800854	__Binchang_Rise
-3.800854	__Bishan_Point
-3.800854	__Bishan_Street
-3.800854	__Blackmore_Drive
-3.800854	__Bliss_Hotel
-3.800854	__Blue_Cross
-3.800854	__Blue_Stars
-3.800854	__Bo_Seng_Avenue
-3.800854	__Boarding_House
-3.800854	__Boat_Quay
-3.800854	__Bodmin_Drive
-3.800854	__Bonham_Street
-3.800854	__Boon_Keng
-3.800854	__Boon_Lay
-3.800854	__Boon_Lay_Place
-3.800854	__Boon_Tat_Street
-3.800854	__Boon_Teck_Road
-3.800854	__Borthwick_Drive
-3.800854	__Boundary_Road
-3.800854	__Braddell_Road
-3.800854	__Brani_Drive
-3.800854	__Brani_Marine
-3.800854	__Brani_Way
-3.800854	__Bridport_Avenue
-3.800854	__Bright_Hill
-3.800854	__Bristol_Road
-3.800854	__Buangkok_View
-3.800854	__Bukit_Batok
-3.800854	__Bukit_Batok_Avenue
-3.800854	__Bukit_Batok_Avenue_West
-3.800854	__Bukit_Batok_Central
-3.800854	__Bukit_Batok_Central_Link
-3.800854	__Bukit_Batok_Crescent
-3.800854	__Bukit_Batok_East
-3.800854	__Bukit_Batok_East_Avenue
-3.800854	__Bukit_Batok_Road
-3.800854	__Bukit_Batok_Street
-3.800854	__Bukit_Batok_West
-3.800854	__Bukit_Batok_West_Avenue
-3.800854	__Bukit_Chandu
-3.800854	__Bukit_Ho_Swee_Link
-3.800854	__Bukit_Manis_Road
-3.800854	__Bukit_Merah
-3.800854	__Bukit_Merah_View
-3.800854	__Bukit_Mugliston
-3.800854	__Bukit_Sedap_Road
-3.800854	__Bukit_Teresa_Close
-3.800854	__Bukit_Timah
-3.800854	__Bukit_Timah_Avenue
-3.800854	__Bukit_Timah_Link
-3.800854	__Bukit_Timah_Plaza
-3.800854	__Bukit_Timah_Road
-3.800854	__Bukit_Tinggi_Road
-3.800854	__Burmah_Road
-3.800854	__Burmese_Buddhist
-3.800854	__Bury_Road
-3.800854	__Buyong_Road
-3.800854	__Canberra_View
-3.800854	__Canning_Lane
-3.800854	__Canning_Rise
-3.800854	__Cantonment_Complex
-3.800854	__Carisbrooke_Grove
-3.800854	__Carl_Alexander
-3.800854	__Carlton_Avenue
-3.800854	__Carnation_Drive
-3.800854	__Cashew_Crescent
-3.800854	__Cashew_Road
-3.800854	__Cassia_Crescent
-3.800854	__Ceylon_Road
-3.800854	__Chai_Chee
-3.800854	__Chai_Chee_Drive
-3.800854	__Chai_Chee_Street
-3.800854	__Chan_Chun_Sing
-3.800854	__Chan_Sek_Keong
-3.800854	__Chancery_Lane
-3.800854	__Chang_Ziang
-3.800854	__Changi_Business_Park_Vista
-3.800854	__Changi_Coast
-3.800854	__Changi_East_Drive
-3.800854	__Changi_East_Road
-3.800854	__Changi_South_Lane
-3.800854	__Changi_Village_Road
-3.800854	__Changkat_Changi
-3.800854	__Chatsworth_Road
-3.800854	__Cheang_Hong_Lim_Place
-3.800854	__Cheang_Hong_Lim_Street
-3.800854	__Chencharu_Lane
-3.800854	__Chencharu_Link
-3.800854	__Cheo_Kim_Ban
-3.800854	__Chestnut_Crescent
-3.800854	__Chew_Kheng_Chuan
-3.800854	__Chin_Bee_Road
-3.800854	__Chin_Cheng_Avenue
-3.800854	__Chin_Chew_Street
-3.800854	__Chin_Swee
-3.800854	__China_Street
-3.800854	__Chinatown_Complex
-3.800854	__Chinatown_Hotel
-3.800854	__Chinatown_Point
-3.800854	__Chinese_Garden
-3.800854	__Chinese_Garden_Road
-3.800854	__Choa_Chu_Kang
-3.800854	__Choa_Chu_Kang_Loop
-3.800854	__Choa_Chu_Kang_West
-3.800854	__Chong_Pang
-3.800854	__Chong_Pang_Combined
-3.800854	__Chong_You_Fook_Charles
-3.800854	__Chong_Zheng
-3.800854	__Choon_Guan_Street
-3.800854	__Choor_Singh_Sidhu
-3.800854	__Christalite_Methodist
-3.800854	__Christopher_Henry_Rothwell
-3.800854	__Chu_Siang_Tong
-3.800854	__Chuan_Hoe_Avenue
-3.800854	__Chuan_Walk
-3.800854	__Chulia_Street
-3.800854	__Chwee_Chian_View
-3.800854	__Circular_Road
-3.800854	__Claymore_Road
-3.800854	__Cleantech_View
-3.800854	__Clementi_Street
-3.800854	__Clive_Street
-3.800854	__Clunny_Hill
-3.800854	__Colchester_Grove
-3.800854	__College_Of_Medicine
-3.800854	__Collyer_Quay
-3.800854	__Compassvale_Drive
-3.800854	__Compassvale_Road
-3.800854	__Coney_Island
-3.800854	__Connexis_South
-3.800854	__Constance_Singam
-3.800854	__Cook_Street
-3.800854	__Copeland_Avenue
-3.800854	__Copthorne_King'S
-3.800854	__Corfe_Place
-3.800854	__Corporation_Road
-3.800854	__Countryside_Grove
-3.800854	__Countryside_View
-3.800854	__Court_Road
-3.800854	__Covenant_Community_Methodist
-3.800854	__Craig_Road
-3.800854	__Cranborne_Road
-3.800854	__Creek_Mangrove
-3.800854	__Croucher_Road
-3.800854	__Crowhurst_Drive
-3.800854	__Cuff_Road
-3.800854	__Cuscaden_Walk
-3.800854	__Da_Bo_Gong
-3.800854	__Daffodil_Drive
-3.800854	__Dahan_Road
-3.800854	__Dairy_Farm
-3.800854	__Dairy_Farm_Crescent
-3.800854	__Dalkeith_Road
-3.800854	__Darrell_Ang
-3.800854	__Dawson_North_Spring
-3.800854	__Dedap_Road
-3.800854	__Delta_Avenue
-3.800854	__Depot_Close
-3.800854	__Depot_Walk
-3.800854	__Devan_Nair
-3.800854	__Dimensions_International
-3.800854	__Dinding_Place
-3.800854	__Dock_Road_East
-3.800854	__Dock_Road_West
-3.800854	__Douglas_Hamilton
-3.800854	__Dover_Drive
-3.800854	__Drake_Avenue
-3.800854	__Drake_Lane
-3.800854	__Dunlop_Street
-3.800854	__Duxton_Road
-3.800854	__East_Avenue
-3.800854	__East_Coast_Avenue
-3.800854	__East_Spring
-3.800854	__Eastern_Health_Alliance
-3.800854	__Eau_Thermale_Avene
-3.800854	__Edgware_Road
-3.800854	__Edmund_Blundell
-3.800854	__Edmund_Chen
-3.800854	__Edwin_Browns
-3.800854	__Ee_Teow_Leng_Road
-3.800854	__Elias_Green
-3.800854	__Elias_Park_Avenue
-3.800854	__Ellice_Handy
-3.800854	__Empress_Road
-3.800854	__Eng_Hoon_Street
-3.800854	__Eng_Kong_Road
-3.800854	__Eng_Neo_Avenue
-3.800854	__Ernani_Street
-3.800854	__Esther_Tan
-3.800854	__Eu_Yee_Ming_Richard
-3.800854	__Eunos_Avenue
-3.800854	__Evolution_Garden_Walk
-3.800854	__Faber_Walk
-3.800854	__Fairway_Club
-3.800854	__Fairy_Point_Hill
-3.800854	__Faith_Methodist
-3.800854	__Faith_Sanctuary_Garden_Avenue
-3.800854	__Famous_Amos
-3.800854	__Fan_Yoong_Road
-3.800854	__Farrer_Garden
-3.800854	__Farrer_Park
-3.800854	__Fernvale_Lane
-3.800854	__Fire_Station
-3.800854	__Flint_Street
-3.800854	__Florence_Road
-3.800854	__Flower_Road
-3.800854	__Fo_Shan_Ting
-3.800854	__Foch_Road
-3.800854	__Folkestone_Road
-3.800854	__Fortune_Students
-3.800854	__Fourth_Street
-3.800854	__Francis_Thomas_Drive
-3.800854	__Fuk_Tak_Chi
-3.800854	__Fullerton_Bay
-3.800854	__Fulton_Avenue
-3.800854	__Fusionopolis_Walk
-3.800854	__Gallop_Park
-3.800854	__Gallop_Road
-3.800854	__Gambir_Walk
-3.800854	__Gan_Eng_Seng
-3.800854	__Gateway_Avenue
-3.800854	__Gateway_Inn
-3.800854	__George_Nigel
-3.800854	__Gerald_Crescent
-3.800854	__Geylang_Bahru
-3.800854	__Geylang_Bahru_Lane
-3.800854	__Geylang_Bahru_Terrace
-3.800854	__Geylang_East_Avenue
-3.800854	__Geylang_East_Central
-3.800854	__Geylang_Lorong
-3.800854	__Geylang_Lorong_Labang
-3.800854	__Geylang_Methodist
-3.800854	__Geylang_Methodist_School
-3.800854	__Geylang_Road
-3.800854	__Geylang_Serai
-3.800854	__Geylang_Square
-3.800854	__Geylang_United
-3.800854	__Giant_Spring
-3.800854	__Gibraltar_Crescent
-3.800854	__Gibson_Hill
-3.800854	__Gilstead_Road
-3.800854	__Giok_Hong_Tian
-3.800854	__Goldhill_Place
-3.800854	__Gopeng_Street
-3.800854	__Gordon_Arthur_Ransome
-3.800854	__Grace_Walk
-3.800854	__Great_World
-3.800854	__Green_Kiwi_Backpacker
-3.800854	__Green_Taipei
-3.800854	__Green_Zeng
-3.800854	__Greendale_Rise
-3.800854	__Greenfield_Drive
-3.800854	__Greenridge_Crescent
-3.800854	__Greenwich_Drive
-3.800854	__Grove_Crescent
-3.800854	__Guillemard_Lane
-3.800854	__Guillemard_Road
-3.800854	__Gul_Lane
-3.800854	__Gul_Street
-3.800854	__Guok_Avenue
-3.800854	__Gurkha_Contingent
-3.800854	__Hai_Sing_Crescent
-3.800854	__Haigsville_Drive
-3.800854	__Haji_Lane
-3.800854	__Halifax_Road
-3.800854	__Hamilton_Place
-3.800854	__Hampstead_Garden
-3.800854	__Hang_Chang_Chieh
-3.800854	__Happy_Hotel
-3.800854	__Harlyn_Road
-3.800854	__Harrison_Road
-3.800854	__Havelock_Road
-3.800854	__Hiang_Foo_Siang_Temple
-3.800854	__Hillview_Avenue
-3.800854	__Hilton_International
-3.800854	__Hindhede_Road
-3.800854	__Hindoo_Road
-3.800854	__Ho_Ching_Road
-3.800854	__Ho_Lee_Ling
-3.800854	__Ho_Ling
-3.800854	__Hock_Chuan
-3.800854	__Holland_Grove_Lane
-3.800854	__Holland_Hill
-3.800854	__Holland_Village
-3.800854	__Home_Team_Academy
-3.800854	__Hong_Kah
-3.800854	__Hong_San
-3.800854	__Hospital_Avenue
-3.800854	__Hougang_Avenue
-3.800854	__Hougang_One
-3.800854	__How_Sun_Drive
-3.800854	__How_Sun_Road
-3.800854	__How_Sun_Walk
-3.800854	__Hsu_Tse_Kwang
-3.800854	__Hubert_Hill
-3.800854	__Hume_Avenue
-3.800854	__Hussein_Aljunied
-3.800854	__Hwee_Kuan
-3.800854	__Hythe_Road
-3.800854	__Imbiah_Walk
-3.800854	__Inderjit_Singh
-3.800854	__Inggu_Road
-3.800854	__Institute_Of_Engineer_Singapore
-3.800854	__International_Student_Support
-3.800854	__Ipoh_Lane
-3.800854	__Iqbal_Avenue
-3.800854	__Irving_Place
-3.800854	__Jalan_Anak_Bukit
-3.800854	__Jalan_Azam'S
-3.800854	__Jalan_Baiduri
-3.800854	__Jalan_Bangsawan
-3.800854	__Jalan_Basong
-3.800854	__Jalan_Batu_Ubin
-3.800854	__Jalan_Bena
-3.800854	__Jalan_Berjaya
-3.800854	__Jalan_Berseri
-3.800854	__Jalan_Binja
-3.800854	__Jalan_Binjai
-3.800854	__Jalan_Boon_Lay
-3.800854	__Jalan_Bumbong
-3.800854	__Jalan_Bunga_Rampai
-3.800854	__Jalan_Bungar
-3.800854	__Jalan_Chengkek
-3.800854	__Jalan_Dondang_Sayang
-3.800854	__Jalan_Dua
-3.800854	__Jalan_Dusun
-3.800854	__Jalan_Enam
-3.800854	__Jalan_Gemala
-3.800854	__Jalan_Girang
-3.800854	__Jalan_Greja
-3.800854	__Jalan_Hajijah
-3.800854	__Jalan_Hari_Raya
-3.800854	__Jalan_Jeruju
-3.800854	__Jalan_Jong
-3.800854	__Jalan_Kampong_Chantek
-3.800854	__Jalan_Kampong_Siglap
-3.800854	__Jalan_Kayu_Manis
-3.800854	__Jalan_Kechil
-3.800854	__Jalan_Keli
-3.800854	__Jalan_Kemaman
-3.800854	__Jalan_Keruing
-3.800854	__Jalan_Kesoma
-3.800854	__Jalan_Khairuddin
-3.800854	__Jalan_Klapa
-3.800854	__Jalan_Kledek
-3.800854	__Jalan_Klinik
-3.800854	__Jalan_Kwok_Min
-3.800854	__Jalan_Lana
-3.800854	__Jalan_Langgar_Bedok
-3.800854	__Jalan_Lapang
-3.800854	__Jalan_Layang_Layang
-3.800854	__Jalan_Lembah_Bedok
-3.800854	__Jalan_Lempeng
-3.800854	__Jalan_Lengkok
-3.800854	__Jalan_Lengkok_Sembawang
-3.800854	__Jalan_Limau_Bali
-3.800854	__Jalan_Limau_Nipis
-3.800854	__Jalan_Limau_Purut
-3.800854	__Jalan_Limbok
-3.800854	__Jalan_Mamam
-3.800854	__Jalan_Mangkok
-3.800854	__Jalan_Manis
-3.800854	__Jalan_Mastuli
-3.800854	__Jalan_Membina
-3.800854	__Jalan_Mempurong
-3.800854	__Jalan_Mengkudu
-3.800854	__Jalan_Mesra
-3.800854	__Jalan_Minggu
-3.800854	__Jalan_Minyak
-3.800854	__Jalan_Noordin
-3.800854	__Jalan_Novena
-3.800854	__Jalan_Nuri
-3.800854	__Jalan_Paras
-3.800854	__Jalan_Pari_Kikis
-3.800854	__Jalan_Pelangi
-3.800854	__Jalan_Pelatina
-3.800854	__Jalan_Pelatok
-3.800854	__Jalan_Pelepah
-3.800854	__Jalan_Pelikat
-3.800854	__Jalan_Peradun
-3.800854	__Jalan_Pinang
-3.800854	__Jalan_Puteri
-3.800854	__Jalan_Rajah
-3.800854	__Jalan_Rebana
-3.800854	__Jalan_Remis
-3.800854	__Jalan_Rendang
-3.800854	__Jalan_Rukam
-3.800854	__Jalan_Sabit
-3.800854	__Jalan_Seh_Chuan
-3.800854	__Jalan_Selamat
-3.800854	__Jalan_Selimang
-3.800854	__Jalan_Senang
-3.800854	__Jalan_Sendudok
-3.800854	__Jalan_Senyum
-3.800854	__Jalan_Setia
-3.800854	__Jalan_Shaer
-3.800854	__Jalan_Siap
-3.800854	__Jalan_Simpang_Bedok
-3.800854	__Jalan_Sukachita
-3.800854	__Jalan_Sungei_Poyan
-3.800854	__Jalan_Tan_Tock_Seng
-3.800854	__Jalan_Tanah
-3.800854	__Jalan_Tanah_Rata
-3.800854	__Jalan_Tanjong
-3.800854	__Jalan_Tari_Lilin
-3.800854	__Jalan_Tari_Zapin
-3.800854	__Jalan_Tarum
-3.800854	__Jalan_Tenang
-3.800854	__Jalan_Tenteram
-3.800854	__Jalan_Tepong
-3.800854	__Jalan_Tiga_Ratus
-3.800854	__Jalan_Ulu_Seletar
-3.800854	__Jalan_Ulu_Sembawang
-3.800854	__Jalan_Wajek
-3.800854	__Jalan_Yasin
-3.800854	__Jalan_Zamrud
-3.800854	__Jamaica_Road
-3.800854	__Janet_Lim
-3.800854	__Janil_Puthucheary
-3.800854	__Jervois_Hill
-3.800854	__Ji_Huang_Kok
-3.800854	__Jiak_Chuan_Road
-3.800854	__Joan_Road
-3.800854	__Joanne_Soo
-3.800854	__John_Fearns_Nicolls
-3.800854	__John_Le_Cain
-3.800854	__John_Morrice
-3.800854	__Joo_Avenue
-3.800854	__Joo_Koon_Crescent
-3.800854	__Jula_Juli
-3.800854	__Junction_Nine
-3.800854	__Jupiter_Road
-3.800854	__Jurong_Bird
-3.800854	__Jurong_East_Avenue
-3.800854	__Jurong_Island
-3.800854	__Jurong_Port
-3.800854	__Jurong_West
-3.800854	__Jurong_West_Avenue
-3.800854	__Jurong_West_Central
-3.800854	__Kaki_Bukit
-3.800854	__Kallang_Airport_Drive
-3.800854	__Kampong_Ampat
-3.800854	__Kampong_Arang_Road
-3.800854	__Kampong_Bahru
-3.800854	__Kampong_Bahru_Road
-3.800854	__Kampong_Bugis
-3.800854	__Kampong_Bugis_Crescent
-3.800854	__Kampong_Bukit_Coffee
-3.800854	__Kampong_Chai_Chee
-3.800854	__Kampong_Eunos
-3.800854	__Kampong_Glam
-3.800854	__Kampong_Java
-3.800854	__Kampong_Kapor_Road
-3.800854	__Kampong_Kayu_Road
-3.800854	__Kampong_Kembangan
-3.800854	__Kampong_Sireh
-3.800854	__Kampong_Sungai_Tiga
-3.800854	__Kampong_Ubi
-3.800854	__Kampong_Wak_Hassan
-3.800854	__Kampung_Glam
-3.800854	__Kampung_Melayu
-3.800854	__Katmandu_Road
-3.800854	__Kay_Siang_Road
-3.800854	__Keat_Hong_Link
-3.800854	__Kebun_Baru
-3.800854	__Keck_Seng
-3.800854	__Kee_Seng_Street
-3.800854	__Kee_Sun_Avenue
-3.800854	__Keene_Road
-3.800854	__Keng_Lee_Road
-3.800854	__Kent_Ridge_Crescent
-3.800854	__Kent_Ridge_Drive
-3.800854	__Kent_Road
-3.800854	__Kenya_Crescent
-3.800854	__Keppel_Bay
-3.800854	__Keramat_Road
-3.800854	__Kerong_Walk
-3.800854	__Kew_Avenue
-3.800854	__Kew_Walk
-3.800854	__Khaw_Boon_Wan
-3.800854	__Kian_Teck_Road
-3.800854	__Kiew_Sian_King
-3.800854	__Kim_Chuan_Road
-3.800854	__Kim_Hong
-3.800854	__Kim_Keat
-3.800854	__Kim_Seng
-3.800854	__Kim_Seng_Road
-3.800854	__Kim_Tian_Place
-3.800854	__Kinara_Lane
-3.800854	__Kismis_Road
-3.800854	__Kitchener_Road
-3.800854	__Klang_Road
-3.800854	__Koh_Mui_Hiang
-3.800854	__Koh_Seow_Chuan
-3.800854	__Kouo_Shang_Wei
-3.800854	__Kranji_Commonwealth
-3.800854	__Kranji_Crescent
-3.800854	__Kreta_Ayer
-3.800854	__Kuang_Chee_Tng
-3.800854	__Kwan_Im_Tng
-3.800854	__Kwan_Imm_See
-3.800854	__Kwong_Min_Road
-3.800854	__Kwong_Wai_Siew
-3.800854	__La_Mode
-3.800854	__Lam_Pin_Min
-3.800854	__Lambeth_Walk
-3.800854	__Larkhill_Road
-3.800854	__Lau_Kuo_Kwong_Robert
-3.800854	__Lavender_Street
-3.800854	__Le_Peranakan
-3.800854	__Lee_Boon_Ngan
-3.800854	__Lee_Kong_Chian
-3.800854	__Lee_Kong_Yan
-3.800854	__Lee_Shih_Shiong_Peter
-3.800854	__Lempeng_Drive
-3.800854	__Leng_Chai_Chee
-3.800854	__Lengkok_Angsa
-3.800854	__Lengkok_Lima
-3.800854	__Lengkok_Satu
-3.800854	__Lengkok_Satu_Sago_Street
-3.800854	__Lengkong_Dua
-3.800854	__Lentor_Way
-3.800854	__Leo_Drive
-3.800854	__Lew_Lian_Vale
-3.800854	__Lewis_Road
-3.800854	__Li_Hui_Cheng
-3.800854	__Liane_Road
-3.800854	__Liang_Court
-3.800854	__Liao_Yingru
-3.800854	__Lichi_Avenue
-3.800854	__Lien_Ying_Chow_Drive
-3.800854	__Lilac_Road
-3.800854	__Lilliputt_Indoor_Mini_Golf
-3.800854	__Lily_Avenue
-3.800854	__Lim_Ah_Pin_Road
-3.800854	__Lim_Ah_Woo_Road
-3.800854	__Lim_Chong_Pang
-3.800854	__Lim_Chu_Kang
-3.800854	__Lim_Chu_Kang_Lane
-3.800854	__Lim_Lee
-3.800854	__Lim_Teck_Boo_Road
-3.800854	__Lim_Teck_Kim_Road
-3.800854	__Lim_Tua_Tow_Road
-3.800854	__Limau_Garden
-3.800854	__Lin_Tan
-3.800854	__Little_Road
-3.800854	__Lloyd_Road
-3.800854	__Loh_Lik_Peng
-3.800854	__Lornie_Walk
-3.800854	__Lorong_Abu_Talib
-3.800854	__Lorong_Bachok
-3.800854	__Lorong_Batawi
-3.800854	__Lorong_Buangkok
-3.800854	__Lorong_Gambas
-3.800854	__Lorong_Kembang
-3.800854	__Lorong_Kilat_Pek_Kio
-3.800854	__Lorong_Lew_Lian
-3.800854	__Lorong_Mesu
-3.800854	__Lorong_Pasu
-3.800854	__Lorong_Paya_Lebar
-3.800854	__Lorong_Pendek
-3.800854	__Lorong_Pisang_Asam
-3.800854	__Lorong_Pisang_Batu
-3.800854	__Lorong_Sarina_D'Leedon
-3.800854	__Lorong_Siglap
-3.800854	__Lorong_Sinaran
-3.800854	__Louis_Chen
-3.800854	__Lower_Seletar_Close
-3.800854	__Lower_Seletar_Reservoir
-3.800854	__Loyang_Street
-3.800854	__Lucy_Tan
-3.800854	__Lutheran_Road
-3.800854	__Macalister_Road
-3.800854	__Macpherson_Road
-3.800854	__Macritchie_Reservoir
-3.800854	__Maggie_Teng
-3.800854	__Mah_Bow_Tan
-3.800854	__Management_Development_Institute_Of_Singapore
-3.800854	__Mandai_Tekong
-3.800854	__Mandarin_Gardens
-3.800854	__Manila_Street
-3.800854	__Maple_Avenue
-3.800854	__Margate_Road
-3.800854	__Marina_Bay
-3.800854	__Marina_Bay_Sands
-3.800854	__Marina_One
-3.800854	__Marina_Promenade
-3.800854	__Marina_Way
-3.800854	__Marine_Parade
-3.800854	__Marine_Parade_Road
-3.800854	__Maris_Stella
-3.800854	__Maritime_Square
-3.800854	__Marshall_Lane
-3.800854	__Marsiling_Crescent
-3.800854	__Marsiling_Drive
-3.800854	__Marsiling_Neighbourhood
-3.800854	__Marsiling_Rise
-3.800854	__Marsiling_Road
-3.800854	__Martin_Road
-3.800854	__Masjid_Alkaff
-3.800854	__Mayflower_Way
-3.800854	__Medical_Drive
-3.800854	__Mei_Chin_Road
-3.800854	__Mei_Hwan_Drive
-3.800854	__Meng_Suan_Road
-3.800854	__Meranti_Avenue
-3.800854	__Merlimau_Place
-3.800854	__Meteorological_Services_Singapore
-3.800854	__Methodist_Girls'
-3.800854	__Michelle_Lim
-3.800854	__Middlesex_Road
-3.800854	__Miller_Street
-3.800854	__Miltonia_Link
-3.800854	__Mimosa_Vale
-3.800854	__Monk'S_Hill_Road
-3.800854	__Montreal_Link
-3.800854	__Moonbeam_Drive
-3.800854	__Moonbeam_Walk
-3.800854	__Moral_Welfare
-3.800854	__Moreton_Close
-3.800854	__Morgan_Chua
-3.800854	__Moriah_Bible_Presby
-3.800854	__Mornington_Crescent
-3.800854	__Mount_Faber_Loop
-3.800854	__Mount_Faber_Road
-3.800854	__Movenpick_Heritage
-3.800854	__Muhammadiyah_Welfare
-3.800854	__Mulberry_Avenue
-3.800854	__Muswell_Hill
-3.800854	__My_Saviour'S
-3.800854	__N_Palanivelu
-3.800854	__Nagore_Dargah
-3.800854	__Namly_Rise
-3.800854	__Nan_Chiau
-3.800854	__Nanyang_Avenue
-3.800854	__Nanyang_Girls'
-3.800854	__Nanyang_Poly_Drive
-3.800854	__Nanyang_Valley
-3.800854	__Napier_Road
-3.800854	__Nasi_Goreng
-3.800854	__Natalie_Hennedige
-3.800854	__National_Arts_Council
-3.800854	__National_Equestrian_Centre
-3.800854	__National_Neuroscience_Institute
-3.800854	__National_Neuroscience_Institute_Of_Singapore
-3.800854	__Nativity_Of_The_Blessed_Virgin_Mary_Concord
-3.800854	__Nee_Soon
-3.800854	__Nee_Soon_East
-3.800854	__Neo_Tiew_Lane
-3.800854	__Neo_Tiew_Road
-3.800854	__Nepal_Link
-3.800854	__Newton_Cirus
-3.800854	__Newton_Life
-3.800854	__Nexus_International_School
-3.800854	__Ng_Chee_Meng
-3.800854	__North_Buona_Vista_Drive
-3.800854	__North_Spring
-3.800854	__North_Vista
-3.800854	__North_West
-3.800854	__Northshore_Drive
-3.800854	__Northshore_Link
-3.800854	__Oak_Avenue
-3.800854	__Ocean_Way
-3.800854	__Office_Road
-3.800854	__Ogilvy_Centre
-3.800854	__Old_Birdcage_Walk
-3.800854	__Old_Cathay
-3.800854	__Old_Choa_Chu_Kang_Road
-3.800854	__Old_Hill_Street
-3.800854	__Old_Terminal_Lane
-3.800854	__Old_Upper_Thomson
-3.800854	__Omar_Ali
-3.800854	__Omar_Khayyam_Avenue
-3.800854	__One_Farrer
-3.800854	__One_George_Street
-3.800854	__One_North_Avenue
-3.800854	__One_North_Link
-3.800854	__One_Tree_Hill
-3.800854	__Onitsuka_Tiger
-3.800854	__Onraet_Road
-3.800854	__Orchard_Bel_Air
-3.800854	__Orchard_Point
-3.800854	__Orchard_Spring
-3.800854	__Orchard_Spring_Lane
-3.800854	__Orchard_Turn
-3.800854	__Orchid_Park
-3.800854	__Oriole_Crescent
-3.800854	__Outram_Park
-3.800854	__Oxford_Road
-3.800854	__Palm_Avenue
-3.800854	__Palm_Road
-3.800854	__Pan_Pacific
-3.800854	__Pan_Shou
-3.800854	__Pandan_Avenue
-3.800854	__Pang_Seng_Road
-3.800854	__Park_Avenue
-3.800854	__Parry_Avenue
-3.800854	__Pasir_Panjang_Road
-3.800854	__Pasir_Panjang_View
-3.800854	__Pasir_Ris
-3.800854	__Pasir_Ris_Road
-3.800854	__Pasir_Ris_View
-3.800854	__Pasir_Ris_Way
-3.800854	__Paterson_Road
-3.800854	__Paya_Lebar
-3.800854	__Paya_Lebar_Place
-3.800854	__Paya_Ubi
-3.800854	__Peace_Centre
-3.800854	__Peakville_Avenue
-3.800854	__Peakville_Grove
-3.800854	__Pebble_Lane
-3.800854	__Peck_San_Theng
-3.800854	__Peck_Seah_Street
-3.800854	__Peirce_Hill
-3.800854	__Pemimpin_Drive
-3.800854	__Penang_Road
-3.800854	__Peng_Kang_Avenue
-3.800854	__Peng_Nguan
-3.800854	__Peninsula_Plaza
-3.800854	__Penjuru_Road
-3.800854	__Perahu_Road
-3.800854	__Percival_Road
-3.800854	__Pereira_Road
-3.800854	__Perumal_Govindaswamy
-3.800854	__Perumal_Road
-3.800854	__Ping_Yi
-3.800854	__Platina_Road
-3.800854	__Plaza_Singapura
-3.800854	__Poh_Ern_Shih
-3.800854	__Poh_Huat_Road
-3.800854	__Poh_Jay
-3.800854	__Post_Florence_Road
-3.800854	__Prince_Of_Wales_Road
-3.800854	__Prinsep_Street
-3.800854	__Prome_Road
-3.800854	__Puat_Jit_Buddhist
-3.800854	__Pulau_Ubin
-3.800854	__Punggol_Avenue
-3.800854	__Qing_De_Gong
-3.800854	__Queen_Elizabeth_Walk
-3.800854	__Radin_Mas
-3.800854	__Raffles_Place
-3.800854	__Rahayu_Mahzam
-3.800854	__Rahim_Omar
-3.800854	__Rail_Mall
-3.800854	__Rajabali_Jumabhoy
-3.800854	__Rambutan_Road
-3.800854	__Rasok_Drive
-3.800854	__Rebecca_Chua
-3.800854	__Red_Cross
-3.800854	__Red_Swastika
-3.800854	__Redhill_Road
-3.800854	__Redwood_Grove
-3.800854	__Revival_Centre
-3.800854	__Richard_Eric_Holttum
-3.800854	__Ring_Road
-3.800854	__Rita_Zahara
-3.800854	__River_City
-3.800854	__River_Safari
-3.800854	__River_Valley
-3.800854	__Riverina_Walk
-3.800854	__Rivervale_Plaza
-3.800854	__Robert_Soon
-3.800854	__Robert_V_Chandran_Way
-3.800854	__Robin_Tessensohn
-3.800854	__Robinson_Road
-3.800854	__Rochor_Kongsi
-3.800854	__Rochor_Road
-3.800854	__Rosaline_Chan_Pang
-3.800854	__Ruby_Lane
-3.800854	__Russels_Road
-3.800854	__Safra_Jurong
-3.800854	__Safra_Punggol
-3.800854	__Saint_Helier'S_Avenue
-3.800854	__Saint_Hilda'S
-3.800854	__Saint_James
-3.800854	__Saint_Nicholas_View
-3.800854	__Saint_Paul'S
-3.800854	__Saint_Stephen'S
-3.800854	__Saint_Wilfred_Road
-3.800854	__Saint_Xavier'S
-3.800854	__Saint_Xavier'S_Lane
-3.800854	__Sakra_Road
-3.800854	__Sakya_Tenphel_Ling
-3.800854	__Sam_Kee
-3.800854	__Sandilands_Road
-3.800854	__Science_Park
-3.800854	__Sea_Breeze_Grove
-3.800854	__Seah_Mei_Lin
-3.800854	__Secondary_School
-3.800854	__Segar_Close
-3.800854	__Segar_Kampong_Arang_Road
-3.800854	__Selarang_Road
-3.800854	__Seletar_Close
-3.800854	__Seletar_Club
-3.800854	__Seletar_Club_Road
-3.800854	__Seletar_Court
-3.800854	__Seletar_East
-3.800854	__Seletar_Green_Avenue
-3.800854	__Seletar_Hill
-3.800854	__Seletar_Hill_Drive
-3.800854	__Seletar_Hills_Drive
-3.800854	__Seletar_Link
-3.800854	__Seletar_Lodge_One
-3.800854	__Seletar_North
-3.800854	__Seletar_North_Lane
-3.800854	__Seletar_Satellite
-3.800854	__Seletar_Satellite_Station_Road
-3.800854	__Seletar_South_Road
-3.800854	__Seletar_West
-3.800854	__Seletar_Wests
-3.800854	__Sembawang_Alley
-3.800854	__Sembawang_Avenue
-3.800854	__Sembawang_Berlayer
-3.800854	__Sembawang_Country_Club
-3.800854	__Sembawang_God_Of_Wealth
-3.800854	__Sembawang_Hills_Drive
-3.800854	__Sembawang_Shopping_Centre
-3.800854	__Sembawang_Tamil_Methodist
-3.800854	__Sembawang_Terminal_Avenue
-3.800854	__Sembawang_Terminal_Road
-3.800854	__Sembawang_Vista
-3.800854	__Sembawang_Wharves
-3.800854	__Sembawang_Woodgrove_Avenue
-3.800854	__Sengkang_East_Avenue
-3.800854	__Sengkang_East_Road
-3.800854	__Sengkang_East_Way
-3.800854	__Sennett_Road
-3.800854	__Sentul_Crescent
-3.800854	__Serangoon_Gardens
-3.800854	__Serangoon_North_Avenue
-3.800854	__Serapong_Hill
-3.800854	__Seraya_Avenue
-3.800854	__Sharon_Bible_Presbyterian
-3.800854	__Shelford_Road
-3.800854	__Shipyard_Crescent
-3.800854	__Shopping_Centre
-3.800854	__Shun_Li
-3.800854	__Si_Ling
-3.800854	__Siang_Cho_Keong
-3.800854	__Siglap_Gardens
-3.800854	__Siloso_Beach
-3.800854	__Sim_Choon_Huat
-3.800854	__Sim_Lim_Square
-3.800854	__Sim_Yi_Hui
-3.800854	__Simon_Lane
-3.800854	__Simpang_Bedok
-3.800854	__Simpang_De_Bedok
-3.800854	__Sims_Way
-3.800854	__Sin_Ming
-3.800854	__Sing_Hoe
-3.800854	__Sing_Joo_Walk
-3.800854	__Singapore'S_Mariners'
-3.800854	__Singapore_Art_Museum
-3.800854	__Singapore_Bible
-3.800854	__Singapore_Botanic_Gardens
-3.800854	__Singapore_Cheshire
-3.800854	__Singapore_Conference
-3.800854	__Singapore_Philatelic_Museum
-3.800854	__Singapore_Recreation
-3.800854	__Singapore_Sikh_Education_Foundation
-3.800854	__Singapore_University_Of_Technology_And_Design
-3.800854	__Singapore_Youth_Flying
-3.800854	__Siok_Wan
-3.800854	__Siong_Lim
-3.800854	__Sir_Frank_Swettenham
-3.800854	__Sit_Wah_Road
-3.800854	__Sleepy_Kiwi
-3.800854	__Sloane_Court_Hotel
-3.800854	__Soo_Bin_Chua
-3.800854	__Soo_Chow_Drive
-3.800854	__Soon_Peng_Yam_Yao_Zi
-3.800854	__Soon_Wing_Road
-3.800854	__Sophia_Hull
-3.800854	__South_Buona_Vista_Road
-3.800854	__South_Perimeter_Road
-3.800854	__South_Woodlands_Drive
-3.800854	__Spring_Lighthouse
-3.800854	__Spring_Street
-3.800854	__Springleaf_Avenue
-3.800854	__Springside_View
-3.800854	__Springwood_Close
-3.800854	__Sree_Narayana
-3.800854	__Sri_Murugan_Hill_Temple
-3.800854	__Sri_Siva_Durga
-3.800854	__Sri_Vairavimada_Kaliamman
-3.800854	__Stadium_Crescent
-3.800854	__Stadium_Way
-3.800854	__Stamford_Raffles
-3.800854	__Starlight_Road
-3.800854	__Stephen_Lee
-3.800854	__Stirling_Walk
-3.800854	__Strand_Hotel
-3.800854	__Stratton_Road
-3.800854	__Suffolk_Road
-3.800854	__Sunbeam_Evergreen_Place
-3.800854	__Sundridge_Park_Road
-3.800854	__Sungei_Bedok
-3.800854	__Sungei_Gedong_Road
-3.800854	__Sungei_Road
-3.800854	__Sunny_Ang
-3.800854	__Sunset_Close
-3.800854	__Sunset_Square
-3.800854	__Sunset_Vale
-3.800854	__Suntec_City
-3.800854	__Swiss_Club_Link
-3.800854	__Syed_Jaafar_Albar
-3.800854	__Tagore_Road
-3.800854	__Tai_Hoe
-3.800854	__Tai_Seng
-3.800854	__Tai_Seng_Drive
-3.800854	__Taman_Bedok
-3.800854	__Taman_Jurong
-3.800854	__Taman_Kembangan
-3.800854	__Taman_Warna
-3.800854	__Tamarind_Avenue
-3.800854	__Tamarind_Road
-3.800854	__Tampines_Changkat
-3.800854	__Tan_Boo_Liat
-3.800854	__Tan_Eng_Joo
-3.800854	__Tan_Kim_Cheng_Road
-3.800854	__Tan_Teck_Whye_Avenue
-3.800854	__Tan_Tock_Seng
-3.800854	__Tanah_Merah
-3.800854	__Tanglin_Gate_Road
-3.800854	__Tanglin_Trust
-3.800854	__Tangmere_Road
-3.800854	__Tanjong_Katong
-3.800854	__Tanjong_Penjuru
-3.800854	__Tanya_Chua
-3.800854	__Teban_Garden
-3.800854	__Tebing_Lane
-3.800854	__Teck_Hai_Keng
-3.800854	__Teck_Whye
-3.800854	__Tekong_Highway
-3.800854	__Telok_Blangah_Crescent
-3.800854	__Telok_Blangah_Rise
-3.800854	__Telok_Blangah_Street
-3.800854	__Telok_Kurau
-3.800854	__Tembusu_Drive
-3.800854	__Teng_San_Tian_Hock
-3.800854	__Teng_Tong_Road
-3.800854	__Terang_Bulan_Avenue
-3.800854	__Tew_Chew_Street
-3.800854	__Thong_Bee_Road
-3.800854	__Thong_Kheng
-3.800854	__Tian_Kong
-3.800854	__Tiong_Poh_Avenue
-3.800854	__Tiverton_Lane
-3.800854	__Toa_Payoh
-3.800854	__Toa_Payoh_East
-3.800854	__Toa_Payoh_North
-3.800854	__Toa_Payoh_Rise
-3.800854	__Toh_Tuck_Drive
-3.800854	__Toh_Tuck_Road
-3.800854	__Tokio_Marine
-3.800854	__Topaz_Road
-3.800854	__Tras_Street
-3.800854	__Treetop_Walk
-3.800854	__Trevose_Place
-3.800854	__Tuas_Avenue
-3.800854	__Tuas_Road
-3.800854	__Tuas_Second_Link
-3.800854	__Tuas_Terminal_Road
-3.800854	__Turf_Ciub_Road
-3.800854	__Ubi_Close
-3.800854	__Ubi_Crescent
-3.800854	__Ubi_Link
-3.800854	__Ulu_Sembawang
-3.800854	__Unity_Street
-3.800854	__University_Town
-3.800854	__Upper_Aljunied
-3.800854	__Upper_Aljunied_Link
-3.800854	__Upper_Aljunied_Road
-3.800854	__Upper_Bedok
-3.800854	__Upper_Bedok_Road
-3.800854	__Upper_Bukit_Timah
-3.800854	__Upper_Bukit_Timah_Road
-3.800854	__Upper_Changi_Road
-3.800854	__Upper_Joo_Aljunied_Link
-3.800854	__Upper_Palm_Valley_Road
-3.800854	__Upper_Paya_Lebar_Road
-3.800854	__Upper_Peirce_Reservoir
-3.800854	__Upper_Seletar_Reservoir
-3.800854	__Upper_Serangoon
-3.800854	__Upper_Wilkie_Road
-3.800854	__Vaughan_Road
-3.800854	__Veerasamy_Road
-3.800854	__Verde_Crescent
-3.800854	__Victoria_Park_Road
-3.800854	__Vigilante_Drive
-3.800854	__Vijesh_Ashok_Ghariwala
-3.800854	__Vivien_Quahe
-3.800854	__Vu_Ly_Tee
-3.800854	__Vu_Ly_Tee#1
-3.800854	__Vu_Ly_Tee#2
-3.800854	__Wak_Hassan
-3.800854	__Wak_Hassan_Place
-3.800854	__Wak_Tanjong
-3.800854	__Wallace_Way
-3.800854	__Walter_Woon
-3.800854	__Wan_Tho_Avenue
-3.800854	__Wareham_Road
-3.800854	__Waringin_Walk
-3.800854	__Warwick_Road
-3.800854	__Waseda_Shibuya
-3.800854	__Waterloo_Street
-3.800854	__Watten_Estate_Road
-3.800854	__Wee_Beng_Chong
-3.800854	__Wellington_Circle
-3.800854	__West_Blue_Stars
-3.800854	__West_Perimeter_Road
-3.800854	__West_Spring
-3.800854	__Westwood_Avenue
-3.800854	__Whampoa_East
-3.800854	__Whitchurch_Road
-3.800854	__Whitley_Road
-3.800854	__Wilmonar_Avenue
-3.800854	__Windsor_Park_Hill
-3.800854	__Wishart_Road
-3.800854	__Wittering_Road
-3.800854	__Wong_Chin_Yoke_Road
-3.800854	__Wong_Hock_Boon
-3.800854	__Woodgrove_View
-3.800854	__Woodland_Street
-3.800854	__Woodlands_Galaxy
-3.800854	__Woodleigh_Close
-3.800854	__Xilin_Avenue
-3.800854	__Yan_Hui_Chang
-3.800854	__Yangtze_Building
-3.800854	__Yao_Zi
-3.800854	__Yarwood_Avenue
-3.800854	__Yeoh_Ghim_Seng
-3.800854	__Yew_Tee
-3.800854	__Yew_Tee_Close
-3.800854	__Yew_Tee_Point
-3.800854	__Yip_Cheong_Fun
-3.800854	__Yishun_Central
-3.800854	__Yishun_Street
-3.800854	__Yong_Melvin_Yik_Chye
-3.800854	__York_Place
-3.800854	__Yu_Huang_Zhi_Zun_Temple
-3.800854	__Yuan_Ching
-3.800854	__Yung_Kuang_Road
-3.800854	__Yuva_Bharati
-3.800854	__Yvonne_Ng
-3.800854	__Zainudin_Nordin
-3.800854	__Zhang_Hui
-3.800854	__Zhou_Ying_Nan
-3.800854	__Zion_Bishan_Bible_Presbyterian
-2.56012	a
-3.393369	aa
-4.329128	abandon
-4.277976	abas
-3.87049	ability
-3.426038	able
-2.920464	about
-3.727068	above
-4.277976	absolute
-4.118275	absolutely
-4.277976	absorb
-4.232218	abstract
-4.190825	abu
-4.153037	abuse
-4.056127	academic
-4.277976	academy
-4.277976	acara
-4.028098	accent
-3.800854	accept
-4.118275	acceptable
-4.232218	acceptance
-4.190825	accepted
-3.852007	access
-4.232218	accessible
-3.852007	accident
-4.028098	accidentally
-4.190825	accommodation
-4.232218	accompany
-3.976946	accomplish
-3.889796	according
-4.118275	accordingly
-3.240992	account
-4.190825	accountancy
-4.329128	accountant
-3.953465	accounting
-4.329128	accumulate
-4.153037	accurate
-4.329128	ace
-4.232218	ache
-3.852007	achieve
-3.889796	achievement
-4.232218	acknowledge
-4.277976	acquaintance
-4.028098	acronym
-3.817245	across
-3.78506	act
-3.976946	acting
-3.740857	action
-4.153037	activate
-3.953465	active
-3.800854	activity
-3.976946	actor
-4.153037	actress
-3.87049	actual
-2.948917	actually
-4.028098	ad
-4.153037	adapt
-3.588766	add
-4.118275	added
-4.153037	addicted
-4.118275	addition
-3.976946	additional
-3.368895	address
-4.00177	ade
-4.08609	adjust
-4.00177	admire
-4.329128	admission
-4.118275	admit
-4.277976	admitted
-3.817245	adopt
-4.153037	adopted
-3.56946	adoption
-3.87049	adult
-4.00177	advance
-4.232218	advanced
-4.118275	advantage
-4.028098	adventure
-4.232218	adventurous
-4.08609	advertisement
-4.277976	advertising
-3.817245	advice
-3.87049	advise
-4.329128	advised
-4.329128	aeon
-4.232218	aeroplane
-4.329128	affair
-3.953465	affect
-4.08609	affected
-4.277976	affidavit
-3.909999	afford
-4.028098	affordable
-3.834278	afraid
-3.092339	after
-3.524648	afternoon
-4.028098	afterwards
-3.263735	again
-3.817245	against
-3.976946	agama
-4.08609	agar
-3.542022	age
-3.87049	agency
-4.190825	agenda
-3.889796	agent
-4.028098	aggressive
-4.190825	aging
-3.507942	ago
-3.652435	agree
-4.190825	agreed
-4.118275	agreement
-2.636722	ah
-4.08609	aha
-3.755097	ahead
-4.056127	ai
-4.190825	aid
-4.028098	aim
-4.329128	aiming
-3.38096	air
-4.277976	airplane
-3.852007	airport
-3.76982	ajar
-4.08609	ak
-2.916248	aku
-4.118275	al
-3.889796	ala
-3.852007	alarm
-4.028098	album
-4.056127	alcohol
-4.277976	alcoholic
-3.619434	alert
-4.232218	algorithm
-4.232218	alien
-4.277976	alif
-3.87049	alive
-2.895759	all
-4.232218	allergic
-4.329128	alley
-3.800854	allow
-4.056127	allowance
-3.59875	almost
-3.59875	alone
-3.652435	along
-4.153037	alpha
-4.232218	alphabet
-3.001769	already
-3.254495	alright
-2.918351	also
-4.232218	alter
-4.190825	alternate
-4.118275	alternative
-3.755097	although
-4.232218	altogether
-3.211029	always
-3.26843	am
-3.817245	amazing
-4.232218	ambitious
-3.362987	ambulance
-4.232218	amin
-4.08609	amir
-4.028098	among
-3.48403	amount
-4.153037	amy
-3.206912	an
-4.232218	analyse
-4.190825	analysis
-4.329128	anchor
-4.277976	ancient
-2.594728	and
-3.664016	anda
-4.118275	android
-4.00177	angel
-4.277976	anger
-4.153037	angle
-3.713704	angry
-3.675916	animal
-4.153037	animation
-3.953465	anime
-4.153037	ankle
-4.232218	ann
-4.190825	anna
-4.232218	anniversary
-3.834278	annoying
-4.153037	annual
-3.263735	another
-3.406143	answer
-4.190825	ant
-4.08609	anti
-4.277976	antique
-4.277976	anxiety
-3.128415	any
-3.834278	anybody
-3.931188	anyhow
-3.68815	anyone
-3.223618	anything
-3.46879	anyway
-3.953465	anyways
-3.76982	anywhere
-2.909999	apa
-3.909999	apart
-4.028098	apartment
-3.909999	ape
-4.277976	apologize
-3.740857	apparently
-4.00177	appeal
-4.056127	appear
-4.329128	appearance
-3.713704	apple
-4.190825	applicable
-4.153037	applicant
-3.550977	application
-3.909999	applied
-3.46879	apply
-4.329128	appoint
-3.76982	appointment
-3.817245	appreciate
-3.953465	approach
-4.277976	appropriate
-3.953465	approval
-4.00177	approve
-4.277976	approximately
-4.232218	apron
-4.08609	aquarium
-3.664016	ar
-4.277976	arcade
-4.329128	architect
-4.190825	architecture
-2.843052	are
-3.46879	area
-3.953465	argue
-3.931188	argument
-3.889796	arm
-3.909999	arms
-3.755097	army
-3.302799	around
-3.953465	arrange
-4.190825	arrangement
-4.277976	arrival
-4.028098	arrive
-4.277976	arrogant
-3.976946	arrow
-4.190825	arsenal
-3.727068	art
-4.028098	article
-4.277976	artificial
-3.909999	artist
-2.967401	as
-4.028098	aside
-3.142313	ask
-4.277976	askar
-4.056127	asleep
-3.909999	aspect
-4.232218	aspiration
-4.08609	ass
-4.153037	assess
-4.153037	assessment
-4.232218	asset
-4.232218	assets
-4.00177	assign
-4.232218	assigned
-3.909999	assignment
-3.533248	assist
-3.740857	assistance
-3.889796	assistant
-3.931188	assume
-3.953465	assuming
-4.329128	assumption
-4.028098	asthma
-2.89978	at
-3.800854	ate
-4.277976	atmosphere
-4.08609	attach
-4.028098	attached
-4.08609	attachment
-3.909999	attack
-4.277976	attempt
-3.852007	attend
-4.232218	attendance
-3.889796	attention
-4.00177	attitude
-4.153037	attract
-3.909999	attraction
-4.153037	attractive
-4.118275	attribute
-4.190825	audience
-4.190825	audio
-4.153037	audit
-4.190825	audition
-3.713704	august
-3.976946	aunt
-3.834278	auntie
-4.153037	authentic
-4.232218	author
-4.190825	authority
-3.931188	auto
-4.190825	automatic
-4.056127	automatically
-4.190825	autumn
-3.852007	available
-3.652435	avenue
-3.909999	average
-3.976946	avoid
-3.976946	awake
-4.190825	award
-3.976946	aware
-4.277976	awareness
-3.439826	away
-3.889796	awesome
-3.909999	awhile
-3.740857	awkward
-3.550977	ayah
-4.153037	aye
-3.273177	b
-3.976946	ba
-4.277976	baba
-4.190825	babe
-3.323733	baby
-3.108367	back
-3.800854	background
-4.232218	backup
-4.277976	bacteria
-3.277976	bad
-3.727068	badan
-4.232218	badge
-4.028098	badly
-3.713704	badminton
-3.641154	bag
-4.190825	bah
-3.76982	bahan
-4.118275	baht
-3.909999	bake
-4.232218	baked
-4.190825	bakery
-4.00177	baking
-3.68815	balance
-4.277976	balanced
-4.329128	balas
-4.232218	balcony
-3.976946	bali
-3.533248	ball
-4.277976	ballet
-4.118275	balloon
-4.277976	bamboo
-4.118275	ban
-3.889796	banana
-3.713704	band
-3.834278	bandar
-4.329128	banding
-3.953465	bang
-3.909999	bangkok
-3.31314	bank
-4.08609	banker
-3.909999	banking
-4.190825	bankrupt
-3.909999	banner
-4.232218	banquet
-3.700739	bar
-3.909999	barbecue
-4.277976	barber
-4.329128	barcelona
-4.232218	bare
-4.190825	barely
-4.232218	baring
-4.329128	bark
-4.277976	barrage
-4.153037	barrier
-3.329128	baru
-3.852007	bas
-3.755097	base
-4.329128	baseball
-3.630158	based
-4.056127	basement
-3.740857	basic
-3.38712	basically
-3.931188	basis
-4.00177	basket
-3.78506	basketball
-4.232218	bass
-4.232218	bat
-3.931188	batch
-4.190825	bath
-4.232218	bathe
-4.190825	batik
-4.190825	batman
-4.00177	battery
-4.00177	battle
-3.834278	bay
-4.277976	bazaar
-2.834278	be
-3.59875	beach
-3.953465	bean
-3.68815	bear
-4.08609	beard
-4.190825	beast
-3.889796	beat
-3.800854	beautiful
-3.953465	beauty
-2.855641	because
-3.499825	become
-3.976946	becomes
-4.118275	becoming
-3.68815	bed
-4.190825	bedroom
-3.817245	bee
-3.817245	beef
-4.329128	beehive
-3.254495	been
-3.953465	beer
-4.153037	bees
-3.17914	before
-3.931188	beg
-4.118275	begin
-4.00177	beginning
-3.976946	behalf
-4.153037	behave
-4.329128	behavior
-4.277976	behaviour
-3.542022	behind
-4.190825	beige
-3.374886	being
-3.740857	bela
-3.700739	belah
-4.329128	belief
-3.56012	believe
-4.056127	bell
-4.190825	belly
-4.190825	belong
-3.499825	below
-4.028098	belt
-3.931188	ben
-3.931188	bench
-4.153037	bend
-3.323733	benda
-4.232218	bene
-4.329128	beneath
-4.00177	beneficial
-3.800854	beneficiary
-3.87049	benefit
-4.00177	ber
-3.889796	berat
-4.232218	berlin
-3.432878	beside
-3.817245	besides
-3.240992	best
-3.889796	bet
-3.323733	better
-3.976946	betting
-3.550977	between
-4.329128	beverage
-3.953465	beyond
-4.277976	bias
-3.87049	bicycle
-4.190825	bid
-3.329128	big
-3.713704	bigger
-3.755097	biggest
-3.76982	bike
-4.00177	bikini
-3.800854	bill
-4.153037	billion
-4.277976	billy
-3.889796	bin
-4.08609	bingo
-4.028098	biological
-4.190825	biology
-3.652435	bird
-3.550977	birth
-3.664016	birthday
-4.190825	biscuit
-3.249947	bit
-4.232218	bitch
-4.00177	bite
-4.08609	bitter
-4.277976	biz
-3.419305	black
-4.153037	blackberry
-4.190825	blade
-3.78506	blah
-4.028098	blame
-3.976946	blank
-4.232218	blanket
-3.76982	bleeding
-4.056127	blend
-3.976946	blender
-4.232218	bless
-4.277976	blessed
-4.277976	blessing
-3.800854	blind
-3.46879	block
-4.00177	blonde
-3.630158	blood
-4.08609	bloody
-4.153037	blouse
-4.153037	blow
-4.329128	blowing
-3.307939	blue
-4.028098	blues
-4.056127	blur
-3.976946	bo
-3.700739	board
-3.817245	boat
-4.232218	bob
-4.277976	bobby
-3.56946	body
-4.118275	boil
-3.56946	bola
-4.277976	bom
-4.056127	bomb
-3.700739	bond
-4.118275	bonding
-4.08609	bone
-3.476343	bonus
-3.432878	book
-4.277976	booked
-4.028098	booking
-4.329128	bookmark
-4.190825	bookshop
-4.232218	bookstore
-4.08609	boom
-4.232218	boon
-4.232218	boost
-4.08609	boot
-3.953465	booth
-4.08609	boots
-4.056127	borak
-4.118275	border
-3.641154	boring
-3.664016	born
-4.028098	borrow
-3.675916	boss
-4.190825	boston
-4.118275	bot
-4.118275	botanic
-3.419305	both
-3.909999	bother
-3.78506	bottle
-3.59875	bottom
-3.59875	bought
-4.190825	bounce
-4.153037	bound
-4.08609	bout
-4.153037	bow
-4.277976	bowel
-3.87049	bowl
-3.87049	bowling
-3.641154	box
-4.190825	boxing
-3.476343	boy
-4.277976	bra
-3.800854	brain
-4.277976	brake
-3.834278	branch
-3.700739	brand
-4.118275	branded
-4.190825	brave
-4.153037	bravo
-4.08609	brazil
-3.76982	bread
-3.56946	break
-4.08609	breakdown
-4.056127	breaker
-3.834278	breakfast
-4.056127	breaking
-4.08609	breast
-3.953465	breath
-3.78506	breathe
-3.507942	breathing
-4.028098	breathless
-4.232218	breed
-4.277976	breeze
-4.232218	brick
-4.277976	bride
-3.953465	bridge
-4.190825	brief
-3.931188	briefing
-4.329128	briefly
-4.056127	bright
-3.38096	bring
-4.329128	brisk
-4.277976	broad
-4.329128	broadcast
-3.889796	broke
-3.976946	broken
-3.550977	brother
-3.76982	brought
-3.476343	brown
-4.153037	brownish
-4.277976	brunch
-4.08609	brush
-4.056127	bu
-4.232218	bual
-3.953465	bubble
-3.817245	bucket
-4.028098	buddy
-3.852007	budget
-3.817245	buffet
-3.976946	bug
-3.78506	build
-3.641154	building
-4.08609	built
-4.118275	bulk
-4.277976	bull
-4.277976	bullet
-4.118275	bully
-4.190825	bump
-4.232218	bumper
-4.08609	bun
-4.08609	bunch
-4.153037	bundle
-4.277976	bungalow
-4.190825	bungee
-4.277976	bunk
-4.153037	burden
-3.909999	burn
-4.118275	burning
-4.153037	burst
-3.550977	bus
-3.931188	bush
-3.550977	business
-3.68815	busy
-4.00177	busybody
-2.691889	but
-4.028098	butcher
-4.153037	butt
-3.953465	butter
-4.08609	butterfly
-3.909999	button
-4.232218	buttons
-3.219381	buy
-4.190825	buyer
-3.16776	by
-3.190825	bye
-3.142313	c
-4.056127	ca
-4.00177	cab
-4.277976	cabin
-4.00177	cable
-4.00177	cage
-3.68815	cake
-3.931188	calculate
-4.232218	calculated
-4.153037	calculation
-4.190825	calculator
-3.976946	calendar
-3.101885	call
-4.153037	callable
-4.08609	caller
-3.345727	calling
-4.028098	calm
-3.727068	cam
-3.48403	came
-4.329128	camel
-3.852007	camera
-3.713704	camp
-4.277976	campaign
-4.190825	campus
-2.732531	can
-4.028098	canada
-3.800854	cancel
-3.953465	cancer
-4.277976	candle
-4.028098	candy
-4.190825	cane
-3.128415	cannot
-4.329128	canoe
-4.118275	cant
-3.889796	canteen
-4.277976	canvas
-3.727068	cap
-4.329128	capability
-4.232218	capable
-4.277976	capacity
-3.889796	capital
-4.056127	capsule
-4.028098	captain
-4.153037	caption
-4.190825	capture
-3.357157	car
-4.232218	caramel
-4.329128	carbon
-3.38712	card
-3.426038	care
-3.579006	career
-4.277976	carefree
-4.056127	careful
-4.277976	carefully
-4.329128	careless
-3.909999	carrot
-3.713704	carry
-3.976946	carrying
-4.232218	cart
-4.00177	cartoon
-3.446888	case
-3.59875	cash
-4.118275	cashier
-3.953465	casino
-4.153037	cast
-4.00177	castle
-4.153037	casual
-3.652435	cat
-3.713704	catch
-4.056127	catching
-4.277976	catchy
-4.08609	category
-4.277976	cater
-3.800854	caught
-3.076882	cause
-4.232218	cave
-4.232218	ceiling
-3.87049	celebrate
-4.118275	celebration
-4.118275	celebrity
-4.056127	cell
-4.329128	cemetery
-3.976946	cent
-3.652435	center
-3.889796	central
-4.277976	century
-4.08609	cereal
-4.277976	ceremony
-3.550977	certain
-4.277976	certainly
-3.800854	certificate
-4.277976	certified
-4.329128	certis
-4.277976	cha
-4.028098	chain
-3.713704	chair
-4.056127	chalet
-3.953465	challenge
-4.232218	champion
-3.675916	chance
-4.329128	chang
-3.307939	change
-3.852007	channel
-4.190825	chapter
-3.953465	char
-3.652435	character
-4.153037	characteristic
-3.68815	charge
-4.277976	charger
-4.232218	charging
-4.028098	charity
-4.190825	charming
-4.056127	chart
-4.08609	chartered
-3.953465	chase
-4.190825	chasing
-3.834278	chat
-3.59875	cheap
-4.00177	cheat
-4.08609	cheating
-3.236583	check
-3.976946	checked
-4.153037	cheek
-4.153037	cheer
-3.652435	cheese
-4.277976	cheesecake
-4.190825	cheetah
-3.889796	chef
-4.056127	chemical
-3.931188	chemistry
-4.232218	cheng
-4.153037	cheque
-4.153037	cherry
-4.190825	chess
-3.740857	chest
-4.153037	chew
-4.153037	chi
-4.277976	chick
-3.426038	chicken
-3.282828	child
-3.652435	childhood
-4.232218	childish
-3.953465	chili
-3.76982	chill
-4.329128	chilling
-4.153037	chin
-3.491856	china
-4.118275	chip
-4.028098	chips
-4.277976	chit
-3.78506	chocolate
-3.630158	choice
-4.153037	choir
-4.056127	choke
-4.056127	choker
-4.153037	choking
-4.190825	chomp
-3.446888	choose
-4.277976	choosing
-3.909999	chop
-4.329128	chopping
-4.08609	chore
-4.056127	chose
-4.277976	chosen
-4.277976	chow
-4.277976	chrome
-3.834278	church
-4.232218	chute
-4.153037	cigarette
-4.00177	cinema
-3.439826	circle
-4.277976	circled
-4.232218	circuit
-4.232218	circular
-4.118275	cite
-4.232218	citer
-3.76982	citizen
-3.909999	citizenship
-3.588766	city
-4.153037	civil
-3.550977	claim
-4.08609	claimable
-4.277976	clap
-4.08609	clarify
-4.329128	clash
-3.491856	class
-3.817245	classes
-4.118275	classic
-4.277976	classical
-4.056127	classmate
-4.00177	classroom
-4.277976	claw
-4.190825	clay
-3.675916	clean
-4.08609	cleaner
-3.953465	cleaning
-4.277976	cleanser
-3.664016	clear
-4.153037	clearing
-4.00177	clearly
-4.232218	clerk
-4.232218	clever
-4.329128	cliche
-3.700739	click
-3.87049	client
-3.889796	climb
-4.056127	climbing
-3.889796	clinic
-4.232218	clip
-4.056127	clique
-3.931188	clock
-4.190825	clockwise
-4.329128	clone
-3.432878	close
-3.834278	closed
-4.056127	closely
-3.931188	closer
-3.909999	cloth
-3.68815	clothes
-4.056127	clothing
-4.00177	cloud
-3.630158	club
-4.153037	clubbing
-4.153037	clue
-4.190825	cluster
-3.953465	coach
-4.277976	coaching
-3.953465	coast
-4.056127	coaster
-4.232218	coat
-4.153037	cock
-4.118275	cockroach
-4.08609	coco
-4.08609	coconut
-3.579006	code
-3.608969	coffee
-4.118275	coin
-3.976946	coincidence
-4.056127	coke
-4.277976	cola
-3.630158	cold
-4.232218	collapse
-4.329128	collar
-3.78506	colleague
-3.675916	collect
-4.153037	collected
-4.00177	collection
-4.00177	college
-3.499825	color
-4.190825	colors
-3.263735	colour
-4.232218	column
-4.329128	coma
-4.056127	combination
-4.056127	combine
-4.277976	combined
-3.156671	come
-4.00177	comedy
-3.641154	comes
-3.76982	comfort
-3.700739	comfortable
-4.190825	comic
-3.499825	coming
-4.277976	command
-4.028098	comment
-4.056127	commercial
-4.056127	commission
-4.056127	commit
-4.056127	commitment
-4.028098	committee
-3.727068	common
-4.190825	commonwealth
-4.00177	communicate
-4.00177	communication
-3.834278	community
-4.277976	companion
-3.406143	company
-3.78506	compare
-4.277976	comparison
-4.232218	compete
-3.909999	competition
-4.028098	competitive
-3.675916	complain
-4.190825	complaint
-3.834278	complete
-3.976946	completely
-4.056127	complex
-4.056127	complicated
-4.329128	composition
-4.277976	compound
-4.08609	compulsory
-3.641154	computer
-3.852007	con
-4.153037	concentrate
-4.056127	concentration
-3.931188	concept
-3.931188	concern
-4.190825	concerned
-3.834278	concert
-4.277976	concession
-4.232218	conclusion
-4.277976	concrete
-4.118275	cond
-3.852007	condition
-4.190825	conditional
-4.329128	conditioner
-4.277976	condominium
-4.190825	conduct
-4.190825	cone
-4.190825	conference
-4.277976	confess
-4.056127	confidence
-4.00177	confident
-3.491856	confirm
-3.889796	confirmation
-4.118275	confirmed
-4.232218	conflict
-4.118275	confuse
-4.00177	confused
-3.976946	connect
-4.08609	connected
-4.056127	connection
-3.499825	conscious
-3.976946	consent
-4.277976	conservative
-3.713704	consider
-4.232218	consideration
-3.76982	considered
-4.153037	considering
-4.329128	consistency
-4.277976	consistent
-4.232218	console
-4.277976	constant
-4.153037	constantly
-4.056127	construction
-4.277976	consult
-4.118275	consultant
-4.232218	consulting
-4.232218	consumable
-4.118275	consume
-4.329128	consumer
-3.399709	contact
-4.118275	container
-4.056127	content
-4.190825	contest
-4.118275	context
-3.56946	continue
-3.931188	continuous
-4.118275	continuously
-3.852007	contract
-4.329128	contraction
-4.329128	contractor
-4.028098	contribute
-3.976946	contribution
-3.68815	control
-4.190825	controversial
-4.153037	convenience
-3.852007	convenient
-3.641154	conversation
-4.190825	converse
-4.153037	conversion
-3.87049	convert
-4.153037	converted
-4.232218	convince
-3.516215	cook
-3.727068	cooking
-3.491856	cool
-4.232218	cooling
-4.277976	cooper
-4.153037	cope
-3.76982	copy
-4.00177	core
-4.153037	corn
-3.740857	corner
-4.056127	corp
-4.056127	corporate
-4.232218	corporation
-3.098679	correct
-4.190825	correction
-4.118275	correctly
-4.232218	correspondent
-4.190825	corridor
-4.056127	cos
-4.232218	cosmos
-3.664016	cost
-4.232218	costa
-4.232218	costume
-4.232218	cottage
-4.190825	cotton
-4.00177	cough
-3.318404	could
-4.056127	council
-3.652435	count
-3.909999	counter
-4.153037	counting
-3.499825	country
-4.329128	countryside
-3.700739	couple
-3.931188	coupon
-4.277976	courier
-3.318404	course
-3.68815	court
-3.87049	cousin
-4.232218	cove
-3.700739	cover
-3.931188	covered
-4.232218	covering
-3.976946	covid
-4.08609	cow
-4.232218	cowboy
-4.028098	coz
-3.78506	crab
-4.153037	crack
-4.232218	craft
-4.118275	crap
-4.056127	crash
-4.277976	crave
-4.118275	craving
-4.277976	crawl
-4.329128	crayfish
-3.56012	crazy
-3.652435	cream
-4.329128	creamy
-3.740857	create
-3.755097	creative
-3.68815	credit
-4.277976	creep
-3.953465	creepy
-4.118275	crescent
-4.08609	crew
-4.056127	cried
-4.118275	crime
-4.277976	criminal
-4.190825	crisis
-4.118275	crispy
-3.931188	criteria
-4.118275	critical
-4.232218	crocodile
-3.78506	cross
-4.056127	crossing
-3.976946	crowd
-3.909999	crowded
-4.277976	crown
-4.00177	cruise
-4.329128	crunchy
-4.118275	crush
-3.713704	cry
-3.976946	crying
-4.153037	crystal
-4.277976	cube
-4.190825	cucumber
-3.976946	cuisine
-4.153037	cultural
-3.700739	culture
-3.713704	cup
-4.329128	cupboard
-4.190825	cure
-4.00177	curious
-4.08609	curly
-3.889796	currency
-3.700739	current
-3.664016	currently
-4.277976	curriculum
-3.78506	curry
-4.153037	curse
-4.232218	curtain
-4.028098	curve
-4.190825	cushion
-4.232218	custody
-4.190825	custom
-3.664016	customer
-3.56012	cut
-3.652435	cute
-3.931188	cutting
-3.852007	cycle
-3.909999	cycling
-4.277976	cyclist
-3.254495	d
-3.76982	da
-3.608969	dad
-4.329128	dada
-3.953465	daddy
-3.082999	dah
-3.889796	daily
-4.329128	dairy
-4.118275	dak
-4.190825	damage
-3.38712	damn
-3.156671	dan
-3.664016	dance
-4.277976	dancer
-3.976946	dancing
-4.190825	danger
-3.852007	dangerous
-3.852007	dare
-3.432878	dari
-3.59875	dark
-4.329128	darkness
-4.232218	darling
-3.953465	dash
-3.76982	data
-3.412674	date
-3.852007	dating
-3.652435	daughter
-3.149433	day
-3.31314	days
-3.852007	de
-3.755097	dead
-3.800854	deadline
-4.329128	deaf
-3.740857	deal
-4.153037	dealer
-4.277976	dealing
-3.852007	dear
-3.834278	death
-4.232218	debate
-3.976946	debit
-4.153037	debt
-4.153037	decade
-4.118275	decent
-3.78506	decide
-3.78506	decided
-3.78506	decision
-3.931188	deck
-3.976946	declaration
-4.190825	declare
-4.277976	decoration
-4.232218	decorative
-4.056127	deduct
-4.277976	deduction
-3.755097	deep
-4.190825	default
-4.153037	defeat
-4.153037	defend
-4.329128	defense
-3.889796	define
-3.507942	definitely
-4.118275	definition
-3.727068	degree
-4.056127	delay
-3.817245	delete
-4.028098	delicious
-4.08609	deliver
-3.953465	delivery
-4.232218	dell
-4.277976	delta
-4.08609	demand
-4.232218	dementia
-4.232218	demi
-4.056127	demise
-4.277976	dental
-4.232218	dentist
-4.329128	deny
-4.08609	depa
-3.834278	department
-3.909999	depend
-3.931188	dependent
-4.00177	depending
-3.740857	deposit
-4.153037	depressed
-4.277976	depressing
-4.08609	depression
-4.232218	depth
-3.499825	describe
-4.190825	description
-4.277976	desert
-4.118275	deserve
-3.700739	design
-3.976946	designer
-4.232218	desire
-4.056127	desk
-4.232218	desperate
-4.277976	despite
-3.976946	dessert
-4.153037	destination
-4.277976	destiny
-4.232218	destress
-4.190825	destroy
-3.909999	detail
-4.232218	detailed
-4.232218	detect
-4.232218	detector
-4.190825	determine
-4.028098	develop
-4.277976	developer
-3.889796	development
-4.232218	device
-4.232218	devil
-4.118275	devote
-4.232218	dewan
-3.17152	di
-4.153037	diabetes
-4.232218	diagram
-4.329128	dial
-4.118275	dialect
-4.232218	dialysis
-4.153037	diamond
-4.153037	diarrhea
-4.232218	diary
-4.329128	dick
-4.118275	dictation
-4.329128	dictionary
-3.135308	did
-4.329128	didnt
-3.533248	die
-3.953465	diet
-3.412674	difference
-3.215185	different
-4.329128	differentiate
-3.889796	differently
-3.588766	difficult
-3.76982	difficulty
-4.08609	dig
-4.277976	digest
-4.232218	digit
-3.909999	digital
-4.329128	dilemma
-4.08609	dim
-4.118275	dimension
-4.08609	din
-4.277976	ding
-4.190825	dining
-3.652435	dinner
-4.028098	dinosaur
-4.118275	dip
-3.834278	diploma
-3.76982	direct
-3.852007	direction
-3.852007	directly
-3.909999	director
-4.329128	dirt
-3.852007	dirty
-4.329128	dis
-4.277976	disagree
-4.190825	disappear
-3.953465	disappointed
-4.190825	disaster
-4.028098	discipline
-4.329128	disclose
-3.889796	discount
-4.153037	discover
-4.028098	discovery
-4.277976	discrimination
-3.931188	discuss
-4.08609	discussion
-4.08609	disease
-3.889796	disgusting
-3.78506	dish
-4.277976	disk
-3.889796	dislike
-4.232218	disorder
-4.277976	dispatch
-4.028098	display
-3.931188	distance
-4.232218	distress
-4.232218	distribution
-4.277976	district
-4.056127	disturb
-4.232218	disturbing
-4.08609	dive
-4.232218	diverse
-3.931188	divide
-4.277976	divided
-4.277976	dividend
-4.00177	diving
-4.232218	division
-4.056127	divorce
-4.190825	dizzy
-2.786614	do
-3.59875	doctor
-3.852007	document
-4.190825	documentary
-4.277976	documentation
-3.38096	does
-3.476343	dog
-3.87049	dogs
-3.29772	doing
-4.08609	doll
-3.399709	dollar
-4.232218	dolphin
-4.190825	dome
-4.329128	domestic
-4.153037	don
-4.056127	donate
-4.277976	donation
-3.368895	done
-4.056127	donee
-4.277976	dong
-4.277976	donkey
-4.190825	donor
-3.889796	dont
-3.439826	door
-4.056127	dorm
-4.028098	dormitory
-3.56012	dot
-3.641154	double
-4.056127	doubt
-3.194792	down
-3.976946	downstairs
-3.976946	downtown
-4.00177	draft
-4.028098	drag
-4.277976	dragging
-4.00177	dragon
-4.153037	drain
-3.641154	drama
-4.08609	dramatic
-4.190825	drank
-4.277976	drastically
-3.755097	draw
-3.953465	drawing
-4.329128	drawn
-3.579006	dream
-4.232218	dreamer
-3.755097	dress
-4.329128	dressed
-4.190825	dressing
-4.190825	drill
-3.516215	drink
-3.889796	drinking
-3.579006	drive
-3.740857	driver
-3.800854	driving
-4.277976	drool
-3.619434	drop
-4.118275	dropping
-4.190825	drove
-3.800854	drowsy
-4.08609	drug
-4.190825	drum
-4.028098	drunk
-3.834278	dry
-4.329128	dual
-3.852007	duck
-3.800854	dude
-3.755097	due
-3.48403	duit
-4.329128	dull
-4.028098	dumb
-4.232218	dump
-4.056127	dumpling
-4.153037	duration
-3.641154	durian
-3.432878	during
-4.153037	dust
-3.931188	dustbin
-4.056127	duty
-4.277976	dye
-3.976946	dying
-3.340124	e
-3.46879	each
-4.232218	eagle
-4.00177	ear
-3.630158	early
-3.700739	earn
-4.028098	earning
-4.277976	earpiece
-3.976946	earth
-4.329128	earthquake
-3.755097	easier
-4.190825	easiest
-3.817245	easily
-3.727068	east
-4.277976	easter
-4.232218	eastern
-3.499825	easy
-3.16776	eat
-3.87049	eaten
-3.56946	eating
-4.277976	eats
-4.277976	echo
-4.190825	economic
-4.118275	economics
-4.056127	economy
-4.153037	edge
-3.976946	edible
-4.028098	edit
-4.277976	edition
-4.329128	editor
-4.232218	educate
-4.153037	educated
-3.641154	education
-4.277976	educational
-3.889796	effect
-4.118275	effective
-4.232218	effects
-4.329128	efficiency
-4.118275	efficient
-3.817245	effort
-3.727068	egg
-4.118275	ego
-3.001769	eh
-3.164032	eight
-3.68815	eighteen
-4.277976	eighth
-3.56946	eighty
-3.56946	either
-4.232218	el
-3.976946	elaborate
-4.00177	elder
-3.800854	elderly
-4.153037	eldest
-4.190825	election
-4.028098	elective
-4.118275	electric
-4.232218	electrical
-4.153037	electricity
-4.153037	electronic
-4.329128	elegant
-4.277976	element
-4.08609	elephant
-3.533248	eleven
-4.277976	eligibility
-3.953465	eligible
-4.277976	elite
-3.362987	else
-3.619434	em
-4.232218	embarrass
-4.153037	embarrassed
-3.727068	embarrassing
-4.190825	embassy
-3.713704	emergency
-4.118275	emotion
-4.00177	emotional
-4.232218	emotionally
-4.329128	employ
-4.028098	employed
-3.727068	employee
-3.800854	employer
-3.976946	employment
-3.78506	empty
-3.619434	en
-3.56946	enam
-4.190825	encounter
-4.08609	encourage
-3.307939	end
-3.889796	ended
-3.852007	ending
-4.329128	endless
-4.153037	enemy
-3.817245	energy
-4.00177	engage
-4.118275	engaged
-4.329128	engagement
-4.056127	engine
-4.028098	engineer
-3.800854	engineering
-3.507942	enjoy
-4.028098	enjoyable
-4.08609	enjoying
-3.476343	enough
-3.931188	enquire
-3.909999	enquiry
-4.00177	enrichment
-4.056127	enroll
-4.329128	enrolled
-4.08609	ensure
-3.852007	enter
-4.190825	entertain
-4.277976	entertaining
-3.78506	entertainment
-3.78506	entire
-4.329128	entirely
-4.232218	entitle
-4.028098	entitlement
-4.232218	entity
-4.00177	entrance
-4.329128	entrepreneur
-4.028098	entry
-4.277976	envelope
-3.800854	environment
-4.277976	environmental
-3.909999	episode
-3.953465	equal
-4.232218	equally
-4.056127	equipment
-4.153037	equity
-4.118275	equivalent
-2.885865	er
-4.056127	era
-4.277976	erase
-4.232218	eraser
-4.329128	eric
-4.08609	err
-3.909999	error
-4.232218	es
-4.00177	escalate
-4.329128	escalator
-3.931188	escape
-3.56012	especially
-4.153037	esplanade
-3.817245	essay
-4.190825	essence
-4.232218	essential
-4.232218	essentially
-3.931188	estate
-4.329128	estimate
-4.232218	eve
-3.135308	even
-3.852007	evening
-3.68815	event
-3.834278	eventually
-3.419305	ever
-3.302799	every
-3.542022	everybody
-3.507942	everyday
-3.499825	everyone
-3.254495	everything
-3.78506	everywhere
-4.277976	evidence
-4.028098	evil
-3.755097	ex
-3.953465	exact
-3.524648	exactly
-3.652435	exam
-4.277976	examination
-3.446888	example
-3.909999	excel
-4.232218	excellent
-3.817245	except
-4.277976	excess
-3.727068	exchange
-3.976946	excited
-3.953465	exciting
-4.277976	exclamation
-4.232218	exclude
-4.277976	excluding
-4.329128	exclusive
-3.909999	excuse
-4.232218	execute
-4.329128	execution
-4.277976	executive
-3.664016	exercise
-4.118275	exhibition
-4.00177	exist
-4.028098	exit
-4.277976	expand
-3.755097	expect
-4.153037	expectation
-4.329128	expedite
-3.476343	expensive
-3.491856	experience
-4.08609	experienced
-4.118275	experiment
-4.277976	expert
-4.190825	expire
-4.153037	expiry
-3.68815	explain
-4.329128	explaining
-4.277976	explanation
-3.909999	explore
-4.190825	expose
-4.232218	exposed
-4.190825	exposure
-3.852007	express
-4.190825	expression
-3.953465	extend
-4.028098	extended
-4.153037	extension
-4.056127	extent
-4.153037	external
-3.675916	extra
-4.329128	extract
-4.028098	extreme
-4.153037	extremely
-4.232218	ey
-3.78506	eye
-4.190825	eyebrow
-3.406143	f
-4.277976	fa
-3.499825	face
-3.953465	facial
-4.232218	facility
-3.713704	facing
-3.68815	fact
-4.056127	factor
-4.08609	factory
-3.953465	fad
-4.329128	fade
-3.446888	faham
-3.713704	fail
-4.118275	failure
-4.153037	faint
-4.153037	fainting
-3.713704	fair
-4.190825	fairly
-4.153037	fairy
-4.190825	faith
-3.817245	fake
-3.630158	fall
-4.277976	fallen
-3.976946	falling
-3.976946	false
-4.277976	fame
-3.976946	familiar
-3.287736	family
-3.56946	famous
-3.800854	fan
-4.153037	fancy
-4.329128	fang
-4.00177	fantastic
-4.153037	fantasy
-3.476343	far
-4.153037	fare
-3.889796	farm
-4.232218	farmer
-4.277976	farming
-3.834278	fashion
-4.277976	fashioned
-3.507942	fast
-3.755097	faster
-4.329128	fasting
-3.755097	fat
-4.190825	fate
-3.516215	father
-3.931188	fault
-4.190825	faulty
-3.630158	favorite
-3.931188	fear
-3.953465	feature
-4.153037	fed
-3.800854	fee
-3.976946	feed
-3.852007	feedback
-4.190825	feeding
-3.183	feel
-3.59875	feeling
-3.740857	fell
-4.118275	fellow
-3.740857	felt
-3.664016	female
-4.028098	fence
-4.232218	ferry
-3.976946	festival
-4.118275	fetch
-3.78506	fever
-3.368895	few
-4.329128	fi
-3.889796	fiction
-4.277976	fictional
-3.834278	field
-4.190825	fierce
-3.550977	fifteen
-3.834278	fifth
-3.368895	fifty
-3.68815	fight
-4.277976	fighter
-3.87049	fighting
-3.953465	figure
-3.909999	file
-4.329128	filing
-3.740857	fill
-4.028098	filled
-4.118275	filling
-3.931188	film
-4.190825	filter
-3.953465	fin
-3.740857	final
-3.909999	finally
-3.834278	finance
-3.619434	financial
-4.153037	financially
-3.273177	find
-3.953465	finding
-3.48403	fine
-3.953465	finger
-3.507942	finish
-3.953465	finished
-4.232218	finishing
-4.232218	finland
-3.652435	fire
-4.277976	fired
-4.056127	firm
-3.064901	first
-4.00177	firstly
-3.550977	fish
-4.277976	fisherman
-3.852007	fishing
-3.675916	fit
-3.931188	fitness
-4.329128	fitting
-3.022703	five
-3.931188	fix
-3.953465	fixed
-3.889796	flag
-3.909999	flash
-3.78506	flat
-4.232218	flavor
-4.08609	flavour
-4.329128	flesh
-4.056127	flexible
-3.852007	flight
-4.028098	flip
-4.056127	float
-4.190825	floating
-3.588766	floor
-4.190825	flour
-3.931188	flow
-3.889796	flower
-4.153037	flu
-4.277976	fluent
-4.329128	flush
-3.700739	fly
-4.08609	flyer
-3.834278	flying
-4.277976	foam
-3.76982	focus
-4.277976	fold
-4.118275	folder
-4.232218	folk
-3.516215	follow
-4.232218	follower
-3.87049	following
-4.329128	foo
-3.125008	food
-4.232218	fool
-3.953465	foot
-3.817245	football
-2.71108	for
-3.834278	force
-4.118275	forced
-4.08609	forecast
-4.277976	forehead
-3.834278	foreign
-3.976946	foreigner
-4.329128	foresee
-4.056127	forest
-3.800854	forever
-3.700739	forget
-4.190825	forgive
-3.652435	forgot
-4.190825	forgotten
-4.190825	fork
-3.507942	form
-3.976946	formal
-4.153037	format
-4.028098	formula
-4.329128	fort
-3.976946	forth
-4.329128	fortunate
-4.190825	fortune
-3.48403	forty
-4.232218	forum
-3.755097	forward
-4.153037	foster
-3.619434	found
-3.976946	foundation
-4.190825	fountain
-3.089203	four
-3.68815	fourteen
-3.755097	fourth
-4.056127	fox
-3.976946	frame
-4.329128	franc
-4.153037	frank
-4.190825	freak
-3.334591	free
-3.953465	freedom
-4.118275	freeze
-4.277976	frequency
-4.232218	frequent
-4.232218	frequently
-3.713704	fresh
-3.740857	fried
-3.26843	friend
-3.852007	friendly
-3.889796	friendship
-4.190825	frog
-2.98918	from
-3.446888	front
-4.153037	frozen
-3.834278	fruit
-4.028098	fry
-4.153037	fu
-4.277976	fuel
-4.232218	fulfill
-3.454067	full
-3.931188	fully
-3.399709	fun
-3.931188	function
-3.740857	fund
-4.329128	fundamental
-3.889796	funds
-4.232218	funeral
-4.329128	funky
-3.476343	funny
-4.232218	fur
-4.232218	furniture
-3.664016	further
-4.232218	fusion
-3.56012	future
-3.340124	g
-4.277976	gadget
-3.953465	gain
-4.190825	galaxy
-4.232218	gallery
-4.232218	gamble
-4.329128	gambling
-3.432878	game
-3.931188	gaming
-4.118275	gang
-4.056127	gangster
-3.931188	gap
-4.232218	garbage
-3.800854	garden
-4.329128	gardener
-4.190825	gardening
-4.153037	garlic
-4.028098	gas
-3.931188	gate
-4.153037	gather
-4.118275	gathering
-3.727068	gave
-3.909999	gay
-4.056127	ge
-4.153037	gear
-4.277976	gel
-4.329128	gem
-4.277976	gen
-4.190825	gender
-4.277976	gene
-3.713704	general
-3.909999	generally
-4.00177	generate
-3.652435	generation
-4.329128	generic
-4.056127	genie
-4.232218	genius
-3.834278	genre
-4.232218	gentle
-4.153037	gentleman
-4.277976	genuine
-4.08609	geography
-4.056127	german
-4.329128	gesture
-3.009502	get
-3.476343	getting
-3.817245	ghost
-4.028098	giant
-4.153037	giddiness
-3.909999	giddy
-3.78506	gift
-4.190825	gig
-4.190825	ginger
-3.351405	girl
-4.153037	giro
-3.149433	give
-3.641154	given
-3.727068	giving
-4.118275	glad
-3.852007	glass
-4.056127	glasses
-4.028098	global
-4.329128	gloomy
-4.153037	gloss
-4.329128	glove
-2.846612	go
-3.852007	goal
-3.976946	goat
-3.46879	god
-3.630158	goes
-3.16776	going
-4.08609	gol
-3.834278	gold
-3.889796	golden
-3.852007	golf
-3.664016	gone
-4.232218	gong
-2.999222	good
-3.931188	goodness
-4.118275	goods
-4.329128	goose
-4.153037	gor
-3.909999	gosh
-4.056127	gossip
-2.944417	got
-4.056127	gotten
-3.48403	government
-3.713704	grab
-4.08609	grace
-4.118275	grad
-3.909999	grade
-3.852007	graduate
-4.153037	graduated
-4.329128	graduating
-4.153037	graduation
-4.277976	gram
-3.909999	grand
-3.953465	grandfather
-3.852007	grandma
-3.931188	grandmother
-4.232218	grandpa
-4.232218	grandson
-4.329128	granny
-3.953465	grant
-4.329128	graph
-4.232218	graphic
-3.931188	grass
-4.277976	grateful
-4.277976	gravity
-4.190825	gravy
-4.153037	gray
-3.56946	great
-4.232218	greater
-4.232218	greedy
-3.351405	green
-4.277976	greenish
-4.329128	greeting
-4.056127	grew
-3.56012	grey
-4.08609	grill
-4.329128	grilled
-4.190825	grocery
-4.190825	groom
-4.056127	gross
-3.800854	ground
-3.461366	group
-3.727068	grow
-3.931188	growing
-4.153037	grown
-4.118275	growth
-4.153037	guarantee
-3.953465	guard
-4.056127	guardian
-3.292699	guess
-4.277976	guessing
-4.028098	guest
-4.277976	guidance
-3.852007	guide
-4.232218	guilty
-3.976946	guitar
-3.852007	gula
-4.329128	gum
-4.056127	gun
-3.56946	guna
-3.834278	guru
-3.323733	guy
-3.700739	gym
-3.454067	h
-3.153037	ha
-4.00177	habit
-4.190825	hack
-3.263735	had
-4.232218	hafiz
-3.491856	hah
-3.533248	hair
-4.329128	haircut
-4.190825	hak
-3.87049	halal
-3.476343	half
-3.953465	halfway
-3.550977	hall
-4.329128	halo
-4.277976	ham
-4.232218	hammer
-3.976946	hamster
-4.153037	han
-3.419305	hand
-4.118275	handbag
-3.76982	handle
-4.190825	handling
-3.931188	handsome
-4.190825	handwriting
-3.889796	hanging
-4.153037	hao
-3.412674	happen
-3.817245	happening
-4.277976	happier
-3.909999	happiest
-4.190825	happily
-3.852007	happiness
-3.393369	happy
-3.38712	hard
-3.909999	harder
-4.028098	hardly
-4.277976	hardware
-4.232218	harm
-4.00177	harry
-4.232218	harsh
-3.78506	hat
-3.664016	hate
-2.727068	have
-3.664016	hawker
-4.118275	hay
-2.880036	he
-3.588766	head
-3.976946	headache
-4.232218	heading
-4.277976	headphone
-4.329128	heal
-3.755097	health
-3.76982	healthy
-3.476343	hear
-4.00177	hearing
-3.608969	heart
-4.277976	heartbeat
-4.028098	heat
-4.232218	heater
-4.00177	heaven
-3.87049	heavy
-4.00177	heck
-4.232218	hedge
-4.329128	heel
-4.00177	height
-4.232218	helicopter
-3.740857	hell
-3.145859	hello
-4.232218	helmet
-3.277976	help
-4.118275	helper
-4.056127	helpful
-3.834278	helping
-4.329128	henry
-3.059032	her
-4.190825	herbal
-3.245446	here
-4.118275	heritage
-3.76982	hero
-4.190825	hers
-3.953465	herself
-3.630158	hey
-3.329128	hi
-4.153037	hidden
-3.931188	hide
-3.362987	high
-3.727068	higher
-3.834278	highest
-4.153037	highland
-4.028098	highlight
-4.232218	highly
-4.118275	highway
-4.190825	hike
-4.00177	hill
-3.190825	him
-3.909999	himself
-4.190825	hint
-3.976946	hip
-3.976946	hire
-3.202834	his
-4.277976	historical
-3.727068	history
-3.675916	hit
-4.232218	hive
-4.028098	ho
-3.713704	hobby
-4.232218	hockey
-3.263735	hold
-4.118275	holder
-3.59875	holding
-3.976946	hole
-3.630158	holiday
-4.329128	hollow
-4.028098	holy
-3.277976	home
-3.909999	homework
-4.190825	honda
-3.740857	honest
-3.652435	honestly
-4.232218	honesty
-3.817245	honey
-4.08609	honeymoon
-3.619434	hong
-4.056127	honor
-4.329128	hood
-4.118275	hook
-4.277976	hoon
-3.976946	hop
-3.630158	hope
-3.852007	hopefully
-4.329128	horizon
-4.190825	horizontal
-4.277976	horn
-3.976946	horrible
-3.87049	horror
-3.953465	horse
-3.579006	hospital
-4.08609	host
-4.00177	hostel
-3.579006	hot
-3.340124	hotel
-3.476343	hour
-3.292699	house
-4.056127	household
-4.056127	housewife
-4.232218	housework
-4.056127	housing
-2.87811	how
-3.953465	however
-3.889796	hub
-4.153037	hug
-3.755097	huge
-3.26843	huh
-4.232218	hulk
-4.00177	hum
-3.652435	human
-4.118275	humble
-4.329128	humour
-3.249947	hundred
-3.68815	hungry
-4.153037	hunt
-4.08609	hurry
-3.909999	hurt
-3.59875	husband
-4.118275	hut
-4.277976	hybrid
-2.363574	i
-3.59875	ice
-4.190825	iceland
-4.277976	icon
-4.190825	id
-3.542022	idea
-4.00177	ideal
-4.028098	identify
-4.153037	identity
-3.976946	idiom
-4.232218	idiot
-4.329128	idle
-4.190825	idol
-4.329128	idola
-2.843052	if
-3.931188	ignore
-4.277976	ikat
-4.277976	ill
-4.028098	illegal
-4.277976	illness
-4.00177	image
-4.232218	imagination
-3.56946	imagine
-4.190825	immediate
-3.87049	immediately
-4.329128	immigration
-4.329128	immune
-3.852007	impact
-4.277976	implement
-4.118275	import
-4.277976	importance
-3.46879	important
-3.909999	impossible
-4.190825	impress
-3.889796	impression
-3.909999	impressive
-3.87049	improve
-4.232218	improvement
-4.329128	improving
-2.705879	in
-4.277976	incentive
-4.232218	inch
-3.909999	incident
-3.976946	include
-4.190825	included
-4.190825	inclusive
-3.740857	income
-3.931188	increase
-4.277976	increasing
-4.277976	incredible
-4.232218	incredibly
-4.08609	indeed
-4.329128	independence
-4.00177	independent
-3.953465	indicate
-4.329128	indication
-4.190825	indicative
-3.889796	individual
-4.00177	indoor
-3.852007	industrial
-3.834278	industry
-4.329128	infant
-4.277976	infection
-4.153037	infinity
-4.056127	influence
-4.277976	influencer
-3.87049	inform
-3.550977	information
-4.232218	informed
-4.190825	ingredient
-4.190825	initial
-3.976946	initially
-4.277976	initiate
-4.190825	initiative
-3.931188	injured
-4.153037	injury
-4.232218	ink
-4.118275	inn
-4.056127	inner
-4.277976	innocence
-4.232218	innocent
-3.953465	input
-4.190825	insane
-4.277976	insect
-4.277976	insert
-4.277976	inserted
-3.368895	inside
-4.277976	insist
-4.232218	inspiration
-4.08609	inspire
-4.190825	inspired
-4.028098	inspiring
-4.153037	install
-4.277976	instance
-4.00177	instant
-4.118275	instantly
-3.59875	instead
-4.153037	institution
-3.675916	instruction
-4.056127	instructor
-4.118275	instrument
-4.190825	instrumental
-3.852007	insurance
-4.190825	intake
-4.329128	intellectual
-4.232218	intelligence
-4.232218	intelligent
-4.118275	intend
-4.277976	intending
-4.190825	intense
-4.190825	intention
-4.232218	inter
-4.08609	interact
-4.118275	interaction
-4.329128	interactive
-4.232218	interbank
-4.153037	interchange
-3.641154	interest
-3.740857	interested
-3.334591	interesting
-4.190825	interior
-3.909999	intern
-4.056127	internal
-3.834278	international
-3.76982	internship
-4.277976	interrupt
-3.727068	interview
-3.29772	into
-3.909999	introduce
-4.232218	introduction
-4.190825	introvert
-4.277976	invent
-4.08609	invention
-4.277976	inverted
-3.909999	invest
-4.277976	investigation
-3.834278	investment
-4.08609	invisible
-4.190825	invitation
-3.740857	invite
-4.08609	invoice
-4.08609	involve
-4.00177	involved
-4.190825	ion
-4.00177	iron
-4.329128	ironman
-4.08609	irritating
-2.519568	is
-3.817245	island
-3.652435	issue
-4.08609	issuer
-2.653579	it
-4.277976	itchy
-3.755097	item
-4.232218	itinerary
-3.399709	its
-3.56946	itself
-3.542022	j
-3.953465	jack
-4.00177	jacket
-4.153037	jail
-3.579006	jam
-4.277976	jane
-3.909999	jap
-3.68815	japan
-4.056127	jawab
-4.118275	jay
-4.056127	jazz
-4.153037	jealous
-4.277976	jean
-3.976946	jeans
-4.153037	jeep
-4.277976	jeff
-4.153037	jelly
-4.329128	jenny
-4.08609	jerry
-4.08609	jet
-4.190825	jimmy
-3.362987	job
-4.028098	joe
-4.277976	joey
-4.190825	jog
-3.533248	join
-4.153037	joining
-4.00177	joint
-3.909999	joke
-4.190825	joker
-4.232218	jordan
-4.232218	journal
-4.028098	journey
-4.00177	joy
-3.931188	judge
-3.889796	juice
-4.190825	juicy
-3.727068	jump
-4.118275	junction
-3.817245	june
-4.08609	jungle
-3.931188	junior
-4.277976	junk
-2.758002	just
-4.277976	justice
-3.211029	k
-3.852007	ka
-4.08609	kai
-3.800854	kaki
-4.118275	kala
-3.56946	kali
-4.277976	kampong
-2.920464	kan
-4.028098	kang
-4.329128	kangaroo
-3.931188	karaoke
-3.26843	kat
-3.499825	kay
-4.232218	kebab
-4.190825	keen
-3.29772	keep
-4.153037	keeper
-4.028098	keeping
-4.277976	kelly
-4.232218	ken
-3.909999	kept
-3.499825	kerana
-3.652435	key
-4.028098	keyboard
-4.232218	khan
-3.909999	kick
-4.08609	kicking
-4.232218	kidney
-3.76982	kill
-4.232218	killer
-4.190825	killing
-4.190825	kilo
-4.232218	kilometer
-4.118275	kim
-3.095498	kind
-4.00177	kindergarten
-4.153037	kindle
-4.190825	kindly
-4.329128	kindness
-3.76982	king
-4.232218	kingdom
-4.190825	kiri
-3.909999	kiss
-4.056127	kit
-3.87049	kitchen
-4.00177	kite
-4.118275	kitty
-4.056127	knee
-3.76982	knew
-4.056127	knife
-4.190825	knitting
-4.277976	knob
-4.00177	knock
-2.720335	know
-3.976946	knowing
-3.852007	knowledge
-3.909999	known
-3.834278	ko
-4.329128	koala
-4.232218	koi
-4.277976	koko
-3.909999	kopi
-3.909999	kos
-3.834278	kosong
-4.118275	kuan
-4.153037	kurus
-4.329128	kwan
-3.426038	l
-3.089203	la
-3.852007	lab
-3.976946	label
-4.190825	labour
-4.08609	lack
-4.329128	ladder
-4.056127	ladies
-3.516215	lady
-4.118275	lag
-4.232218	lagoon
-4.190825	lai
-3.323733	lain
-4.056127	lake
-4.329128	lam
-3.461366	lama
-4.028098	lamb
-3.909999	lame
-3.852007	lamp
-4.232218	lamppost
-4.153037	lan
-3.834278	land
-4.028098	landed
-4.190825	landing
-3.931188	lane
-3.755097	language
-4.190825	lap
-4.118275	lar
-4.028098	large
-3.817245	lari
-4.277976	laser
-3.135308	last
-4.277976	lastly
-3.550977	late
-4.190825	lately
-3.399709	later
-3.700739	latest
-3.76982	laugh
-3.889796	laughing
-4.329128	laughter
-4.232218	launch
-4.118275	laundry
-4.232218	lavender
-3.700739	law
-3.852007	lawyer
-3.976946	lay
-4.153037	layer
-4.232218	layout
-3.675916	lazy
-3.909999	lead
-3.976946	leader
-4.118275	leadership
-4.190825	leading
-4.118275	leaf
-4.08609	league
-4.190825	lean
-3.439826	learn
-4.190825	learned
-3.76982	learning
-3.931188	learnt
-3.419305	least
-4.329128	leather
-3.323733	leave
-4.118275	leaves
-3.976946	leaving
-3.931188	lecture
-3.909999	lecturer
-3.755097	lee
-3.287736	left
-4.232218	leftover
-3.641154	leg
-4.028098	legal
-4.277976	legally
-4.056127	legend
-3.76982	legit
-4.028098	leisure
-4.056127	lemon
-4.232218	lend
-4.118275	length
-4.08609	lens
-3.588766	less
-3.976946	lesser
-3.713704	lesson
-3.202834	let
-3.59875	letter
-3.46879	level
-4.056127	li
-4.329128	liang
-4.232218	liar
-4.190825	liberal
-3.87049	library
-3.852007	license
-3.817245	lie
-3.190825	life
-4.277976	lifetime
-3.78506	lift
-3.524648	light
-4.056127	lighter
-4.277976	lighting
-4.277976	lightning
-2.503865	like
-3.976946	likely
-4.277976	liking
-4.190825	lily
-4.056127	lim
-4.232218	lime
-3.76982	limit
-3.68815	limited
-4.056127	lin
-3.351405	line
-4.118275	ling
-3.76982	link
-4.232218	linked
-4.056127	lion
-4.00177	lip
-4.153037	lipstick
-4.118275	liquid
-4.277976	liquidity
-3.641154	list
-4.232218	listed
-3.588766	listen
-4.329128	listener
-3.834278	listening
-4.153037	lit
-3.740857	literally
-4.190825	literary
-4.056127	literature
-3.446888	little
-3.476343	live
-4.232218	liver
-3.675916	living
-4.277976	lizard
-3.953465	lo
-4.153037	load
-4.232218	loading
-4.277976	loaf
-3.755097	loan
-4.190825	lobby
-4.08609	lobster
-3.516215	local
-3.817245	location
-3.931188	lock
-4.190825	locked
-4.118275	locker
-4.232218	lodge
-4.277976	loft
-3.608969	log
-4.277976	logged
-4.08609	logic
-4.190825	logical
-3.953465	login
-4.329128	logistics
-4.056127	lonely
-3.227897	long
-3.675916	longer
-3.249947	look
-3.439826	looking
-4.056127	loop
-4.153037	loose
-4.190825	lord
-4.153037	lori
-4.190825	lorry
-3.740857	lose
-4.329128	loser
-4.056127	losing
-4.118275	loss
-3.664016	lost
-3.073856	lot
-3.976946	lots
-4.277976	lottery
-4.329128	lotus
-3.800854	loud
-4.232218	loudly
-4.277976	lounge
-4.08609	lousy
-3.263735	love
-4.277976	lovely
-4.08609	lover
-4.118275	loving
-3.579006	low
-3.800854	lower
-4.056127	loyal
-4.232218	loyalty
-3.87049	luck
-4.08609	luckily
-3.713704	lucky
-4.118275	luggage
-4.232218	lump
-3.652435	lunch
-4.232218	lung
-4.153037	luxury
-3.852007	lying
-3.245446	m
-3.727068	ma
-3.889796	mac
-3.727068	machine
-3.852007	mad
-3.931188	madam
-3.507942	made
-4.153037	magazine
-3.909999	magic
-4.00177	magical
-3.931188	maid
-3.727068	mail
-3.307939	main
-3.953465	mainly
-3.889796	maintain
-3.931188	maintenance
-3.852007	major
-4.118275	majority
-3.17152	make
-3.953465	maker
-3.675916	making
-4.153037	mala
-3.619434	male
-3.713704	mall
-3.29772	man
-3.135308	mana
-3.755097	manage
-3.834278	management
-3.713704	manager
-3.931188	mandarin
-4.232218	manga
-4.118275	mango
-4.329128	mannequin
-4.118275	manner
-4.056127	manual
-3.254495	many
-4.00177	map
-4.190825	marathon
-4.232218	marble
-3.834278	march
-4.277976	maria
-3.953465	marina
-4.118275	marine
-3.68815	mark
-4.153037	marker
-3.550977	market
-3.931188	marketing
-4.277976	marking
-4.190825	maroon
-3.675916	marriage
-3.608969	married
-4.00177	marry
-4.232218	mart
-4.277976	martial
-4.232218	martin
-3.953465	marvel
-4.232218	mary
-4.118275	mas
-3.273177	masa
-4.118275	masjid
-3.931188	mask
-4.056127	mass
-4.028098	massage
-3.740857	master
-3.889796	mat
-3.727068	match
-3.87049	matching
-4.00177	mate
-3.953465	material
-4.329128	materialistic
-3.713704	maternity
-3.800854	math
-4.232218	mathematics
-3.588766	matter
-4.056127	mature
-4.232218	maturing
-4.056127	maturity
-3.953465	mau
-3.87049	maximum
-4.190825	maxwell
-3.26843	may
-3.030821	maybe
-4.329128	maze
-2.823978	me
-3.59875	meal
-2.986706	mean
-3.68815	meaning
-3.889796	meaningful
-4.028098	meaningless
-3.889796	meant
-4.190825	meanwhile
-4.190825	measure
-3.755097	meat
-4.329128	mechanical
-3.700739	media
-4.277976	medic
-3.727068	medical
-4.190825	medication
-3.931188	medicine
-4.277976	meditation
-4.056127	medium
-3.48403	meet
-3.713704	meeting
-4.232218	melody
-4.277976	melt
-4.118275	mem
-3.740857	member
-4.190825	membership
-3.755097	memorable
-4.232218	memorize
-3.800854	memory
-3.817245	men
-4.118275	meng
-3.909999	mental
-4.190825	mentality
-4.118275	mentally
-3.727068	mention
-4.277976	mentor
-3.817245	menu
-4.277976	mercy
-4.232218	mere
-4.232218	meriah
-4.277976	merit
-4.277976	merry
-4.08609	mess
-3.641154	message
-4.277976	messenger
-4.056127	messy
-3.713704	met
-4.028098	metal
-4.028098	meter
-4.08609	method
-3.909999	mi
-4.329128	mian
-4.329128	mice
-4.232218	micro
-4.232218	microphone
-3.834278	mid
-3.619434	middle
-4.028098	midnight
-3.461366	might
-4.190825	migrate
-4.08609	mike
-4.232218	mild
-4.08609	mile
-4.277976	military
-3.727068	milk
-4.329128	miller
-3.56946	million
-4.232218	millionaire
-4.277976	millions
-3.834278	milo
-4.190825	min
-3.334591	mind
-4.190825	minded
-3.232218	mine
-4.153037	ming
-4.190825	minibus
-3.889796	minimum
-4.08609	minister
-4.028098	ministry
-4.028098	minor
-4.277976	minority
-4.277976	mint
-3.87049	minus
-3.550977	minute
-4.277976	miracle
-3.953465	mirror
-4.08609	mismatch
-3.507942	miss
-3.834278	missing
-4.056127	mission
-3.931188	mistake
-4.329128	mistaken
-3.68815	mister
-3.713704	mix
-4.056127	mixed
-4.277976	mixture
-4.056127	mo
-3.852007	mobile
-4.190825	modal
-3.976946	mode
-3.852007	model
-3.909999	modern
-4.329128	modify
-3.909999	module
-3.419305	moment
-4.277976	mommy
-3.211029	money
-3.889796	monitor
-4.028098	monkey
-4.118275	monster
-3.419305	month
-3.909999	monthly
-3.889796	mood
-3.953465	moon
-4.277976	moonlight
-4.190825	mop
-3.953465	moral
-3.006909	more
-4.08609	morgan
-3.412674	morning
-4.277976	morris
-4.277976	mosque
-4.329128	mosquito
-3.175313	most
-3.740857	mostly
-3.48403	mother
-4.329128	motherland
-4.08609	motion
-4.153037	motivate
-4.153037	motivation
-3.78506	motor
-4.08609	motorcycle
-4.028098	motto
-4.153037	mount
-3.909999	mountain
-4.118275	mouse
-3.76982	mouth
-3.432878	move
-4.028098	movement
-4.329128	mover
-3.412674	movie
-3.652435	moving
-4.00177	mu
-3.149433	much
-4.232218	mud
-4.277976	muffin
-4.329128	mug
-4.118275	multiple
-4.190825	multiply
-3.507942	mum
-3.953465	mummy
-4.232218	murder
-3.953465	murid
-4.08609	muscle
-3.889796	museum
-4.118275	mushroom
-3.491856	music
-4.00177	musical
-4.277976	musician
-3.282828	must
-4.277976	mustard
-4.08609	mutton
-4.190825	mutual
-2.727068	my
-3.432878	myself
-4.153037	mystery
-3.351405	n
-3.976946	na
-4.277976	nag
-3.550977	naik
-4.232218	nail
-2.960377	nak
-4.08609	naked
-3.219381	name
-4.00177	nana
-4.277976	nanny
-4.190825	nap
-3.419305	nasi
-4.232218	nasty
-4.118275	nation
-3.727068	national
-4.329128	nationality
-4.277976	native
-3.817245	natural
-4.08609	naturally
-3.755097	nature
-4.118275	naughty
-4.329128	ne
-3.491856	near
-3.834278	nearby
-3.889796	nearest
-4.118275	nearly
-4.329128	neat
-4.190825	necessarily
-3.909999	necessary
-4.329128	necessity
-4.056127	neck
-4.118275	necklace
-3.022703	need
-4.329128	needle
-3.755097	needs
-3.889796	negative
-4.153037	neighbor
-4.028098	neighborhood
-4.153037	neither
-4.190825	nephew
-4.232218	nervous
-4.329128	nest
-3.800854	net
-4.118275	netball
-4.00177	network
-4.153037	neutral
-3.128415	never
-3.263735	new
-3.713704	news
-3.976946	newspaper
-4.08609	newton
-3.138797	next
-3.073856	ni
-3.198795	nice
-4.118275	nicely
-4.232218	nick
-4.028098	nickname
-4.190825	niece
-3.432878	night
-4.277976	nightmare
-4.190825	nights
-3.125008	nine
-3.68815	nineteen
-3.579006	ninety
-4.232218	ninth
-2.750776	no
-4.329128	noble
-3.619434	nobody
-4.00177	noise
-4.028098	noisy
-4.277976	nominal
-3.700739	non
-3.953465	none
-3.953465	nonsense
-3.852007	noodle
-3.889796	nope
-4.028098	nor
-4.190825	norm
-3.432878	normal
-3.579006	normally
-3.713704	north
-4.232218	northern
-3.931188	nose
-2.758002	not
-3.68815	note
-4.153037	noted
-3.357157	nothing
-3.76982	notice
-4.190825	notification
-4.277976	notify
-4.190825	notional
-4.153037	noun
-4.153037	novel
-4.118275	novice
-2.942184	now
-3.619434	nowadays
-4.118275	nowhere
-4.277976	nugget
-4.153037	numb
-3.125008	number
-4.329128	numbness
-4.118275	nun
-3.852007	nurse
-4.153037	nursery
-4.028098	nursing
-4.277976	nut
-4.277976	nutrition
-3.26843	o
-3.727068	object
-4.232218	objective
-4.329128	observation
-4.190825	observe
-4.190825	obtain
-4.00177	obvious
-3.713704	obviously
-4.277976	occasion
-4.329128	occasionally
-3.976946	ocean
-4.329128	octopus
-4.153037	odd
-2.67351	of
-3.374886	off
-3.641154	offer
-4.277976	offering
-3.499825	office
-3.524648	officer
-4.08609	official
-4.277976	offshore
-3.76982	often
-2.747918	oh
-3.817245	oil
-4.056127	oily
-3.249947	old
-4.277976	olden
-3.713704	older
-4.190825	olive
-4.277976	omelette
-2.808972	on
-3.393369	once
-2.677124	one
-4.329128	ongoing
-4.118275	onion
-3.030821	only
-3.953465	onto
-4.056127	onwards
-4.277976	opah
-3.357157	open
-3.889796	opening
-4.190825	opera
-4.277976	operate
-4.232218	operating
-4.056127	operation
-3.78506	operator
-3.889796	opinion
-3.909999	opportunity
-3.76982	opposite
-4.329128	opt
-3.889796	option
-2.830818	or
-4.08609	oral
-2.979365	orang
-3.664016	orange
-3.755097	orchard
-4.118275	orchestra
-3.454067	order
-4.118275	ordered
-4.190825	ordinary
-4.277976	organ
-4.153037	organic
-4.232218	organization
-4.118275	organize
-4.056127	orientation
-3.953465	origin
-3.740857	original
-3.121629	other
-3.889796	otherwise
-4.329128	ouch
-3.186895	our
-4.00177	ours
-4.277976	ourself
-3.976946	ourselves
-3.056127	out
-4.190825	outbreak
-4.08609	outcome
-4.329128	outdated
-4.056127	outdoor
-4.329128	outdoors
-4.190825	outer
-4.08609	outfit
-4.232218	outgoing
-4.153037	outing
-3.931188	outlet
-4.190825	outline
-4.232218	outlook
-4.153037	output
-3.524648	outside
-4.190825	outstanding
-4.118275	oven
-3.273177	over
-4.00177	overall
-4.190825	overcome
-4.277976	overlap
-4.153037	overload
-4.08609	overnight
-4.08609	oversea
-3.641154	overseas
-4.232218	overtime
-4.277976	overweight
-4.232218	owe
-3.362987	own
-3.953465	owner
-4.028098	oxygen
-4.118275	oyster
-3.236583	p
-3.909999	pa
-4.08609	pace
-4.190825	pacific
-3.852007	pack
-3.931188	package
-4.08609	packet
-3.817245	pad
-3.740857	page
-4.118275	pail
-3.550977	pain
-3.976946	painful
-4.028098	paint
-4.056127	painting
-4.329128	paip
-3.87049	pair
-4.232218	palace
-4.118275	pale
-3.499825	paling
-4.232218	palm
-4.329128	pam
-4.329128	pampered
-4.118275	pan
-4.277976	panama
-4.028098	pancake
-3.931188	panda
-4.056127	pandan
-4.00177	panel
-4.232218	pang
-4.118275	panic
-4.277976	pant
-3.641154	pants
-4.153037	papa
-3.608969	paper
-4.153037	par
-4.118275	para
-4.056127	parade
-4.190825	paradise
-4.329128	parcel
-4.153037	pardon
-3.68815	parent
-4.056127	parental
-3.550977	park
-4.00177	parking
-3.31314	part
-4.329128	partially
-3.889796	participate
-3.740857	particular
-4.232218	particularly
-4.329128	partly
-3.641154	partner
-3.652435	party
-4.056127	pasang
-3.439826	pass
-4.153037	passenger
-3.953465	passing
-3.87049	passion
-4.190825	passionate
-4.190825	passive
-3.76982	passport
-4.118275	password
-3.56012	past
-3.976946	paste
-4.232218	pat
-4.08609	patch
-3.909999	paternity
-3.953465	path
-4.329128	pathetic
-4.028098	patience
-3.516215	patient
-4.00177	pattern
-4.329128	pau
-4.056127	pause
-4.153037	pavement
-4.232218	pavilion
-3.340124	pay
-3.817245	paying
-3.608969	payment
-4.153037	pea
-3.976946	peace
-4.153037	peaceful
-3.87049	peach
-3.909999	peak
-4.153037	peanut
-3.953465	pear
-4.118275	pearl
-4.056127	pee
-4.153037	peek
-4.277976	peel
-4.118275	peer
-4.190825	peeve
-3.87049	pen
-4.277976	penalty
-3.740857	penang
-4.056127	pencil
-4.153037	pending
-4.232218	penguin
-4.329128	penny
-3.025392	people
-4.028098	pepper
-3.608969	per
-3.461366	percent
-4.08609	percentage
-4.232218	perception
-3.700739	perfect
-4.277976	perfectly
-3.953465	perform
-3.889796	performance
-4.190825	perfume
-3.976946	perhaps
-3.608969	period
-4.08609	permanent
-4.08609	permit
-4.232218	perpetual
-3.202834	person
-3.542022	personal
-3.852007	personality
-3.87049	personally
-3.976946	perspective
-4.118275	pertaining
-4.329128	pest
-3.652435	pet
-4.056127	peter
-4.028098	petrol
-4.232218	petty
-3.76982	pharmacy
-4.08609	phase
-4.277976	philosophy
-3.345727	phone
-3.700739	photo
-4.277976	photocopy
-4.329128	photographer
-4.232218	photography
-3.755097	phrase
-3.834278	physical
-4.056127	physically
-3.931188	physics
-4.028098	pi
-3.889796	piano
-3.579006	pick
-4.190825	picked
-4.028098	picnic
-3.499825	picture
-3.78506	pie
-3.76982	piece
-3.931188	pig
-4.232218	pigeon
-4.232218	pile
-4.153037	pill
-4.118275	pillow
-4.00177	pilot
-4.329128	pimple
-3.931188	pin
-3.931188	pinang
-4.329128	pine
-4.190825	pineapple
-4.056127	ping
-3.533248	pink
-4.232218	pinkish
-3.909999	pioneer
-4.232218	pipe
-3.889796	pisang
-4.329128	piss
-4.232218	pit
-4.118275	pitch
-4.153037	pity
-3.727068	pizza
-3.25909	place
-3.953465	plain
-3.507942	plan
-3.976946	plane
-4.190825	planet
-4.277976	plank
-4.00177	plant
-3.889796	plastic
-3.909999	plate
-3.953465	platform
-3.287736	play
-3.817245	player
-4.277976	playful
-3.953465	playground
-4.00177	plaza
-4.329128	pleasant
-3.277976	please
-4.277976	plenty
-4.08609	plot
-4.190825	pluck
-4.190825	plug
-4.056127	plum
-3.419305	plus
-4.329128	pneumonia
-4.277976	po
-4.00177	pocket
-3.219381	point
-4.329128	pointed
-4.232218	pointer
-3.909999	pointing
-4.329128	poison
-4.153037	poke
-4.329128	poker
-4.190825	polar
-3.931188	pole
-3.727068	police
-4.028098	policy
-3.889796	polis
-4.190825	polish
-4.329128	polite
-4.08609	political
-4.00177	politics
-4.118275	polo
-3.608969	poly
-4.08609	polyclinic
-4.153037	polytechnic
-4.232218	pon
-4.118275	pond
-4.153037	pong
-3.740857	pool
-4.329128	poop
-3.713704	poor
-3.755097	pop
-4.00177	popcorn
-3.727068	popular
-4.08609	population
-3.889796	pork
-3.953465	porridge
-4.00177	port
-4.232218	portable
-3.909999	portal
-3.834278	portfolio
-3.909999	portion
-4.028098	pose
-3.713704	position
-3.817245	positive
-3.976946	possession
-4.232218	possibility
-3.630158	possible
-4.190825	possibly
-3.56012	post
-3.817245	postal
-4.118275	posted
-3.889796	poster
-4.277976	posting
-3.953465	pot
-3.76982	potato
-3.953465	potatoes
-4.118275	potential
-3.852007	potong
-4.153037	potter
-4.056127	pound
-4.08609	pour
-3.976946	powder
-3.550977	power
-4.153037	powerful
-3.976946	practical
-4.232218	practically
-3.889796	practice
-4.329128	praise
-4.190825	pram
-4.277976	prank
-3.953465	prawn
-3.976946	pray
-4.232218	prayer
-4.329128	praying
-4.190825	precious
-4.153037	precisely
-4.277976	predict
-3.630158	prefer
-4.118275	preference
-4.277976	preferred
-4.056127	pregnant
-4.153037	premium
-4.277976	preparation
-3.76982	prepare
-4.028098	prepared
-3.87049	present
-3.976946	presentation
-4.08609	preserve
-4.08609	president
-3.76982	press
-4.329128	pressing
-3.800854	pressure
-4.118275	pretend
-3.524648	pretty
-4.028098	prevent
-3.740857	previous
-3.834278	previously
-3.542022	price
-4.277976	pride
-3.48403	primary
-4.056127	prime
-4.190825	prince
-4.056127	princess
-4.153037	principal
-4.232218	principle
-3.909999	print
-4.329128	printer
-4.190825	prior
-4.08609	priority
-4.028098	prison
-4.190825	privacy
-3.713704	private
-4.190825	privilege
-4.153037	prize
-3.76982	pro
-4.277976	probability
-3.351405	probably
-3.38096	problem
-3.976946	procedure
-3.675916	proceed
-3.68815	process
-4.277976	procrastinate
-4.08609	procrastinating
-4.028098	produce
-4.277976	producer
-3.817245	product
-4.028098	production
-4.153037	productive
-4.056127	prof
-4.277976	profession
-3.817245	professional
-4.00177	professor
-4.08609	profile
-4.08609	profit
-3.76982	program
-4.00177	progress
-3.664016	project
-4.118275	promise
-4.028098	promote
-4.277976	promoter
-3.889796	promotion
-4.153037	prompt
-4.028098	pronounce
-4.329128	pronunciation
-4.08609	proof
-4.190825	proofread
-3.834278	proper
-3.78506	properly
-3.889796	property
-4.00177	proposal
-4.232218	propose
-4.329128	props
-4.118275	prospectus
-4.08609	protect
-4.153037	protection
-4.056127	protein
-4.329128	protocol
-4.08609	prove
-3.740857	provide
-3.976946	provided
-4.277976	provider
-4.329128	providing
-3.87049	provoking
-4.056127	psychology
-4.028098	puan
-3.909999	pub
-3.675916	public
-4.232218	publish
-4.190825	pudding
-4.329128	puddle
-4.190825	puff
-4.329128	puke
-3.800854	pull
-4.277976	pulse
-4.329128	puma
-4.08609	pump
-4.277976	pumpkin
-3.033561	pun
-4.118275	punch
-4.118275	puppy
-4.028098	purchase
-3.976946	pure
-4.232218	purely
-3.727068	purple
-3.800854	purpose
-4.08609	purposely
-4.118275	pursue
-3.652435	push
-4.00177	pushing
-3.190825	put
-3.524648	q
-4.329128	qualification
-4.329128	qualified
-4.118275	qualify
-3.817245	quality
-4.277976	quantity
-4.056127	quarantine
-4.190825	quarrel
-3.852007	quarter
-4.277976	quay
-3.976946	queen
-4.277976	query
-4.277976	quest
-3.175313	question
-3.630158	queue
-3.852007	quick
-3.889796	quickly
-3.817245	quiet
-3.87049	quit
-3.101885	quite
-4.028098	quiz
-4.028098	quote
-3.426038	r
-4.277976	ra
-3.931188	rabbit
-3.931188	race
-4.232218	racial
-4.232218	racing
-4.232218	racist
-4.277976	rack
-4.118275	racket
-3.817245	radio
-4.232218	raid
-3.834278	rain
-4.190825	rainbow
-4.277976	rainy
-3.976946	raise
-4.190825	raising
-4.190825	raja
-3.909999	rakan
-4.329128	ram
-4.329128	rambutan
-4.00177	ran
-3.817245	random
-4.153037	randomly
-3.931188	range
-4.08609	rank
-3.817245	rap
-4.329128	rapid
-3.953465	rare
-4.08609	rarely
-3.183	rasa
-4.153037	rata
-3.550977	rate
-4.232218	rated
-3.579006	rather
-4.118275	rating
-4.232218	ratio
-3.976946	raw
-4.118275	ray
-3.59875	raya
-3.87049	re
-3.675916	reach
-4.232218	reaching
-4.00177	react
-4.08609	reaction
-3.412674	read
-3.68815	reading
-3.68815	ready
-3.524648	real
-4.153037	realistic
-4.028098	reality
-3.78506	realize
-2.962705	really
-3.56946	reason
-4.118275	reasonable
-4.277976	rebate
-4.056127	rebel
-4.232218	rebellious
-3.976946	rebus
-3.976946	recall
-4.056127	receipt
-3.619434	receive
-3.619434	received
-3.852007	recent
-3.550977	recently
-4.232218	reception
-3.852007	recess
-4.277976	recheck
-3.976946	recipe
-4.277976	recognition
-4.232218	recognize
-3.834278	recommend
-4.277976	recommendation
-4.277976	reconfirm
-3.713704	record
-3.834278	recording
-4.08609	recover
-4.277976	recruit
-4.08609	rectangle
-4.190825	rectangular
-4.190825	recycle
-3.351405	red
-4.329128	reddish
-4.232218	redeem
-4.277976	redemption
-4.232218	redo
-4.056127	reduce
-3.931188	refer
-3.727068	reference
-4.190825	reflect
-4.277976	reflection
-4.08609	refresh
-4.00177	refund
-4.118275	refuse
-3.641154	regarding
-4.153037	regardless
-4.232218	region
-3.87049	register
-3.976946	registered
-4.056127	registration
-3.909999	regret
-4.00177	regular
-4.232218	regularly
-4.329128	reimburse
-4.118275	reimbursement
-3.931188	reject
-4.277976	rejection
-4.00177	relate
-3.755097	related
-4.277976	relation
-3.68815	relationship
-4.08609	relative
-4.190825	relatively
-3.664016	relax
-4.232218	relaxed
-3.909999	release
-3.909999	relevant
-4.329128	reliable
-4.190825	relief
-4.232218	relieve
-3.976946	religion
-4.056127	religious
-4.08609	relive
-4.190825	rely
-4.190825	remain
-3.29772	remember
-4.028098	remind
-4.329128	reminder
-3.931188	remit
-3.931188	remittance
-4.232218	remix
-4.190825	remote
-3.953465	remove
-3.953465	renew
-4.232218	renewal
-4.232218	renovation
-3.834278	rent
-4.00177	rental
-4.118275	repair
-3.630158	repeat
-4.118275	replace
-4.153037	replacement
-3.740857	reply
-3.68815	report
-4.277976	reporter
-4.232218	represent
-4.153037	republic
-4.277976	reputation
-3.834278	request
-3.931188	require
-4.00177	requirement
-4.277976	rescue
-3.755097	research
-4.153037	reserve
-4.118275	reservoir
-4.08609	reset
-4.028098	resident
-4.08609	resign
-3.976946	resort
-4.118275	resource
-3.889796	respect
-3.976946	respond
-4.028098	response
-4.08609	responsibility
-4.153037	responsible
-4.329128	responsive
-3.588766	rest
-3.700739	restaurant
-4.232218	resting
-4.329128	restriction
-3.817245	result
-4.08609	resume
-4.153037	retail
-4.277976	retain
-4.232218	retarded
-4.190825	retell
-4.08609	retire
-4.232218	retired
-4.277976	retirement
-4.232218	retrieve
-4.277976	retrospect
-3.755097	return
-4.277976	revenue
-4.153037	reverse
-3.931188	review
-4.190825	revise
-4.232218	revision
-4.190825	reward
-4.277976	rhythm
-4.277976	rib
-4.153037	ribbon
-3.491856	rice
-3.700739	rich
-4.232218	rid
-3.76982	ride
-4.190825	rider
-3.909999	ridiculous
-4.08609	riding
-2.772826	right
-3.909999	ring
-4.329128	ringing
-4.056127	rise
-3.608969	risk
-4.277976	risky
-3.852007	river
-3.446888	road
-4.232218	roadside
-4.118275	roast
-4.329128	rob
-4.329128	robin
-3.953465	robot
-3.68815	rock
-4.190825	rod
-4.277976	roger
-3.78506	role
-3.817245	roll
-3.931188	roller
-4.190825	rolling
-4.028098	romance
-3.953465	romantic
-3.834278	roof
-3.446888	room
-4.118275	roomie
-4.153037	roommate
-4.08609	root
-4.232218	rope
-3.953465	rose
-4.153037	rough
-3.76982	roughly
-3.727068	round
-4.056127	route
-4.08609	routine
-4.00177	row
-4.153037	royal
-4.232218	rub
-4.153037	rubber
-3.817245	rubbish
-4.153037	ruby
-3.953465	rude
-4.329128	ruin
-4.028098	rule
-4.232218	ruler
-3.507942	run
-4.190825	runner
-3.68815	running
-4.08609	rupa
-4.277976	rural
-3.852007	rush
-3.800854	rushing
-4.08609	russia
-4.277976	rusty
-3.131848	s
-3.953465	sa
-4.00177	sack
-4.118275	sacrifice
-3.507942	sad
-4.277976	sadly
-4.232218	sadness
-3.976946	safari
-3.800854	safe
-3.953465	safety
-4.329128	saga
-3.273177	said
-4.329128	sailing
-4.190825	saint
-4.056127	sake
-3.909999	salad
-3.76982	salary
-3.800854	sale
-4.028098	salmon
-4.028098	salt
-4.056127	salted
-4.118275	salty
-4.08609	sam
-4.329128	saman
-3.740857	sambal
-3.149433	same
-4.056127	sample
-4.118275	san
-3.817245	sand
-4.329128	sandal
-4.028098	sandwich
-4.190825	sandy
-4.190825	sang
-4.056127	sapa
-4.277976	sarcastic
-4.329128	sari
-3.931188	sat
-4.08609	sate
-4.232218	satisfaction
-4.153037	satisfied
-3.78506	sauce
-4.153037	sausage
-3.588766	save
-4.190825	saved
-3.931188	saving
-3.419305	saw
-4.232218	sawing
-2.935553	say
-2.855641	saya
-3.419305	saying
-4.153037	scale
-4.153037	scam
-4.028098	scan
-4.277976	scar
-4.028098	scare
-3.675916	scary
-4.028098	scenario
-3.909999	scene
-4.056127	scenery
-3.817245	schedule
-3.909999	scheme
-4.329128	scholar
-4.08609	scholarship
-3.17152	school
-4.190825	schooling
-3.630158	science
-4.232218	scientist
-4.153037	scissors
-3.889796	scold
-4.190825	scolding
-4.277976	scoop
-4.277976	scooter
-4.118275	scope
-3.87049	score
-4.08609	scratch
-4.118275	scream
-4.190825	screaming
-3.834278	screen
-4.056127	screw
-4.277976	screwed
-4.190825	script
-4.08609	scroll
-4.277976	scrub
-3.740857	se
-3.700739	sea
-4.153037	seal
-3.740857	search
-4.190825	searching
-3.76982	season
-3.713704	seat
-4.329128	seated
-4.277976	seater
-4.153037	seaweed
-3.727068	sec
-3.351405	second
-3.499825	secondary
-4.190825	secondly
-3.931188	secret
-3.87049	section
-4.118275	sector
-4.232218	secure
-3.755097	security
-2.962705	see
-4.118275	seed
-3.834278	seeing
-4.028098	seek
-3.889796	seem
-3.619434	seen
-4.153037	seesaw
-4.190825	segment
-4.00177	seldom
-3.976946	select
-4.08609	selected
-4.277976	selection
-3.652435	self
-4.08609	selfish
-3.516215	sell
-4.232218	seller
-3.78506	selling
-3.78506	semester
-4.056127	semi
-4.00177	seminar
-4.056127	sen
-3.38096	send
-3.976946	sending
-3.800854	senior
-3.516215	sense
-4.329128	senseless
-3.953465	sensitive
-4.190825	sensor
-3.727068	sent
-3.755097	sentence
-4.028098	sentimental
-3.953465	separate
-4.232218	separately
-4.118275	serai
-4.118275	sergeant
-3.909999	series
-3.59875	serious
-3.740857	seriously
-4.232218	serta
-4.232218	servant
-3.834278	serve
-4.08609	server
-3.439826	service
-4.118275	serving
-3.852007	session
-4.277976	sessions
-3.56946	set
-4.00177	setting
-3.78506	settle
-4.232218	settled
-4.153037	settlement
-3.17914	seven
-3.755097	seventeen
-4.118275	seventh
-3.588766	seventy
-4.232218	several
-4.118275	severe
-4.028098	sex
-4.190825	sexual
-4.153037	sexy
-4.190825	sh
-4.329128	shabby
-3.800854	shack
-4.056127	shade
-4.190825	shadow
-4.153037	shag
-4.028098	shah
-3.953465	shake
-4.190825	shaking
-3.727068	shall
-4.277976	shame
-4.232218	shampoo
-4.00177	shanghai
-3.800854	shape
-3.542022	share
-3.852007	shark
-4.08609	sharp
-4.232218	shave
-4.190825	shaw
-2.920464	she
-4.190825	shed
-3.76982	sheep
-3.931188	sheet
-4.232218	shelf
-3.953465	shell
-4.190825	shellfish
-4.028098	shelter
-4.028098	shi
-4.277976	shield
-3.834278	shift
-3.800854	shine
-4.277976	shining
-3.909999	ship
-4.232218	shipping
-3.59875	shirt
-4.190825	shivering
-3.889796	shock
-4.277976	shocking
-3.700739	shoe
-3.76982	shoot
-4.028098	shooting
-3.351405	shop
-3.374886	shopping
-3.931188	shore
-3.524648	short
-4.153037	shorter
-4.190825	shortly
-4.277976	shortness
-3.852007	shorts
-3.931188	shot
-3.153037	should
-4.08609	shoulder
-4.028098	shout
-4.028098	shouting
-4.118275	shovel
-3.38096	show
-3.931188	shower
-3.953465	showing
-4.277976	shown
-4.153037	shrunk
-4.056127	shuffle
-3.909999	shut
-4.153037	shuttle
-4.028098	shy
-3.852007	si
-4.153037	sial
-4.056127	sibling
-3.755097	sick
-4.190825	sickness
-3.282828	side
-4.08609	sides
-4.028098	sideways
-4.153037	sigh
-4.118275	sight
-3.419305	sign
-4.08609	signal
-4.118275	signature
-3.817245	signboard
-4.190825	significance
-3.976946	significant
-4.190825	silence
-4.118275	silent
-3.700739	silly
-4.028098	silver
-3.755097	similar
-4.08609	similarity
-3.641154	simple
-4.08609	simply
-4.232218	sin
-3.454067	since
-3.524648	sing
-4.00177	singer
-3.889796	singing
-3.579006	single
-4.232218	sink
-3.542022	sir
-4.056127	sis
-3.579006	sister
-3.56946	sit
-3.931188	site
-3.619434	sitting
-3.664016	situation
-3.121629	six
-3.652435	sixteen
-4.028098	sixth
-3.542022	sixty
-3.664016	size
-4.232218	skate
-4.190825	skating
-4.277976	sketch
-4.153037	sketchbook
-4.277976	ski
-3.78506	skill
-4.277976	skim
-3.713704	skin
-4.118275	skinny
-3.713704	skip
-3.909999	skirt
-3.834278	sky
-3.976946	slack
-4.329128	slam
-4.232218	slang
-4.153037	slap
-3.909999	slash
-4.329128	slave
-3.533248	sleep
-3.78506	sleeping
-4.056127	sleepy
-4.00177	sleeve
-4.329128	slender
-4.153037	slept
-4.153037	slice
-3.976946	slide
-4.153037	slight
-3.800854	slightly
-4.118275	slim
-4.056127	slip
-4.08609	slipper
-4.028098	slogan
-4.190825	slope
-4.118275	slot
-3.713704	slow
-3.76982	slowly
-3.368895	small
-3.800854	smaller
-3.700739	smart
-4.277976	smash
-3.852007	smell
-4.08609	smelly
-3.953465	smile
-4.118275	smiling
-4.190825	smith
-3.76982	smoke
-4.329128	smoker
-4.00177	smoking
-4.056127	smooth
-4.00177	snack
-4.028098	snake
-4.153037	snap
-4.08609	sneak
-4.232218	sniffing
-4.00177	snow
-2.574207	so
-4.190825	soap
-3.68815	soccer
-3.533248	social
-4.329128	socialism
-3.740857	society
-4.277976	sociology
-4.028098	sock
-4.08609	sofa
-3.755097	soft
-4.277976	softball
-4.329128	solar
-4.00177	sold
-4.277976	soldier
-4.277976	sole
-4.232218	solemnization
-4.153037	solid
-3.931188	solo
-4.028098	solution
-3.976946	solve
-3.067865	some
-3.652435	somebody
-4.277976	someday
-3.834278	somehow
-3.362987	someone
-4.153037	somerset
-3.059032	something
-3.619434	sometime
-3.368895	sometimes
-4.153037	somewhat
-3.664016	somewhere
-3.619434	son
-3.588766	song
-3.641154	soon
-4.232218	sore
-3.211029	sorry
-3.664016	sort
-3.953465	soul
-3.630158	sound
-3.68815	soup
-4.08609	sour
-4.028098	source
-3.834278	south
-4.232218	souvenir
-4.277976	soy
-4.153037	soya
-4.028098	spa
-3.700739	space
-4.118275	spade
-4.028098	spaghetti
-4.277976	span
-4.118275	spare
-4.277976	spark
-3.454067	speak
