
\data\
ngram 1=22329
ngram 2=0
ngram 3=0

\1-grams:
-3.545376	</s>
-3.545376	<noise>
-99	<s>
-3.545376	<v-noise>
-3.545376	__Abraham_Solomon
-3.545376	__Admiralty_Greens
-3.545376	__Admiralty_Road
-3.545376	__Admiralty_West
-3.545376	__Ah_Hood_Road
-3.545376	__Aida_Street
-3.545376	__Airline_Road
-3.545376	__Airport_Cargo_Road
-3.545376	__Al_Islamiah
-3.545376	__Al_Islamic
-3.545376	__Alex_Josey
-3.545376	__Alexander_Laurie_Johnston
-3.545376	__Alexandra_Lane
-3.545376	__Alexandra_Road
-3.545376	__Aliman_Hassan
-3.545376	__Aljunied_Avenue
-3.545376	__Aljunied_Crescent
-3.545376	__Aljunied_Hussein
-3.545376	__Aljunied_Neighbourhood
-3.545376	__Aljunied_Road
-3.545376	__Alnwick_Road
-3.545376	__Amasalam_Chetty_Road
-3.545376	__Anak_Bukit
-3.545376	__Anchorvale_Drive
-3.545376	__Anchorvale_Street
-3.545376	__Ang_Mo_Kio
-3.545376	__Ang_Mo_Kio_Street
-3.545376	__Ang_Peng_Tiam
-3.545376	__Angsana_Avenue
-3.545376	__Angsana_Drive
-3.545376	__Ann_Siang_Hill
-3.545376	__Anthony_Road
-3.545376	__Arab_Street
-3.545376	__Arrival_Crescent
-3.545376	__Arts_Link
-3.545376	__Arumugam_Road
-3.545376	__Asia_Pacific
-3.545376	__Asia_Square
-3.545376	__Asimont_Lane
-3.545376	__Attap_Valley_Lane
-3.545376	__Au_Yun_Pak
-3.545376	__Auckland_Road_West
-3.545376	__Australian_International
-3.545376	__Ava_Road
-3.545376	__Avon_Road
-3.545376	__Baker_Street
-3.545376	__Bali_Lane
-3.545376	__Balmoral_Crescent
-3.545376	__Bao_Gong
-3.545376	__Bartley_Road
-3.545376	__Beach_Road
-3.545376	__Beatty_Road
-3.545376	__Bedok_Anchorvale_Crescent
-3.545376	__Bedok_Green
-3.545376	__Bedok_Lighthouse
-3.545376	__Bedok_North
-3.545376	__Bedok_Point
-3.545376	__Bedok_Points
-3.545376	__Bedok_Reservoir
-3.545376	__Bedok_Ria_Crescent
-3.545376	__Bedok_South
-3.545376	__Bedok_View
-3.545376	__Beeh_Low_See
-3.545376	__Begonia_Walk
-3.545376	__Belilios_Lane
-3.545376	__Belmont_Road
-3.545376	__Bernice_Ong
-3.545376	__Bethlehem_Bible_Presbyterian
-3.545376	__Binchang_Rise
-3.545376	__Bishan_Point
-3.545376	__Bishan_Street
-3.545376	__Blackmore_Drive
-3.545376	__Bliss_Hotel
-3.545376	__Blue_Cross
-3.545376	__Blue_Stars
-3.545376	__Bo_Seng_Avenue
-3.545376	__Boarding_House
-3.545376	__Boat_Quay
-3.545376	__Bodmin_Drive
-3.545376	__Bonham_Street
-3.545376	__Boon_Keng
-3.545376	__Boon_Lay
-3.545376	__Boon_Lay_Place
-3.545376	__Boon_Tat_Street
-3.545376	__Boon_Teck_Road
-3.545376	__Borthwick_Drive
-3.545376	__Boundary_Road
-3.545376	__Braddell_Road
-3.545376	__Brani_Drive
-3.545376	__Brani_Marine
-3.545376	__Brani_Way
-3.545376	__Bridport_Avenue
-3.545376	__Bright_Hill
-3.545376	__Bristol_Road
-3.545376	__Buangkok_View
-3.545376	__Bukit_Batok
-3.545376	__Bukit_Batok_Avenue
-3.545376	__Bukit_Batok_Avenue_West
-3.545376	__Bukit_Batok_Central
-3.545376	__Bukit_Batok_Central_Link
-3.545376	__Bukit_Batok_Crescent
-3.545376	__Bukit_Batok_East
-3.545376	__Bukit_Batok_East_Avenue
-3.545376	__Bukit_Batok_Road
-3.545376	__Bukit_Batok_Street
-3.545376	__Bukit_Batok_West
-3.545376	__Bukit_Batok_West_Avenue
-3.545376	__Bukit_Chandu
-3.545376	__Bukit_Ho_Swee_Link
-3.545376	__Bukit_Manis_Road
-3.545376	__Bukit_Merah
-3.545376	__Bukit_Merah_View
-3.545376	__Bukit_Mugliston
-3.545376	__Bukit_Sedap_Road
-3.545376	__Bukit_Teresa_Close
-3.545376	__Bukit_Timah
-3.545376	__Bukit_Timah_Avenue
-3.545376	__Bukit_Timah_Link
-3.545376	__Bukit_Timah_Plaza
-3.545376	__Bukit_Timah_Road
-3.545376	__Bukit_Tinggi_Road
-3.545376	__Burmah_Road
-3.545376	__Burmese_Buddhist
-3.545376	__Bury_Road
-3.545376	__Buyong_Road
-3.545376	__Canberra_View
-3.545376	__Canning_Lane
-3.545376	__Canning_Rise
-3.545376	__Cantonment_Complex
-3.545376	__Carisbrooke_Grove
-3.545376	__Carl_Alexander
-3.545376	__Carlton_Avenue
-3.545376	__Carnation_Drive
-3.545376	__Cashew_Crescent
-3.545376	__Cashew_Road
-3.545376	__Cassia_Crescent
-3.545376	__Ceylon_Road
-3.545376	__Chai_Chee
-3.545376	__Chai_Chee_Drive
-3.545376	__Chai_Chee_Street
-3.545376	__Chan_Chun_Sing
-3.545376	__Chan_Sek_Keong
-3.545376	__Chancery_Lane
-3.545376	__Chang_Ziang
-3.545376	__Changi_Business_Park_Vista
-3.545376	__Changi_Coast
-3.545376	__Changi_East_Drive
-3.545376	__Changi_East_Road
-3.545376	__Changi_South_Lane
-3.545376	__Changi_Village_Road
-3.545376	__Changkat_Changi
-3.545376	__Chatsworth_Road
-3.545376	__Cheang_Hong_Lim_Place
-3.545376	__Cheang_Hong_Lim_Street
-3.545376	__Chencharu_Lane
-3.545376	__Chencharu_Link
-3.545376	__Cheo_Kim_Ban
-3.545376	__Chestnut_Crescent
-3.545376	__Chew_Kheng_Chuan
-3.545376	__Chin_Bee_Road
-3.545376	__Chin_Cheng_Avenue
-3.545376	__Chin_Chew_Street
-3.545376	__Chin_Swee
-3.545376	__China_Street
-3.545376	__Chinatown_Complex
-3.545376	__Chinatown_Hotel
-3.545376	__Chinatown_Point
-3.545376	__Chinese_Garden
-3.545376	__Chinese_Garden_Road
-3.545376	__Choa_Chu_Kang
-3.545376	__Choa_Chu_Kang_Loop
-3.545376	__Choa_Chu_Kang_West
-3.545376	__Chong_Pang
-3.545376	__Chong_Pang_Combined
-3.545376	__Chong_You_Fook_Charles
-3.545376	__Chong_Zheng
-3.545376	__Choon_Guan_Street
-3.545376	__Choor_Singh_Sidhu
-3.545376	__Christalite_Methodist
-3.545376	__Christopher_Henry_Rothwell
-3.545376	__Chu_Siang_Tong
-3.545376	__Chuan_Hoe_Avenue
-3.545376	__Chuan_Walk
-3.545376	__Chulia_Street
-3.545376	__Chwee_Chian_View
-3.545376	__Circular_Road
-3.545376	__Claymore_Road
-3.545376	__Cleantech_View
-3.545376	__Clementi_Street
-3.545376	__Clive_Street
-3.545376	__Clunny_Hill
-3.545376	__Colchester_Grove
-3.545376	__College_Of_Medicine
-3.545376	__Collyer_Quay
-3.545376	__Compassvale_Drive
-3.545376	__Compassvale_Road
-3.545376	__Coney_Island
-3.545376	__Connexis_South
-3.545376	__Constance_Singam
-3.545376	__Cook_Street
-3.545376	__Copeland_Avenue
-3.545376	__Copthorne_King'S
-3.545376	__Corfe_Place
-3.545376	__Corporation_Road
-3.545376	__Countryside_Grove
-3.545376	__Countryside_View
-3.545376	__Court_Road
-3.545376	__Covenant_Community_Methodist
-3.545376	__Craig_Road
-3.545376	__Cranborne_Road
-3.545376	__Creek_Mangrove
-3.545376	__Croucher_Road
-3.545376	__Crowhurst_Drive
-3.545376	__Cuff_Road
-3.545376	__Cuscaden_Walk
-3.545376	__Da_Bo_Gong
-3.545376	__Daffodil_Drive
-3.545376	__Dahan_Road
-3.545376	__Dairy_Farm
-3.545376	__Dairy_Farm_Crescent
-3.545376	__Dalkeith_Road
-3.545376	__Darrell_Ang
-3.545376	__Dawson_North_Spring
-3.545376	__Dedap_Road
-3.545376	__Delta_Avenue
-3.545376	__Depot_Close
-3.545376	__Depot_Walk
-3.545376	__Devan_Nair
-3.545376	__Dimensions_International
-3.545376	__Dinding_Place
-3.545376	__Dock_Road_East
-3.545376	__Dock_Road_West
-3.545376	__Douglas_Hamilton
-3.545376	__Dover_Drive
-3.545376	__Drake_Avenue
-3.545376	__Drake_Lane
-3.545376	__Dunlop_Street
-3.545376	__Duxton_Road
-3.545376	__East_Avenue
-3.545376	__East_Coast_Avenue
-3.545376	__East_Spring
-3.545376	__Eastern_Health_Alliance
-3.545376	__Eau_Thermale_Avene
-3.545376	__Edgware_Road
-3.545376	__Edmund_Blundell
-3.545376	__Edmund_Chen
-3.545376	__Edwin_Browns
-3.545376	__Ee_Teow_Leng_Road
-3.545376	__Elias_Green
-3.545376	__Elias_Park_Avenue
-3.545376	__Ellice_Handy
-3.545376	__Empress_Road
-3.545376	__Eng_Hoon_Street
-3.545376	__Eng_Kong_Road
-3.545376	__Eng_Neo_Avenue
-3.545376	__Ernani_Street
-3.545376	__Esther_Tan
-3.545376	__Eu_Yee_Ming_Richard
-3.545376	__Eunos_Avenue
-3.545376	__Evolution_Garden_Walk
-3.545376	__Faber_Walk
-3.545376	__Fairway_Club
-3.545376	__Fairy_Point_Hill
-3.545376	__Faith_Methodist
-3.545376	__Faith_Sanctuary_Garden_Avenue
-3.545376	__Famous_Amos
-3.545376	__Fan_Yoong_Road
-3.545376	__Farrer_Garden
-3.545376	__Farrer_Park
-3.545376	__Fernvale_Lane
-3.545376	__Fire_Station
-3.545376	__Flint_Street
-3.545376	__Florence_Road
-3.545376	__Flower_Road
-3.545376	__Fo_Shan_Ting
-3.545376	__Foch_Road
-3.545376	__Folkestone_Road
-3.545376	__Fortune_Students
-3.545376	__Fourth_Street
-3.545376	__Francis_Thomas_Drive
-3.545376	__Fuk_Tak_Chi
-3.545376	__Fullerton_Bay
-3.545376	__Fulton_Avenue
-3.545376	__Fusionopolis_Walk
-3.545376	__Gallop_Park
-3.545376	__Gallop_Road
-3.545376	__Gambir_Walk
-3.545376	__Gan_Eng_Seng
-3.545376	__Gateway_Avenue
-3.545376	__Gateway_Inn
-3.545376	__George_Nigel
-3.545376	__Gerald_Crescent
-3.545376	__Geylang_Bahru
-3.545376	__Geylang_Bahru_Lane
-3.545376	__Geylang_Bahru_Terrace
-3.545376	__Geylang_East_Avenue
-3.545376	__Geylang_East_Central
-3.545376	__Geylang_Lorong
-3.545376	__Geylang_Lorong_Labang
-3.545376	__Geylang_Methodist
-3.545376	__Geylang_Methodist_School
-3.545376	__Geylang_Road
-3.545376	__Geylang_Serai
-3.545376	__Geylang_Square
-3.545376	__Geylang_United
-3.545376	__Giant_Spring
-3.545376	__Gibraltar_Crescent
-3.545376	__Gibson_Hill
-3.545376	__Gilstead_Road
-3.545376	__Giok_Hong_Tian
-3.545376	__Goldhill_Place
-3.545376	__Gopeng_Street
-3.545376	__Gordon_Arthur_Ransome
-3.545376	__Grace_Walk
-3.545376	__Great_World
-3.545376	__Green_Kiwi_Backpacker
-3.545376	__Green_Taipei
-3.545376	__Green_Zeng
-3.545376	__Greendale_Rise
-3.545376	__Greenfield_Drive
-3.545376	__Greenridge_Crescent
-3.545376	__Greenwich_Drive
-3.545376	__Grove_Crescent
-3.545376	__Guillemard_Lane
-3.545376	__Guillemard_Road
-3.545376	__Gul_Lane
-3.545376	__Gul_Street
-3.545376	__Guok_Avenue
-3.545376	__Gurkha_Contingent
-3.545376	__Hai_Sing_Crescent
-3.545376	__Haigsville_Drive
-3.545376	__Haji_Lane
-3.545376	__Halifax_Road
-3.545376	__Hamilton_Place
-3.545376	__Hampstead_Garden
-3.545376	__Hang_Chang_Chieh
-3.545376	__Happy_Hotel
-3.545376	__Harlyn_Road
-3.545376	__Harrison_Road
-3.545376	__Havelock_Road
-3.545376	__Hiang_Foo_Siang_Temple
-3.545376	__Hillview_Avenue
-3.545376	__Hilton_International
-3.545376	__Hindhede_Road
-3.545376	__Hindoo_Road
-3.545376	__Ho_Ching_Road
-3.545376	__Ho_Lee_Ling
-3.545376	__Ho_Ling
-3.545376	__Hock_Chuan
-3.545376	__Holland_Grove_Lane
-3.545376	__Holland_Hill
-3.545376	__Holland_Village
-3.545376	__Home_Team_Academy
-3.545376	__Hong_Kah
-3.545376	__Hong_San
-3.545376	__Hospital_Avenue
-3.545376	__Hougang_Avenue
-3.545376	__Hougang_One
-3.545376	__How_Sun_Drive
-3.545376	__How_Sun_Road
-3.545376	__How_Sun_Walk
-3.545376	__Hsu_Tse_Kwang
-3.545376	__Hubert_Hill
-3.545376	__Hume_Avenue
-3.545376	__Hussein_Aljunied
-3.545376	__Hwee_Kuan
-3.545376	__Hythe_Road
-3.545376	__Imbiah_Walk
-3.545376	__Inderjit_Singh
-3.545376	__Inggu_Road
-3.545376	__Institute_Of_Engineer_Singapore
-3.545376	__International_Student_Support
-3.545376	__Ipoh_Lane
-3.545376	__Iqbal_Avenue
-3.545376	__Irving_Place
-3.545376	__Jalan_Anak_Bukit
-3.545376	__Jalan_Azam'S
-3.545376	__Jalan_Baiduri
-3.545376	__Jalan_Bangsawan
-3.545376	__Jalan_Basong
-3.545376	__Jalan_Batu_Ubin
-3.545376	__Jalan_Bena
-3.545376	__Jalan_Berjaya
-3.545376	__Jalan_Berseri
-3.545376	__Jalan_Binja
-3.545376	__Jalan_Binjai
-3.545376	__Jalan_Boon_Lay
-3.545376	__Jalan_Bumbong
-3.545376	__Jalan_Bunga_Rampai
-3.545376	__Jalan_Bungar
-3.545376	__Jalan_Chengkek
-3.545376	__Jalan_Dondang_Sayang
-3.545376	__Jalan_Dua
-3.545376	__Jalan_Dusun
-3.545376	__Jalan_Enam
-3.545376	__Jalan_Gemala
-3.545376	__Jalan_Girang
-3.545376	__Jalan_Greja
-3.545376	__Jalan_Hajijah
-3.545376	__Jalan_Hari_Raya
-3.545376	__Jalan_Jeruju
-3.545376	__Jalan_Jong
-3.545376	__Jalan_Kampong_Chantek
-3.545376	__Jalan_Kampong_Siglap
-3.545376	__Jalan_Kayu_Manis
-3.545376	__Jalan_Kechil
-3.545376	__Jalan_Keli
-3.545376	__Jalan_Kemaman
-3.545376	__Jalan_Keruing
-3.545376	__Jalan_Kesoma
-3.545376	__Jalan_Khairuddin
-3.545376	__Jalan_Klapa
-3.545376	__Jalan_Kledek
-3.545376	__Jalan_Klinik
-3.545376	__Jalan_Kwok_Min
-3.545376	__Jalan_Lana
-3.545376	__Jalan_Langgar_Bedok
-3.545376	__Jalan_Lapang
-3.545376	__Jalan_Layang_Layang
-3.545376	__Jalan_Lembah_Bedok
-3.545376	__Jalan_Lempeng
-3.545376	__Jalan_Lengkok
-3.545376	__Jalan_Lengkok_Sembawang
-3.545376	__Jalan_Limau_Bali
-3.545376	__Jalan_Limau_Nipis
-3.545376	__Jalan_Limau_Purut
-3.545376	__Jalan_Limbok
-3.545376	__Jalan_Mamam
-3.545376	__Jalan_Mangkok
-3.545376	__Jalan_Manis
-3.545376	__Jalan_Mastuli
-3.545376	__Jalan_Membina
-3.545376	__Jalan_Mempurong
-3.545376	__Jalan_Mengkudu
-3.545376	__Jalan_Mesra
-3.545376	__Jalan_Minggu
-3.545376	__Jalan_Minyak
-3.545376	__Jalan_Noordin
-3.545376	__Jalan_Novena
-3.545376	__Jalan_Nuri
-3.545376	__Jalan_Paras
-3.545376	__Jalan_Pari_Kikis
-3.545376	__Jalan_Pelangi
-3.545376	__Jalan_Pelatina
-3.545376	__Jalan_Pelatok
-3.545376	__Jalan_Pelepah
-3.545376	__Jalan_Pelikat
-3.545376	__Jalan_Peradun
-3.545376	__Jalan_Pinang
-3.545376	__Jalan_Puteri
-3.545376	__Jalan_Rajah
-3.545376	__Jalan_Rebana
-3.545376	__Jalan_Remis
-3.545376	__Jalan_Rendang
-3.545376	__Jalan_Rukam
-3.545376	__Jalan_Sabit
-3.545376	__Jalan_Seh_Chuan
-3.545376	__Jalan_Selamat
-3.545376	__Jalan_Selimang
-3.545376	__Jalan_Senang
-3.545376	__Jalan_Sendudok
-3.545376	__Jalan_Senyum
-3.545376	__Jalan_Setia
-3.545376	__Jalan_Shaer
-3.545376	__Jalan_Siap
-3.545376	__Jalan_Simpang_Bedok
-3.545376	__Jalan_Sukachita
-3.545376	__Jalan_Sungei_Poyan
-3.545376	__Jalan_Tan_Tock_Seng
-3.545376	__Jalan_Tanah
-3.545376	__Jalan_Tanah_Rata
-3.545376	__Jalan_Tanjong
-3.545376	__Jalan_Tari_Lilin
-3.545376	__Jalan_Tari_Zapin
-3.545376	__Jalan_Tarum
-3.545376	__Jalan_Tenang
-3.545376	__Jalan_Tenteram
-3.545376	__Jalan_Tepong
-3.545376	__Jalan_Tiga_Ratus
-3.545376	__Jalan_Ulu_Seletar
-3.545376	__Jalan_Ulu_Sembawang
-3.545376	__Jalan_Wajek
-3.545376	__Jalan_Yasin
-3.545376	__Jalan_Zamrud
-3.545376	__Jamaica_Road
-3.545376	__Janet_Lim
-3.545376	__Janil_Puthucheary
-3.545376	__Jervois_Hill
-3.545376	__Ji_Huang_Kok
-3.545376	__Jiak_Chuan_Road
-3.545376	__Joan_Road
-3.545376	__Joanne_Soo
-3.545376	__John_Fearns_Nicolls
-3.545376	__John_Le_Cain
-3.545376	__John_Morrice
-3.545376	__Joo_Avenue
-3.545376	__Joo_Koon_Crescent
-3.545376	__Jula_Juli
-3.545376	__Junction_Nine
-3.545376	__Jupiter_Road
-3.545376	__Jurong_Bird
-3.545376	__Jurong_East_Avenue
-3.545376	__Jurong_Island
-3.545376	__Jurong_Port
-3.545376	__Jurong_West
-3.545376	__Jurong_West_Avenue
-3.545376	__Jurong_West_Central
-3.545376	__Kaki_Bukit
-3.545376	__Kallang_Airport_Drive
-3.545376	__Kampong_Ampat
-3.545376	__Kampong_Arang_Road
-3.545376	__Kampong_Bahru
-3.545376	__Kampong_Bahru_Road
-3.545376	__Kampong_Bugis
-3.545376	__Kampong_Bugis_Crescent
-3.545376	__Kampong_Bukit_Coffee
-3.545376	__Kampong_Chai_Chee
-3.545376	__Kampong_Eunos
-3.545376	__Kampong_Glam
-3.545376	__Kampong_Java
-3.545376	__Kampong_Kapor_Road
-3.545376	__Kampong_Kayu_Road
-3.545376	__Kampong_Kembangan
-3.545376	__Kampong_Sireh
-3.545376	__Kampong_Sungai_Tiga
-3.545376	__Kampong_Ubi
-3.545376	__Kampong_Wak_Hassan
-3.545376	__Kampung_Glam
-3.545376	__Kampung_Melayu
-3.545376	__Katmandu_Road
-3.545376	__Kay_Siang_Road
-3.545376	__Keat_Hong_Link
-3.545376	__Kebun_Baru
-3.545376	__Keck_Seng
-3.545376	__Kee_Seng_Street
-3.545376	__Kee_Sun_Avenue
-3.545376	__Keene_Road
-3.545376	__Keng_Lee_Road
-3.545376	__Kent_Ridge_Crescent
-3.545376	__Kent_Ridge_Drive
-3.545376	__Kent_Road
-3.545376	__Kenya_Crescent
-3.545376	__Keppel_Bay
-3.545376	__Keramat_Road
-3.545376	__Kerong_Walk
-3.545376	__Kew_Avenue
-3.545376	__Kew_Walk
-3.545376	__Khaw_Boon_Wan
-3.545376	__Kian_Teck_Road
-3.545376	__Kiew_Sian_King
-3.545376	__Kim_Chuan_Road
-3.545376	__Kim_Hong
-3.545376	__Kim_Keat
-3.545376	__Kim_Seng
-3.545376	__Kim_Seng_Road
-3.545376	__Kim_Tian_Place
-3.545376	__Kinara_Lane
-3.545376	__Kismis_Road
-3.545376	__Kitchener_Road
-3.545376	__Klang_Road
-3.545376	__Koh_Mui_Hiang
-3.545376	__Koh_Seow_Chuan
-3.545376	__Kouo_Shang_Wei
-3.545376	__Kranji_Commonwealth
-3.545376	__Kranji_Crescent
-3.545376	__Kreta_Ayer
-3.545376	__Kuang_Chee_Tng
-3.545376	__Kwan_Im_Tng
-3.545376	__Kwan_Imm_See
-3.545376	__Kwong_Min_Road
-3.545376	__Kwong_Wai_Siew
-3.545376	__La_Mode
-3.545376	__Lam_Pin_Min
-3.545376	__Lambeth_Walk
-3.545376	__Larkhill_Road
-3.545376	__Lau_Kuo_Kwong_Robert
-3.545376	__Lavender_Street
-3.545376	__Le_Peranakan
-3.545376	__Lee_Boon_Ngan
-3.545376	__Lee_Kong_Chian
-3.545376	__Lee_Kong_Yan
-3.545376	__Lee_Shih_Shiong_Peter
-3.545376	__Lempeng_Drive
-3.545376	__Leng_Chai_Chee
-3.545376	__Lengkok_Angsa
-3.545376	__Lengkok_Lima
-3.545376	__Lengkok_Satu
-3.545376	__Lengkok_Satu_Sago_Street
-3.545376	__Lengkong_Dua
-3.545376	__Lentor_Way
-3.545376	__Leo_Drive
-3.545376	__Lew_Lian_Vale
-3.545376	__Lewis_Road
-3.545376	__Li_Hui_Cheng
-3.545376	__Liane_Road
-3.545376	__Liang_Court
-3.545376	__Liao_Yingru
-3.545376	__Lichi_Avenue
-3.545376	__Lien_Ying_Chow_Drive
-3.545376	__Lilac_Road
-3.545376	__Lilliputt_Indoor_Mini_Golf
-3.545376	__Lily_Avenue
-3.545376	__Lim_Ah_Pin_Road
-3.545376	__Lim_Ah_Woo_Road
-3.545376	__Lim_Chong_Pang
-3.545376	__Lim_Chu_Kang
-3.545376	__Lim_Chu_Kang_Lane
-3.545376	__Lim_Lee
-3.545376	__Lim_Teck_Boo_Road
-3.545376	__Lim_Teck_Kim_Road
-3.545376	__Lim_Tua_Tow_Road
-3.545376	__Limau_Garden
-3.545376	__Lin_Tan
-3.545376	__Little_Road
-3.545376	__Lloyd_Road
-3.545376	__Loh_Lik_Peng
-3.545376	__Lornie_Walk
-3.545376	__Lorong_Abu_Talib
-3.545376	__Lorong_Bachok
-3.545376	__Lorong_Batawi
-3.545376	__Lorong_Buangkok
-3.545376	__Lorong_Gambas
-3.545376	__Lorong_Kembang
-3.545376	__Lorong_Kilat_Pek_Kio
-3.545376	__Lorong_Lew_Lian
-3.545376	__Lorong_Mesu
-3.545376	__Lorong_Pasu
-3.545376	__Lorong_Paya_Lebar
-3.545376	__Lorong_Pendek
-3.545376	__Lorong_Pisang_Asam
-3.545376	__Lorong_Pisang_Batu
-3.545376	__Lorong_Sarina_D'Leedon
-3.545376	__Lorong_Siglap
-3.545376	__Lorong_Sinaran
-3.545376	__Louis_Chen
-3.545376	__Lower_Seletar_Close
-3.545376	__Lower_Seletar_Reservoir
-3.545376	__Loyang_Street
-3.545376	__Lucy_Tan
-3.545376	__Lutheran_Road
-3.545376	__Macalister_Road
-3.545376	__Macpherson_Road
-3.545376	__Macritchie_Reservoir
-3.545376	__Maggie_Teng
-3.545376	__Mah_Bow_Tan
-3.545376	__Management_Development_Institute_Of_Singapore
-3.545376	__Mandai_Tekong
-3.545376	__Mandarin_Gardens
-3.545376	__Manila_Street
-3.545376	__Maple_Avenue
-3.545376	__Margate_Road
-3.545376	__Marina_Bay
-3.545376	__Marina_Bay_Sands
-3.545376	__Marina_One
-3.545376	__Marina_Promenade
-3.545376	__Marina_Way
-3.545376	__Marine_Parade
-3.545376	__Marine_Parade_Road
-3.545376	__Maris_Stella
-3.545376	__Maritime_Square
-3.545376	__Marshall_Lane
-3.545376	__Marsiling_Crescent
-3.545376	__Marsiling_Drive
-3.545376	__Marsiling_Neighbourhood
-3.545376	__Marsiling_Rise
-3.545376	__Marsiling_Road
-3.545376	__Martin_Road
-3.545376	__Masjid_Alkaff
-3.545376	__Mayflower_Way
-3.545376	__Medical_Drive
-3.545376	__Mei_Chin_Road
-3.545376	__Mei_Hwan_Drive
-3.545376	__Meng_Suan_Road
-3.545376	__Meranti_Avenue
-3.545376	__Merlimau_Place
-3.545376	__Meteorological_Services_Singapore
-3.545376	__Methodist_Girls'
-3.545376	__Michelle_Lim
-3.545376	__Middlesex_Road
-3.545376	__Miller_Street
-3.545376	__Miltonia_Link
-3.545376	__Mimosa_Vale
-3.545376	__Monk'S_Hill_Road
-3.545376	__Montreal_Link
-3.545376	__Moonbeam_Drive
-3.545376	__Moonbeam_Walk
-3.545376	__Moral_Welfare
-3.545376	__Moreton_Close
-3.545376	__Morgan_Chua
-3.545376	__Moriah_Bible_Presby
-3.545376	__Mornington_Crescent
-3.545376	__Mount_Faber_Loop
-3.545376	__Mount_Faber_Road
-3.545376	__Movenpick_Heritage
-3.545376	__Muhammadiyah_Welfare
-3.545376	__Mulberry_Avenue
-3.545376	__Muswell_Hill
-3.545376	__My_Saviour'S
-3.545376	__N_Palanivelu
-3.545376	__Nagore_Dargah
-3.545376	__Namly_Rise
-3.545376	__Nan_Chiau
-3.545376	__Nanyang_Avenue
-3.545376	__Nanyang_Girls'
-3.545376	__Nanyang_Poly_Drive
-3.545376	__Nanyang_Valley
-3.545376	__Napier_Road
-3.545376	__Nasi_Goreng
-3.545376	__Natalie_Hennedige
-3.545376	__National_Arts_Council
-3.545376	__National_Equestrian_Centre
-3.545376	__National_Neuroscience_Institute
-3.545376	__National_Neuroscience_Institute_Of_Singapore
-3.545376	__Nativity_Of_The_Blessed_Virgin_Mary_Concord
-3.545376	__Nee_Soon
-3.545376	__Nee_Soon_East
-3.545376	__Neo_Tiew_Lane
-3.545376	__Neo_Tiew_Road
-3.545376	__Nepal_Link
-3.545376	__Newton_Cirus
-3.545376	__Newton_Life
-3.545376	__Nexus_International_School
-3.545376	__Ng_Chee_Meng
-3.545376	__North_Buona_Vista_Drive
-3.545376	__North_Spring
-3.545376	__North_Vista
-3.545376	__North_West
-3.545376	__Northshore_Drive
-3.545376	__Northshore_Link
-3.545376	__Oak_Avenue
-3.545376	__Ocean_Way
-3.545376	__Office_Road
-3.545376	__Ogilvy_Centre
-3.545376	__Old_Birdcage_Walk
-3.545376	__Old_Cathay
-3.545376	__Old_Choa_Chu_Kang_Road
-3.545376	__Old_Hill_Street
-3.545376	__Old_Terminal_Lane
-3.545376	__Old_Upper_Thomson
-3.545376	__Omar_Ali
-3.545376	__Omar_Khayyam_Avenue
-3.545376	__One_Farrer
-3.545376	__One_George_Street
-3.545376	__One_North_Avenue
-3.545376	__One_North_Link
-3.545376	__One_Tree_Hill
-3.545376	__Onitsuka_Tiger
-3.545376	__Onraet_Road
-3.545376	__Orchard_Bel_Air
-3.545376	__Orchard_Point
-3.545376	__Orchard_Spring
-3.545376	__Orchard_Spring_Lane
-3.545376	__Orchard_Turn
-3.545376	__Orchid_Park
-3.545376	__Oriole_Crescent
-3.545376	__Outram_Park
-3.545376	__Oxford_Road
-3.545376	__Palm_Avenue
-3.545376	__Palm_Road
-3.545376	__Pan_Pacific
-3.545376	__Pan_Shou
-3.545376	__Pandan_Avenue
-3.545376	__Pang_Seng_Road
-3.545376	__Park_Avenue
-3.545376	__Parry_Avenue
-3.545376	__Pasir_Panjang_Road
-3.545376	__Pasir_Panjang_View
-3.545376	__Pasir_Ris
-3.545376	__Pasir_Ris_Road
-3.545376	__Pasir_Ris_View
-3.545376	__Pasir_Ris_Way
-3.545376	__Paterson_Road
-3.545376	__Paya_Lebar
-3.545376	__Paya_Lebar_Place
-3.545376	__Paya_Ubi
-3.545376	__Peace_Centre
-3.545376	__Peakville_Avenue
-3.545376	__Peakville_Grove
-3.545376	__Pebble_Lane
-3.545376	__Peck_San_Theng
-3.545376	__Peck_Seah_Street
-3.545376	__Peirce_Hill
-3.545376	__Pemimpin_Drive
-3.545376	__Penang_Road
-3.545376	__Peng_Kang_Avenue
-3.545376	__Peng_Nguan
-3.545376	__Peninsula_Plaza
-3.545376	__Penjuru_Road
-3.545376	__Perahu_Road
-3.545376	__Percival_Road
-3.545376	__Pereira_Road
-3.545376	__Perumal_Govindaswamy
-3.545376	__Perumal_Road
-3.545376	__Ping_Yi
-3.545376	__Platina_Road
-3.545376	__Plaza_Singapura
-3.545376	__Poh_Ern_Shih
-3.545376	__Poh_Huat_Road
-3.545376	__Poh_Jay
-3.545376	__Post_Florence_Road
-3.545376	__Prince_Of_Wales_Road
-3.545376	__Prinsep_Street
-3.545376	__Prome_Road
-3.545376	__Puat_Jit_Buddhist
-3.545376	__Pulau_Ubin
-3.545376	__Punggol_Avenue
-3.545376	__Qing_De_Gong
-3.545376	__Queen_Elizabeth_Walk
-3.545376	__Radin_Mas
-3.545376	__Raffles_Place
-3.545376	__Rahayu_Mahzam
-3.545376	__Rahim_Omar
-3.545376	__Rail_Mall
-3.545376	__Rajabali_Jumabhoy
-3.545376	__Rambutan_Road
-3.545376	__Rasok_Drive
-3.545376	__Rebecca_Chua
-3.545376	__Red_Cross
-3.545376	__Red_Swastika
-3.545376	__Redhill_Road
-3.545376	__Redwood_Grove
-3.545376	__Revival_Centre
-3.545376	__Richard_Eric_Holttum
-3.545376	__Ring_Road
-3.545376	__Rita_Zahara
-3.545376	__River_City
-3.545376	__River_Safari
-3.545376	__River_Valley
-3.545376	__Riverina_Walk
-3.545376	__Rivervale_Plaza
-3.545376	__Robert_Soon
-3.545376	__Robert_V_Chandran_Way
-3.545376	__Robin_Tessensohn
-3.545376	__Robinson_Road
-3.545376	__Rochor_Kongsi
-3.545376	__Rochor_Road
-3.545376	__Rosaline_Chan_Pang
-3.545376	__Ruby_Lane
-3.545376	__Russels_Road
-3.545376	__Safra_Jurong
-3.545376	__Safra_Punggol
-3.545376	__Saint_Helier'S_Avenue
-3.545376	__Saint_Hilda'S
-3.545376	__Saint_James
-3.545376	__Saint_Nicholas_View
-3.545376	__Saint_Paul'S
-3.545376	__Saint_Stephen'S
-3.545376	__Saint_Wilfred_Road
-3.545376	__Saint_Xavier'S
-3.545376	__Saint_Xavier'S_Lane
-3.545376	__Sakra_Road
-3.545376	__Sakya_Tenphel_Ling
-3.545376	__Sam_Kee
-3.545376	__Sandilands_Road
-3.545376	__Science_Park
-3.545376	__Sea_Breeze_Grove
-3.545376	__Seah_Mei_Lin
-3.545376	__Secondary_School
-3.545376	__Segar_Close
-3.545376	__Segar_Kampong_Arang_Road
-3.545376	__Selarang_Road
-3.545376	__Seletar_Close
-3.545376	__Seletar_Club
-3.545376	__Seletar_Club_Road
-3.545376	__Seletar_Court
-3.545376	__Seletar_East
-3.545376	__Seletar_Green_Avenue
-3.545376	__Seletar_Hill
-3.545376	__Seletar_Hill_Drive
-3.545376	__Seletar_Hills_Drive
-3.545376	__Seletar_Link
-3.545376	__Seletar_Lodge_One
-3.545376	__Seletar_North
-3.545376	__Seletar_North_Lane
-3.545376	__Seletar_Satellite
-3.545376	__Seletar_Satellite_Station_Road
-3.545376	__Seletar_South_Road
-3.545376	__Seletar_West
-3.545376	__Seletar_Wests
-3.545376	__Sembawang_Alley
-3.545376	__Sembawang_Avenue
-3.545376	__Sembawang_Berlayer
-3.545376	__Sembawang_Country_Club
-3.545376	__Sembawang_God_Of_Wealth
-3.545376	__Sembawang_Hills_Drive
-3.545376	__Sembawang_Shopping_Centre
-3.545376	__Sembawang_Tamil_Methodist
-3.545376	__Sembawang_Terminal_Avenue
-3.545376	__Sembawang_Terminal_Road
-3.545376	__Sembawang_Vista
-3.545376	__Sembawang_Wharves
-3.545376	__Sembawang_Woodgrove_Avenue
-3.545376	__Sengkang_East_Avenue
-3.545376	__Sengkang_East_Road
-3.545376	__Sengkang_East_Way
-3.545376	__Sennett_Road
-3.545376	__Sentul_Crescent
-3.545376	__Serangoon_Gardens
-3.545376	__Serangoon_North_Avenue
-3.545376	__Serapong_Hill
-3.545376	__Seraya_Avenue
-3.545376	__Sharon_Bible_Presbyterian
-3.545376	__Shelford_Road
-3.545376	__Shipyard_Crescent
-3.545376	__Shopping_Centre
-3.545376	__Shun_Li
-3.545376	__Si_Ling
-3.545376	__Siang_Cho_Keong
-3.545376	__Siglap_Gardens
-3.545376	__Siloso_Beach
-3.545376	__Sim_Choon_Huat
-3.545376	__Sim_Lim_Square
-3.545376	__Sim_Yi_Hui
-3.545376	__Simon_Lane
-3.545376	__Simpang_Bedok
-3.545376	__Simpang_De_Bedok
-3.545376	__Sims_Way
-3.545376	__Sin_Ming
-3.545376	__Sing_Hoe
-3.545376	__Sing_Joo_Walk
-3.545376	__Singapore'S_Mariners'
-3.545376	__Singapore_Art_Museum
-3.545376	__Singapore_Bible
-3.545376	__Singapore_Botanic_Gardens
-3.545376	__Singapore_Cheshire
-3.545376	__Singapore_Conference
-3.545376	__Singapore_Philatelic_Museum
-3.545376	__Singapore_Recreation
-3.545376	__Singapore_Sikh_Education_Foundation
-3.545376	__Singapore_University_Of_Technology_And_Design
-3.545376	__Singapore_Youth_Flying
-3.545376	__Siok_Wan
-3.545376	__Siong_Lim
-3.545376	__Sir_Frank_Swettenham
-3.545376	__Sit_Wah_Road
-3.545376	__Sleepy_Kiwi
-3.545376	__Sloane_Court_Hotel
-3.545376	__Soo_Bin_Chua
-3.545376	__Soo_Chow_Drive
-3.545376	__Soon_Peng_Yam_Yao_Zi
-3.545376	__Soon_Wing_Road
-3.545376	__Sophia_Hull
-3.545376	__South_Buona_Vista_Road
-3.545376	__South_Perimeter_Road
-3.545376	__South_Woodlands_Drive
-3.545376	__Spring_Lighthouse
-3.545376	__Spring_Street
-3.545376	__Springleaf_Avenue
-3.545376	__Springside_View
-3.545376	__Springwood_Close
-3.545376	__Sree_Narayana
-3.545376	__Sri_Murugan_Hill_Temple
-3.545376	__Sri_Siva_Durga
-3.545376	__Sri_Vairavimada_Kaliamman
-3.545376	__Stadium_Crescent
-3.545376	__Stadium_Way
-3.545376	__Stamford_Raffles
-3.545376	__Starlight_Road
-3.545376	__Stephen_Lee
-3.545376	__Stirling_Walk
-3.545376	__Strand_Hotel
-3.545376	__Stratton_Road
-3.545376	__Suffolk_Road
-3.545376	__Sunbeam_Evergreen_Place
-3.545376	__Sundridge_Park_Road
-3.545376	__Sungei_Bedok
-3.545376	__Sungei_Gedong_Road
-3.545376	__Sungei_Road
-3.545376	__Sunny_Ang
-3.545376	__Sunset_Close
-3.545376	__Sunset_Square
-3.545376	__Sunset_Vale
-3.545376	__Suntec_City
-3.545376	__Swiss_Club_Link
-3.545376	__Syed_Jaafar_Albar
-3.545376	__Tagore_Road
-3.545376	__Tai_Hoe
-3.545376	__Tai_Seng
-3.545376	__Tai_Seng_Drive
-3.545376	__Taman_Bedok
-3.545376	__Taman_Jurong
-3.545376	__Taman_Kembangan
-3.545376	__Taman_Warna
-3.545376	__Tamarind_Avenue
-3.545376	__Tamarind_Road
-3.545376	__Tampines_Changkat
-3.545376	__Tan_Boo_Liat
-3.545376	__Tan_Eng_Joo
-3.545376	__Tan_Kim_Cheng_Road
-3.545376	__Tan_Teck_Whye_Avenue
-3.545376	__Tan_Tock_Seng
-3.545376	__Tanah_Merah
-3.545376	__Tanglin_Gate_Road
-3.545376	__Tanglin_Trust
-3.545376	__Tangmere_Road
-3.545376	__Tanjong_Katong
-3.545376	__Tanjong_Penjuru
-3.545376	__Tanya_Chua
-3.545376	__Teban_Garden
-3.545376	__Tebing_Lane
-3.545376	__Teck_Hai_Keng
-3.545376	__Teck_Whye
-3.545376	__Tekong_Highway
-3.545376	__Telok_Blangah_Crescent
-3.545376	__Telok_Blangah_Rise
-3.545376	__Telok_Blangah_Street
-3.545376	__Telok_Kurau
-3.545376	__Tembusu_Drive
-3.545376	__Teng_San_Tian_Hock
-3.545376	__Teng_Tong_Road
-3.545376	__Terang_Bulan_Avenue
-3.545376	__Tew_Chew_Street
-3.545376	__Thong_Bee_Road
-3.545376	__Thong_Kheng
-3.545376	__Tian_Kong
-3.545376	__Tiong_Poh_Avenue
-3.545376	__Tiverton_Lane
-3.545376	__Toa_Payoh
-3.545376	__Toa_Payoh_East
-3.545376	__Toa_Payoh_North
-3.545376	__Toa_Payoh_Rise
-3.545376	__Toh_Tuck_Drive
-3.545376	__Toh_Tuck_Road
-3.545376	__Tokio_Marine
-3.545376	__Topaz_Road
-3.545376	__Tras_Street
-3.545376	__Treetop_Walk
-3.545376	__Trevose_Place
-3.545376	__Tuas_Avenue
-3.545376	__Tuas_Road
-3.545376	__Tuas_Second_Link
-3.545376	__Tuas_Terminal_Road
-3.545376	__Turf_Ciub_Road
-3.545376	__Ubi_Close
-3.545376	__Ubi_Crescent
-3.545376	__Ubi_Link
-3.545376	__Ulu_Sembawang
-3.545376	__Unity_Street
-3.545376	__University_Town
-3.545376	__Upper_Aljunied
-3.545376	__Upper_Aljunied_Link
-3.545376	__Upper_Aljunied_Road
-3.545376	__Upper_Bedok
-3.545376	__Upper_Bedok_Road
-3.545376	__Upper_Bukit_Timah
-3.545376	__Upper_Bukit_Timah_Road
-3.545376	__Upper_Changi_Road
-3.545376	__Upper_Joo_Aljunied_Link
-3.545376	__Upper_Palm_Valley_Road
-3.545376	__Upper_Paya_Lebar_Road
-3.545376	__Upper_Peirce_Reservoir
-3.545376	__Upper_Seletar_Reservoir
-3.545376	__Upper_Serangoon
-3.545376	__Upper_Wilkie_Road
-3.545376	__Vaughan_Road
-3.545376	__Veerasamy_Road
-3.545376	__Verde_Crescent
-3.545376	__Victoria_Park_Road
-3.545376	__Vigilante_Drive
-3.545376	__Vijesh_Ashok_Ghariwala
-3.545376	__Vivien_Quahe
-3.545376	__Vu_Ly_Tee
-3.545376	__Vu_Ly_Tee#1
-3.545376	__Vu_Ly_Tee#2
-3.545376	__Wak_Hassan
-3.545376	__Wak_Hassan_Place
-3.545376	__Wak_Tanjong
-3.545376	__Wallace_Way
-3.545376	__Walter_Woon
-3.545376	__Wan_Tho_Avenue
-3.545376	__Wareham_Road
-3.545376	__Waringin_Walk
-3.545376	__Warwick_Road
-3.545376	__Waseda_Shibuya
-3.545376	__Waterloo_Street
-3.545376	__Watten_Estate_Road
-3.545376	__Wee_Beng_Chong
-3.545376	__Wellington_Circle
-3.545376	__West_Blue_Stars
-3.545376	__West_Perimeter_Road
-3.545376	__West_Spring
-3.545376	__Westwood_Avenue
-3.545376	__Whampoa_East
-3.545376	__Whitchurch_Road
-3.545376	__Whitley_Road
-3.545376	__Wilmonar_Avenue
-3.545376	__Windsor_Park_Hill
-3.545376	__Wishart_Road
-3.545376	__Wittering_Road
-3.545376	__Wong_Chin_Yoke_Road
-3.545376	__Wong_Hock_Boon
-3.545376	__Woodgrove_View
-3.545376	__Woodland_Street
-3.545376	__Woodlands_Galaxy
-3.545376	__Woodleigh_Close
-3.545376	__Xilin_Avenue
-3.545376	__Yan_Hui_Chang
-3.545376	__Yangtze_Building
-3.545376	__Yao_Zi
-3.545376	__Yarwood_Avenue
-3.545376	__Yeoh_Ghim_Seng
-3.545376	__Yew_Tee
-3.545376	__Yew_Tee_Close
-3.545376	__Yew_Tee_Point
-3.545376	__Yip_Cheong_Fun
-3.545376	__Yishun_Central
-3.545376	__Yishun_Street
-3.545376	__Yong_Melvin_Yik_Chye
-3.545376	__York_Place
-3.545376	__Yu_Huang_Zhi_Zun_Temple
-3.545376	__Yuan_Ching
-3.545376	__Yung_Kuang_Road
-3.545376	__Yuva_Bharati
-3.545376	__Yvonne_Ng
-3.545376	__Zainudin_Nordin
-3.545376	__Zhang_Hui
-3.545376	__Zhou_Ying_Nan
-3.545376	__Zion_Bishan_Bible_Presbyterian
-2.754091	a
-3.58734	aa
-4.581091	aba
-4.949068	aback
-5.426189	abacus
-4.648038	abalone
-4.523099	abandon
-4.727219	abandoned
-5.426189	abandonment
-4.471947	abas
-5.426189	abate
-5.125159	abb
-4.824129	abbas
-5.426189	abbey
-5.426189	abbreviate
-4.824129	abbreviation
-5.426189	abdicate
-4.648038	abdomen
-4.581091	abdominal
-5.426189	abduct
-5.125159	abduction
-5.426189	aberration
-5.426189	abhor
-4.824129	abide
-5.125159	abiding
-5.125159	abigail
-4.064461	ability
-3.620009	able
-4.523099	abnormal
-5.125159	abnormality
-4.949068	abnormally
-4.949068	aboard
-5.125159	abolish
-5.426189	abomination
-4.824129	abort
-5.426189	aborted
-4.648038	abortion
-5.125159	abound
-3.114435	about
-3.921039	above
-4.727219	abrasion
-5.426189	abrasive
-5.426189	abreast
-4.523099	abroad
-4.949068	abrupt
-5.426189	abruptly
-4.727219	absence
-4.648038	absent
-5.426189	absenteeism
-5.426189	absently
-4.471947	absolute
-4.312246	absolutely
-5.426189	absolution
-5.426189	absolve
-4.471947	absorb
-4.824129	absorbed
-5.426189	absorbency
-5.125159	absorber
-4.949068	absorbing
-4.949068	absorption
-5.125159	abstain
-4.426189	abstract
-5.426189	abstracted
-4.824129	abstraction
-4.727219	absurd
-5.426189	absurdly
-4.384797	abu
-5.125159	abundance
-4.727219	abundant
-4.347008	abuse
-4.949068	abuser
-4.824129	abusive
-5.125159	abut
-5.426189	aby
-4.949068	abyss
-4.250098	academic
-5.426189	academical
-4.648038	academically
-4.471947	academy
-4.471947	acara
-5.426189	acca
-5.426189	accede
-4.824129	accelerate
-4.949068	accelerated
-4.949068	acceleration
-5.125159	accelerator
-4.222069	accent
-5.426189	accentuate
-3.994825	accept
-4.312246	acceptable
-4.426189	acceptance
-4.384797	accepted
-4.045978	access
-4.824129	accessibility
-4.426189	accessible
-5.426189	accession
-4.648038	accessory
-4.045978	accident
-4.727219	accidental
-4.222069	accidentally
-5.426189	accidently
-5.125159	acclaim
-5.426189	acclimatize
-4.648038	accommodate
-5.125159	accommodating
-4.384797	accommodation
-5.426189	accommodative
-5.426189	accompaniment
-4.426189	accompany
-5.426189	accomplice
-4.170917	accomplish
-4.581091	accomplished
-4.581091	accomplishment
-4.824129	accord
-4.949068	accordance
-4.083766	according
-4.312246	accordingly
-5.125159	accordion
-3.434963	account
-4.824129	accountability
-4.824129	accountable
-4.384797	accountancy
-4.523099	accountant
-4.147436	accounting
-5.125159	accreditation
-4.727219	accredited
-5.125159	accrual
-5.426189	accrue
-4.523099	accumulate
-4.824129	accumulation
-5.125159	accumulative
-4.949068	accumulator
-4.727219	accuracy
-4.347008	accurate
-4.949068	accurately
-5.426189	accusation
-5.426189	accusative
-5.426189	accusatory
-4.824129	accuse
-4.949068	accused
-5.125159	accustom
-4.949068	accustomed
-4.523099	ace
-5.426189	acerbate
-5.426189	acerbic
-5.426189	acetabulum
-5.426189	achar
-4.426189	ache
-4.949068	achievable
-4.045978	achieve
-4.083766	achievement
-4.949068	achiever
-4.824129	aching
-5.426189	achy
-4.581091	acid
-4.949068	acidic
-5.426189	acidify
-5.426189	acidity
-5.426189	acidosis
-5.426189	acker
-5.426189	acknow
-4.426189	acknowledge
-5.125159	acknowledged
-4.648038	acne
-5.426189	acolyte
-5.426189	acorn
-4.581091	acoustic
-5.125159	acoustics
-4.471947	acquaintance
-5.426189	acquaintanceship
-5.426189	acquainted
-4.824129	acquire
-4.824129	acquired
-4.949068	acquisition
-4.824129	acre
-5.125159	acrobatic
-5.426189	acrobatics
-4.222069	acronym
-5.426189	acrophobia
-4.011216	across
-4.949068	acrylic
-3.979031	act
-4.170917	acting
-3.934827	action
-4.347008	activate
-4.824129	activation
-5.426189	activator
-4.147436	active
-4.581091	actively
-5.426189	activeness
-5.426189	activism
-5.426189	activist
-3.994825	activity
-4.170917	actor
-4.347008	actress
-5.125159	actu
-4.064461	actual
-5.426189	actualism
-5.426189	actuality
-5.426189	actualization
-5.426189	actualize
-3.142888	actually
-4.824129	actuarial
-5.426189	actuary
-5.426189	actuation
-5.426189	aculeate
-5.426189	acupressure
-5.125159	acupuncture
-4.727219	acute
-4.222069	ad
-5.426189	adamant
-4.347008	adapt
-5.125159	adaptability
-4.949068	adaptable
-4.727219	adaptation
-4.824129	adapter
-5.426189	adaption
-4.949068	adaptive
-4.949068	adaptor
-4.648038	adat
-3.782736	add
-4.312246	added
-4.648038	addict
-4.347008	addicted
-4.648038	addiction
-4.312246	addition
-4.170917	additional
-4.949068	additionally
-5.426189	additive
-3.562866	address
-5.426189	addressee
-4.19574	ade
-5.125159	adenoma
-5.125159	adept
-5.426189	adequacy
-4.949068	adequate
-5.426189	adequately
-5.426189	adhere
-5.426189	adhesive
-5.125159	adipocyte
-5.125159	adjacent
-4.727219	adjective
-5.426189	adjoining
-5.125159	adjunct
-4.280061	adjust
-5.426189	adjustable
-5.426189	adjuster
-4.727219	adjustment
-5.426189	admi
-5.125159	administer
-5.426189	administrate
-4.727219	administration
-4.648038	administrative
-5.426189	administratively
-4.581091	administrator
-4.824129	admirable
-5.125159	admiral
-4.523099	admiralty
-5.125159	admiration
-4.19574	admire
-5.125159	admired
-5.125159	admirer
-5.125159	admiring
-4.523099	admission
-4.312246	admit
-4.471947	admitted
-5.426189	admittedly
-5.426189	ado
-4.648038	adobe
-4.824129	adolescence
-5.125159	adolescent
-4.011216	adopt
-4.347008	adopted
-5.426189	adoptee
-4.824129	adopter
-3.763431	adoption
-4.727219	adoptive
-4.727219	adorable
-4.727219	adore
-4.727219	adrenaline
-5.125159	adrift
-4.064461	adult
-4.824129	adulthood
-4.19574	advance
-4.426189	advanced
-4.727219	advancement
-4.949068	advancing
-4.312246	advantage
-5.426189	advantageous
-4.222069	adventure
-5.125159	adventurer
-4.426189	adventurous
-5.426189	adventurously
-5.125159	adverb
-5.426189	adverbial
-5.426189	adversary
-4.949068	adverse
-4.949068	adversity
-5.125159	advert
-4.581091	advertise
-4.280061	advertisement
-5.125159	advertiser
-4.471947	advertising
-4.011216	advice
-4.727219	advisable
-4.064461	advise
-4.523099	advised
-5.426189	advisement
-4.648038	adviser
-4.727219	advisor
-4.648038	advisory
-4.727219	advocate
-5.125159	ady
-4.949068	ae
-5.426189	aegis
-4.523099	aeon
-4.824129	aerial
-4.949068	aero
-5.426189	aerobatic
-5.125159	aerobatics
-5.125159	aerobic
-5.426189	aerodynamic
-5.125159	aerodynamics
-5.125159	aerofoil
-5.426189	aeronautic
-5.125159	aeronautical
-4.426189	aeroplane
-5.426189	aerosol
-4.727219	aesthetic
-5.426189	aesthetical
-4.949068	aesthetically
-5.426189	aesthetician
-4.949068	aesthetics
-4.949068	afar
-4.523099	affair
-4.147436	affect
-4.280061	affected
-4.727219	affecting
-4.727219	affection
-5.125159	affectionate
-5.426189	affectionately
-5.426189	affective
-4.471947	affidavit
-5.426189	affiliate
-4.949068	affiliation
-5.125159	affinity
-5.426189	affirm
-4.949068	affirmation
-5.125159	affirmative
-5.426189	affix
-5.426189	afflicted
-5.426189	affluence
-5.125159	affluent
-4.10397	afford
-4.222069	affordable
-5.426189	affricated
-5.426189	afloat
-5.426189	afore
-4.028249	afraid
-5.125159	afresh
-4.581091	aft
-3.28631	after
-4.824129	afterlife
-5.125159	afterlight
-5.125159	aftermath
-3.718619	afternoon
-5.125159	afternoons
-5.125159	aftershock
-4.949068	aftertaste
-4.648038	afterward
-4.222069	afterwards
-5.125159	aga
-3.457706	again
-4.011216	against
-4.170917	agama
-5.426189	agape
-4.280061	agar
-3.735993	age
-4.581091	aged
-4.581091	agen
-4.064461	agency
-4.384797	agenda
-4.083766	agent
-5.426189	ager
-5.125159	aggravate
-5.426189	aggravating
-5.426189	aggravation
-4.949068	aggregate
-4.949068	aggression
-4.222069	aggressive
-4.949068	aggressively
-5.426189	aggressiveness
-5.426189	aggressor
-4.949068	agile
-5.125159	agility
-4.384797	aging
-5.426189	agitate
-4.949068	agitation
-5.426189	agnostic
-5.125159	agnus
-3.701913	ago
-4.727219	agony
-5.426189	agora
-5.426189	agre
-3.846406	agree
-4.727219	agreeable
-5.426189	agreeableness
-4.384797	agreed
-4.949068	agreeing
-4.312246	agreement
-4.949068	agricole
-5.125159	agricultural
-4.949068	agriculture
-2.830693	ah
-4.280061	aha
-3.949068	ahead
-4.648038	ahem
-4.250098	ai
-4.384797	aid
-5.426189	aide
-5.125159	aider
-5.426189	ailing
-5.426189	ailment
-4.222069	aim
-5.426189	aimer
-4.523099	aiming
-5.426189	aimless
-5.125159	aimlessly
-3.574931	air
-4.648038	aircraft
-4.949068	airdrop
-5.426189	airfield
-5.426189	airing
-5.426189	airlift
-5.426189	airliner
-5.426189	airmail
-4.471947	airplane
-4.045978	airport
-5.426189	airship
-5.426189	airsick
-5.426189	airtight
-4.949068	airway
-4.949068	airy
-4.824129	aisle
-5.426189	ait
-3.963791	ajar
-4.280061	ak
-4.949068	aka
-5.426189	ake
-5.426189	akin
-3.110219	aku
-4.312246	al
-4.083766	ala
-5.426189	alala
-4.523099	alan
-5.426189	alar
-4.045978	alarm
-5.125159	alarmed
-4.824129	alarming
-5.125159	alarum
-4.824129	alas
-5.426189	alba
-5.426189	albatross
-5.426189	albeit
-4.949068	albino
-4.222069	album
-5.125159	alchemist
-5.426189	alchemy
-4.250098	alcohol
-4.471947	alcoholic
-5.125159	alcoholism
-5.426189	alder
-4.949068	ale
-3.813405	alert
-5.426189	alertness
-5.125159	alexia
-5.125159	alfa
-5.426189	alfonso
-5.426189	alfresco
-4.949068	algae
-4.727219	algebra
-5.426189	algebraic
-4.426189	algorithm
-4.648038	alias
-4.426189	alien
-4.949068	alienation
-4.471947	alif
-4.648038	alight
-4.648038	align
-4.727219	alignment
-4.648038	alike
-5.125159	alimony
-5.426189	alin
-5.125159	alison
-4.064461	alive
-5.125159	aliyah
-5.426189	alkali
-5.426189	alkalic
-5.125159	alkaline
-5.426189	alkane
-3.089729	all
-5.125159	allan
-5.426189	allegation
-5.125159	allegedly
-5.426189	allegiance
-5.125159	allergen
-4.426189	allergic
-4.581091	allergy
-4.949068	alleviate
-4.523099	alley
-4.727219	alliance
-4.949068	allied
-5.426189	allies
-4.824129	alligator
-5.426189	alliteration
-4.581091	allocate
-4.648038	allocation
-5.426189	allopathic
-3.994825	allow
-5.426189	allowable
-4.250098	allowance
-5.426189	alloy
-4.949068	ally
-5.426189	alma
-5.125159	almighty
-5.426189	almon
-4.581091	almond
-3.792721	almost
-5.426189	alo
-4.648038	aloe
-5.426189	aloft
-3.792721	alone
-3.846406	along
-4.949068	alongside
-5.125159	aloof
-5.426189	alopecia
-4.949068	aloud
-5.426189	alp
-5.125159	alpaca
-4.347008	alpha
-4.426189	alphabet
-5.125159	alphabetical
-3.19574	already
-3.448466	alright
-5.125159	alrighty
-3.112322	also
-5.125159	alt
-5.426189	altar
-4.426189	alter
-4.824129	alteration
-4.384797	alternate
-5.426189	alternately
-5.125159	alternating
-4.312246	alternative
-4.581091	alternatively
-3.949068	although
-5.426189	altimeter
-4.824129	altitude
-5.125159	alto
-4.426189	altogether
-5.125159	altruism
-5.426189	altruistic
-5.426189	alum
-5.426189	alumina
-4.648038	aluminium
-5.426189	aluminum
-4.581091	alumni
-5.426189	alumnus
-5.426189	alunite
-4.949068	alway
-3.405	always
-3.462401	am
-5.426189	ama
-4.949068	amah
-5.426189	amalgamate
-5.426189	amalgamation
-5.125159	amani
-4.523099	amar
-5.426189	amass
-4.648038	amateur
-5.426189	amateurish
-4.648038	amaze
-4.581091	amazed
-5.426189	amazement
-4.011216	amazing
-5.125159	amazingly
-4.727219	ambassador
-5.426189	ambassy
-4.581091	amber
-5.426189	ambidextrous
-4.648038	ambience
-5.125159	ambient
-5.125159	ambiguity
-4.727219	ambiguous
-4.648038	ambition
-4.426189	ambitious
-5.426189	ambitiousness
-5.125159	ambivalent
-5.426189	ambivert
-5.426189	ambling
-5.125159	ambrose
-3.556957	ambulance
-5.426189	ambulation
-5.426189	ambulatory
-5.426189	ambush
-5.426189	ame
-4.727219	amelia
-4.824129	amen
-5.125159	amenable
-4.581091	amend
-4.824129	amendment
-5.426189	amenity
-5.426189	ameristic
-5.426189	amethyst
-4.949068	ami
-5.125159	amicable
-5.125159	amid
-5.125159	amidst
-4.949068	amil
-4.426189	amin
-5.125159	amine
-5.426189	amino
-4.280061	amir
-5.426189	amla
-5.426189	amma
-5.125159	ammo
-5.426189	ammonia
-5.125159	ammunition
-5.426189	amnesia
-5.426189	amnesty
-5.125159	amoeba
-5.426189	amok
-4.222069	among
-4.824129	amongst
-5.426189	amorous
-5.426189	amortization
-3.678001	amount
-5.125159	amour
-5.125159	ampere
-5.426189	amphetamine
-5.426189	amphibian
-5.426189	amphitheater
-4.824129	ample
-5.125159	amplifier
-5.125159	amplify
-4.949068	amplitude
-5.426189	ampoule
-5.125159	amputate
-4.824129	amputation
-5.125159	amputee
-5.426189	amulet
-4.824129	amuse
-4.949068	amused
-4.581091	amusement
-4.949068	amusing
-4.347008	amy
-3.400883	an
-4.523099	ana
-5.125159	anaconda
-5.125159	anaesthesia
-4.949068	anal
-5.125159	analogue
-4.824129	analogy
-4.426189	analyse
-5.426189	analyses
-4.384797	analysis
-4.648038	analyst
-4.949068	analytic
-4.824129	analytical
-4.824129	analytics
-4.581091	analyze
-5.426189	analyzer
-5.426189	anam
-5.426189	anan
-4.949068	ananas
-5.426189	ananda
-5.426189	anarchy
-5.426189	anatomical
-5.426189	anatomically
-4.824129	anatomy
-4.824129	ancestor
-5.426189	ancestral
-5.426189	ancestry
-4.523099	anchor
-5.426189	anchorage
-5.426189	anchored
-4.471947	ancient
-2.788699	and
-3.857987	anda
-4.312246	android
-5.426189	anecdotal
-4.949068	anecdote
-5.125159	anemia
-4.949068	anemic
-5.426189	anemone
-5.426189	anesthesia
-5.426189	anesthetic
-4.19574	angel
-5.426189	angelfish
-5.125159	angelic
-4.824129	angeline
-4.471947	anger
-5.426189	angina
-5.426189	angioplasty
-4.347008	angle
-5.125159	angled
-5.426189	angler
-5.125159	angrily
-3.907675	angry
-4.949068	angst
-5.426189	anguish
-5.426189	angular
-4.949068	ani
-3.869887	animal
-4.949068	animate
-4.727219	animated
-4.347008	animation
-5.426189	animator
-4.147436	anime
-5.426189	animosity
-5.426189	animus
-4.727219	anis
-5.426189	anise
-5.426189	anker
-4.347008	ankle
-4.426189	ann
-4.384797	anna
-5.426189	annet
-5.426189	annex
-4.426189	anniversary
-5.426189	annotation
-4.581091	announce
-4.523099	announcement
-5.426189	announcer
-4.581091	annoy
-5.125159	annoyance
-4.028249	annoying
-5.426189	annoyingly
-4.347008	annual
-4.727219	annually
-5.426189	anode
-5.426189	anon
-5.426189	anonymity
-4.648038	anonymous
-5.125159	anorexia
-3.457706	another
-5.426189	ansar
-3.600114	answer
-5.426189	answerable
-4.384797	ant
-5.125159	anta
-5.125159	antacid
-5.426189	antagonism
-5.125159	antagonist
-5.426189	antagonize
-5.426189	antarctic
-4.648038	antarctica
-5.426189	anteater
-4.523099	antenna
-5.125159	antennae
-4.727219	anthem
-5.426189	anther
-5.426189	anthesis
-4.949068	anthology
-5.426189	anthrax
-5.426189	anthropologist
-5.426189	anthropology
-4.280061	anti
-5.426189	antiaircraft
-5.426189	antibacterial
-4.727219	antibiotic
-4.949068	antibody
-4.727219	antic
-4.949068	anticipate
-5.125159	anticipation
-5.125159	anticlockwise
-4.949068	antidote
-5.426189	antihero
-5.125159	antioxidant
-4.471947	antique
-5.426189	antiquity
-5.426189	antiseptic
-4.949068	antisocial
-5.426189	antithesis
-4.949068	antivirus
-5.125159	anus
-4.471947	anxiety
-4.581091	anxious
-5.426189	anxiousness
-3.322385	any
-4.028249	anybody
-4.125159	anyhow
-3.882121	anyone
-3.417589	anything
-3.662761	anyway
-4.147436	anyways
-3.963791	anywhere
-3.10397	apa
-5.426189	apache
-4.10397	apart
-4.222069	apartment
-5.426189	apathetic
-4.949068	apathy
-4.10397	ape
-5.426189	aperture
-4.727219	apex
-4.824129	apocalypse
-5.426189	apocalyptic
-5.426189	apologetic
-4.471947	apologize
-4.648038	apology
-5.426189	apostle
-4.648038	apostrophe
-5.426189	appalling
-4.949068	apparatus
-4.949068	apparel
-5.426189	apparence
-4.824129	apparent
-3.934827	apparently
-5.426189	apparition
-4.19574	appeal
-4.727219	appealing
-4.250098	appear
-4.523099	appearance
-5.125159	appease
-5.426189	append
-5.426189	appendicitis
-4.727219	appendix
-5.426189	appertain
-4.581091	appetite
-4.727219	appetizer
-5.426189	applaud
-4.824129	applause
-3.907675	apple
-4.581091	appliance
-4.384797	applicable
-4.347008	applicant
-3.744948	application
-4.10397	applied
-3.662761	apply
-4.523099	appoint
-5.426189	appointee
-3.963791	appointment
-5.426189	apportion
-4.949068	appraisal
-5.426189	appraise
-5.426189	appreciable
-4.011216	appreciate
-4.648038	appreciation
-4.824129	appreciative
-5.426189	apprehend
-5.125159	apprehensive
-5.426189	apprentice
-5.426189	apprenticeship
-4.147436	approach
-4.727219	approachable
-4.727219	approaching
-4.471947	appropriate
-4.949068	appropriately
-5.426189	appropriateness
-4.147436	approval
-4.19574	approve
-4.824129	approximate
-4.471947	approximately
-5.426189	apricot
-4.426189	apron
-4.824129	apt
-5.125159	aptitude
-4.824129	aqua
-5.125159	aquamarine
-4.949068	aquaria
-4.280061	aquarium
-5.426189	aquatic
-3.857987	ar
-4.949068	ara
-5.426189	arapaima
-5.426189	arba
-5.426189	arbitrary
-5.125159	arbitration
-5.426189	arbor
-5.426189	arbutin
-4.648038	arc
-5.125159	arca
-4.471947	arcade
-4.727219	arch
-5.426189	archaeological
-5.426189	archaeologist
-5.125159	archaeology
-5.426189	arched
-5.125159	archer
-4.648038	archery
-5.426189	arches
-5.125159	archetype
-5.426189	archipelago
-4.523099	architect
-5.125159	architectural
-4.384797	architecture
-4.824129	archive
-4.727219	arctic
-3.037023	are
-3.662761	area
-4.824129	arena
-5.125159	argent
-5.426189	argon
-5.125159	arguable
-4.147436	argue
-4.125159	argument
-5.125159	argumentation
-4.949068	argumentative
-5.426189	aria
-5.426189	arid
-4.824129	ariel
-5.125159	aright
-4.949068	arise
-4.824129	arista
-5.426189	aristocracy
-5.426189	aristocrat
-5.426189	arithmetic
-5.426189	arjun
-5.125159	ark
-4.083766	arm
-5.426189	armada
-5.426189	armadillo
-5.125159	armchair
-4.949068	armed
-5.125159	arming
-5.426189	armlet
-4.949068	armor
-5.426189	armored
-5.426189	armory
-4.727219	armpit
-4.824129	armrest
-4.10397	arms
-3.949068	army
-5.426189	arn
-5.426189	arni
-4.648038	aroma
-5.426189	aromatic
-5.426189	arose
-3.49677	around
-5.426189	arousal
-5.426189	arouse
-4.147436	arrange
-4.384797	arrangement
-5.426189	array
-4.581091	arrest
-5.426189	arresting
-4.471947	arrival
-4.222069	arrive
-5.125159	arrogance
-4.471947	arrogant
-4.949068	arrogantly
-4.170917	arrow
-5.426189	arrowed
-4.384797	arsenal
-5.426189	arsenic
-5.426189	arson
-3.921039	art
-5.426189	artefact
-5.426189	arteriosclerosis
-5.426189	artery
-5.426189	artful
-5.426189	artha
-4.824129	arthritis
-4.222069	article
-4.949068	articulate
-5.426189	articulated
-5.125159	articulation
-5.125159	artifact
-4.471947	artificial
-5.125159	artificially
-5.426189	artillery
-5.426189	artisan
-4.10397	artist
-4.727219	artiste
-4.581091	artistic
-5.426189	artistically
-5.426189	artistry
-4.824129	arty
-5.426189	aru
-5.426189	ary
-3.161371	as
-5.125159	asak
-5.125159	asbestos
-5.125159	ascend
-5.426189	ascendant
-5.125159	ascending
-5.426189	ascension
-5.426189	ascent
-4.949068	ascertain
-5.426189	ascribe
-5.125159	ase
-5.426189	aseptic
-5.426189	asexual
-4.727219	ash
-5.426189	ashame
-4.824129	ashamed
-5.426189	ashen
-4.648038	ashes
-5.125159	ashore
-4.949068	ashraf
-5.426189	ashy
-4.222069	aside
-3.336284	ask
-4.471947	askar
-5.426189	asker
-4.250098	asleep
-5.426189	asoka
-5.125159	asp
-4.949068	asparagus
-4.10397	aspect
-5.426189	aspen
-5.426189	aspersion
-5.426189	asphalt
-5.426189	aspirate
-4.426189	aspiration
-4.648038	aspire
-4.949068	aspirin
-5.125159	aspiring
-4.280061	ass
-4.949068	assassin
-5.125159	assassinate
-5.125159	assassination
-4.949068	assault
-5.125159	assay
-5.426189	assayer
-4.648038	assemble
-4.523099	assembly
-5.426189	assent
-4.949068	assert
-5.426189	assertion
-4.949068	assertive
-5.426189	assertiveness
-4.347008	assess
-5.125159	assessable
-4.949068	assessed
-4.347008	assessment
-4.824129	assessor
-4.426189	asset
-4.426189	assets
-5.426189	assi
-4.19574	assign
-4.426189	assigned
-5.426189	assignee
-5.426189	assigner
-4.10397	assignment
-5.426189	assimilate
-5.426189	assimilation
-3.727219	assist
-3.934827	assistance
-4.083766	assistant
-5.426189	assistive
-4.523099	associate
-4.648038	associated
-4.581091	association
-5.426189	assort
-5.125159	assorted
-5.426189	assortment
-4.125159	assume
-4.824129	assumed
-4.147436	assuming
-4.523099	assumption
-4.648038	assurance
-4.824129	assure
-4.824129	assured
-5.125159	assuring
-5.426189	assythment
-5.426189	ast
-5.426189	asta
-5.426189	astatic
-5.426189	aster
-4.727219	asterisk
-4.222069	asthma
-5.125159	asthmatic
-5.426189	astigmatism
-4.949068	astonish
-5.125159	astonishing
-5.426189	astonishment
-5.426189	astounding
-5.426189	astral
-5.426189	astray
-5.125159	astrologer
-5.426189	astrology
-4.648038	astronaut
-5.125159	astronomer
-5.125159	astronomical
-4.824129	astronomy
-4.824129	asylum
-5.426189	asymmetrical
-5.426189	asymptote
-5.426189	asyndeton
-3.093751	at
-5.426189	ataman
-4.949068	atap
-3.994825	ate
-5.426189	atelier
-5.125159	atheist
-5.426189	athematic
-4.727219	athlete
-4.727219	athletic
-5.426189	athleticism
-4.949068	athletics
-4.824129	atlantic
-4.949068	atlas
-4.471947	atmosphere
-5.426189	atmospheric
-4.648038	atom
-4.648038	atomic
-5.426189	atomy
-5.426189	atone
-5.426189	atonement
-5.426189	atop
-5.426189	atria
-5.426189	atrial
-4.949068	atrium
-5.125159	atrocious
-5.426189	atrocity
-5.426189	atrophy
-5.426189	atta
-4.280061	attach
-5.426189	attache
-4.222069	attached
-4.280061	attachment
-4.10397	attack
-4.824129	attacker
-4.727219	attain
-5.125159	attainable
-5.426189	attainment
-5.426189	attar
-4.471947	attempt
-4.045978	attend
-4.426189	attendance
-4.949068	attendant
-5.426189	attender
-5.426189	attent
-4.083766	attention
-4.727219	attentive
-5.125159	attentively
-5.125159	attentiveness
-5.426189	atter
-5.125159	attest
-4.949068	attic
-4.523099	attire
-4.19574	attitude
-4.727219	attorney
-4.347008	attract
-4.10397	attraction
-4.347008	attractive
-5.426189	attractively
-5.125159	attractiveness
-4.312246	attribute
-5.426189	attribution
-5.426189	attrition
-5.125159	atypical
-4.824129	auction
-5.125159	audacious
-5.426189	audacity
-5.426189	audible
-5.426189	audibly
-4.384797	audience
-4.384797	audio
-4.347008	audit
-4.384797	audition
-4.727219	auditor
-5.125159	auditorium
-5.426189	auditory
-5.426189	augmentation
-5.426189	augmented
-3.907675	august
-5.125159	auh
-5.426189	aum
-4.170917	aunt
-4.028249	auntie
-4.727219	aura
-5.426189	aural
-5.426189	aurelia
-5.426189	auric
-4.824129	aurora
-5.125159	auspicious
-5.426189	austerity
-5.426189	austral
-4.347008	authentic
-5.426189	authenticate
-5.426189	authentication
-4.949068	authenticity
-5.426189	authenticness
-4.426189	author
-4.824129	authoritarian
-5.426189	authoritarianism
-4.949068	authoritative
-4.384797	authority
-4.648038	authorization
-4.949068	authorize
-4.824129	authorized
-5.426189	authorizer
-5.125159	authorship
-4.648038	autism
-5.426189	autist
-4.581091	autistic
-4.125159	auto
-4.949068	autobiography
-5.426189	autocratic
-4.824129	autograph
-5.426189	automa
-5.426189	automata
-4.384797	automatic
-4.250098	automatically
-5.125159	automobile
-4.949068	automotive
-5.125159	autonomous
-5.125159	autonomy
-4.949068	autopilot
-4.384797	autumn
-5.426189	autumnal
-5.426189	auxiliary
-5.426189	ava
-4.949068	avail
-4.648038	availability
-4.045978	available
-5.125159	avalanche
-5.426189	avast
-4.824129	ave
-5.426189	avenge
-4.581091	avenger
-3.846406	avenue
-4.10397	average
-5.125159	averagely
-5.125159	averse
-5.426189	avert
-5.426189	averted
-5.125159	avian
-5.426189	aviary
-4.727219	aviation
-5.426189	aviator
-4.824129	avid
-5.426189	avo
-4.581091	avocado
-4.170917	avoid
-5.426189	avoidable
-5.426189	avoidance
-4.648038	aw
-4.824129	awa
-5.426189	await
-4.170917	awake
-4.824129	awaken
-4.949068	awakening
-4.384797	award
-4.170917	aware
-4.471947	awareness
-4.824129	awat
-3.633797	away
-5.125159	awe
-4.083766	awesome
-5.426189	awesomeness
-4.648038	awful
-4.824129	awfully
-4.10397	awhile
-5.426189	awin
-5.125159	awing
-3.934827	awkward
-4.949068	awkwardly
-5.125159	awkwardness
-5.426189	awning
-5.426189	awoke
-4.949068	ax
-4.727219	axe
-5.125159	axes
-5.426189	axiom
-4.949068	axis
-5.426189	axolotl
-4.949068	axon
-4.581091	ay
-3.744948	ayah
-4.347008	aye
-5.426189	ayin
-4.824129	ayu
-5.125159	azure
-3.467148	b
-4.170917	ba
-5.125159	baa
-4.471947	baba
-5.426189	babble
-4.384797	babe
-5.125159	baboo
-4.949068	baboon
-5.426189	babu
-3.517704	baby
-5.426189	babyish
-5.125159	bac
-5.426189	baccarat
-5.125159	bach
-4.581091	bachelor
-3.302337	back
-4.648038	backache
-5.426189	backboard
-5.125159	backbone
-5.125159	backdoor
-4.949068	backdrop
-4.824129	backed
-5.426189	backer
-4.949068	backfire
-5.426189	backfiring
-3.994825	background
-5.125159	backhand
-5.426189	backhanded
-4.824129	backing
-4.949068	backlash
-5.426189	backless
-5.426189	backlog
-4.648038	backside
-4.824129	backstage
-5.125159	backstroke
-5.125159	backtrack
-4.426189	backup
-4.581091	backward
-4.523099	backwards
-5.426189	backwash
-5.426189	backway
-4.523099	bacon
-4.471947	bacteria
-5.125159	bacterial
-3.471946	bad
-3.921039	badan
-4.426189	badge
-4.949068	badger
-4.222069	badly
-3.907675	badminton
-5.426189	badness
-4.727219	bae
-5.125159	baffle
-3.835124	bag
-4.824129	bagel
-4.581091	baggage
-5.426189	bagger
-4.727219	baggy
-5.426189	bagpipe
-5.426189	bagpipes
-4.727219	baguette
-4.384797	bah
-3.963791	bahan
-4.824129	bahar
-4.312246	baht
-4.949068	bail
-5.426189	bailer
-5.426189	bailey
-5.426189	bain
-4.648038	bait
-4.581091	baka
-4.523099	bakal
-4.10397	bake
-4.426189	baked
-4.581091	baker
-4.384797	bakery
-4.19574	baking
-4.727219	baku
-5.125159	bal
-4.727219	balai
-3.882121	balance
-4.471947	balanced
-4.949068	balancer
-4.648038	balancing
-4.523099	balas
-4.426189	balcony
-4.581091	bald
-4.949068	baldness
-5.426189	baldy
-5.125159	bale
-4.170917	bali
-3.727219	ball
-5.125159	ballad
-5.426189	ballade
-5.426189	balled
-4.824129	baller
-5.125159	ballerina
-4.471947	ballet
-5.426189	ballistic
-4.312246	balloon
-5.426189	ballooner
-5.125159	ballooning
-5.426189	balloonist
-4.648038	ballot
-4.824129	balloting
-4.727219	ballroom
-5.426189	bally
-4.824129	balm
-5.426189	baloney
-5.125159	balsamic
-4.648038	balut
-5.125159	bam
-5.426189	bambino
-4.471947	bamboo
-4.312246	ban
-5.426189	banak
-5.426189	banality
-4.083766	banana
-5.426189	banca
-4.949068	banco
-3.907675	band
-4.949068	banda
-4.581091	bandage
-5.426189	bandanna
-4.028249	bandar
-4.523099	banding
-4.949068	bandit
-5.426189	bando
-5.426189	bandstand
-5.125159	bane
-4.147436	bang
-5.426189	banga
-5.426189	bangalow
-5.125159	banger
-4.727219	banging
-4.10397	bangkok
-4.949068	bangle
-5.426189	bani
-5.125159	banish
-5.426189	banister
-5.426189	banjo
-3.507111	bank
-5.426189	bankbook
-4.949068	banked
-4.280061	banker
-4.10397	banking
-4.384797	bankrupt
-4.824129	bankruptcy
-4.10397	banner
-5.426189	banning
-4.426189	banquet
-4.949068	banter
-5.125159	banya
-4.824129	banyan
-5.125159	bap
-5.125159	baptism
-5.426189	baptize
-3.89471	bar
-4.949068	bara
-4.824129	barb
-5.125159	barbarian
-5.426189	barbaric
-5.426189	barbarous
-5.426189	barbe
-4.10397	barbecue
-5.125159	barbed
-4.471947	barber
-5.125159	barbershop
-4.523099	barcelona
-5.426189	bard
-4.426189	bare
-5.426189	barefaced
-4.648038	barefoot
-4.727219	barefooted
-5.426189	barehanded
-4.384797	barely
-4.581091	bargain
-4.949068	barge
-5.125159	bari
-5.426189	barilla
-4.426189	baring
-4.949068	baris
-4.523099	bark
-5.426189	barker
-4.648038	barking
-4.824129	barley
-4.648038	barn
-4.648038	barney
-5.125159	barnyard
-5.426189	barometer
-5.125159	baron
-5.426189	barra
-5.125159	barrack
-5.426189	barracuda
-4.471947	barrage
-5.426189	barred
-4.727219	barrel
-5.125159	barren
-5.426189	barret
-4.949068	barricade
-4.347008	barrier
-5.125159	barring
-5.426189	barrio
-4.824129	barrow
-4.581091	barry
-4.727219	bartender
-5.426189	bartending
-5.426189	barter
-5.426189	barth
-5.426189	barton
-3.523099	baru
-4.045978	bas
-3.949068	base
-4.523099	baseball
-5.426189	baseballer
-3.824129	based
-5.426189	baseless
-4.949068	baseman
-4.250098	basement
-4.949068	bases
-4.727219	bash
-5.426189	bashful
-3.934827	basic
-3.581091	basically
-4.824129	basil
-5.426189	basilar
-4.824129	basin
-4.125159	basis
-5.426189	bask
-4.19574	basket
-3.979031	basketball
-5.125159	basketballer
-4.426189	bass
-5.426189	bassist
-5.426189	basso
-5.426189	bassoonist
-5.426189	basta
-4.581091	bastard
-5.426189	baster
-5.125159	bastion
-4.426189	bat
-4.125159	batch
-5.125159	bater
-4.384797	bath
-4.426189	bathe
-4.581091	bathing
-5.125159	bathrobe
-4.523099	bathroom
-4.648038	bathtub
-4.384797	batik
-5.426189	bating
-4.384797	batman
-4.949068	baton
-4.949068	bats
-5.125159	battalion
-4.949068	batter
-5.426189	battered
-4.19574	battery
-5.426189	batting
-4.19574	battle
-5.125159	battled
-4.824129	battlefield
-4.949068	battleship
-5.125159	baw
-5.125159	baxter
-4.028249	bay
-4.648038	baya
-4.471947	bazaar
-5.125159	bazooka
-3.028249	be
-3.792721	beach
-4.949068	beachcombing
-5.426189	beached
-4.949068	beachy
-5.426189	beacon
-5.125159	bead
-5.426189	beaded
-5.426189	beading
-5.426189	beady
-5.125159	beagle
-4.581091	beak
-5.125159	beaker
-4.648038	beam
-4.648038	beamer
-5.125159	beaming
-4.147436	bean
-5.426189	beanbag
-5.426189	beanbags
-5.125159	beanie
-5.426189	beanstalk
-5.125159	beant
-3.882121	bear
-4.949068	bearable
-4.280061	beard
-4.949068	bearded
-5.426189	bearer
-4.727219	bearing
-5.426189	bearish
-4.384797	beast
-4.083766	beat
-4.727219	beaten
-5.426189	beater
-4.648038	beating
-5.125159	beau
-4.824129	beautician
-3.994825	beautiful
-4.824129	beautifully
-4.949068	beautify
-4.147436	beauty
-5.426189	beaver
-5.426189	bebat
-5.426189	bebop
-3.049612	because
-5.125159	beck
-3.693795	become
-4.170917	becomes
-4.312246	becoming
-3.882121	bed
-5.426189	bedclothes
-5.426189	bedded
-5.125159	bedding
-5.426189	bedframe
-4.727219	bedridden
-5.426189	bedrock
-4.384797	bedroom
-5.125159	bedside
-5.125159	bedsore
-4.949068	bedtime
-4.011216	bee
-5.426189	beech
-5.426189	beechwood
-4.011216	beef
-5.125159	beefeater
-4.824129	beefsteak
-5.125159	beefy
-4.523099	beehive
-5.125159	beekeeper
-3.448466	been
-4.147436	beer
-4.347008	bees
-5.125159	beet
-4.727219	beetle
-3.373111	before
-4.581091	beforehand
-5.125159	befriend
-4.125159	beg
-4.727219	beggar
-4.648038	begging
-4.312246	begin
-4.581091	beginner
-4.19574	beginning
-5.426189	begonia
-5.426189	begrudgingly
-5.125159	begun
-4.170917	behalf
-4.347008	behave
-4.523099	behavior
-4.949068	behavioral
-5.426189	behaviorist
-4.471947	behaviour
-3.735993	behind
-4.949068	behold
-5.125159	beholder
-4.384797	beige
-3.568856	being
-4.824129	bel
-3.934827	bela
-3.89471	belah
-4.648038	belanda
-4.949068	belated
-4.949068	belay
-5.426189	belayer
-5.426189	belch
-4.523099	belief
-5.125159	believable
-3.754091	believe
-4.648038	believer
-4.824129	believing
-5.426189	belittle
-5.426189	belittlement
-4.250098	bell
-5.426189	bellboy
-4.727219	belle
-5.426189	bellied
-5.125159	bellow
-4.384797	belly
-4.384797	belong
-4.727219	belonging
-4.824129	beloved
-3.693795	below
-4.222069	belt
-5.426189	belted
-5.426189	belting
-5.426189	belvedere
-4.125159	ben
-4.125159	bench
-5.426189	bencher
-5.426189	benching
-4.347008	bend
-3.517704	benda
-5.426189	bendable
-5.426189	bended
-5.125159	bender
-4.727219	bending
-4.426189	bene
-4.523099	beneath
-4.727219	benedict
-5.426189	benefactor
-5.426189	benefic
-4.19574	beneficial
-3.994825	beneficiary
-4.064461	benefit
-5.426189	benevolence
-5.426189	benevolent
-4.648038	beng
-5.426189	beni
-5.426189	benign
-4.581091	benjamin
-5.426189	benjy
-5.426189	bennet
-4.727219	benny
-4.727219	bent
-5.125159	bentang
-5.426189	benthos
-5.426189	benzene
-5.426189	benzoyl
-4.19574	ber
-4.083766	berat
-4.949068	beret
-5.426189	berg
-5.125159	berger
-4.426189	berlin
-5.125159	berm
-5.426189	berried
-4.523099	berry
-5.125159	berserk
-5.426189	berserker
-4.727219	berth
-4.824129	bes
-5.426189	besa
-5.426189	besan
-3.626848	beside
-4.011216	besides
-5.125159	bespectacled
-5.426189	bespoke
-3.434963	best
-5.426189	bester
-5.426189	bestow
-4.083766	bet
-4.727219	beta
-5.426189	betel
-5.125159	beth
-4.949068	betis
-4.727219	betray
-5.426189	betrayal
-5.426189	betrayer
-5.426189	betrothed
-3.517704	better
-5.125159	bettering
-5.426189	betterment
-5.426189	betters
-4.170917	betting
-4.824129	betty
-3.744948	between
-4.523099	beverage
-4.824129	beware
-5.125159	bewilder
-5.426189	bewildered
-5.426189	bewitch
-5.426189	bewitching
-5.426189	bey
-4.147436	beyond
-5.125159	bezel
-5.426189	bhat
-5.426189	biannual
-4.471947	bias
-5.125159	biasness
-5.426189	bib
-5.125159	bibb
-5.125159	bibi
-5.426189	bibliography
-5.426189	bicarbonate
-4.824129	biceps
-5.426189	bicker
-4.064461	bicycle
-4.384797	bid
-5.125159	bidder
-4.824129	bidding
-5.426189	bidet
-5.426189	bien
-3.523099	big
-5.426189	bigg
-3.907675	bigger
-3.949068	biggest
-5.426189	bight
-5.426189	bijou
-3.963791	bike
-4.19574	bikini
-5.426189	bilateral
-5.426189	bile
-4.727219	bilingual
-5.125159	bilingualism
-3.994825	bill
-5.426189	billabong
-4.727219	billboard
-5.426189	billed
-5.426189	biller
-5.426189	billet
-4.949068	billiard
-5.426189	billiards
-4.949068	billing
-4.347008	billion
-4.581091	billionaire
-4.471947	billy
-5.426189	bimonthly
-4.083766	bin
-5.125159	binary
-4.581091	bind
-4.648038	binder
-4.824129	binding
-4.648038	bing
-4.648038	binge
-4.280061	bingo
-5.426189	bino
-5.426189	binomial
-4.581091	biochemistry
-5.426189	biogen
-4.824129	biography
-5.426189	biologic
-4.222069	biological
-4.949068	biologically
-5.125159	biologist
-4.384797	biology
-5.426189	biometric
-5.426189	biometrics
-5.125159	bion
-5.426189	bioplastic
-5.426189	bios
-5.426189	biosis
-5.426189	biota
-5.426189	biotic
-4.949068	bipolar
-5.426189	birch
-3.846406	bird
-4.949068	birdie
-5.426189	birdman
-5.426189	birdy
-4.727219	biri
-3.744948	birth
-3.857987	birthday
-5.426189	birthmark
-5.125159	birthplace
-5.426189	birthright
-5.125159	bis
-4.384797	biscuit
-5.426189	bisexual
-5.125159	bishop
-5.426189	bismillah
-5.426189	bison
-4.949068	bisque
-4.824129	bistro
-3.443918	bit
-4.426189	bitch
-4.19574	bite
-5.125159	biter
-4.648038	biting
-4.648038	bitten
-4.280061	bitter
-5.426189	bitterly
-4.949068	bitterness
-4.949068	bittersweet
-5.426189	biwa
-5.125159	biweekly
-5.426189	biyearly
-4.471947	biz
-5.125159	bizarre
-5.426189	blabber
-3.613276	black
-5.426189	blackball
-4.347008	blackberry
-5.426189	blackbird
-4.523099	blackboard
-5.426189	blacker
-5.426189	blackface
-5.125159	blackfish
-4.824129	blackhead
-4.949068	blackheads
-5.426189	blackie
-5.125159	blackish
-5.125159	blackjack
-4.949068	blackmail
-4.648038	blackout
-4.949068	blacksmith
-5.426189	blackwater
-5.426189	blacky
-4.727219	bladder
-4.384797	blade
-5.426189	bladed
-4.949068	blading
-3.979031	blah
-5.125159	blair
-4.824129	blake
-4.222069	blame
-4.949068	blamed
-4.824129	blaming
-5.426189	blan
-5.426189	blanc
-5.125159	blanch
-4.648038	bland
-4.170917	blank
-5.125159	blanked
-4.426189	blanket
-5.426189	blanking
-5.125159	blankly
-5.125159	blare
-5.426189	blasphemy
-4.581091	blast
-5.125159	blasted
-5.125159	blaster
-5.125159	blasting
-5.125159	blatant
-5.125159	blatantly
-4.949068	blaze
-4.581091	blazer
-5.426189	blazing
-4.581091	bleach
-5.426189	bleached
-5.426189	bleacher
-5.426189	bleaching
-4.949068	bleak
-4.648038	bleed
-5.426189	bleeder
-3.963791	bleeding
-5.426189	blemish
-5.426189	blench
-4.250098	blend
-4.648038	blended
-4.170917	blender
-4.727219	blending
-4.426189	bless
-4.471947	blessed
-5.125159	blessedness
-4.471947	blessing
-5.426189	blight
-3.994825	blind
-4.949068	blinded
-4.824129	blinder
-4.824129	blindfold
-5.125159	blindfolded
-5.125159	blinding
-5.426189	blindless
-4.727219	blindly
-4.949068	blindness
-4.581091	blink
-5.426189	blinked
-5.426189	blinker
-4.824129	blinking
-5.426189	blinks
-5.125159	blip
-4.648038	bliss
-5.125159	blissful
-4.727219	blister
-5.426189	blistering
-5.426189	blitz
-5.426189	blizzard
-5.125159	bloat
-4.727219	bloated
-5.125159	bloatedness
-5.426189	bloating
-5.125159	blob
-5.125159	bloc
-3.662761	block
-5.426189	blockade
-5.426189	blockage
-5.125159	blockbuster
-4.581091	blocked
-5.125159	blocker
-4.949068	blockhead
-5.426189	blockhouse
-4.648038	blocking
-5.125159	bloke
-4.19574	blonde
-3.824129	blood
-4.949068	blooded
-5.426189	bloodied
-5.426189	bloodily
-4.648038	bloodline
-5.426189	bloodshed
-5.125159	bloodstain
-5.426189	bloodstained
-4.280061	bloody
-4.727219	bloom
-4.648038	bloomer
-5.426189	bloomers
-4.824129	blooming
-5.426189	bloop
-5.426189	blooper
-4.648038	blossom
-5.426189	blossomed
-5.426189	blot
-4.347008	blouse
-4.347008	blow
-5.125159	blower
-5.426189	blowfish
-5.426189	blowgun
-4.523099	blowing
-4.648038	blown
-5.426189	blowtorch
-5.426189	blub
-3.50191	blue
-5.426189	bluebeard
-4.523099	blueberry
-5.426189	bluegrass
-5.426189	blueness
-4.949068	blueprint
-5.426189	bluer
-4.222069	blues
-5.426189	bluey
-4.581091	bluff
-4.727219	bluish
-5.125159	blunder
-4.824129	blunt
-5.426189	bluntly
-5.426189	blup
-4.250098	blur
-4.949068	blurred
-5.125159	blurry
-5.426189	blurt
-4.727219	blush
-4.824129	blusher
-5.125159	blushing
-4.170917	bo
-5.426189	boa
-4.727219	boar
-3.89471	board
-4.824129	boarder
-4.523099	boarding
-5.125159	boardwalk
-4.824129	boast
-5.426189	boaster
-5.125159	boastful
-4.949068	boasting
-4.011216	boat
-5.426189	boater
-5.426189	boathouse
-4.727219	boating
-5.426189	boatman
-4.426189	bob
-5.426189	boba
-5.426189	bobbin
-5.426189	bobbing
-4.471947	bobby
-4.581091	bobo
-5.426189	bock
-5.426189	bod
-5.426189	bodhi
-5.125159	bodied
-5.426189	bodily
-3.763431	body
-4.824129	bodyguard
-5.426189	bog
-5.426189	bogan
-5.426189	bogey
-5.125159	boggle
-5.426189	boggy
-5.426189	bogie
-5.125159	bogo
-5.125159	bogus
-4.312246	boil
-4.581091	boiled
-4.824129	boiler
-4.648038	boiling
-5.426189	boisterous
-3.763431	bola
-4.648038	bold
-4.648038	bole
-4.949068	bolero
-5.426189	bolivia
-5.426189	boll
-5.426189	bolly
-4.949068	bolster
-4.727219	bolt
-5.426189	bolting
-5.125159	bolus
-4.471947	bom
-4.250098	bomb
-5.125159	bombard
-5.426189	bombardier
-5.426189	bombardment
-5.125159	bombastic
-5.125159	bombed
-4.648038	bomber
-4.949068	bombshell
-4.648038	bon
-5.125159	bonanza
-5.426189	bonce
-3.89471	bond
-5.125159	bondage
-4.581091	bonded
-5.426189	bonder
-4.312246	bonding
-4.280061	bone
-4.949068	boneless
-5.426189	boner
-5.426189	bonfire
-4.949068	bong
-5.125159	bongo
-4.949068	bonito
-5.426189	bonk
-4.648038	bonnet
-5.125159	bonny
-5.426189	bonsai
-3.670314	bonus
-5.426189	bonzer
-4.727219	boo
-5.125159	boob
-5.426189	boody
-5.426189	boohoo
-3.626848	book
-4.471947	booked
-5.426189	booker
-5.426189	bookie
-4.222069	booking
-5.426189	bookish
-4.727219	booklet
-5.426189	bookmaker
-4.523099	bookmark
-4.949068	bookshelf
-4.384797	bookshop
-4.426189	bookstore
-4.949068	bookworm
-5.426189	bool
-4.280061	boom
-5.125159	boomer
-4.824129	boomerang
-4.949068	booming
-4.426189	boon
-5.426189	boorish
-4.426189	boost
-4.727219	booster
-4.280061	boot
-4.147436	booth
-5.426189	booting
-5.426189	bootleg
-5.426189	bootlick
-4.280061	boots
-5.426189	bootstrap
-5.125159	booty
-5.125159	booze
-5.125159	bop
-5.125159	bor
-5.125159	bora
-4.250098	borak
-4.312246	border
-5.426189	bordered
-5.125159	bordering
-4.727219	borderline
-4.727219	bore
-5.426189	borealis
-5.125159	boredom
-5.426189	borg
-5.426189	boric
-3.835124	boring
-5.426189	boringly
-5.426189	boringness
-3.857987	born
-4.727219	borne
-5.426189	borough
-4.222069	borrow
-5.426189	borrower
-4.648038	borrowing
-5.125159	borsch
-5.426189	borscht
-5.125159	bosch
-5.125159	bose
-5.125159	bosom
-3.869887	boss
-5.426189	bossing
-4.949068	bossy
-4.384797	boston
-4.312246	bot
-5.426189	bota
-4.312246	botanic
-4.581091	botanical
-5.426189	botanist
-5.426189	botany
-3.613276	both
-4.10397	bother
-4.949068	bothersome
-3.979031	bottle
-4.824129	bottled
-5.426189	bottleneck
-5.426189	bottlenose
-5.426189	bottler
-5.426189	bottling
-3.792721	bottom
-5.426189	bottoming
-5.426189	bough
-3.792721	bought
-5.426189	bougie
-4.727219	boulder
-4.949068	bouldering
-4.648038	boulevard
-4.384797	bounce
-5.426189	bouncer
-4.581091	bouncing
-4.347008	bound
-4.727219	boundary
-4.949068	bounded
-4.949068	bounding
-5.426189	boundless
-4.824129	bounty
-4.824129	bouquet
-5.125159	bourbon
-5.426189	bourdon
-5.426189	bousy
-4.280061	bout
-5.426189	bovine
-4.347008	bow
-4.471947	bowel
-5.125159	bowels
-5.426189	bower
-5.426189	bowing
-4.064461	bowl
-5.125159	bowler
-4.064461	bowling
-4.727219	bowls
-3.835124	box
-4.581091	boxer
-4.384797	boxing
-5.426189	boxy
-3.670314	boy
-4.727219	boycott
-5.426189	boyish
-5.426189	bozo
-4.471947	bra
-4.824129	brace
-4.648038	bracelet
-4.727219	braces
-5.426189	bracing
-5.426189	brack
-4.581091	bracket
-4.727219	brad
-4.824129	brag
-5.426189	braggart
-4.949068	bragging
-5.125159	braid
-5.426189	braiding
-3.994825	brain
-4.949068	brainer
-4.949068	brainless
-4.581091	brains
-4.949068	brainwash
-5.426189	brainy
-5.125159	braise
-4.471947	brake
-4.949068	bran
-4.028249	branch
-5.426189	branched
-5.125159	branching
-3.89471	brand
-4.312246	branded
-4.648038	brandy
-4.648038	brass
-4.949068	brat
-4.384797	brave
-5.426189	braver
-4.824129	bravery
-5.426189	braving
-4.347008	bravo
-5.426189	brawl
-5.426189	brawn
-5.426189	brawny
-5.426189	bray
-4.280061	brazil
-4.949068	breach
-3.963791	bread
-5.426189	breadboard
-5.426189	breadbox
-5.125159	breadfruit
-5.426189	breadmaker
-5.125159	breadth
-4.949068	breadwinner
-3.763431	break
-5.426189	breakable
-5.125159	breakage
-5.125159	breakaway
-4.280061	breakdown
-4.250098	breaker
-4.028249	breakfast
-4.250098	breaking
-4.949068	breakout
-4.581091	breakthrough
-4.727219	breakup
-5.426189	bream
-4.280061	breast
-5.125159	breastfeeding
-4.147436	breath
-3.979031	breathe
-5.125159	breather
-3.701913	breathing
-4.222069	breathless
-4.727219	breathlessness
-4.824129	bred
-5.426189	bree
-5.426189	breech
-4.426189	breed
-5.426189	breeder
-4.949068	breeding
-4.471947	breeze
-5.125159	breezy
-5.125159	brent
-5.426189	bret
-5.125159	brett
-4.824129	brew
-5.426189	brewer
-5.125159	brewery
-5.426189	brewing
-5.426189	briar
-4.727219	bribe
-5.426189	bribery
-4.426189	brick
-5.426189	brickwork
-4.727219	bridal
-4.471947	bride
-4.949068	bridegroom
-4.824129	bridesmaid
-4.147436	bridge
-5.426189	bridger
-5.125159	bridging
-4.384797	brief
-4.125159	briefing
-4.523099	briefly
-5.426189	briefs
-4.727219	brigade
-4.250098	bright
-4.824129	brighten
-5.426189	brightener
-5.426189	brightening
-5.125159	brightly
-5.125159	brightness
-5.426189	brilliance
-4.648038	brilliant
-5.426189	brilliantly
-4.727219	brim
-5.426189	brimming
-5.426189	brimstone
-5.426189	brin
-5.426189	brine
-3.574931	bring
-5.426189	bringer
-4.824129	brinjal
-5.426189	brink
-5.426189	brioche
-4.523099	brisk
-5.426189	brisket
-5.125159	briskly
-5.125159	bristle
-4.949068	brit
-4.824129	brittle
-4.471947	broad
-4.523099	broadcast
-5.125159	broadcaster
-4.949068	broaden
-5.426189	broadly
-5.426189	broadness
-4.648038	broadway
-4.648038	broccoli
-4.523099	brochure
-4.949068	brock
-4.083766	broke
-4.170917	broken
-5.426189	brokenly
-5.426189	brokenness
-4.648038	broker
-4.949068	brokerage
-5.426189	broking
-5.426189	bronchiolitis
-4.949068	bronchitis
-5.426189	bronchus
-5.426189	bronco
-4.581091	bronze
-5.426189	bronzed
-4.949068	bronzer
-5.426189	bronzy
-5.426189	brooch
-5.125159	brood
-5.426189	brooding
-4.949068	broody
-4.727219	brook
-4.727219	broom
-5.426189	brose
-5.426189	brot
-4.648038	broth
-5.426189	brothel
-3.744948	brother
-4.949068	brotherhood
-4.949068	brotherly
-3.963791	brought
-4.648038	brow
-5.426189	browed
-3.670314	brown
-4.523099	brownie
-5.125159	browning
-4.347008	brownish
-5.426189	browny
-4.648038	browse
-4.581091	browser
-4.824129	browsing
-5.426189	bruin
-4.824129	bruise
-5.426189	bruising
-5.125159	brulee
-4.471947	brunch
-4.824129	brunette
-5.426189	brunt
-4.280061	brush
-5.125159	brushed
-5.426189	brusher
-4.949068	brushes
-4.949068	brushing
-5.426189	brushless
-4.824129	brutal
-5.426189	brutalize
-5.125159	brutally
-5.426189	brute
-5.426189	brutish
-4.250098	bu
-4.426189	bual
-4.147436	bubble
-4.949068	bubbling
-4.727219	bubbly
-5.426189	bubby
-4.523099	buck
-5.426189	bucker
-4.011216	bucket
-4.824129	buckle
-5.426189	buckling
-5.426189	buckwheat
-5.426189	bucky
-4.648038	bud
-5.426189	buda
-5.426189	buddhi
-5.426189	budding
-4.222069	buddy
-4.949068	budge
-4.045978	budget
-4.648038	buff
-4.581091	buffalo
-4.727219	buffer
-4.011216	buffet
-5.426189	buffy
-4.170917	bug
-5.125159	bugaboo
-4.949068	bugger
-4.824129	buggy
-5.125159	bugle
-3.979031	build
-4.949068	builder
-3.835124	building
-4.280061	built
-4.727219	bulb
-5.125159	bulge
-5.426189	bulimia
-4.312246	bulk
-4.581091	bulky
-4.471947	bull
-4.824129	bulldog
-5.426189	bulldoze
-5.426189	bulldozer
-4.471947	bullet
-5.426189	bulletin
-5.125159	bulletproof
-5.426189	bullion
-5.125159	bullish
-5.125159	bullock
-4.312246	bully
-4.581091	bullying
-4.648038	bum
-4.949068	bumble
-4.727219	bumblebee
-5.426189	bummed
-5.125159	bummer
-5.426189	bumming
-4.384797	bump
-4.426189	bumper
-4.949068	bumping
-4.949068	bumpy
-4.280061	bun
-5.426189	buna
-4.280061	bunch
-5.125159	bund
-4.347008	bundle
-5.426189	bung
-4.471947	bungalow
-4.384797	bungee
-5.426189	bungy
-4.471947	bunk
-5.125159	bunker
-4.523099	bunny
-5.426189	buntal
-4.824129	bunting
-5.426189	bunton
-4.949068	buoy
-5.426189	buoyance
-5.426189	buoyancy
-5.125159	buoyant
-4.949068	bur
-5.426189	burd
-4.347008	burden
-5.125159	burdensome
-4.824129	bureau
-4.727219	bureaucracy
-5.125159	bureaucratic
-5.426189	burette
-5.426189	burg
-5.426189	burgess
-4.949068	burglar
-5.125159	burglary
-5.125159	buri
-4.949068	burial
-4.824129	buried
-5.125159	burke
-4.10397	burn
-4.824129	burned
-4.949068	burner
-4.312246	burning
-5.426189	burnout
-4.523099	burnt
-4.824129	burp
-4.824129	burrito
-5.426189	burro
-4.949068	burrow
-5.426189	burrower
-5.426189	burry
-5.426189	bursa
-4.648038	bursary
-5.426189	burse
-4.347008	burst
-4.648038	bury
-5.125159	burying
-3.744948	bus
-5.426189	busby
-4.125159	bush
-5.125159	bushy
-3.744948	business
-5.426189	businesslike
-4.523099	businessman
-5.125159	businesswoman
-4.949068	busker
-5.426189	buss
-4.824129	bust
-4.824129	busted
-4.824129	buster
-5.125159	bustle
-5.125159	bustling
-3.882121	busy
-4.19574	busybody
-4.824129	busying
-5.426189	busyness
-2.885859	but
-4.949068	butch
-4.222069	butcher
-5.426189	butchery
-4.949068	butler
-4.347008	butt
-4.147436	butter
-5.125159	butterball
-5.125159	buttercup
-4.949068	buttered
-5.426189	butterfingers
-4.280061	butterfly
-4.949068	buttermilk
-5.426189	butternut
-5.426189	butterscotch
-4.824129	buttery
-5.426189	butting
-4.949068	buttock
-4.10397	button
-5.426189	buttoned
-4.426189	buttons
-3.413352	buy
-5.426189	buyable
-4.384797	buyer
-4.648038	buzz
-5.426189	buzzer
-5.125159	buzzing
-5.426189	buzzle
-5.125159	buzzy
-3.361731	by
-3.384796	bye
-4.648038	bypass
-5.426189	bystander
-3.336284	c
-4.250098	ca
-4.19574	cab
-5.426189	caba
-5.125159	cabana
-4.581091	cabbage
-4.648038	cabby
-4.471947	cabin
-4.581091	cabinet
-4.19574	cable
-5.426189	cabling
-5.426189	caboose
-4.949068	cacao
-4.824129	cache
-5.426189	cacophony
-4.949068	cad
-5.426189	caddie
-4.648038	cadet
-5.426189	cadi
-4.949068	cafeteria
-4.648038	caffeine
-4.19574	cage
-4.949068	caged
-5.426189	caiman
-5.125159	cain
-5.426189	cajun
-3.882121	cake
-4.949068	cakey
-4.949068	cal
-5.426189	calamansi
-5.426189	calamary
-5.125159	calamity
-4.727219	calcium
-4.125159	calculate
-4.426189	calculated
-4.727219	calculating
-4.347008	calculation
-4.824129	calculative
-4.384797	calculator
-4.949068	calculus
-4.170917	calendar
-4.648038	calender
-4.949068	calf
-4.949068	caliber
-5.426189	calibrate
-5.426189	calibration
-5.125159	calibre
-5.426189	calisthenics
-3.295855	call
-4.347008	callable
-4.280061	caller
-5.426189	calligrapher
-4.824129	calligraphy
-3.539698	calling
-5.426189	callus
-4.222069	calm
-4.949068	calmer
-5.125159	calmly
-5.125159	calmness
-5.426189	caloric
-4.648038	calorie
-5.426189	calve
-5.426189	calves
-3.921039	cam
-5.426189	camaraderie
-5.426189	camber
-3.678001	came
-4.523099	camel
-5.426189	cameo
-4.045978	camera
-4.949068	cameraman
-5.426189	camomile
-4.949068	camouflage
-3.907675	camp
-4.471947	campaign
-5.125159	campaigner
-4.824129	camper
-5.125159	campfire
-5.426189	campo
-4.384797	campus
-2.926502	can
-4.222069	canada
-4.648038	canal
-5.125159	canary
-5.426189	canasta
-3.994825	cancel
-4.727219	cancellation
-4.147436	cancer
-4.824129	cancerous
-5.426189	cand
-5.125159	candid
-4.648038	candidate
-4.471947	candle
-4.949068	candlelight
-5.426189	candlelit
-5.426189	candlenut
-5.426189	candler
-4.222069	candy
-4.384797	cane
-5.426189	canel
-5.426189	canister
-4.824129	canned
-4.949068	cannibal
-5.426189	cannibalism
-4.648038	canning
-4.727219	cannon
-3.322385	cannot
-4.824129	cannula
-5.125159	canny
-4.523099	canoe
-4.581091	canoeing
-5.426189	canoeist
-4.648038	canon
-4.824129	canopy
-5.426189	canso
-4.312246	cant
-5.426189	cantata
-4.083766	canteen
-5.426189	canto
-5.426189	canton
-5.426189	cantonal
-4.727219	cantonment
-4.471947	canvas
-4.824129	canvass
-4.648038	canyon
-3.921039	cap
-4.523099	capability
-4.426189	capable
-5.125159	capacitor
-4.471947	capacity
-4.523099	cape
-5.426189	caped
-5.125159	capes
-4.083766	capital
-4.727219	capitalism
-5.125159	capitalist
-5.426189	capitalistic
-5.426189	capitalization
-5.426189	capitalize
-5.426189	capitation
-5.426189	capless
-5.125159	caplin
-4.727219	capped
-5.426189	capper
-5.426189	capping
-5.125159	caprice
-4.949068	capsicum
-5.125159	capsize
-5.426189	capstone
-4.250098	capsule
-4.222069	captain
-4.347008	caption
-5.426189	captivate
-5.125159	captivating
-4.949068	captive
-5.125159	captivity
-4.384797	capture
-3.551128	car
-4.426189	caramel
-5.426189	caramelize
-5.426189	carat
-4.727219	caravan
-4.581091	carbo
-4.824129	carbohydrate
-4.523099	carbon
-5.426189	carboxylic
-5.125159	carcass
-5.426189	carcinogen
-3.581091	card
-5.426189	cardamom
-4.523099	cardboard
-5.426189	carded
-5.426189	cardholder
-4.648038	cardiac
-4.824129	cardigan
-5.426189	cardiologist
-5.426189	cardiovascular
-5.125159	cardo
-3.620009	care
-5.426189	careen
-3.772977	career
-5.426189	careerist
-4.471947	carefree
-4.250098	careful
-4.471947	carefully
-4.523099	careless
-5.125159	carelessly
-5.125159	carelessness
-5.125159	caress
-4.949068	caretaker
-4.581091	cargo
-5.426189	caricature
-5.426189	caries
-5.426189	carillon
-5.426189	carious
-4.824129	carl
-5.426189	carless
-5.125159	carls
-5.125159	carnage
-5.426189	carnal
-5.426189	carnally
-4.949068	carnation
-4.581091	carnival
-4.949068	carnivore
-5.426189	carnivorous
-4.581091	carol
-4.727219	caroline
-4.949068	carom
-5.426189	carp
-4.727219	carpenter
-4.949068	carpentry
-4.581091	carpet
-4.949068	carr
-4.824129	carriage
-5.426189	carriageway
-4.581091	carried
-4.648038	carrier
-5.125159	carrion
-4.10397	carrot
-3.907675	carry
-4.170917	carrying
-5.125159	carsick
-4.426189	cart
-4.727219	carte
-4.824129	cartel
-4.648038	carter
-4.727219	carton
-4.19574	cartoon
-5.426189	cartoonist
-4.824129	cartridge
-4.949068	carve
-5.426189	carven
-5.125159	carving
-3.640859	case
-5.426189	caseworker
-3.792721	cash
-4.824129	cashew
-4.312246	cashier
-5.125159	cashmere
-4.581091	casing
-4.147436	casino
-5.426189	cask
-5.125159	casket
-5.125159	cass
-5.426189	casse
-5.125159	cassia
-4.347008	cast
-5.426189	castaway
-5.125159	caste
-4.824129	caster
-4.727219	casting
-4.19574	castle
-5.426189	castor
-5.426189	castrate
-4.347008	casual
-4.727219	casually
-4.824129	casualty
-3.846406	cat
-5.125159	cataclysm
-4.949068	catalogue
-4.581091	catalyst
-5.426189	catalyze
-4.824129	catapult
-5.426189	cataract
-5.125159	catastrophe
-5.426189	catastrophic
-3.907675	catch
-4.581091	catcher
-5.426189	catchiness
-4.250098	catching
-5.125159	catchment
-4.824129	catchup
-4.471947	catchy
-5.426189	cate
-5.426189	catechism
-5.426189	categorical
-5.426189	categorization
-4.824129	categorize
-4.280061	category
-4.471947	cater
-5.125159	caterer
-4.949068	caterpillar
-4.824129	catfish
-5.426189	catharsis
-5.426189	cathect
-5.125159	cathedral
-4.581091	catheter
-5.426189	cathode
-4.648038	catholic
-5.426189	catholicism
-5.125159	cation
-4.648038	cattle
-4.949068	catty
-5.125159	catwalk
-3.994825	caught
-5.125159	cauliflower
-5.426189	causal
-5.426189	causality
-5.125159	causally
-5.125159	causation
-3.270853	cause
-4.581091	causeway
-4.648038	causing
-5.125159	caustic
-5.426189	cauterize
-4.648038	caution
-4.727219	cautious
-5.125159	cavalry
-4.426189	cave
-5.426189	caveat
-5.125159	cavendish
-5.426189	cavern
-4.727219	caviar
-5.426189	caving
-4.949068	cavity
-5.426189	cavy
-5.125159	cay
-4.949068	cayenne
-4.824129	cayman
-4.648038	ce
-4.727219	cease
-5.426189	cebur
-4.949068	cedar
-5.426189	ceilidh
-4.426189	ceiling
-4.064461	celebrate
-4.581091	celebrated
-4.312246	celebration
-5.125159	celebratory
-4.312246	celebrity
-4.727219	celery
-5.125159	celeste
-4.250098	cell
-5.426189	cella
-5.426189	cellar
-5.426189	celled
-4.949068	cello
-5.426189	cellophane
-5.125159	cellular
-4.727219	cement
-4.523099	cemetery
-4.727219	censor
-4.949068	censorship
-5.426189	censure
-4.170917	cent
-5.426189	centaur
-5.125159	centennial
-3.846406	center
-4.824129	centered
-5.426189	centerpiece
-5.125159	centigrade
-4.949068	centimeter
-4.949068	centipede
-4.083766	central
-5.426189	centrale
-5.426189	centrality
-5.426189	centralization
-5.426189	centralize
-5.426189	centrally
-5.426189	centric
-4.471947	century
-5.426189	cep
-4.949068	ceramic
-5.125159	ceramics
-5.426189	cerate
-4.824129	cere
-4.280061	cereal
-5.426189	cerebellum
-5.125159	cerebral
-5.125159	ceremonial
-4.471947	ceremony
-4.727219	ceria
-5.426189	cero
-3.744948	certain
-4.471947	certainly
-4.824129	certainty
-3.994825	certificate
-4.648038	certification
-4.471947	certified
-4.824129	certify
-4.523099	certis
-5.426189	cerulean
-5.426189	cervical
-5.125159	cervix
-5.426189	cess
-5.426189	cessation
-5.426189	cession
-5.426189	ceti
-4.471947	cha
-5.125159	chad
-4.523099	chai
-4.222069	chain
-4.949068	chained
-3.907675	chair
-4.727219	chairman
-5.426189	chairwoman
-5.426189	chais
-5.426189	chakra
-4.250098	chalet
-4.727219	chalk
-5.426189	chalker
-5.426189	chalky
-4.147436	challenge
-4.824129	challenger
-4.824129	cham
-4.727219	chamber
-5.426189	chamberlain
-5.426189	chambermaid
-5.125159	chameleon
-4.824129	champ
-4.581091	champagne
-5.426189	champaign
-4.426189	champion
-4.824129	championship
-3.869887	chance
-5.426189	chancellor
-5.426189	chancery
-4.949068	chandelier
-5.125159	chandler
-4.523099	chang
-3.50191	change
-5.426189	changeable
-5.426189	changeling
-4.824129	changer
-4.045978	channel
-5.426189	channeled
-5.426189	channeling
-5.426189	chanson
-4.581091	chant
-4.949068	chanting
-4.581091	chao
-4.581091	chaos
-4.727219	chaotic
-4.648038	chap
-4.648038	chapel
-5.426189	chaperon
-5.426189	chaperone
-5.426189	chappie
-5.426189	chaps
-5.426189	chapt
-4.384797	chapter
-4.147436	char
-5.426189	charac
-3.846406	character
-4.347008	characteristic
-5.426189	characteristically
-5.426189	characterization
-5.125159	charade
-4.581091	charcoal
-5.426189	chard
-5.426189	chare
-3.882121	charge
-5.426189	chargeable
-4.471947	charger
-4.426189	charging
-5.426189	chariot
-4.824129	charisma
-4.949068	charismatic
-4.949068	charitable
-4.222069	charity
-5.426189	chark
-5.426189	charlatan
-4.581091	charm
-5.125159	charmer
-4.384797	charming
-5.426189	charmingly
-5.426189	charr
-4.250098	chart
-4.727219	charter
-4.280061	chartered
-5.125159	charting
-4.147436	chase
-4.949068	chaser
-4.384797	chasing
-5.426189	chassis
-4.028249	chat
-5.426189	chateau
-5.125159	chatter
-4.949068	chatterbox
-5.426189	chattering
-4.523099	chatting
-4.949068	chatty
-4.949068	chauffeur
-5.426189	chauvinism
-5.426189	chauvinist
-5.426189	chauvinistic
-5.426189	chaw
-5.426189	chay
-4.581091	che
-3.792721	cheap
-4.949068	cheaply
-4.19574	cheat
-4.727219	cheater
-4.280061	cheating
-3.430554	check
-5.426189	checkable
-4.170917	checked
-4.949068	checker
-5.426189	checkerboard
-4.824129	checkered
-5.426189	checkers
-5.125159	checkmate
-4.727219	checkup
-4.523099	chee
-4.347008	cheek
-5.426189	cheekbone
-5.426189	cheekiness
-4.648038	cheeky
-4.347008	cheer
-5.125159	cheered
-4.523099	cheerful
-5.426189	cheerfulness
-4.727219	cheering
-5.426189	cheerleader
-4.949068	cheery
-3.846406	cheese
-5.125159	cheeseburger
-4.471947	cheesecake
-4.523099	cheesy
-4.384797	cheetah
-4.083766	chef
-4.250098	chemical
-5.125159	chemically
-5.426189	chemis
-4.949068	chemist
-4.125159	chemistry
-4.824129	chemotherapy
-4.426189	cheng
-4.347008	cheque
-4.581091	cherish
-4.347008	cherry
-5.125159	cherub
-4.384797	chess
-5.426189	chessman
-3.934827	chest
-4.949068	chester
-5.426189	chesterfield
-4.727219	chestnut
-5.125159	chesty
-4.824129	chevron
-5.426189	chevy
-4.347008	chew
-4.581091	chewy
-4.347008	chi
-4.727219	chia
-4.727219	chic
-4.471947	chick
-3.620009	chicken
-4.581091	chief
-5.426189	chiefly
-5.426189	chien
-5.125159	chiffon
-4.949068	chil
-3.476799	child
-5.426189	childbearing
-4.949068	childbirth
-3.846406	childhood
-4.426189	childish
-4.949068	childlike
-4.824129	chile
-4.147436	chili
-3.963791	chill
-4.727219	chilled
-5.125159	chiller
-4.523099	chilling
-5.426189	chillness
-4.824129	chilly
-5.426189	chimaera
-5.426189	chime
-5.426189	chimera
-4.824129	chimney
-4.949068	chimpanzee
-4.347008	chin
-3.685826	china
-5.426189	chinchilla
-5.125159	chine
-4.581091	ching
-5.426189	chink
-5.125159	chino
-4.312246	chip
-5.125159	chipmunk
-5.426189	chipped
-5.426189	chipping
-4.222069	chips
-5.426189	chiropractic
-5.125159	chiropractor
-5.426189	chirp
-4.471947	chit
-5.426189	chitchat
-5.426189	chitty
-5.426189	chivalrous
-5.125159	chivalry
-5.426189	chloride
-4.824129	chlorine
-5.426189	chloroform
-4.949068	cho
-5.426189	chock
-3.979031	chocolate
-3.824129	choice
-4.347008	choir
-4.250098	choke
-4.250098	choker
-4.347008	choking
-5.426189	cholecystitis
-5.426189	cholera
-4.581091	cholesterol
-4.384797	chomp
-3.640859	choose
-4.471947	choosing
-4.824129	choosy
-4.10397	chop
-5.426189	chopin
-4.824129	chopped
-4.648038	chopper
-4.523099	chopping
-4.824129	choppy
-4.824129	chopstick
-5.426189	choral
-4.727219	chord
-4.280061	chore
-5.426189	chorea
-5.125159	choreograph
-5.125159	choreographer
-4.949068	choreography
-4.648038	chorus
-4.250098	chose
-4.471947	chosen
-4.471947	chow
-5.426189	chowder
-4.471947	chrome
-5.426189	chromo
-5.426189	chromosome
-5.426189	chromotherapy
-4.727219	chronic
-5.426189	chronically
-5.125159	chronicle
-5.426189	chronograph
-5.125159	chronological
-5.426189	chrysalis
-4.949068	chrysanthemum
-4.727219	chubby
-4.648038	chuck
-5.426189	chuckle
-4.824129	chucky
-5.426189	chug
-5.125159	chulan
-5.426189	chum
-5.426189	chummy
-4.581091	chun
-4.727219	chunk
-4.824129	chunky
-4.028249	church
-5.426189	churlish
-5.125159	churn
-5.426189	churning
-4.426189	chute
-5.426189	chutney
-4.949068	cicada
-5.426189	cicely
-4.824129	cider
-4.824129	cigar
-4.347008	cigarette
-5.125159	cilia
-5.125159	cinder
-4.949068	cine
-4.19574	cinema
-4.824129	cinematic
-5.125159	cinematography
-4.824129	cinnamon
-5.426189	cinque
-5.426189	circa
-3.633797	circle
-4.471947	circled
-4.581091	circling
-4.426189	circuit
-4.426189	circular
-4.824129	circulate
-4.727219	circulation
-4.949068	circumference
-4.949068	circumstance
-5.426189	circumstantial
-5.426189	circumvent
-4.523099	circus
-5.426189	cirque
-5.426189	cirrus
-4.648038	cisco
-4.949068	cit
-5.426189	citadel
-4.824129	citation
-4.312246	cite
-4.426189	citer
-3.963791	citizen
-4.10397	citizenship
-5.125159	citrus
-3.782736	city
-5.426189	cityscape
-4.648038	civic
-5.125159	civics
-4.347008	civil
-4.824129	civilian
-5.426189	civility
-4.727219	civilization
-5.426189	civilize
-4.727219	civilized
-5.426189	civilly
-5.426189	clad
-5.426189	clag
-3.744948	claim
-4.280061	claimable
-5.426189	claimant
-5.426189	claimer
-4.648038	clam
-5.426189	clamber
-5.125159	clammy
-4.949068	clamp
-4.581091	clan
-5.426189	clandestine
-5.426189	clang
-4.471947	clap
-4.949068	clapping
-5.426189	claret
-4.581091	clarification
-4.280061	clarify
-5.125159	clarinet
-5.426189	clarinetist
-4.824129	clarity
-4.581091	clark
-4.523099	clash
-3.685826	class
-5.426189	classable
-5.426189	classer
-4.011216	classes
-4.312246	classic
-4.471947	classical
-5.426189	classically
-4.824129	classification
-4.581091	classified
-5.426189	classism
-4.250098	classmate
-4.19574	classroom
-5.426189	classwork
-4.727219	classy
-4.824129	clause
-5.426189	claustrophobia
-4.471947	claw
-5.426189	clawed
-4.384797	clay
-5.125159	claymore
-3.869887	clean
-4.280061	cleaner
-4.147436	cleaning
-4.727219	cleanliness
-5.426189	cleanly
-5.426189	cleanness
-4.648038	cleanse
-4.471947	cleanser
-4.949068	cleansing
-5.125159	cleanup
-3.857987	clear
-4.727219	clearance
-4.648038	clearer
-4.347008	clearing
-4.19574	clearly
-5.426189	cleavage
-5.426189	cleave
-4.727219	cleaver
-5.426189	clef
-5.426189	cleft
-5.426189	clemency
-4.727219	clement
-5.125159	clench
-5.125159	clerical
-4.426189	clerk
-4.426189	clever
-4.523099	cliche
-3.89471	click
-4.064461	client
-5.426189	clientele
-4.581091	cliff
-4.523099	climate
-5.426189	climatic
-4.727219	climax
-4.083766	climb
-4.648038	climber
-4.250098	climbing
-5.125159	clinch
-5.426189	cline
-4.824129	cling
-5.125159	clinging
-4.824129	clingy
-4.083766	clinic
-4.824129	clinical
-5.426189	clinician
-5.426189	clink
-5.125159	clint
-4.426189	clip
-5.426189	clipped
-4.949068	clipper
-4.648038	clips
-4.250098	clique
-5.426189	cliquish
-5.426189	clive
-5.125159	cloak
-5.426189	cloaking
-4.824129	cloakroom
-4.125159	clock
-5.125159	clocked
-4.384797	clockwise
-5.426189	clockwork
-4.949068	clog
-4.523099	clone
-3.626848	close
-4.028249	closed
-4.250098	closely
-4.949068	closeness
-4.125159	closer
-4.824129	closet
-4.581091	closure
-4.949068	clot
-4.10397	cloth
-4.824129	clothe
-3.882121	clothes
-5.426189	clotheshorse
-5.426189	clothesline
-4.250098	clothing
-4.19574	cloud
-5.125159	cloudburst
-5.125159	clouded
-5.125159	clouding
-4.727219	cloudy
-5.426189	clout
-5.426189	clouted
-5.426189	clove
-4.949068	clover
-4.581091	clown
-5.426189	cloying
-3.824129	club
-5.125159	clubber
-4.347008	clubbing
-5.426189	clubby
-5.125159	clubhouse
-5.426189	clubroom
-5.426189	cluck
-4.347008	clue
-5.125159	clump
-5.426189	clumpy
-5.426189	clumsily
-5.426189	clumsiness
-4.727219	clumsy
-5.426189	clung
-4.384797	cluster
-5.125159	clustered
-4.949068	clustering
-4.648038	clutch
-4.949068	clutter
-4.147436	coach
-4.471947	coaching
-5.426189	coagulant
-5.426189	coagulate
-5.426189	coagulation
-4.727219	coal
-5.426189	coalition
-5.426189	coaming
-4.949068	coarse
-4.147436	coast
-4.648038	coastal
-4.250098	coaster
-5.426189	coasting
-4.426189	coat
-5.125159	coated
-4.949068	coating
-5.125159	coauthor
-5.426189	coax
-5.426189	coaxing
-5.426189	cob
-5.426189	cobalt
-5.426189	cobber
-5.426189	cobble
-4.824129	cobra
-5.125159	cobweb
-4.727219	coca
-5.125159	cocaine
-5.426189	coccus
-5.426189	cochlear
-4.347008	cock
-5.426189	cockatoo
-5.426189	cocked
-5.125159	cocker
-5.426189	cockeye
-4.949068	cockle
-5.125159	cockney
-4.949068	cockpit
-4.312246	cockroach
-4.581091	cocktail
-4.523099	cocky
-4.280061	coco
-4.581091	cocoa
-4.280061	coconut
-5.426189	cocoon
-4.824129	cod
-5.426189	coddle
-3.772977	code
-5.125159	codeine
-4.523099	coder
-5.426189	codfish
-5.426189	codify
-4.949068	coe
-5.426189	coed
-5.426189	coeducational
-5.125159	coexist
-3.80294	coffee
-4.824129	coffeehouse
-5.426189	coffer
-4.581091	coffin
-5.426189	cog
-5.125159	cognition
-4.824129	cognitive
-5.426189	cognitively
-5.426189	cohabit
-5.426189	cohere
-5.426189	coherence
-4.824129	coherent
-5.426189	coherently
-5.125159	cohesion
-5.426189	cohesive
-5.426189	cohesively
-5.426189	cohesiveness
-4.581091	cohort
-4.949068	coil
-4.312246	coin
-4.824129	coincide
-4.170917	coincidence
-4.648038	coincident
-4.949068	coincidental
-4.648038	coincidentally
-4.949068	coincidently
-5.426189	coir
-4.250098	coke
-5.125159	coker
-5.426189	coking
-4.824129	col
-4.471947	cola
-5.426189	colander
-3.824129	cold
-4.727219	colder
-5.426189	coldly
-4.949068	coldness
-5.426189	cole
-4.648038	coleslaw
-5.125159	coli
-5.426189	colic
-4.581091	colin
-5.426189	coll
-4.727219	collaborate
-4.727219	collaboration
-5.426189	collaborative
-5.426189	collaborator
-4.949068	collage
-4.824129	collagen
-4.426189	collapse
-5.426189	collapsible
-4.523099	collar
-4.949068	collarbone
-5.426189	collared
-5.426189	collarless
-4.949068	collate
-4.949068	collateral
-5.426189	collation
-3.979031	colleague
-3.869887	collect
-5.426189	collectable
-4.347008	collected
-4.949068	collectible
-4.19574	collection
-4.581091	collective
-4.949068	collectively
-4.824129	collectivism
-4.648038	collector
-4.19574	college
-5.426189	collegiate
-5.426189	collet
-5.125159	collide
-5.125159	collie
-4.824129	collin
-4.824129	collins
-4.949068	collision
-5.125159	colloquial
-4.824129	colon
-4.949068	colonel
-4.949068	colonial
-5.426189	colonialism
-5.426189	colonist
-5.426189	colonize
-5.426189	colonoscopy
-4.949068	colony
-3.693795	color
-5.125159	colorado
-5.426189	coloratura
-4.523099	colored
-5.426189	colorfast
-4.648038	colorful
-5.125159	colorfully
-4.949068	coloring
-5.426189	colorize
-5.125159	colorless
-4.384797	colors
-5.426189	colossal
-3.457706	colour
-4.949068	colt
-5.426189	colugo
-5.426189	columbarium
-4.426189	column
-5.426189	columnist
-5.426189	coly
-4.523099	coma
-5.426189	comatose
-4.581091	comb
-4.581091	combat
-4.250098	combination
-4.250098	combine
-4.471947	combined
-4.648038	combing
-5.426189	combining
-5.125159	combustion
-5.426189	comby
-3.350642	come
-4.648038	comeback
-4.581091	comedian
-4.949068	comedic
-4.19574	comedy
-5.426189	comely
-4.727219	comer
-3.835124	comes
-5.426189	comet
-3.963791	comfort
-3.89471	comfortable
-4.648038	comfortably
-5.125159	comforter
-4.727219	comforting
-4.949068	comfy
-4.384797	comic
-5.125159	comical
-3.693795	coming
-4.581091	comma
-4.471947	command
-4.581091	commander
-5.125159	commanding
-4.648038	commando
-5.125159	commemorate
-5.125159	commence
-5.125159	commencement
-5.125159	commend
-5.125159	commendable
-5.426189	commendator
-4.222069	comment
-4.727219	commentary
-5.125159	commentator
-5.426189	commenter
-4.727219	commerce
-4.250098	commercial
-5.426189	commercialization
-4.949068	commercialize
-4.250098	commission
-5.426189	commissional
-4.727219	commissioner
-4.250098	commit
-4.250098	commitment
-4.222069	committee
-4.949068	commodity
-3.921039	common
-5.426189	commonality
-5.426189	commoner
-4.648038	commonly
-5.125159	commonplace
-5.426189	commons
-5.426189	commonweal
-4.384797	commonwealth
-4.824129	commotion
-4.824129	communal
-5.426189	commune
-5.125159	communicable
-4.19574	communicate
-4.727219	communicating
-4.19574	communication
-4.648038	communicative
-5.125159	communicator
-5.426189	communion
-4.727219	communism
-4.824129	communist
-5.125159	communistic
-4.028249	community
-4.949068	commute
-5.125159	commuter
-5.125159	commuting
-4.581091	compact
-5.426189	compacted
-5.426189	compactness
-5.125159	compactor
-4.471947	companion
-5.426189	companionable
-4.727219	companionship
-3.600114	company
-4.727219	comparable
-5.426189	comparably
-4.949068	comparative
-4.949068	comparatively
-3.979031	compare
-4.471947	comparison
-5.426189	compart
-4.949068	compartment
-5.426189	compartmentalize
-4.648038	compass
-4.648038	compassion
-4.824129	compassionate
-5.125159	compatibility
-4.727219	compatible
-5.125159	compel
-5.426189	compelling
-4.523099	compensate
-5.426189	compensating
-4.581091	compensation
-4.426189	compete
-4.727219	competence
-4.949068	competency
-4.727219	competent
-4.10397	competition
-4.222069	competitive
-5.125159	competitively
-4.824129	competitiveness
-4.727219	competitor
-5.125159	compilation
-4.581091	compile
-4.949068	compiler
-5.426189	complacency
-4.824129	complacent
-3.869887	complain
-5.125159	complainant
-5.125159	complainer
-4.384797	complaint
-5.426189	complaisance
-4.824129	complement
-5.426189	complementary
-4.028249	complete
-4.170917	completely
-5.426189	completeness
-5.426189	completer
-4.581091	completion
-4.250098	complex
-5.125159	complexion
-4.949068	complexity
-4.949068	compliance
-5.125159	compliant
-4.949068	complicate
-4.250098	complicated
-4.648038	complication
-4.648038	compliment
-4.824129	complimentary
-4.824129	comply
-4.727219	compo
-4.648038	component
-5.426189	compos
-4.727219	compose
-4.824129	composed
-4.949068	composer
-5.426189	composite
-4.523099	composition
-5.125159	compost
-5.426189	composure
-4.471947	compound
-5.426189	compounder
-5.125159	compounding
-4.824129	comprehend
-4.581091	comprehension
-4.648038	comprehensive
-4.824129	compress
-5.125159	compressed
-4.727219	compression
-4.949068	compressor
-5.125159	comprise
-5.426189	comprised
-4.523099	compromise
-4.949068	compromising
-5.426189	compulsion
-5.125159	compulsive
-4.280061	compulsory
-4.949068	computation
-5.125159	computational
-4.648038	compute
-3.835124	computer
-4.949068	comrade
-5.426189	comradery
-4.045978	con
-4.949068	concave
-4.949068	conceal
-5.426189	concealed
-4.523099	concealer
-4.949068	concede
-5.426189	conceded
-5.426189	conceit
-5.426189	conceited
-5.426189	conceivable
-4.824129	conceive
-4.347008	concentrate
-4.727219	concentrated
-4.250098	concentration
-4.949068	concentrator
-5.426189	concentric
-4.125159	concept
-5.125159	conception
-5.125159	conceptual
-5.426189	conceptually
-4.125159	concern
-4.384797	concerned
-4.824129	concerning
-4.028249	concert
-5.426189	concerted
-5.426189	concertgoer
-5.426189	concerto
-4.471947	concession
-5.125159	conch
-5.125159	concierge
-5.426189	conciliatory
-4.949068	concise
-5.426189	concisely
-4.727219	conclude
-5.426189	concluding
-4.426189	conclusion
-5.426189	conclusive
-5.426189	conclusively
-5.426189	concoction
-5.426189	concordance
-4.824129	concourse
-4.471947	concrete
-4.949068	concubine
-5.125159	concur
-5.426189	concurrence
-5.125159	concurrent
-4.824129	concurrently
-5.426189	concurring
-5.125159	concuss
-4.949068	concussion
-4.312246	cond
-4.648038	condemn
-5.426189	condemnation
-5.125159	condemned
-5.426189	condemning
-5.125159	condensation
-4.949068	condense
-4.648038	condensed
-5.426189	condenser
-4.581091	condescending
-5.125159	condiment
-4.045978	condition
