
\data\
ngram 1=6122
ngram 2=0
ngram 3=0

\1-grams:
-3.533205	</s>
-3.533205	<noise>
-99	<s>
-3.533205	<v-noise>
-3.533205	__Abraham_Solomon
-3.533205	__Admiralty_Greens
-3.533205	__Admiralty_Road
-3.533205	__Admiralty_West
-3.533205	__Ah_Hood_Road
-3.533205	__Aida_Street
-3.533205	__Airline_Road
-3.533205	__Airport_Cargo_Road
-3.533205	__Al_Islamiah
-3.533205	__Al_Islamic
-3.533205	__Alex_Josey
-3.533205	__Alexander_Laurie_Johnston
-3.533205	__Alexandra_Lane
-3.533205	__Alexandra_Road
-3.533205	__Aliman_Hassan
-3.533205	__Aljunied_Avenue
-3.533205	__Aljunied_Crescent
-3.533205	__Aljunied_Hussein
-3.533205	__Aljunied_Neighbourhood
-3.533205	__Aljunied_Road
-3.533205	__Alnwick_Road
-3.533205	__Amasalam_Chetty_Road
-3.533205	__Anak_Bukit
-3.533205	__Anchorvale_Drive
-3.533205	__Anchorvale_Street
-3.533205	__Ang_Mo_Kio
-3.533205	__Ang_Mo_Kio_Street
-3.533205	__Ang_Peng_Tiam
-3.533205	__Angsana_Avenue
-3.533205	__Angsana_Drive
-3.533205	__Ann_Siang_Hill
-3.533205	__Anthony_Road
-3.533205	__Arab_Street
-3.533205	__Arrival_Crescent
-3.533205	__Arts_Link
-3.533205	__Arumugam_Road
-3.533205	__Asia_Pacific
-3.533205	__Asia_Square
-3.533205	__Asimont_Lane
-3.533205	__Attap_Valley_Lane
-3.533205	__Au_Yun_Pak
-3.533205	__Auckland_Road_West
-3.533205	__Australian_International
-3.533205	__Ava_Road
-3.533205	__Avon_Road
-3.533205	__Baker_Street
-3.533205	__Bali_Lane
-3.533205	__Balmoral_Crescent
-3.533205	__Bao_Gong
-3.533205	__Bartley_Road
-3.533205	__Beach_Road
-3.533205	__Beatty_Road
-3.533205	__Bedok_Anchorvale_Crescent
-3.533205	__Bedok_Green
-3.533205	__Bedok_Lighthouse
-3.533205	__Bedok_North
-3.533205	__Bedok_Point
-3.533205	__Bedok_Points
-3.533205	__Bedok_Reservoir
-3.533205	__Bedok_Ria_Crescent
-3.533205	__Bedok_South
-3.533205	__Bedok_View
-3.533205	__Beeh_Low_See
-3.533205	__Begonia_Walk
-3.533205	__Belilios_Lane
-3.533205	__Belmont_Road
-3.533205	__Bernice_Ong
-3.533205	__Bethlehem_Bible_Presbyterian
-3.533205	__Binchang_Rise
-3.533205	__Bishan_Point
-3.533205	__Bishan_Street
-3.533205	__Blackmore_Drive
-3.533205	__Bliss_Hotel
-3.533205	__Blue_Cross
-3.533205	__Blue_Stars
-3.533205	__Bo_Seng_Avenue
-3.533205	__Boarding_House
-3.533205	__Boat_Quay
-3.533205	__Bodmin_Drive
-3.533205	__Bonham_Street
-3.533205	__Boon_Keng
-3.533205	__Boon_Lay
-3.533205	__Boon_Lay_Place
-3.533205	__Boon_Tat_Street
-3.533205	__Boon_Teck_Road
-3.533205	__Borthwick_Drive
-3.533205	__Boundary_Road
-3.533205	__Braddell_Road
-3.533205	__Brani_Drive
-3.533205	__Brani_Marine
-3.533205	__Brani_Way
-3.533205	__Bridport_Avenue
-3.533205	__Bright_Hill
-3.533205	__Bristol_Road
-3.533205	__Buangkok_View
-3.533205	__Bukit_Batok
-3.533205	__Bukit_Batok_Avenue
-3.533205	__Bukit_Batok_Avenue_West
-3.533205	__Bukit_Batok_Central
-3.533205	__Bukit_Batok_Central_Link
-3.533205	__Bukit_Batok_Crescent
-3.533205	__Bukit_Batok_East
-3.533205	__Bukit_Batok_East_Avenue
-3.533205	__Bukit_Batok_Road
-3.533205	__Bukit_Batok_Street
-3.533205	__Bukit_Batok_West
-3.533205	__Bukit_Batok_West_Avenue
-3.533205	__Bukit_Chandu
-3.533205	__Bukit_Ho_Swee_Link
-3.533205	__Bukit_Manis_Road
-3.533205	__Bukit_Merah
-3.533205	__Bukit_Merah_View
-3.533205	__Bukit_Mugliston
-3.533205	__Bukit_Sedap_Road
-3.533205	__Bukit_Teresa_Close
-3.533205	__Bukit_Timah
-3.533205	__Bukit_Timah_Avenue
-3.533205	__Bukit_Timah_Link
-3.533205	__Bukit_Timah_Plaza
-3.533205	__Bukit_Timah_Road
-3.533205	__Bukit_Tinggi_Road
-3.533205	__Burmah_Road
-3.533205	__Burmese_Buddhist
-3.533205	__Bury_Road
-3.533205	__Buyong_Road
-3.533205	__Canberra_View
-3.533205	__Canning_Lane
-3.533205	__Canning_Rise
-3.533205	__Cantonment_Complex
-3.533205	__Carisbrooke_Grove
-3.533205	__Carl_Alexander
-3.533205	__Carlton_Avenue
-3.533205	__Carnation_Drive
-3.533205	__Cashew_Crescent
-3.533205	__Cashew_Road
-3.533205	__Cassia_Crescent
-3.533205	__Ceylon_Road
-3.533205	__Chai_Chee
-3.533205	__Chai_Chee_Drive
-3.533205	__Chai_Chee_Street
-3.533205	__Chan_Chun_Sing
-3.533205	__Chan_Sek_Keong
-3.533205	__Chancery_Lane
-3.533205	__Chang_Ziang
-3.533205	__Changi_Business_Park_Vista
-3.533205	__Changi_Coast
-3.533205	__Changi_East_Drive
-3.533205	__Changi_East_Road
-3.533205	__Changi_South_Lane
-3.533205	__Changi_Village_Road
-3.533205	__Changkat_Changi
-3.533205	__Chatsworth_Road
-3.533205	__Cheang_Hong_Lim_Place
-3.533205	__Cheang_Hong_Lim_Street
-3.533205	__Chencharu_Lane
-3.533205	__Chencharu_Link
-3.533205	__Cheo_Kim_Ban
-3.533205	__Chestnut_Crescent
-3.533205	__Chew_Kheng_Chuan
-3.533205	__Chin_Bee_Road
-3.533205	__Chin_Cheng_Avenue
-3.533205	__Chin_Chew_Street
-3.533205	__Chin_Swee
-3.533205	__China_Street
-3.533205	__Chinatown_Complex
-3.533205	__Chinatown_Hotel
-3.533205	__Chinatown_Point
-3.533205	__Chinese_Garden
-3.533205	__Chinese_Garden_Road
-3.533205	__Choa_Chu_Kang
-3.533205	__Choa_Chu_Kang_Loop
-3.533205	__Choa_Chu_Kang_West
-3.533205	__Chong_Pang
-3.533205	__Chong_Pang_Combined
-3.533205	__Chong_You_Fook_Charles
-3.533205	__Chong_Zheng
-3.533205	__Choon_Guan_Street
-3.533205	__Choor_Singh_Sidhu
-3.533205	__Christalite_Methodist
-3.533205	__Christopher_Henry_Rothwell
-3.533205	__Chu_Siang_Tong
-3.533205	__Chuan_Hoe_Avenue
-3.533205	__Chuan_Walk
-3.533205	__Chulia_Street
-3.533205	__Chwee_Chian_View
-3.533205	__Circular_Road
-3.533205	__Claymore_Road
-3.533205	__Cleantech_View
-3.533205	__Clementi_Street
-3.533205	__Clive_Street
-3.533205	__Clunny_Hill
-3.533205	__Colchester_Grove
-3.533205	__College_Of_Medicine
-3.533205	__Collyer_Quay
-3.533205	__Compassvale_Drive
-3.533205	__Compassvale_Road
-3.533205	__Coney_Island
-3.533205	__Connexis_South
-3.533205	__Constance_Singam
-3.533205	__Cook_Street
-3.533205	__Copeland_Avenue
-3.533205	__Copthorne_King'S
-3.533205	__Corfe_Place
-3.533205	__Corporation_Road
-3.533205	__Countryside_Grove
-3.533205	__Countryside_View
-3.533205	__Court_Road
-3.533205	__Covenant_Community_Methodist
-3.533205	__Craig_Road
-3.533205	__Cranborne_Road
-3.533205	__Creek_Mangrove
-3.533205	__Croucher_Road
-3.533205	__Crowhurst_Drive
-3.533205	__Cuff_Road
-3.533205	__Cuscaden_Walk
-3.533205	__Da_Bo_Gong
-3.533205	__Daffodil_Drive
-3.533205	__Dahan_Road
-3.533205	__Dairy_Farm
-3.533205	__Dairy_Farm_Crescent
-3.533205	__Dalkeith_Road
-3.533205	__Darrell_Ang
-3.533205	__Dawson_North_Spring
-3.533205	__Dedap_Road
-3.533205	__Delta_Avenue
-3.533205	__Depot_Close
-3.533205	__Depot_Walk
-3.533205	__Devan_Nair
-3.533205	__Dimensions_International
-3.533205	__Dinding_Place
-3.533205	__Dock_Road_East
-3.533205	__Dock_Road_West
-3.533205	__Douglas_Hamilton
-3.533205	__Dover_Drive
-3.533205	__Drake_Avenue
-3.533205	__Drake_Lane
-3.533205	__Dunlop_Street
-3.533205	__Duxton_Road
-3.533205	__East_Avenue
-3.533205	__East_Coast_Avenue
-3.533205	__East_Spring
-3.533205	__Eastern_Health_Alliance
-3.533205	__Eau_Thermale_Avene
-3.533205	__Edgware_Road
-3.533205	__Edmund_Blundell
-3.533205	__Edmund_Chen
-3.533205	__Edwin_Browns
-3.533205	__Ee_Teow_Leng_Road
-3.533205	__Elias_Green
-3.533205	__Elias_Park_Avenue
-3.533205	__Ellice_Handy
-3.533205	__Empress_Road
-3.533205	__Eng_Hoon_Street
-3.533205	__Eng_Kong_Road
-3.533205	__Eng_Neo_Avenue
-3.533205	__Ernani_Street
-3.533205	__Esther_Tan
-3.533205	__Eu_Yee_Ming_Richard
-3.533205	__Eunos_Avenue
-3.533205	__Evolution_Garden_Walk
-3.533205	__Faber_Walk
-3.533205	__Fairway_Club
-3.533205	__Fairy_Point_Hill
-3.533205	__Faith_Methodist
-3.533205	__Faith_Sanctuary_Garden_Avenue
-3.533205	__Famous_Amos
-3.533205	__Fan_Yoong_Road
-3.533205	__Farrer_Garden
-3.533205	__Farrer_Park
-3.533205	__Fernvale_Lane
-3.533205	__Fire_Station
-3.533205	__Flint_Street
-3.533205	__Florence_Road
-3.533205	__Flower_Road
-3.533205	__Fo_Shan_Ting
-3.533205	__Foch_Road
-3.533205	__Folkestone_Road
-3.533205	__Fortune_Students
-3.533205	__Fourth_Street
-3.533205	__Francis_Thomas_Drive
-3.533205	__Fuk_Tak_Chi
-3.533205	__Fullerton_Bay
-3.533205	__Fulton_Avenue
-3.533205	__Fusionopolis_Walk
-3.533205	__Gallop_Park
-3.533205	__Gallop_Road
-3.533205	__Gambir_Walk
-3.533205	__Gan_Eng_Seng
-3.533205	__Gateway_Avenue
-3.533205	__Gateway_Inn
-3.533205	__George_Nigel
-3.533205	__Gerald_Crescent
-3.533205	__Geylang_Bahru
-3.533205	__Geylang_Bahru_Lane
-3.533205	__Geylang_Bahru_Terrace
-3.533205	__Geylang_East_Avenue
-3.533205	__Geylang_East_Central
-3.533205	__Geylang_Lorong
-3.533205	__Geylang_Lorong_Labang
-3.533205	__Geylang_Methodist
-3.533205	__Geylang_Methodist_School
-3.533205	__Geylang_Road
-3.533205	__Geylang_Serai
-3.533205	__Geylang_Square
-3.533205	__Geylang_United
-3.533205	__Giant_Spring
-3.533205	__Gibraltar_Crescent
-3.533205	__Gibson_Hill
-3.533205	__Gilstead_Road
-3.533205	__Giok_Hong_Tian
-3.533205	__Goldhill_Place
-3.533205	__Gopeng_Street
-3.533205	__Gordon_Arthur_Ransome
-3.533205	__Grace_Walk
-3.533205	__Great_World
-3.533205	__Green_Kiwi_Backpacker
-3.533205	__Green_Taipei
-3.533205	__Green_Zeng
-3.533205	__Greendale_Rise
-3.533205	__Greenfield_Drive
-3.533205	__Greenridge_Crescent
-3.533205	__Greenwich_Drive
-3.533205	__Grove_Crescent
-3.533205	__Guillemard_Lane
-3.533205	__Guillemard_Road
-3.533205	__Gul_Lane
-3.533205	__Gul_Street
-3.533205	__Guok_Avenue
-3.533205	__Gurkha_Contingent
-3.533205	__Hai_Sing_Crescent
-3.533205	__Haigsville_Drive
-3.533205	__Haji_Lane
-3.533205	__Halifax_Road
-3.533205	__Hamilton_Place
-3.533205	__Hampstead_Garden
-3.533205	__Hang_Chang_Chieh
-3.533205	__Happy_Hotel
-3.533205	__Harlyn_Road
-3.533205	__Harrison_Road
-3.533205	__Havelock_Road
-3.533205	__Hiang_Foo_Siang_Temple
-3.533205	__Hillview_Avenue
-3.533205	__Hilton_International
-3.533205	__Hindhede_Road
-3.533205	__Hindoo_Road
-3.533205	__Ho_Ching_Road
-3.533205	__Ho_Lee_Ling
-3.533205	__Ho_Ling
-3.533205	__Hock_Chuan
-3.533205	__Holland_Grove_Lane
-3.533205	__Holland_Hill
-3.533205	__Holland_Village
-3.533205	__Home_Team_Academy
-3.533205	__Hong_Kah
-3.533205	__Hong_San
-3.533205	__Hospital_Avenue
-3.533205	__Hougang_Avenue
-3.533205	__Hougang_One
-3.533205	__How_Sun_Drive
-3.533205	__How_Sun_Road
-3.533205	__How_Sun_Walk
-3.533205	__Hsu_Tse_Kwang
-3.533205	__Hubert_Hill
-3.533205	__Hume_Avenue
-3.533205	__Hussein_Aljunied
-3.533205	__Hwee_Kuan
-3.533205	__Hythe_Road
-3.533205	__Imbiah_Walk
-3.533205	__Inderjit_Singh
-3.533205	__Inggu_Road
-3.533205	__Institute_Of_Engineer_Singapore
-3.533205	__International_Student_Support
-3.533205	__Ipoh_Lane
-3.533205	__Iqbal_Avenue
-3.533205	__Irving_Place
-3.533205	__Jalan_Anak_Bukit
-3.533205	__Jalan_Azam'S
-3.533205	__Jalan_Baiduri
-3.533205	__Jalan_Bangsawan
-3.533205	__Jalan_Basong
-3.533205	__Jalan_Batu_Ubin
-3.533205	__Jalan_Bena
-3.533205	__Jalan_Berjaya
-3.533205	__Jalan_Berseri
-3.533205	__Jalan_Binja
-3.533205	__Jalan_Binjai
-3.533205	__Jalan_Boon_Lay
-3.533205	__Jalan_Bumbong
-3.533205	__Jalan_Bunga_Rampai
-3.533205	__Jalan_Bungar
-3.533205	__Jalan_Chengkek
-3.533205	__Jalan_Dondang_Sayang
-3.533205	__Jalan_Dua
-3.533205	__Jalan_Dusun
-3.533205	__Jalan_Enam
-3.533205	__Jalan_Gemala
-3.533205	__Jalan_Girang
-3.533205	__Jalan_Greja
-3.533205	__Jalan_Hajijah
-3.533205	__Jalan_Hari_Raya
-3.533205	__Jalan_Jeruju
-3.533205	__Jalan_Jong
-3.533205	__Jalan_Kampong_Chantek
-3.533205	__Jalan_Kampong_Siglap
-3.533205	__Jalan_Kayu_Manis
-3.533205	__Jalan_Kechil
-3.533205	__Jalan_Keli
-3.533205	__Jalan_Kemaman
-3.533205	__Jalan_Keruing
-3.533205	__Jalan_Kesoma
-3.533205	__Jalan_Khairuddin
-3.533205	__Jalan_Klapa
-3.533205	__Jalan_Kledek
-3.533205	__Jalan_Klinik
-3.533205	__Jalan_Kwok_Min
-3.533205	__Jalan_Lana
-3.533205	__Jalan_Langgar_Bedok
-3.533205	__Jalan_Lapang
-3.533205	__Jalan_Layang_Layang
-3.533205	__Jalan_Lembah_Bedok
-3.533205	__Jalan_Lempeng
-3.533205	__Jalan_Lengkok
-3.533205	__Jalan_Lengkok_Sembawang
-3.533205	__Jalan_Limau_Bali
-3.533205	__Jalan_Limau_Nipis
-3.533205	__Jalan_Limau_Purut
-3.533205	__Jalan_Limbok
-3.533205	__Jalan_Mamam
-3.533205	__Jalan_Mangkok
-3.533205	__Jalan_Manis
-3.533205	__Jalan_Mastuli
-3.533205	__Jalan_Membina
-3.533205	__Jalan_Mempurong
-3.533205	__Jalan_Mengkudu
-3.533205	__Jalan_Mesra
-3.533205	__Jalan_Minggu
-3.533205	__Jalan_Minyak
-3.533205	__Jalan_Noordin
-3.533205	__Jalan_Novena
-3.533205	__Jalan_Nuri
-3.533205	__Jalan_Paras
-3.533205	__Jalan_Pari_Kikis
-3.533205	__Jalan_Pelangi
-3.533205	__Jalan_Pelatina
-3.533205	__Jalan_Pelatok
-3.533205	__Jalan_Pelepah
-3.533205	__Jalan_Pelikat
-3.533205	__Jalan_Peradun
-3.533205	__Jalan_Pinang
-3.533205	__Jalan_Puteri
-3.533205	__Jalan_Rajah
-3.533205	__Jalan_Rebana
-3.533205	__Jalan_Remis
-3.533205	__Jalan_Rendang
-3.533205	__Jalan_Rukam
-3.533205	__Jalan_Sabit
-3.533205	__Jalan_Seh_Chuan
-3.533205	__Jalan_Selamat
-3.533205	__Jalan_Selimang
-3.533205	__Jalan_Senang
-3.533205	__Jalan_Sendudok
-3.533205	__Jalan_Senyum
-3.533205	__Jalan_Setia
-3.533205	__Jalan_Shaer
-3.533205	__Jalan_Siap
-3.533205	__Jalan_Simpang_Bedok
-3.533205	__Jalan_Sukachita
-3.533205	__Jalan_Sungei_Poyan
-3.533205	__Jalan_Tan_Tock_Seng
-3.533205	__Jalan_Tanah
-3.533205	__Jalan_Tanah_Rata
-3.533205	__Jalan_Tanjong
-3.533205	__Jalan_Tari_Lilin
-3.533205	__Jalan_Tari_Zapin
-3.533205	__Jalan_Tarum
-3.533205	__Jalan_Tenang
-3.533205	__Jalan_Tenteram
-3.533205	__Jalan_Tepong
-3.533205	__Jalan_Tiga_Ratus
-3.533205	__Jalan_Ulu_Seletar
-3.533205	__Jalan_Ulu_Sembawang
-3.533205	__Jalan_Wajek
-3.533205	__Jalan_Yasin
-3.533205	__Jalan_Zamrud
-3.533205	__Jamaica_Road
-3.533205	__Janet_Lim
-3.533205	__Janil_Puthucheary
-3.533205	__Jervois_Hill
-3.533205	__Ji_Huang_Kok
-3.533205	__Jiak_Chuan_Road
-3.533205	__Joan_Road
-3.533205	__Joanne_Soo
-3.533205	__John_Fearns_Nicolls
-3.533205	__John_Le_Cain
-3.533205	__John_Morrice
-3.533205	__Joo_Avenue
-3.533205	__Joo_Koon_Crescent
-3.533205	__Jula_Juli
-3.533205	__Junction_Nine
-3.533205	__Jupiter_Road
-3.533205	__Jurong_Bird
-3.533205	__Jurong_East_Avenue
-3.533205	__Jurong_Island
-3.533205	__Jurong_Port
-3.533205	__Jurong_West
-3.533205	__Jurong_West_Avenue
-3.533205	__Jurong_West_Central
-3.533205	__Kaki_Bukit
-3.533205	__Kallang_Airport_Drive
-3.533205	__Kampong_Ampat
-3.533205	__Kampong_Arang_Road
-3.533205	__Kampong_Bahru
-3.533205	__Kampong_Bahru_Road
-3.533205	__Kampong_Bugis
-3.533205	__Kampong_Bugis_Crescent
-3.533205	__Kampong_Bukit_Coffee
-3.533205	__Kampong_Chai_Chee
-3.533205	__Kampong_Eunos
-3.533205	__Kampong_Glam
-3.533205	__Kampong_Java
-3.533205	__Kampong_Kapor_Road
-3.533205	__Kampong_Kayu_Road
-3.533205	__Kampong_Kembangan
-3.533205	__Kampong_Sireh
-3.533205	__Kampong_Sungai_Tiga
-3.533205	__Kampong_Ubi
-3.533205	__Kampong_Wak_Hassan
-3.533205	__Kampung_Glam
-3.533205	__Kampung_Melayu
-3.533205	__Katmandu_Road
-3.533205	__Kay_Siang_Road
-3.533205	__Keat_Hong_Link
-3.533205	__Kebun_Baru
-3.533205	__Keck_Seng
-3.533205	__Kee_Seng_Street
-3.533205	__Kee_Sun_Avenue
-3.533205	__Keene_Road
-3.533205	__Keng_Lee_Road
-3.533205	__Kent_Ridge_Crescent
-3.533205	__Kent_Ridge_Drive
-3.533205	__Kent_Road
-3.533205	__Kenya_Crescent
-3.533205	__Keppel_Bay
-3.533205	__Keramat_Road
-3.533205	__Kerong_Walk
-3.533205	__Kew_Avenue
-3.533205	__Kew_Walk
-3.533205	__Khaw_Boon_Wan
-3.533205	__Kian_Teck_Road
-3.533205	__Kiew_Sian_King
-3.533205	__Kim_Chuan_Road
-3.533205	__Kim_Hong
-3.533205	__Kim_Keat
-3.533205	__Kim_Seng
-3.533205	__Kim_Seng_Road
-3.533205	__Kim_Tian_Place
-3.533205	__Kinara_Lane
-3.533205	__Kismis_Road
-3.533205	__Kitchener_Road
-3.533205	__Klang_Road
-3.533205	__Koh_Mui_Hiang
-3.533205	__Koh_Seow_Chuan
-3.533205	__Kouo_Shang_Wei
-3.533205	__Kranji_Commonwealth
-3.533205	__Kranji_Crescent
-3.533205	__Kreta_Ayer
-3.533205	__Kuang_Chee_Tng
-3.533205	__Kwan_Im_Tng
-3.533205	__Kwan_Imm_See
-3.533205	__Kwong_Min_Road
-3.533205	__Kwong_Wai_Siew
-3.533205	__La_Mode
-3.533205	__Lam_Pin_Min
-3.533205	__Lambeth_Walk
-3.533205	__Larkhill_Road
-3.533205	__Lau_Kuo_Kwong_Robert
-3.533205	__Lavender_Street
-3.533205	__Le_Peranakan
-3.533205	__Lee_Boon_Ngan
-3.533205	__Lee_Kong_Chian
-3.533205	__Lee_Kong_Yan
-3.533205	__Lee_Shih_Shiong_Peter
-3.533205	__Lempeng_Drive
-3.533205	__Leng_Chai_Chee
-3.533205	__Lengkok_Angsa
-3.533205	__Lengkok_Lima
-3.533205	__Lengkok_Satu
-3.533205	__Lengkok_Satu_Sago_Street
-3.533205	__Lengkong_Dua
-3.533205	__Lentor_Way
-3.533205	__Leo_Drive
-3.533205	__Lew_Lian_Vale
-3.533205	__Lewis_Road
-3.533205	__Li_Hui_Cheng
-3.533205	__Liane_Road
-3.533205	__Liang_Court
-3.533205	__Liao_Yingru
-3.533205	__Lichi_Avenue
-3.533205	__Lien_Ying_Chow_Drive
-3.533205	__Lilac_Road
-3.533205	__Lilliputt_Indoor_Mini_Golf
-3.533205	__Lily_Avenue
-3.533205	__Lim_Ah_Pin_Road
-3.533205	__Lim_Ah_Woo_Road
-3.533205	__Lim_Chong_Pang
-3.533205	__Lim_Chu_Kang
-3.533205	__Lim_Chu_Kang_Lane
-3.533205	__Lim_Lee
-3.533205	__Lim_Teck_Boo_Road
-3.533205	__Lim_Teck_Kim_Road
-3.533205	__Lim_Tua_Tow_Road
-3.533205	__Limau_Garden
-3.533205	__Lin_Tan
-3.533205	__Little_Road
-3.533205	__Lloyd_Road
-3.533205	__Loh_Lik_Peng
-3.533205	__Lornie_Walk
-3.533205	__Lorong_Abu_Talib
-3.533205	__Lorong_Bachok
-3.533205	__Lorong_Batawi
-3.533205	__Lorong_Buangkok
-3.533205	__Lorong_Gambas
-3.533205	__Lorong_Kembang
-3.533205	__Lorong_Kilat_Pek_Kio
-3.533205	__Lorong_Lew_Lian
-3.533205	__Lorong_Mesu
-3.533205	__Lorong_Pasu
-3.533205	__Lorong_Paya_Lebar
-3.533205	__Lorong_Pendek
-3.533205	__Lorong_Pisang_Asam
-3.533205	__Lorong_Pisang_Batu
-3.533205	__Lorong_Sarina_D'Leedon
-3.533205	__Lorong_Siglap
-3.533205	__Lorong_Sinaran
-3.533205	__Louis_Chen
-3.533205	__Lower_Seletar_Close
-3.533205	__Lower_Seletar_Reservoir
-3.533205	__Loyang_Street
-3.533205	__Lucy_Tan
-3.533205	__Lutheran_Road
-3.533205	__Macalister_Road
-3.533205	__Macpherson_Road
-3.533205	__Macritchie_Reservoir
-3.533205	__Maggie_Teng
-3.533205	__Mah_Bow_Tan
-3.533205	__Management_Development_Institute_Of_Singapore
-3.533205	__Mandai_Tekong
-3.533205	__Mandarin_Gardens
-3.533205	__Manila_Street
-3.533205	__Maple_Avenue
-3.533205	__Margate_Road
-3.533205	__Marina_Bay
-3.533205	__Marina_Bay_Sands
-3.533205	__Marina_One
-3.533205	__Marina_Promenade
-3.533205	__Marina_Way
-3.533205	__Marine_Parade
-3.533205	__Marine_Parade_Road
-3.533205	__Maris_Stella
-3.533205	__Maritime_Square
-3.533205	__Marshall_Lane
-3.533205	__Marsiling_Crescent
-3.533205	__Marsiling_Drive
-3.533205	__Marsiling_Neighbourhood
-3.533205	__Marsiling_Rise
-3.533205	__Marsiling_Road
-3.533205	__Martin_Road
-3.533205	__Masjid_Alkaff
-3.533205	__Mayflower_Way
-3.533205	__Medical_Drive
-3.533205	__Mei_Chin_Road
-3.533205	__Mei_Hwan_Drive
-3.533205	__Meng_Suan_Road
-3.533205	__Meranti_Avenue
-3.533205	__Merlimau_Place
-3.533205	__Meteorological_Services_Singapore
-3.533205	__Methodist_Girls'
-3.533205	__Michelle_Lim
-3.533205	__Middlesex_Road
-3.533205	__Miller_Street
-3.533205	__Miltonia_Link
-3.533205	__Mimosa_Vale
-3.533205	__Monk'S_Hill_Road
-3.533205	__Montreal_Link
-3.533205	__Moonbeam_Drive
-3.533205	__Moonbeam_Walk
-3.533205	__Moral_Welfare
-3.533205	__Moreton_Close
-3.533205	__Morgan_Chua
-3.533205	__Moriah_Bible_Presby
-3.533205	__Mornington_Crescent
-3.533205	__Mount_Faber_Loop
-3.533205	__Mount_Faber_Road
-3.533205	__Movenpick_Heritage
-3.533205	__Muhammadiyah_Welfare
-3.533205	__Mulberry_Avenue
-3.533205	__Muswell_Hill
-3.533205	__My_Saviour'S
-3.533205	__N_Palanivelu
-3.533205	__Nagore_Dargah
-3.533205	__Namly_Rise
-3.533205	__Nan_Chiau
-3.533205	__Nanyang_Avenue
-3.533205	__Nanyang_Girls'
-3.533205	__Nanyang_Poly_Drive
-3.533205	__Nanyang_Valley
-3.533205	__Napier_Road
-3.533205	__Nasi_Goreng
-3.533205	__Natalie_Hennedige
-3.533205	__National_Arts_Council
-3.533205	__National_Equestrian_Centre
-3.533205	__National_Neuroscience_Institute
-3.533205	__National_Neuroscience_Institute_Of_Singapore
-3.533205	__Nativity_Of_The_Blessed_Virgin_Mary_Concord
-3.533205	__Nee_Soon
-3.533205	__Nee_Soon_East
-3.533205	__Neo_Tiew_Lane
-3.533205	__Neo_Tiew_Road
-3.533205	__Nepal_Link
-3.533205	__Newton_Cirus
-3.533205	__Newton_Life
-3.533205	__Nexus_International_School
-3.533205	__Ng_Chee_Meng
-3.533205	__North_Buona_Vista_Drive
-3.533205	__North_Spring
-3.533205	__North_Vista
-3.533205	__North_West
-3.533205	__Northshore_Drive
-3.533205	__Northshore_Link
-3.533205	__Oak_Avenue
-3.533205	__Ocean_Way
-3.533205	__Office_Road
-3.533205	__Ogilvy_Centre
-3.533205	__Old_Birdcage_Walk
-3.533205	__Old_Cathay
-3.533205	__Old_Choa_Chu_Kang_Road
-3.533205	__Old_Hill_Street
-3.533205	__Old_Terminal_Lane
-3.533205	__Old_Upper_Thomson
-3.533205	__Omar_Ali
-3.533205	__Omar_Khayyam_Avenue
-3.533205	__One_Farrer
-3.533205	__One_George_Street
-3.533205	__One_North_Avenue
-3.533205	__One_North_Link
-3.533205	__One_Tree_Hill
-3.533205	__Onitsuka_Tiger
-3.533205	__Onraet_Road
-3.533205	__Orchard_Bel_Air
-3.533205	__Orchard_Point
-3.533205	__Orchard_Spring
-3.533205	__Orchard_Spring_Lane
-3.533205	__Orchard_Turn
-3.533205	__Orchid_Park
-3.533205	__Oriole_Crescent
-3.533205	__Outram_Park
-3.533205	__Oxford_Road
-3.533205	__Palm_Avenue
-3.533205	__Palm_Road
-3.533205	__Pan_Pacific
-3.533205	__Pan_Shou
-3.533205	__Pandan_Avenue
-3.533205	__Pang_Seng_Road
-3.533205	__Park_Avenue
-3.533205	__Parry_Avenue
-3.533205	__Pasir_Panjang_Road
-3.533205	__Pasir_Panjang_View
-3.533205	__Pasir_Ris
-3.533205	__Pasir_Ris_Road
-3.533205	__Pasir_Ris_View
-3.533205	__Pasir_Ris_Way
-3.533205	__Paterson_Road
-3.533205	__Paya_Lebar
-3.533205	__Paya_Lebar_Place
-3.533205	__Paya_Ubi
-3.533205	__Peace_Centre
-3.533205	__Peakville_Avenue
-3.533205	__Peakville_Grove
-3.533205	__Pebble_Lane
-3.533205	__Peck_San_Theng
-3.533205	__Peck_Seah_Street
-3.533205	__Peirce_Hill
-3.533205	__Pemimpin_Drive
-3.533205	__Penang_Road
-3.533205	__Peng_Kang_Avenue
-3.533205	__Peng_Nguan
-3.533205	__Peninsula_Plaza
-3.533205	__Penjuru_Road
-3.533205	__Perahu_Road
-3.533205	__Percival_Road
-3.533205	__Pereira_Road
-3.533205	__Perumal_Govindaswamy
-3.533205	__Perumal_Road
-3.533205	__Ping_Yi
-3.533205	__Platina_Road
-3.533205	__Plaza_Singapura
-3.533205	__Poh_Ern_Shih
-3.533205	__Poh_Huat_Road
-3.533205	__Poh_Jay
-3.533205	__Post_Florence_Road
-3.533205	__Prince_Of_Wales_Road
-3.533205	__Prinsep_Street
-3.533205	__Prome_Road
-3.533205	__Puat_Jit_Buddhist
-3.533205	__Pulau_Ubin
-3.533205	__Punggol_Avenue
-3.533205	__Qing_De_Gong
-3.533205	__Queen_Elizabeth_Walk
-3.533205	__Radin_Mas
-3.533205	__Raffles_Place
-3.533205	__Rahayu_Mahzam
-3.533205	__Rahim_Omar
-3.533205	__Rail_Mall
-3.533205	__Rajabali_Jumabhoy
-3.533205	__Rambutan_Road
-3.533205	__Rasok_Drive
-3.533205	__Rebecca_Chua
-3.533205	__Red_Cross
-3.533205	__Red_Swastika
-3.533205	__Redhill_Road
-3.533205	__Redwood_Grove
-3.533205	__Revival_Centre
-3.533205	__Richard_Eric_Holttum
-3.533205	__Ring_Road
-3.533205	__Rita_Zahara
-3.533205	__River_City
-3.533205	__River_Safari
-3.533205	__River_Valley
-3.533205	__Riverina_Walk
-3.533205	__Rivervale_Plaza
-3.533205	__Robert_Soon
-3.533205	__Robert_V_Chandran_Way
-3.533205	__Robin_Tessensohn
-3.533205	__Robinson_Road
-3.533205	__Rochor_Kongsi
-3.533205	__Rochor_Road
-3.533205	__Rosaline_Chan_Pang
-3.533205	__Ruby_Lane
-3.533205	__Russels_Road
-3.533205	__Safra_Jurong
-3.533205	__Safra_Punggol
-3.533205	__Saint_Helier'S_Avenue
-3.533205	__Saint_Hilda'S
-3.533205	__Saint_James
-3.533205	__Saint_Nicholas_View
-3.533205	__Saint_Paul'S
-3.533205	__Saint_Stephen'S
-3.533205	__Saint_Wilfred_Road
-3.533205	__Saint_Xavier'S
-3.533205	__Saint_Xavier'S_Lane
-3.533205	__Sakra_Road
-3.533205	__Sakya_Tenphel_Ling
-3.533205	__Sam_Kee
-3.533205	__Sandilands_Road
-3.533205	__Science_Park
-3.533205	__Sea_Breeze_Grove
-3.533205	__Seah_Mei_Lin
-3.533205	__Secondary_School
-3.533205	__Segar_Close
-3.533205	__Segar_Kampong_Arang_Road
-3.533205	__Selarang_Road
-3.533205	__Seletar_Close
-3.533205	__Seletar_Club
-3.533205	__Seletar_Club_Road
-3.533205	__Seletar_Court
-3.533205	__Seletar_East
-3.533205	__Seletar_Green_Avenue
-3.533205	__Seletar_Hill
-3.533205	__Seletar_Hill_Drive
-3.533205	__Seletar_Hills_Drive
-3.533205	__Seletar_Link
-3.533205	__Seletar_Lodge_One
-3.533205	__Seletar_North
-3.533205	__Seletar_North_Lane
-3.533205	__Seletar_Satellite
-3.533205	__Seletar_Satellite_Station_Road
-3.533205	__Seletar_South_Road
-3.533205	__Seletar_West
-3.533205	__Seletar_Wests
-3.533205	__Sembawang_Alley
-3.533205	__Sembawang_Avenue
-3.533205	__Sembawang_Berlayer
-3.533205	__Sembawang_Country_Club
-3.533205	__Sembawang_God_Of_Wealth
-3.533205	__Sembawang_Hills_Drive
-3.533205	__Sembawang_Shopping_Centre
-3.533205	__Sembawang_Tamil_Methodist
-3.533205	__Sembawang_Terminal_Avenue
-3.533205	__Sembawang_Terminal_Road
-3.533205	__Sembawang_Vista
-3.533205	__Sembawang_Wharves
-3.533205	__Sembawang_Woodgrove_Avenue
-3.533205	__Sengkang_East_Avenue
-3.533205	__Sengkang_East_Road
-3.533205	__Sengkang_East_Way
-3.533205	__Sennett_Road
-3.533205	__Sentul_Crescent
-3.533205	__Serangoon_Gardens
-3.533205	__Serangoon_North_Avenue
-3.533205	__Serapong_Hill
-3.533205	__Seraya_Avenue
-3.533205	__Sharon_Bible_Presbyterian
-3.533205	__Shelford_Road
-3.533205	__Shipyard_Crescent
-3.533205	__Shopping_Centre
-3.533205	__Shun_Li
-3.533205	__Si_Ling
-3.533205	__Siang_Cho_Keong
-3.533205	__Siglap_Gardens
-3.533205	__Siloso_Beach
-3.533205	__Sim_Choon_Huat
-3.533205	__Sim_Lim_Square
-3.533205	__Sim_Yi_Hui
-3.533205	__Simon_Lane
-3.533205	__Simpang_Bedok
-3.533205	__Simpang_De_Bedok
-3.533205	__Sims_Way
-3.533205	__Sin_Ming
-3.533205	__Sing_Hoe
-3.533205	__Sing_Joo_Walk
-3.533205	__Singapore'S_Mariners'
-3.533205	__Singapore_Art_Museum
-3.533205	__Singapore_Bible
-3.533205	__Singapore_Botanic_Gardens
-3.533205	__Singapore_Cheshire
-3.533205	__Singapore_Conference
-3.533205	__Singapore_Philatelic_Museum
-3.533205	__Singapore_Recreation
-3.533205	__Singapore_Sikh_Education_Foundation
-3.533205	__Singapore_University_Of_Technology_And_Design
-3.533205	__Singapore_Youth_Flying
-3.533205	__Siok_Wan
-3.533205	__Siong_Lim
-3.533205	__Sir_Frank_Swettenham
-3.533205	__Sit_Wah_Road
-3.533205	__Sleepy_Kiwi
-3.533205	__Sloane_Court_Hotel
-3.533205	__Soo_Bin_Chua
-3.533205	__Soo_Chow_Drive
-3.533205	__Soon_Peng_Yam_Yao_Zi
-3.533205	__Soon_Wing_Road
-3.533205	__Sophia_Hull
-3.533205	__South_Buona_Vista_Road
-3.533205	__South_Perimeter_Road
-3.533205	__South_Woodlands_Drive
-3.533205	__Spring_Lighthouse
-3.533205	__Spring_Street
-3.533205	__Springleaf_Avenue
-3.533205	__Springside_View
-3.533205	__Springwood_Close
-3.533205	__Sree_Narayana
-3.533205	__Sri_Murugan_Hill_Temple
-3.533205	__Sri_Siva_Durga
-3.533205	__Sri_Vairavimada_Kaliamman
-3.533205	__Stadium_Crescent
-3.533205	__Stadium_Way
-3.533205	__Stamford_Raffles
-3.533205	__Starlight_Road
-3.533205	__Stephen_Lee
-3.533205	__Stirling_Walk
-3.533205	__Strand_Hotel
-3.533205	__Stratton_Road
-3.533205	__Suffolk_Road
-3.533205	__Sunbeam_Evergreen_Place
-3.533205	__Sundridge_Park_Road
-3.533205	__Sungei_Bedok
-3.533205	__Sungei_Gedong_Road
-3.533205	__Sungei_Road
-3.533205	__Sunny_Ang
-3.533205	__Sunset_Close
-3.533205	__Sunset_Square
-3.533205	__Sunset_Vale
-3.533205	__Suntec_City
-3.533205	__Swiss_Club_Link
-3.533205	__Syed_Jaafar_Albar
-3.533205	__Tagore_Road
-3.533205	__Tai_Hoe
-3.533205	__Tai_Seng
-3.533205	__Tai_Seng_Drive
-3.533205	__Taman_Bedok
-3.533205	__Taman_Jurong
-3.533205	__Taman_Kembangan
-3.533205	__Taman_Warna
-3.533205	__Tamarind_Avenue
-3.533205	__Tamarind_Road
-3.533205	__Tampines_Changkat
-3.533205	__Tan_Boo_Liat
-3.533205	__Tan_Eng_Joo
-3.533205	__Tan_Kim_Cheng_Road
-3.533205	__Tan_Teck_Whye_Avenue
-3.533205	__Tan_Tock_Seng
-3.533205	__Tanah_Merah
-3.533205	__Tanglin_Gate_Road
-3.533205	__Tanglin_Trust
-3.533205	__Tangmere_Road
-3.533205	__Tanjong_Katong
-3.533205	__Tanjong_Penjuru
-3.533205	__Tanya_Chua
-3.533205	__Teban_Garden
-3.533205	__Tebing_Lane
-3.533205	__Teck_Hai_Keng
-3.533205	__Teck_Whye
-3.533205	__Tekong_Highway
-3.533205	__Telok_Blangah_Crescent
-3.533205	__Telok_Blangah_Rise
-3.533205	__Telok_Blangah_Street
-3.533205	__Telok_Kurau
-3.533205	__Tembusu_Drive
-3.533205	__Teng_San_Tian_Hock
-3.533205	__Teng_Tong_Road
-3.533205	__Terang_Bulan_Avenue
-3.533205	__Tew_Chew_Street
-3.533205	__Thong_Bee_Road
-3.533205	__Thong_Kheng
-3.533205	__Tian_Kong
-3.533205	__Tiong_Poh_Avenue
-3.533205	__Tiverton_Lane
-3.533205	__Toa_Payoh
-3.533205	__Toa_Payoh_East
-3.533205	__Toa_Payoh_North
-3.533205	__Toa_Payoh_Rise
-3.533205	__Toh_Tuck_Drive
-3.533205	__Toh_Tuck_Road
-3.533205	__Tokio_Marine
-3.533205	__Topaz_Road
-3.533205	__Tras_Street
-3.533205	__Treetop_Walk
-3.533205	__Trevose_Place
-3.533205	__Tuas_Avenue
-3.533205	__Tuas_Road
-3.533205	__Tuas_Second_Link
-3.533205	__Tuas_Terminal_Road
-3.533205	__Turf_Ciub_Road
-3.533205	__Ubi_Close
-3.533205	__Ubi_Crescent
-3.533205	__Ubi_Link
-3.533205	__Ulu_Sembawang
-3.533205	__Unity_Street
-3.533205	__University_Town
-3.533205	__Upper_Aljunied
-3.533205	__Upper_Aljunied_Link
-3.533205	__Upper_Aljunied_Road
-3.533205	__Upper_Bedok
-3.533205	__Upper_Bedok_Road
-3.533205	__Upper_Bukit_Timah
-3.533205	__Upper_Bukit_Timah_Road
-3.533205	__Upper_Changi_Road
-3.533205	__Upper_Joo_Aljunied_Link
-3.533205	__Upper_Palm_Valley_Road
-3.533205	__Upper_Paya_Lebar_Road
-3.533205	__Upper_Peirce_Reservoir
-3.533205	__Upper_Seletar_Reservoir
-3.533205	__Upper_Serangoon
-3.533205	__Upper_Wilkie_Road
-3.533205	__Vaughan_Road
-3.533205	__Veerasamy_Road
-3.533205	__Verde_Crescent
-3.533205	__Victoria_Park_Road
-3.533205	__Vigilante_Drive
-3.533205	__Vijesh_Ashok_Ghariwala
-3.533205	__Vivien_Quahe
-3.533205	__Vu_Ly_Tee
-3.533205	__Vu_Ly_Tee#1
-3.533205	__Vu_Ly_Tee#2
-3.533205	__Wak_Hassan
-3.533205	__Wak_Hassan_Place
-3.533205	__Wak_Tanjong
-3.533205	__Wallace_Way
-3.533205	__Walter_Woon
-3.533205	__Wan_Tho_Avenue
-3.533205	__Wareham_Road
-3.533205	__Waringin_Walk
-3.533205	__Warwick_Road
-3.533205	__Waseda_Shibuya
-3.533205	__Waterloo_Street
-3.533205	__Watten_Estate_Road
-3.533205	__Wee_Beng_Chong
-3.533205	__Wellington_Circle
-3.533205	__West_Blue_Stars
-3.533205	__West_Perimeter_Road
-3.533205	__West_Spring
-3.533205	__Westwood_Avenue
-3.533205	__Whampoa_East
-3.533205	__Whitchurch_Road
-3.533205	__Whitley_Road
-3.533205	__Wilmonar_Avenue
-3.533205	__Windsor_Park_Hill
-3.533205	__Wishart_Road
-3.533205	__Wittering_Road
-3.533205	__Wong_Chin_Yoke_Road
-3.533205	__Wong_Hock_Boon
-3.533205	__Woodgrove_View
-3.533205	__Woodland_Street
-3.533205	__Woodlands_Galaxy
-3.533205	__Woodleigh_Close
-3.533205	__Xilin_Avenue
-3.533205	__Yan_Hui_Chang
-3.533205	__Yangtze_Building
-3.533205	__Yao_Zi
-3.533205	__Yarwood_Avenue
-3.533205	__Yeoh_Ghim_Seng
-3.533205	__Yew_Tee
-3.533205	__Yew_Tee_Close
-3.533205	__Yew_Tee_Point
-3.533205	__Yip_Cheong_Fun
-3.533205	__Yishun_Central
-3.533205	__Yishun_Street
-3.533205	__Yong_Melvin_Yik_Chye
-3.533205	__York_Place
-3.533205	__Yu_Huang_Zhi_Zun_Temple
-3.533205	__Yuan_Ching
-3.533205	__Yung_Kuang_Road
-3.533205	__Yuva_Bharati
-3.533205	__Yvonne_Ng
-3.533205	__Zainudin_Nordin
-3.533205	__Zhang_Hui
-3.533205	__Zhou_Ying_Nan
-3.533205	__Zion_Bishan_Bible_Presbyterian
-1.96067	a
-3.625152	aa
-5.341518	abas
-4.561796	ability
-3.683922	able
-5.436074	abnormal
-2.678863	about
-4.275922	above
-5.436074	abroad
-5.381027	absolute
-5.077419	absolutely
-5.370808	absorb
-5.229759	abstract
-5.194716	abu
-5.123463	abuse
-4.930558	academic
-5.355916	academy
-5.341518	acara
-4.859702	accent
-4.421645	accept
-5.057333	acceptable
-5.292469	acceptance
-5.181455	accepted
-4.515726	access
-5.256088	accessible
-4.54413	accident
-4.870737	accidentally
-5.201502	accommodation
-5.300985	accompany
-4.768748	accomplish
-4.619565	according
-5.033464	accordingly
-3.315189	account
-5.222521	accountancy
-4.710914	accounting
-5.146944	accurate
-5.248401	ache
-4.524989	achieve
-4.599442	achievement
-5.244608	acknowledge
-5.365787	acquaintance
-4.861261	acronym
-4.4652	across
-4.404393	act
-4.782862	acting
-4.312311	action
-5.090462	activate
-4.735932	active
-4.430824	activity
-4.758763	actor
-5.087822	actress
-4.55249	actual
-2.73748	actually
-4.883702	ad
-5.143938	adapt
-4.016387	add
-5.015272	added
-5.129215	addicted
-5.074857	addition
-4.763727	additional
-3.574524	address
-4.813944	ade
-4.991439	adjust
-5.447974	admiralty
-4.83109	admire
-5.069777	admit
-5.351064	admitted
-4.457117	adopt
-5.090462	adopted
-3.965457	adoption
-4.572912	adult
-4.823864	advance
-5.244608	advanced
-5.031148	advantage
-4.880424	adventure
-5.229759	adventurous
-4.958953	advertisement
-5.341518	advertising
-4.465828	advice
-4.568113	advise
-5.233424	aeroplane
-5.413211	affair
-4.732435	affect
-5.01084	affected
-5.391492	affidavit
-4.644441	afford
-4.883702	affordable
-4.509426	afraid
-3.020447	after
-3.885515	afternoon
-4.88206	afterwards
-3.367738	again
-4.455887	against
-4.750212	agama
-5.006453	agar
-3.92167	age
-4.54791	agency
-5.191363	agenda
-4.617777	agent
-4.880424	aggressive
-5.171767	aging
-3.847424	ago
-4.130665	agree
-5.184732	agreed
-5.045235	agreement
-2.114182	ah
-4.96685	aha
-4.33729	ahead
-4.926908	ai
-5.162292	aid
-4.845913	aim
-3.597225	air
-5.327582	airplane
-4.524269	airport
-4.356404	ajar
-4.989336	ak
-2.671494	aku
-5.031148	al
-4.617777	ala
-5.436074	alan
-4.53006	alarm
-4.867556	album
-4.917916	alcohol
-5.327582	alcoholic
-4.07231	alert
-5.288273	algorithm
-5.252228	alien
-5.351064	alif
-4.557118	alive
-2.62994	all
-5.271883	allergic
-4.411544	allow
-4.902185	allowance
-4.036962	almost
-4.035326	alone
-4.142145	along
-5.087822	alpha
-5.23712	alphabet
-2.843088	already
-3.342463	alright
-2.673639	also
-5.23712	alter
-5.159178	alternate
-5.050034	alternative
-4.324394	although
-5.252228	altogether
-3.257292	always
-3.368541	am
-5.436074	amar
-4.474076	amazing
-5.244608	ambitious
-3.555724	ambulance
-5.267879	amin
-4.964862	amir
-4.845913	among
-3.798125	amount
-5.135045	amy
-3.246804	an
-5.436074	ana
-5.275922	analyse
-5.208396	analysis
-5.381027	ancient
-2.029088	and
-4.159799	anda
-5.052453	android
-4.813944	angel
-5.318534	anger
-5.140953	angle
-4.253768	angry
-4.187704	animal
-5.106649	animation
-4.716475	anime
-5.112182	ankle
-5.305306	ann
-5.156087	anna
-5.244608	anniversary
-5.436074	announcement
-4.501167	annoying
-5.126329	annual
-3.365288	another
-3.646818	answer
-5.156087	ant
-5.436074	antenna
-4.995676	anti
-5.370808	antique
-5.31408	anxiety
-3.093465	any
-4.504589	anybody
-4.662842	anyhow
-4.216108	anyone
-3.284986	anything
-3.774211	anyway
-4.743013	anyways
-4.358854	anywhere
-2.659835	apa
-4.643494	apart
-4.883702	apartment
-4.643494	ape
-5.370808	apologize
-4.312311	apparently
-4.844409	appeal
-4.93609	appear
-4.264308	apple
-5.191363	applicable
-5.095791	applicant
-3.941882	application
-4.624065	applied
-3.777805	apply
-4.374866	appointment
-4.455273	appreciate
-4.735932	approach
-5.396821	appropriate
-4.744205	approval
-4.801516	approve
-5.351064	approximately
-5.240848	apron
-5.01305	aquarium
-4.159799	ar
-5.351064	arcade
-5.159178	architecture
-2.52373	are
-3.777161	area
-4.707611	argue
-4.700001	argument
-4.600298	arm
-4.635989	arms
-4.347699	army
-3.445568	around
-4.743013	arrange
-5.194716	arrangement
-5.381027	arrival
-4.878795	arrive
-5.327582	arrogant
-4.768748	arrow
-5.208396	arsenal
-4.271883	art
-4.845913	article
-5.323035	artificial
-4.657923	artist
-2.773151	as
-4.892006	aside
-3.121638	ask
-5.351064	askar
-4.943578	asleep
-4.656946	aspect
-5.275922	aspiration
-4.989336	ass
-5.430245	assembly
-5.146944	assess
-5.093119	assessment
-5.267879	asset
-5.28	assets
-4.800156	assign
-5.28	assigned
-4.652093	assignment
-3.898936	assist
-4.31408	assistance
-4.586804	assistant
-5.447974	associate
-4.679994	assume
-4.71313	assuming
-4.861261	asthma
-2.63734	at
-4.442579	ate
-5.323035	atmosphere
-4.987243	attach
-4.851988	attached
-4.995676	attachment
-4.650167	attack
-5.318534	attempt
-4.539638	attend
-5.284117	attendance
-4.584321	attention
-5.424492	attire
-4.806995	attitude
-5.112182	attract
-4.641605	attraction
-5.090462	attractive
-5.042855	attribute
-5.218946	audience
-5.215401	audio
-5.13212	audit
-5.198096	audition
-4.263914	august
-4.782862	aunt
-4.477937	auntie
-5.114974	authentic
-5.271883	author
-5.218946	authority
-4.68413	auto
-5.165427	automatic
-4.91614	automatically
-5.194716	autumn
-4.53815	available
-4.130665	avenue
-4.628613	average
-4.756303	avoid
-4.751423	awake
-5.159178	award
-4.782862	aware
-5.332178	awareness
-3.711245	away
-4.586804	awesome
-4.652093	awhile
-4.301415	awkward
-3.926545	ayah
-5.123463	aye
-3.386542	b
-4.751423	ba
-5.323035	baba
-5.204936	babe
-3.487807	baby
-3.056181	back
-4.428511	background
-5.271883	backup
-5.424492	backwards
-5.402216	bacon
-5.351064	bacteria
-3.394895	bad
-4.282465	badan
-5.267879	badge
-4.864397	badly
-4.266686	badminton
-4.112739	bag
-5.162292	bah
-4.357382	bahan
-5.047627	baht
-5.418816	bakal
-4.637853	bake
-5.284117	baked
-5.191363	bakery
-4.806995	baking
-4.196403	balance
-5.386228	balanced
-5.300985	balcony
-4.755078	bali
-3.903906	ball
-5.391492	ballet
-5.07231	balloon
-5.332178	bamboo
-5.052453	ban
-4.587636	banana
-4.259983	band
-4.503902	bandar
-5.413211	banding
-4.728965	bang
-4.633208	bangkok
-3.459464	bank
-4.976926	banker
-4.647295	banking
-5.215401	bankrupt
-4.641605	banner
-5.23712	banquet
-4.227575	bar
-4.64539	barbecue
-5.351064	barber
-5.259983	bare
-5.168586	barely
-5.292469	baring
-5.381027	barrage
-5.146944	barrier
-3.498448	baru
-4.510121	bas
-4.345311	base
-4.097672	based
-4.941694	basement
-4.316301	basic
-3.614667	basically
-4.66582	basis
-4.844409	basket
-4.397895	basketball
-5.226125	bass
-5.23712	bat
-4.669822	batch
-5.159178	bath
-5.240848	bathe
-5.424492	bathroom
-5.159178	batik
-5.168586	batman
-4.811152	battery
-4.844409	battle
-4.48118	bay
-5.355916	bazaar
-2.508156	be
-4.029995	beach
-4.71202	bean
-4.215401	bear
-5.00211	beard
-5.222521	beast
-4.607205	beat
-4.422781	beautiful
-4.722107	beauty
-2.550568	because
-3.830798	become
-4.781559	becomes
-5.033464	becoming
-4.207008	bed
-5.165427	bedroom
-4.47025	bee
-4.47025	beef
-5.413211	beehive
-3.349138	been
-4.71202	beer
-5.090462	bees
-3.198911	before
-4.690409	beg
-5.035793	begin
-4.812546	beginning
-4.778967	behalf
-5.106649	behave
-5.31408	behaviour
-3.922569	behind
-5.181455	beige
-3.583331	being
-4.297558	bela
-4.219659	belah
-3.95467	believe
-4.939818	bell
-5.165427	belly
-5.191363	belong
-3.833721	below
-4.850461	belt
-4.68413	ben
-4.697851	bench
-5.090462	bend
-3.478454	benda
-5.252228	bene
-5.454048	beneath
-4.798801	beneficial
-4.415444	beneficiary
-4.565734	benefit
-4.805619	ber
-4.596036	berat
-5.275922	berlin
-5.441983	berry
-3.698066	beside
-4.457734	besides
-3.321139	best
-4.61867	bet
-3.478648	better
-4.77128	betting
-3.936276	between
-4.71202	beyond
-5.309671	bias
-4.558672	bicycle
-5.208396	bid
-3.48933	big
-4.24726	bigger
-4.327582	biggest
-4.359345	bike
-4.809762	bikini
-4.414885	bill
-5.090462	billion
-5.355916	billy
-4.596885	bin
-4.976926	bingo
-4.892006	biological
-5.181455	biology
-4.126617	bird
-3.929277	birth
-4.152712	birthday
-5.194716	biscuit
-3.333984	bit
-5.284117	bitch
-4.823864	bite
-4.962883	bitter
-5.365787	biz
-3.666817	black
-5.126329	blackberry
-5.441983	blackboard
-5.194716	blade
-4.39575	blah
-4.869143	blame
-4.794761	blank
-5.259983	blanket
-4.364789	bleeding
-4.923289	blend
-4.764977	blender
-5.240848	bless
-5.360824	blessed
-5.365787	blessing
-4.42621	blind
-3.765478	block
-4.838439	blonde
-4.093652	blood
-4.983087	bloody
-5.126329	blouse
-5.09848	blow
-5.413211	blowing
-3.45362	blue
-5.407679	blueberry
-4.867556	blues
-4.939818	blur
-4.761238	bo
-4.231955	board
-5.407679	boarding
-4.456501	boat
-5.263914	bob
-5.355916	bobby
-3.961701	body
-5.062268	boil
-3.973272	bola
-5.341518	bom
-4.939818	bomb
-4.23712	bond
-5.052453	bonding
-4.97897	bone
-3.778967	bonus
-3.696459	book
-5.365787	booked
-4.893686	booking
-5.168586	bookshop
-5.229759	bookstore
-4.962883	boom
-5.248401	boon
-5.240848	boost
-4.983087	boot
-4.720975	booth
-4.995676	boots
-4.898766	borak
-5.057333	border
-4.111903	boring
-4.147547	born
-4.859702	borrow
-4.18605	boss
-5.174973	boston
-5.069777	bot
-5.059793	botanic
-3.676917	both
-4.659884	bother
-4.404393	bottle
-4.025867	bottom
-4.028155	bought
-5.201502	bounce
-5.135045	bound
-4.964862	bout
-5.143938	bow
-5.375887	bowel
-4.561796	bowl
-4.551723	bowling
-4.121752	box
-5.215401	boxing
-3.786135	boy
-5.386228	bra
-4.422213	brain
-5.327582	brake
-4.48708	branch
-4.227575	brand
-5.035793	branded
-5.208396	brave
-5.140953	bravo
-5.01305	brazil
-4.374866	bread
-3.962489	break
-5.008641	breakdown
-4.930558	breaker
-4.48053	breakfast
-4.943578	breaking
-5.00211	breast
-4.734763	breath
-4.406033	breathe
-3.847273	breathing
-4.865973	breathless
-5.256088	breed
-5.323035	breeze
-5.284117	brick
-5.370808	bride
-4.719845	bridge
-5.184732	brief
-4.68517	briefing
-4.900473	bright
-3.591984	bring
-5.454048	brisk
-5.318534	broad
-5.436074	brochure
-4.61867	broke
-4.767487	broken
-3.942824	brother
-4.354941	brought
-3.779484	brown
-5.441983	brownie
-5.08259	brownish
-5.375887	brunch
-4.99781	brush
-4.941694	bu
-5.296706	bual
-4.708709	bubble
-5.424492	buck
-4.456501	bucket
-4.867556	buddy
-4.518555	budget
-4.443772	buffet
-4.794761	bug
-4.388326	build
-4.106374	building
-4.968846	built
-5.031148	bulk
-5.351064	bull
-5.31408	bullet
-5.07231	bully
-5.218946	bump
-5.292469	bumper
-4.968846	bun
-4.999955	bunch
-5.146944	bundle
-5.346265	bungalow
-5.191363	bungee
-5.391492	bunk
-5.430245	bunny
-5.093119	burden
-4.638788	burn
-5.054886	burning
-5.447974	burnt
-5.112182	burst
-3.934793	bus
-4.664824	bush
-3.933315	business
-5.441983	businessman
-4.213639	busy
-4.836959	busybody
-2.223606	but
-4.887005	butcher
-5.146944	butt
-4.710914	butter
-4.976926	butterfly
-4.658902	button
-5.288273	buttons
-3.275557	buy
-5.14997	buyer
-3.169284	by
-3.21998	bye
-3.123006	c
-4.926908	ca
-4.815348	cab
-5.375887	cabin
-4.79745	cable
-4.798801	cage
-4.207008	cake
-4.698925	calculate
-5.300985	calculated
-5.093119	calculation
-5.162292	calculator
-4.773827	calendar
-3.038252	call
-5.143938	callable
-4.972867	caller
-3.530643	calling
-4.870737	calm
-4.277956	cam
-3.800428	came
-4.529332	camera
-4.257253	camp
-5.375887	campaign
-5.222521	campus
-2.304529	can
-4.845913	canada
-4.423351	cancel
-4.714242	cancer
-5.336823	candle
-4.84894	candy
-5.178201	cane
-3.092027	cannot
-5.06726	cant
-4.585975	canteen
-5.332178	canvas
-4.276329	cap
-5.263914	capable
-5.336823	capacity
-5.447974	cape
-4.593499	capital
-4.917916	capsule
-4.892006	captain
-5.114974	caption
-5.204936	capture
-3.545865	car
-5.292469	caramel
-3.612635	card
-5.430245	cardboard
-3.6859	care
-3.985576	career
-5.360824	carefree
-4.923289	careful
-5.336823	carefully
-4.637853	carrot
-4.246121	carry
-4.78811	carrying
-5.292469	cart
-4.823864	cartoon
-3.725294	case
-4.019749	cash
-5.077419	cashier
-4.717595	casino
-5.103909	cast
-4.841413	castle
-5.103909	casual
-4.141251	cat
-4.256476	catch
-4.910854	catching
-5.381027	catchy
-4.970852	category
-5.396821	cater
-4.440795	caught
-2.994591	cause
-5.28	cave
-5.300985	ceiling
-4.56891	celebrate
-5.050034	celebration
-5.064757	celebrity
-4.91614	cell
-4.78811	cent
-4.137104	center
-4.620461	central
-5.318534	century
-4.972867	cereal
-5.391492	ceremony
-3.926727	certain
-5.346265	certainly
-4.437839	certificate
-5.381027	certified
-5.31408	cha
-5.430245	chai
-4.887005	chain
-4.243477	chair
-4.943578	chalet
-4.746598	challenge
-5.263914	champion
-4.179175	chance
-3.453009	change
-4.54413	channel
-5.168586	chapter
-4.704333	char
-4.140062	character
-5.090462	characteristic
-4.208744	charge
-5.341518	charger
-5.284117	charging
-4.887005	charity
-5.211884	charming
-4.941694	chart
-4.970852	chartered
-4.718719	chase
-5.165427	chasing
-4.507347	chat
-5.447974	chatting
-4.029534	cheap
-4.828185	cheat
-5.006453	cheating
-3.310901	check
-4.76623	checked
-5.418816	chee
-5.146944	cheek
-5.090462	cheer
-5.424492	cheerful
-4.143041	cheese
-5.360824	cheesecake
-5.407679	cheesy
-5.215401	cheetah
-4.619565	chef
-4.947371	chemical
-4.674878	chemistry
-5.259983	cheng
-5.123463	cheque
-5.117785	cherry
-5.201502	chess
-4.305741	chest
-5.140953	chew
-5.103909	chi
-5.396821	chick
-3.689777	chicken
-3.398648	child
-4.135045	childhood
-5.275922	childish
-4.737104	chili
-4.362307	chill
-5.126329	chin
-3.816473	china
-5.038135	chip
-4.88206	chips
-5.360824	chit
-4.404939	chocolate
-4.099561	choice
-5.143938	choir
-4.926908	choke
-4.925095	choker
-5.137989	choking
-5.201502	chomp
-3.728274	choose
-5.375887	choosing
-4.641605	chop
-4.987243	chore
-4.930558	chose
-5.355916	chosen
-5.31408	chow
-5.346265	chrome
-4.504589	church
-5.267879	chute
-5.137989	cigarette
-4.823864	cinema
-3.718044	circle
-5.351064	circled
-5.226125	circuit
-5.229759	circular
-5.418816	circus
-5.038135	cite
-5.271883	citer
-4.360824	citizen
-4.643494	citizenship
-4.017281	city
-5.085198	civil
-3.927818	claim
-4.987243	claimable
-5.391492	clap
-4.989336	clarify
-3.820722	class
-4.471522	classes
-5.040488	classic
-5.351064	classical
-4.939818	classmate
-4.800156	classroom
-5.360824	claw
-5.184732	clay
-4.181455	clean
-4.97897	cleaner
-4.745399	cleaning
-5.375887	cleanser
-4.153936	clear
-5.101186	clearing
-4.816755	clearly
-5.275922	clerk
-5.233424	clever
-4.21788	click
-4.550958	client
-5.402216	climate
-4.61511	climb
-4.939818	climbing
-4.597736	clinic
-5.256088	clip
-4.934238	clique
-4.675897	clock
-5.156087	clockwise
-3.697423	close
-4.501849	closed
-4.932394	closely
-4.681024	closer
-4.625878	cloth
-4.215048	clothes
-4.91614	clothing
-4.819585	cloud
-4.080256	club
-5.09848	clubbing
-5.143938	clue
-5.153018	cluster
-4.727814	coach
-5.360824	coaching
-4.728965	coast
-4.902185	coaster
-5.296706	coat
-5.117785	cock
-5.054886	cockroach
-5.424492	cocky
-4.960914	coco
-5.004276	coconut
-3.980818	code
-5.436074	coder
-4.048348	coffee
-5.040488	coin
-4.762481	coincidence
-4.939818	coke
-5.360824	cola
-4.096596	cold
-5.229759	collapse
-4.404393	colleague
-4.183418	collect
-5.114974	collected
-4.809762	collection
-4.842908	college
-3.837994	color
-5.424492	colored
-5.165427	colors
-3.365637	colour
-5.263914	column
-4.943578	combination
-4.900473	combine
-5.332178	combined
-3.147547	come
-4.802879	comedy
-4.113018	comes
-4.37691	comfort
-4.242348	comfortable
-5.188035	comic
-3.833428	coming
-5.327582	command
-4.893686	comment
-4.93609	commercial
-4.951198	commission
-4.93795	commit
-4.930558	commitment
-4.861261	committee
-4.275922	common
-5.153018	commonwealth
-4.79745	communicate
-4.841413	communication
-4.476646	community
-5.327582	companion
-3.65306	company
-4.393084	compare
-5.365787	comparison
-5.424492	compensate
-5.267879	compete
-4.658902	competition
-4.878795	competitive
-4.18605	complain
-5.211884	complaint
-4.498448	complete
-4.749003	completely
-4.928729	complex
-4.921491	complicated
-5.360824	compound
-5.418816	compromise
-4.999955	compulsory
-4.115535	computer
-4.514318	con
-5.424492	concealer
-5.117785	concentrate
-4.91614	concentration
-4.693583	concept
-4.697851	concern
-5.211884	concerned
-4.476002	concert
-5.327582	concession
-5.296706	conclusion
-5.360824	concrete
-5.045235	cond
-4.519976	condition
-5.198096	conditional
-5.454048	conditioner
-5.341518	condominium
-5.218946	conduct
-5.168586	cone
-5.178201	conference
-5.396821	confess
-4.951198	confidence
-4.841413	confident
-5.430245	confidential
-3.818734	confirm
-4.603738	confirmation
-5.022005	confirmed
-5.267879	conflict
-5.038135	confuse
-4.800156	confused
-4.772552	connect
-4.991439	connected
-4.910854	connection
-3.830216	conscious
-4.763727	consent
-5.355916	conservative
-4.244986	consider
-5.288273	consideration
-4.35203	considered
-5.120615	considering
-5.454048	consistency
-5.341518	consistent
-5.288273	console
-5.346265	constant
-5.09848	constantly
-4.902185	construction
-5.370808	consult
-5.050034	consultant
-5.305306	consulting
-5.229759	consumable
-5.059793	consume
-3.635617	contact
-5.436074	contain
-5.074857	container
-4.939818	content
-5.208396	contest
-5.07231	context
-3.974284	continue
-4.666817	continuous
-5.069777	continuously
-4.528605	contract
-4.890333	contribute
-4.777676	contribution
-4.208396	control
-5.201502	controversial
-5.114974	convenience
-4.515021	convenient
-4.121752	conversation
-5.198096	converse
-5.087822	conversion
-4.573718	convert
-5.143938	converted
-5.284117	convince
-3.865816	cook
-5.441983	cooker
-4.272687	cooking
-3.812965	cool
-5.226125	cooling
-5.360824	cooper
-5.143938	cope
-4.363795	copy
-4.801516	core
-5.095791	corn
-4.31988	corner
-4.930558	corp
-4.94928	corporate
-5.259983	corporation
-3.031911	correct
-5.204936	correction
-5.059793	correctly
-5.28	correspondent
-5.181455	corridor
-4.902185	cos
-5.284117	cosmos
-4.156395	cost
-5.271883	costa
-5.402216	costly
-5.259983	costume
-5.23712	cottage
-5.178201	cotton
-5.402216	couch
-4.798801	cough
-3.47491	could
-4.905632	council
-4.130085	count
-4.65113	counter
-5.101186	counting
-3.840072	country
-4.237492	couple
-4.690409	coupon
-5.402216	courage
-5.391492	courier
-3.467528	course
-4.210486	court
-4.561796	cousin
-5.288273	cove
-4.233424	cover
-4.694646	covered
-5.267879	covering
-4.749003	covid
-4.957001	cow
-5.226125	cowboy
-4.890333	coz
-4.388326	crab
-5.08259	crack
-5.275922	craft
-5.436074	cramp
-5.035793	crap
-4.930558	crash
-5.327582	crave
-5.062268	craving
-5.391492	crawl
-3.943578	crazy
-4.124607	cream
-4.31408	create
-4.323035	creative
-5.418816	creativity
-4.202187	credit
-5.381027	creep
-4.73828	creepy
-5.031148	crescent
-4.968846	crew
-4.953124	cried
-5.042855	crime
-5.318534	criminal
-5.194716	crisis
-5.022005	crispy
-4.67794	criteria
-5.015272	critical
-5.28	crocodile
-4.396285	cross
-4.900473	crossing
-4.751423	crowd
-4.643494	crowded
-5.309671	crown
-4.821006	cruise
-5.022005	crush
-4.263914	cry
-4.78811	crying
-5.112182	crystal
-5.31408	cube
-5.188035	cucumber
-4.777676	cuisine
-5.129215	cultural
-4.229394	culture
-4.264704	cup
-5.201502	cure
-4.815348	curious
-4.995676	curly
-4.602876	currency
-4.221804	current
-4.154857	currently
-5.323035	curriculum
-4.387276	curry
-5.126329	curse
-5.296706	curtain
-4.887005	curve
-5.194716	cushion
-5.271883	custody
-5.211884	custom
-4.161667	customer
-3.957196	cut
-4.140953	cute
-4.702162	cutting
-4.53152	cycle
-4.654999	cycling
-5.370808	cyclist
-3.34289	d
-4.375377	da
-4.042144	dad
-4.722107	daddy
-3.001398	dah
-4.587636	daily
-5.054886	dak
-5.198096	damage
-3.611403	damn
-3.149272	dan
-4.147547	dance
-5.31408	dancer
-4.773827	dancing
-5.171767	danger
-4.527155	dangerous
-4.519265	dare
-3.703355	dari
-4.030225	dark
-5.292469	darling
-4.735932	dash
-4.366286	data
-3.653253	date
-4.519265	dating
-4.132411	daughter
-3.138639	day
-3.456871	days
-4.544884	de
-4.34722	dead
-4.442579	deadline
-5.460208	deaf
-4.300985	deal
-5.146944	dealer
-5.391492	dealing
-4.535191	dear
-4.506656	death
-5.292469	debate
-4.773827	debit
-5.106649	debt
-5.140953	decade
-5.028844	decent
-4.396285	decide
-4.410437	decided
-4.396285	decision
-4.681024	deck
-4.777676	declaration
-5.168586	declare
-5.336823	decoration
-5.252228	decorative
-4.939818	deduct
-5.360824	deduction
-4.347699	deep
-5.211884	default
-5.146944	defeat
-5.407679	defence
-5.112182	defend
-4.596885	define
-3.850004	definitely
-5.069777	definition
-4.271883	degree
-4.909107	delay
-4.4652	delete
-4.869143	delicious
-4.989336	deliver
-4.737104	delivery
-5.284117	dell
-5.341518	delta
-4.955058	demand
-5.288273	dementia
-5.259983	demi
-4.930558	demise
-5.375887	dental
-5.244608	dentist
-4.972867	depa
-4.485762	department
-4.638788	depend
-4.689356	dependent
-4.806995	depending
-4.309671	deposit
-5.126329	depressed
-5.391492	depressing
-5.01305	depression
-5.300985	depth
-5.402216	derma
-3.830216	describe
-5.171767	description
-5.318534	desert
-5.015272	deserve
-4.240474	design
-4.751423	designer
-5.248401	desire
-4.94928	desk
-5.259983	desperate
-5.332178	despite
-4.775106	dessert
-5.106649	destination
-5.370808	destiny
-5.226125	destress
-5.211884	destroy
-4.63692	detail
-5.300985	detailed
-5.284117	detect
-5.288273	detector
-5.208396	determine
-4.855057	develop
-5.386228	developer
-4.609825	development
-5.226125	device
-5.284117	devil
-5.042855	devote
-5.275922	dewan
-3.17736	di
-5.13212	diabetes
-5.430245	diabetic
-5.267879	diagram
-5.069777	dialect
-5.284117	dialysis
-5.101186	diamond
-5.135045	diarrhea
-5.226125	diary
-5.052453	dictation
-3.111486	did
-5.454048	didnt
-3.902186	die
-4.726667	diet
-3.657532	difference
-3.271199	different
-5.413211	differentiate
-4.597736	differently
-4.011502	difficult
-4.37691	difficulty
-5.008641	dig
-5.365787	digest
-5.292469	digit
-4.660868	digital
-5.004276	dim
-5.026553	dimension
-4.991439	din
-5.375887	ding
-5.184732	dining
-4.12518	dinner
-4.865973	dinosaur
-5.054886	dip
-4.503217	diploma
-4.379478	direct
-4.511516	direction
-4.527879	directly
-4.650167	director
-5.413211	dirt
-4.515726	dirty
-5.318534	disagree
-5.184732	disappear
-4.708709	disappointed
-5.215401	disaster
-4.85352	discipline
-5.460208	disclose
-4.612459	discount
-5.085198	discover
-5.436074	discovered
-4.865973	discovery
-5.346265	discrimination
-4.676917	discuss
-4.97897	discussion
-5.006453	disease
-4.585147	disgusting
-4.402216	dish
-5.351064	disk
-4.586804	dislike
-5.288273	disorder
-5.309671	dispatch
-4.85352	display
-4.698925	distance
-5.436074	distinction
-5.284117	distress
-5.300985	distribution
-5.355916	district
-4.900473	disturb
-5.305306	disturbing
-4.958953	dive
-5.300985	diverse
-4.692522	divide
-5.370808	divided
-5.318534	dividend
-4.79745	diving
-5.296706	division
-4.902185	divorce
-5.181455	dizzy
-2.41388	do
-5.407679	doc
-4.035793	doctor
-4.520689	document
-5.198096	documentary
-5.396821	documentation
-3.59409	does
-3.791822	dog
-4.570506	dogs
-3.431753	doing
-4.983087	doll
-3.632101	dollar
-5.233424	dolphin
-5.201502	dome
-5.137989	don
-4.932394	donate
-5.381027	donation
-3.566922	done
-4.925095	donee
-5.318534	dong
-5.381027	donkey
-5.208396	donor
-4.613341	dont
-3.717932	door
-4.903905	dorm
-4.865973	dormitory
-3.943012	dot
-4.106924	double
-4.926908	doubt
-3.226089	down
-4.77128	downstairs
-4.768748	downtown
-4.821006	draft
-4.878795	drag
-5.396821	dragging
-4.818168	dragon
-5.146944	drain
-4.106924	drama
-4.968846	dramatic
-5.178201	drank
-5.323035	drastically
-4.345311	draw
-4.730118	drawing
-5.454048	drawn
-3.992283	dream
-5.305306	dreamer
-4.34436	dress
-5.460208	dressed
-5.159178	dressing
-5.407679	drew
-5.181455	drill
-3.858303	drink
-4.586804	drinking
-3.982054	drive
-5.407679	driven
-4.300985	driver
-4.438428	driving
-5.360824	drool
-4.070789	drop
-5.040488	dropping
-5.211884	drove
-4.415444	drowsy
-4.99781	drug
-5.211884	drum
-4.845913	drunk
-4.490393	dry
-5.460208	dual
-4.542627	duck
-4.43725	dude
-4.323488	due
-3.803562	duit
-4.88535	dumb
-5.267879	dump
-4.928729	dumpling
-5.146944	duration
-4.111347	durian
-3.705096	during
-5.123463	dust
-4.688306	dustbin
-4.902185	duty
-5.31408	dye
-4.777676	dying
-3.519905	e
-3.776261	each
-5.275922	eagle
-4.798801	ear
-4.097403	early
-4.232688	earn
-4.877172	earning
-5.31408	earpiece
-4.759999	earth
-4.332641	easier
-5.194716	easiest
-4.466457	easily
-4.284531	east
-5.323035	easter
-5.271883	eastern
-3.83519	easy
-3.175971	eat
-4.549431	eaten
-3.977743	eating
-5.346265	eats
-5.318534	echo
-5.171767	economic
-5.07231	economics
-4.930558	economy
-5.146944	edge
-4.76623	edible
-4.878795	edit
-5.332178	edition
-5.300985	educate
-5.120615	educated
-4.105277	education
-5.386228	educational
-4.599442	effect
-5.026553	effective
-5.226125	effects
-5.050034	efficient
-4.452217	effort
-4.28082	egg
-5.026553	ego
-2.84234	eh
-3.168649	eight
-4.208744	eighteen
-5.370808	eighth
-3.962489	eighty
-3.967647	either
-5.263914	el
-4.785478	elaborate
-4.802879	elder
-4.431405	elderly
-5.135045	eldest
-5.165427	election
-4.873942	elective
-5.033464	electric
-5.267879	electrical
-5.106649	electricity
-5.08259	electronic
-5.430245	electronics
-5.391492	element
-4.999955	elephant
-3.896558	eleven
-5.447974	eleventh
-5.351064	eligibility
-4.737104	eligible
-5.355916	elite
-3.558672	else
-4.078449	em
-5.305306	embarrass
-5.135045	embarrassed
-4.268677	embarrassing
-5.222521	embassy
-4.255701	emergency
-5.033464	emotion
-4.800156	emotional
-5.240848	emotionally
-4.847424	employed
-4.289109	employee
-4.438428	employer
-4.789433	employment
-4.381027	empty
-4.060781	en
-3.963279	enam
-5.165427	encounter
-5.004276	encourage
-5.436074	encouraging
-3.454109	end
-4.589303	ended
-4.52571	ending
-5.413211	endless
-5.112182	enemy
-4.448577	energy
-4.834014	engage
-5.017504	engaged
-4.932394	engine
-4.878795	engineer
-4.424492	engineering
-3.843208	enjoy
-4.875554	enjoyable
-4.960914	enjoying
-3.779613	enough
-4.669822	enquire
-4.649208	enquiry
-4.818168	enrichment
-5.430245	enrol
-4.914371	enroll
-5.01084	ensure
-4.532251	enter
-5.14997	entertain
-5.336823	entertaining
-4.40005	entertainment
-4.40276	entire
-5.229759	entitle
-4.867556	entitlement
-5.240848	entity
-4.802879	entrance
-4.855057	entry
-5.360824	envelope
-4.420511	environment
-5.355916	environmental
-4.659884	episode
-4.744205	equal
-5.23712	equally
-4.951198	equipment
-5.106649	equity
-5.042855	equivalent
-2.610184	er
-4.94928	era
-5.318534	erase
-5.267879	eraser
-4.987243	err
-4.634133	error
-5.292469	es
-4.819585	escalate
-5.418816	escalator
-4.668818	escape
-3.943012	especially
-5.087822	esplanade
-4.472797	essay
-5.153018	essence
-5.240848	essential
-5.288273	essentially
-4.693583	estate
-5.248401	eve
-3.108026	even
-4.515021	evening
-4.204591	event
-4.483138	eventually
-3.67295	ever
-3.437839	every
-3.921491	everybody
-3.849852	everyday
-3.834455	everyone
-3.346981	everything
-4.401132	everywhere
-5.355916	evidence
-4.897066	evil
-4.344835	ex
-4.725523	exact
-3.877982	exactly
-4.140062	exam
-5.396821	examination
-3.723129	example
-5.441983	exceed
-4.644441	excel
-5.267879	excellent
-4.472159	except
-5.346265	excess
-4.276735	exchange
-4.763727	excited
-4.716475	exciting
-5.365787	exclamation
-5.305306	exclude
-5.396821	excluding
-4.646341	excuse
-5.263914	execute
-5.323035	executive
-4.147547	exercise
-5.035793	exhibition
-4.801516	exist
-4.88206	exit
-5.407679	exotic
-5.327582	expand
-4.327126	expect
-5.123463	expectation
-3.78117	expensive
-3.815207	experience
-5.00211	experienced
-5.038135	experiment
-5.381027	expert
-5.194716	expire
-5.126329	expiry
-4.209788	explain
-5.318534	explanation
-4.64539	explore
-5.191363	expose
-5.226125	exposed
-5.222521	exposure
-4.515726	express
-5.194716	expression
-4.746598	extend
-4.875554	extended
-5.093119	extension
-4.941694	extent
-5.101186	external
-4.16922	extra
-4.875554	extreme
-5.112182	extremely
-5.296706	ey
-4.405486	eye
-5.215401	eyebrow
-3.64321	f
-5.386228	fa
-3.82804	face
-4.706516	facial
-5.296706	facility
-4.256865	facing
-4.205971	fact
-4.941694	factor
-4.976926	factory
-4.720975	fad
-3.722675	faham
-4.257642	fail
-5.441983	failing
-5.069777	failure
-5.08259	faint
-5.08259	fainting
-4.249928	fair
-5.181455	fairly
-5.103909	fairy
-5.181455	faith
-4.467718	fake
-4.088876	fall
-5.31408	fallen
-4.757532	falling
-4.753856	false
-5.341518	fame
-4.792089	familiar
-3.41522	family
-3.971456	famous
-4.425637	fan
-5.08259	fancy
-5.413211	fang
-4.841413	fantastic
-5.103909	fantasy
-3.783123	far
-5.135045	fare
-4.597736	farm
-5.240848	farmer
-5.365787	farming
-4.497095	fashion
-5.351064	fashioned
-3.85352	fast
-4.323035	faster
-4.325303	fat
-5.198096	fate
-3.869462	father
-4.687258	fault
-5.178201	faulty
-4.08207	favorite
-4.679994	fear
-4.735932	feature
-5.106649	fed
-4.417689	fee
-4.750212	feed
-4.528605	feedback
-5.191363	feeding
-3.200205	feel
-4.032768	feeling
-4.322131	fell
-5.042855	fellow
-4.318982	felt
-4.151491	female
-4.875554	fence
-5.229759	ferry
-4.757532	festival
-5.015272	fetch
-4.386752	fever
-3.574121	few
-5.413211	fi
-4.583496	fiction
-5.341518	fictional
-4.497771	field
-5.156087	fierce
-3.935905	fifteen
-4.508732	fifth
-3.574928	fifty
-4.200137	fight
-5.327582	fighter
-4.547152	fighting
-4.717595	figure
-4.652093	file
-4.316747	fill
-4.859702	filled
-5.059793	filling
-4.683092	film
-5.178201	filter
-4.719845	fin
-4.297558	final
-5.424492	finalize
-4.623161	finally
-4.482484	finance
-4.078706	financial
-5.079997	financially
-3.387066	find
-4.74064	finding
-3.805207	fine
-4.706516	finger
-3.848485	finish
-4.705423	finished
-5.305306	finishing
-5.28	finland
-4.144238	fire
-5.381027	fired
-4.93795	firm
-2.968186	first
-4.829635	firstly
-3.933131	fish
-5.327582	fisherman
-4.527879	fishing
-4.170174	fit
-4.694646	fitness
-5.460208	fitting
-2.881618	five
-4.693583	fix
-4.730118	fixed
-4.597736	flag
-5.436074	flame
-4.637853	flash
-4.409883	flat
-5.240848	flavor
-4.970852	flavour
-5.436074	flew
-4.909107	flexible
-4.54113	flight
-4.880424	flip
-4.941694	float
-5.14997	floating
-4.00211	floor
-5.168586	flour
-4.695712	flow
-4.598588	flower
-5.09848	flu
-5.336823	fluent
-5.430245	fluffy
-4.229759	fly
-4.991439	flyer
-4.476002	flying
-5.370808	foam
-4.351546	focus
-5.323035	fold
-5.07231	folder
-5.288273	folk
-3.872818	follow
-5.292469	follower
-4.571307	following
-3.089219	food
-5.267879	fool
-4.725523	foot
-4.464573	football
-2.261846	for
-4.487741	force
-5.077419	forced
-4.98516	forecast
-5.336823	forehead
-4.482484	foreign
-4.76623	foreigner
-5.418816	foresee
-4.902185	forest
-4.421077	forever
-4.223959	forget
-5.204936	forgive
-4.126329	forgot
-5.218946	forgotten
-5.194716	fork
-3.841264	form
-4.790759	formal
-5.112182	format
-4.897066	formula
-4.775106	forth
-5.454048	fortunate
-5.201502	fortune
-3.799749	forty
-5.233424	forum
-4.34436	forward
-5.120615	foster
-4.069777	found
-4.794761	foundation
-5.174973	fountain
-3.018064	four
-4.214695	fourteen
-4.33729	fourth
-4.947371	fox
-4.752638	frame
-5.418816	franc
-5.117785	frank
-5.181455	freak
-3.509148	free
-4.739458	freedom
-5.024273	freeze
-5.318534	frequency
-5.23712	frequent
-5.305306	frequently
-4.261551	fresh
-4.315856	fried
-3.377679	friend
-4.527155	friendly
-4.586804	friendship
-5.159178	frog
-2.818125	from
-3.722902	front
-5.120615	frozen
-4.481832	fruit
-4.895373	fry
-5.085198	fu
-5.327582	fuel
-5.300985	fulfill
-3.746118	full
-4.66582	fully
-3.628613	fun
-4.692522	function
-4.320779	fund
-4.599442	funds
-5.240848	funeral
-3.78156	funny
-5.275922	fur
-5.424492	furious
-5.284117	furniture
-4.15455	further
-5.430245	furthest
-5.300985	fusion
-3.947752	future
-3.51629	g
-5.396821	gadget
-4.705423	gain
-5.181455	galaxy
-5.288273	gallery
-5.259983	gamble
-5.418816	gambling
-3.693902	game
-4.68517	gaming
-5.042855	gang
-4.921491	gangster
-4.670829	gap
-5.252228	garbage
-4.427935	garden
-5.188035	gardening
-5.13212	garlic
-4.865973	gas
-4.70108	gate
-5.09848	gather
-5.077419	gathering
-4.275111	gave
-4.65113	gay
-4.943578	ge
-5.135045	gear
-5.396821	gel
-5.341518	gen
-5.162292	gender
-5.346265	gene
-4.259202	general
-4.628613	generally
-4.836959	generate
-4.145438	generation
-5.454048	generic
-5.407679	generous
-4.945471	genie
-5.288273	genius
-4.48118	genre
-5.259983	gentle
-5.140953	gentleman
-5.346265	genuine
-5.004276	geography
-4.907366	german
-2.855596	get
-3.787451	getting
-4.459588	ghost
-4.8566	giant
-5.103909	giddiness
-4.647295	giddy
-4.387801	gift
-5.165427	gig
-5.159178	ginger
-3.541205	girl
-5.093119	giro
-3.136396	give
-4.103909	given
-4.294159	giving
-5.022005	glad
-4.517846	glass
-4.939818	glasses
-4.864397	global
-5.447974	glory
-5.143938	gloss
-2.531644	go
-4.527155	goal
-4.786792	goat
-3.774978	god
-4.096328	goes
-3.173142	going
-4.972867	gol
-4.484448	gold
-4.608077	golden
-4.516431	golf
-4.14906	gone
-5.226125	gong
-2.838468	good
-4.667817	goodness
-5.054886	goods
-5.093119	gor
-4.647295	gosh
-4.917916	gossip
-2.725934	got
-4.921491	gotten
-3.796911	government
-5.402216	gown
-4.256088	grab
-4.991439	grace
-5.040488	grad
-4.641605	grade
-4.540383	graduate
-5.120615	graduated
-5.095791	graduation
-5.351064	gram
-5.402216	grammar
-4.629528	grand
-4.74064	grandfather
-4.535191	grandma
-4.678966	grandmother
-5.28	grandpa
-5.292469	grandson
-5.454048	granny
-4.74064	grant
-5.454048	graph
-5.284117	graphic
-4.669822	grass
-5.327582	grateful
-5.309671	gravity
-5.181455	gravy
-5.140953	gray
-3.969047	great
-5.28	greater
-5.300985	greedy
-3.541205	green
-5.370808	greenish
-4.917916	grew
-3.94623	grey
-4.99781	grill
-5.14997	grocery
-5.211884	groom
-4.921491	gross
-4.427935	ground
-3.758887	group
-4.269077	grow
-4.683092	growing
-5.114974	grown
-5.059793	growth
-5.106649	guarantee
-4.739458	guard
-4.945471	guardian
-3.418083	guess
-5.309671	guessing
-4.847424	guest
-5.327582	guidance
-4.514318	guide
-5.244608	guilty
-4.785478	guitar
-4.515726	gula
-4.912609	gun
-3.962489	guna
-4.489065	guru
-3.482093	guy
-4.220373	gym
-3.738869	h
-3.142592	ha
-4.802879	habit
-5.198096	hack
-3.366186	had
-5.244608	hafiz
-3.82415	hah
-3.893855	hair
-5.168586	hak
-4.572912	halal
-3.782992	half
-4.725523	halfway
-3.941506	hall
-5.336823	ham
-5.296706	hammer
-4.789433	hamster
-5.123463	han
-3.677428	hand
-5.069777	handbag
-5.447974	handicap
-4.36829	handle
-5.222521	handling
-4.676917	handsome
-5.171767	handwriting
-4.620461	hanging
-5.079997	hao
-3.654319	happen
-4.462073	happening
-5.309671	happier
-4.660868	happiest
-5.198096	happily
-4.515021	happiness
-3.626151	happy
-3.613164	hard
-4.660868	harder
-4.887005	hardly
-5.351064	hardware
-5.244608	harm
-5.402216	harmony
-4.839923	harry
-5.233424	harsh
-4.398433	hat
-4.153018	hate
-2.2923	have
-4.159488	hawker
-5.050034	hay
-2.598418	he
-4.016833	head
-4.752638	headache
-5.229759	heading
-5.370808	headphone
-4.323488	health
-4.364292	healthy
-3.791024	hear
-4.82674	hearing
-4.050034	heart
-5.365787	heartbeat
-4.873942	heat
-5.296706	heater
-4.835484	heaven
-5.407679	heavily
-4.550958	heavy
-4.79745	heck
-5.441983	hectic
-5.28	hedge
-4.822433	height
-5.256088	helicopter
-4.31011	hell
-3.128636	hello
-5.267879	helmet
-3.392234	help
-5.024273	helper
-4.921491	helpful
-4.499126	helping
-5.436074	hen
-2.95864	her
-5.171767	herbal
-3.323533	here
-5.042855	heritage
-4.370808	hero
-5.174973	hers
-4.74064	herself
-4.088349	hey
-3.493664	hi
-5.117785	hidden
-4.689356	hide
-3.560544	high
-4.28	higher
-4.508732	highest
-5.103909	highland
-4.892006	highlight
-5.284117	highly
-5.024273	highway
-5.208396	hike
-4.806995	hill
-3.216497	him
-4.630445	himself
-5.211884	hint
-4.784168	hip
-4.793423	hire
-3.24491	his
-5.360824	historical
-4.271481	history
-4.176907	hit
-5.430245	hitch
-5.256088	hive
-4.869143	ho
-4.264308	hobby
-5.263914	hockey
-3.365238	hold
-5.015272	holder
-4.035093	holding
-4.789433	hole
-4.087296	holiday
-4.861261	holy
-3.389748	home
-5.402216	homeland
-5.402216	homeless
-4.635989	homework
-5.194716	honda
-4.313195	honest
-4.128347	honestly
-5.259983	honesty
-4.463321	honey
-4.962883	honeymoon
-4.066257	hong
-4.930558	honor
-5.017504	hook
-5.318534	hoon
-4.759999	hop
-4.083371	hope
-4.529332	hopefully
-5.201502	horizontal
-5.31408	horn
-4.758763	horrible
-4.573718	horror
-4.737104	horse
-3.992494	hospital
-4.972867	host
-4.804247	hostel
-3.989966	hot
-3.517633	hotel
-3.78182	hour
-3.418985	house
-4.93795	household
-4.939818	housewife
-5.271883	housework
-4.928729	housing
-2.593845	how
-4.74064	however
-4.606336	hub
-5.109406	hug
-4.325758	huge
-3.37691	huh
-5.300985	hulk
-4.796103	hum
-4.128347	human
-5.022005	humble
-3.335657	hundred
-5.413211	hunger
-4.215048	hungry
-5.079997	hunt
-5.006453	hurry
-4.62497	hurt
-4.028615	husband
-5.054886	hut
-5.351064	hybrid
-5.402216	hygiene
-1.567088	i
-4.032073	ice
-5.165427	iceland
-5.327582	icon
-5.181455	id
-3.907714	idea
-4.834014	ideal
-4.8566	identify
-5.095791	identity
-4.752638	idiom
-5.233424	idiot
-5.418816	idle
-5.162292	idol
-2.526815	if
-4.663832	ignore
-5.391492	ikat
-5.351064	ill
-4.897066	illegal
-5.365787	illness
-4.804247	image
-5.256088	imagination
-3.962883	imagine
-5.159178	immediate
-4.54867	immediately
-4.526432	impact
-5.396821	implement
-5.402216	implication
-5.033464	import
-5.318534	importance
-3.767361	important
-4.647295	impossible
-5.156087	impress
-4.596036	impression
-4.631364	impressive
-4.578579	improve
-5.240848	improvement
-2.251395	in
-5.396821	incentive
-5.300985	inch
-4.655971	incident
-4.778967	include
-5.194716	included
-5.191363	inclusive
-4.317194	income
-4.674878	increase
-5.341518	increasing
-5.336823	incredible
-5.267879	incredibly
-4.993552	indeed
-5.454048	independence
-4.829635	independent
-5.441983	index
-4.734763	indicate
-5.215401	indicative
-4.605468	individual
-4.818168	indoor
-4.542627	industrial
-4.505277	industry
-5.336823	infection
-5.137989	infinity
-4.921491	influence
-5.355916	influencer
-4.545638	inform
-3.942447	information
-5.244608	informed
-5.174973	ingredient
-5.156087	initial
-4.793423	initially
-5.360824	initiate
-5.194716	initiative
-4.695712	injured
-5.109406	injury
-5.226125	ink
-5.045235	inn
-4.93609	inner
-5.355916	innocence
-5.226125	innocent
-4.722107	input
-5.168586	insane
-5.365787	insect
-5.381027	insert
-5.381027	inserted
-3.575413	inside
-5.365787	insist
-5.296706	inspiration
-4.993552	inspire
-5.194716	inspired
-4.88535	inspiring
-5.13212	install
-5.31408	instance
-4.828185	instant
-5.026553	instantly
-4.03486	instead
-5.430245	institute
-5.129215	institution
-4.187704	instruction
-4.902185	instructor
-5.045235	instrument
-5.208396	instrumental
-4.535929	insurance
-5.208396	intake
-5.267879	intelligence
-5.288273	intelligent
-5.035793	intend
-5.391492	intending
-5.181455	intense
-5.14997	intention
-5.226125	inter
-4.955058	interact
-5.062268	interaction
-5.275922	interbank
-5.08259	interchange
-4.122321	interest
-4.296706	interested
-3.509774	interesting
-5.194716	interior
-4.635989	intern
-4.909107	internal
-4.476002	international
-4.36033	internship
-5.391492	interrupt
-4.287856	interview
-3.433325	into
-4.629528	introduce
-5.259983	introduction
-5.215401	introvert
-5.318534	invent
-4.987243	invention
-5.391492	inverted
-4.642548	invest
-5.430245	investigate
-5.309671	investigation
-4.481832	investment
-4.993552	invisible
-5.211884	invitation
-4.295855	invite
-4.989336	invoice
-5.01084	involve
-4.815348	involved
-5.218946	ion
-4.83255	iron
-5.441983	irritate
-4.968846	irritating
-1.878435	is
-4.458351	island
-4.126617	issue
-4.989336	issuer
-2.147291	it
-5.386228	itchy
-4.351064	item
-5.292469	itinerary
-3.630445	its
-3.970049	itself
-3.911205	j
-4.720975	jack
-4.835484	jacket
-5.129215	jail
-3.993976	jam
-5.370808	jane
-4.625878	jap
-4.209092	japan
-4.926908	jawab
-5.038135	jay
-4.91614	jazz
-5.08259	jealous
-5.386228	jean
-4.768748	jeans
-5.101186	jeep
-5.365787	jeff
-5.093119	jelly
-5.418816	jenny
-5.008641	jerry
-5.441983	jersey
-5.00211	jet
-5.168586	jimmy
-5.402216	jing
-3.557273	job
-4.867556	joe
-5.327582	joey
-5.174973	jog
-3.895035	join
-5.129215	joining
-4.813944	joint
-4.631364	joke
-5.211884	joker
-5.292469	jordan
-5.244608	journal
-4.867556	journey
-4.798801	joy
-4.667817	judge
-4.61867	juice
-5.211884	juicy
-4.294582	jump
-5.040488	junction
-4.458351	june
-5.008641	jungle
-4.675897	junior
-5.323035	junk
-2.354966	just
-5.365787	justice
-5.447974	justify
-3.255584	k
-4.519265	ka
-4.962883	kai
-4.412655	kaki
-5.022005	kala
-3.974487	kali
-5.365787	kampong
-2.681778	kan
-4.855057	kang
-4.698925	karaoke
-3.373442	kat
-3.835043	kay
-5.305306	kebab
-5.208396	keen
-3.430535	keep
-5.095791	keeper
-4.875554	keeping
-5.323035	kelly
-5.296706	ken
-4.643494	kept
-3.827462	kerana
-5.430245	kettle
-4.13858	key
-4.888666	keyboard
-5.259983	khan
-4.65306	kick
-4.970852	kicking
-5.300985	kidney
-4.368793	kill
-5.240848	killer
-5.178201	killing
-5.178201	kilo
-5.229759	kilometer
-5.038135	kim
-5.430245	kin
-3.030941	kind
-4.836959	kindergarten
-5.090462	kindle
-5.156087	kindly
-5.454048	kindness
-4.373848	king
-5.240848	kingdom
-5.436074	kiosk
-5.174973	kiri
-4.622259	kiss
-4.923289	kit
-4.573718	kitchen
-4.805619	kite
-5.074857	kitty
-4.932394	knee
-4.357382	knew
-4.939818	knife
-5.194716	knitting
-5.360824	knob
-4.828185	knock
-2.280324	know
-4.780262	knowing
-4.543378	knowledge
-4.655971	known
-4.504589	ko
-5.305306	koi
-5.391492	koko
-4.63506	kopi
-4.628613	kos
-4.489065	kosong
-5.019749	kuan
-5.424492	kurung
-5.140953	kurus
-3.692628	l
-3.018356	la
-4.54113	lab
-4.770012	label
-5.184732	labour
-4.970852	lack
-5.454048	ladder
-4.934238	ladies
-3.858459	lady
-5.07231	lag
-5.284117	lagoon
-5.153018	lai
-3.487741	lain
-4.914371	lake
-3.751544	lama
-4.867556	lamb
-4.628613	lame
-4.517846	lamp
-5.229759	lamppost
-5.140953	lan
-4.489728	land
-4.887005	landed
-5.204936	landing
-4.683092	lane
-4.330794	language
-5.159178	lap
-5.042855	lar
-4.845913	large
-4.457117	lari
-5.365787	laser
-3.109517	last
-5.309671	lastly
-3.933131	late
-5.184732	lately
-3.633578	later
-4.224679	latest
-4.37691	laugh
-4.598588	laughing
-5.263914	launch
-5.077419	laundry
-5.256088	lavender
-4.241973	law
-4.518555	lawyer
-4.775106	lay
-5.112182	layer
-5.229759	layout
-4.16922	lazy
-4.640664	lead
-4.782862	leader
-5.050034	leadership
-5.162292	leading
-5.054886	leaf
-4.991439	league
-5.402216	leak
-5.201502	lean
-3.70805	learn
-5.184732	learned
-4.359345	learning
-4.689356	learnt
-5.447974	lease
-3.670627	least
-3.478195	leave
-5.07231	leaves
-4.767487	leaving
-4.673862	lecture
-4.643494	lecturer
-5.424492	led
-4.324848	lee
-3.416116	left
-5.28	leftover
-4.103909	leg
-4.877172	legal
-5.346265	legally
-4.907366	legend
-4.370808	legit
-4.851988	leisure
-4.907366	lemon
-5.248401	lend
-5.074857	length
-4.993552	lens
-3.999955	less
-4.761238	lesser
-4.245743	lesson
-3.246046	let
-4.029304	letter
-3.769253	level
-4.939818	li
-5.284117	liar
-5.178201	liberal
-4.564155	library
-4.521402	license
-4.468349	lie
-3.216178	life
-5.309671	lifetime
-4.396821	lift
-3.888499	light
-4.9197	lighter
-5.332178	lighting
-5.375887	lightning
-1.848185	like
-4.777676	likely
-5.309671	liking
-5.198096	lily
-4.914371	lim
-5.240848	lime
-4.36033	limit
-4.209788	limited
-4.925095	lin
-3.532618	line
-5.047627	ling
-5.413211	linguistics
-4.368793	link
-5.296706	linked
-4.898766	lion
-4.834014	lip
-5.137989	lipstick
-5.050034	liquid
-5.386228	liquidity
-4.102273	list
-5.305306	listed
-4.011723	listen
-4.483793	listening
-5.123463	lit
-4.300985	literally
-5.222521	literary
-4.951198	literature
-3.731391	little
-3.787978	live
-5.402216	lived
-5.244608	liver
-4.180802	living
-5.355916	lizard
-4.71202	lo
-5.09848	load
-5.23712	loading
-5.327582	loaf
-5.424492	loafer
-4.339634	loan
-5.211884	lobby
-4.999955	lobster
-3.860793	local
-5.430245	locate
-4.462697	location
-4.68413	lock
-5.194716	locked
-5.038135	locker
-5.226125	lodge
-5.355916	loft
-4.048588	log
-5.346265	logged
-4.97897	logic
-5.168586	logical
-4.74064	login
-4.917916	lonely
-3.295133	long
-4.191363	longer
-3.33893	look
-3.710251	looking
-4.912609	loop
-5.103909	loose
-5.188035	lord
-5.135045	lori
-5.204936	lorry
-4.317194	lose
-5.460208	loser
-4.939818	losing
-5.017504	loss
-4.153936	lost
-2.985513	lot
-4.753856	lots
-5.370808	lottery
-4.437839	loud
-5.305306	loudly
-5.31408	lounge
-5.008641	lousy
-3.359985	love
-5.323035	lovely
-4.955058	lover
-5.024273	loving
-3.993552	low
-4.429088	lower
-4.91614	loyal
-5.275922	loyalty
-4.571307	luck
-4.957001	luckily
-4.264704	lucky
-5.059793	luggage
-5.300985	lump
-4.124321	lunch
-5.28	lung
-5.101186	luxury
-4.524989	lying
-3.324394	m
-4.273898	ma
-4.596885	mac
-4.277956	machine
-4.517138	mad
-4.676917	madam
-3.840966	made
-5.101186	magazine
-4.64825	magic
-4.800156	magical
-4.692522	maid
-4.27309	mail
-3.452217	main
-4.728965	mainly
-4.607205	maintain
-4.672849	maintenance
-4.540383	major
-5.050034	majority
-3.180965	make
-4.710914	maker
-4.185061	making
-5.090462	mala
-4.075368	male
-4.268278	mall
-3.431521	man
-3.110653	mana
-4.340105	manage
-4.47988	management
-4.249546	manager
-4.678966	mandarin
-5.436074	mandatory
-5.229759	manga
-5.07231	mango
-5.402216	manipulate
-5.06726	manner
-4.9197	manual
-3.344217	many
-4.816755	map
-5.430245	maple
-5.153018	marathon
-5.288273	marble
-4.489065	march
-5.323035	maria
-4.707611	marina
-5.047627	marine
-4.197418	mark
-5.109406	marker
-3.932946	market
-4.674878	marketing
-5.360824	marking
-5.165427	maroon
-4.187704	marriage
-4.040252	married
-4.805619	marry
-5.240848	mart
-5.355916	martial
-5.300985	martin
-4.715356	marvel
-5.233424	mary
-5.074857	mas
-3.382114	masa
-5.430245	mash
-5.022005	masjid
-4.667817	mask
-4.939818	mass
-4.893686	massage
-4.30314	master
-4.584321	mat
-4.28	match
-4.572912	matching
-4.83255	mate
-4.732435	material
-4.255701	maternity
-4.429666	math
-5.226125	mathematics
-4.012607	matter
-4.903905	mature
-5.244608	maturing
-4.93609	maturity
-4.718719	mau
-4.576952	maximum
-5.171767	maxwell
-3.369446	may
-2.90037	maybe
-2.487093	me
-4.035326	meal
-2.814183	mean
-4.213991	meaning
-4.589303	meaningful
-4.84894	meaningless
-4.592657	meant
-5.208396	meanwhile
-5.168586	measure
-4.326213	meat
-4.228666	media
-5.381027	medic
-4.282878	medical
-5.162292	medication
-4.690409	medicine
-5.336823	meditation
-4.910854	medium
-3.798936	meet
-4.249928	meeting
-5.296706	melody
-5.31408	melt
-5.038135	mem
-4.316747	member
-5.181455	membership
-4.342937	memorable
-5.229759	memorize
-4.426785	memory
-4.443175	men
-5.031148	meng
-4.635989	mental
-5.211884	mentality
-5.050034	mentally
-4.286606	mention
-5.327582	mentor
-4.458969	menu
-5.386228	mercy
-5.23712	mere
-5.447974	merge
-5.292469	meriah
-5.375887	merit
-5.355916	merry
-4.987243	mess
-4.114135	message
-5.309671	messenger
-4.953124	messy
-4.267481	met
-4.867556	metal
-4.847424	meter
-4.960914	method
-4.635989	mi
-5.460208	mice
-5.296706	micro
-5.271883	microphone
-4.48708	mid
-4.077163	middle
-4.864397	midnight
-3.757654	might
-5.171767	migrate
-5.006453	mike
-5.292469	mild
-5.006453	mile
-5.309671	military
-4.277956	milk
-3.96685	million
-5.271883	millionaire
-5.31408	millions
-4.495074	milo
-5.222521	min
-3.505897	mind
-5.222521	minded
-3.299182	mine
-5.436074	mineral
-5.146944	ming
-5.168586	minibus
-5.407679	minimal
-4.599442	minimum
-4.983087	minister
-4.878795	ministry
-4.88535	minor
-5.332178	minority
-5.386228	mint
-4.581851	minus
-3.934238	minute
-5.31408	miracle
-4.744205	mirror
-4.995676	mismatch
-3.85352	miss
-4.477937	missing
-4.91614	mission
-4.686213	mistake
-4.196741	mister
-4.258811	mix
-4.900473	mixed
-5.327582	mixture
-4.898766	mo
-4.515726	mobile
-5.153018	modal
-4.752638	mode
-4.517846	model
-4.64825	modern
-4.621359	module
-3.67204	moment
-5.391492	mommy
-3.261708	money
-4.583496	monitor
-4.878795	monkey
-5.042855	monster
-3.678761	month
-4.631364	monthly
-4.615997	mood
-4.741825	moon
-5.309671	moonlight
-5.171767	mop
-4.723243	moral
-2.850873	more
-5.006453	morgan
-3.653834	morning
-5.381027	morris
-5.336823	mosque
-3.185457	most
-4.300555	mostly
-3.795029	mother
-5.454048	motherland
-4.962883	motion
-5.109406	motivate
-5.093119	motivation
-4.387801	motor
-5.004276	motorcycle
-4.897066	motto
-5.09848	mount
-4.627699	mountain
-5.047627	mouse
-4.38051	mouth
-3.706625	move
-4.880424	movement
-3.655485	movie
-4.130665	moving
-4.796103	mu
-3.133258	much
-5.300985	mud
-5.370808	muffin
-5.035793	multiple
-5.204936	multiply
-3.841264	mum
-4.734763	mummy
-5.305306	murder
-4.732435	murid
-4.960914	muscle
-4.614224	museum
-5.035793	mushroom
-3.809346	music
-4.813944	musical
-5.31408	musician
-3.400645	must
-5.332178	mustard
-5.447974	mutant
-5.008641	mutton
-5.171767	mutual
-2.294853	my
-3.70054	myself
-5.109406	mystery
-3.533205	n
-4.775106	na
-5.327582	nag
-3.939818	naik
-5.248401	nail
-2.761337	nak
-4.989336	naked
-3.274666	name
-4.835484	nana
-5.375887	nanny
-5.14997	nap
-5.430245	narrow
-3.676713	nasi
-5.292469	nasty
-5.054886	nation
-4.288273	national
-5.418816	nationality
-5.360824	native
-4.447974	natural
-4.957001	naturally
-4.329415	nature
-5.059793	naughty
-5.430245	navy
-3.822147	near
-4.499126	nearby
-4.601156	nearest
-5.06726	nearly
-5.159178	necessarily
-4.652093	necessary
-4.914371	neck
-5.035793	necklace
-2.885251	need
-4.340105	needs
-5.436074	needy
-4.587636	negative
-5.09848	neighbor
-4.895373	neighborhood
-5.135045	neither
-5.194716	nephew
-5.233424	nervous
-4.417689	net
-5.024273	netball
-4.839923	network
-5.140953	neutral
-3.096516	never
-3.362505	new
-4.258811	news
-4.764977	newspaper
-4.991439	newton
-3.112042	next
-2.982818	ni
-3.232725	nice
-5.022005	nicely
-5.284117	nick
-4.880424	nickname
-5.201502	niece
-3.705096	night
-5.327582	nightmare
-5.174973	nights
-3.085303	nine
-4.193372	nineteen
-3.994188	ninety
-5.252228	ninth
-2.341381	no
-4.060781	nobody
-4.812546	noise
-4.877172	noisy
-5.327582	nominal
-4.227938	non
-4.722107	none
-4.70981	nonsense
-4.521402	noodle
-4.590976	nope
-4.893686	nor
-5.211884	norm
-3.704769	normal
-3.981642	normally
-4.258421	north
-5.28	northern
-4.68413	nose
-2.355633	not
-4.203216	note
-5.106649	noted
-3.547455	nothing
-4.368793	notice
-5.171767	notification
-5.370808	notify
-5.165427	notional
-5.123463	noun
-5.079997	novel
-5.069777	novice
-2.725168	now
-4.065257	nowadays
-5.015272	nowhere
-5.441983	nuclear
-5.381027	nugget
-5.129215	numb
-3.090621	number
-5.064757	nun
-4.535191	nurse
-5.143938	nursery
-4.878795	nursing
-5.323035	nut
-5.381027	nutrition
-3.375071	o
-4.284945	object
-5.259983	objective
-5.215401	observe
-5.201502	obtain
-4.813944	obvious
-4.246121	obviously
-5.309671	occasion
-5.424492	occasionally
-4.782862	ocean
-5.424492	octopus
-5.126329	odd
-2.186489	of
-3.580375	off
-4.118068	offer
-5.391492	offering
-3.826307	office
-3.874264	officer
-5.006453	official
-5.424492	officially
-5.31408	offshore
-4.376399	often
-2.336543	oh
-4.463947	oil
-4.925095	oily
-3.331901	old
-5.346265	olden
-4.2651	older
-5.194716	olive
-5.346265	omelette
-2.458005	on
-3.616264	once
-2.193909	one
-5.454048	ongoing
-5.024273	onion
-2.902014	only
-4.704333	onto
-4.932394	onwards
-5.396821	opah
-3.546546	open
-4.615997	opening
-5.218946	opera
-5.381027	operate
-5.284117	operating
-4.953124	operation
-4.401674	operator
-4.595189	opinion
-5.430245	opponent
-4.63692	opportunity
-4.352998	opposite
-4.599442	option
-2.50159	or
-4.981024	oral
-2.79822	orang
-4.148454	orange
-4.340575	orchard
-5.06726	orchestra
-3.745998	order
-5.059793	ordered
-5.201502	ordinary
-5.318534	organ
-5.106649	organic
-5.256088	organization
-5.017504	organize
-5.447974	organizer
-4.943578	orientation
-4.73828	origin
-4.31764	original
-3.079816	other
-4.614224	otherwise
-5.460208	ouch
-3.213253	our
-4.82674	ours
-5.381027	ourself
-4.792089	ourselves
-2.949376	out
-5.162292	outbreak
-4.987243	outcome
-4.914371	outdoor
-5.460208	outdoors
-5.201502	outer
-4.957001	outfit
-5.248401	outgoing
-5.079997	outing
-4.700001	outlet
-5.156087	outline
-5.226125	outlook
-5.085198	output
-3.881733	outside
-5.174973	outstanding
-5.062268	oven
-3.380304	over
-4.835484	overall
-5.168586	overcome
-5.441983	overhead
-5.360824	overlap
-5.143938	overload
-4.983087	overnight
-4.999955	oversea
-4.1061	overseas
-5.233424	overtime
-5.351064	overweight
-5.233424	owe
-3.564785	own
-4.726667	owner
-5.413211	ownself
-4.8566	oxygen
-5.057333	oyster
-3.311165	p
-4.658902	pa
-4.974892	pace
-5.424492	pacemaker
-5.194716	pacific
-4.544884	pack
-4.692522	package
-4.958953	packet
-4.472797	pad
-4.297558	page
-5.062268	pail
-3.925457	pain
-4.794761	painful
-4.887005	paint
-4.905632	painting
-4.579394	pair
-5.240848	palace
-5.050034	pale
-3.825443	paling
-5.300985	palm
-5.045235	pan
-5.391492	panama
-4.864397	pancake
-4.697851	panda
-4.953124	pandan
-4.805619	panel
-5.275922	pang
-5.045235	panic
-5.318534	pant
-5.407679	panther
-4.122321	pants
-5.146944	papa
-4.052696	paper
-5.085198	par
-5.06726	para
-4.94928	parade
-5.201502	paradise
-5.109406	pardon
-4.210486	parent
-4.928729	parental
-3.928182	park
-4.836959	parking
-3.458165	part
-5.413211	partial
-4.611579	participate
-4.32168	particular
-5.305306	particularly
-5.418816	partly
-4.101729	partner
-4.137989	party
-4.903905	pasang
-3.71962	pass
-5.08259	passenger
-4.74064	passing
-4.572109	passion
-5.174973	passionate
-5.181455	passive
-4.372325	passport
-5.017504	password
-3.948325	past
-4.777676	paste
-5.305306	pat
-4.991439	patch
-4.654028	paternity
-4.746598	path
-4.870737	patience
-3.866764	patient
-4.811152	pattern
-4.932394	pause
-5.103909	pavement
-5.300985	pavilion
-3.513686	pay
-4.451608	paying
-4.050758	payment
-5.120615	pea
-4.764977	peace
-5.09848	peaceful
-4.575332	peach
-4.647295	peak
-5.123463	peanut
-4.74064	pear
-5.059793	pearl
-4.903905	pee
-5.146944	peek
-5.332178	peel
-5.022005	peer
-5.174973	peeve
-5.424492	peggy
-5.413211	pekan
-4.563367	pen
-5.323035	penalty
-4.304872	penang
-4.921491	pencil
-5.126329	pending
-5.305306	penguin
-5.447974	pension
-2.890533	people
-4.861261	pepper
-4.052453	per
-3.749486	percent
-4.974892	percentage
-5.267879	perception
-4.226849	perfect
-5.323035	perfectly
-4.744205	perform
-4.597736	performance
-5.194716	perfume
-4.77128	perhaps
-4.044043	period
-5.006453	permanent
-5.441983	permission
-4.96685	permit
-5.23712	perpetual
-3.245591	person
-3.919164	personal
-4.517138	personality
-4.553257	personally
-4.782862	perspective
-5.054886	pertaining
-4.14334	pet
-4.945471	peter
-4.880424	petrol
-5.271883	petty
-4.38051	pharmacy
-4.960914	phase
-5.309671	philosophy
-3.529987	phone
-4.228302	photo
-5.391492	photocopy
-5.441983	photograph
-5.256088	photography
-4.329875	phrase
-4.49642	physical
-4.934238	physically
-4.695712	physics
-4.84894	pi
-4.590139	piano
-3.986825	pick
-5.153018	picked
-5.430245	picky
-4.872337	picnic
-3.82978	picture
-4.40878	pie
-4.371819	piece
-4.67794	pig
-5.292469	pigeon
-5.267879	pile
-5.13212	pill
-5.017504	pillow
-4.801516	pilot
-4.70108	pin
-4.68517	pinang
-5.188035	pineapple
-4.941694	ping
-3.897745	pink
-5.296706	pinkish
-4.650167	pioneer
-5.240848	pipe
-4.61867	pisang
-5.418816	piss
-5.256088	pit
-5.07231	pitch
-5.123463	pity
-4.287022	pizza
-3.354892	place
-4.704333	plain
-3.845763	plan
-4.778967	plane
-5.159178	planet
-5.396821	plank
-4.819585	plant
-4.600298	plastic
-4.626788	plate
-4.743013	platform
-3.408339	play
-4.467718	player
-5.365787	playful
-4.71313	playground
-4.83255	plaza
-5.418816	pleasant
-3.396339	please
-5.436074	pleasure
-5.396821	plenty
-4.995676	plot
-5.178201	pluck
-5.156087	plug
-4.945471	plum
-3.67498	plus
-5.351064	po
-4.83109	pocket
-3.276328	point
-5.240848	pointer
-4.639725	pointing
-5.418816	poison
-5.090462	poke
-5.418816	poker
-5.208396	polar
-4.691464	pole
-4.293313	police
-4.851988	policy
-4.606336	polis
-5.188035	polish
-5.418816	polite
-4.995676	political
-4.809762	politics
-5.077419	polo
-4.045235	poly
-4.98516	polyclinic
-5.093119	polytechnic
-5.292469	pon
-5.07231	pond
-5.087822	pong
-4.32168	pool
-4.251076	poor
-4.342937	pop
-4.819585	popcorn
-4.275111	popular
-4.974892	population
-4.614224	pork
-4.746598	porridge
-4.808376	port
-5.233424	portable
-4.621359	portal
-4.476646	portfolio
-4.649208	portion
-4.893686	pose
-4.265892	position
-4.4652	positive
-4.764977	possession
-5.233424	possibility
-4.085984	possible
-5.222521	possibly
-3.952738	post
-4.449787	postal
-5.07231	posted
-4.604602	poster
-5.381027	posting
-4.747799	pot
-4.357382	potato
-4.719845	potatoes
-5.07231	potential
-4.515021	potong
-5.112182	potter
-4.910854	pound
-4.989336	pour
-4.751423	powder
-3.942447	power
-5.095791	powerful
-4.78811	practical
-5.305306	practically
-4.608077	practice
-5.418816	praise
-5.168586	pram
-5.355916	prank
-4.733597	prawn
-4.784168	pray
-5.252228	prayer
-5.178201	precious
-5.090462	precisely
-5.386228	predict
-5.441983	prefect
-4.085721	prefer
-5.035793	preference
-5.370808	preferred
-4.951198	pregnant
-5.085198	premium
-5.355916	preparation
-4.372325	prepare
-4.887005	prepared
-5.402216	preschool
-4.576141	present
-4.772552	presentation
-5.01305	preserve
-4.96685	president
-4.366286	press
-5.418816	pressing
-4.43315	pressure
-5.015272	pretend
-3.889498	pretty
-4.85352	prevent
-4.307483	previous
-4.49642	previously
-3.911556	price
-5.365787	pride
-3.796373	primary
-4.943578	prime
-5.165427	prince
-4.945471	princess
-5.117785	principal
-5.259983	principle
-4.626788	print
-5.218946	prior
-4.970852	priority
-4.875554	prison
-5.198096	privacy
-4.258811	private
-5.194716	privilege
-5.137989	prize
-4.37334	pro
-5.341518	probability
-3.538596	probably
-3.597395	problem
-4.773827	procedure
-4.189031	proceed
-4.203903	process
-5.341518	procrastinate
-4.989336	procrastinating
-4.892006	produce
-5.351064	producer
-4.448577	product
-4.895373	production
-5.117785	productive
-4.93609	prof
-5.332178	profession
-4.472797	professional
-4.83255	professor
-4.970852	profile
-4.999955	profit
-4.375377	program
-4.800156	progress
-4.14785	project
-5.077419	promise
-4.883702	promote
-5.375887	promoter
-4.616886	promotion
-5.093119	prompt
-4.88535	pronounce
-4.987243	proof
-5.208396	proofread
-5.413211	propaganda
-4.503217	proper
-4.401674	properly
-4.594343	property
-4.806995	proposal
-5.256088	propose
-5.074857	prospectus
-4.999955	protect
-5.146944	protection
-5.436074	protective
-4.934238	protein
-4.974892	prove
-4.302277	provide
-4.785478	provided
-5.391492	provider
-5.460208	providing
-4.579394	provoking
-4.926908	psychology
-4.872337	puan
-4.622259	pub
-4.190029	public
-5.275922	publish
-5.178201	pudding
-5.204936	puff
-4.43725	pull
-5.386228	pulse
-4.999955	pump
-5.346265	pumpkin
-2.905148	pun
-5.047627	punch
-5.430245	punishment
-5.050034	puppy
-4.88535	purchase
-4.772552	pure
-5.263914	purely
-4.271883	purple
-4.42621	purpose
-4.957001	purposely
-5.057333	pursue
-4.145138	push
-4.804247	pushing
-3.216391	put
-5.424492	puzzle
-3.883373	q
-5.454048	qualification
-5.418816	qualified
-5.07231	qualify
-4.445568	quality
-5.31408	quantity
-4.926908	quarantine
-5.201502	quarrel
-4.517846	quarter
-5.381027	quay
-4.781559	queen
-5.375887	query
-5.396821	quest
-3.187108	question
-5.407679	questionnaire
-4.092054	queue
-4.520689	quick
-4.594343	quickly
-4.458351	quiet
-4.564943	quit
-3.040819	quite
-4.88535	quiz
-4.890333	quote
-3.680715	r
-5.391492	ra
-4.662842	rabbit
-4.663832	race
-5.23712	racial
-5.256088	racing
-5.240848	racist
-5.336823	rack
-5.033464	racket
-4.472797	radio
-5.300985	raid
-4.494402	rain
-5.211884	rainbow
-5.323035	rainy
-4.77639	raise
-5.436074	raised
-5.211884	raising
-5.171767	raja
-4.654999	rakan
-5.454048	ram
-4.829635	ran
-4.457117	random
-5.135045	randomly
-4.70108	range
-4.960914	rank
-4.444968	rap
-4.735932	rare
-4.983087	rarely
-3.2038	rasa
-5.402216	rat
-5.135045	rata
-3.938323	rate
-5.259983	rated
-3.997382	rather
-5.069777	rating
-5.292469	ratio
-5.441983	ration
-4.76623	raw
-5.057333	ray
-4.031148	raya
-4.564155	re
-4.183418	reach
-5.244608	reaching
-4.800156	react
-5.01084	reaction
-3.658706	read
-4.215401	reading
-4.193372	ready
-3.889832	real
-5.106649	realistic
-4.845913	reality
-4.390434	realize
-2.765064	really
-3.971054	reason
-5.06726	reasonable
-5.346265	rebate
-4.917916	rebel
-5.305306	rebellious
-4.763727	rebus
-4.785478	recall
-4.943578	receipt
-4.059054	receive
-4.064757	received
-4.523551	recent
-3.940567	recently
-5.300985	reception
-4.526432	recess
-5.396821	recheck
-4.793423	recipe
-5.336823	recognition
-5.240848	recognize
-4.486421	recommend
-5.365787	recommendation
-5.31408	reconfirm
-4.257642	record
-4.509426	recording
-4.99781	recover
-5.436074	recovery
-5.346265	recruit
-4.96685	rectangle
-5.218946	rectangular
-5.178201	recycle
-3.53815	red
-5.454048	reddish
-5.252228	redeem
-5.391492	redemption
-5.292469	redo
-4.93609	reduce
-4.69678	refer
-4.287438	reference
-5.153018	reflect
-5.413211	reflected
-5.370808	reflection
-4.983087	refresh
-4.834014	refund
-5.07231	refuse
-4.117785	regarding
-5.093119	regardless
-5.244608	region
-4.549431	register
-4.77128	registered
-4.907366	registration
-4.65306	regret
-4.844409	regular
-5.259983	regularly
-5.447974	rehearsal
-5.054886	reimbursement
-4.681024	reject
-5.396821	rejection
-4.842908	relate
-4.323941	related
-5.370808	relation
-4.196741	relationship
-5.01084	relative
-5.208396	relatively
-4.165112	relax
-5.271883	relaxed
-4.654028	release
-4.624065	relevant
-5.418816	reliable
-5.191363	relief
-5.28	relieve
-4.756303	religion
-4.932394	religious
-4.989336	relive
-5.174973	rely
-5.178201	remain
-3.429435	remember
-4.897066	remind
-4.676917	remit
-4.691464	remittance
-5.271883	remix
-5.181455	remote
-4.728965	remove
-4.747799	renew
-5.240848	renewal
-5.402216	renovate
-5.23712	renovation
-4.509426	rent
-4.821006	rental
-5.054886	repair
-4.093385	repeat
-5.07231	replace
-5.123463	replacement
-4.305306	reply
-4.20944	report
-5.355916	reporter
-5.259983	represent
-5.087822	republic
-5.365787	reputation
-4.478584	request
-4.682057	require
-4.828185	requirement
-5.31408	rescue
-4.324394	research
-5.146944	reserve
-5.424492	reserved
-5.430245	reservist
-5.047627	reservoir
-5.01084	reset
-4.850461	resident
-5.413211	residential
-4.995676	resign
-4.777676	resort
-5.06726	resource
-4.585975	respect
-4.785478	respond
-4.888666	response
-4.98516	responsibility
-5.090462	responsible
-3.999955	rest
-4.227212	restaurant
-5.226125	resting
-5.460208	restriction
-4.446168	result
-4.970852	resume
-5.120615	retail
-5.391492	retain
-5.454048	retake
-5.28	retarded
-5.181455	retell
-4.962883	retire
-5.275922	retired
-5.31408	retirement
-5.296706	retrieve
-5.391492	retrospect
-4.332641	return
-5.402216	reveal
-5.360824	revenue
-5.146944	reverse
-4.688306	review
-5.198096	revise
-5.240848	revision
-5.407679	revolution
-5.201502	reward
-5.396821	rhythm
-5.381027	rib
-5.109406	ribbon
-3.819017	rice
-4.2401	rich
-5.275922	rid
-4.358854	ride
-5.156087	rider
-4.625878	ridiculous
-4.962883	riding
-2.385131	right
-4.630445	ring
-4.902185	rise
-5.413211	rising
-4.057333	risk
-5.360824	risky
-4.542627	river
-3.732202	road
-5.28	roadside
-5.054886	roast
-4.731275	robot
-4.204591	rock
-5.198096	rod
-5.365787	roger
-4.398971	role
-4.456501	roll
-4.691464	roller
-5.198096	rolling
-4.890333	romance
-4.74064	romantic
-4.486421	roof
-3.732202	room
-5.054886	roomie
-5.09848	roommate
-5.01084	root
-5.267879	rope
-4.737104	rose
-5.106649	rough
-4.369799	roughly
-4.289947	round
-4.941694	route
-4.957001	routine
-4.815348	row
-5.095791	royal
-5.28	rub
-5.135045	rubber
-4.459588	rubbish
-5.093119	ruby
-4.73828	rude
-5.418816	ruin
-4.878795	rule
-5.233424	ruler
-3.852141	run
-5.165427	runner
-4.201502	running
-5.01084	rupa
-5.323035	rural
-4.515021	rush
-4.411544	rushing
-5.008641	russia
-5.396821	rusty
-3.100183	s
-4.74064	sa
-4.805619	sack
-5.033464	sacrifice
-3.842908	sad
-5.323035	sadly
-5.284117	sadness
-4.749003	safari
-4.422213	safe
-4.743013	safety
-5.402216	sah
-3.379478	said
-5.159178	saint
-4.928729	sake
-4.644441	salad
-4.377936	salary
-4.433733	sale
-4.883702	salmon
-4.875554	salt
-4.926908	salted
-5.057333	salty
-5.004276	sam
-4.303573	sambal
-3.135837	same
-4.914371	sample
-5.045235	san
-4.454048	sand
-4.869143	sandwich
-5.171767	sandy
-5.208396	sang
-4.926908	sapa
-5.351064	sarcastic
-5.460208	sari
-4.663832	sat
-4.962883	sate
-5.252228	satisfaction
-5.079997	satisfied
-5.430245	satisfy
-5.454048	satisfying
-4.401674	sauce
-5.085198	sausage
-4.007108	save
-5.14997	saved
-4.661853	saving
-3.674065	saw
-5.233424	sawing
-2.709589	say
-2.551333	saya
-3.679274	saying
-5.114974	scale
-5.095791	scam
-4.859702	scan
-5.327582	scar
-4.861261	scare
-5.413211	scarf
-4.191029	scary
-4.851988	scenario
-4.622259	scene
-4.943578	scenery
-4.468349	schedule
-4.637853	scheme
-4.991439	scholarship
-3.183779	school
-5.208396	schooling
-4.09848	science
-5.424492	scientific
-5.229759	scientist
-5.135045	scissors
-4.61867	scold
-5.198096	scolding
-5.346265	scoop
-5.332178	scooter
-5.052453	scope
-4.554027	score
-4.999955	scratch
-5.050034	scream
-5.178201	screaming
-4.482484	screen
-4.932394	screw
-5.341518	screwed
-5.201502	script
-5.00211	scroll
-5.346265	scrub
-4.309671	se
-4.226487	sea
-5.143938	seal
-4.312311	search
-5.201502	searching
-4.363298	season
-4.249928	seat
-5.418816	seated
-5.381027	seater
-5.129215	seaweed
-4.287022	sec
-3.540906	second
-3.83829	secondary
-5.204936	secondly
-4.697851	secret
-4.559451	section
-5.074857	sector
-5.248401	secure
-4.3501	security
-2.762095	see
-5.047627	seed
-4.482484	seeing
-4.88535	seek
-4.589303	seem
-4.069021	seen
-5.129215	seesaw
-5.215401	segment
-4.798801	seldom
-4.758763	select
-5.01084	selected
-5.341518	selection
-4.124894	self
-4.972867	selfish
-3.861418	sell
-5.292469	seller
-4.387276	selling
-4.385183	semester
-4.947371	semi
-4.83109	seminar
-4.945471	sen
-3.591732	send
-4.757532	sending
-4.413769	senior
-3.868031	sense
-4.725523	sensitive
-5.191363	sensor
-4.291206	sent
-4.349138	sentence
-4.892006	sentimental
-4.732435	separate
-5.305306	separately
-5.069777	serai
-5.042855	sergeant
-4.632285	series
-4.037665	serious
-4.31408	seriously
-5.267879	serta
-5.267879	servant
-4.499805	serve
-5.004276	server
-3.718157	service
-5.064757	serving
-5.430245	sesame
-4.521402	session
-5.327582	sessions
-3.976927	set
-4.813944	setting
-4.409331	settle
-5.244608	settled
-5.120615	settlement
-3.193943	seven
-4.348658	seventeen
-5.074857	seventh
-4.014604	seventy
-5.296706	several
-5.059793	severe
-5.447974	sewing
-4.892006	sex
-5.218946	sexual
-5.103909	sexy
-5.184732	sh
-4.423351	shack
-4.953124	shade
-5.184732	shadow
-5.13212	shag
-4.862826	shah
-4.728965	shake
-5.222521	shaking
-4.28	shall
-5.375887	shame
-5.233424	shampoo
-4.800156	shanghai
-4.439019	shape
-3.910155	share
-4.533719	shark
-4.981024	sharp
-5.300985	shave
-5.156087	shaw
-2.681375	she
-5.188035	shed
-4.366286	sheep
-4.67794	sheet
-5.240848	shelf
-4.716475	shell
-5.211884	shellfish
-4.855057	shelter
-4.870737	shi
-5.351064	shield
-4.47988	shift
-4.43725	shine
-5.31408	shining
-4.623161	ship
-5.233424	shipping
-4.028615	shirt
-5.218946	shivering
-4.596885	shock
-5.391492	shocking
-4.241223	shoe
-4.354455	shoot
-5.454048	shooter
-4.875554	shooting
-3.540308	shop
-3.585892	shopping
-4.68413	shore
-3.874425	short
-5.101186	shorter
-5.211884	shortly
-5.360824	shortness
-4.516431	shorts
-4.667817	shot
-3.142622	should
-4.99781	shoulder
-4.862826	shout
-4.893686	shouting
-5.050034	shovel
-3.601327	show
-4.70108	shower
-4.715356	showing
-5.31408	shown
-5.402216	shrink
-5.112182	shrunk
-4.928729	shuffle
-4.659884	shut
-5.101186	shuttle
-4.850461	shy
-4.524269	si
-5.101186	sial
-4.953124	sibling
-4.344835	sick
-5.204936	sickness
-3.405158	side
-5.413211	sided
-4.96685	sides
-4.890333	sideways
-5.143938	sigh
-5.064757	sight
-3.666318	sign
-4.968846	signal
-5.047627	signature
-4.4652	signboard
-5.184732	significance
-4.767487	significant
-5.14997	silence
-5.015272	silent
-4.241598	silly
-4.873942	silver
-4.351064	similar
-4.970852	similarity
-4.112739	simple
-4.993552	simply
-5.305306	sin
-3.742775	since
-5.407679	sincere
-3.883373	sing
-4.806995	singer
-4.590139	singing
-3.989126	single
-5.436074	singlet
-5.300985	sink
-3.920774	sir
-4.953124	sis
-3.981848	sister
-3.971859	sit
-4.668818	site
-4.079739	sitting
-4.151796	situation
-3.08259	six
-4.140953	sixteen
-4.858148	sixth
-3.916317	sixty
-4.151796	size
-5.248401	skate
-5.181455	skating
-5.360824	sketch
-5.123463	sketchbook
-5.355916	ski
-4.40005	skill
-5.327582	skim
-4.256088	skin
-5.033464	skinny
-4.257642	skip
-5.454048	skipping
-4.629528	skirt
-4.501849	sky
-4.789433	slack
-5.418816	slam
-5.288273	slang
-5.117785	slap
-4.657923	slash
-3.896388	sleep
-4.3831	sleeping
-4.914371	sleepy
-4.79745	sleeve
-5.135045	slept
-5.09848	slice
-4.750212	slide
-5.146944	slight
-4.412099	slightly
-5.028844	slim
-4.93609	slip
-4.962883	slipper
-4.872337	slogan
-5.198096	slope
-5.040488	slot
-4.263914	slow
-4.360824	slowly
-3.577928	small
-4.411544	smaller
-4.239727	smart
-5.386228	smash
-4.520689	smell
-4.97897	smelly
-4.704333	smile
-5.022005	smiling
-5.174973	smith
-4.375377	smoke
-4.813944	smoking
-4.905632	smooth
-4.823864	snack
-4.862826	snake
-5.13212	snap
-5.454048	snatch
-4.99781	sneak
-5.288273	sniffing
-4.813944	snow
-1.989281	so
-5.413211	soak
-5.165427	soap
-4.194716	soccer
-3.904078	social
-4.304005	society
-5.336823	sociology
-4.869143	sock
-5.01084	sofa
-4.331255	soft
-5.391492	softball
-5.413211	soil
-5.418816	solar
-4.809762	sold
-5.318534	soldier
-5.332178	sole
-5.288273	solemnization
-5.135045	solid
-4.672849	solo
-4.875554	solution
-4.792089	solve
-2.974953	some
-4.132411	somebody
-5.386228	someday
-4.482484	somehow
-3.564233	someone
-5.090462	somerset
-2.956398	something
-4.076906	sometime
-3.570586	sometimes
-5.137989	somewhat
-4.156087	somewhere
-4.069021	son
-3.999955	song
-4.109683	soon
-5.226125	sore
-3.261512	sorry
-4.15363	sort
-4.731275	soul
-4.093119	sound
-4.20944	soup
-4.96685	sour
-4.845913	source
-4.508039	south
-5.454048	southeast
-5.430245	southern
-5.267879	souvenir
-5.386228	soy
-5.09848	soya
-4.895373	spa
-4.242348	space
-5.064757	spade
-4.869143	spaghetti
-5.351064	span
-5.015272	spare
-5.375887	spark
-3.744682	speak
-4.702162	speaker
-4.002759	speaking
-5.365787	spec
-4.030686	special
-5.218946	specialist
-5.413211	specially
-5.381027	species
-4.443772	specific
-5.006453	specifically
-5.114974	specs
