
\data\
ngram 1=22329
ngram 2=0
ngram 3=0

\1-grams:
-3.40065	</s>
-3.40065	<noise>
-99	<s>
-3.40065	<v-noise>
-3.40065	__Abraham_Solomon
-3.40065	__Admiralty_Greens
-3.40065	__Admiralty_Road
-3.40065	__Admiralty_West
-3.40065	__Ah_Hood_Road
-3.40065	__Aida_Street
-3.40065	__Airline_Road
-3.40065	__Airport_Cargo_Road
-3.40065	__Al_Islamiah
-3.40065	__Al_Islamic
-3.40065	__Alex_Josey
-3.40065	__Alexander_Laurie_Johnston
-3.40065	__Alexandra_Lane
-3.40065	__Alexandra_Road
-3.40065	__Aliman_Hassan
-3.40065	__Aljunied_Avenue
-3.40065	__Aljunied_Crescent
-3.40065	__Aljunied_Hussein
-3.40065	__Aljunied_Neighbourhood
-3.40065	__Aljunied_Road
-3.40065	__Alnwick_Road
-3.40065	__Amasalam_Chetty_Road
-3.40065	__Anak_Bukit
-3.40065	__Anchorvale_Drive
-3.40065	__Anchorvale_Street
-3.40065	__Ang_Mo_Kio
-3.40065	__Ang_Mo_Kio_Street
-3.40065	__Ang_Peng_Tiam
-3.40065	__Angsana_Avenue
-3.40065	__Angsana_Drive
-3.40065	__Ann_Siang_Hill
-3.40065	__Anthony_Road
-3.40065	__Arab_Street
-3.40065	__Arrival_Crescent
-3.40065	__Arts_Link
-3.40065	__Arumugam_Road
-3.40065	__Asia_Pacific
-3.40065	__Asia_Square
-3.40065	__Asimont_Lane
-3.40065	__Attap_Valley_Lane
-3.40065	__Au_Yun_Pak
-3.40065	__Auckland_Road_West
-3.40065	__Australian_International
-3.40065	__Ava_Road
-3.40065	__Avon_Road
-3.40065	__Baker_Street
-3.40065	__Bali_Lane
-3.40065	__Balmoral_Crescent
-3.40065	__Bao_Gong
-3.40065	__Bartley_Road
-3.40065	__Beach_Road
-3.40065	__Beatty_Road
-3.40065	__Bedok_Anchorvale_Crescent
-3.40065	__Bedok_Green
-3.40065	__Bedok_Lighthouse
-3.40065	__Bedok_North
-3.40065	__Bedok_Point
-3.40065	__Bedok_Points
-3.40065	__Bedok_Reservoir
-3.40065	__Bedok_Ria_Crescent
-3.40065	__Bedok_South
-3.40065	__Bedok_View
-3.40065	__Beeh_Low_See
-3.40065	__Begonia_Walk
-3.40065	__Belilios_Lane
-3.40065	__Belmont_Road
-3.40065	__Bernice_Ong
-3.40065	__Bethlehem_Bible_Presbyterian
-3.40065	__Binchang_Rise
-3.40065	__Bishan_Point
-3.40065	__Bishan_Street
-3.40065	__Blackmore_Drive
-3.40065	__Bliss_Hotel
-3.40065	__Blue_Cross
-3.40065	__Blue_Stars
-3.40065	__Bo_Seng_Avenue
-3.40065	__Boarding_House
-3.40065	__Boat_Quay
-3.40065	__Bodmin_Drive
-3.40065	__Bonham_Street
-3.40065	__Boon_Keng
-3.40065	__Boon_Lay
-3.40065	__Boon_Lay_Place
-3.40065	__Boon_Tat_Street
-3.40065	__Boon_Teck_Road
-3.40065	__Borthwick_Drive
-3.40065	__Boundary_Road
-3.40065	__Braddell_Road
-3.40065	__Brani_Drive
-3.40065	__Brani_Marine
-3.40065	__Brani_Way
-3.40065	__Bridport_Avenue
-3.40065	__Bright_Hill
-3.40065	__Bristol_Road
-3.40065	__Buangkok_View
-3.40065	__Bukit_Batok
-3.40065	__Bukit_Batok_Avenue
-3.40065	__Bukit_Batok_Avenue_West
-3.40065	__Bukit_Batok_Central
-3.40065	__Bukit_Batok_Central_Link
-3.40065	__Bukit_Batok_Crescent
-3.40065	__Bukit_Batok_East
-3.40065	__Bukit_Batok_East_Avenue
-3.40065	__Bukit_Batok_Road
-3.40065	__Bukit_Batok_Street
-3.40065	__Bukit_Batok_West
-3.40065	__Bukit_Batok_West_Avenue
-3.40065	__Bukit_Chandu
-3.40065	__Bukit_Ho_Swee_Link
-3.40065	__Bukit_Manis_Road
-3.40065	__Bukit_Merah
-3.40065	__Bukit_Merah_View
-3.40065	__Bukit_Mugliston
-3.40065	__Bukit_Sedap_Road
-3.40065	__Bukit_Teresa_Close
-3.40065	__Bukit_Timah
-3.40065	__Bukit_Timah_Avenue
-3.40065	__Bukit_Timah_Link
-3.40065	__Bukit_Timah_Plaza
-3.40065	__Bukit_Timah_Road
-3.40065	__Bukit_Tinggi_Road
-3.40065	__Burmah_Road
-3.40065	__Burmese_Buddhist
-3.40065	__Bury_Road
-3.40065	__Buyong_Road
-3.40065	__Canberra_View
-3.40065	__Canning_Lane
-3.40065	__Canning_Rise
-3.40065	__Cantonment_Complex
-3.40065	__Carisbrooke_Grove
-3.40065	__Carl_Alexander
-3.40065	__Carlton_Avenue
-3.40065	__Carnation_Drive
-3.40065	__Cashew_Crescent
-3.40065	__Cashew_Road
-3.40065	__Cassia_Crescent
-3.40065	__Ceylon_Road
-3.40065	__Chai_Chee
-3.40065	__Chai_Chee_Drive
-3.40065	__Chai_Chee_Street
-3.40065	__Chan_Chun_Sing
-3.40065	__Chan_Sek_Keong
-3.40065	__Chancery_Lane
-3.40065	__Chang_Ziang
-3.40065	__Changi_Business_Park_Vista
-3.40065	__Changi_Coast
-3.40065	__Changi_East_Drive
-3.40065	__Changi_East_Road
-3.40065	__Changi_South_Lane
-3.40065	__Changi_Village_Road
-3.40065	__Changkat_Changi
-3.40065	__Chatsworth_Road
-3.40065	__Cheang_Hong_Lim_Place
-3.40065	__Cheang_Hong_Lim_Street
-3.40065	__Chencharu_Lane
-3.40065	__Chencharu_Link
-3.40065	__Cheo_Kim_Ban
-3.40065	__Chestnut_Crescent
-3.40065	__Chew_Kheng_Chuan
-3.40065	__Chin_Bee_Road
-3.40065	__Chin_Cheng_Avenue
-3.40065	__Chin_Chew_Street
-3.40065	__Chin_Swee
-3.40065	__China_Street
-3.40065	__Chinatown_Complex
-3.40065	__Chinatown_Hotel
-3.40065	__Chinatown_Point
-3.40065	__Chinese_Garden
-3.40065	__Chinese_Garden_Road
-3.40065	__Choa_Chu_Kang
-3.40065	__Choa_Chu_Kang_Loop
-3.40065	__Choa_Chu_Kang_West
-3.40065	__Chong_Pang
-3.40065	__Chong_Pang_Combined
-3.40065	__Chong_You_Fook_Charles
-3.40065	__Chong_Zheng
-3.40065	__Choon_Guan_Street
-3.40065	__Choor_Singh_Sidhu
-3.40065	__Christalite_Methodist
-3.40065	__Christopher_Henry_Rothwell
-3.40065	__Chu_Siang_Tong
-3.40065	__Chuan_Hoe_Avenue
-3.40065	__Chuan_Walk
-3.40065	__Chulia_Street
-3.40065	__Chwee_Chian_View
-3.40065	__Circular_Road
-3.40065	__Claymore_Road
-3.40065	__Cleantech_View
-3.40065	__Clementi_Street
-3.40065	__Clive_Street
-3.40065	__Clunny_Hill
-3.40065	__Colchester_Grove
-3.40065	__College_Of_Medicine
-3.40065	__Collyer_Quay
-3.40065	__Compassvale_Drive
-3.40065	__Compassvale_Road
-3.40065	__Coney_Island
-3.40065	__Connexis_South
-3.40065	__Constance_Singam
-3.40065	__Cook_Street
-3.40065	__Copeland_Avenue
-3.40065	__Copthorne_King'S
-3.40065	__Corfe_Place
-3.40065	__Corporation_Road
-3.40065	__Countryside_Grove
-3.40065	__Countryside_View
-3.40065	__Court_Road
-3.40065	__Covenant_Community_Methodist
-3.40065	__Craig_Road
-3.40065	__Cranborne_Road
-3.40065	__Creek_Mangrove
-3.40065	__Croucher_Road
-3.40065	__Crowhurst_Drive
-3.40065	__Cuff_Road
-3.40065	__Cuscaden_Walk
-3.40065	__Da_Bo_Gong
-3.40065	__Daffodil_Drive
-3.40065	__Dahan_Road
-3.40065	__Dairy_Farm
-3.40065	__Dairy_Farm_Crescent
-3.40065	__Dalkeith_Road
-3.40065	__Darrell_Ang
-3.40065	__Dawson_North_Spring
-3.40065	__Dedap_Road
-3.40065	__Delta_Avenue
-3.40065	__Depot_Close
-3.40065	__Depot_Walk
-3.40065	__Devan_Nair
-3.40065	__Dimensions_International
-3.40065	__Dinding_Place
-3.40065	__Dock_Road_East
-3.40065	__Dock_Road_West
-3.40065	__Douglas_Hamilton
-3.40065	__Dover_Drive
-3.40065	__Drake_Avenue
-3.40065	__Drake_Lane
-3.40065	__Dunlop_Street
-3.40065	__Duxton_Road
-3.40065	__East_Avenue
-3.40065	__East_Coast_Avenue
-3.40065	__East_Spring
-3.40065	__Eastern_Health_Alliance
-3.40065	__Eau_Thermale_Avene
-3.40065	__Edgware_Road
-3.40065	__Edmund_Blundell
-3.40065	__Edmund_Chen
-3.40065	__Edwin_Browns
-3.40065	__Ee_Teow_Leng_Road
-3.40065	__Elias_Green
-3.40065	__Elias_Park_Avenue
-3.40065	__Ellice_Handy
-3.40065	__Empress_Road
-3.40065	__Eng_Hoon_Street
-3.40065	__Eng_Kong_Road
-3.40065	__Eng_Neo_Avenue
-3.40065	__Ernani_Street
-3.40065	__Esther_Tan
-3.40065	__Eu_Yee_Ming_Richard
-3.40065	__Eunos_Avenue
-3.40065	__Evolution_Garden_Walk
-3.40065	__Faber_Walk
-3.40065	__Fairway_Club
-3.40065	__Fairy_Point_Hill
-3.40065	__Faith_Methodist
-3.40065	__Faith_Sanctuary_Garden_Avenue
-3.40065	__Famous_Amos
-3.40065	__Fan_Yoong_Road
-3.40065	__Farrer_Garden
-3.40065	__Farrer_Park
-3.40065	__Fernvale_Lane
-3.40065	__Fire_Station
-3.40065	__Flint_Street
-3.40065	__Florence_Road
-3.40065	__Flower_Road
-3.40065	__Fo_Shan_Ting
-3.40065	__Foch_Road
-3.40065	__Folkestone_Road
-3.40065	__Fortune_Students
-3.40065	__Fourth_Street
-3.40065	__Francis_Thomas_Drive
-3.40065	__Fuk_Tak_Chi
-3.40065	__Fullerton_Bay
-3.40065	__Fulton_Avenue
-3.40065	__Fusionopolis_Walk
-3.40065	__Gallop_Park
-3.40065	__Gallop_Road
-3.40065	__Gambir_Walk
-3.40065	__Gan_Eng_Seng
-3.40065	__Gateway_Avenue
-3.40065	__Gateway_Inn
-3.40065	__George_Nigel
-3.40065	__Gerald_Crescent
-3.40065	__Geylang_Bahru
-3.40065	__Geylang_Bahru_Lane
-3.40065	__Geylang_Bahru_Terrace
-3.40065	__Geylang_East_Avenue
-3.40065	__Geylang_East_Central
-3.40065	__Geylang_Lorong
-3.40065	__Geylang_Lorong_Labang
-3.40065	__Geylang_Methodist
-3.40065	__Geylang_Methodist_School
-3.40065	__Geylang_Road
-3.40065	__Geylang_Serai
-3.40065	__Geylang_Square
-3.40065	__Geylang_United
-3.40065	__Giant_Spring
-3.40065	__Gibraltar_Crescent
-3.40065	__Gibson_Hill
-3.40065	__Gilstead_Road
-3.40065	__Giok_Hong_Tian
-3.40065	__Goldhill_Place
-3.40065	__Gopeng_Street
-3.40065	__Gordon_Arthur_Ransome
-3.40065	__Grace_Walk
-3.40065	__Great_World
-3.40065	__Green_Kiwi_Backpacker
-3.40065	__Green_Taipei
-3.40065	__Green_Zeng
-3.40065	__Greendale_Rise
-3.40065	__Greenfield_Drive
-3.40065	__Greenridge_Crescent
-3.40065	__Greenwich_Drive
-3.40065	__Grove_Crescent
-3.40065	__Guillemard_Lane
-3.40065	__Guillemard_Road
-3.40065	__Gul_Lane
-3.40065	__Gul_Street
-3.40065	__Guok_Avenue
-3.40065	__Gurkha_Contingent
-3.40065	__Hai_Sing_Crescent
-3.40065	__Haigsville_Drive
-3.40065	__Haji_Lane
-3.40065	__Halifax_Road
-3.40065	__Hamilton_Place
-3.40065	__Hampstead_Garden
-3.40065	__Hang_Chang_Chieh
-3.40065	__Happy_Hotel
-3.40065	__Harlyn_Road
-3.40065	__Harrison_Road
-3.40065	__Havelock_Road
-3.40065	__Hiang_Foo_Siang_Temple
-3.40065	__Hillview_Avenue
-3.40065	__Hilton_International
-3.40065	__Hindhede_Road
-3.40065	__Hindoo_Road
-3.40065	__Ho_Ching_Road
-3.40065	__Ho_Lee_Ling
-3.40065	__Ho_Ling
-3.40065	__Hock_Chuan
-3.40065	__Holland_Grove_Lane
-3.40065	__Holland_Hill
-3.40065	__Holland_Village
-3.40065	__Home_Team_Academy
-3.40065	__Hong_Kah
-3.40065	__Hong_San
-3.40065	__Hospital_Avenue
-3.40065	__Hougang_Avenue
-3.40065	__Hougang_One
-3.40065	__How_Sun_Drive
-3.40065	__How_Sun_Road
-3.40065	__How_Sun_Walk
-3.40065	__Hsu_Tse_Kwang
-3.40065	__Hubert_Hill
-3.40065	__Hume_Avenue
-3.40065	__Hussein_Aljunied
-3.40065	__Hwee_Kuan
-3.40065	__Hythe_Road
-3.40065	__Imbiah_Walk
-3.40065	__Inderjit_Singh
-3.40065	__Inggu_Road
-3.40065	__Institute_Of_Engineer_Singapore
-3.40065	__International_Student_Support
-3.40065	__Ipoh_Lane
-3.40065	__Iqbal_Avenue
-3.40065	__Irving_Place
-3.40065	__Jalan_Anak_Bukit
-3.40065	__Jalan_Azam'S
-3.40065	__Jalan_Baiduri
-3.40065	__Jalan_Bangsawan
-3.40065	__Jalan_Basong
-3.40065	__Jalan_Batu_Ubin
-3.40065	__Jalan_Bena
-3.40065	__Jalan_Berjaya
-3.40065	__Jalan_Berseri
-3.40065	__Jalan_Binja
-3.40065	__Jalan_Binjai
-3.40065	__Jalan_Boon_Lay
-3.40065	__Jalan_Bumbong
-3.40065	__Jalan_Bunga_Rampai
-3.40065	__Jalan_Bungar
-3.40065	__Jalan_Chengkek
-3.40065	__Jalan_Dondang_Sayang
-3.40065	__Jalan_Dua
-3.40065	__Jalan_Dusun
-3.40065	__Jalan_Enam
-3.40065	__Jalan_Gemala
-3.40065	__Jalan_Girang
-3.40065	__Jalan_Greja
-3.40065	__Jalan_Hajijah
-3.40065	__Jalan_Hari_Raya
-3.40065	__Jalan_Jeruju
-3.40065	__Jalan_Jong
-3.40065	__Jalan_Kampong_Chantek
-3.40065	__Jalan_Kampong_Siglap
-3.40065	__Jalan_Kayu_Manis
-3.40065	__Jalan_Kechil
-3.40065	__Jalan_Keli
-3.40065	__Jalan_Kemaman
-3.40065	__Jalan_Keruing
-3.40065	__Jalan_Kesoma
-3.40065	__Jalan_Khairuddin
-3.40065	__Jalan_Klapa
-3.40065	__Jalan_Kledek
-3.40065	__Jalan_Klinik
-3.40065	__Jalan_Kwok_Min
-3.40065	__Jalan_Lana
-3.40065	__Jalan_Langgar_Bedok
-3.40065	__Jalan_Lapang
-3.40065	__Jalan_Layang_Layang
-3.40065	__Jalan_Lembah_Bedok
-3.40065	__Jalan_Lempeng
-3.40065	__Jalan_Lengkok
-3.40065	__Jalan_Lengkok_Sembawang
-3.40065	__Jalan_Limau_Bali
-3.40065	__Jalan_Limau_Nipis
-3.40065	__Jalan_Limau_Purut
-3.40065	__Jalan_Limbok
-3.40065	__Jalan_Mamam
-3.40065	__Jalan_Mangkok
-3.40065	__Jalan_Manis
-3.40065	__Jalan_Mastuli
-3.40065	__Jalan_Membina
-3.40065	__Jalan_Mempurong
-3.40065	__Jalan_Mengkudu
-3.40065	__Jalan_Mesra
-3.40065	__Jalan_Minggu
-3.40065	__Jalan_Minyak
-3.40065	__Jalan_Noordin
-3.40065	__Jalan_Novena
-3.40065	__Jalan_Nuri
-3.40065	__Jalan_Paras
-3.40065	__Jalan_Pari_Kikis
-3.40065	__Jalan_Pelangi
-3.40065	__Jalan_Pelatina
-3.40065	__Jalan_Pelatok
-3.40065	__Jalan_Pelepah
-3.40065	__Jalan_Pelikat
-3.40065	__Jalan_Peradun
-3.40065	__Jalan_Pinang
-3.40065	__Jalan_Puteri
-3.40065	__Jalan_Rajah
-3.40065	__Jalan_Rebana
-3.40065	__Jalan_Remis
-3.40065	__Jalan_Rendang
-3.40065	__Jalan_Rukam
-3.40065	__Jalan_Sabit
-3.40065	__Jalan_Seh_Chuan
-3.40065	__Jalan_Selamat
-3.40065	__Jalan_Selimang
-3.40065	__Jalan_Senang
-3.40065	__Jalan_Sendudok
-3.40065	__Jalan_Senyum
-3.40065	__Jalan_Setia
-3.40065	__Jalan_Shaer
-3.40065	__Jalan_Siap
-3.40065	__Jalan_Simpang_Bedok
-3.40065	__Jalan_Sukachita
-3.40065	__Jalan_Sungei_Poyan
-3.40065	__Jalan_Tan_Tock_Seng
-3.40065	__Jalan_Tanah
-3.40065	__Jalan_Tanah_Rata
-3.40065	__Jalan_Tanjong
-3.40065	__Jalan_Tari_Lilin
-3.40065	__Jalan_Tari_Zapin
-3.40065	__Jalan_Tarum
-3.40065	__Jalan_Tenang
-3.40065	__Jalan_Tenteram
-3.40065	__Jalan_Tepong
-3.40065	__Jalan_Tiga_Ratus
-3.40065	__Jalan_Ulu_Seletar
-3.40065	__Jalan_Ulu_Sembawang
-3.40065	__Jalan_Wajek
-3.40065	__Jalan_Yasin
-3.40065	__Jalan_Zamrud
-3.40065	__Jamaica_Road
-3.40065	__Janet_Lim
-3.40065	__Janil_Puthucheary
-3.40065	__Jervois_Hill
-3.40065	__Ji_Huang_Kok
-3.40065	__Jiak_Chuan_Road
-3.40065	__Joan_Road
-3.40065	__Joanne_Soo
-3.40065	__John_Fearns_Nicolls
-3.40065	__John_Le_Cain
-3.40065	__John_Morrice
-3.40065	__Joo_Avenue
-3.40065	__Joo_Koon_Crescent
-3.40065	__Jula_Juli
-3.40065	__Junction_Nine
-3.40065	__Jupiter_Road
-3.40065	__Jurong_Bird
-3.40065	__Jurong_East_Avenue
-3.40065	__Jurong_Island
-3.40065	__Jurong_Port
-3.40065	__Jurong_West
-3.40065	__Jurong_West_Avenue
-3.40065	__Jurong_West_Central
-3.40065	__Kaki_Bukit
-3.40065	__Kallang_Airport_Drive
-3.40065	__Kampong_Ampat
-3.40065	__Kampong_Arang_Road
-3.40065	__Kampong_Bahru
-3.40065	__Kampong_Bahru_Road
-3.40065	__Kampong_Bugis
-3.40065	__Kampong_Bugis_Crescent
-3.40065	__Kampong_Bukit_Coffee
-3.40065	__Kampong_Chai_Chee
-3.40065	__Kampong_Eunos
-3.40065	__Kampong_Glam
-3.40065	__Kampong_Java
-3.40065	__Kampong_Kapor_Road
-3.40065	__Kampong_Kayu_Road
-3.40065	__Kampong_Kembangan
-3.40065	__Kampong_Sireh
-3.40065	__Kampong_Sungai_Tiga
-3.40065	__Kampong_Ubi
-3.40065	__Kampong_Wak_Hassan
-3.40065	__Kampung_Glam
-3.40065	__Kampung_Melayu
-3.40065	__Katmandu_Road
-3.40065	__Kay_Siang_Road
-3.40065	__Keat_Hong_Link
-3.40065	__Kebun_Baru
-3.40065	__Keck_Seng
-3.40065	__Kee_Seng_Street
-3.40065	__Kee_Sun_Avenue
-3.40065	__Keene_Road
-3.40065	__Keng_Lee_Road
-3.40065	__Kent_Ridge_Crescent
-3.40065	__Kent_Ridge_Drive
-3.40065	__Kent_Road
-3.40065	__Kenya_Crescent
-3.40065	__Keppel_Bay
-3.40065	__Keramat_Road
-3.40065	__Kerong_Walk
-3.40065	__Kew_Avenue
-3.40065	__Kew_Walk
-3.40065	__Khaw_Boon_Wan
-3.40065	__Kian_Teck_Road
-3.40065	__Kiew_Sian_King
-3.40065	__Kim_Chuan_Road
-3.40065	__Kim_Hong
-3.40065	__Kim_Keat
-3.40065	__Kim_Seng
-3.40065	__Kim_Seng_Road
-3.40065	__Kim_Tian_Place
-3.40065	__Kinara_Lane
-3.40065	__Kismis_Road
-3.40065	__Kitchener_Road
-3.40065	__Klang_Road
-3.40065	__Koh_Mui_Hiang
-3.40065	__Koh_Seow_Chuan
-3.40065	__Kouo_Shang_Wei
-3.40065	__Kranji_Commonwealth
-3.40065	__Kranji_Crescent
-3.40065	__Kreta_Ayer
-3.40065	__Kuang_Chee_Tng
-3.40065	__Kwan_Im_Tng
-3.40065	__Kwan_Imm_See
-3.40065	__Kwong_Min_Road
-3.40065	__Kwong_Wai_Siew
-3.40065	__La_Mode
-3.40065	__Lam_Pin_Min
-3.40065	__Lambeth_Walk
-3.40065	__Larkhill_Road
-3.40065	__Lau_Kuo_Kwong_Robert
-3.40065	__Lavender_Street
-3.40065	__Le_Peranakan
-3.40065	__Lee_Boon_Ngan
-3.40065	__Lee_Kong_Chian
-3.40065	__Lee_Kong_Yan
-3.40065	__Lee_Shih_Shiong_Peter
-3.40065	__Lempeng_Drive
-3.40065	__Leng_Chai_Chee
-3.40065	__Lengkok_Angsa
-3.40065	__Lengkok_Lima
-3.40065	__Lengkok_Satu
-3.40065	__Lengkok_Satu_Sago_Street
-3.40065	__Lengkong_Dua
-3.40065	__Lentor_Way
-3.40065	__Leo_Drive
-3.40065	__Lew_Lian_Vale
-3.40065	__Lewis_Road
-3.40065	__Li_Hui_Cheng
-3.40065	__Liane_Road
-3.40065	__Liang_Court
-3.40065	__Liao_Yingru
-3.40065	__Lichi_Avenue
-3.40065	__Lien_Ying_Chow_Drive
-3.40065	__Lilac_Road
-3.40065	__Lilliputt_Indoor_Mini_Golf
-3.40065	__Lily_Avenue
-3.40065	__Lim_Ah_Pin_Road
-3.40065	__Lim_Ah_Woo_Road
-3.40065	__Lim_Chong_Pang
-3.40065	__Lim_Chu_Kang
-3.40065	__Lim_Chu_Kang_Lane
-3.40065	__Lim_Lee
-3.40065	__Lim_Teck_Boo_Road
-3.40065	__Lim_Teck_Kim_Road
-3.40065	__Lim_Tua_Tow_Road
-3.40065	__Limau_Garden
-3.40065	__Lin_Tan
-3.40065	__Little_Road
-3.40065	__Lloyd_Road
-3.40065	__Loh_Lik_Peng
-3.40065	__Lornie_Walk
-3.40065	__Lorong_Abu_Talib
-3.40065	__Lorong_Bachok
-3.40065	__Lorong_Batawi
-3.40065	__Lorong_Buangkok
-3.40065	__Lorong_Gambas
-3.40065	__Lorong_Kembang
-3.40065	__Lorong_Kilat_Pek_Kio
-3.40065	__Lorong_Lew_Lian
-3.40065	__Lorong_Mesu
-3.40065	__Lorong_Pasu
-3.40065	__Lorong_Paya_Lebar
-3.40065	__Lorong_Pendek
-3.40065	__Lorong_Pisang_Asam
-3.40065	__Lorong_Pisang_Batu
-3.40065	__Lorong_Sarina_D'Leedon
-3.40065	__Lorong_Siglap
-3.40065	__Lorong_Sinaran
-3.40065	__Louis_Chen
-3.40065	__Lower_Seletar_Close
-3.40065	__Lower_Seletar_Reservoir
-3.40065	__Loyang_Street
-3.40065	__Lucy_Tan
-3.40065	__Lutheran_Road
-3.40065	__Macalister_Road
-3.40065	__Macpherson_Road
-3.40065	__Macritchie_Reservoir
-3.40065	__Maggie_Teng
-3.40065	__Mah_Bow_Tan
-3.40065	__Management_Development_Institute_Of_Singapore
-3.40065	__Mandai_Tekong
-3.40065	__Mandarin_Gardens
-3.40065	__Manila_Street
-3.40065	__Maple_Avenue
-3.40065	__Margate_Road
-3.40065	__Marina_Bay
-3.40065	__Marina_Bay_Sands
-3.40065	__Marina_One
-3.40065	__Marina_Promenade
-3.40065	__Marina_Way
-3.40065	__Marine_Parade
-3.40065	__Marine_Parade_Road
-3.40065	__Maris_Stella
-3.40065	__Maritime_Square
-3.40065	__Marshall_Lane
-3.40065	__Marsiling_Crescent
-3.40065	__Marsiling_Drive
-3.40065	__Marsiling_Neighbourhood
-3.40065	__Marsiling_Rise
-3.40065	__Marsiling_Road
-3.40065	__Martin_Road
-3.40065	__Masjid_Alkaff
-3.40065	__Mayflower_Way
-3.40065	__Medical_Drive
-3.40065	__Mei_Chin_Road
-3.40065	__Mei_Hwan_Drive
-3.40065	__Meng_Suan_Road
-3.40065	__Meranti_Avenue
-3.40065	__Merlimau_Place
-3.40065	__Meteorological_Services_Singapore
-3.40065	__Methodist_Girls'
-3.40065	__Michelle_Lim
-3.40065	__Middlesex_Road
-3.40065	__Miller_Street
-3.40065	__Miltonia_Link
-3.40065	__Mimosa_Vale
-3.40065	__Monk'S_Hill_Road
-3.40065	__Montreal_Link
-3.40065	__Moonbeam_Drive
-3.40065	__Moonbeam_Walk
-3.40065	__Moral_Welfare
-3.40065	__Moreton_Close
-3.40065	__Morgan_Chua
-3.40065	__Moriah_Bible_Presby
-3.40065	__Mornington_Crescent
-3.40065	__Mount_Faber_Loop
-3.40065	__Mount_Faber_Road
-3.40065	__Movenpick_Heritage
-3.40065	__Muhammadiyah_Welfare
-3.40065	__Mulberry_Avenue
-3.40065	__Muswell_Hill
-3.40065	__My_Saviour'S
-3.40065	__N_Palanivelu
-3.40065	__Nagore_Dargah
-3.40065	__Namly_Rise
-3.40065	__Nan_Chiau
-3.40065	__Nanyang_Avenue
-3.40065	__Nanyang_Girls'
-3.40065	__Nanyang_Poly_Drive
-3.40065	__Nanyang_Valley
-3.40065	__Napier_Road
-3.40065	__Nasi_Goreng
-3.40065	__Natalie_Hennedige
-3.40065	__National_Arts_Council
-3.40065	__National_Equestrian_Centre
-3.40065	__National_Neuroscience_Institute
-3.40065	__National_Neuroscience_Institute_Of_Singapore
-3.40065	__Nativity_Of_The_Blessed_Virgin_Mary_Concord
-3.40065	__Nee_Soon
-3.40065	__Nee_Soon_East
-3.40065	__Neo_Tiew_Lane
-3.40065	__Neo_Tiew_Road
-3.40065	__Nepal_Link
-3.40065	__Newton_Cirus
-3.40065	__Newton_Life
-3.40065	__Nexus_International_School
-3.40065	__Ng_Chee_Meng
-3.40065	__North_Buona_Vista_Drive
-3.40065	__North_Spring
-3.40065	__North_Vista
-3.40065	__North_West
-3.40065	__Northshore_Drive
-3.40065	__Northshore_Link
-3.40065	__Oak_Avenue
-3.40065	__Ocean_Way
-3.40065	__Office_Road
-3.40065	__Ogilvy_Centre
-3.40065	__Old_Birdcage_Walk
-3.40065	__Old_Cathay
-3.40065	__Old_Choa_Chu_Kang_Road
-3.40065	__Old_Hill_Street
-3.40065	__Old_Terminal_Lane
-3.40065	__Old_Upper_Thomson
-3.40065	__Omar_Ali
-3.40065	__Omar_Khayyam_Avenue
-3.40065	__One_Farrer
-3.40065	__One_George_Street
-3.40065	__One_North_Avenue
-3.40065	__One_North_Link
-3.40065	__One_Tree_Hill
-3.40065	__Onitsuka_Tiger
-3.40065	__Onraet_Road
-3.40065	__Orchard_Bel_Air
-3.40065	__Orchard_Point
-3.40065	__Orchard_Spring
-3.40065	__Orchard_Spring_Lane
-3.40065	__Orchard_Turn
-3.40065	__Orchid_Park
-3.40065	__Oriole_Crescent
-3.40065	__Outram_Park
-3.40065	__Oxford_Road
-3.40065	__Palm_Avenue
-3.40065	__Palm_Road
-3.40065	__Pan_Pacific
-3.40065	__Pan_Shou
-3.40065	__Pandan_Avenue
-3.40065	__Pang_Seng_Road
-3.40065	__Park_Avenue
-3.40065	__Parry_Avenue
-3.40065	__Pasir_Panjang_Road
-3.40065	__Pasir_Panjang_View
-3.40065	__Pasir_Ris
-3.40065	__Pasir_Ris_Road
-3.40065	__Pasir_Ris_View
-3.40065	__Pasir_Ris_Way
-3.40065	__Paterson_Road
-3.40065	__Paya_Lebar
-3.40065	__Paya_Lebar_Place
-3.40065	__Paya_Ubi
-3.40065	__Peace_Centre
-3.40065	__Peakville_Avenue
-3.40065	__Peakville_Grove
-3.40065	__Pebble_Lane
-3.40065	__Peck_San_Theng
-3.40065	__Peck_Seah_Street
-3.40065	__Peirce_Hill
-3.40065	__Pemimpin_Drive
-3.40065	__Penang_Road
-3.40065	__Peng_Kang_Avenue
-3.40065	__Peng_Nguan
-3.40065	__Peninsula_Plaza
-3.40065	__Penjuru_Road
-3.40065	__Perahu_Road
-3.40065	__Percival_Road
-3.40065	__Pereira_Road
-3.40065	__Perumal_Govindaswamy
-3.40065	__Perumal_Road
-3.40065	__Ping_Yi
-3.40065	__Platina_Road
-3.40065	__Plaza_Singapura
-3.40065	__Poh_Ern_Shih
-3.40065	__Poh_Huat_Road
-3.40065	__Poh_Jay
-3.40065	__Post_Florence_Road
-3.40065	__Prince_Of_Wales_Road
-3.40065	__Prinsep_Street
-3.40065	__Prome_Road
-3.40065	__Puat_Jit_Buddhist
-3.40065	__Pulau_Ubin
-3.40065	__Punggol_Avenue
-3.40065	__Qing_De_Gong
-3.40065	__Queen_Elizabeth_Walk
-3.40065	__Radin_Mas
-3.40065	__Raffles_Place
-3.40065	__Rahayu_Mahzam
-3.40065	__Rahim_Omar
-3.40065	__Rail_Mall
-3.40065	__Rajabali_Jumabhoy
-3.40065	__Rambutan_Road
-3.40065	__Rasok_Drive
-3.40065	__Rebecca_Chua
-3.40065	__Red_Cross
-3.40065	__Red_Swastika
-3.40065	__Redhill_Road
-3.40065	__Redwood_Grove
-3.40065	__Revival_Centre
-3.40065	__Richard_Eric_Holttum
-3.40065	__Ring_Road
-3.40065	__Rita_Zahara
-3.40065	__River_City
-3.40065	__River_Safari
-3.40065	__River_Valley
-3.40065	__Riverina_Walk
-3.40065	__Rivervale_Plaza
-3.40065	__Robert_Soon
-3.40065	__Robert_V_Chandran_Way
-3.40065	__Robin_Tessensohn
-3.40065	__Robinson_Road
-3.40065	__Rochor_Kongsi
-3.40065	__Rochor_Road
-3.40065	__Rosaline_Chan_Pang
-3.40065	__Ruby_Lane
-3.40065	__Russels_Road
-3.40065	__Safra_Jurong
-3.40065	__Safra_Punggol
-3.40065	__Saint_Helier'S_Avenue
-3.40065	__Saint_Hilda'S
-3.40065	__Saint_James
-3.40065	__Saint_Nicholas_View
-3.40065	__Saint_Paul'S
-3.40065	__Saint_Stephen'S
-3.40065	__Saint_Wilfred_Road
-3.40065	__Saint_Xavier'S
-3.40065	__Saint_Xavier'S_Lane
-3.40065	__Sakra_Road
-3.40065	__Sakya_Tenphel_Ling
-3.40065	__Sam_Kee
-3.40065	__Sandilands_Road
-3.40065	__Science_Park
-3.40065	__Sea_Breeze_Grove
-3.40065	__Seah_Mei_Lin
-3.40065	__Secondary_School
-3.40065	__Segar_Close
-3.40065	__Segar_Kampong_Arang_Road
-3.40065	__Selarang_Road
-3.40065	__Seletar_Close
-3.40065	__Seletar_Club
-3.40065	__Seletar_Club_Road
-3.40065	__Seletar_Court
-3.40065	__Seletar_East
-3.40065	__Seletar_Green_Avenue
-3.40065	__Seletar_Hill
-3.40065	__Seletar_Hill_Drive
-3.40065	__Seletar_Hills_Drive
-3.40065	__Seletar_Link
-3.40065	__Seletar_Lodge_One
-3.40065	__Seletar_North
-3.40065	__Seletar_North_Lane
-3.40065	__Seletar_Satellite
-3.40065	__Seletar_Satellite_Station_Road
-3.40065	__Seletar_South_Road
-3.40065	__Seletar_West
-3.40065	__Seletar_Wests
-3.40065	__Sembawang_Alley
-3.40065	__Sembawang_Avenue
-3.40065	__Sembawang_Berlayer
-3.40065	__Sembawang_Country_Club
-3.40065	__Sembawang_God_Of_Wealth
-3.40065	__Sembawang_Hills_Drive
-3.40065	__Sembawang_Shopping_Centre
-3.40065	__Sembawang_Tamil_Methodist
-3.40065	__Sembawang_Terminal_Avenue
-3.40065	__Sembawang_Terminal_Road
-3.40065	__Sembawang_Vista
-3.40065	__Sembawang_Wharves
-3.40065	__Sembawang_Woodgrove_Avenue
-3.40065	__Sengkang_East_Avenue
-3.40065	__Sengkang_East_Road
-3.40065	__Sengkang_East_Way
-3.40065	__Sennett_Road
-3.40065	__Sentul_Crescent
-3.40065	__Serangoon_Gardens
-3.40065	__Serangoon_North_Avenue
-3.40065	__Serapong_Hill
-3.40065	__Seraya_Avenue
-3.40065	__Sharon_Bible_Presbyterian
-3.40065	__Shelford_Road
-3.40065	__Shipyard_Crescent
-3.40065	__Shopping_Centre
-3.40065	__Shun_Li
-3.40065	__Si_Ling
-3.40065	__Siang_Cho_Keong
-3.40065	__Siglap_Gardens
-3.40065	__Siloso_Beach
-3.40065	__Sim_Choon_Huat
-3.40065	__Sim_Lim_Square
-3.40065	__Sim_Yi_Hui
-3.40065	__Simon_Lane
-3.40065	__Simpang_Bedok
-3.40065	__Simpang_De_Bedok
-3.40065	__Sims_Way
-3.40065	__Sin_Ming
-3.40065	__Sing_Hoe
-3.40065	__Sing_Joo_Walk
-3.40065	__Singapore'S_Mariners'
-3.40065	__Singapore_Art_Museum
-3.40065	__Singapore_Bible
-3.40065	__Singapore_Botanic_Gardens
-3.40065	__Singapore_Cheshire
-3.40065	__Singapore_Conference
-3.40065	__Singapore_Philatelic_Museum
-3.40065	__Singapore_Recreation
-3.40065	__Singapore_Sikh_Education_Foundation
-3.40065	__Singapore_University_Of_Technology_And_Design
-3.40065	__Singapore_Youth_Flying
-3.40065	__Siok_Wan
-3.40065	__Siong_Lim
-3.40065	__Sir_Frank_Swettenham
-3.40065	__Sit_Wah_Road
-3.40065	__Sleepy_Kiwi
-3.40065	__Sloane_Court_Hotel
-3.40065	__Soo_Bin_Chua
-3.40065	__Soo_Chow_Drive
-3.40065	__Soon_Peng_Yam_Yao_Zi
-3.40065	__Soon_Wing_Road
-3.40065	__Sophia_Hull
-3.40065	__South_Buona_Vista_Road
-3.40065	__South_Perimeter_Road
-3.40065	__South_Woodlands_Drive
-3.40065	__Spring_Lighthouse
-3.40065	__Spring_Street
-3.40065	__Springleaf_Avenue
-3.40065	__Springside_View
-3.40065	__Springwood_Close
-3.40065	__Sree_Narayana
-3.40065	__Sri_Murugan_Hill_Temple
-3.40065	__Sri_Siva_Durga
-3.40065	__Sri_Vairavimada_Kaliamman
-3.40065	__Stadium_Crescent
-3.40065	__Stadium_Way
-3.40065	__Stamford_Raffles
-3.40065	__Starlight_Road
-3.40065	__Stephen_Lee
-3.40065	__Stirling_Walk
-3.40065	__Strand_Hotel
-3.40065	__Stratton_Road
-3.40065	__Suffolk_Road
-3.40065	__Sunbeam_Evergreen_Place
-3.40065	__Sundridge_Park_Road
-3.40065	__Sungei_Bedok
-3.40065	__Sungei_Gedong_Road
-3.40065	__Sungei_Road
-3.40065	__Sunny_Ang
-3.40065	__Sunset_Close
-3.40065	__Sunset_Square
-3.40065	__Sunset_Vale
-3.40065	__Suntec_City
-3.40065	__Swiss_Club_Link
-3.40065	__Syed_Jaafar_Albar
-3.40065	__Tagore_Road
-3.40065	__Tai_Hoe
-3.40065	__Tai_Seng
-3.40065	__Tai_Seng_Drive
-3.40065	__Taman_Bedok
-3.40065	__Taman_Jurong
-3.40065	__Taman_Kembangan
-3.40065	__Taman_Warna
-3.40065	__Tamarind_Avenue
-3.40065	__Tamarind_Road
-3.40065	__Tampines_Changkat
-3.40065	__Tan_Boo_Liat
-3.40065	__Tan_Eng_Joo
-3.40065	__Tan_Kim_Cheng_Road
-3.40065	__Tan_Teck_Whye_Avenue
-3.40065	__Tan_Tock_Seng
-3.40065	__Tanah_Merah
-3.40065	__Tanglin_Gate_Road
-3.40065	__Tanglin_Trust
-3.40065	__Tangmere_Road
-3.40065	__Tanjong_Katong
-3.40065	__Tanjong_Penjuru
-3.40065	__Tanya_Chua
-3.40065	__Teban_Garden
-3.40065	__Tebing_Lane
-3.40065	__Teck_Hai_Keng
-3.40065	__Teck_Whye
-3.40065	__Tekong_Highway
-3.40065	__Telok_Blangah_Crescent
-3.40065	__Telok_Blangah_Rise
-3.40065	__Telok_Blangah_Street
-3.40065	__Telok_Kurau
-3.40065	__Tembusu_Drive
-3.40065	__Teng_San_Tian_Hock
-3.40065	__Teng_Tong_Road
-3.40065	__Terang_Bulan_Avenue
-3.40065	__Tew_Chew_Street
-3.40065	__Thong_Bee_Road
-3.40065	__Thong_Kheng
-3.40065	__Tian_Kong
-3.40065	__Tiong_Poh_Avenue
-3.40065	__Tiverton_Lane
-3.40065	__Toa_Payoh
-3.40065	__Toa_Payoh_East
-3.40065	__Toa_Payoh_North
-3.40065	__Toa_Payoh_Rise
-3.40065	__Toh_Tuck_Drive
-3.40065	__Toh_Tuck_Road
-3.40065	__Tokio_Marine
-3.40065	__Topaz_Road
-3.40065	__Tras_Street
-3.40065	__Treetop_Walk
-3.40065	__Trevose_Place
-3.40065	__Tuas_Avenue
-3.40065	__Tuas_Road
-3.40065	__Tuas_Second_Link
-3.40065	__Tuas_Terminal_Road
-3.40065	__Turf_Ciub_Road
-3.40065	__Ubi_Close
-3.40065	__Ubi_Crescent
-3.40065	__Ubi_Link
-3.40065	__Ulu_Sembawang
-3.40065	__Unity_Street
-3.40065	__University_Town
-3.40065	__Upper_Aljunied
-3.40065	__Upper_Aljunied_Link
-3.40065	__Upper_Aljunied_Road
-3.40065	__Upper_Bedok
-3.40065	__Upper_Bedok_Road
-3.40065	__Upper_Bukit_Timah
-3.40065	__Upper_Bukit_Timah_Road
-3.40065	__Upper_Changi_Road
-3.40065	__Upper_Joo_Aljunied_Link
-3.40065	__Upper_Palm_Valley_Road
-3.40065	__Upper_Paya_Lebar_Road
-3.40065	__Upper_Peirce_Reservoir
-3.40065	__Upper_Seletar_Reservoir
-3.40065	__Upper_Serangoon
-3.40065	__Upper_Wilkie_Road
-3.40065	__Vaughan_Road
-3.40065	__Veerasamy_Road
-3.40065	__Verde_Crescent
-3.40065	__Victoria_Park_Road
-3.40065	__Vigilante_Drive
-3.40065	__Vijesh_Ashok_Ghariwala
-3.40065	__Vivien_Quahe
-3.40065	__Vu_Ly_Tee
-3.40065	__Vu_Ly_Tee#1
-3.40065	__Vu_Ly_Tee#2
-3.40065	__Wak_Hassan
-3.40065	__Wak_Hassan_Place
-3.40065	__Wak_Tanjong
-3.40065	__Wallace_Way
-3.40065	__Walter_Woon
-3.40065	__Wan_Tho_Avenue
-3.40065	__Wareham_Road
-3.40065	__Waringin_Walk
-3.40065	__Warwick_Road
-3.40065	__Waseda_Shibuya
-3.40065	__Waterloo_Street
-3.40065	__Watten_Estate_Road
-3.40065	__Wee_Beng_Chong
-3.40065	__Wellington_Circle
-3.40065	__West_Blue_Stars
-3.40065	__West_Perimeter_Road
-3.40065	__West_Spring
-3.40065	__Westwood_Avenue
-3.40065	__Whampoa_East
-3.40065	__Whitchurch_Road
-3.40065	__Whitley_Road
-3.40065	__Wilmonar_Avenue
-3.40065	__Windsor_Park_Hill
-3.40065	__Wishart_Road
-3.40065	__Wittering_Road
-3.40065	__Wong_Chin_Yoke_Road
-3.40065	__Wong_Hock_Boon
-3.40065	__Woodgrove_View
-3.40065	__Woodland_Street
-3.40065	__Woodlands_Galaxy
-3.40065	__Woodleigh_Close
-3.40065	__Xilin_Avenue
-3.40065	__Yan_Hui_Chang
-3.40065	__Yangtze_Building
-3.40065	__Yao_Zi
-3.40065	__Yarwood_Avenue
-3.40065	__Yeoh_Ghim_Seng
-3.40065	__Yew_Tee
-3.40065	__Yew_Tee_Close
-3.40065	__Yew_Tee_Point
-3.40065	__Yip_Cheong_Fun
-3.40065	__Yishun_Central
-3.40065	__Yishun_Street
-3.40065	__Yong_Melvin_Yik_Chye
-3.40065	__York_Place
-3.40065	__Yu_Huang_Zhi_Zun_Temple
-3.40065	__Yuan_Ching
-3.40065	__Yung_Kuang_Road
-3.40065	__Yuva_Bharati
-3.40065	__Yvonne_Ng
-3.40065	__Zainudin_Nordin
-3.40065	__Zhang_Hui
-3.40065	__Zhou_Ying_Nan
-3.40065	__Zion_Bishan_Bible_Presbyterian
-2.050155	a
-3.714637	aa
-5.704595	aba
-6.394791	aback
-7.09376	abacus
-5.815007	abalone
-5.562282	abandon
-5.850723	abandoned
-7.09376	abandonment
-5.431003	abas
-7.394791	abate
-6.792731	abb
-6.116037	abbas
-7.09376	abbey
-7.09376	abbreviate
-6.190671	abbreviation
-7.394791	abdicate
-5.803726	abdomen
-5.646603	abdominal
-7.394791	abduct
-6.61664	abduction
-7.394791	aberration
-7.394791	abhor
-6.052368	abide
-6.549693	abiding
-6.61664	abigail
-4.651281	ability
-3.773407	able
-5.525559	abnormal
-6.792731	abnormality
-6.353398	abnormally
-6.315609	aboard
-6.491701	abolish
-7.09376	abomination
-6.190671	abort
-7.09376	aborted
-5.815007	abortion
-6.792731	abound
-2.768348	about
-4.365407	above
-5.903429	abrasion
-7.09376	abrasive
-7.394791	abreast
-5.525559	abroad
-6.353398	abrupt
-7.09376	abruptly
-5.850723	absence
-5.803726	absent
-7.394791	absenteeism
-7.394791	absently
-5.470511	absolute
-5.166904	absolutely
-7.394791	absolution
-7.394791	absolve
-5.460292	absorb
-6.116037	absorbed
-7.394791	absorbency
-6.491701	absorber
-6.280848	absorbing
-6.248662	absorption
-6.695821	abstain
-5.319244	abstract
-7.09376	abstracted
-6.164342	abstraction
-5.947633	absurd
-6.917669	absurdly
-5.284201	abu
-6.61664	abundance
-5.979817	abundant
-5.212947	abuse
-6.248662	abuser
-6.014579	abusive
-6.549693	abut
-7.394791	aby
-6.353398	abyss
-5.020042	academic
-7.09376	academical
-5.732033	academically
-5.445401	academy
-5.431003	acara
-7.394791	acca
-7.09376	accede
-6.09376	accelerate
-6.394791	accelerated
-6.280848	acceleration
-6.491701	accelerator
-4.949186	accent
-7.09376	accentuate
-4.511129	accept
-5.146818	acceptable
-5.381954	acceptance
-5.270939	accepted
-4.60521	access
-6.052368	accessibility
-5.345572	accessible
-7.09376	accession
-5.741578	accessory
-4.633615	accident
-5.889641	accidental
-4.960222	accidentally
-7.394791	accidently
-6.792731	acclaim
-7.394791	acclimatize
-5.732033	accommodate
-6.61664	accommodating
-5.290987	accommodation
-6.917669	accommodative
-7.394791	accompaniment
-5.39047	accompany
-6.917669	accomplice
-4.858232	accomplish
-5.654428	accomplished
-5.602399	accomplishment
-6.164342	accord
-6.353398	accordance
-4.709049	according
-5.122949	accordingly
-6.695821	accordion
-3.404674	account
-6.09376	accountability
-6.139518	accountable
-5.312006	accountancy
-5.555942	accountant
-4.800398	accounting
-6.695821	accreditation
-5.917669	accredited
-6.695821	accrual
-7.09376	accrue
-5.549693	accumulate
-6.190671	accumulation
-6.61664	accumulative
-6.394791	accumulator
-5.850723	accuracy
-5.236428	accurate
-6.394791	accurately
-6.917669	accusation
-7.09376	accusative
-7.394791	accusatory
-6.033063	accuse
-6.315609	accused
-6.792731	accustom
-6.280848	accustomed
-5.568716	ace
-7.394791	acerbate
-7.394791	acerbic
-7.394791	acetabulum
-7.394791	achar
-5.337886	ache
-6.353398	achievable
-4.614473	achieve
-4.688927	achievement
-6.394791	achiever
-6.052368	aching
-6.917669	achy
-5.646603	acid
-6.440548	acidic
-7.394791	acidify
-7.09376	acidity
-7.394791	acidosis
-7.394791	acker
-7.09376	acknow
-5.334093	acknowledge
-6.491701	acknowledged
-5.782007	acne
-7.394791	acolyte
-7.394791	acorn
-5.623939	acoustic
-6.61664	acoustics
-5.455271	acquaintance
-7.09376	acquaintanceship
-7.394791	acquainted
-6.033063	acquire
-6.164342	acquired
-6.394791	acquisition
-6.09376	acre
-6.695821	acrobatic
-7.394791	acrobatics
-4.950746	acronym
-7.394791	acrophobia
-4.554685	across
-6.353398	acrylic
-4.493878	act
-4.872346	acting
-4.401795	action
-5.179947	activate
-6.116037	activation
-7.394791	activator
-4.825417	active
-5.59545	actively
-7.394791	activeness
-6.917669	activism
-7.09376	activist
-4.520309	activity
-4.848248	actor
-5.177307	actress
-6.695821	actu
-4.641974	actual
-7.394791	actualism
-7.09376	actuality
-6.917669	actualization
-7.394791	actualize
-2.826965	actually
-6.190671	actuarial
-7.394791	actuary
-7.394791	actuation
-7.394791	aculeate
-7.394791	acupressure
-6.792731	acupuncture
-5.889641	acute
-4.973187	ad
-6.917669	adamant
-5.233423	adapt
-6.491701	adaptability
-6.353398	adaptable
-5.963427	adaptation
-6.116037	adapter
-7.394791	adaption
-6.218699	adaptive
-6.353398	adaptor
-5.751338	adat
-4.105871	add
-5.104756	added
-5.815007	addict
-5.218699	addicted
-5.741578	addiction
-5.164342	addition
-4.853211	additional
-6.353398	additionally
-6.917669	additive
-3.664008	address
-7.394791	addressee
-4.903429	ade
-6.695821	adenoma
-6.695821	adept
-7.394791	adequacy
-6.394791	adequate
-7.09376	adequately
-7.09376	adhere
-7.394791	adhesive
-6.695821	adipocyte
-6.491701	adjacent
-5.903429	adjective
-7.09376	adjoining
-6.792731	adjunct
-5.080924	adjust
-6.917669	adjustable
-7.394791	adjuster
-5.889641	adjustment
-7.394791	admi
-6.695821	administer
-7.394791	administrate
-5.947633	administration
-5.815007	administrative
-7.394791	administratively
-5.704595	administrator
-6.190671	admirable
-6.549693	admiral
-5.537458	admiralty
-6.549693	admiration
-4.920575	admire
-6.491701	admired
-6.792731	admirer
-6.61664	admiring
-5.562282	admission
-5.159262	admit
-5.440548	admitted
-7.09376	admittedly
-6.917669	ado
-5.732033	adobe
-6.164342	adolescence
-6.695821	adolescent
-4.546602	adopt
-5.179947	adopted
-7.09376	adoptee
-6.052368	adopter
-4.054942	adoption
-5.876277	adoptive
-5.850723	adorable
-5.979817	adore
-5.876277	adrenaline
-6.61664	adrift
-4.662397	adult
-6.116037	adulthood
-4.913348	advance
-5.334093	advanced
-5.947633	advancement
-6.440548	advancing
-5.120633	advantage
-6.917669	advantageous
-4.969909	adventure
-6.491701	adventurer
-5.319244	adventurous
-7.394791	adventurously
-6.491701	adverb
-6.917669	adverbial
-7.394791	adversary
-6.280848	adverse
-6.440548	adversity
-6.61664	advert
-5.609461	advertise
-5.048438	advertisement
-6.695821	advertiser
-5.431003	advertising
-4.555313	advice
-5.889641	advisable
-4.657598	advise
-5.581877	advised
-7.394791	advisement
-5.71355	adviser
-5.863312	advisor
-5.751338	advisory
-5.963427	advocate
-6.792731	ady
-6.353398	ae
-7.394791	aegis
-5.562282	aeon
-6.190671	aerial
-6.218699	aero
-7.394791	aerobatic
-6.61664	aerobatics
-6.491701	aerobic
-7.394791	aerodynamic
-6.792731	aerodynamics
-6.792731	aerofoil
-6.917669	aeronautic
-6.792731	aeronautical
-5.322909	aeroplane
-7.394791	aerosol
-5.963427	aesthetic
-7.394791	aesthetical
-6.315609	aesthetically
-7.394791	aesthetician
-6.248662	aesthetics
-6.440548	afar
-5.502696	affair
-4.821919	affect
-5.100325	affected
-5.876277	affecting
-5.917669	affection
-6.61664	affectionate
-7.394791	affectionately
-6.917669	affective
-5.480977	affidavit
-7.09376	affiliate
-6.394791	affiliation
-6.491701	affinity
-7.394791	affirm
-6.394791	affirmation
-6.792731	affirmative
-6.917669	affix
-6.917669	afflicted
-6.917669	affluence
-6.61664	affluent
-4.733925	afford
-4.973187	affordable
-7.394791	affricated
-7.394791	afloat
-7.394791	afore
-4.598911	afraid
-6.491701	afresh
-5.609461	aft
-3.109931	after
-6.164342	afterlife
-6.549693	afterlight
-6.792731	aftermath
-3.975	afternoon
-6.61664	afternoons
-6.792731	aftershock
-6.315609	aftertaste
-5.826589	afterward
-4.971545	afterwards
-6.695821	aga
-3.457223	again
-4.545372	against
-4.839696	agama
-7.394791	agape
-5.095938	agar
-4.011155	age
-5.670515	aged
-5.623939	agen
-4.637395	agency
-5.280848	agenda
-4.707262	agent
-7.394791	ager
-6.61664	aggravate
-7.394791	aggravating
-7.394791	aggravation
-6.218699	aggregate
-6.218699	aggression
-4.969909	aggressive
-6.394791	aggressively
-6.917669	aggressiveness
-6.917669	aggressor
-6.440548	agile
-6.792731	agility
-5.261252	aging
-6.917669	agitate
-6.440548	agitation
-6.917669	agnostic
-6.695821	agnus
-3.936909	ago
-5.863312	agony
-7.394791	agora
-7.394791	agre
-4.22015	agree
-5.876277	agreeable
-7.394791	agreeableness
-5.274217	agreed
-6.248662	agreeing
-5.134719	agreement
-6.315609	agricole
-6.491701	agricultural
-6.248662	agriculture
-2.203667	ah
-5.056334	aha
-4.426775	ahead
-5.838488	ahem
-5.016393	ai
-5.251776	aid
-7.394791	aide
-6.491701	aider
-7.394791	ailing
-7.09376	ailment
-4.935398	aim
-7.394791	aimer
-5.555942	aiming
-6.917669	aimless
-6.792731	aimlessly
-3.68671	air
-5.803726	aircraft
-6.394791	airdrop
-7.394791	airfield
-6.917669	airing
-7.394791	airlift
-7.09376	airliner
-7.09376	airmail
-5.417067	airplane
-4.613754	airport
-7.394791	airship
-7.394791	airsick
-7.09376	airtight
-6.280848	airway
-6.218699	airy
-6.190671	aisle
-7.394791	ait
-4.445889	ajar
-5.07882	ak
-6.353398	aka
-7.09376	ake
-7.394791	akin
-2.760979	aku
-5.120633	al
-4.707262	ala
-7.09376	alala
-5.525559	alan
-7.09376	alar
-4.619545	alarm
-6.61664	alarmed
-6.190671	alarming
-6.695821	alarum
-6.190671	alas
-7.394791	alba
-7.09376	albatross
-7.394791	albeit
-6.394791	albino
-4.95704	album
-6.792731	alchemist
-7.394791	alchemy
-5.007401	alcohol
-5.417067	alcoholic
-6.792731	alcoholism
-7.394791	alder
-6.394791	ale
-4.161795	alert
-7.394791	alertness
-6.792731	alexia
-6.61664	alfa
-6.917669	alfonso
-7.394791	alfresco
-6.218699	algae
-5.917669	algebra
-7.394791	algebraic
-5.377758	algorithm
-5.771542	alias
-5.341712	alien
-6.394791	alienation
-5.440548	alif
-5.732033	alight
-5.803726	align
-5.889641	alignment
-5.751338	alike
-6.792731	alimony
-7.394791	alin
-6.792731	alison
-4.646603	alive
-6.549693	aliyah
-6.917669	alkali
-7.394791	alkalic
-6.695821	alkaline
-7.394791	alkane
-2.719425	all
-6.61664	allan
-7.394791	allegation
-6.549693	allegedly
-7.09376	allegiance
-6.549693	allergen
-5.361367	allergic
-5.662397	allergy
-6.394791	alleviate
-5.549693	alley
-5.963427	alliance
-6.353398	allied
-7.09376	allies
-6.072571	alligator
-7.09376	alliteration
-5.654428	allocate
-5.722693	allocation
-7.394791	allopathic
-4.501029	allow
-6.917669	allowable
-4.99167	allowance
-7.09376	alloy
-6.248662	ally
-7.394791	alma
-6.695821	almighty
-7.394791	almon
-5.654428	almond
-4.126447	almost
-7.09376	alo
-5.838488	aloe
-7.394791	aloft
-4.124811	alone
-4.231629	along
-6.248662	alongside
-6.549693	aloof
-7.394791	alopecia
-6.353398	aloud
-7.09376	alp
-6.792731	alpaca
-5.177307	alpha
-5.326605	alphabet
-6.491701	alphabetical
-2.932572	already
-3.431948	alright
-6.61664	alrighty
-2.763124	also
-6.695821	alt
-6.917669	altar
-5.326605	alter
-6.139518	alteration
-5.248662	alternate
-7.09376	alternately
-6.61664	alternating
-5.139518	alternative
-5.687221	alternatively
-4.413879	although
-7.394791	altimeter
-6.190671	altitude
-6.695821	alto
-5.341712	altogether
-6.695821	altruism
-6.917669	altruistic
-7.09376	alum
-7.394791	alumina
-5.732033	aluminium
-6.917669	aluminum
-5.638916	alumni
-7.394791	alumnus
-6.917669	alunite
-6.353398	alway
-3.346776	always
-3.458026	am
-6.917669	ama
-6.440548	amah
-7.09376	amalgamate
-7.394791	amalgamation
-6.491701	amani
-5.525559	amar
-7.394791	amass
-5.826589	amateur
-7.394791	amateurish
-5.815007	amaze
-5.602399	amazed
-7.09376	amazement
-4.563561	amazing
-6.491701	amazingly
-5.917669	ambassador
-7.394791	ambassy
-5.687221	amber
-7.394791	ambidextrous
-5.803726	ambience
-6.695821	ambient
-6.792731	ambiguity
-5.947633	ambiguous
-5.771542	ambition
-5.334093	ambitious
-7.394791	ambitiousness
-6.549693	ambivalent
-7.394791	ambivert
-7.394791	ambling
-6.549693	ambrose
-3.645209	ambulance
-7.394791	ambulation
-7.394791	ambulatory
-6.917669	ambush
-7.394791	ame
-5.917669	amelia
-6.052368	amen
-6.695821	amenable
-5.654428	amend
-6.139518	amendment
-6.917669	amenity
-7.394791	ameristic
-6.917669	amethyst
-6.315609	ami
-6.792731	amicable
-6.549693	amid
-6.695821	amidst
-6.248662	amil
-5.357364	amin
-6.792731	amine
-6.917669	amino
-5.054347	amir
-7.09376	amla
-7.394791	amma
-6.491701	ammo
-7.09376	ammonia
-6.695821	ammunition
-6.917669	amnesia
-7.394791	amnesty
-6.792731	amoeba
-7.09376	amok
-4.935398	among
-6.116037	amongst
-7.394791	amorous
-6.917669	amortization
-3.88761	amount
-6.792731	amour
-6.61664	ampere
-7.09376	amphetamine
-7.09376	amphibian
-7.394791	amphitheater
-6.164342	ample
-6.549693	amplifier
-6.792731	amplify
-6.280848	amplitude
-6.917669	ampoule
-6.61664	amputate
-6.072571	amputation
-6.61664	amputee
-7.394791	amulet
-6.033063	amuse
-6.280848	amused
-5.670515	amusement
-6.315609	amusing
-5.224529	amy
-3.336289	an
-5.525559	ana
-6.61664	anaconda
-6.792731	anaesthesia
-6.394791	anal
-6.695821	analogue
-6.164342	analogy
-5.365407	analyse
-7.09376	analyses
-5.297881	analysis
-5.815007	analyst
-6.440548	analytic
-6.116037	analytical
-6.033063	analytics
-5.670515	analyze
-6.917669	analyzer
-7.394791	anam
-7.394791	anan
-6.315609	ananas
-7.394791	ananda
-7.394791	anarchy
-7.09376	anatomical
-7.394791	anatomically
-6.014579	anatomy
-6.164342	ancestor
-7.09376	ancestral
-7.394791	ancestry
-5.575247	anchor
-7.394791	anchorage
-7.394791	anchored
-5.470511	ancient
-2.118572	and
-4.249283	anda
-5.141938	android
-7.394791	anecdotal
-6.353398	anecdote
-6.491701	anemia
-6.440548	anemic
-7.09376	anemone
-7.09376	anesthesia
-7.394791	anesthetic
-4.903429	angel
-7.394791	angelfish
-6.695821	angelic
-6.164342	angeline
-5.408019	anger
-6.917669	angina
-7.09376	angioplasty
-5.230438	angle
-6.792731	angled
-7.09376	angler
-6.491701	angrily
-4.343252	angry
-6.315609	angst
-7.09376	anguish
-6.917669	angular
-6.280848	ani
-4.277188	animal
-6.440548	animate
-5.903429	animated
-5.196134	animation
-7.09376	animator
-4.805959	anime
-7.394791	animosity
-7.394791	animus
-5.863312	anis
-6.917669	anise
-7.394791	anker
-5.201666	ankle
-5.394791	ann
-5.245572	anna
-7.394791	annet
-7.09376	annex
-5.334093	anniversary
-7.09376	annotation
-5.631363	announce
-5.525559	announcement
-6.917669	announcer
-5.646603	annoy
-6.491701	annoyance
-4.590652	annoying
-7.394791	annoyingly
-5.215814	annual
-5.99685	annually
-7.09376	anode
-7.394791	anon
-7.09376	anonymity
-5.771542	anonymous
-6.61664	anorexia
-3.454772	another
-6.917669	ansar
-3.736302	answer
-7.09376	answerable
-5.245572	ant
-6.792731	anta
-6.549693	antacid
-7.394791	antagonism
-6.549693	antagonist
-7.394791	antagonize
-6.917669	antarctic
-5.838488	antarctica
-7.09376	anteater
-5.525559	antenna
-6.792731	antennae
-5.917669	anthem
-7.394791	anther
-7.09376	anthesis
-6.440548	anthology
-7.394791	anthrax
-7.394791	anthropologist
-7.394791	anthropology
-5.085161	anti
-7.09376	antiaircraft
-7.394791	antibacterial
-5.917669	antibiotic
-6.248662	antibody
-5.979817	antic
-6.248662	anticipate
-6.61664	anticipation
-6.549693	anticlockwise
-6.394791	antidote
-7.09376	antihero
-6.792731	antioxidant
-5.460292	antique
-7.394791	antiquity
-7.09376	antiseptic
-6.394791	antisocial
-7.394791	antithesis
-6.394791	antivirus
-6.695821	anus
-5.403564	anxiety
-5.662397	anxious
-7.09376	anxiousness
-3.18295	any
-4.594074	anybody
-4.752326	anyhow
-4.305593	anyone
-3.374471	anything
-3.863695	anyway
-4.832498	anyways
-4.448339	anywhere
-2.749319	apa
-7.394791	apache
-4.732978	apart
-4.973187	apartment
-6.917669	apathetic
-6.248662	apathy
-4.732978	ape
-7.394791	aperture
-5.963427	apex
-6.014579	apocalypse
-7.09376	apocalyptic
-7.394791	apologetic
-5.460292	apologize
-5.741578	apology
-7.09376	apostle
-5.826589	apostrophe
-6.917669	appalling
-6.218699	apparatus
-6.394791	apparel
-7.394791	apparence
-6.014579	apparent
-4.401795	apparently
-7.09376	apparition
-4.933893	appeal
-5.903429	appealing
-5.025575	appear
-5.562282	appearance
-6.792731	appease
-7.394791	append
-7.09376	appendicitis
-5.99685	appendix
-7.394791	appertain
-5.623939	appetite
-5.889641	appetizer
-7.394791	applaud
-6.09376	applause
-4.353793	apple
-5.638916	appliance
-5.280848	applicable
-5.185276	applicant
-4.031367	application
-4.71355	applied
-3.86729	apply
-5.568716	appoint
-6.917669	appointee
-4.464351	appointment
-7.394791	apportion
-6.218699	appraisal
-7.09376	appraise
-7.394791	appreciable
-4.544757	appreciate
-5.751338	appreciation
-6.116037	appreciative
-7.394791	apprehend
-6.792731	apprehensive
-6.917669	apprentice
-7.09376	apprenticeship
-4.825417	approach
-5.947633	approachable
-5.863312	approaching
-5.486306	appropriate
-6.280848	appropriately
-7.394791	appropriateness
-4.833689	approval
-4.891	approve
-6.190671	approximate
-5.440548	approximately
-7.394791	apricot
-5.330333	apron
-6.190671	apt
-6.695821	aptitude
-6.052368	aqua
-6.61664	aquamarine
-6.280848	aquaria
-5.102535	aquarium
-6.917669	aquatic
-4.249283	ar
-6.353398	ara
-7.394791	arapaima
-6.917669	arba
-6.917669	arbitrary
-6.61664	arbitration
-7.394791	arbor
-7.09376	arbutin
-5.722693	arc
-6.792731	arca
-5.440548	arcade
-5.932393	arch
-7.09376	archaeological
-7.09376	archaeologist
-6.695821	archaeology
-7.394791	arched
-6.61664	archer
-5.815007	archery
-6.917669	arches
-6.792731	archetype
-7.09376	archipelago
-5.588611	architect
-6.491701	architectural
-5.248662	architecture
-6.09376	archive
-5.963427	arctic
-2.613215	are
-3.866646	area
-6.014579	arena
-6.792731	argent
-6.917669	argon
-6.792731	arguable
-4.797095	argue
-4.789485	argument
-6.491701	argumentation
-6.440548	argumentative
-7.09376	aria
-7.394791	arid
-6.09376	ariel
-6.61664	aright
-6.280848	arise
-6.052368	arista
-6.917669	aristocracy
-7.394791	aristocrat
-7.394791	arithmetic
-7.09376	arjun
-6.549693	ark
-4.689783	arm
-7.394791	armada
-7.09376	armadillo
-6.491701	armchair
-6.248662	armed
-6.792731	arming
-7.394791	armlet
-6.248662	armor
-7.394791	armored
-7.394791	armory
-5.876277	armpit
-6.116037	armrest
-4.725474	arms
-4.437183	army
-7.394791	arn
-7.394791	arni
-5.751338	aroma
-6.917669	aromatic
-6.917669	arose
-3.535052	around
-7.394791	arousal
-7.09376	arouse
-4.832498	arrange
-5.284201	arrangement
-6.917669	array
-5.687221	arrest
-7.09376	arresting
-5.470511	arrival
-4.968279	arrive
-6.491701	arrogance
-5.417067	arrogant
-6.315609	arrogantly
-4.858232	arrow
-6.917669	arrowed
-5.297881	arsenal
-7.09376	arsenic
-7.09376	arson
-4.361367	art
-7.09376	artefact
-7.394791	arteriosclerosis
-6.917669	artery
-7.394791	artful
-7.394791	artha
-6.052368	arthritis
-4.935398	article
-6.353398	articulate
-7.394791	articulated
-6.792731	articulation
-6.61664	artifact
-5.412519	artificial
-6.695821	artificially
-7.394791	artillery
-7.394791	artisan
-4.747408	artist
-5.917669	artiste
-5.695821	artistic
-7.09376	artistically
-7.394791	artistry
-6.164342	arty
-7.394791	aru
-7.394791	ary
-2.862635	as
-6.792731	asak
-6.61664	asbestos
-6.792731	ascend
-7.394791	ascendant
-6.695821	ascending
-7.394791	ascension
-7.394791	ascent
-6.440548	ascertain
-7.394791	ascribe
-6.61664	ase
-7.394791	aseptic
-7.09376	asexual
-5.979817	ash
-7.09376	ashame
-6.09376	ashamed
-7.394791	ashen
-5.815007	ashes
-6.792731	ashore
-6.218699	ashraf
-7.09376	ashy
-4.981491	aside
-3.211122	ask
-5.440548	askar
-7.09376	asker
-5.033063	asleep
-7.394791	asoka
-6.491701	asp
-6.394791	asparagus
-4.746431	aspect
-6.917669	aspen
-7.394791	aspersion
-7.09376	asphalt
-7.09376	aspirate
-5.365407	aspiration
-5.782007	aspire
-6.248662	aspirin
-6.491701	aspiring
-5.07882	ass
-6.315609	assassin
-6.61664	assassinate
-6.549693	assassination
-6.353398	assault
-6.61664	assay
-7.394791	assayer
-5.751338	assemble
-5.51973	assembly
-7.09376	assent
-6.218699	assert
-7.394791	assertion
-6.248662	assertive
-7.394791	assertiveness
-5.236428	assess
-6.491701	assessable
-6.218699	assessed
-5.182603	assessment
-6.014579	assessor
-5.357364	asset
-5.369485	assets
-6.917669	assi
-4.889641	assign
-5.369485	assigned
-7.394791	assignee
-7.394791	assigner
-4.741578	assignment
-7.394791	assimilate
-7.394791	assimilation
-3.988421	assist
-4.403564	assistance
-4.676289	assistant
-7.09376	assistive
-5.537458	associate
-5.782007	associated
-5.662397	association
-7.394791	assort
-6.792731	assorted
-7.394791	assortment
-4.769478	assume
-6.164342	assumed
-4.802614	assuming
-5.581877	assumption
-5.803726	assurance
-6.014579	assure
-6.014579	assured
-6.491701	assuring
-7.394791	assythment
-7.394791	ast
-7.394791	asta
-7.394791	astatic
-6.917669	aster
-5.979817	asterisk
-4.950746	asthma
-6.491701	asthmatic
-7.394791	astigmatism
-6.248662	astonish
-6.61664	astonishing
-6.917669	astonishment
-7.394791	astounding
-6.917669	astral
-7.09376	astray
-6.695821	astrologer
-6.917669	astrology
-5.792731	astronaut
-6.491701	astronomer
-6.61664	astronomical
-6.164342	astronomy
-6.09376	asylum
-7.394791	asymmetrical
-7.394791	asymptote
-7.394791	asyndeton
-2.726824	at
-7.394791	ataman
-6.394791	atap
-4.532063	ate
-7.394791	atelier
-6.61664	atheist
-7.394791	athematic
-5.903429	athlete
-5.850723	athletic
-6.917669	athleticism
-6.248662	athletics
-6.139518	atlantic
-6.218699	atlas
-5.412519	atmosphere
-7.09376	atmospheric
-5.741578	atom
-5.815007	atomic
-6.917669	atomy
-7.09376	atone
-7.09376	atonement
-7.394791	atop
-7.09376	atria
-7.09376	atrial
-6.440548	atrium
-6.549693	atrocious
-7.09376	atrocity
-7.394791	atrophy
-6.917669	atta
-5.076727	attach
-6.917669	attache
-4.941473	attached
-5.085161	attachment
-4.739652	attack
-6.052368	attacker
-5.963427	attain
-6.695821	attainable
-7.394791	attainment
-7.394791	attar
-5.408019	attempt
-4.629122	attend
-5.373601	attendance
-6.280848	attendant
-7.394791	attender
-7.394791	attent
-4.673805	attention
-5.947633	attentive
-6.792731	attentively
-6.792731	attentiveness
-7.394791	atter
-6.61664	attest
-6.218699	attic
-5.513977	attire
-4.89648	attitude
-5.889641	attorney
-5.201666	attract
-4.73109	attraction
-5.179947	attractive
-6.917669	attractively
-6.491701	attractiveness
-5.132339	attribute
-7.394791	attribution
-6.917669	attrition
-6.549693	atypical
-6.116037	auction
-6.792731	audacious
-7.09376	audacity
-6.917669	audible
-7.394791	audibly
-5.308431	audience
-5.304885	audio
-5.221604	audit
-5.287581	audition
-5.99685	auditor
-6.695821	auditorium
-7.394791	auditory
-7.394791	augmentation
-6.917669	augmented
-4.353398	august
-6.695821	auh
-7.09376	aum
-4.872346	aunt
-4.567421	auntie
-5.947633	aura
-7.394791	aural
-7.09376	aurelia
-7.394791	auric
-6.139518	aurora
-6.549693	auspicious
-7.394791	austerity
-7.394791	austral
-5.204459	authentic
-7.394791	authenticate
-7.394791	authentication
-6.280848	authenticity
-7.394791	authenticness
-5.361367	author
-6.116037	authoritarian
-7.394791	authoritarianism
-6.394791	authoritative
-5.308431	authority
-5.803726	authorization
-6.218699	authorize
-6.014579	authorized
-7.394791	authorizer
-6.549693	authorship
-5.792731	autism
-7.394791	autist
-5.662397	autistic
-4.773614	auto
-6.218699	autobiography
-7.394791	autocratic
-6.09376	autograph
-7.394791	automa
-7.394791	automata
-5.254911	automatic
-5.005625	automatically
-6.792731	automobile
-6.280848	automotive
-6.61664	autonomous
-6.491701	autonomy
-6.440548	autopilot
-5.284201	autumn
-7.09376	autumnal
-7.09376	auxiliary
-7.394791	ava
-6.353398	avail
-5.838488	availability
-4.627635	available
-6.792731	avalanche
-7.394791	avast
-6.190671	ave
-6.917669	avenge
-5.704595	avenger
-4.22015	avenue
-4.718097	average
-6.792731	averagely
-6.695821	averse
-7.394791	avert
-7.394791	averted
-6.61664	avian
-7.394791	aviary
-5.917669	aviation
-7.09376	aviator
-6.139518	avid
-6.917669	avo
-5.646603	avocado
-4.845788	avoid
-7.394791	avoidable
-6.917669	avoidance
-5.722693	aw
-6.190671	awa
-6.917669	await
-4.840908	awake
-6.014579	awaken
-6.248662	awakening
-5.248662	award
-4.872346	aware
-5.421663	awareness
-6.033063	awat
-3.80073	away
-6.491701	awe
-4.676289	awesome
-7.394791	awesomeness
-5.782007	awful
-6.033063	awfully
-4.741578	awhile
-6.917669	awin
-6.792731	awing
-4.3909	awkward
-6.218699	awkwardly
-6.491701	awkwardness
-7.09376	awning
-7.09376	awoke
-6.353398	ax
-5.903429	axe
-6.61664	axes
-7.09376	axiom
-6.394791	axis
-7.394791	axolotl
-6.440548	axon
-5.631363	ay
-4.016029	ayah
-5.212947	aye
-7.394791	ayin
-6.164342	ayu
-6.792731	azure
-3.476027	b
-4.840908	ba
-6.695821	baa
-5.412519	baba
-6.917669	babble
-5.29442	babe
-6.549693	baboo
-6.440548	baboon
-6.917669	babu
-3.577291	baby
-7.394791	babyish
-6.695821	bac
-7.394791	baccarat
-6.792731	bach
-5.654428	bachelor
-3.145666	back
-5.838488	backache
-7.394791	backboard
-6.491701	backbone
-6.549693	backdoor
-6.218699	backdrop
-6.116037	backed
-7.394791	backer
-6.440548	backfire
-7.394791	backfiring
-4.517996	background
-6.792731	backhand
-7.394791	backhanded
-6.09376	backing
-6.218699	backlash
-7.09376	backless
-7.394791	backlog
-5.838488	backside
-6.09376	backstage
-6.792731	backstroke
-6.792731	backtrack
-5.361367	backup
-5.687221	backward
-5.513977	backwards
-7.394791	backwash
-7.394791	backway
-5.491701	bacon
-5.440548	bacteria
-6.491701	bacterial
-3.48438	bad
-4.37195	badan
-5.357364	badge
-6.218699	badger
-4.953882	badly
-4.356171	badminton
-7.09376	badness
-5.947633	bae
-6.549693	baffle
-4.202223	bag
-6.139518	bagel
-5.662397	baggage
-7.394791	bagger
-5.99685	baggy
-7.394791	bagpipe
-6.917669	bagpipes
-5.876277	baguette
-5.251776	bah
-4.446867	bahan
-6.190671	bahar
-5.137112	baht
-6.280848	bail
-7.394791	bailer
-7.09376	bailey
-7.394791	bain
-5.815007	bait
-5.631363	baka
-5.5083	bakal
-4.727338	bake
-5.373601	baked
-5.623939	baker
-5.280848	bakery
-4.89648	baking
-5.932393	baku
-6.491701	bal
-5.903429	balai
-4.285888	balance
-5.475713	balanced
-6.394791	balancer
-5.782007	balancing
-5.575247	balas
-5.39047	balcony
-5.602399	bald
-6.440548	baldness
-7.09376	baldy
-6.792731	bale
-4.844563	bali
-3.99339	ball
-6.491701	ballad
-7.394791	ballade
-7.394791	balled
-6.190671	baller
-6.61664	ballerina
-5.480977	ballet
-7.394791	ballistic
-5.161795	balloon
-7.394791	ballooner
-6.491701	ballooning
-7.394791	balloonist
-5.792731	ballot
-6.052368	balloting
-5.863312	ballroom
-6.917669	bally
-6.033063	balm
-7.394791	baloney
-6.792731	balsamic
-5.826589	balut
-6.61664	bam
-7.09376	bambino
-5.421663	bamboo
-5.141938	ban
-7.394791	banak
-7.09376	banality
-4.67712	banana
-7.09376	banca
-6.394791	banco
-4.349468	band
-6.248662	banda
-5.678787	bandage
-7.09376	bandanna
-4.593387	bandar
-5.502696	banding
-6.440548	bandit
-7.09376	bando
-7.394791	bandstand
-6.491701	bane
-4.818449	bang
-7.394791	banga
-7.394791	bangalow
-6.792731	banger
-5.863312	banging
-4.722693	bangkok
-6.218699	bangle
-6.917669	bani
-6.792731	banish
-7.394791	banister
-7.394791	banjo
-3.548949	bank
-7.09376	bankbook
-6.440548	banked
-5.066411	banker
-4.736779	banking
-5.304885	bankrupt
-6.09376	bankruptcy
-4.73109	banner
-7.394791	banning
-5.326605	banquet
-6.440548	banter
-6.491701	banya
-6.164342	banyan
-6.61664	bap
-6.792731	baptism
-7.09376	baptize
-4.31706	bar
-6.218699	bara
-6.190671	barb
-6.61664	barbarian
-7.394791	barbaric
-7.09376	barbarous
-7.09376	barbe
-4.734875	barbecue
-6.61664	barbed
-5.440548	barber
-6.792731	barbershop
-5.568716	barcelona
-7.394791	bard
-5.349468	bare
-7.394791	barefaced
-5.838488	barefoot
-5.863312	barefooted
-7.394791	barehanded
-5.25807	barely
-5.609461	bargain
-6.315609	barge
-6.792731	bari
-7.394791	barilla
-5.381954	baring
-6.440548	baris
-5.549693	bark
-7.09376	barker
-5.782007	barking
-6.014579	barley
-5.782007	barn
-5.826589	barney
-6.491701	barnyard
-7.394791	barometer
-6.549693	baron
-7.09376	barra
-6.792731	barrack
-7.09376	barracuda
-5.470511	barrage
-7.09376	barred
-5.979817	barrel
-6.792731	barren
-6.917669	barret
-6.218699	barricade
-5.236428	barrier
-6.549693	barring
-7.394791	barrio
-6.164342	barrow
-5.662397	barry
-5.947633	bartender
-7.394791	bartending
-6.917669	barter
-7.394791	barth
-6.917669	barton
-3.587933	baru
-4.599606	bas
-4.434796	base
-5.581877	baseball
-7.394791	baseballer
-4.187156	based
-7.09376	baseless
-6.218699	baseman
-5.031179	basement
-6.218699	bases
-5.99685	bash
-7.394791	bashful
-4.405786	basic
-3.704152	basically
-6.09376	basil
-7.394791	basilar
-6.033063	basin
-4.755304	basis
-6.917669	bask
-4.933893	basket
-4.48738	basketball
-6.695821	basketballer
-5.315609	bass
-7.09376	bassist
-7.09376	basso
-7.394791	bassoonist
-7.394791	basta
-5.623939	bastard
-7.394791	baster
-6.549693	bastion
-5.326605	bat
-4.759307	batch
-6.549693	bater
-5.248662	bath
-5.330333	bathe
-5.631363	bathing
-6.549693	bathrobe
-5.513977	bathroom
-5.741578	bathtub
-5.248662	batik
-6.917669	bating
-5.25807	batman
-6.394791	baton
-6.218699	bats
-6.792731	battalion
-6.280848	batter
-6.917669	battered
-4.900636	battery
-7.09376	batting
-4.933893	battle
-6.792731	battled
-6.190671	battlefield
-6.440548	battleship
-6.792731	baw
-6.792731	baxter
-4.570665	bay
-5.803726	baya
-5.445401	bazaar
-6.549693	bazooka
-2.597641	be
-4.119479	beach
-6.248662	beachcombing
-7.09376	beached
-6.280848	beachy
-6.917669	beacon
-6.549693	bead
-7.394791	beaded
-7.394791	beading
-6.917669	beady
-6.695821	beagle
-5.623939	beak
-6.792731	beaker
-5.732033	beam
-5.803726	beamer
-6.61664	beaming
-4.801505	bean
-6.917669	beanbag
-7.394791	beanbags
-6.695821	beanie
-7.394791	beanstalk
-6.792731	beant
-4.304885	bear
-6.440548	bearable
-5.091595	beard
-6.440548	bearded
-7.394791	bearer
-5.932393	bearing
-7.394791	bearish
-5.312006	beast
-4.69669	beat
-5.876277	beaten
-7.394791	beater
-5.761322	beating
-6.695821	beau
-6.190671	beautician
-4.512266	beautiful
-6.052368	beautifully
-6.440548	beautify
-4.811592	beauty
-7.09376	beaver
-7.394791	bebat
-7.09376	bebop
-2.640053	because
-6.549693	beck
-3.920283	become
-4.871044	becomes
-5.122949	becoming
-4.296493	bed
-7.394791	bedclothes
-6.917669	bedded
-6.61664	bedding
-7.394791	bedframe
-5.963427	bedridden
-7.394791	bedrock
-5.254911	bedroom
-6.792731	bedside
-6.792731	bedsore
-6.280848	bedtime
-4.559735	bee
-7.394791	beech
-7.394791	beechwood
-4.559735	beef
-6.792731	beefeater
-6.190671	beefsteak
-6.695821	beefy
-5.502696	beehive
-6.549693	beekeeper
-3.438622	been
-4.801505	beer
-5.179947	bees
-6.695821	beet
-5.850723	beetle
-3.288396	before
-5.623939	beforehand
-6.491701	befriend
-4.779893	beg
-5.99685	beggar
-5.771542	begging
-5.125278	begin
-5.687221	beginner
-4.90203	beginning
-7.394791	begonia
-7.394791	begrudgingly
-6.695821	begun
-4.868452	behalf
-5.196134	behave
-5.581877	behavior
-6.218699	behavioral
-7.394791	behaviorist
-5.403564	behaviour
-4.012053	behind
-6.440548	behold
-6.695821	beholder
-5.270939	beige
-3.672815	being
-6.190671	bel
-4.387043	bela
-4.309144	belah
-5.803726	belanda
-6.440548	belated
-6.315609	belay
-7.09376	belayer
-7.394791	belch
-5.562282	belief
-6.491701	believable
-4.044155	believe
-5.815007	believer
-6.014579	believing
-6.917669	belittle
-7.394791	belittlement
-5.029303	bell
-6.917669	bellboy
-5.99685	belle
-7.394791	bellied
-6.792731	bellow
-5.254911	belly
-5.280848	belong
-5.917669	belonging
-6.033063	beloved
-3.923206	below
-4.939946	belt
-7.09376	belted
-6.917669	belting
-7.09376	belvedere
-4.773614	ben
-4.787336	bench
-7.394791	bencher
-7.394791	benching
-5.179947	bend
-3.567939	benda
-6.917669	bendable
-7.09376	bended
-6.61664	bender
-5.963427	bending
-5.341712	bene
-5.543532	beneath
-5.979817	benedict
-7.394791	benefactor
-7.394791	benefic
-4.888286	beneficial
-4.504929	beneficiary
-4.655219	benefit
-7.09376	benevolence
-6.917669	benevolent
-5.71355	beng
-7.394791	beni
-7.09376	benign
-5.646603	benjamin
-7.394791	benjy
-6.917669	bennet
-5.876277	benny
-5.99685	bent
-6.549693	bentang
-7.394791	benthos
-7.394791	benzene
-7.394791	benzoyl
-4.895103	ber
-4.685521	berat
-6.315609	beret
-7.09376	berg
-6.61664	berger
-5.365407	berlin
-6.792731	berm
-7.394791	berried
-5.531468	berry
-6.695821	berserk
-7.09376	berserker
-5.979817	berth
-6.139518	bes
-6.917669	besa
-7.09376	besan
-3.78755	beside
-4.547218	besides
-6.792731	bespectacled
-7.394791	bespoke
-3.410624	best
-7.09376	bester
-7.394791	bestow
-4.708155	bet
-5.850723	beta
-6.917669	betel
-6.61664	beth
-6.315609	betis
-5.99685	betray
-7.09376	betrayal
-6.917669	betrayer
-7.394791	betrothed
-3.568133	better
-6.792731	bettering
-7.09376	betterment
-7.394791	betters
-4.860765	betting
-6.09376	betty
-4.025761	between
-5.568716	beverage
-6.052368	beware
-6.792731	bewilder
-7.394791	bewildered
-7.394791	bewitch
-7.09376	bewitching
-7.394791	bey
-4.801505	beyond
-6.792731	bezel
-6.917669	bhat
-7.394791	biannual
-5.399156	bias
-6.695821	biasness
-7.09376	bib
-6.549693	bibb
-6.792731	bibi
-6.917669	bibliography
-7.394791	bicarbonate
-6.139518	biceps
-7.394791	bicker
-4.648157	bicycle
-5.297881	bid
-6.695821	bidder
-6.164342	bidding
-7.09376	bidet
-7.394791	bien
-3.578815	big
-7.09376	bigg
-4.336744	bigger
-4.417067	biggest
-7.394791	bight
-6.917669	bijou
-4.44883	bike
-4.899246	bikini
-7.394791	bilateral
-7.09376	bile
-5.876277	bilingual
-6.695821	bilingualism
-4.50437	bill
-7.09376	billabong
-5.99685	billboard
-7.09376	billed
-7.394791	biller
-6.917669	billet
-6.218699	billiard
-7.09376	billiards
-6.353398	billing
-5.179947	billion
-5.602399	billionaire
-5.445401	billy
-7.09376	bimonthly
-4.68637	bin
-6.61664	binary
-5.609461	bind
-5.826589	binder
-6.033063	binding
-5.732033	bing
-5.826589	binge
-5.066411	bingo
-7.394791	bino
-7.09376	binomial
-5.678787	biochemistry
-7.394791	biogen
-6.190671	biography
-7.09376	biologic
-4.981491	biological
-6.440548	biologically
-6.695821	biologist
-5.270939	biology
-7.09376	biometric
-7.394791	biometrics
-6.61664	bion
-7.09376	bioplastic
-6.917669	bios
-6.917669	biosis
-7.09376	biota
-6.917669	biotic
-6.315609	bipolar
-6.917669	birch
-4.216102	bird
-6.315609	birdie
-6.917669	birdman
-7.394791	birdy
-5.947633	biri
-4.018762	birth
-4.242197	birthday
-7.394791	birthmark
-6.549693	birthplace
-7.09376	birthright
-6.61664	bis
-5.284201	biscuit
-6.917669	bisexual
-6.549693	bishop
-7.09376	bismillah
-7.394791	bison
-6.280848	bisque
-6.190671	bistro
-3.423469	bit
-5.373601	bitch
-4.913348	bite
-6.549693	biter
-5.751338	biting
-5.732033	bitten
-5.052368	bitter
-7.394791	bitterly
-6.315609	bitterness
-6.440548	bittersweet
-7.394791	biwa
-6.792731	biweekly
-7.394791	biyearly
-5.455271	biz
-6.61664	bizarre
-6.917669	blabber
-3.756301	black
-6.917669	blackball
-5.215814	blackberry
-6.917669	blackbird
-5.531468	blackboard
-7.09376	blacker
-7.394791	blackface
-6.695821	blackfish
-6.190671	blackhead
-6.353398	blackheads
-7.394791	blackie
-6.491701	blackish
-6.491701	blackjack
-6.280848	blackmail
-5.803726	blackout
-6.394791	blacksmith
-7.09376	blackwater
-7.394791	blacky
-5.979817	bladder
-5.284201	blade
-7.09376	bladed
-6.394791	blading
-4.485235	blah
-6.61664	blair
-6.116037	blake
-4.958628	blame
-6.315609	blamed
-6.116037	blaming
-7.394791	blan
-7.394791	blanc
-6.792731	blanch
-5.815007	bland
-4.884246	blank
-6.695821	blanked
-5.349468	blanket
-7.394791	blanking
-6.792731	blankly
-6.695821	blare
-7.09376	blasphemy
-5.609461	blast
-6.792731	blasted
-6.549693	blaster
-6.491701	blasting
-6.695821	blatant
-6.491701	blatantly
-6.218699	blaze
-5.662397	blazer
-7.394791	blazing
-5.638916	bleach
-7.09376	bleached
-7.394791	bleacher
-7.394791	bleaching
-6.248662	bleak
-5.782007	bleed
-7.394791	bleeder
-4.454274	bleeding
-7.09376	blemish
-7.09376	blench
-5.012774	blend
-5.826589	blended
-4.854461	blender
-5.889641	blending
-5.330333	bless
-5.450308	blessed
-6.792731	blessedness
-5.455271	blessing
-7.09376	blight
-4.515695	blind
-6.280848	blinded
-6.116037	blinder
-6.072571	blindfold
-6.491701	blindfolded
-6.491701	blinding
-7.394791	blindless
-5.863312	blindly
-6.353398	blindness
-5.638916	blink
-7.394791	blinked
-7.394791	blinker
-6.139518	blinking
-7.09376	blinks
-6.695821	blip
-5.826589	bliss
-6.792731	blissful
-5.99685	blister
-7.09376	blistering
-7.09376	blitz
-7.09376	blizzard
-6.549693	bloat
-5.963427	bloated
-6.695821	bloatedness
-7.394791	bloating
-6.61664	blob
-6.61664	bloc
-3.854962	block
-7.394791	blockade
-6.917669	blockage
-6.491701	blockbuster
-5.602399	blocked
-6.695821	blocker
-6.315609	blockhead
-7.394791	blockhouse
-5.782007	blocking
-6.792731	bloke
-4.927923	blonde
-4.183136	blood
-6.280848	blooded
-7.09376	bloodied
-7.09376	bloodily
-5.826589	bloodline
-7.394791	bloodshed
-6.549693	bloodstain
-7.394791	bloodstained
-5.072571	bloody
-5.963427	bloom
-5.732033	bloomer
-6.917669	bloomers
-6.116037	blooming
-7.09376	bloop
-7.394791	blooper
-5.826589	blossom
-7.394791	blossomed
-7.394791	blot
-5.215814	blouse
-5.187965	blow
-6.792731	blower
-7.394791	blowfish
-7.394791	blowgun
-5.502696	blowing
-5.761322	blown
-7.394791	blowtorch
-7.394791	blub
-3.543104	blue
-6.917669	bluebeard
-5.497164	blueberry
-7.09376	bluegrass
-7.09376	blueness
-6.440548	blueprint
-7.394791	bluer
-4.95704	blues
-7.394791	bluey
-5.678787	bluff
-5.947633	bluish
-6.549693	blunder
-6.164342	blunt
-6.917669	bluntly
-7.394791	blup
-5.029303	blur
-6.440548	blurred
-6.491701	blurry
-6.917669	blurt
-5.99685	blush
-6.072571	blusher
-6.792731	blushing
-4.850723	bo
-6.917669	boa
-5.963427	boar
-4.321439	board
-6.139518	boarder
-5.497164	boarding
-6.61664	boardwalk
-6.072571	boast
-6.917669	boaster
-6.549693	boastful
-6.280848	boasting
-4.545986	boat
-7.09376	boater
-7.09376	boathouse
-5.963427	boating
-7.09376	boatman
-5.353398	bob
-6.917669	boba
-7.394791	bobbin
-7.09376	bobbing
-5.445401	bobby
-5.695821	bobo
-7.09376	bock
-6.917669	bod
-6.917669	bodhi
-6.695821	bodied
-6.917669	bodily
-4.051185	body
-6.164342	bodyguard
-7.394791	bog
-6.917669	bogan
-7.394791	bogey
-6.792731	boggle
-7.09376	boggy
-7.394791	bogie
-6.792731	bogo
-6.61664	bogus
-5.151752	boil
-5.623939	boiled
-6.139518	boiler
-5.761322	boiling
-6.917669	boisterous
-4.062757	bola
-5.741578	bold
-5.771542	bole
-6.440548	bolero
-7.394791	bolivia
-7.394791	boll
-7.394791	bolly
-6.280848	bolster
-5.863312	bolt
-7.394791	bolting
-6.695821	bolus
-5.431003	bom
-5.029303	bomb
-6.549693	bombard
-7.394791	bombardier
-7.394791	bombardment
-6.491701	bombastic
-6.792731	bombed
-5.732033	bomber
-6.394791	bombshell
-5.771542	bon
-6.549693	bonanza
-7.394791	bonce
-4.326605	bond
-6.792731	bondage
-5.670515	bonded
-7.09376	bonder
-5.141938	bonding
-5.068455	bone
-6.394791	boneless
-7.09376	boner
-7.394791	bonfire
-6.248662	bong
-6.61664	bongo
-6.440548	bonito
-7.394791	bonk
-5.826589	bonnet
-6.792731	bonny
-7.09376	bonsai
-3.868451	bonus
-7.394791	bonzer
-5.850723	boo
-6.792731	boob
-7.394791	boody
-7.394791	boohoo
-3.785944	book
-5.455271	booked
-6.917669	booker
-6.917669	bookie
-4.983171	booking
-7.394791	bookish
-5.99685	booklet
-7.394791	bookmaker
-5.562282	bookmark
-6.315609	bookshelf
-5.25807	bookshop
-5.319244	bookstore
-6.440548	bookworm
-7.394791	bool
-5.052368	boom
-6.792731	boomer
-6.116037	boomerang
-6.280848	booming
-5.337886	boon
-7.394791	boorish
-5.330333	boost
-5.850723	booster
-5.072571	boot
-4.81046	booth
-7.09376	booting
-7.09376	bootleg
-7.394791	bootlick
-5.085161	boots
-7.394791	bootstrap
-6.792731	booty
-6.61664	booze
-6.792731	bop
-6.549693	bor
-6.549693	bora
-4.988251	borak
-5.146818	border
-7.09376	bordered
-6.792731	bordering
-5.99685	borderline
-5.963427	bore
-7.394791	borealis
-6.491701	boredom
-7.09376	borg
-7.394791	boric
-4.201388	boring
-7.394791	boringly
-7.394791	boringness
-4.237032	born
-5.876277	borne
-7.394791	borough
-4.949186	borrow
-7.09376	borrower
-5.826589	borrowing
-6.549693	borsch
-7.394791	borscht
-6.491701	bosch
-6.61664	bose
-6.549693	bosom
-4.275535	boss
-7.394791	bossing
-6.218699	bossy
-5.264457	boston
-5.159262	bot
-7.09376	bota
-5.149278	botanic
-5.704595	botanical
-6.917669	botanist
-7.394791	botany
-3.766402	both
-4.749369	bother
-6.440548	bothersome
-4.493878	bottle
-6.033063	bottled
-7.394791	bottleneck
-6.917669	bottlenose
-7.394791	bottler
-7.09376	bottling
-4.115352	bottom
-7.394791	bottoming
-7.394791	bough
-4.11764	bought
-6.917669	bougie
-5.932393	boulder
-6.248662	bouldering
-5.803726	boulevard
-5.290987	bounce
-7.09376	bouncer
-5.662397	bouncing
-5.224529	bound
-5.889641	boundary
-6.353398	bounded
-6.315609	bounding
-6.917669	boundless
-6.190671	bounty
-6.014579	bouquet
-6.61664	bourbon
-7.394791	bourdon
-7.394791	bousy
-5.054347	bout
-6.917669	bovine
-5.233423	bow
-5.465372	bowel
-6.61664	bowels
-7.394791	bower
-7.09376	bowing
-4.651281	bowl
-6.491701	bowler
-4.641208	bowling
-5.876277	bowls
-4.211236	box
-5.654428	boxer
-5.304885	boxing
-7.09376	boxy
-3.875619	boy
-5.99685	boycott
-6.917669	boyish
-7.09376	bozo
-5.475713	bra
-6.072571	brace
-5.838488	bracelet
-5.903429	braces
-7.09376	bracing
-7.09376	brack
-5.670515	bracket
-5.979817	brad
-6.139518	brag
-7.394791	braggart
-6.353398	bragging
-6.61664	braid
-7.394791	braiding
-4.511697	brain
-6.248662	brainer
-6.440548	brainless
-5.602399	brains
-6.440548	brainwash
-7.09376	brainy
-6.695821	braise
-5.417067	brake
-6.440548	bran
-4.576565	branch
-7.09376	branched
-6.695821	branching
-4.31706	brand
-5.125278	branded
-5.792731	brandy
-5.761322	brass
-6.280848	brat
-5.297881	brave
-7.394791	braver
-6.09376	bravery
-7.394791	braving
-5.230438	bravo
-6.917669	brawl
-6.917669	brawn
-7.09376	brawny
-7.394791	bray
-5.102535	brazil
-6.248662	breach
-4.464351	bread
-7.394791	breadboard
-7.394791	breadbox
-6.549693	breadfruit
-7.394791	breadmaker
-6.491701	breadth
-6.440548	breadwinner
-4.051973	break
-7.394791	breakable
-6.61664	breakage
-6.61664	breakaway
-5.098125	breakdown
-5.020042	breaker
-4.570014	breakfast
-5.033063	breaking
-6.218699	breakout
-5.670515	breakthrough
-5.99685	breakup
-7.394791	bream
-5.091595	breast
-6.695821	breastfeeding
-4.824248	breath
-4.495518	breathe
-6.549693	breather
-3.936758	breathing
-4.955458	breathless
-5.863312	breathlessness
-6.164342	bred
-6.917669	bree
-7.394791	breech
-5.345572	breed
-7.09376	breeder
-6.280848	breeding
-5.412519	breeze
-6.61664	breezy
-6.61664	brent
-7.394791	bret
-6.792731	brett
-6.164342	brew
-7.09376	brewer
-6.792731	brewery
-7.394791	brewing
-7.394791	briar
-5.903429	bribe
-6.917669	bribery
-5.373601	brick
-7.09376	brickwork
-5.979817	bridal
-5.460292	bride
-6.315609	bridegroom
-6.190671	bridesmaid
-4.80933	bridge
-7.09376	bridger
-6.491701	bridging
-5.274217	brief
-4.774655	briefing
-5.588611	briefly
-6.917669	briefs
-5.850723	brigade
-4.989957	bright
-6.052368	brighten
-6.917669	brightener
-6.917669	brightening
-6.61664	brightly
-6.491701	brightness
-7.394791	brilliance
-5.71355	brilliant
-7.394791	brilliantly
-5.889641	brim
-7.394791	brimming
-7.394791	brimstone
-7.394791	brin
-6.917669	brine
-3.681468	bring
-7.09376	bringer
-6.033063	brinjal
-7.394791	brink
-7.394791	brioche
-5.543532	brisk
-6.917669	brisket
-6.61664	briskly
-6.61664	bristle
-6.280848	brit
-6.116037	brittle
-5.408019	broad
-5.549693	broadcast
-6.61664	broadcaster
-6.394791	broaden
-6.917669	broadly
-7.394791	broadness
-5.732033	broadway
-5.803726	broccoli
-5.525559	brochure
-6.218699	brock
-4.708155	broke
-4.856972	broken
-7.394791	brokenly
-7.09376	brokenness
-5.803726	broker
-6.315609	brokerage
-7.394791	broking
-7.09376	bronchiolitis
-6.394791	bronchitis
-7.394791	bronchus
-6.917669	bronco
-5.638916	bronze
-7.394791	bronzed
-6.440548	bronzer
-7.09376	bronzy
-6.917669	brooch
-6.61664	brood
-7.394791	brooding
-6.218699	broody
-5.99685	brook
-5.99685	broom
-7.09376	brose
-7.394791	brot
-5.722693	broth
-7.09376	brothel
-4.032308	brother
-6.218699	brotherhood
-6.248662	brotherly
-4.444426	brought
-5.71355	brow
-7.394791	browed
-3.868969	brown
-5.531468	brownie
-6.792731	browning
-5.172074	brownish
-6.917669	browny
-5.771542	browse
-5.687221	browser
-6.052368	browsing
-7.09376	bruin
-6.052368	bruise
-6.917669	bruising
-6.491701	brulee
-5.465372	brunch
-6.190671	brunette
-7.09376	brunt
-5.087295	brush
-6.549693	brushed
-7.394791	brusher
-6.280848	brushes
-6.394791	brushing
-7.09376	brushless
-6.116037	brutal
-7.394791	brutalize
-6.61664	brutally
-7.09376	brute
-7.394791	brutish
-5.031179	bu
-5.38619	bual
-4.798193	bubble
-6.315609	bubbling
-5.99685	bubbly
-7.394791	bubby
-5.513977	buck
-7.09376	bucker
-4.545986	bucket
-6.190671	buckle
-7.394791	buckling
-6.917669	buckwheat
-6.917669	bucky
-5.741578	bud
-7.394791	buda
-7.394791	buddhi
-7.394791	budding
-4.95704	buddy
-6.440548	budge
-4.608039	budget
-5.761322	buff
-5.662397	buffalo
-5.876277	buffer
-4.533257	buffet
-7.394791	buffy
-4.884246	bug
-6.792731	bugaboo
-6.353398	bugger
-6.072571	buggy
-6.61664	bugle
-4.477811	build
-6.315609	builder
-4.195859	building
-5.058331	built
-5.876277	bulb
-6.792731	bulge
-7.09376	bulimia
-5.120633	bulk
-5.678787	bulky
-5.440548	bull
-6.052368	bulldog
-7.394791	bulldoze
-7.394791	bulldozer
-5.403564	bullet
-6.917669	bulletin
-6.61664	bulletproof
-6.917669	bullion
-6.491701	bullish
-6.549693	bullock
-5.161795	bully
-5.609461	bullying
-5.751338	bum
-6.248662	bumble
-5.932393	bumblebee
-7.09376	bummed
-6.792731	bummer
-7.09376	bumming
-5.308431	bump
-5.381954	bumper
-6.394791	bumping
-6.440548	bumpy
-5.058331	bun
-6.917669	buna
-5.089439	bunch
-6.549693	bund
-5.236428	bundle
-7.394791	bung
-5.43575	bungalow
-5.280848	bungee
-7.394791	bungy
-5.480977	bunk
-6.491701	bunker
-5.51973	bunny
-6.917669	buntal
-6.033063	bunting
-7.394791	bunton
-6.394791	buoy
-7.394791	buoyance
-6.917669	buoyancy
-6.792731	buoyant
-6.394791	bur
-7.394791	burd
-5.182603	burden
-6.695821	burdensome
-6.116037	bureau
-5.947633	bureaucracy
-6.549693	bureaucratic
-7.394791	burette
-6.917669	burg
-6.917669	burgess
-6.315609	burglar
-6.792731	burglary
-6.695821	buri
-6.353398	burial
-6.09376	buried
-6.61664	burke
-4.728273	burn
-6.033063	burned
-6.280848	burner
-5.144371	burning
-6.917669	burnout
-5.537458	burnt
-6.116037	burp
-6.09376	burrito
-7.394791	burro
-6.353398	burrow
-7.394791	burrower
-7.394791	burry
-7.09376	bursa
-5.732033	bursary
-7.394791	burse
-5.201666	burst
-5.741578	bury
-6.792731	burying
-4.024278	bus
-7.394791	busby
-4.754309	bush
-6.695821	bushy
-4.0228	business
-7.09376	businesslike
-5.531468	businessman
-6.792731	businesswoman
-6.353398	busker
-7.394791	buss
-6.164342	bust
-6.190671	busted
-6.072571	buster
-6.695821	bustle
-6.549693	bustling
-4.303124	busy
-4.926444	busybody
-6.116037	busying
-7.09376	busyness
-2.313091	but
-6.353398	butch
-4.97649	butcher
-7.09376	butchery
-6.218699	butler
-5.236428	butt
-4.800398	butter
-6.792731	butterball
-6.61664	buttercup
-6.280848	buttered
-7.394791	butterfingers
-5.066411	butterfly
-6.218699	buttermilk
-7.394791	butternut
-6.917669	butterscotch
-6.09376	buttery
-7.394791	butting
-6.315609	buttock
-4.748387	button
-7.394791	buttoned
-5.377758	buttons
-3.365042	buy
-7.394791	buyable
-5.239455	buyer
-5.815007	buzz
-6.917669	buzzer
-6.491701	buzzing
-7.09376	buzzle
-6.491701	buzzy
-3.258768	by
-3.309464	bye
-5.815007	bypass
-6.917669	bystander
-3.21249	c
-5.016393	ca
-4.904832	cab
-7.394791	caba
-6.792731	cabana
-5.61664	cabbage
-5.792731	cabby
-5.465372	cabin
-5.631363	cabinet
-4.886935	cable
-7.394791	cabling
-7.394791	caboose
-6.394791	cacao
-6.139518	cache
-7.394791	cacophony
-6.248662	cad
-7.394791	caddie
-5.803726	cadet
-7.394791	cadi
-6.353398	cafeteria
-5.815007	caffeine
-4.888286	cage
-6.353398	caged
-7.09376	caiman
-6.61664	cain
-7.394791	cajun
-4.296493	cake
-6.440548	cakey
-6.394791	cal
-7.394791	calamansi
-7.394791	calamary
-6.695821	calamity
-5.979817	calcium
-4.788409	calculate
-5.39047	calculated
-5.876277	calculating
-5.182603	calculation
-6.033063	calculative
-5.251776	calculator
-6.248662	calculus
-4.863312	calendar
-5.803726	calender
-6.218699	calf
-6.440548	caliber
-7.09376	calibrate
-7.09376	calibration
-6.61664	calibre
-7.394791	calisthenics
-3.127736	call
-5.233423	callable
-5.062352	caller
-7.394791	calligrapher
-6.072571	calligraphy
-3.620128	calling
-7.09376	callus
-4.960222	calm
-6.248662	calmer
-6.695821	calmly
-6.61664	calmness
-7.09376	caloric
-5.761322	calorie
-7.394791	calve
-6.917669	calves
-4.367441	cam
-7.09376	camaraderie
-7.09376	camber
-3.889912	came
-5.562282	camel
-6.917669	cameo
-4.618816	camera
-6.440548	cameraman
-7.394791	camomile
-6.394791	camouflage
-4.346737	camp
-5.465372	campaign
-6.695821	campaigner
-6.014579	camper
-6.549693	campfire
-7.394791	campo
-5.312006	campus
-2.394014	can
-4.935398	canada
-5.71355	canal
-6.695821	canary
-7.394791	canasta
-4.512836	cancel
-5.947633	cancellation
-4.803726	cancer
-6.072571	cancerous
-7.394791	cand
-6.695821	candid
-5.751338	candidate
-5.426308	candle
-6.353398	candlelight
-6.917669	candlelit
-7.394791	candlenut
-7.394791	candler
-4.938425	candy
-5.267686	cane
-7.09376	canel
-7.09376	canister
-6.014579	canned
-6.248662	cannibal
-6.917669	cannibalism
-5.803726	canning
-5.850723	cannon
-3.181512	cannot
-6.164342	cannula
-6.792731	canny
-5.588611	canoe
-5.695821	canoeing
-7.09376	canoeist
-5.71355	canon
-6.09376	canopy
-7.394791	canso
-5.156744	cant
-7.394791	cantata
-4.675459	canteen
-7.09376	canto
-6.917669	canton
-7.394791	cantonal
-5.979817	cantonment
-5.421663	canvas
-6.09376	canvass
-5.826589	canyon
-4.365813	cap
-5.588611	capability
-5.353398	capable
-6.61664	capacitor
-5.426308	capacity
-5.537458	cape
-7.394791	caped
-6.61664	capes
-4.682983	capital
-5.963427	capitalism
-6.792731	capitalist
-7.394791	capitalistic
-7.09376	capitalization
-7.09376	capitalize
-7.394791	capitation
-7.394791	capless
-6.61664	caplin
-5.863312	capped
-7.394791	capper
-7.09376	capping
-6.491701	caprice
-6.353398	capsicum
-6.491701	capsize
-7.09376	capstone
-5.007401	capsule
-4.981491	captain
-5.204459	caption
-7.09376	captivate
-6.792731	captivating
-6.218699	captive
-6.491701	captivity
-5.29442	capture
-3.63535	car
-5.381954	caramel
-7.09376	caramelize
-7.09376	carat
-5.903429	caravan
-5.602399	carbo
-6.190671	carbohydrate
-5.575247	carbon
-7.394791	carboxylic
-6.792731	carcass
-7.394791	carcinogen
-3.70212	card
-7.09376	cardamom
-5.51973	cardboard
-7.394791	carded
-7.09376	cardholder
-5.815007	cardiac
-6.139518	cardigan
-7.394791	cardiologist
-7.09376	cardiovascular
-6.695821	cardo
-3.775384	care
-7.394791	careen
-4.07506	career
-7.09376	careerist
-5.450308	carefree
-5.012774	careful
-5.426308	carefully
-5.581877	careless
-6.695821	carelessly
-6.549693	carelessness
-6.792731	caress
-6.353398	caretaker
-5.687221	cargo
-7.394791	caricature
-7.394791	caries
-7.09376	carillon
-7.394791	carious
-6.139518	carl
-7.394791	carless
-6.695821	carls
-6.695821	carnage
-7.394791	carnal
-7.394791	carnally
-6.218699	carnation
-5.670515	carnival
-6.394791	carnivore
-7.09376	carnivorous
-5.602399	carol
-5.979817	caroline
-6.440548	carom
-7.394791	carp
-5.889641	carpenter
-6.394791	carpentry
-5.631363	carpet
-6.353398	carr
-6.190671	carriage
-7.394791	carriageway
-5.638916	carried
-5.722693	carrier
-6.792731	carrion
-4.727338	carrot
-4.335606	carry
-4.877595	carrying
-6.61664	carsick
-5.381954	cart
-5.963427	carte
-6.190671	cartel
-5.732033	carter
-5.903429	carton
-4.913348	cartoon
-7.09376	cartoonist
-6.164342	cartridge
-6.440548	carve
-7.09376	carven
-6.695821	carving
-3.814779	case
-7.394791	caseworker
-4.109233	cash
-6.190671	cashew
-5.166904	cashier
-6.792731	cashmere
-5.670515	casing
-4.80708	casino
-7.09376	cask
-6.792731	casket
-6.695821	cass
-7.394791	casse
-6.695821	cassia
-5.193394	cast
-7.394791	castaway
-6.549693	caste
-6.164342	caster
-5.876277	casting
-4.930898	castle
-7.09376	castor
-7.394791	castrate
-5.193394	casual
-5.876277	casually
-6.190671	casualty
-4.230735	cat
-6.61664	cataclysm
-6.315609	catalogue
-5.646603	catalyst
-7.394791	catalyze
-6.190671	catapult
-6.917669	cataract
-6.549693	catastrophe
-6.917669	catastrophic
-4.345961	catch
-5.638916	catcher
-7.394791	catchiness
-5.000339	catching
-6.549693	catchment
-6.190671	catchup
-5.470511	catchy
-6.917669	cate
-7.394791	catechism
-7.394791	categorical
-7.394791	categorization
-6.116037	categorize
-5.060337	category
-5.486306	cater
-6.549693	caterer
-6.394791	caterpillar
-6.116037	catfish
-7.09376	catharsis
-7.394791	cathect
-6.491701	cathedral
-5.646603	catheter
-7.394791	cathode
-5.71355	catholic
-7.09376	catholicism
-6.61664	cation
-5.771542	cattle
-6.315609	catty
-6.695821	catwalk
-4.53028	caught
-6.491701	cauliflower
-6.917669	causal
-7.394791	causality
-6.792731	causally
-6.695821	causation
-3.084076	cause
-5.662397	causeway
-5.782007	causing
-6.792731	caustic
-7.09376	cauterize
-5.751338	caution
-5.863312	cautious
-6.792731	cavalry
-5.369485	cave
-7.394791	caveat
-6.792731	cavendish
-7.394791	cavern
-5.99685	caviar
-7.09376	caving
-6.218699	cavity
-7.394791	cavy
-6.695821	cay
-6.440548	cayenne
-6.190671	cayman
-5.815007	ce
-5.963427	cease
-7.394791	cebur
-6.353398	cedar
-7.394791	ceilidh
-5.39047	ceiling
-4.658394	celebrate
-5.662397	celebrated
-5.139518	celebration
-6.792731	celebratory
-5.154242	celebrity
-5.99685	celery
-6.61664	celeste
-5.005625	cell
-7.394791	cella
-7.09376	cellar
-7.09376	celled
-6.280848	cello
-7.394791	cellophane
-6.695821	cellular
-5.863312	cement
-5.588611	cemetery
-5.963427	censor
-6.394791	censorship
-6.917669	censure
-4.877595	cent
-7.09376	centaur
-6.695821	centennial
-4.226588	center
-6.014579	centered
-7.394791	centerpiece
-6.61664	centigrade
-6.440548	centimeter
-6.353398	centipede
-4.709945	central
-7.394791	centrale
-7.394791	centrality
-7.394791	centralization
-6.917669	centralize
-7.09376	centrally
-6.917669	centric
-5.408019	century
-7.394791	cep
-6.280848	ceramic
-6.792731	ceramics
-7.394791	cerate
-6.052368	cere
-5.062352	cereal
-7.394791	cerebellum
-6.549693	cerebral
-6.792731	ceremonial
-5.480977	ceremony
-5.947633	ceria
-7.394791	cero
-4.016211	certain
-5.43575	certainly
-6.164342	certainty
-4.527323	certificate
-5.751338	certification
-5.470511	certified
-6.033063	certify
-5.562282	certis
-7.394791	cerulean
-6.917669	cervical
-6.61664	cervix
-7.394791	cess
-7.09376	cessation
-6.917669	cession
-7.394791	ceti
-5.403564	cha
-6.792731	chad
-5.51973	chai
-4.97649	chain
-6.440548	chained
-4.332962	chair
-5.876277	chairman
-6.917669	chairwoman
-7.394791	chais
-6.917669	chakra
-5.033063	chalet
-5.889641	chalk
-7.394791	chalker
-6.917669	chalky
-4.836082	challenge
-6.164342	challenger
-6.190671	cham
-5.963427	chamber
-6.917669	chamberlain
-7.394791	chambermaid
-6.549693	chameleon
-6.014579	champ
-5.59545	champagne
-7.394791	champaign
-5.353398	champion
-6.014579	championship
-4.268659	chance
-6.917669	chancellor
-7.394791	chancery
-6.315609	chandelier
-6.695821	chandler
-5.568716	chang
-3.542494	change
-7.09376	changeable
-7.09376	changeling
-6.033063	changer
-4.633615	channel
-7.09376	channeled
-7.09376	channeling
-7.09376	chanson
-5.646603	chant
-6.218699	chanting
-5.623939	chao
-5.687221	chaos
-5.979817	chaotic
-5.803726	chap
-5.803726	chapel
-7.394791	chaperon
-7.394791	chaperone
-7.09376	chappie
-7.09376	chaps
-7.394791	chapt
-5.25807	chapter
-4.793818	char
-7.09376	charac
-4.229547	character
-5.179947	characteristic
-7.394791	characteristically
-7.394791	characterization
-6.695821	charade
-5.654428	charcoal
-6.917669	chard
-7.394791	chare
-4.298228	charge
-6.917669	chargeable
-5.431003	charger
-5.373601	charging
-7.394791	chariot
-6.190671	charisma
-6.218699	charismatic
-6.315609	charitable
-4.97649	charity
-7.394791	chark
-7.09376	charlatan
-5.687221	charm
-6.491701	charmer
-5.301369	charming
-7.394791	charmingly
-7.394791	charr
-5.031179	chart
-5.903429	charter
-5.060337	chartered
-6.792731	charting
-4.808203	chase
-6.394791	chaser
-5.254911	chasing
-7.394791	chassis
-4.596831	chat
-7.394791	chateau
-6.549693	chatter
-6.440548	chatterbox
-7.394791	chattering
-5.537458	chatting
-6.218699	chatty
-6.394791	chauffeur
-7.09376	chauvinism
-7.394791	chauvinist
-7.09376	chauvinistic
-7.394791	chaw
-7.394791	chay
-5.670515	che
-4.119019	cheap
-6.440548	cheaply
-4.917669	cheat
-5.917669	cheater
-5.095938	cheating
-3.400386	check
-7.394791	checkable
-4.855715	checked
-6.394791	checker
-7.394791	checkerboard
-6.116037	checkered
-6.917669	checkers
-6.695821	checkmate
-5.903429	checkup
-5.5083	chee
-5.236428	cheek
-6.917669	cheekbone
-7.394791	cheekiness
-5.751338	cheeky
-5.179947	cheer
-6.792731	cheered
-5.513977	cheerful
-6.917669	cheerfulness
-5.850723	cheering
-7.394791	cheerleader
-6.218699	cheery
-4.232525	cheese
-6.549693	cheeseburger
-5.450308	cheesecake
-5.497164	cheesy
-5.304885	cheetah
-4.709049	chef
-5.036856	chemical
-6.695821	chemically
-6.917669	chemis
-6.440548	chemist
-4.764363	chemistry
-6.164342	chemotherapy
-5.349468	cheng
-5.212947	cheque
-5.602399	cherish
-5.20727	cherry
-6.792731	cherub
-5.290987	chess
-7.394791	chessman
-4.395225	chest
-6.315609	chester
-7.09376	chesterfield
-5.979817	chestnut
-6.61664	chesty
-6.164342	chevron
-7.394791	chevy
-5.230438	chew
-5.662397	chewy
-5.193394	chi
-5.850723	chia
-5.979817	chic
-5.486306	chick
-3.779262	chicken
-5.623939	chief
-7.394791	chiefly
-7.09376	chien
-6.792731	chiffon
-6.394791	chil
-3.488132	child
-7.394791	childbearing
-6.248662	childbirth
-4.224529	childhood
-5.365407	childish
-6.440548	childlike
-6.052368	chile
-4.826589	chili
-4.451791	chill
-5.979817	chilled
-6.491701	chiller
-5.555942	chilling
-7.394791	chillness
-6.033063	chilly
-7.09376	chimaera
-7.09376	chime
-7.394791	chimera
-6.164342	chimney
-6.440548	chimpanzee
-5.215814	chin
-3.905958	china
-7.394791	chinchilla
-6.695821	chine
-5.670515	ching
-6.917669	chink
-6.61664	chino
-5.127619	chip
-6.61664	chipmunk
-7.09376	chipped
-7.394791	chipping
-4.971545	chips
-6.917669	chiropractic
-6.695821	chiropractor
-7.09376	chirp
-5.450308	chit
-6.917669	chitchat
-7.09376	chitty
-7.394791	chivalrous
-6.792731	chivalry
-7.09376	chloride
-6.033063	chlorine
-7.394791	chloroform
-6.248662	cho
-7.394791	chock
-4.494423	chocolate
-4.189045	choice
-5.233423	choir
-5.016393	choke
-5.014579	choker
-5.227473	choking
-7.394791	cholecystitis
-7.09376	cholera
-5.670515	cholesterol
-5.290987	chomp
-3.817759	choose
-5.465372	choosing
-6.033063	choosy
-4.73109	chop
-6.917669	chopin
-6.116037	chopped
-5.761322	chopper
-5.575247	chopping
-6.014579	choppy
-6.014579	chopstick
-6.917669	choral
-5.932393	chord
-5.076727	chore
-7.394791	chorea
-6.491701	choreograph
-6.792731	choreographer
-6.315609	choreography
-5.782007	chorus
-5.020042	chose
-5.445401	chosen
-5.403564	chow
-6.917669	chowder
-5.43575	chrome
-7.394791	chromo
-6.917669	chromosome
-7.394791	chromotherapy
-5.863312	chronic
-7.394791	chronically
-6.61664	chronicle
-7.09376	chronograph
-6.695821	chronological
-7.394791	chrysalis
-6.218699	chrysanthemum
-5.979817	chubby
-5.771542	chuck
-7.394791	chuckle
-6.190671	chucky
-6.917669	chug
-6.61664	chulan
-7.09376	chum
-7.394791	chummy
-5.678787	chun
-5.863312	chunk
-6.164342	chunky
-4.594074	church
-7.09376	churlish
-6.491701	churn
-7.09376	churning
-5.357364	chute
-6.917669	chutney
-6.353398	cicada
-7.394791	cicely
-6.139518	cider
-6.033063	cigar
-5.227473	cigarette
-6.792731	cilia
-6.695821	cinder
-6.394791	cine
-4.913348	cinema
-6.052368	cinematic
-6.549693	cinematography
-6.052368	cinnamon
-7.09376	cinque
-7.394791	circa
-3.807529	circle
-5.440548	circled
-5.602399	circling
-5.315609	circuit
-5.319244	circular
-6.116037	circulate
-5.932393	circulation
-6.248662	circumference
-6.315609	circumstance
-7.394791	circumstantial
-7.09376	circumvent
-5.5083	circus
-6.917669	cirque
-7.09376	cirrus
-5.741578	cisco
-6.218699	cit
-7.394791	citadel
-6.164342	citation
-5.127619	cite
-5.361367	citer
-4.450308	citizen
-4.732978	citizenship
-6.491701	citrus
-4.106765	city
-7.394791	cityscape
-5.815007	civic
-6.792731	civics
-5.174683	civil
-6.014579	civilian
-7.394791	civility
-5.850723	civilization
-6.917669	civilize
-5.850723	civilized
-7.394791	civilly
-7.394791	clad
-7.394791	clag
-4.017303	claim
-5.076727	claimable
-7.09376	claimant
-7.394791	claimer
-5.722693	clam
-7.394791	clamber
-6.695821	clammy
-6.315609	clamp
-5.662397	clan
-7.09376	clandestine
-7.394791	clang
-5.480977	clap
-6.394791	clapping
-7.09376	claret
-5.678787	clarification
-5.07882	clarify
-6.491701	clarinet
-7.394791	clarinetist
-6.072571	clarity
-5.695821	clark
-5.549693	clash
-3.910206	class
-7.394791	classable
-7.394791	classer
-4.561007	classes
-5.129973	classic
-5.440548	classical
-7.394791	classically
-6.052368	classification
-5.678787	classified
-7.09376	classism
-5.029303	classmate
-4.889641	classroom
-7.394791	classwork
-5.850723	classy
-6.072571	clause
-6.917669	claustrophobia
-5.450308	claw
-7.394791	clawed
-5.274217	clay
-6.61664	claymore
-4.270939	clean
-5.068455	cleaner
-4.834884	cleaning
-5.876277	cleanliness
-6.917669	cleanly
-6.917669	cleanness
-5.722693	cleanse
-5.465372	cleanser
-6.248662	cleansing
-6.491701	cleanup
-4.243421	clear
-5.979817	clearance
-5.826589	clearer
-5.190671	clearing
-4.90624	clearly
-7.09376	cleavage
-7.394791	cleave
-5.979817	cleaver
-7.394791	clef
-7.09376	cleft
-7.09376	clemency
-5.932393	clement
-6.491701	clench
-6.792731	clerical
-5.365407	clerk
-5.322909	clever
-5.581877	cliche
-4.307364	click
-4.640442	client
-7.09376	clientele
-5.609461	cliff
-5.491701	climate
-7.09376	climatic
-5.863312	climax
-4.704595	climb
-5.803726	climber
-5.029303	climbing
-6.695821	clinch
-7.09376	cline
-6.072571	cling
-6.549693	clinging
-6.09376	clingy
-4.687221	clinic
-6.052368	clinical
-7.394791	clinician
-7.09376	clink
-6.491701	clint
-5.345572	clip
-6.917669	clipped
-6.353398	clipper
-5.782007	clips
-5.023723	clique
-7.09376	cliquish
-7.394791	clive
-6.491701	cloak
-7.09376	cloaking
-6.072571	cloakroom
-4.765381	clock
-6.792731	clocked
-5.245572	clockwise
-6.917669	clockwork
-6.353398	clog
-5.575247	clone
-3.786907	close
-4.591333	closed
-5.021879	closely
-6.440548	closeness
-4.770509	closer
-6.072571	closet
-5.59545	closure
-6.315609	clot
-4.715363	cloth
-6.139518	clothe
-4.304533	clothes
-7.394791	clotheshorse
-6.917669	clothesline
-5.005625	clothing
-4.909069	cloud
-6.695821	cloudburst
-6.549693	clouded
-6.549693	clouding
-5.889641	cloudy
-7.394791	clout
-7.09376	clouted
-7.09376	clove
-6.440548	clover
-5.704595	clown
-7.394791	cloying
-4.16974	club
-6.61664	clubber
-5.187965	clubbing
-6.917669	clubby
-6.695821	clubhouse
-7.09376	clubroom
-7.394791	cluck
-5.233423	clue
-6.792731	clump
-7.394791	clumpy
-7.394791	clumsily
-7.09376	clumsiness
-5.863312	clumsy
-7.394791	clung
-5.242502	cluster
-6.695821	clustered
-6.353398	clustering
-5.751338	clutch
-6.394791	clutter
-4.817299	coach
-5.450308	coaching
-7.394791	coagulant
-7.09376	coagulate
-7.09376	coagulation
-5.850723	coal
-7.394791	coalition
-7.09376	coaming
-6.394791	coarse
-4.818449	coast
-5.838488	coastal
-4.99167	coaster
-7.09376	coasting
-5.38619	coat
-6.695821	coated
-6.394791	coating
-6.792731	coauthor
-7.09376	coax
-7.394791	coaxing
-7.394791	cob
-7.394791	cobalt
-7.09376	cobber
-6.917669	cobble
-6.190671	cobra
-6.792731	cobweb
-5.850723	coca
-6.491701	cocaine
-7.394791	coccus
-7.394791	cochlear
-5.20727	cock
-7.394791	cockatoo
-6.917669	cocked
-6.61664	cocker
-7.394791	cockeye
-6.394791	cockle
-6.792731	cockney
-6.440548	cockpit
-5.144371	cockroach
-5.654428	cocktail
-5.513977	cocky
-5.050398	coco
-5.631363	cocoa
-5.09376	coconut
-7.09376	cocoon
-6.116037	cod
-7.394791	coddle
-4.070302	code
-6.491701	codeine
-5.525559	coder
-7.394791	codfish
-7.394791	codify
-6.440548	coe
-7.394791	coed
-7.394791	coeducational
-6.61664	coexist
-4.137833	coffee
-6.139518	coffeehouse
-7.394791	coffer
-5.678787	coffin
-7.394791	cog
-6.792731	cognition
-6.139518	cognitive
-7.394791	cognitively
-7.394791	cohabit
-7.394791	cohere
-7.09376	coherence
-6.139518	coherent
-7.394791	coherently
-6.695821	cohesion
-6.917669	cohesive
-7.394791	cohesively
-7.09376	cohesiveness
-5.670515	cohort
-6.248662	coil
-5.129973	coin
-6.139518	coincide
-4.851965	coincidence
-5.815007	coincident
-6.394791	coincidental
-5.815007	coincidentally
-6.440548	coincidently
-7.394791	coir
-5.029303	coke
-6.61664	coker
-7.394791	coking
-6.116037	col
-5.450308	cola
-7.394791	colander
-4.186081	cold
-5.932393	colder
-7.394791	coldly
-6.218699	coldness
-6.917669	cole
-5.771542	coleslaw
-6.792731	coli
-7.09376	colic
-5.695821	colin
-6.917669	coll
-5.876277	collaborate
-5.932393	collaboration
-6.917669	collaborative
-7.394791	collaborator
-6.280848	collage
-6.164342	collagen
-5.319244	collapse
-7.09376	collapsible
-5.588611	collar
-6.394791	collarbone
-7.394791	collared
-7.394791	collarless
-6.315609	collate
-6.440548	collateral
-7.394791	collation
-4.493878	colleague
-4.272903	collect
-6.917669	collectable
-5.204459	collected
-6.353398	collectible
-4.899246	collection
-5.695821	collective
-6.394791	collectively
-6.116037	collectivism
-5.751338	collector
-4.932393	college
-7.394791	collegiate
-7.394791	collet
-6.491701	collide
-6.792731	collie
-6.190671	collin
-6.116037	collins
-6.280848	collision
-6.695821	colloquial
-6.09376	colon
-6.218699	colonel
-6.248662	colonial
-7.09376	colonialism
-7.394791	colonist
-7.394791	colonize
-6.917669	colonoscopy
-6.280848	colony
-3.927479	color
-6.61664	colorado
-7.394791	coloratura
-5.513977	colored
-7.394791	colorfast
-5.732033	colorful
-6.549693	colorfully
-6.394791	coloring
-7.394791	colorize
-6.549693	colorless
-5.254911	colors
-7.394791	colossal
-3.455122	colour
-6.440548	colt
-7.09376	colugo
-7.394791	columbarium
-5.353398	column
-6.917669	columnist
-7.394791	coly
-5.575247	coma
-7.394791	comatose
-5.609461	comb
-5.623939	combat
-5.033063	combination
-4.989957	combine
-5.421663	combined
-5.782007	combing
-6.917669	combining
-6.549693	combustion
-7.394791	comby
-3.237032	come
-5.803726	comeback
-5.695821	comedian
-6.440548	comedic
-4.892364	comedy
-7.394791	comely
-5.99685	comer
-4.202502	comes
-7.394791	comet
-4.466395	comfort
-4.331833	comfortable
-5.732033	comfortably
-6.695821	comforter
-5.947633	comforting
-6.218699	comfy
-5.277519	comic
-6.549693	comical
-3.922913	coming
-5.695821	comma
-5.417067	command
-5.687221	commander
-6.549693	commanding
-5.71355	commando
-6.695821	commemorate
-6.792731	commence
-6.491701	commencement
-6.61664	commend
-6.491701	commendable
-7.394791	commendator
-4.983171	comment
-5.889641	commentary
-6.549693	commentator
-6.917669	commenter
-5.963427	commerce
-5.025575	commercial
-7.394791	commercialization
-6.218699	commercialize
-5.040682	commission
-7.394791	commissional
-5.979817	commissioner
-5.027435	commit
-5.020042	commitment
-4.950746	committee
-6.315609	commodity
-4.365407	common
-6.917669	commonality
-7.09376	commoner
-5.838488	commonly
-6.549693	commonplace
-6.917669	commons
-7.394791	commonweal
-5.242502	commonwealth
-6.190671	commotion
-6.164342	communal
-7.09376	commune
-6.792731	communicable
-4.886935	communicate
-5.850723	communicating
-4.930898	communication
-5.761322	communicative
-6.61664	communicator
-7.394791	communion
-5.99685	communism
-6.09376	communist
-6.792731	communistic
-4.566131	community
-6.394791	commute
-6.549693	commuter
-6.549693	commuting
-5.654428	compact
-7.394791	compacted
-7.394791	compactness
-6.61664	compactor
-5.417067	companion
-7.394791	companionable
-5.863312	companionship
-3.742544	company
-5.889641	comparable
-7.394791	comparably
-6.280848	comparative
-6.248662	comparatively
-4.482569	compare
-5.455271	comparison
-7.394791	compart
-6.280848	compartment
-6.917669	compartmentalize
-5.803726	compass
-5.741578	compassion
-6.052368	compassionate
-6.549693	compatibility
-5.99685	compatible
-6.792731	compel
-7.09376	compelling
-5.513977	compensate
-6.917669	compensating
-5.623939	compensation
-5.357364	compete
-5.876277	competence
-6.353398	competency
-5.932393	competent
-4.748387	competition
-4.968279	competitive
-6.549693	competitively
-6.190671	competitiveness
-5.917669	competitor
-6.491701	compilation
-5.695821	compile
-6.315609	compiler
-7.394791	complacency
-6.033063	complacent
-4.275535	complain
-6.695821	complainant
-6.792731	complainer
-5.301369	complaint
-7.394791	complaisance
-6.072571	complement
-6.917669	complementary
-4.587933	complete
-4.838488	completely
-7.394791	completeness
-7.394791	completer
-5.61664	completion
-5.018214	complex
-6.549693	complexion
-6.440548	complexity
-6.218699	compliance
-6.549693	compliant
-6.440548	complicate
-5.010975	complicated
-5.792731	complication
-5.732033	compliment
-6.139518	complimentary
-6.139518	comply
-5.917669	compo
-5.761322	component
-7.394791	compos
-5.903429	compose
-6.014579	composed
-6.353398	composer
-6.917669	composite
-5.588611	composition
-6.792731	compost
-6.917669	composure
-5.450308	compound
-7.394791	compounder
-6.549693	compounding
-6.033063	comprehend
-5.687221	comprehension
-5.792731	comprehensive
-6.014579	compress
-6.695821	compressed
-5.963427	compression
-6.315609	compressor
-6.61664	comprise
-7.394791	comprised
-5.5083	compromise
-6.440548	compromising
-7.394791	compulsion
-6.491701	compulsive
-5.089439	compulsory
-6.315609	computation
-6.61664	computational
-5.782007	compute
-4.20502	computer
-6.394791	comrade
-7.394791	comradery
-4.603802	con
-6.353398	concave
-6.394791	conceal
-7.09376	concealed
-5.513977	concealer
-6.353398	concede
-7.09376	conceded
-7.394791	conceit
-7.394791	conceited
-7.09376	conceivable
-6.190671	conceive
-5.20727	concentrate
-5.917669	concentrated
-5.005625	concentration
-6.353398	concentrator
-7.09376	concentric
-4.783067	concept
-6.549693	conception
-6.549693	conceptual
-7.394791	conceptually
-4.787336	concern
-5.301369	concerned
-6.09376	concerning
-4.565487	concert
-7.09376	concerted
-7.394791	concertgoer
-7.09376	concerto
-5.417067	concession
-6.549693	conch
-6.695821	concierge
-7.394791	conciliatory
-6.353398	concise
-7.394791	concisely
-5.903429	conclude
-7.394791	concluding
-5.38619	conclusion
-7.394791	conclusive
-7.394791	conclusively
-7.394791	concoction
-7.394791	concordance
-6.190671	concourse
-5.450308	concrete
-6.440548	concubine
-6.695821	concur
-7.09376	concurrence
-6.61664	concurrent
-6.052368	concurrently
-7.394791	concurring
-6.792731	concuss
-6.248662	concussion
-5.134719	cond
-5.761322	condemn
-7.394791	condemnation
-6.695821	condemned
-7.09376	condemning
-6.695821	condensation
-6.248662	condense
-5.815007	condensed
-7.394791	condenser
-5.631363	condescending
-6.61664	condiment
-4.609461	condition
-5.287581	conditional
-7.09376	conditionally
-5.947633	conditioned
-5.543532	conditioner
-7.394791	condolence
-5.431003	condominium
-7.394791	condone
-7.394791	condoner
-5.815007	conducive
-5.308431	conduct
-6.792731	conduction
-6.917669	conductivity
-5.687221	conductor
-5.25807	cone
-6.353398	cones
-6.917669	confection
-5.267686	conference
-5.486306	confess
-6.440548	confessing
-5.903429	confession
-6.280848	confide
-5.040682	confidence
-4.930898	confident
-5.51973	confidential
-6.394791	confidentiality
-6.61664	confidentially
-6.491701	confidently
-6.280848	configuration
-6.491701	configure
-6.014579	confine
-6.139518	confined
-5.979817	confinement
-7.09376	confining
-3.908219	confirm
-4.693223	confirmation
-5.111489	confirmed
-6.248662	confirming
-6.280848	confiscate
-5.357364	conflict
-6.09376	conflicting
-6.072571	conform
-7.394791	conformist
-7.394791	conformity
-7.09376	confound
-5.792731	confront
-6.61664	confrontation
-5.127619	confuse
-4.889641	confused
-5.71355	confusion
-6.917669	conga
-6.440548	congee
-6.792731	congest
-6.440548	congested
-6.315609	congestion
-6.61664	congestive
-7.09376	conglomerate
-5.979817	congratulate
-5.815007	congratulation
-7.394791	congratulatory
-6.792731	congregate
-6.792731	congregation
-6.549693	congress
-6.695821	congressional
-6.248662	congressman
-7.394791	congruence
-7.394791	congruency
-7.394791	congruent
-7.394791	coniferous
-7.394791	conjecture
-6.280848	conjunction
-7.394791	conjunctive
-6.695821	conjure
-7.09376	conn
-6.917669	connaught
-4.862036	connect
-5.080924	connected
-5.000339	connection
-6.353398	connective
-6.394791	connectivity
-5.741578	connector
-7.394791	conner
